{"version": "0.7.0", "metadata": {"date": {"year": 2026, "month": 6, "day": 29, "hour": 23, "minute": 55, "second": 59}, "loudness": -13.418937325579797, "gain": 0.6404318045066022, "training": {"settings": {"ignore_checks": false}, "data": {"latency": {"manual": null, "calibration": {"algorithm_version": 1, "delays": [-17], "safety_factor": 1, "recommended": -18, "warnings": {"matches_lookahead": false, "disagreement_too_high": false, "not_detected": false}}}, "checks": {"version": 3, "passed": true}}, "validation_esr": null}}, "architecture": "SlimmableContainer", "config": {"submodels": [{"max_value": 0.5, "model": {"version": "0.7.0", "metadata": {"date": {"year": 2026, "month": 6, "day": 29, "hour": 23, "minute": 55, "second": 57}, "loudness": -13.773249268633997, "gain": 0.6401037304331504}, "architecture": "WaveNet", "config": {"layers": [{"input_size": 1, "condition_size": 1, "head": {"out_channels": 1, "kernel_size": 16, "bias": true}, "channels": 3, "kernel_sizes": [6, 6, 6, 6, 6, 6, 6, 6, 6, 6, 6, 6, 6, 6, 15, 15, 6, 6, 6, 6, 6, 6, 6], "dilations": [1, 3, 7, 17, 41, 101, 239, 1, 3, 7, 17, 41, 101, 239, 1, 13, 1, 3, 7, 17, 41, 101, 239], "activation": [{"type": "LeakyReLU", "negative_slope": 0.01}, {"type": "LeakyReLU", "negative_slope": 0.01}, {"type": "LeakyReLU", "negative_slope": 0.01}, {"type": "LeakyReLU", "negative_slope": 0.01}, {"type": "LeakyReLU", "negative_slope": 0.01}, {"type": "LeakyReLU", "negative_slope": 0.01}, {"type": "LeakyReLU", "negative_slope": 0.01}, {"type": "LeakyReLU", "negative_slope": 0.01}, {"type": "LeakyReLU", "negative_slope": 0.01}, {"type": "LeakyReLU", "negative_slope": 0.01}, {"type": "LeakyReLU", "negative_slope": 0.01}, {"type": "LeakyReLU", "negative_slope": 0.01}, {"type": "LeakyReLU", "negative_slope": 0.01}, {"type": "LeakyReLU", "negative_slope": 0.01}, {"type": "LeakyReLU", "negative_slope": 0.01}, {"type": "LeakyReLU", "negative_slope": 0.01}, {"type": "LeakyReLU", "negative_slope": 0.01}, {"type": "LeakyReLU", "negative_slope": 0.01}, {"type": "LeakyReLU", "negative_slope": 0.01}, {"type": "LeakyReLU", "negative_slope": 0.01}, {"type": "LeakyReLU", "negative_slope": 0.01}, {"type": "LeakyReLU", "negative_slope": 0.01}, {"type": "LeakyReLU", "negative_slope": 0.01}], "bottleneck": 3, "head1x1": {"active": false, "out_channels": 1, "groups": 1}, "layer1x1": {"active": true, "groups": 1}, "groups_input": 1, "groups_input_mixin": 1, "conv_pre_film": {"active": false, "shift": true, "groups": 1}, "conv_post_film": {"active": false, "shift": true, "groups": 1}, "input_mixin_pre_film": {"active": false, "shift": true, "groups": 1}, "input_mixin_post_film": {"active": false, "shift": true, "groups": 1}, "activation_pre_film": {"active": false, "shift": true, "groups": 1}, "activation_post_film": {"active": false, "shift": true, "groups": 1}, "layer1x1_post_film": {"active": false, "shift": true, "groups": 1}, "head1x1_post_film": {"active": false, "shift": true, "groups": 1}, "gating_mode": ["none", "none", "none", "none", "none", "none", "none", "none", "none", "none", "none", "none", "none", "none", "none", "none", "none", "none", "none", "none", "none", "none", "none"], "secondary_activation": [null, null, null, null, null, null, null, null, null, null, null, null, null, null, null, null, null, null, null, null, null, null, null], "slimmable": null}], "head": null, "head_scale": 0.008983286447602542}, "weights": [-0.11786744743585587, -0.9647039771080017, -0.9161820411682129, 0.06633714586496353, -0.00040507211815565825, -0.001337865018285811, 0.1009240448474884, -0.06628800183534622, -0.053008463233709335, 0.2800554633140564, 0.008035601116716862, 0.10039196163415909, 0.18427398800849915, -0.208158940076828, -0.21642564237117767, 0.2624490261077881, 0.12336178869009018, 0.035153333097696304, 0.3746509850025177, -0.2589874863624573, -0.10737207531929016, -0.03051714599132538, 0.06550814211368561, -0.08240542560815811, -0.3142796456813812, 0.03988087922334671, 0.2328745573759079, -0.0390671044588089, -0.12496652454137802, -0.17830969393253326, -0.5826357007026672, -0.07019233703613281, 0.6098109483718872, 0.006401540245860815, 0.00817125104367733, 0.0072174835950136185, -0.2864273488521576, 0.2070539891719818, 0.5289281606674194, -0.08535527437925339, -0.21497289836406708, -0.1698828935623169, -0.04314807429909706, -0.24188309907913208, 0.06548403948545456, -0.06341686844825745, 0.012711158953607082, -0.22863072156906128, 0.0625707283616066, -0.05975070595741272, 0.29411956667900085, -0.09353919327259064, -0.11769058555364609, -0.050603851675987244, -0.03771831467747688, -0.3238926827907562, 0.1413774937391281, -0.0613495334982872, 0.03223260119557381, 0.272832453250885, 0.42137056589126587, 0.05958975851535797, 0.061734821647405624, -0.2737983465194702, 0.3057894706726074, -0.007707093842327595, -0.634236216545105, 0.7105191946029663, 0.04009184241294861, 0.021110130473971367, 0.004538124427199364, -0.3894828259944916, 0.21626093983650208, -0.46289053559303284, -0.14338338375091553, -0.3477962017059326, -0.012583371251821518, -0.006838301662355661, 0.07653021812438965, 0.23403996229171753, -0.17891570925712585, 0.005648430436849594, 0.10356287658214569, 0.09902436286211014, 0.017862927168607712, -0.16563519835472107, -0.5121830105781555, 0.2999677062034607, 0.45437926054000854, 0.2545665502548218, 0.3979858458042145, -0.10690714418888092, -0.49443379044532776, 0.16867491602897644, 0.12062472105026245, 0.19214589893817902, -0.13477550446987152, 0.28780996799468994, -0.08258834481239319, -0.011279871687293053, -0.432841956615448, -0.37343600392341614, -0.2121458500623703, -0.32873591780662537, 0.0027167610824108124, -0.23975884914398193, -0.09989255666732788, 0.03530818223953247, 0.05501852184534073, -0.18818479776382446, -0.1945575773715973, 0.08106216788291931, 0.2634854018688202, 0.06099822372198105, 0.11343309283256531, 0.21812252700328827, 0.2169397473335266, -0.10728135704994202, 0.23600637912750244, -0.06983684003353119, 0.16599200665950775, -0.15342964231967926, -0.18208731710910797, -0.11865156143903732, -0.001697651925496757, 0.12285266816616058, -0.07551412284374237, 0.17103464901447296, 0.2117546647787094, 0.2597607374191284, 0.3941873013973236, 0.21374353766441345, 0.43395906686782837, 0.48976367712020874, 0.876518189907074, -0.5887761116027832, 0.2948184311389923, -0.32690921425819397, -0.6225920915603638, 0.48485618829727173, 0.23001162707805634, -0.5901932120323181, -0.6570547819137573, -0.28381267189979553, 0.37928318977355957, -0.23000481724739075, 0.21613644063472748, 0.025864163413643837, -0.15885840356349945, -0.07547145336866379, -0.08181953430175781, -0.21741518378257751, -0.07032380998134613, 0.12603047490119934, 0.2504117786884308, 0.23724640905857086, 0.222330704331398, 0.13433966040611267, 0.12717096507549286, 0.011532852426171303, 0.21238911151885986, 0.3974917531013489, 0.36625200510025024, 0.1861860156059265, -0.027190832421183586, -0.05624433979392052, -0.06468643993139267, -0.08237267285585403, -0.14871381223201752, 0.0025627457071095705, 0.1432948261499405, 0.177964985370636, 0.1502118557691574, 0.01345751341432333, -0.0075588710606098175, 0.1144157275557518, 0.24763435125350952, -0.10098300129175186, 0.01236775703728199, 0.02424829825758934, 0.10663025826215744, -0.06581740826368332, -0.019000383093953133, -0.03654708340764046, 0.07932837307453156, -0.10272976756095886, 0.20109356939792633, -0.006184921599924564, 0.07761020958423615, -0.025748921558260918, -0.06888321042060852, 0.1101531833410263, -0.074118472635746, 0.2741803228855133, 0.09093967825174332, 0.051820315420627594, -0.019431371241807938, -0.11284417659044266, -0.2154579758644104, -0.4844156503677368, 0.07384727150201797, -0.06932700425386429, -0.03624649718403816, 0.14761729538440704, -0.5062894821166992, -0.12461357563734055, -0.9674750566482544, -0.07871148735284805, 0.19434897601604462, -0.06485011428594589, -0.5935718417167664, 0.2755140960216522, 0.3886399567127228, -0.19612444937229156, 0.16288594901561737, 0.5206617712974548, 0.18805068731307983, -0.15150034427642822, 0.45858341455459595, -0.17961333692073822, -0.3601182997226715, -0.13202060759067535, -0.20313310623168945, -0.23883278667926788, -0.21485349535942078, 0.014277896843850613, -0.3857341706752777, -0.067406065762043, -0.09701475501060486, -0.08394279330968857, -0.10861392319202423, -0.04594609513878822, 0.45959487557411194, -0.0017022256506606936, -0.021795140579342842, -0.23069623112678528, -0.004080658312886953, -0.05883254483342171, -0.09203494340181351, -0.034498486667871475, -0.0819706916809082, -0.06071808934211731, 0.24001631140708923, 0.22374841570854187, 0.04406934231519699, -0.09402483701705933, -0.30362918972969055, 0.013160403817892075, 0.06264284998178482, -0.19910427927970886, 0.04627181962132454, 0.0794125646352768, 0.3671993315219879, -0.3122979998588562, 0.00628844415768981, -0.08983775973320007, 0.005729545373469591, -0.15026280283927917, -0.06734880805015564, 0.14873386919498444, -0.23328445851802826, 0.08611821383237839, 0.04905145615339279, 0.11418801546096802, 0.18925930559635162, 0.18974941968917847, -0.12409952282905579, -0.04251546412706375, -0.03599435091018677, -0.049932606518268585, -0.16259585320949554, -0.3002462685108185, 0.4688352048397064, -0.18558183312416077, 0.02101864479482174, -0.19516852498054504, 0.020718218758702278, 0.2065781205892563, -0.39174380898475647, 0.2417069673538208, 0.2290952056646347, 0.12560626864433289, 0.6767234802246094, 0.0956839770078659, -0.3139721155166626, 0.40615758299827576, -0.06654845178127289, -0.26802411675453186, -0.27101439237594604, -0.40478649735450745, 0.47187113761901855, 0.03857105225324631, -0.059267111122608185, -0.0494820810854435, 0.014605902135372162, -0.15812119841575623, -0.15318217873573303, -0.03487355634570122, 0.024720843881368637, 0.02378474920988083, 0.005917615722864866, 0.07138269394636154, -0.44566038250923157, 0.012043705210089684, 0.0038963682018220425, -0.007850555703043938, 0.001706920564174652, 0.011874583549797535, -0.21520915627479553, 0.11512352526187897, -0.07102035731077194, 0.01747925952076912, -0.00011870638991240412, 0.09127231687307358, -0.018010850995779037, -0.08398163318634033, 0.01762823760509491, -0.009954873472452164, -0.01979970745742321, -0.17681391537189484, 0.3146534860134125, 0.026480723172426224, -0.0005252650007605553, -0.006903945002704859, 0.05750459432601929, 0.0975097194314003, -0.06590581685304642, 0.14308401942253113, -0.05402781814336777, 0.2065751850605011, 0.21700425446033478, -0.016933061182498932, -0.1424776315689087, -0.12819136679172516, -0.0647989958524704, -0.20579729974269867, -0.28862717747688293, -0.30669543147087097, -0.008682552725076675, 0.0581953302025795, 0.05926933139562607, 0.040047477930784225, 0.2113664150238037, 0.1412300318479538, 0.07574935257434845, -0.03906833752989769, -0.15587353706359863, 0.3055414855480194, -0.2139328420162201, 0.3543965518474579, 0.08536811918020248, 0.3102778196334839, 0.18724681437015533, 0.10130901634693146, -0.3367272913455963, -0.06563839316368103, 0.22440756857395172, 0.2428828328847885, 0.0072102658450603485, -0.1147841140627861, -0.26732149720191956, -0.10747386515140533, 0.25728970766067505, 0.0002784304670058191, -0.0061465101316571236, 0.019801124930381775, -0.07116984575986862, 0.0780612975358963, 0.13015957176685333, 0.009851282462477684, 0.011908297426998615, -0.006171047687530518, 0.058027058839797974, -0.15368594229221344, -0.049848802387714386, -0.005294071976095438, -0.001222969382070005, 0.006916859652847052, -0.03108387440443039, 0.0982067734003067, 0.3956388235092163, -0.025361113250255585, -0.05167657509446144, -0.05920589715242386, -0.061215467751026154, -0.025530969724059105, -0.3468329906463623, 0.02185337245464325, 0.02887808158993721, 0.03860483318567276, 0.01026657223701477, 0.016989441588521004, -0.33522725105285645, -0.002997233299538493, -0.005694695748388767, -0.000627670728135854, -0.0015010928036645055, -0.02192462980747223, -0.03719215467572212, -0.005875859875231981, 0.028239747509360313, 0.028714707121253014, 0.0039362069219350815, -0.0008619202999398112, -0.4190511405467987, 0.0067987218499183655, -0.010097943246364594, -0.009940527379512787, -0.00377204199321568, 0.014416803605854511, -0.6603650450706482, -0.0030300430953502655, 0.002009602030739188, 0.0006473313551396132, 0.0017508127493783832, -0.016504378989338875, -0.336295485496521, -0.04553302004933357, 0.17482489347457886, 0.12931407988071442, 0.5895317196846008, 0.16500452160835266, -0.32740214467048645, 0.19410133361816406, 0.08641073852777481, 0.6881839632987976, 0.22957003116607666, 0.20918992161750793, 0.4681578278541565, -0.16817538440227509, -0.1712714582681656, 0.21429172158241272, -0.4746611714363098, -0.04562658444046974, -0.41263657808303833, -0.024266952648758888, -0.057976044714450836, 0.004738453309983015, -0.0062787700444459915, -0.0260863546282053, -0.2446054220199585, 0.024035649374127388, 0.018734579905867577, 0.005175426602363586, 0.02527753822505474, 0.018320323899388313, 0.05079454556107521, -0.018531154841184616, -0.014841732569038868, -0.0231399517506361, -0.02747960016131401, -0.009583097882568836, 0.29841992259025574, -0.014762956649065018, -0.013649558648467064, -0.015594342723488808, 0.015855837613344193, 0.04176534712314606, -0.09708409011363983, -0.012640796601772308, -0.0025518799666315317, -8.15480962046422e-06, -0.01353722345083952, -0.04924673214554787, 0.2772984802722931, -0.019702741876244545, -0.025866791605949402, -0.02052457630634308, -0.010735525749623775, 0.03888451308012009, -0.15531863272190094, 0.002488664584234357, 0.005315760150551796, -0.0016089605633169413, -0.0011652256362140179, 0.012339230626821518, 0.4401467442512512, 0.0018485451582819223, 0.0023208658676594496, 0.002231732476502657, 0.00023374408192466944, -0.010373293422162533, 0.566095769405365, -0.00297842756845057, -0.0011370080756023526, -0.001666369615122676, -0.0009658037452027202, 0.004104148130863905, 0.2026662677526474, 0.0017862479435279965, 0.0574738048017025, 0.09519027918577194, -0.04641333222389221, 0.004538948647677898, 0.13163307309150696, 0.13920320570468903, 0.14362159371376038, 0.1274126172065735, 0.012980751693248749, 0.007887576706707478, 0.4496425688266754, 0.06715996563434601, 0.030720552429556847, 0.21760156750679016, 0.2558252811431885, -0.2798202335834503, 0.09956727921962738, -0.06716428697109222, -0.06611058861017227, -0.02172306552529335, -0.01669691875576973, -0.11891012638807297, 0.09755397588014603, -0.029773905873298645, 0.07793174684047699, -0.1695704609155655, -0.2664129137992859, 0.2616298794746399, 0.24058735370635986, -0.36439332365989685, -0.37616589665412903, -0.081634521484375, -0.23472268879413605, 0.36194783449172974, 0.48673176765441895, 0.07633589208126068, 0.2059805989265442, 0.08155262470245361, 0.02614603564143181, -0.23981814086437225, -0.007828181609511375, 0.11326870322227478, -0.05349910631775856, -0.07465100288391113, -0.11812721937894821, -0.029820378869771957, 0.24680398404598236, 0.07731037586927414, -0.015710359439253807, -0.29113808274269104, -0.2243420034646988, -0.42695170640945435, 0.6584969758987427, -0.10349684208631516, 0.18523117899894714, 0.09626562148332596, -0.11020863056182861, 0.08162829279899597, 0.0027171894907951355, -0.26886773109436035, 0.10085625946521759, -0.1286008358001709, -0.3242725133895874, -0.17347010970115662, -0.13862179219722748, -0.04632559046149254, 0.0514967180788517, 0.10167472809553146, 0.27046874165534973, -0.2445412129163742, 0.14486835896968842, 0.1949063241481781, 0.0032222543377429247, 0.007463197689503431, -0.4168391823768616, -0.5431471467018127, 0.5328313708305359, -0.47548529505729675, -0.057657528668642044, -0.30973684787750244, 0.9726985692977905, -0.6483593583106995, 0.003010824788361788, 0.8373026251792908, -0.7022836804389954, -0.42855411767959595, -0.04273529723286629, -0.18947899341583252, 0.2731275260448456, -0.09727202355861664, -0.18153753876686096, -0.023349253460764885, -0.10460007190704346, -0.04597117006778717, 0.28404054045677185, -0.241609126329422, -0.21801628172397614, -0.16741761565208435, -0.11768215149641037, 0.07019546627998352, -0.42413797974586487, 0.32569804787635803, 0.25642257928848267, 0.4487892687320709, 0.21944281458854675, -0.08600571751594543, -0.8350825905799866, 0.35917583107948303, 0.2444658875465393, 0.43664172291755676, 0.45279642939567566, 0.052211567759513855, 0.33908021450042725, -0.050397735089063644, 0.04389231279492378, -0.2516123056411743, -0.25417983531951904, 0.3132067620754242, -0.275856614112854, 0.022244375199079514, -0.046384841203689575, 0.21993646025657654, 0.3629566431045532, 0.12192869931459427, 0.006493954453617334, -0.08675124496221542, 0.12295778840780258, 0.2173587679862976, -0.17304836213588715, -0.010816099122166634, -0.03899255394935608, -0.16124530136585236, -0.11891261488199234, -0.13820700347423553, -0.23962092399597168, -0.1359977126121521, 0.15195855498313904, 0.10980755090713501, 0.12127071619033813, -0.10351870954036713, -0.1991184800863266, -0.2519938349723816, 0.44368571043014526, 0.2772722542285919, 0.028019288554787636, 0.3408869802951813, 0.8976725935935974, 0.08651922643184662, 0.22615990042686462, -0.5515780448913574, -0.22699770331382751, 0.5723080039024353, -0.5902224183082581, 0.1633632779121399, -0.2609328329563141, -0.7135418653488159, -0.9322949647903442, -0.3190048038959503, 0.20698733627796173, 0.30527880787849426, 0.2278355062007904, -0.08372607827186584, -0.34652936458587646, -0.37299877405166626, 0.029101336374878883, 0.6587417125701904, -0.6900666356086731, 0.11782655119895935, 0.021176183596253395, 0.02744978666305542, 0.07595764845609665, 0.17314863204956055, -0.03874281421303749, -0.10708605498075485, 0.055355917662382126, 0.20096325874328613, 0.0320514552295208, -0.4322958290576935, -0.19511616230010986, -0.1904105842113495, 0.6709882616996765, -0.4047991633415222, -0.12539954483509064, 0.23036916553974152, 0.34359827637672424, -0.03296623006463051, -0.12115165591239929, -0.1900217980146408, -0.06475000083446503, 0.061120498925447464, -0.24240772426128387, 0.16444449126720428, 0.34501558542251587, -0.01351498905569315, 0.18990793824195862, 0.0844765231013298, 0.021615969017148018, 0.11275363713502884, 0.08109381049871445, 0.2500911056995392, 0.43540793657302856, 0.2913654148578644, 0.15026479959487915, -0.04642617702484131, -0.12126097083091736, 0.006341199390590191, 0.04422442987561226, -0.1080685704946518, 0.3620064854621887, -0.0763481929898262, -0.010127204470336437, -0.14269715547561646, -0.248787060379982, -0.21600110828876495, 0.6382138729095459, -0.1902593970298767, 0.08665479719638824, 0.2934958338737488, -0.17195606231689453, 0.06160290166735649, -0.23205852508544922, 0.035513024777173996, -0.3715746998786926, 0.3509771525859833, 0.3348536193370819, 0.22950370609760284, 0.33118653297424316, 0.9588499069213867, 0.20606468617916107, 0.6204833388328552, 0.23672331869602203, 0.16291823983192444, 0.47740817070007324, 0.08096622675657272, -0.02877727709710598, -0.11649589985609055, -0.15937413275241852, -0.1426626741886139, -0.05013780668377876, 0.0450664758682251, 0.0023609991185367107, 0.1349104344844818, -0.1755473017692566, -0.07095160335302353, -0.16621440649032593, -0.05111571401357651, 0.054369378834962845, 0.04260886460542679, 0.350665807723999, 0.3332352042198181, -0.15107697248458862, -0.009004288353025913, 0.008838186040520668, 0.024122467264533043, 0.0034705144353210926, -0.11851552873849869, -0.574181854724884, 0.12785287201404572, 0.023729857057332993, 0.10187503695487976, 0.15192855894565582, -0.0017779568443074822, -0.2750300467014313, -0.09130745381116867, -0.020635787397623062, -0.08563923090696335, -0.08501031994819641, 0.11666440218687057, -0.6517242789268494, 0.02122858166694641, -0.032619770616292953, 0.036977726966142654, 0.12875057756900787, 0.2112988978624344, 0.31410160660743713, 0.0012678082566708326, -0.05262311175465584, -0.024831144139170647, -0.034593045711517334, 0.1690746396780014, 0.1603696346282959, -0.0043519167229533195, 0.06063756346702576, -0.025061583146452904, -0.07837393134832382, -0.23322409391403198, 0.3472255766391754, 0.12285564094781876, -0.6227940917015076, 0.06505447626113892, 0.18217934668064117, -0.5070652961730957, -0.181949183344841, -0.4119378328323364, 0.5325407385826111, 0.4947976768016815, 0.41061243414878845, 0.5489582419395447, 0.4357202649116516, 0.1061694547533989, 0.8395915031433105, -0.059435296803712845, 0.3370351493358612, 0.3767350912094116, -0.6986523270606995, 0.08274740725755692, 0.10387864708900452, 0.16015194356441498, 0.09585152566432953, 0.2169346809387207, -0.00031153461895883083, -0.049139413982629776, -0.23325836658477783, -0.2726178467273712, -0.18593072891235352, -0.3186989426612854, 0.09127300977706909, -0.042428918182849884, 0.0720871239900589, 0.062046296894550323, 0.04376470670104027, 0.06732487678527832, -0.32366544008255005, -0.056449856609106064, -0.03288225084543228, -0.0601225420832634, -0.09682813286781311, -0.13877159357070923, 0.010959932580590248, 0.04015384241938591, 0.03767593950033188, 0.1042717769742012, 0.15912123024463654, -0.289453387260437, 0.2484218180179596, 0.01780170202255249, 0.008648738265037537, -0.05094822123646736, -0.07058469951152802, 0.21362057328224182, -0.1728682518005371, -0.038880325853824615, -0.026883669197559357, -0.019855521619319916, -0.025084534659981728, 0.20359504222869873, 0.41879650950431824, 0.014945798553526402, -0.02109963819384575, 0.03636367991566658, 0.056718576699495316, -0.002172008855268359, 0.10011318325996399, 0.0356152318418026, 0.09724093973636627, 0.009909872896969318, -0.007906444370746613, -0.21708394587039948, 0.3866192698478699, 0.0026883298996835947, 0.09258373081684113, -0.03855190798640251, -0.09001283347606659, 0.3338313698768616, -0.3170791268348694, 0.15680409967899323, -0.19095484912395477, 0.03883692994713783, -0.60097336769104, -0.3456847071647644, 0.24251554906368256, 0.6105804443359375, 0.39962315559387207, 0.015575899742543697, -0.2567897439002991, 0.39509767293930054, -0.5528638958930969, -0.009376240894198418, -0.06754627078771591, -0.08548305928707123, -0.03713413327932358, -0.15277162194252014, -0.41155245900154114, 0.17444807291030884, 0.15308016538619995, 0.20599257946014404, 0.28960132598876953, 0.4285337030887604, -0.34992915391921997, -0.22291575372219086, -0.13172610104084015, -0.17328956723213196, -0.31574949622154236, -0.35958126187324524, -0.026842990890145302, -0.006725687067955732, -0.003626008052378893, -0.018128585070371628, 0.01859305612742901, -0.016301672905683517, -0.5591208338737488, 0.052127473056316376, 0.05423159524798393, 0.08483016490936279, 0.10425031185150146, 0.15348772704601288, -0.39577698707580566, -0.056537460535764694, -0.06760124862194061, -0.08563047647476196, -0.1548144370317459, -0.178643137216568, -0.5786224603652954, -0.30216407775878906, 0.32330015301704407, 0.04766843095421791, 0.008002075366675854, 0.17456069588661194, 0.10704968869686127, -0.14661598205566406, -0.2103157490491867, 0.02119225077331066, -0.034209635108709335, 0.02084331214427948, -0.2275412231683731, 0.18439802527427673, 0.01601210981607437, -0.07768719643354416, 0.033972691744565964, -0.22945430874824524, 0.2102951556444168, 0.027170751243829727, 0.5385879278182983, -0.018428871408104897, 0.4764491617679596, 0.026245800778269768, 0.16814042627811432, -0.19068166613578796, -0.3639865815639496, -0.08736275136470795, 0.4481368660926819, -0.6074704527854919, 0.0249998290091753, -0.1739671379327774, -0.2605726420879364, -0.04523785039782524, 0.12205111235380173, -0.27395787835121155, 0.07620961219072342, -0.006063545122742653, -0.008714190684258938, -0.002224353374913335, -0.003841232741251588, 0.011743588373064995, 0.18641045689582825, 0.062151674181222916, 0.06633654236793518, 0.05481487140059471, 0.05502700060606003, 0.05968518927693367, -0.450826495885849, -0.06769899278879166, -0.07052726298570633, -0.06651425361633301, -0.06347858160734177, -0.07692759484052658, 0.13790813088417053, -0.0553121343255043, -0.056896187365055084, -0.06671610474586487, -0.04043390601873398, 0.007760931272059679, -0.5733214616775513, 0.10349240899085999, 0.11014856398105621, 0.15390489995479584, 0.11579442024230957, 0.1220998615026474, -0.7624948620796204, -0.07283634692430496, -0.06994304060935974, -0.12092194706201553, -0.10387329757213593, -0.15329664945602417, -0.3198223114013672, -0.02966228872537613, -0.02364368923008442, -0.0335305780172348, -0.025426210835576057, -0.003651954233646393, -1.0681664943695068, 0.07054365426301956, 0.05727705731987953, 0.06889044493436813, 0.031118277460336685, -0.01402471587061882, 0.2292553037405014, -0.05652710795402527, -0.04611067473888397, -0.04967452585697174, -0.011159989982843399, 0.025418123230338097, -0.1867169886827469, 0.16380013525485992, 0.20785878598690033, -0.6918048858642578, -0.39074820280075073, 0.29409340023994446, 0.9674772620201111, -0.1831604540348053, -0.5015893578529358, -0.33163103461265564, 0.39378517866134644, -0.124740831553936, 0.9892226457595825, -0.6029092073440552, 0.21905860304832458, 0.26975470781326294, 0.049200575798749924, 0.11319145560264587, -0.7560725212097168, -0.05927411466836929, -0.010733556933701038, -0.03191149979829788, 0.03607167676091194, -0.02464715763926506, -0.02350846864283085, 0.08346797525882721, -0.08794541656970978, 0.0036700130440294743, 0.0035277914721518755, 0.16595537960529327, 0.09865777939558029, 0.2009555846452713, 0.17756147682666779, 0.41373172402381897, 0.0393284410238266, -0.03291234374046326, -0.04655490443110466, 0.048232223838567734, -0.028503725305199623, -0.06972035765647888, -0.12304654717445374, 0.06972315162420273, -0.058630362153053284, -0.2528001666069031, 0.009709658101201057, -0.24275681376457214, -0.15344931185245514, 0.3275217115879059, 0.6083627939224243, 0.06595144420862198, 0.05936257168650627, -0.01848405972123146, -0.00476127490401268, 0.11102209240198135, 0.12504447996616364, 0.13580109179019928, 0.06056417524814606, 0.2521151304244995, 0.06231957674026489, 0.2799888253211975, 0.0380520224571228, -0.16629847884178162, 0.3286343812942505, 0.8419864177703857, 0.0037028242368251085, -0.05554452911019325, 0.09106913954019547, -0.14536860585212708, 0.0555892176926136, -0.05734742805361748, -0.16388610005378723, 0.12294604629278183, -0.15253666043281555, -0.29146328568458557, 0.23114900290966034, -0.27593177556991577, 0.1977108269929886, -0.3437063694000244, -0.052967436611652374, -0.2978675663471222, 0.054410334676504135, -0.11752578616142273, -0.08281824737787247, -0.07840591669082642, -0.0032435953617095947, -0.12808549404144287, -0.20827114582061768, 0.014910470694303513, -0.18309679627418518, 0.5810328722000122, -0.2408999502658844, -0.01405488420277834, -0.17587384581565857, 0.5229941010475159, 0.015496794134378433, 0.16651944816112518, -0.1129889190196991, -0.10497883707284927, -0.006524962838739157, -0.10653585195541382, -0.2441742867231369, -0.13478052616119385, -0.18236009776592255, -0.4300174117088318, -0.23648470640182495, -0.2513834536075592, -0.11008664965629578, 0.14379152655601501, 0.22882211208343506, 0.001387775526382029, -0.048504628241062164, 0.030247844755649567, -0.05395817756652832, 0.05557355284690857, -0.1892530620098114, 0.10554342716932297, -0.05183454230427742, -0.09771467745304108, -0.015692107379436493, -0.016395045444369316, -0.23222434520721436, -0.10050161927938461, -0.3240457773208618, -0.3219583332538605, 0.12333212047815323, -0.024896899238228798, -0.02071029134094715, 0.11875901371240616, 0.02054797112941742, 0.032447706907987595, 0.055283140391111374, 0.08324961364269257, 0.02575177326798439, -0.07796204835176468, 0.36203819513320923, 0.15617789328098297, 0.08546001464128494, 0.10400771349668503, -0.4657382071018219, -0.06493768095970154, 0.01470932923257351, -0.2004406452178955, 0.036628734320402145, 0.11527438461780548, -0.15338292717933655, -0.010416463017463684, 0.09512912482023239, 0.028390655294060707, 0.07461339980363846, 0.020099759101867676, 0.075604647397995, -0.002108790446072817, -0.2848092317581177, -0.4472596049308777, -0.6735170483589172, 0.08506085723638535, 0.016751132905483246, 0.9098043441772461, -0.14566002786159515, 0.3855102062225342, -0.519607424736023, 0.5858951807022095, -0.46904709935188293, -0.6662734150886536, -0.601061224937439, -0.6690152883529663, -0.32256296277046204, 0.09227891266345978, 0.42026031017303467, 0.36610591411590576, -0.005677458364516497, -0.3040875792503357, 0.0035582035779953003, 0.004417795222252607, 0.010019300505518913, -0.009151497855782509, -0.011212833225727081, 0.0013604768319055438, 0.0019597194623202085, -0.006248997058719397, -0.006033165380358696, -0.012735605239868164, -0.0032565181609243155, -0.018884751945734024, -0.03380715847015381, 0.08744792640209198, -0.033462367951869965, 0.010896563529968262, 0.016377273947000504, -0.006340471561998129, 0.008669272996485233, 0.012059686705470085, 0.017523402348160744, 0.0004485626704990864, 0.01992892101407051, 0.009830276481807232, 0.006032969802618027, -0.018025973811745644, 0.0100645050406456, -0.010070747695863247, -0.16506777703762054, 0.866526186466217, 0.040559928864240646, 0.0377194844186306, -0.00418366864323616, 0.02813699282705784, 0.00953802838921547, 0.07677343487739563, 0.12188700586557388, 0.11287733912467957, 0.12075658142566681, 0.15142089128494263, 0.22690707445144653, 0.4246613085269928, 0.4467090368270874, 0.18535029888153076, -0.26839882135391235, -0.037607498466968536, 0.003895870642736554, -0.001508310902863741, 0.03006855584681034, 0.04830990359187126, -0.03270549699664116, 0.014023445546627045, 0.08431831002235413, 0.07397657632827759, 0.0359962098300457, 0.049754031002521515, 0.019775347784161568, 0.03687189891934395, 0.10050893574953079, -0.2998158037662506, -0.0025045881047844887, -0.02227359637618065, 0.005343413446098566, -0.03603929653763771, -0.0466732457280159, -0.02084137126803398, 0.09147094935178757, -0.035112280398607254, -0.05305755138397217, 0.019396524876356125, 0.08113482594490051, 0.12759986519813538, 0.09101322293281555, 0.1874462366104126, -0.42895522713661194, -0.26613837480545044, -0.22432860732078552, -0.02357158623635769, -0.139936164021492, -0.20135220885276794, -0.24557894468307495, -0.19205020368099213, -0.18304671347141266, -0.33205264806747437, -0.14814552664756775, -0.14840058982372284, -0.0574956052005291, -0.025493716821074486, 0.021942690014839172, -0.06753266602754593, 0.01012833509594202, 0.009508556686341763, 0.003627298166975379, 0.0037415926344692707, 0.0037065453361719847, 0.01006131712347269, 0.005938143003731966, -0.0032920658122748137, 0.012574665248394012, 0.00439435662701726, 0.005484435241669416, 0.012367965653538704, 0.021614592522382736, 0.010131442919373512, 1.151930570602417, -0.009603832848370075, -0.011088971048593521, -0.005645629018545151, -0.021641245111823082, -0.015745054930448532, -0.011359132826328278, -0.023920351639389992, -0.0220546443015337, -0.0285033006221056, -0.035629723221063614, -0.04422440379858017, -0.03388532996177673, -0.042186494916677475, -0.21403442323207855, 0.2750154137611389, 0.0605490542948246, 0.04287472367286682, 0.00747892539948225, 0.025098076090216637, 0.012450975365936756, 0.024052703753113747, 0.04990444332361221, -0.0065133110620081425, -0.01650645025074482, -0.03364992514252663, -0.07956069707870483, -0.17140492796897888, -0.3017013967037201, -0.14336897432804108, 0.5450834035873413, -0.19155560433864594, 0.35132911801338196, 0.04259907081723213, 0.1505185067653656, -0.10998959094285965, -1.0053040981292725, -0.12538091838359833, -0.03663622960448265, 0.4008999168872833, -0.32683584094047546, 0.2906363904476166, 0.2245410978794098, -0.713770866394043, 0.10765500366687775, 0.4763838052749634, 0.4555415213108063, -0.006957066245377064, 0.043260905891656876, 0.03976311907172203, 0.044943664222955704, -0.09405241906642914, -0.13945737481117249, 0.6128147840499878, -0.21689507365226746, 0.02207566611468792, -0.2680528163909912, -0.07457642257213593, -0.2901437282562256, 0.26113227009773254, -0.25863537192344666, -0.008837333880364895, -0.6535356044769287, -0.17841698229312897, -0.5412358045578003, 0.3055439591407776, 0.1593368947505951, -0.3358124792575836, 0.10433819144964218, 0.3907478153705597, 0.07963044941425323, -0.04717206582427025, -0.6039363145828247, -0.2502647936344147, 0.024095024913549423, 1.0873488187789917, -0.5231343507766724, 0.44114047288894653, 0.25481000542640686, 0.6682733297348022, -0.029934309422969818, 0.228379026055336, 0.14288808405399323, 0.23291189968585968, -0.07217647135257721, -0.1597328931093216, -0.03874105215072632, 0.18671096861362457, 0.1036413386464119, 0.23269343376159668, 0.9642559885978699, -0.2080128788948059, -0.5621634125709534, 0.13150878250598907, -0.002215328859165311, 0.06738097220659256, 0.44080784916877747, -0.007553520612418652, -0.008420510217547417, -0.15128827095031738, -0.09014756977558136, 0.1551017016172409, 0.013072662055492401, 0.12080489099025726, -0.1098586693406105, 0.3292519450187683, 0.23559868335723877, -0.2718973457813263, -0.36499354243278503, -0.8652979731559753, 0.5734652876853943, -0.07897773385047913, 0.30092987418174744, -0.048660758882761, 0.0036552923265844584, -0.6098228096961975, 0.49392688274383545, 0.585245668888092, 0.8867983818054199, 0.3875965178012848, 0.18010905385017395, 0.08793149143457413, -0.032127685844898224, -0.09486193209886551, 0.1357237696647644, 0.5525546073913574, -0.06661085784435272, -0.33449679613113403, -0.33365437388420105, -0.3800036907196045, 0.26072052121162415, -0.4774118661880493, 0.3326292932033539, 0.05789607763290405, 0.07795679569244385, 0.13945743441581726, 0.3871155083179474, -0.4668513536453247, -0.37988781929016113, -0.027165474370121956, -0.08920511603355408, 0.01682211458683014, -0.4207592308521271, 0.49385491013526917, -0.0019479484762996435, 0.007056927774101496, -0.07970064878463745, 0.18496327102184296, -0.21232570707798004, 1.3933357000350952, -0.5128391981124878, -0.06183962523937225, -0.01276359148323536, 0.007543351501226425, -0.16364243626594543, -0.4920341968536377, 0.3914303183555603, 0.04624301195144653, 0.08592425286769867, -0.14403517544269562, -0.03717938810586929, 0.08370181173086166, -0.45830926299095154, 0.10328774154186249, 0.05314953252673149, -0.052142512053251266, -0.41734009981155396, 0.5540661811828613, 0.3373646140098572, -0.06528940051794052, 0.03969014436006546, 0.009618477895855904, 0.2387339174747467, -0.019261866807937622, 0.11164247244596481, 0.40151575207710266, -1.0588921308517456, 0.1110026091337204, -0.356559693813324, -0.3597593903541565, -0.317168653011322, -0.24808233976364136, 0.8960325717926025, 0.622465968132019, -0.08530417084693909, -0.3659307062625885, 0.005507071502506733, 0.3436104953289032, -0.12422741204500198, -0.11166050285100937, 0.7543268799781799, 0.0904822126030922, -0.16650550067424774, -0.1999220848083496, -0.2939809262752533, -0.2587698698043823, -0.13335254788398743, -0.3846678137779236, -0.6855665445327759, -0.4183485805988312, -0.292217880487442, -0.34574225544929504, -0.19984982907772064, 0.2894513010978699, 0.1178860291838646, 0.19929732382297516, 0.18177181482315063, 0.014943813905119896, -0.21189305186271667, -0.5075408220291138, 0.17304164171218872, 0.003113287966698408, 0.16924233734607697, 0.05020807683467865, -0.0027179038152098656, -0.001944877440109849, 0.2450661063194275, 0.1422864943742752, 0.12407258152961731, 0.18801860511302948, 0.13234610855579376, -0.20564594864845276, -0.42885297536849976, 0.025559496134519577, -0.09899634122848511, 0.0023183913435786963, 0.11750952899456024, 0.15027719736099243, -0.1787630021572113, 0.09260964393615723, 0.09656769782304764, 0.12048370391130447, 0.025683116167783737, 0.13542939722537994, 0.23754335939884186, 0.13096487522125244, 0.1403312385082245, 0.14155124127864838, 0.09076675027608871, 0.06288433820009232, -0.09939581155776978, -0.08975568413734436, -0.05694352090358734, -0.06841462105512619, 0.12132493406534195, 0.12578940391540527, 0.0024884932208806276, 0.02315092831850052, -0.07405180484056473, 0.37797045707702637, -0.08878372609615326, -0.2010076344013214, -0.05641339719295502, 0.25070860981941223, 0.47302940487861633, 0.12675295770168304, -0.5106230974197388, 0.475384384393692, 0.7891837358474731, 0.07429854571819305, 0.22714051604270935, 0.04189498350024223, 0.7361932992935181, 0.3498673439025879, -0.07021006941795349, 0.07330179959535599, -0.11949477344751358, -0.0644521713256836, 0.12089210003614426, 0.14679647982120514, -0.048369262367486954, 0.1359228789806366, 0.19595077633857727, 0.04471547529101372, -0.017606791108846664, 0.05513574555516243, -0.30004242062568665, 0.1236567422747612, 0.3722567856311798, 0.3879850208759308, 0.13033226132392883, 0.02475896291434765, 0.5709182620048523, 0.006999946665018797, -0.0011550351046025753, 0.016235476359725, -0.009383128955960274, -0.12752701342105865, 0.13496889173984528, 0.013867796398699284, -0.0013429230311885476, 0.0436079166829586, 0.05521130561828613, 0.042563267052173615, 0.012011125683784485, -0.04963910952210426, -0.04686581343412399, -0.059992723166942596, -0.002578765619546175, 0.12660369277000427, 0.05892514809966087, 0.02820570394396782, 0.05602024123072624, 0.06680692732334137, 0.03840585798025131, -0.0738566517829895, 0.8614184260368347, -0.037896618247032166, 0.03692229464650154, 0.11434472352266312, 0.18466952443122864, 0.338532954454422, -0.5861492156982422, -0.08435634523630142, -0.13728271424770355, -0.16961510479450226, -0.07833846658468246, 0.07729463279247284, 0.648443877696991, 0.19239799678325653, -0.6319855451583862, 0.7515729665756226, 0.07835514098405838, -0.19857466220855713, -0.0409834198653698, 0.18104912340641022, -0.5363544821739197, -0.31717705726623535, 0.5849525928497314, 0.0695124939084053, 0.0756528452038765, -0.49352970719337463, -0.32918086647987366, -0.3916461765766144, -0.3553392291069031, -0.3527517020702362, -0.7866868376731873, 0.009423892013728619, -0.006262942682951689, -0.1842132955789566, -0.12972912192344666, 0.015807025134563446, 0.019412707537412643, 0.17771252989768982, 0.3919792175292969, 0.43954187631607056, 0.3649633526802063, 0.3082059323787689, -0.35650795698165894, -0.25106775760650635, -0.3347373604774475, -0.267426460981369, -0.20500095188617706, -0.31960323452949524, -0.17600908875465393, -0.01808209717273712, -0.0020112418569624424, -0.05462459847331047, -0.021952925249934196, -0.0007772627868689597, 0.45648273825645447, 0.08172278851270676, 0.08250191062688828, 0.1586238443851471, 0.048969436436891556, 0.01582152023911476, -0.3598926067352295, -0.09772882610559464, -0.07376562803983688, -0.11647660285234451, -0.03394788131117821, -0.20193956792354584, -0.8277468681335449, 0.055952057242393494, 0.059344545006752014, 0.1268310546875, 0.13114014267921448, 0.0865866169333458, -0.0740380585193634, -0.10867524147033691, -0.20426806807518005, -0.2672404944896698, -0.21912313997745514, -0.1802803874015808, 0.15890881419181824, 0.09218433499336243, 0.1366269886493683, 0.1893700212240219, 0.11176154762506485, 0.13013406097888947, 0.08471779525279999, -0.15736696124076843, 0.9342941045761108, -0.20173442363739014, 0.13508309423923492, -0.0883428230881691, 0.07636736333370209, 0.05241681635379791, 0.18879303336143494, 0.35136768221855164, 0.4720844030380249, -0.34230339527130127, -1.088413953781128, -0.4508877694606781, 0.24961218237876892, 0.4387240409851074, -0.11674194037914276, -0.6386743783950806, -0.6472957730293274, 0.012339231558144093, 0.041037417948246, 0.039351459592580795, 0.03285267576575279, 0.00298523623496294, 0.07674279063940048, 0.023027343675494194, 0.020951256155967712, 0.07751350849866867, 0.11808819323778152, 0.29404643177986145, -0.12762565910816193, -0.07120224833488464, -0.05719219148159027, -0.1282300055027008, -0.1376718133687973, -0.302776575088501, 0.14215287566184998, 0.018622854724526405, 0.019476840272545815, 0.0190456323325634, 0.014873682521283627, 0.018086807802319527, -0.05890142545104027, -0.011167892254889011, -0.011339987628161907, -0.011608911678195, 0.012441374361515045, 0.07536875456571579, -0.5425221920013428, -0.016377249732613564, -0.025346657261252403, -0.029841721057891846, 0.0026114333886653185, -0.11326603591442108, -0.5201165676116943, 0.04259565472602844, 0.06669782102108002, 0.0920194685459137, 0.07035532593727112, 0.07696181535720825, 0.49826791882514954, -0.002545103896409273, -0.02480962872505188, -0.06072494387626648, -0.06243899092078209, -0.10989831387996674, 0.2915513515472412, -0.05723004788160324, -0.05061788111925125, -0.040307868272066116, 0.0065942383371293545, 0.033837419003248215, -0.25104302167892456, 0.007408090401440859, 0.40537893772125244, 0.3580901622772217, 0.10638470947742462, 0.004200079943984747, -0.04995648190379143, -0.01650378853082657, -0.1912848949432373, -0.41893938183784485, -0.0692247599363327, 0.33981451392173767, -0.7523338794708252, 0.010874808765947819, 0.0880134329199791, 0.26294681429862976, -0.05554817244410515, -0.22665487229824066, 0.06690427660942078, -0.0014998934930190444, -0.006833737716078758, 0.01121447142213583, -0.004403490107506514, -0.04722440615296364, -0.4663192927837372, -0.0004095484036952257, 0.000471415463835001, 0.009597036056220531, -0.006579261738806963, 0.0020666862837970257, -0.22567303478717804, -0.004435963928699493, -0.004476938396692276, -0.020416738465428352, -0.0032083652913570404, 0.010853327810764313, 0.1668311506509781, -0.0012921395245939493, -0.001327430596575141, 0.0019276870880275965, 0.010208780877292156, 0.025268496945500374, 0.4228430986404419, -0.004393347539007664, -0.0034512460697442293, 0.0024065340403467417, 0.014746174216270447, 0.036925096064805984, -0.5693302750587463, 8.431205060333014e-05, -0.0029763055499643087, -0.0106179965659976, -0.011980040930211544, -0.023493880406022072, -0.27630946040153503, 0.022574307397007942, 0.015465212054550648, 0.009357980452477932, 0.017298605293035507, 0.01490879151970148, 0.8311066031455994, 0.02297709882259369, 0.01667165383696556, 0.010537466034293175, 0.007594368886202574, -0.06838803738355637, -0.1484251618385315, -0.03438160568475723, -0.028344346210360527, -0.020146137103438377, -0.017624985426664352, 0.03479422628879547, 0.23040549457073212, 0.37211740016937256, 0.5170130133628845, 0.35211843252182007, -0.3649575114250183, -0.08689679205417633, 0.15171341598033905, 0.4162098467350006, -0.00858832336962223, 0.5327888131141663, 0.11612158268690109, 0.18631941080093384, -0.07476914674043655, -0.32249006628990173, -0.3899204134941101, -0.36959829926490784, -0.3457287847995758, 0.4948616325855255, -0.35605674982070923, -0.049555130302906036, 0.014033045619726181, -0.11528357118368149, -0.0021160568576306105, -0.07317692041397095, -0.12720157206058502, -0.05009579658508301, -0.09403155744075775, -0.18617376685142517, -0.19954971969127655, -0.08807763457298279, 0.011442228220403194, 0.06511740386486053, -0.020588688552379608, -0.024869943037629128, -0.04984002932906151, -0.02525891177356243, -0.03196382150053978, -0.04191192612051964, -0.09913266450166702, 0.023418189957737923, -0.4483054280281067, -0.2176196128129959, -0.015834880992770195, 0.02046046406030655, 0.4470794200897217, 0.03503470867872238, -0.07871335744857788, 0.032325711101293564, -0.031946394592523575, 0.05701794847846031, -0.016047261655330658, 0.036769408732652664, 0.008190952241420746, 0.10749358683824539, 0.05681396275758743, 0.023493604734539986, 0.51933354139328, 0.20805010199546814, 0.1417638510465622, 0.13838908076286316, 0.2163977473974228, -0.07909664511680603, -0.0642920434474945, -0.017834056168794632, -0.0003441356820985675, 0.018970293924212456, -0.017270909622311592, -0.08987311273813248, 0.008983286246810444], "sample_rate": 48000}}, {"max_value": 1.0, "model": {"version": "0.7.0", "metadata": {"date": {"year": 2026, "month": 6, "day": 29, "hour": 23, "minute": 55, "second": 58}, "loudness": -13.418937325579797, "gain": 0.6404318045066022}, "architecture": "WaveNet", "config": {"layers": [{"input_size": 1, "condition_size": 1, "head": {"out_channels": 1, "kernel_size": 16, "bias": true}, "channels": 8, "kernel_sizes": [6, 6, 6, 6, 6, 6, 6, 6, 6, 6, 6, 6, 6, 6, 15, 15, 6, 6, 6, 6, 6, 6, 6], "dilations": [1, 3, 7, 17, 41, 101, 239, 1, 3, 7, 17, 41, 101, 239, 1, 13, 1, 3, 7, 17, 41, 101, 239], "activation": [{"type": "LeakyReLU", "negative_slope": 0.01}, {"type": "LeakyReLU", "negative_slope": 0.01}, {"type": "LeakyReLU", "negative_slope": 0.01}, {"type": "LeakyReLU", "negative_slope": 0.01}, {"type": "LeakyReLU", "negative_slope": 0.01}, {"type": "LeakyReLU", "negative_slope": 0.01}, {"type": "LeakyReLU", "negative_slope": 0.01}, {"type": "LeakyReLU", "negative_slope": 0.01}, {"type": "LeakyReLU", "negative_slope": 0.01}, {"type": "LeakyReLU", "negative_slope": 0.01}, {"type": "LeakyReLU", "negative_slope": 0.01}, {"type": "LeakyReLU", "negative_slope": 0.01}, {"type": "LeakyReLU", "negative_slope": 0.01}, {"type": "LeakyReLU", "negative_slope": 0.01}, {"type": "LeakyReLU", "negative_slope": 0.01}, {"type": "LeakyReLU", "negative_slope": 0.01}, {"type": "LeakyReLU", "negative_slope": 0.01}, {"type": "LeakyReLU", "negative_slope": 0.01}, {"type": "LeakyReLU", "negative_slope": 0.01}, {"type": "LeakyReLU", "negative_slope": 0.01}, {"type": "LeakyReLU", "negative_slope": 0.01}, {"type": "LeakyReLU", "negative_slope": 0.01}, {"type": "LeakyReLU", "negative_slope": 0.01}], "bottleneck": 8, "head1x1": {"active": false, "out_channels": 1, "groups": 1}, "layer1x1": {"active": true, "groups": 1}, "groups_input": 1, "groups_input_mixin": 1, "conv_pre_film": {"active": false, "shift": true, "groups": 1}, "conv_post_film": {"active": false, "shift": true, "groups": 1}, "input_mixin_pre_film": {"active": false, "shift": true, "groups": 1}, "input_mixin_post_film": {"active": false, "shift": true, "groups": 1}, "activation_pre_film": {"active": false, "shift": true, "groups": 1}, "activation_post_film": {"active": false, "shift": true, "groups": 1}, "layer1x1_post_film": {"active": false, "shift": true, "groups": 1}, "head1x1_post_film": {"active": false, "shift": true, "groups": 1}, "gating_mode": ["none", "none", "none", "none", "none", "none", "none", "none", "none", "none", "none", "none", "none", "none", "none", "none", "none", "none", "none", "none", "none", "none", "none"], "secondary_activation": [null, null, null, null, null, null, null, null, null, null, null, null, null, null, null, null, null, null, null, null, null, null, null], "slimmable": null}], "head": null, "head_scale": 0.008983286447602542}, "weights": [-0.49804043769836426, -0.2572284936904907, 0.45050838589668274, 0.6868856549263, -0.6818146705627441, 0.008645043708384037, 0.39848053455352783, 0.9444331526756287, -0.18058359622955322, 0.09227312356233597, -0.15967056155204773, -0.0482708103954792, 0.18970830738544464, 0.11766873300075531, -0.0681530013680458, 0.022675935178995132, -0.11833612620830536, -0.06573847681283951, 0.07472142577171326, 0.0684896856546402, 0.1537531167268753, -0.031096849590539932, 0.19300836324691772, 0.06031927838921547, -0.10527776181697845, -0.17203207314014435, 0.08392661064863205, 0.010767159052193165, 0.17961923778057098, 0.05719752237200737, -0.16171972453594208, -0.1461823284626007, -0.18680208921432495, 0.08578174561262131, -0.16627484560012817, -0.0637662336230278, 0.1681196093559265, 0.1442011296749115, -0.001763437408953905, -0.001586753292940557, -0.0008182245655916631, -0.0007763787871226668, -0.0017846830887719989, -0.00014949392061680555, 0.10660040378570557, -0.06413205713033676, 0.17913219332695007, 0.014743703417479992, -0.1019488200545311, -0.16606761515140533, 0.25655603408813477, -0.12174597382545471, 0.24995733797550201, 0.21569229662418365, -0.11711212992668152, -0.1937873661518097, 0.10608197748661041, -0.032708898186683655, 0.16069796681404114, -0.1689188927412033, -0.11126100271940231, -0.014204371720552444, 0.06235653534531593, -0.009154071100056171, 0.0901486873626709, -0.08198685199022293, -0.04944631829857826, 0.001502018771134317, -0.044620659202337265, 0.047514062374830246, -0.1766151338815689, 0.1459532231092453, 0.08866656571626663, -0.008388829417526722, -0.11817438900470734, 0.06512313336133957, -0.18133403360843658, 0.2179163545370102, 0.16361384093761444, -0.009523414075374603, 0.08445463329553604, 0.03353695198893547, 0.1818409413099289, -0.1457357108592987, -0.12479229271411896, 0.005689909681677818, -0.001640646136365831, -0.000547655625268817, -0.0015174935106188059, 0.00011619597353274003, -0.00012773829803336412, -0.0005975210224278271, -0.0387556254863739, 0.04814790561795235, -0.11947053670883179, 0.1601562649011612, 0.11631955951452255, 0.017134089022874832, -0.13978362083435059, -0.009393464773893356, -0.2565614581108093, 0.18669520318508148, 0.19794143736362457, 0.05985965207219124, -0.062138013541698456, 0.09983532130718231, 0.09307905286550522, -0.054292697459459305, 0.07278522849082947, -0.05763450637459755, -0.025163685902953148, 0.049195971339941025, 0.03622107207775116, -0.03771808370947838, 0.0560820996761322, -0.026176298037171364, 0.0840858668088913, -0.11946506798267365, -0.05630374699831009, 0.040429528802633286, -0.0755905881524086, 0.04599083214998245, 0.146576926112175, -0.1699807494878769, -0.13374148309230804, 0.1108514741063118, -0.07672884315252304, 0.06987474113702774, -0.05627802014350891, 0.07178188860416412, 0.12188505381345749, -0.12525182962417603, 0.11704640090465546, -0.0728423073887825, -0.002455447567626834, -0.002111916895955801, -0.0020194901153445244, -0.0006869048229418695, -0.0032454542815685272, -0.0002405059349257499, 0.07375507056713104, -0.09240464121103287, -0.07198010385036469, 0.04934539273381233, -0.09445854276418686, 0.02994677796959877, 0.15638959407806396, -0.1049923226237297, -0.09817083179950714, 0.07074551284313202, -0.10701684653759003, 0.05670492723584175, 0.001109120319597423, 0.000981148798018694, 0.001439226558431983, 0.001403754809871316, 0.0007799844606779516, 0.00011344070662744343, -4.4422645260056015e-06, -9.113683336181566e-05, 1.2189647350169253e-05, -2.811763079080265e-05, -0.00038603623397648335, -0.0006448988569900393, -0.0008868075092323124, -0.0007608379237353802, -0.0011609088396653533, -0.0011196824489161372, -0.0005311291315592825, 7.808226655470207e-05, -0.0020566810853779316, -0.001928576617501676, -0.002629426773637533, -0.00262858415953815, -0.0018958218861371279, -0.001016091788187623, 0.0020336811430752277, 0.0019057758618146181, 0.0026026286650449038, 0.002601616084575653, 0.001871289685368538, 0.000995321199297905, -9.862372280622367e-06, -9.980286449717823e-06, -8.477990377286915e-06, -1.1081719094363507e-05, -5.301256805978483e-06, -7.122645456547616e-06, -0.0006379126571118832, -0.0005174492835067213, -0.0008369085262529552, -0.000790309626609087, -0.000250988028710708, 0.000274794758297503, -0.0031408623326569796, -0.0030203168280422688, -0.0039837295189499855, -0.004031170159578323, -0.0032054418697953224, -0.002124672755599022, 0.04394149407744408, 0.05028950050473213, 0.051680807024240494, 0.06620349735021591, 0.09019984304904938, -0.011588421650230885, 0.01696593500673771, 0.02150823175907135, 0.01569543033838272, 0.013747580349445343, 0.022179193794727325, -0.006831219885498285, -0.030798669904470444, -0.07183008641004562, -0.05815282091498375, -0.04192899912595749, -0.06936715543270111, -0.034828007221221924, -0.09403765946626663, -0.05862411484122276, -0.07951201498508453, -0.050802525132894516, -0.058384038507938385, -0.009828610345721245, 0.06377574801445007, 0.06449010223150253, 0.06217726692557335, 0.09622899442911148, 0.06126794219017029, 0.007025211583822966, 0.003440132364630699, 0.003371410071849823, 0.0026940321549773216, 0.002731897169724107, 0.00239855726249516, 0.0027730537112802267, -0.03103635460138321, -0.04550841078162193, -0.019425636157393456, -0.03909444436430931, -0.08871413767337799, 0.010066531598567963, -0.09315855801105499, -0.12728138267993927, -0.038166504353284836, -0.06069483980536461, -0.18018998205661774, -0.03165533021092415, 0.010536259040236473, -0.05293002352118492, 0.028597062453627586, -0.10706134885549545, -0.09689582139253616, 0.12821908295154572, 0.014360141940414906, -0.003555430332198739, 0.012574915774166584, -0.044736139476299286, -0.007770979776978493, 0.06527148187160492, 0.040204908698797226, 0.09718988090753555, 0.017546096816658974, 0.07878351956605911, 0.08444348722696304, -0.11796332895755768, 0.10019297897815704, 0.02869264967739582, -0.04569649696350098, 0.09122394770383835, 0.14707306027412415, -0.09438183158636093, -0.015201686881482601, -0.14291144907474518, 0.004743371624499559, -0.1173110157251358, -0.06731642782688141, 0.14659707248210907, -0.0026113875210285187, -0.0025491048581898212, -0.0031330492347478867, -0.002005390590056777, -0.003526878310367465, -0.0045068892650306225, 0.00683453306555748, 0.08781590312719345, -0.008049091324210167, 0.0711822584271431, 0.05996269732713699, -0.12031272053718567, 0.049707137048244476, 0.10562212765216827, 0.018251542001962662, 0.10866677761077881, 0.1801833063364029, -0.04642506688833237, -0.07095754891633987, 0.02816862426698208, 0.008132188580930233, -0.024779433384537697, 0.17902137339115143, -0.08661302924156189, -0.01605135202407837, 0.005844013299793005, 0.01360770221799612, -0.01123122125864029, 0.08240924030542374, -0.04695088788866997, 0.06019153818488121, -0.026339182630181313, -0.019013602286577225, 0.015953369438648224, -0.16519439220428467, 0.07670523226261139, 0.09751062840223312, -0.041964467614889145, -0.025525832548737526, 0.021624932065606117, -0.26236632466316223, 0.10579477995634079, -0.10382018238306046, 0.03032425418496132, -0.003949582111090422, -0.015701118856668472, 0.25886330008506775, -0.10337913781404495, -0.0005064763827249408, -9.365749428980052e-05, -0.0010340657318010926, 0.0005127618787810206, -0.002600767882540822, 0.0011875167256221175, 0.05184028670191765, -0.01637066714465618, -0.015662601217627525, 0.014929904602468014, -0.1464039832353592, 0.0716366320848465, 0.16073541343212128, -0.08465754985809326, 0.009315095841884613, 0.006742537021636963, -0.31834012269973755, 0.12442382425069809, -0.12781350314617157, 0.043276768177747726, -0.12023050338029861, 0.04072513058781624, 0.09356649965047836, -0.022861048579216003, -0.08209346234798431, 0.01440134271979332, -0.15303869545459747, 0.037169262766838074, 0.044374410063028336, -0.05134594812989235, 0.09558726847171783, -0.08484595268964767, 0.16811127960681915, -0.08620702475309372, -0.1311507374048233, 0.03826741874217987, 0.05553184077143669, 0.007992002181708813, 0.139830082654953, -0.14690019190311432, -0.1636258065700531, 0.07361429184675217, -0.06078043580055237, 0.05419381335377693, -0.21082216501235962, 0.051550496369600296, 0.13019298017024994, -0.0993451401591301, 0.0008868132717907429, 0.001027783378958702, 0.0016961435321718454, -0.00015592246199958026, -0.00033898933907039464, 0.0018595053115859628, 0.11989980190992355, -0.08465508371591568, 0.15090511739253998, -0.05130694806575775, -0.08388970047235489, 0.09760896116495132, 0.08612880110740662, -0.12315033376216888, 0.27414417266845703, -0.1321873813867569, -0.1202859953045845, 0.05913432687520981, 0.037350788712501526, 0.22536170482635498, 0.1839950978755951, -0.061161041259765625, -0.17652857303619385, 0.11965250968933105, -0.006175023037940264, 0.24308638274669647, -0.3441697955131531, 0.07923104614019394, 0.0162587221711874, -0.0023330184631049633, -0.3580155074596405, 0.20231497287750244, 0.2791455388069153, -0.2859932780265808, 0.10482995212078094, 0.209186851978302, -0.006597769912332296, -0.018513323739171028, -0.1774679571390152, 0.2119247168302536, 0.23311084508895874, -0.22204817831516266, -0.029213914647698402, -0.1716919243335724, 0.15581928193569183, -0.0025351112708449364, 0.08640148490667343, -0.23739518225193024, 0.23532816767692566, 0.10673892498016357, 0.3043215274810791, 0.12734346091747284, 0.34489747881889343, 0.012477035634219646, 0.2178802341222763, -0.27698805928230286, 0.1571378856897354, 0.015457874163985252, 0.46269771456718445, -0.24139046669006348, -0.0012102428590878844, 0.0022575233597308397, -0.03990020602941513, 0.041324593126773834, 0.23045614361763, 0.35530707240104675, 0.21108777821063995, -0.34035733342170715, 0.0966433510184288, 0.00594293000176549, 0.02756677195429802, -0.049542348831892014, -7.55897126509808e-05, 0.32059967517852783, -0.11965199559926987, 0.13866789638996124, 0.2660595178604126, -0.017236096784472466, -0.24794407188892365, 0.15664249658584595, 0.2623424232006073, -0.11375245451927185, -0.11747538298368454, -0.0748932808637619, -0.32577237486839294, 0.0232513677328825, 0.06656468659639359, -0.03930852189660072, -0.03296344354748726, -0.13851363956928253, -0.3019392192363739, 0.18899603188037872, 0.15610286593437195, 0.005293197464197874, 0.012676822021603584, -0.09392629563808441, -0.2428293079137802, -0.33200129866600037, 0.0014044975396245718, 0.3742649257183075, -0.09305764734745026, -0.09927070140838623, -0.03311583027243614, -0.20325055718421936, -0.1033303365111351, -0.06117255985736847, -0.006283225491642952, -0.013819456100463867, -0.022415148094296455, -0.006744495127350092, -0.007273524068295956, -0.0641271248459816, -0.008045291528105736, -0.00899318978190422, -0.018523233011364937, -0.024440599605441093, -0.020873775705695152, -0.025434670969843864, 0.05204570293426514, 0.0233538169413805, 0.026151003316044807, 0.02420407347381115, 0.016903378069400787, 0.0713312029838562, 0.02719329483807087, 0.022899994626641273, 0.016281019896268845, 0.034457311034202576, 0.04748658090829849, 0.05057105794548988, -0.02140960469841957, -0.030730176717042923, -0.049148090183734894, -0.041581325232982635, -0.03553718701004982, -0.06191186234354973, 0.001247368287295103, -0.005618604831397533, 0.004603621084243059, 0.0026045357808470726, 0.001563246943987906, 0.014713764190673828, 0.002958376193419099, 0.009555616416037083, 0.016577858477830887, 0.014607232995331287, 0.011592709459364414, 0.027011604979634285, 0.033232174813747406, 0.029359012842178345, 0.07189010083675385, 0.0583653450012207, 0.0398629829287529, 0.11164121329784393, 0.12715736031532288, 0.07285431027412415, 0.046696387231349945, -0.043683502823114395, -0.012920467182993889, -0.06145917624235153, 0.22606635093688965, 0.1767863631248474, 0.27146947383880615, 0.18525119125843048, 0.15243709087371826, -0.1337195634841919, 0.0751057043671608, -0.0723009780049324, -0.21184006333351135, -0.16120189428329468, -0.09490682184696198, 0.018699077889323235, -0.1669469177722931, -0.21743883192539215, -0.11562048643827438, -0.061400026082992554, 0.1275511533021927, 0.35046258568763733, -0.005850595887750387, 0.21037329733371735, 0.2249065637588501, -0.005759137682616711, -0.03522105515003204, -0.2741251587867737, -0.03926592692732811, -0.052692294120788574, -0.18119096755981445, -0.06039508059620857, 0.055823300033807755, -0.045444611459970474, -0.4001469910144806, -0.21928814053535461, -0.1942911297082901, -0.0004356757563073188, -0.03807912766933441, 0.03805120661854744, -0.05015468969941139, -0.18472978472709656, -0.29080379009246826, -0.23012609779834747, -0.008811218664050102, 0.320691853761673, 0.007658773567527533, -0.06952977925539017, -0.038521308451890945, -0.13536392152309418, -0.037379637360572815, -0.18858970701694489, 0.04766812175512314, 0.20012111961841583, 0.1061655730009079, 0.20671755075454712, -0.0008059002575464547, 0.1332847625017166, 0.05987495183944702, 0.05151565745472908, 0.07412786036729813, -0.08594515919685364, 0.139010488986969, 0.04391470178961754, 0.01841716654598713, -0.08007355034351349, -0.020215801894664764, 0.10229572653770447, 0.1711694598197937, 0.033106863498687744, -0.027736486867070198, -0.06975144147872925, 0.002150212414562702, -0.09931328892707825, -0.2963820695877075, 0.021031398326158524, -0.09222820401191711, -0.1356998234987259, -0.12803013622760773, -0.21728922426700592, -0.19828185439109802, -0.36653047800064087, 0.0826016291975975, 0.04049557447433472, 0.05468243733048439, 0.10651947557926178, 0.16021372377872467, -0.07646746933460236, 0.06409179419279099, 0.10087272524833679, 0.1508256196975708, 0.02692743018269539, 0.06705904752016068, -0.13721920549869537, 0.00014897793880663812, 0.00017582884174771607, 0.00014733365969732404, 0.00012284982949495316, 8.928060560720041e-05, 4.806090146303177e-05, -0.0012840734561905265, -0.0012905668700113893, -0.0012155945878475904, -0.0012567178346216679, -0.001337656402029097, -0.0014959585387259722, 5.636934656649828e-05, 6.666133413091302e-05, 4.353330587036908e-05, 0.00012109581439290196, 0.00013481687346938998, 0.000259693362750113, -0.0002574858663138002, -0.00033194245770573616, -0.0003586814273148775, -0.00038888707058504224, -0.00032298307633027434, -0.0001330504019279033, 0.000788453035056591, 0.0007667887257412076, 0.000909118156414479, 0.0007300180150195956, 0.0005686532240360975, 0.00017650198424234986, 4.919616912957281e-05, 8.175794937415048e-05, 4.586960858432576e-05, 0.00011446329153841361, 0.0001524065446574241, 0.00028877612203359604, 0.0005004049162380397, 0.0005006054998375475, 0.0004692125367000699, 0.0005227958899922669, 0.0005826802225783467, 0.0007120564696379006, -0.0003160087508149445, -0.00027052353834733367, -0.0003925603814423084, -0.00016975615289993584, -1.811560468922835e-05, 0.00038584863068535924, -0.0007366412319242954, -0.0003635659522842616, -0.0001810942339943722, -0.00021926233603153378, -9.009401401272044e-05, 3.555655712261796e-05, -0.0092179449275136, -0.009253626689314842, -0.009193837642669678, -0.009214562363922596, -0.009063314646482468, -0.009169062599539757, -1.695937680779025e-05, 0.0008275377913378179, 0.0007655985536985099, 0.000720710726454854, 0.0007890029810369015, 0.0007457656902261078, 0.0011125907767564058, 2.2000442186254077e-05, 1.973385406017769e-05, -3.7945585063425824e-05, 2.9396984245977364e-05, -0.0002516675740480423, 0.004479474388062954, 0.003615712746977806, 0.003818450029939413, 0.0038844484370201826, 0.004487995523959398, 0.00446962658315897, 0.0079524340108037, 0.008267105557024479, 0.008131331764161587, 0.008229316212236881, 0.008029444143176079, 0.00820583663880825, 0.008432579226791859, 0.008438852615654469, 0.008384527638554573, 0.008442498743534088, 0.008292903192341328, 0.008334407582879066, 0.0010822460753843188, 0.001835558214224875, 0.0015673055313527584, 0.0016694993246346712, 0.0011173548409715295, 0.001337861642241478, 0.059698086231946945, -0.04699709638953209, -0.04062080383300781, -0.05114766210317612, -0.03117743693292141, -0.28986287117004395, 0.04645143821835518, 0.04807654395699501, 0.06239686906337738, 0.03392495587468147, -0.07660731673240662, -0.02526497282087803, 0.04591725766658783, -0.04754340276122093, -0.16619406640529633, -0.19499321281909943, -0.05983421206474304, 0.2803434431552887, -0.2702953517436981, -0.10321898013353348, -0.15996958315372467, -0.021810365840792656, -0.02110876888036728, 0.2607143521308899, -0.008283603005111217, 0.038303203880786896, 0.18344558775424957, 0.1713329702615738, -0.03589951619505882, -0.1359470933675766, 0.07059074938297272, 0.01948809064924717, 0.02723674848675728, 0.008166558109223843, -0.06614129990339279, -0.024994907900691032, -0.06368882209062576, -0.1370949149131775, -0.06802880764007568, -0.07640917599201202, -0.0520993135869503, 0.149663507938385, -0.10109349340200424, -0.17579656839370728, -0.0914841815829277, -0.17420919239521027, -0.012310084886848927, 0.22702419757843018, 0.010081241838634014, -0.022688385099172592, 0.02726552076637745, -0.024788958951830864, 0.05589607357978821, 0.05887129157781601, 0.10344509035348892, -0.002583159366622567, 0.00980375800281763, 0.06629526615142822, 0.0010610765311866999, -0.05982673168182373, 0.019824063405394554, -0.07107602804899216, -0.04337520897388458, -0.0255265049636364, -0.08215826004743576, -0.09103455394506454, 0.03154260292649269, -0.015337209217250347, -0.07092195749282837, 0.00846121832728386, 0.07179185748100281, 0.02550712414085865, -0.0841645896434784, -0.011251223273575306, -0.10745787620544434, -0.028265491127967834, -0.09384111315011978, -0.088395856320858, -0.04392518848180771, -0.06887570023536682, -0.03094259835779667, -0.0637388825416565, -0.01634914241731167, -0.06079064682126045, -0.06596846878528595, -0.04323798790574074, -0.03796422854065895, -0.047690704464912415, -0.04339093342423439, -0.04460517689585686, 0.0488632433116436, -0.0019993421155959368, 0.12214451283216476, 0.056160297244787216, -0.005041769705712795, 0.01783076860010624, -0.015943817794322968, 0.017810486257076263, -0.07020992040634155, 0.08304879814386368, -0.06777044385671616, 0.014721053652465343, -0.009585630148649216, 0.04586958512663841, -0.008869114331901073, 0.013739252462983131, 0.11811228096485138, -0.017249727621674538, -0.05950304493308067, 0.07595565170049667, -0.0441788025200367, 0.007518180180341005, -0.025599204003810883, 0.0025435772258788347, 0.04953889548778534, 0.13840742409229279, 0.12746386229991913, 0.016064252704381943, 0.0035146663431078196, 0.07943696528673172, 0.05197318270802498, -0.05775332450866699, 0.002708941465243697, -0.22269085049629211, 0.06773173063993454, -0.11296192556619644, 0.009014254435896873, 0.01238313503563404, -0.013464918360114098, 0.03158605098724365, -0.06514007598161697, 0.06882209330797195, -0.10498260706663132, -0.036299094557762146, -0.11535174399614334, -0.029365168884396553, -0.09018702059984207, -0.007532550487667322, 0.08159182220697403, 0.05412907525897026, -0.08494527637958527, 0.08362582325935364, -0.061546314507722855, 0.090333491563797, -0.0610792338848114, 0.09457677602767944, 0.21592989563941956, -0.011817079037427902, -0.014279907569289207, 0.025399282574653625, -0.015572108328342438, 0.03019477240741253, 0.07025085389614105, 0.6045179963111877, 0.6129621267318726, -0.0003215213364455849, -0.0020642944145947695, 0.6781882643699646, 0.35107073187828064, -0.5625258088111877, -0.07122308760881424, -0.23407325148582458, -0.2625899910926819, 4.3436764826765284e-05, 0.006279264576733112, -0.0811016783118248, -0.012734037823975086, 0.1953958123922348, -0.038956474512815475, -0.4644778370857239, 0.09112425148487091, 5.251590846455656e-05, 0.006602396722882986, -0.1598411649465561, -0.09113550931215286, 0.19655907154083252, -0.1225365474820137, 0.23681625723838806, -0.4856834411621094, -0.0001749470247887075, -0.015426223166286945, 0.07507172971963882, -0.16153410077095032, 0.23465310037136078, -0.0442960187792778, 0.0810171440243721, 0.2941274046897888, 8.103841537376866e-05, 0.010095439851284027, 0.061016637831926346, -0.17302760481834412, -0.023292386904358864, -0.002870274242013693, -0.09062056988477707, 0.16994298994541168, 0.00023343879729509354, -0.001885751960799098, 0.06580957770347595, -0.029445253312587738, 0.014617286622524261, -0.03414004296064377, 0.005684777162969112, 0.24152648448944092, 4.039964551338926e-05, 0.004618498031049967, 0.05029882490634918, -0.013355201110243797, -0.049043718725442886, -0.004763829987496138, 0.6606115102767944, 0.02964487113058567, -0.0004434949951246381, -0.0063947271555662155, 0.295232892036438, -0.05213291943073273, -0.020692775025963783, 0.06042972952127457, 0.2721010446548462, 0.08684976398944855, 0.0003657939378172159, -0.002815947635099292, 0.21829572319984436, 0.03150913119316101, 0.07358411699533463, -0.039738979190588, 0.0213234331458807, 0.05545439198613167, -0.12790744006633759, 0.07513130456209183, -0.15516488254070282, -0.14739401638507843, -0.21666161715984344, -0.00567111698910594, -0.004125563427805901, 0.018889136612415314, 0.07450692355632782, -0.028415841981768608, -0.014376538805663586, 0.043634552508592606, 0.0747394859790802, 0.017358900979161263, -0.021783147007226944, -0.10388960689306259, 0.02365969493985176, 0.024937469512224197, 0.016723323613405228, 0.0339912548661232, 0.14139369130134583, 0.05644945055246353, -0.11201506853103638, -0.004391745198518038, -0.0753927007317543, -0.0788765400648117, -0.008542289026081562, 0.015285840258002281, 0.23512767255306244, -0.04818443953990936, -0.016077062115073204, -0.03551787883043289, 0.038491763174533844, -0.0761929303407669, 0.05418175086379051, -0.020354969426989555, 0.02946820668876171, -0.03604826703667641, -0.02946612425148487, -0.0016984922112897038, 0.023517601191997528, -0.017601272091269493, 0.0035071666352450848, 0.010135211981832981, 0.0034002966713160276, 0.17974457144737244, -0.09780187159776688, 0.017632920295000076, 0.032668787986040115, -0.019737515598535538, -0.03806668892502785, 0.038862764835357666, -0.04002406820654869, 0.022322099655866623, 0.0036656945012509823, 0.02723843976855278, 0.025677409023046494, 0.03362608700990677, 0.01800648309290409, 0.0015895875403657556, -0.026103327050805092, 0.008562312461435795, 0.0013872554991394281, 0.012491701170802116, -0.008810700848698616, 0.0030460068956017494, 0.010295134969055653, -0.003431892255321145, 0.011872728355228901, -0.008472026325762272, 0.01229945756494999, -0.009330988861620426, 0.02214592881500721, 0.02380792237818241, 0.04073919728398323, -0.017816081643104553, 0.022906634956598282, -0.029403040185570717, -0.012284055352210999, 0.015866771340370178, 0.02020566537976265, 0.00856996700167656, 0.01660415716469288, 0.013176800683140755, 0.012028386816382408, 0.0066222031600773335, 0.010287448763847351, 0.0014836291084066033, 0.006702343001961708, -0.019510049372911453, 0.011420346796512604, -0.03670499846339226, -0.017896046862006187, -0.03685088828206062, -0.00013969215797260404, 0.012767119333148003, 0.02048439159989357, -0.026097135618329048, -0.027067791670560837, -0.019939564168453217, -0.018718009814620018, 0.04887795448303223, 0.016219712793827057, 0.0031926340889185667, -0.023929674178361893, 0.09442571550607681, 0.051133446395397186, -0.031459879130125046, -0.03126862272620201, -0.05635678768157959, -0.0676470622420311, 0.02331077679991722, 0.021273091435432434, -0.036844175308942795, -0.06159108504652977, -0.10325569659471512, -0.15475697815418243, 0.0003226269909646362, 0.13175347447395325, 0.012509891763329506, 0.07373201847076416, 0.03877924382686615, -0.01804766245186329, 0.02895660325884819, -0.20567014813423157, -0.040557458996772766, 0.015371883288025856, -0.023684080690145493, -0.0413278304040432, 0.1497161090373993, -0.023545758798718452, 0.04358780384063721, 0.0517159178853035, 0.033357884734869, 0.019802995026111603, -0.0015746979042887688, -0.02454976923763752, -0.017421584576368332, 0.017414553090929985, 0.009587873704731464, -0.0235839132219553, -0.08278429508209229, -0.04033730924129486, 0.04375820979475975, 0.03785165771842003, 0.048052720725536346, 0.02309323288500309, -0.20891593396663666, 0.024897132068872452, 0.05025044456124306, 0.04567446559667587, 0.07879887521266937, 0.01697857305407524, 0.036471299827098846, -0.008116508834064007, 0.04502473026514053, 0.026768920943140984, 0.04354197531938553, -0.0017684054328128695, -0.03634322062134743, 0.08230651170015335, 0.04882654547691345, 0.09562370926141739, 0.02958734519779682, 0.021292610093951225, -0.01220926083624363, 0.0569114163517952, 0.02614830806851387, 0.052566081285476685, 0.009046491235494614, 0.12180139869451523, 0.02612295188009739, 0.054190393537282944, -0.028297467157244682, 0.009739840403199196, 0.0053328885696828365, 0.02530190721154213, -0.06997869908809662, 0.03409698233008385, 0.008465277962386608, 0.019112974405288696, 0.008444016799330711, 0.0180305577814579, -0.00801457092165947, 0.004677708726376295, -0.07197480648756027, 0.0019437223672866821, -0.10384521633386612, -0.00447545712813735, 7.24796555005014e-05, -0.07119796425104141, -0.014574404805898666, -0.021082786843180656, -0.0693863108754158, -0.032722774893045425, 0.04917967692017555, -0.03782488405704498, -0.0009085266501642764, -0.009434618055820465, 0.007929072715342045, 0.008023693226277828, 0.002895935205742717, 0.011416718363761902, 0.029110243543982506, -0.013855861499905586, 0.035566363483667374, 0.0356936939060688, 0.04317726939916611, 0.03314659744501114, -0.011547724716365337, 0.006290571764111519, -0.02525782585144043, -0.01253269612789154, -0.012361248023808002, 0.009580269455909729, -0.0016186014981940389, -0.002945938380435109, 0.0004049135313834995, -0.004678808152675629, -0.010190515778958797, -0.03853413090109825, 0.014799151569604874, -0.01960613951086998, 0.03208555653691292, 0.02372690849006176, 0.037763290107250214, 0.03119576908648014, -0.010648055002093315, -0.0073709143325686455, -0.014798060990869999, -0.01357976719737053, -0.016843797639012337, -0.016172822564840317, -0.013991118408739567, 0.03131614625453949, -0.027838483452796936, -0.02713087946176529, -0.03551265224814415, -0.02456662245094776, -0.01609356887638569, 0.0500885508954525, -0.049875445663928986, -0.03035089746117592, -0.054715171456336975, -0.052483316510915756, -0.07053609937429428, -0.02156953327357769, -0.009722068905830383, -0.19916389882564545, -0.189574733376503, -0.053563933819532394, 0.013082883320748806, -0.0464341826736927, 0.016635997220873833, 0.049924086779356, 0.0574912391602993, 0.21567179262638092, 0.01141591276973486, -0.05527118593454361, -0.215814471244812, -0.02110566385090351, -0.4908902049064636, -0.12116372585296631, -0.014055470004677773, 0.044061124324798584, 0.14301422238349915, 0.12681330740451813, 0.10068172216415405, -0.09149881452322006, -0.0198472049087286, -0.03290722519159317, -0.06355792284011841, -0.1874966323375702, -0.1642981916666031, 0.1503509134054184, -0.07200412452220917, -0.04228278994560242, -0.056165870279073715, 0.07440701872110367, -0.06366057693958282, -0.16352126002311707, -0.02826387993991375, -0.04126768931746483, -0.006171899382025003, -0.1350175142288208, 0.018368110060691833, -0.059075888246297836, -0.032422713935375214, -0.00898655503988266, 0.03616149351000786, 0.07779685407876968, 0.16673991084098816, -0.13693277537822723, 0.014813060872256756, -0.01287012081593275, 0.02376643568277359, 0.03146836534142494, 0.05809716135263443, -0.0314011387526989, 0.002493588486686349, 0.04652690142393112, 0.01617071032524109, -0.020793234929442406, 0.021488621830940247, 0.030628226697444916, -0.006735203322023153, 0.008299779146909714, 0.09353996813297272, 0.027976438403129578, 0.07718376815319061, -0.047301240265369415, 0.03431444615125656, -0.038738980889320374, -0.0748840719461441, -0.013391059823334217, -0.03911526873707771, 0.11082451045513153, -0.0749126747250557, -0.015011166222393513, -0.06412017345428467, 0.05426892265677452, -0.05927402526140213, 0.016587859019637108, 0.0343991294503212, 0.019478341564536095, -0.023187680169939995, -0.008187457919120789, 0.004717360716313124, 0.054168831557035446, -0.03577787056565285, 0.0019691481720656157, 0.015438957139849663, 0.01871422678232193, -0.00032427269616164267, -0.006352083291858435, 0.0438610278069973, 0.005322946701198816, 0.0381523035466671, -0.05977800488471985, -0.021290944889187813, -0.012399357743561268, 0.0625564232468605, 0.01868358999490738, -0.0007060290081426501, 0.11247598379850388, -0.0039581372402608395, 0.021425489336252213, 0.0004937613266520202, -0.014891176484525204, -0.04790489003062248, -0.042069341987371445, 0.001981067005544901, 0.05698205158114433, -0.07116539031267166, -0.020408252254128456, -0.12555494904518127, 0.05288005247712135, 0.01227161567658186, -0.025588208809494972, 0.056843679398298264, 0.06569309532642365, 0.02846076525747776, 0.012451127171516418, -0.12583141028881073, -0.014784143306314945, -0.05793887749314308, -0.023278141394257545, -0.017123030498623848, 0.06829138100147247, -0.05193467065691948, 0.1426744908094406, 0.02576415054500103, 0.024784622713923454, 0.01740236021578312, 0.004486891441047192, -0.017232421785593033, -0.05845358595252037, -0.0758051946759224, -0.06056888401508331, -0.04498756676912308, -0.006026136688888073, -0.04046756029129028, -0.007561845239251852, 0.031234949827194214, 0.021355101838707924, 0.022273017093539238, -0.12303269654512405, 0.07368583977222443, -0.16220596432685852, -0.05288655683398247, -0.027551233768463135, -0.08250650018453598, -0.0036906953901052475, -0.006795295514166355, 0.1338156759738922, 0.02824900485575199, -0.14109942317008972, 0.05074625089764595, -0.010737753473222256, -0.051682814955711365, 0.024775726720690727, -0.04754706099629402, -0.6966252326965332, 0.048319123685359955, -0.12067507952451706, -0.06778611242771149, 0.059642236679792404, 0.04056783393025398, 0.06757298111915588, 0.027875984087586403, 0.33516234159469604, 0.0411766842007637, 0.18629524111747742, -0.14372757077217102, 0.012160534970462322, -0.05279763415455818, 0.06905635446310043, -0.04258119314908981, -0.07916409522294998, -0.09358985722064972, 0.013499927707016468, -0.16088561713695526, 0.054559141397476196, -0.0175650492310524, -0.07200314104557037, 0.01039407029747963, 0.22936810553073883, -0.10143497586250305, 0.1711544692516327, 0.0225797351449728, -0.006738879252225161, -0.3035063147544861, 0.11590356379747391, -0.03128081187605858, -0.14518766105175018, 0.009245525114238262, -0.10174977779388428, -0.09891225397586823, -0.0049577816389501095, 0.13956180214881897, -0.09077316522598267, -0.055615104734897614, 0.12893375754356384, -0.11193709075450897, 0.05532658472657204, 0.030772743746638298, -0.025609465315937996, -0.09728281199932098, 0.048326123505830765, -0.0698838084936142, 0.017972365021705627, 0.04608941450715065, -0.18416857719421387, -0.11707939952611923, -0.04476841539144516, 0.17221882939338684, -0.05927726626396179, -0.010558456182479858, -0.3293921649456024, 0.09863100200891495, -0.2430948168039322, -0.0306352861225605, -0.034525319933891296, 0.1416061520576477, -0.1844521313905716, 0.006269119679927826, -0.0733761116862297, 0.022394366562366486, -0.031228430569171906, 0.2108803242444992, 0.01769322343170643, -0.15793505311012268, 0.043014634400606155, 0.11347674578428268, 0.013781231828033924, 0.032020192593336105, 0.029737688601017, -0.03845328837633133, -0.00435834564268589, -0.0024989417288452387, 0.07613807916641235, 0.005750566720962524, 0.24630603194236755, 0.011149798519909382, 0.03616625443100929, 0.021778717637062073, -0.04753204062581062, -0.031818561255931854, 0.349054753780365, -0.01381861511617899, -0.0144161656498909, 0.011618121527135372, 0.0596688948571682, -0.2415960133075714, -0.05383182317018509, -0.04073100537061691, -0.04838366433978081, -0.06332512944936752, 0.0037368310149759054, 0.2725951075553894, -0.05319542437791824, 0.07706067711114883, 0.09947482496500015, 0.11712047457695007, -0.0529138557612896, -0.015464634634554386, 0.2021217942237854, 0.006555560510605574, -0.05589127540588379, -0.10768429934978485, -0.19541990756988525, 0.01274989452213049, 0.05307844281196594, 0.05058399960398674, 0.06430015712976456, 0.05306664854288101, 0.019739234820008278, -0.14732429385185242, -0.6556838154792786, -0.013869695365428925, 0.018463805317878723, 0.03965866565704346, 0.03818071261048317, 0.29388484358787537, -0.3842437267303467, 0.03332684189081192, -0.022116297855973244, 0.007402804680168629, -0.03753706067800522, -0.08837028592824936, -0.2240237295627594, 0.012409545481204987, 0.010784502141177654, 0.03106164187192917, 0.0029014432802796364, 0.16112367808818817, -0.23206520080566406, -0.004295137245208025, 0.0007317165145650506, -0.007800836116075516, 0.012216055765748024, 0.16951923072338104, -0.0872119665145874, 0.05950896069407463, 0.048643942922353745, 0.03698141872882843, -0.07416017353534698, -0.23789680004119873, 0.1835019588470459, 0.005319840274751186, 0.02069084905087948, 0.02578696608543396, 0.1113344207406044, 0.14081606268882751, -0.09677883982658386, 0.0060984548181295395, 0.09753116965293884, 0.1123037189245224, -0.07721632719039917, -0.11688414961099625, 0.08077069371938705, -0.05942342057824135, -0.0604679100215435, -0.028236255049705505, -0.0028420714661478996, 0.08334995806217194, 0.11181952804327011, 0.060544490814208984, 0.024706559255719185, 0.008006671443581581, -0.0026412566658109426, -0.1896020919084549, 0.10830529034137726, -0.002151430817320943, -0.00404307059943676, 0.006722273770719767, -0.013024446554481983, 0.0013051505666226149, -0.0024113289546221495, -0.038719188421964645, -0.03776196017861366, -0.027473293244838715, -0.06499823182821274, -0.08567138016223907, -0.06839074194431305, 0.02532253786921501, 0.03034519962966442, 0.026905976235866547, 0.013231764547526836, -0.027966869994997978, 0.016220536082983017, 0.008698677644133568, -0.020731085911393166, -0.023755159229040146, -0.007493971846997738, 0.0920770987868309, 0.017848342657089233, 0.01815258339047432, 0.009893830865621567, 0.0069978004321455956, -0.003554897615686059, -0.04631442204117775, -0.12641318142414093, -0.01899356208741665, -0.02693035826086998, -0.02398066595196724, -0.02821754291653633, 0.042302340269088745, 0.06989189237356186, 0.019452620297670364, 0.0016997797647491097, -0.02081073820590973, 0.0013888118555769324, -0.036800261586904526, 0.023981941863894463, -0.041779763996601105, -0.007843490689992905, -0.03457058221101761, -0.05743415281176567, 0.028892166912555695, 0.13932017982006073, 0.030881958082318306, 0.02154277078807354, 0.009191933088004589, 0.019558247178792953, -0.012828569859266281, 0.020991630852222443, 0.01837318204343319, 0.002708232030272484, -0.00604013679549098, 0.0153160709887743, -0.009890502318739891, 0.026014909148216248, -0.0038840824272483587, -0.016159115359187126, -0.004798583686351776, 0.007455017417669296, 0.0056860195472836494, -0.00474637933075428, 0.04832376912236214, 0.06651362776756287, 0.051679663360118866, 0.011929584667086601, 0.03633630648255348, 3.8746286008972675e-05, -0.00902229081839323, 0.0005191441741771996, 0.013861080631613731, 0.007313629612326622, 0.012306571938097477, 0.012920278124511242, 0.013926465064287186, 0.01587664522230625, -0.002511585596948862, -0.005788236856460571, -0.010088103823363781, -0.02586561068892479, -0.02626672200858593, -0.016201812773942947, 0.007221064995974302, -0.013839910738170147, 0.02287702076137066, 0.008032696321606636, 0.05118267983198166, 0.030847223475575447, 0.00916611310094595, 0.01354153361171484, 0.028682522475719452, 0.008482425473630428, -0.0066498457454144955, 0.014352069236338139, -0.0024469345808029175, -0.052620988339185715, -0.04395778477191925, -0.04777313768863678, 0.04199635982513428, 0.03324359282851219, 0.017292369157075882, 0.0420074462890625, 0.03614028915762901, -0.14307868480682373, -0.026759179309010506, -0.03928894177079201, -0.017865309491753578, 0.08892015367746353, -0.02577061951160431, -0.2776756286621094, -0.01642453856766224, -0.033630337566137314, -0.06073930114507675, -0.1299894154071808, -0.2852865755558014, 0.20699651539325714, 0.05755706503987312, 0.07261233776807785, 0.12110784649848938, 0.06475004553794861, 0.1397760957479477, -0.04385462775826454, -0.008390529081225395, -0.08563757687807083, -0.11193220317363739, -0.09769909083843231, -0.225239098072052, -0.013018405996263027, 0.07108337432146072, 0.07807785272598267, 0.07453837245702744, 0.12103729695081711, 0.2693287134170532, 0.07104579359292984, -0.009920045733451843, 0.01029875036329031, 0.030908390879631042, -0.06842295080423355, -0.17772629857063293, 0.1826285570859909, 0.010679835453629494, -0.005195948760956526, 0.008032158948481083, 0.0352005735039711, 0.04199911653995514, 0.06010224297642708, 0.012433035299181938, 0.009677119553089142, 0.024433737620711327, 0.012120350264012814, 0.021407315507531166, -0.1442452073097229, -0.01656102016568184, -0.06371820718050003, -0.01858038641512394, -0.0776151493191719, 0.17477411031723022, -0.21254253387451172, 0.019964031875133514, 0.038372702896595, -0.03195980191230774, -0.016786420717835426, -0.12476231902837753, 0.02365962043404579, 0.03652346879243851, 0.06266001611948013, 0.024033937603235245, 0.020205741748213768, 0.023496758192777634, -0.05893808230757713, -0.0007728553609922528, 0.03666673228144646, -0.020285772159695625, -0.006523400545120239, -0.08333852887153625, 0.03645048663020134, -0.020336778834462166, -0.04238229990005493, -0.051092419773340225, -0.03150063753128052, 0.1377004086971283, -0.011281962506473064, 0.0654718205332756, 0.08241630345582962, 0.09938829392194748, 0.0567564032971859, 0.08036834746599197, 0.14208008348941803, -0.01608944498002529, -0.058378756046295166, -0.011328601278364658, 0.017783354967832565, -0.04297428950667381, 0.047177184373140335, -0.05561808869242668, -0.03774132952094078, -0.021196354180574417, -0.05710797384381294, 0.02873566746711731, 0.02584473043680191, -0.006806294433772564, -0.10256389528512955, -0.068743497133255, -0.12930192053318024, 0.023397132754325867, -0.06406551599502563, 0.02921517752110958, 0.09725452214479446, 0.09512445330619812, 0.039290882647037506, 0.08250203728675842, -0.09407516568899155, -0.0013664397411048412, -0.05147605389356613, -0.04358501732349396, 0.022851353511214256, -0.028231536969542503, 0.012248696759343147, 0.01538341399282217, -0.006959692109376192, 0.037289056926965714, 0.06040780618786812, 0.030067594721913338, 0.02556358091533184, -0.1082594096660614, -0.12914159893989563, -0.09568343311548233, -0.012771711684763432, -0.020642099902033806, -0.04630962386727333, 0.07821431756019592, 0.05453982949256897, 0.057942673563957214, 0.016610218212008476, 0.03428506851196289, -0.057624008506536484, 0.016457049176096916, 0.005473379045724869, 0.04786300286650658, 0.0078041888773441315, -0.08432752639055252, 0.07575930655002594, 0.0071806167252361774, 0.015292570926249027, 0.011605404317378998, 0.06723647564649582, -0.186476930975914, 0.09692949801683426, -0.02294059284031391, -0.020057855173945427, 0.05445137992501259, 0.15367944538593292, 0.0903252586722374, 0.05176711827516556, 0.012386458925902843, 0.015865175053477287, 0.004291194956749678, -0.1606832593679428, 0.11701863259077072, -2.271757330163382e-05, -0.04961036518216133, -0.013554729521274567, 0.016575323417782784, 0.08480694890022278, -0.01895223557949066, -0.0473608560860157, 0.01045241765677929, -0.006860481109470129, 0.0157790407538414, -0.12584292888641357, 0.04551400616765022, 0.035739701241254807, -0.057465486228466034, -0.01696663722395897, 0.0038915991317480803, 0.12456048280000687, 0.20711317658424377, -0.07935781031847, 0.05956556648015976, 0.020222298800945282, -0.0018087128410115838, -0.10479019582271576, 0.1455594301223755, -0.0069876015186309814, 0.00629443908110261, 0.15216414630413055, -0.11788484454154968, 0.009092496708035469, 0.24053128063678741, 0.13119560480117798, 0.13887718319892883, -0.0431973971426487, 0.1327567845582962, 0.13405364751815796, 0.10164899379014969, 0.008749430999159813, 0.9082626700401306, 0.04190923646092415, -0.10570254176855087, 0.12650398910045624, 0.06790345907211304, 0.2701224982738495, -0.14554917812347412, -0.022598976269364357, -0.0508740097284317, 0.023935358971357346, 0.03729355335235596, -0.23482559621334076, -0.0009375113295391202, -0.04785814881324768, 0.02003645710647106, 0.030337486416101456, -0.2402917593717575, -0.18862399458885193, -0.13299143314361572, 0.0269110519438982, 0.07977902889251709, 0.26972275972366333, -0.165596604347229, 0.029661104083061218, 0.27872100472450256, -0.049165260046720505, -0.07285807281732559, -0.0861722081899643, 0.17993684113025665, 0.0560033917427063, -0.05717078223824501, -0.02366315759718418, -0.12112864851951599, -0.25752630829811096, -0.2130577266216278, 0.09335916489362717, -0.21503032743930817, 0.09505461156368256, 0.13784126937389374, 0.06409026682376862, 0.06465940177440643, 0.016587140038609505, 0.0779111236333847, 0.04649936035275459, -0.02674691006541252, -0.1748947948217392, 0.04532799497246742, 0.016501471400260925, 0.436409056186676, 0.09079889953136444, -0.12428358942270279, 0.14856472611427307, -0.5058392286300659, 0.3261421322822571, 0.1143101379275322, -0.006282505579292774, 0.17803329229354858, 0.16286100447177887, -0.05980081483721733, -0.2651863992214203, -0.27007579803466797, 0.11117034405469894, -0.05443093180656433, -0.029106630012392998, 0.14294694364070892, -0.27552565932273865, 0.058561984449625015, -0.10970073193311691, -0.01035244856029749, -0.05646552890539169, 0.031980179250240326, 0.14512696862220764, -0.19490888714790344, -0.0989546850323677, -0.11827486008405685, 0.24707047641277313, 0.01136395987123251, 0.0432819165289402, 0.027996692806482315, 0.0024069324135780334, 0.007922710850834846, 0.1531001180410385, 0.03965432941913605, 0.046174656599760056, 0.028195887804031372, 0.055124036967754364, 0.07441543787717819, 0.14002655446529388, 0.006828738376498222, -0.01725604198873043, -0.01030397042632103, -0.024365609511733055, 0.09629914909601212, 0.1860903948545456, 0.0018747145077213645, 0.013634984381496906, -0.03323620557785034, -0.0255673136562109, -0.05236034095287323, 0.34089919924736023, 0.038264915347099304, 0.052236512303352356, 0.009008046239614487, 0.07671496272087097, 0.10464613139629364, -0.10257089883089066, 0.019407283514738083, 0.017453957349061966, 0.005202677566558123, 0.03331346809864044, 0.015592188574373722, 0.1055365726351738, 0.01378675363957882, 0.03164786100387573, 0.03351038321852684, 0.054141975939273834, 0.08059265464544296, -0.4580298662185669, 0.011565029621124268, 0.004758803173899651, -0.015480452217161655, -0.0554700531065464, -0.07431546598672867, -0.23593617975711823, -0.022338157519698143, -0.0068858168087899685, 0.011721941642463207, 0.023899409919977188, -0.018166225403547287, 0.03966178372502327, 0.023762844502925873, -0.038879524916410446, 0.020857984200119972, -0.012631245888769627, -0.005645891651511192, 0.020051337778568268, -0.03723959997296333, -0.01093489769846201, -0.05555099993944168, -0.03431447967886925, -0.0771130844950676, -0.005553719121962786, -0.02478133887052536, 0.03431665524840355, -0.01213083416223526, -0.008312787860631943, 0.005073932930827141, 0.0025696835946291685, 0.012739304453134537, -0.022001734003424644, -0.007020375691354275, -0.023138105869293213, -0.015300678089261055, -0.012534207664430141, 0.002462694887071848, 0.08153080195188522, 0.00034392072120681405, 0.0032919938676059246, 0.016809983178973198, -0.01870100386440754, -0.005919589661061764, 0.04743065685033798, -0.013640000484883785, 0.0013498570770025253, -0.0185882318764925, -0.05029720813035965, -0.0274256132543087, 0.04391477629542351, 0.02476416900753975, 0.022843966260552406, 0.022849107161164284, -0.016181010752916336, 0.03473673388361931, 0.0894056186079979, 0.055157918483018875, 0.004069453105330467, 0.03409597650170326, 0.1799456775188446, -0.005562439560890198, -0.015721961855888367, -0.04434409737586975, -0.04820102080702782, -0.02993563376367092, 0.03245692700147629, 0.031878113746643066, 0.03561461716890335, 0.038671281188726425, 0.09460192173719406, 0.12470819056034088, -0.031238261610269547, -0.016055401414632797, -0.045690614730119705, -0.08297206461429596, -0.1148119643330574, -0.07776424288749695, 0.004392090253531933, 0.12076545506715775, 0.12978529930114746, 0.1589445322751999, 0.06335020065307617, 0.16215111315250397, 0.004989911802113056, 0.0373336561024189, -0.043856993317604065, -0.026095664128661156, -0.015264778397977352, -0.1073613092303276, -0.19287559390068054, 0.016972439363598824, 0.029564330354332924, 0.06468973308801651, 0.020179294049739838, 0.0590190663933754, -0.04482218623161316, -0.003310618456453085, 0.012503447011113167, -0.05927729606628418, -0.053390998393297195, -0.0028603640384972095, 0.14743715524673462, 0.008284083567559719, -0.007409072481095791, 0.05423352122306824, 0.036764033138751984, 0.0409538708627224, 0.058695800602436066, 0.015143337659537792, 0.010674387216567993, 0.015411877073347569, -0.027287770062685013, -0.03434625640511513, 0.15559417009353638, 0.013150198385119438, -0.04726874455809593, -0.05949174612760544, -0.09263542294502258, -0.0710737481713295, 0.017589189112186432, -0.0066473823972046375, -0.03854021057486534, -0.016477808356285095, 0.05467544123530388, 0.050835613161325455, -0.221139594912529, -0.012257033959031105, -0.047252967953681946, -0.07906918227672577, -0.0445854552090168, -0.08435570448637009, 0.03999282792210579, 0.028348242864012718, 0.0015061050653457642, 0.009734955616295338, 0.035161204636096954, 0.029284488409757614, -0.19568248093128204, 0.013728445395827293, -0.0061721461825072765, -0.012337376363575459, -0.0020810184068977833, -0.013362878002226353, -0.08180678635835648, -0.0313936322927475, 0.010485867038369179, 0.05132085084915161, 0.0279697198420763, 0.0430125817656517, -0.12516885995864868, 0.04231182485818863, 0.04017022252082825, 0.006474214140325785, -0.04102370887994766, 0.05550365149974823, -0.03535078465938568, -0.00475887069478631, -0.009274904616177082, -0.05918389931321144, 0.029472878202795982, -0.03342228755354881, 0.04232478141784668, -0.00513874739408493, 0.018408412113785744, -0.0025216350331902504, -0.009105600416660309, 0.1415635645389557, 0.009501528926193714, 0.04112323001027107, 0.029513254761695862, 0.017908506095409393, 0.011124533601105213, -0.1207304522395134, 0.031241193413734436, -0.01566699519753456, -0.007027558982372284, -0.013224206864833832, -0.007208689581602812, 0.10402306169271469, -0.1133229061961174, 0.017647936940193176, 0.05685536935925484, 0.04424312710762024, 0.02864517644047737, -0.13194027543067932, 0.05591088905930519, -0.02609722875058651, -0.02645828016102314, -0.03701455891132355, -0.031942740082740784, 0.010118885897099972, -0.13556382060050964, 0.019093697890639305, 0.012120372615754604, -0.017926707863807678, 0.020811105147004128, -0.14396247267723083, -0.02067944034934044, -0.03558502718806267, -0.025668727234005928, -0.07849238067865372, -0.0543072447180748, -0.013349751010537148, -0.10258945822715759, -0.03963529318571091, -0.01515843067318201, -0.026741141453385353, -0.0005924985744059086, 0.005585395265370607, 0.05207269638776779, -0.03701266646385193, -0.04037698358297348, -0.027786722406744957, -0.06630405783653259, -0.028634002432227135, -0.09885817021131516, 0.020755484700202942, 0.02232704684138298, 0.016097284853458405, 0.027031293138861656, 0.034065425395965576, -0.005382932256907225, -0.08605947345495224, -0.08065944164991379, -0.08927436172962189, -0.013963376171886921, -0.07338757067918777, -0.03183183819055557, 0.0003461498417891562, 0.04657117649912834, 0.009250211529433727, 0.0001547817955724895, 0.015354203060269356, -0.0277140773832798, -0.028892630711197853, -0.048723042011260986, -0.044784676283597946, 0.012092961929738522, -0.007564854342490435, 0.008633670397102833, -0.00024344601843040437, 0.044059790670871735, 0.017806880176067352, -0.0171891488134861, 0.04567568749189377, -0.026089979335665703, -0.01596228964626789, 0.00580558180809021, 0.0012277193600311875, 0.019167901948094368, -0.02729375660419464, -0.010655953548848629, 0.001988260308280587, 0.002508772537112236, -0.0018690284341573715, 0.010284693911671638, -0.033031877130270004, 0.003041839925572276, -0.012934047728776932, -0.01812397874891758, 0.00457738246768713, 0.009344823658466339, 0.030171984806656837, -0.001732804928906262, 0.013020679354667664, -0.005823744926601648, 0.04149725288152695, -0.0008168694330379367, 0.010072560049593449, -0.014652724377810955, -0.016400665044784546, -0.018689412623643875, -0.0033243787474930286, -0.00809415616095066, -0.03611248731613159, 0.0003793882788158953, 0.034365590661764145, 0.006949964910745621, 0.02008242718875408, 0.012345856055617332, 0.026429656893014908, -0.005088556092232466, -0.006268344819545746, -0.005413276143372059, -0.011826709844172001, -0.017251193523406982, 0.05064293369650841, 0.023007681593298912, -0.007605654653161764, -0.011731898412108421, -0.01648869924247265, -0.02115141786634922, 0.020404618233442307, -0.004353093449026346, -0.019291657954454422, -0.0009938416769728065, -0.02492266334593296, -0.01614224724471569, -0.022013958543539047, -0.014284122735261917, -0.03517572954297066, -0.07100988179445267, -0.017064176499843597, -0.0770941898226738, -0.0678883045911789, 0.003280801000073552, 0.041882485151290894, 0.0680043175816536, 0.06608341634273529, 0.08451300859451294, 0.091102235019207, 0.02406216226518154, 0.04268459603190422, -0.01930375024676323, -0.06441408395767212, -0.01880897395312786, 0.05641328915953636, -0.0083297248929739, 0.03813982009887695, 0.053567200899124146, 0.10402541607618332, 0.009818192571401596, -0.03481655940413475, 0.10732442140579224, -0.0021945254411548376, -0.01520905178040266, -0.05638079717755318, -0.0015792007325217128, 0.044535595923662186, 0.01783682592213154, -0.010058116167783737, -0.005401815287768841, 0.012395622208714485, -0.01067351084202528, -0.0028784063179045916, -0.09125694632530212, -0.028563544154167175, -0.030539236962795258, -0.04319916293025017, -0.03816011920571327, 0.030793512240052223, -0.06443928927183151, -0.16323746740818024, -0.03262763097882271, 0.12598192691802979, -0.14142850041389465, -0.09093565493822098, 0.022075016051530838, -0.027151424437761307, 0.006326097995042801, 0.12658187747001648, 0.016857746988534927, 0.4921768605709076, -0.08072369545698166, 0.06382468342781067, 0.15251684188842773, -0.01098078303039074, -0.1310281902551651, 0.31633585691452026, -0.02434103563427925, -0.29301032423973083, 0.09500963240861893, -0.1453929990530014, -0.1341162472963333, -0.01414860226213932, 0.03450049087405205, -0.20183788239955902, -0.017203882336616516, 0.09658324718475342, -0.24386374652385712, -0.06632096320390701, 0.018998028710484505, -0.01724645122885704, 0.01776137575507164, 0.07673744857311249, 0.01653383858501911, 0.0489681176841259, 0.2989570200443268, -0.013907447457313538, -0.055546920746564865, 0.01829962246119976, 0.044517919421195984, 0.007149874232709408, -0.08610163629055023, -0.061246514320373535, -0.13803119957447052, 0.13365225493907928, 0.0022426878567785025, 0.027716226875782013, 0.20937451720237732, -0.2836211621761322, 0.06117609515786171, -0.0894262045621872, 0.06439357250928879, 0.09138516336679459, -0.037339597940444946, 0.012701311148703098, -0.12308311462402344, 0.07411262392997742, -0.06038602069020271, 0.3179475963115692, -0.012724095955491066, 0.147980198264122, -0.043793775141239166, -0.026127636432647705, -0.11699369549751282, 0.30183449387550354, 0.05520316958427429, -0.10842768102884293, 0.015596623532474041, -0.19674383103847504, 0.08433787524700165, 0.0053772712126374245, -0.10329098254442215, -0.0489741712808609, 0.021033907309174538, -0.15768001973628998, 0.12275566905736923, -0.10650479793548584, -0.04578983783721924, -0.03527403995394707, 0.058796487748622894, -0.16822563111782074, 0.09259485453367233, -0.18789887428283691, -0.05882750824093819, -0.03372329846024513, 0.1782536804676056, -0.008126438595354557, 0.06268078833818436, 0.021140702068805695, 0.01647690311074257, 0.011748231947422028, 0.01104532927274704, -0.004851235542446375, 0.014691157266497612, -0.00014615383406635374, 0.002301930682733655, 0.006472167558968067, 0.006967991590499878, 0.0036043303553014994, 0.010777916759252548, -0.007525341119617224, -0.003105953335762024, 0.0009053504909388721, 0.013946285471320152, 0.02867583930492401, 0.02081725001335144, 0.01583707146346569, 0.01263466477394104, 0.014866366051137447, -0.02003401145339012, -0.012170550413429737, -0.031109768897294998, -0.006542771123349667, -0.008833647705614567, -0.007028536405414343, 0.016310403123497963, 0.013831505551934242, 0.013384195975959301, 0.00830091442912817, 0.01976485550403595, -0.0005151849472895265, -0.02729029580950737, -0.03864511474967003, -0.05313751846551895, 0.014968558214604855, 0.022038742899894714, -0.0002290940028615296, 0.011517390608787537, 0.003061738796532154, -0.010556108318269253, -0.013459124602377415, -0.0057766735553741455, -0.008427166379988194, -0.030570020899176598, -0.05311204865574837, -0.045172400772571564, 0.02554035559296608, -0.008105382323265076, 0.03264319896697998, 0.05178895220160484, 0.012171280570328236, 0.08755567669868469, 0.00468603428453207, -0.005966281518340111, -0.007779049687087536, 0.002061657840386033, 0.05481518432497978, 0.10845033079385757, 0.0019210146274417639, 0.026641935110092163, -0.017195485532283783, -0.0009460219880566001, 0.07608584314584732, 0.009713388048112392, 0.023466335609555244, 0.028816301375627518, 0.03621787577867508, 0.03332997113466263, -0.0020600466523319483, 0.08282043784856796, -0.029007822275161743, -0.0007130946614779532, -0.022861698642373085, 