{"version": "0.7.0", "metadata": {"date": {"year": 2026, "month": 6, "day": 30, "hour": 1, "minute": 37, "second": 18}, "loudness": -21.199744117701798, "gain": 0.05568157615413021, "training": {"settings": {"ignore_checks": false}, "data": {"latency": {"manual": null, "calibration": {"algorithm_version": 1, "delays": [-18], "safety_factor": 1, "recommended": -19, "warnings": {"matches_lookahead": false, "disagreement_too_high": false, "not_detected": false}}}, "checks": {"version": 3, "passed": true}}, "validation_esr": null}}, "architecture": "SlimmableContainer", "config": {"submodels": [{"max_value": 0.5, "model": {"version": "0.7.0", "metadata": {"date": {"year": 2026, "month": 6, "day": 30, "hour": 1, "minute": 37, "second": 16}, "loudness": -21.354439866984634, "gain": 0.0844556023047229}, "architecture": "WaveNet", "config": {"layers": [{"input_size": 1, "condition_size": 1, "head": {"out_channels": 1, "kernel_size": 16, "bias": true}, "channels": 3, "kernel_sizes": [6, 6, 6, 6, 6, 6, 6, 6, 6, 6, 6, 6, 6, 6, 15, 15, 6, 6, 6, 6, 6, 6, 6], "dilations": [1, 3, 7, 17, 41, 101, 239, 1, 3, 7, 17, 41, 101, 239, 1, 13, 1, 3, 7, 17, 41, 101, 239], "activation": [{"type": "LeakyReLU", "negative_slope": 0.01}, {"type": "LeakyReLU", "negative_slope": 0.01}, {"type": "LeakyReLU", "negative_slope": 0.01}, {"type": "LeakyReLU", "negative_slope": 0.01}, {"type": "LeakyReLU", "negative_slope": 0.01}, {"type": "LeakyReLU", "negative_slope": 0.01}, {"type": "LeakyReLU", "negative_slope": 0.01}, {"type": "LeakyReLU", "negative_slope": 0.01}, {"type": "LeakyReLU", "negative_slope": 0.01}, {"type": "LeakyReLU", "negative_slope": 0.01}, {"type": "LeakyReLU", "negative_slope": 0.01}, {"type": "LeakyReLU", "negative_slope": 0.01}, {"type": "LeakyReLU", "negative_slope": 0.01}, {"type": "LeakyReLU", "negative_slope": 0.01}, {"type": "LeakyReLU", "negative_slope": 0.01}, {"type": "LeakyReLU", "negative_slope": 0.01}, {"type": "LeakyReLU", "negative_slope": 0.01}, {"type": "LeakyReLU", "negative_slope": 0.01}, {"type": "LeakyReLU", "negative_slope": 0.01}, {"type": "LeakyReLU", "negative_slope": 0.01}, {"type": "LeakyReLU", "negative_slope": 0.01}, {"type": "LeakyReLU", "negative_slope": 0.01}, {"type": "LeakyReLU", "negative_slope": 0.01}], "bottleneck": 3, "head1x1": {"active": false, "out_channels": 1, "groups": 1}, "layer1x1": {"active": true, "groups": 1}, "groups_input": 1, "groups_input_mixin": 1, "conv_pre_film": {"active": false, "shift": true, "groups": 1}, "conv_post_film": {"active": false, "shift": true, "groups": 1}, "input_mixin_pre_film": {"active": false, "shift": true, "groups": 1}, "input_mixin_post_film": {"active": false, "shift": true, "groups": 1}, "activation_pre_film": {"active": false, "shift": true, "groups": 1}, "activation_post_film": {"active": false, "shift": true, "groups": 1}, "layer1x1_post_film": {"active": false, "shift": true, "groups": 1}, "head1x1_post_film": {"active": false, "shift": true, "groups": 1}, "gating_mode": ["none", "none", "none", "none", "none", "none", "none", "none", "none", "none", "none", "none", "none", "none", "none", "none", "none", "none", "none", "none", "none", "none", "none"], "secondary_activation": [null, null, null, null, null, null, null, null, null, null, null, null, null, null, null, null, null, null, null, null, null, null, null], "slimmable": null}], "head": null, "head_scale": 0.001213670711663123}, "weights": [0.6785840392112732, -1.07881760597229, -1.154458999633789, -0.38112950325012207, 0.6260553002357483, 0.043305497616529465, 0.3180486261844635, 1.2549842596054077, 0.2689667344093323, 0.13621123135089874, -0.34438440203666687, 0.4881261885166168, -0.0962032899260521, -0.4715960621833801, 0.8608843088150024, 0.11133746802806854, -0.1923845261335373, 0.41308656334877014, 0.20136244595050812, -0.5484974980354309, 1.0113734006881714, 0.05787193402647972, 0.14798028767108917, 0.06619735062122345, -0.20697937905788422, -0.6526619791984558, 0.24100644886493683, 0.04046471044421196, -0.06510347872972488, -0.11821184307336807, -0.07306545972824097, 0.5353456735610962, -0.3775922656059265, 0.06763150542974472, 0.05085465684533119, 0.047417234629392624, 0.1857779175043106, 0.8086308240890503, -0.48263972997665405, -0.06646522879600525, -0.09340284019708633, -0.1423242837190628, 0.07861805707216263, -1.0657583475112915, -0.5150601863861084, -0.013424774631857872, 0.05194016546010971, -0.30156639218330383, -0.6102936863899231, 0.5766497850418091, 0.055548712611198425, -0.037452422082424164, -0.0632207989692688, -0.1398065984249115, -0.7112160921096802, 0.3342999815940857, -0.09669923782348633, 0.7146512269973755, 0.3603784143924713, -0.31429535150527954, -0.556489109992981, 1.0641512870788574, 0.2302059531211853, -1.1212539672851562, 0.5494630932807922, -0.3025924861431122, 0.2057821899652481, -0.7726662158966064, -0.8549686074256897, -0.11027897894382477, -0.19962827861309052, -0.33570119738578796, 0.34940361976623535, -0.6383209824562073, 0.05535905063152313, -0.13519538938999176, -0.21572773158550262, -0.10862811654806137, 0.04670414328575134, 0.1788349747657776, -0.15317992866039276, -0.21323588490486145, -0.18163034319877625, -0.10220257192850113, -0.09151560068130493, -0.3799371123313904, 0.03570718318223953, -0.04133345186710358, -0.08876481652259827, -0.410398930311203, 0.0559576191008091, -0.291512131690979, 0.16497084498405457, -0.14862875640392303, -0.15536043047904968, -0.12096723169088364, -0.34778061509132385, 0.03224913030862808, 0.020279230549931526, -0.25224488973617554, -0.25819090008735657, -0.5139325857162476, 0.008629843592643738, -0.461114764213562, -0.0838981419801712, 0.030823536217212677, 0.33599647879600525, -0.00735155213624239, 0.8143354058265686, -0.35131436586380005, -0.2744528651237488, 0.058069001883268356, 0.0491669625043869, -0.06436967104673386, 0.29278916120529175, -0.03949713706970215, 0.2088763415813446, -0.15469692647457123, 0.21317163109779358, -0.31047528982162476, 0.14863407611846924, 0.027484247460961342, -0.2057887464761734, 0.2356724739074707, 0.3454102873802185, -0.1754649430513382, 0.4528740644454956, 0.5601706504821777, 0.2690860629081726, 0.15623049437999725, 0.631191074848175, 0.23390905559062958, -1.0591349601745605, 0.5027142763137817, 0.5566729307174683, -0.4107782244682312, 0.5616536736488342, 0.039904460310935974, 0.2405431568622589, 0.3650306165218353, -0.176774263381958, -0.45017117261886597, -0.7080046534538269, -0.481496661901474, 0.6522186398506165, -0.39338159561157227, 0.45249539613723755, 0.006472658831626177, -0.03945694491267204, 0.010998887941241264, -0.09553888440132141, 0.11784718930721283, -0.477337121963501, 0.018038367852568626, -0.035876981914043427, 0.08278747648000717, -0.13701693713665009, 0.1489313244819641, 0.40037330985069275, 0.06417189538478851, -0.08848436921834946, -0.030455060303211212, -0.050193291157484055, 0.06073983013629913, 0.012521414086222649, -0.05016377940773964, -0.03245413303375244, -0.029124056920409203, -0.5544511675834656, -0.29085680842399597, -0.0328468382358551, 0.0056543112732470036, 0.23380868136882782, -0.005194838624447584, 0.09033070504665375, 0.023217875510454178, -0.07320736348628998, -0.08293832838535309, -0.2644818127155304, -0.12444409728050232, 0.3842810094356537, -0.09478887170553207, -0.09214388579130173, 0.0035591996274888515, 0.10080282390117645, 0.04117312654852867, 0.02983761392533779, 0.03421939164400101, -0.06680327653884888, 0.03585363179445267, 0.07764611393213272, 0.06430516391992569, -0.212187722325325, 0.6425964832305908, -0.1440032571554184, 0.023395773023366928, 0.10336168110370636, -0.02948411926627159, 0.1404583752155304, -0.31205591559410095, -0.1482241004705429, -0.15740066766738892, -0.5438558459281921, 0.4350413978099823, -0.3853006362915039, 0.11062726378440857, -0.3528883755207062, -0.3764162063598633, -0.10865505784749985, 0.008780262432992458, -0.24143408238887787, 0.07865242660045624, 0.08817879855632782, -0.4190419018268585, -0.24823936820030212, 0.5387501120567322, 0.4027900993824005, -0.32474109530448914, 0.5838682055473328, -0.034615423530340195, -0.026105450466275215, -0.024530095979571342, -0.03115793690085411, -0.24417772889137268, -0.014935869723558426, -0.12248427420854568, -0.03220168873667717, -0.0651245042681694, -0.1840663105249405, 0.2159380465745926, 0.7210129499435425, -0.08330782502889633, -0.1483728289604187, -0.171607106924057, 0.004217053297907114, 0.008948641829192638, -0.012010360136628151, 0.11475861817598343, 0.043693166226148605, 0.1194261834025383, 0.08417919278144836, 0.11727261543273926, 0.2875915765762329, -0.059866975992918015, -0.014791524037718773, -0.05339374393224716, 0.030619706958532333, -0.11326749622821808, 0.04163861274719238, 0.07638328522443771, 0.009393730200827122, 0.020745180547237396, 0.2461269646883011, 0.3934479355812073, -0.07507038861513138, -0.024539565667510033, 0.0028217711951583624, -0.019781634211540222, -0.01828380487859249, -0.07684101164340973, -0.4410996437072754, 0.004971431568264961, -0.02882552146911621, 0.014956146478652954, -0.008350009098649025, -0.10973303020000458, 0.6968165636062622, -0.007178062107414007, 0.0034218551591038704, 0.018214520066976547, -0.05938142538070679, -0.1401747763156891, -0.00032551385811530054, -0.225106880068779, -0.1892796903848648, -0.2824709415435791, 0.007598437834531069, -0.03539442643523216, -0.1794670671224594, -0.06046464294195175, 0.06699997931718826, -0.3592996597290039, -0.09678777307271957, -0.06201614439487457, 0.3333723843097687, -0.2725807726383209, -0.08742409199476242, -0.0810503140091896, -0.013693115673959255, -0.6189451217651367, 0.598560094833374, -0.013795467093586922, 0.10367515683174133, -0.3756662905216217, -0.14118137955665588, 0.008818470872938633, 0.05963918939232826, 0.2097310721874237, 0.15085576474666595, 0.07520057260990143, 0.11481621116399765, 0.09550631791353226, 0.1773671656847, -0.13024401664733887, -0.026783889159560204, -0.08885045349597931, 0.13629499077796936, -0.08591454476118088, 0.4864642322063446, -0.0049102879129350185, -0.017571544274687767, 0.01935824379324913, 0.018968412652611732, 0.012229036539793015, 0.2026691883802414, -0.14077961444854736, -0.028644852340221405, 0.026095928624272346, -0.02747269719839096, -0.027145756408572197, -0.12761752307415009, 0.01568511500954628, 0.029346363618969917, 0.03950468823313713, 0.0690702497959137, 0.031574588268995285, -0.0570957288146019, -0.014802230522036552, -0.02838967740535736, 0.002141979057341814, 0.04966789484024048, 0.07701565325260162, -0.26904577016830444, -0.08566439151763916, -0.048916712403297424, 0.019813790917396545, 0.02549612522125244, 0.0074541522189974785, -0.1982528567314148, 0.02003840170800686, 0.03425144404172897, 0.06779369711875916, 0.09485650807619095, 0.10182101279497147, -0.23143960535526276, -0.11071782559156418, 0.28799453377723694, 0.27836623787879944, 0.017313631251454353, 0.7003132104873657, -0.9006471633911133, 0.044765371829271317, 0.29106345772743225, -0.1800110638141632, 0.10688186436891556, -0.29091328382492065, 0.23185452818870544, -0.4316921830177307, -0.15233147144317627, -0.10105705261230469, -0.05806305259466171, -0.2751154899597168, 0.2947613298892975, -0.06477092206478119, -0.10609617829322815, -0.16783420741558075, -0.18038247525691986, -0.07198448479175568, 0.05495615303516388, 0.009076541289687157, -0.1186651661992073, -0.12751418352127075, -0.09938988834619522, 0.00016517793119419366, -0.0999864861369133, -0.1046869084239006, -0.10108260810375214, -0.2267736941576004, -0.24095961451530457, -0.28041431307792664, -0.04967540502548218, -0.04323643445968628, 0.0049935802817344666, -0.030288230627775192, -0.04866882786154747, -0.017555592581629753, 0.332994669675827, -0.07049441337585449, 0.005346404854208231, -0.053443875163793564, -0.12760740518569946, -0.02454688400030136, -0.11095521599054337, -0.017921406775712967, 0.023900294676423073, -0.015913257375359535, -0.02332979254424572, 0.006745511665940285, -0.3608052730560303, 0.15352685749530792, 0.01189408078789711, 0.08881481736898422, 0.049403466284275055, 0.024807732552289963, 0.1439211070537567, 0.19469422101974487, -0.015036341734230518, 0.14686904847621918, 0.10683398693799973, 0.039774198085069656, -0.09776084870100021, 0.07157973200082779, -0.0467044897377491, 0.017141420394182205, 0.10517847537994385, -0.012186499312520027, -0.12513470649719238, -0.2797658145427704, 0.7826246023178101, 0.42351365089416504, 0.34305238723754883, 1.109426498413086, 0.4883887767791748, -0.003133355639874935, 0.41694173216819763, 0.2632138431072235, 0.1619039922952652, -0.4451979398727417, -0.06929568201303482, -0.010924749076366425, -0.29420042037963867, 0.02075842209160328, -0.42532163858413696, -0.1774001568555832, -0.4774022698402405, -0.016360308974981308, 0.08172377198934555, 0.10002303868532181, -0.02977861277759075, 0.11408361047506332, -0.07235115766525269, -0.07080694288015366, 0.01666313223540783, 0.1142115592956543, -0.01571432128548622, 0.021628551185131073, 0.035825543105602264, 0.010804722085595131, 0.0017760149203240871, 0.01576494611799717, -0.01223464123904705, -0.18001069128513336, 0.4079141318798065, 0.028871430084109306, -0.3015761077404022, -0.18204593658447266, -0.20482634007930756, -0.12081611156463623, 0.07485511153936386, -0.09525594860315323, 0.04610028862953186, -0.08610163629055023, -0.07836546748876572, 0.003690720535814762, 0.033312637358903885, 0.050294920802116394, 0.06986836344003677, 0.04425106570124626, 0.14750315248966217, -0.10672272741794586, 0.017450079321861267, -0.05187104269862175, 0.018680110573768616, 0.0026259212754666805, 0.02073427475988865, -0.04961760714650154, -0.006924271117895842, 0.037430357187986374, 0.038083069026470184, 0.04785710200667381, 0.1140429750084877, 0.031946830451488495, 0.049763232469558716, 0.05356127768754959, 0.013603515923023224, 0.01773255318403244, -0.025170257315039635, 0.07379566133022308, 0.036058831959962845, -0.05099301040172577, 0.0009596068994142115, -0.010298965498805046, -0.08941176533699036, -0.025227289646863937, 0.0009729128214530647, 0.009734498336911201, -0.022885888814926147, -0.03559625893831253, -0.0030830223113298416, 0.04357607290148735, 0.11028551310300827, -0.03884001821279526, -0.06625836342573166, 0.1796501874923706, 0.2567838132381439, -0.43187424540519714, 0.06549721211194992, 0.001644774922169745, 0.19985327124595642, 0.13628706336021423, 0.4242610037326813, 0.4837587773799896, -0.27730491757392883, 0.11276189982891083, -0.2542203366756439, -0.11473749577999115, -0.4684355556964874, 0.005543322768062353, -0.03544174134731293, -0.1929234266281128, 0.027453241869807243, -0.10583262145519257, 0.3766217827796936, -0.3329611122608185, 0.012273650616407394, -0.3135643005371094, 0.3087613880634308, -0.3964536786079407, 0.21450906991958618, 0.28385043144226074, -0.2465190291404724, 0.0011645661434158683, 0.19005870819091797, -0.0266269538551569, -0.0015927456552162766, 0.009165765717625618, 0.37105226516723633, -0.16748672723770142, -0.40422046184539795, 0.2518453598022461, -0.5746402740478516, 0.02001248113811016, -0.2144991159439087, 0.14224843680858612, -0.10368170589208603, 0.3396429121494293, 0.21946364641189575, -0.34233558177948, 0.11687473207712173, -0.03564033284783363, 0.12767834961414337, -0.02892979048192501, -0.06199660524725914, 0.33108091354370117, 0.30033424496650696, -0.2087099701166153, 0.08401593565940857, 0.036456190049648285, 0.0800851583480835, -0.35352349281311035, -0.012824083678424358, 0.2677490711212158, -0.550942063331604, -0.38261812925338745, -0.7641248106956482, -0.04876168072223663, -0.018309857696294785, -0.38763362169265747, 0.629511296749115, 0.5017334222793579, 0.6293937563896179, 0.04805487021803856, 0.15834234654903412, 0.4514912962913513, -0.3812456429004669, -0.6040682196617126, -0.15122707188129425, -0.38841870427131653, 0.08888226002454758, 0.14599716663360596, -0.02757471427321434, 0.24399276077747345, -0.19780771434307098, -0.05568011850118637, 0.4733178913593292, -0.026683146134018898, -0.004948157351464033, 0.18602529168128967, -0.14523185789585114, 0.004280491732060909, -0.3735850751399994, 0.30362001061439514, 0.02804132178425789, 0.4343109428882599, -0.2433626353740692, 0.4045981466770172, -0.38378673791885376, 0.06649135053157806, 0.01572737656533718, 0.04984922334551811, -0.06278698891401291, 0.3099254369735718, 0.32999902963638306, 0.15207147598266602, -0.02744293585419655, -0.16811460256576538, -0.06791442632675171, -0.11754629015922546, -0.06015535071492195, 0.08168666064739227, -0.20686480402946472, 0.040696803480386734, 0.1550772786140442, -0.07548025250434875, 0.1553201824426651, 0.13941216468811035, -0.2350529581308365, 0.08996573835611343, 0.03890466317534447, -0.021997399628162384, -0.12376780807971954, 0.20127154886722565, 0.08233582228422165, 0.374235600233078, -0.07421112805604935, -0.021610813215374947, 0.4391636252403259, 0.008162086829543114, -0.5696293711662292, -0.1699834018945694, -0.6496513485908508, 0.02088506519794464, 0.272771418094635, 0.5892014503479004, 0.14811933040618896, 0.20380628108978271, 0.8082819581031799, 0.47408005595207214, 0.15290364623069763, -0.1657465100288391, -0.28007328510284424, 0.24879935383796692, -0.6566871404647827, -0.48031923174858093, -0.02520165406167507, -0.6967666149139404, -0.3387337923049927, -0.19088967144489288, 0.01593017391860485, -0.027034441009163857, -0.030199620872735977, -0.13535811007022858, -0.06903935223817825, -0.2055632770061493, 0.38618889451026917, -0.032917119562625885, -1.1271781921386719, 0.03446752578020096, 0.05167943611741066, -0.05129719898104668, -0.10061811655759811, -0.060332395136356354, 0.3141891658306122, -0.11358648538589478, -0.11765681207180023, -0.011113057844340801, 0.32232898473739624, 0.05504940450191498, 0.028959617018699646, 0.020645074546337128, 0.026054594665765762, -0.01533581130206585, -0.0370258130133152, 0.014180490747094154, -0.7766621708869934, 0.025320949032902718, -0.021954361349344254, 0.12076272070407867, -0.05119280517101288, 0.09892634302377701, 0.1964682638645172, -0.05717414245009422, 0.04283523932099342, -0.14740733802318573, 0.04535282775759697, 0.039200421422719955, -0.0035327596124261618, 0.37002798914909363, 0.16231484711170197, 0.06461357325315475, 0.30275923013687134, 0.5297586917877197, -0.46944794058799744, 0.029937053099274635, -0.04727065563201904, 0.018726298585534096, 0.19127796590328217, 0.15465328097343445, 0.37156495451927185, 0.21299347281455994, 0.11579917371273041, 0.05401123687624931, -0.04578181728720665, 0.08475571125745773, 0.039198264479637146, -0.12152346968650818, -0.5733755230903625, -0.15433236956596375, -0.6598827838897705, -0.4491303861141205, -0.08501943200826645, 0.283976286649704, 0.09974274039268494, -0.12679044902324677, 0.4490711987018585, 0.5943399667739868, 0.02073865383863449, 0.33732903003692627, 0.1240103617310524, 0.13026556372642517, 0.05227174237370491, -0.011631923727691174, 0.41295623779296875, -0.0705403983592987, -0.033674389123916626, -0.0852278545498848, -0.092033751308918, 0.01092116441577673, -0.9456600546836853, -0.04686124622821808, -0.050350431352853775, -0.0801757350564003, -0.1075606569647789, -0.14240875840187073, -0.05560607835650444, 0.030378267168998718, 0.05483107268810272, 0.060089197009801865, 0.11377889662981033, 0.19884486496448517, 0.2851949632167816, 0.235719695687294, 0.16024313867092133, 0.16861240565776825, -0.05166565999388695, -0.12079202383756638, -0.4386749863624573, 0.13086619973182678, 0.26134786009788513, 0.15527532994747162, 0.21708481013774872, -0.1681550145149231, -0.19667699933052063, -0.1458374261856079, -0.29995444416999817, -0.2930328845977783, -0.27319028973579407, 0.19059383869171143, 0.12106870114803314, -0.5145916938781738, -0.3330686688423157, -0.42980635166168213, -0.6293161511421204, -0.3664208948612213, 0.31198593974113464, -0.16195563971996307, -0.004173342138528824, 0.0473666787147522, -0.026257943361997604, -0.06351222842931747, -0.3533670902252197, 0.05024023726582527, -0.12171253561973572, -0.17482388019561768, -0.21892204880714417, 0.04320572689175606, 0.0916278138756752, 0.5487368702888489, 0.46420079469680786, -0.2699214220046997, -0.8187387585639954, 0.09516411274671555, -0.5010724067687988, -0.47251027822494507, 0.26465222239494324, 0.6024635434150696, 0.5809453129768372, 0.11298676580190659, 0.45021143555641174, 0.21913979947566986, 0.33516407012939453, -0.20158056914806366, 0.14135976135730743, 0.22054168581962585, -0.6032555103302002, -0.06192989647388458, 0.016389155760407448, 0.0065324194729328156, -0.1850438416004181, 0.03440957888960838, -0.1934453845024109, -0.0918067991733551, -0.07720541954040527, -0.04319341108202934, -0.21491456031799316, -0.14578953385353088, 0.36263617873191833, -0.0011024593841284513, 0.08909086138010025, -0.00729263573884964, 0.1116415336728096, 0.22620035707950592, 0.09520736336708069, -0.00545495143160224, 0.012382632121443748, -0.0025383129250258207, -0.0014760828344151378, 0.0010318256681784987, -0.4260951280593872, 0.0016042537754401565, -0.008026527240872383, 0.006196538917720318, 0.02081354707479477, 0.006066248752176762, 0.4801881015300751, -0.006043573375791311, 0.01883057877421379, -0.014499170705676079, -0.029613804072141647, -0.007345796097069979, 0.16466647386550903, 0.04064013808965683, 0.0032784040085971355, 0.005470327567309141, 0.01798953488469124, -0.05404508486390114, -0.32096174359321594, -0.06793838739395142, 0.015258616767823696, -0.044736284762620926, 0.040830399841070175, 0.12129692733287811, 0.023114945739507675, 0.13672246038913727, -0.014029345475137234, 0.07236209511756897, -0.019130967557430267, -0.13634821772575378, -0.2103201001882553, 0.13104261457920074, -0.45705774426460266, -0.031353194266557693, 0.3411199152469635, -0.5013625025749207, -0.9804748296737671, -0.2325010746717453, 0.11566602438688278, 0.06494386494159698, -0.42489689588546753, 0.28582465648651123, 0.05660824105143547, 0.3281319737434387, 0.8646457195281982, 0.25653016567230225, -0.5646762847900391, 0.07879092544317245, -0.38098233938217163, 0.001657635672017932, -0.012689495459198952, 0.0030691432766616344, 0.015833603218197823, 0.03827880695462227, -0.9379140734672546, -0.06008698046207428, -0.06584695726633072, -0.036660969257354736, -0.05256391316652298, 0.01038697361946106, 0.7399439811706543, 0.029375595971941948, 0.02929922565817833, 0.015561191365122795, 0.022783642634749413, -0.013762794435024261, 0.5943752527236938, -0.008796650916337967, 0.0011133794905617833, -0.012804685160517693, -0.01740541309118271, -0.0372764952480793, 0.7711617946624756, 0.05484265834093094, 0.046957820653915405, 0.03106856904923916, 0.04193811118602753, -0.00651871832087636, -0.5625883936882019, -0.029814012348651886, -0.023609919473528862, -0.01871754229068756, -0.02172316052019596, 0.0016317600384354591, -0.4103841483592987, 0.004800391849130392, -0.004559340421110392, 0.029309947043657303, 0.09745565056800842, 0.09823796153068542, 0.10853638499975204, -0.3474341034889221, -0.2782876491546631, -0.1679476797580719, -0.06885258853435516, 0.06254757940769196, -0.2555449306964874, 0.2543732821941376, 0.19755975902080536, 0.14438189566135406, 0.12680016458034515, -0.025594260543584824, -0.06350111216306686, -0.4219861328601837, 0.33766552805900574, 0.5675022602081299, -0.8043389320373535, 0.555122435092926, -0.6456795930862427, -0.19723376631736755, -0.0646447241306305, -0.5036106705665588, 0.5441796183586121, -0.9102246165275574, -0.06458958238363266, 0.46939942240715027, -0.5435386896133423, -0.27546611428260803, -0.8701103329658508, -0.4782868027687073, -0.07130103558301926, 0.2796921133995056, 0.2649681270122528, 0.1553528606891632, 0.29122549295425415, 0.20501255989074707, -0.15988656878471375, 0.021524682641029358, 0.045996882021427155, 0.09461020678281784, 0.08419399708509445, 0.008378620259463787, 0.13806036114692688, 0.07719235122203827, 0.03358917310833931, -0.04136323183774948, 0.01497332938015461, 0.032452914863824844, 0.08109507709741592, -0.0453794002532959, -0.03902966156601906, -0.031015664339065552, -0.04774143546819687, -0.03873259946703911, 0.337938129901886, 0.007796927355229855, 0.003153286874294281, 0.003675751853734255, -0.010400271974503994, -0.010457370430231094, -0.5594992637634277, -0.023777393624186516, -0.012954827398061752, -0.006612836848944426, -0.004736939910799265, -0.001084406510926783, -0.45624205470085144, 0.2516678273677826, 0.2287248969078064, 0.19330988824367523, 0.23076178133487701, 0.3330792188644409, 0.5581808686256409, -0.033679209649562836, 0.004280738532543182, -0.022184260189533234, -0.0552058219909668, -0.06627719104290009, -0.2604406476020813, 0.10853786766529083, 0.06279636174440384, 0.0808151438832283, 0.13177303969860077, 0.17246894538402557, -0.23479962348937988, -0.2055010348558426, 0.8099940419197083, -0.29663723707199097, -0.2574999928474426, 0.5988633036613464, 0.6054580211639404, 0.2838354706764221, -0.30672669410705566, 0.4222831726074219, 0.32299286127090454, -0.5718926787376404, -0.2569866180419922, 0.19084176421165466, -0.5405265688896179, -0.6192038059234619, -0.9308881163597107, 0.07065194845199585, -0.6807602643966675, -0.4032990038394928, -0.19390393793582916, -0.2615252733230591, -0.10385661572217941, -0.233359694480896, -0.32240036129951477, -0.20125705003738403, 0.09333477914333344, -0.6681199073791504, -0.661130428314209, -0.611942708492279, -0.8700079917907715, -0.8674314618110657, -0.43820276856422424, -0.04478207603096962, -0.09567636996507645, -0.1250729113817215, -0.1329023689031601, -0.1152932271361351, -0.1532709151506424, 0.17364655435085297, -0.25078338384628296, 0.2702082693576813, -0.07819788157939911, 0.4182126224040985, -0.20389477908611298, 0.3156377077102661, 0.07057885825634003, -0.127996027469635, 0.49651291966438293, -0.26490509510040283, 0.0667211040854454, -0.21727325022220612, 0.2107858657836914, 0.007492885459214449, 0.4534508287906647, -0.13946326076984406, 0.24068081378936768, -0.18965090811252594, 0.8506243824958801, -0.2882854640483856, 0.7072492837905884, -0.006161889526993036, 0.04918675497174263, 0.39078259468078613, -0.21319492161273956, -0.061548247933387756, -0.09679821878671646, -0.1688854843378067, -0.037461958825588226, -0.16150198876857758, -0.16744500398635864, -0.34883156418800354, -0.4064829349517822, -0.33158087730407715, -0.027274098247289658, -0.058914702385663986, -0.02813597396016121, -0.01771560125052929, -0.4429297149181366, -0.12682682275772095, 0.06265804171562195, 0.0168865118175745, 0.09150367975234985, -0.10132817178964615, -0.06613250821828842, 0.04366249963641167, 0.12205583602190018, 0.26882362365722656, -0.36292630434036255, -0.44767090678215027, -0.24938412010669708, 0.0010629411553964019, 0.04208876192569733, -0.11324602365493774, -0.13793492317199707, 0.09493214637041092, -0.22474828362464905, -0.12497439235448837, -0.25565284490585327, -0.03451428562402725, -0.2873075604438782, 0.12135820090770721, 0.14387375116348267, -0.4906805455684662, -0.4535769820213318, -0.16884151101112366, 0.012999158352613449, 0.20117780566215515, 0.24622951447963715, -0.24169524013996124, -0.15760904550552368, -0.17989635467529297, -0.4137076437473297, -0.23638248443603516, -0.17266510426998138, -0.20396409928798676, -0.4567834734916687, 0.01026134192943573, -0.11840970069169998, -0.30535566806793213, -0.03871017321944237, -0.03267212212085724, -0.16122344136238098, -0.2623978853225708, 0.02846425585448742, 0.09280464798212051, 0.035622693598270416, 0.21327441930770874, -0.035309087485075, 0.22150008380413055, -0.16605569422245026, 0.2862547039985657, 0.11903828382492065, -0.03782826289534569, 0.6117873787879944, -0.47709372639656067, -0.6912856698036194, -0.22091206908226013, -0.037037014961242676, -0.11714330315589905, 0.08280668407678604, -0.24469877779483795, 0.05565929040312767, -0.1939248889684677, 0.016113661229610443, -0.2690536379814148, 0.1362174153327942, -0.2399572879076004, 0.00098392681684345, 0.3748384714126587, -0.323903888463974, -0.5527468323707581, -0.08249326050281525, -0.010677536949515343, 0.3487786054611206, 0.0409122109413147, 0.3816491365432739, -0.1899639368057251, -0.10861484706401825, 0.7820041179656982, -0.2536391615867615, 0.6262949705123901, -0.07543330639600754, -0.2675541043281555, -0.33642080426216125, -0.6023783087730408, 0.022918706759810448, -0.18863093852996826, 0.42234528064727783, -0.23002208769321442, -0.016975168138742447, 0.11678779125213623, -0.056647274643182755, -0.016815630719065666, 0.04111962765455246, 0.024639127776026726, 0.052548281848430634, -0.017520740628242493, 0.004917203914374113, -0.030758123844861984, 0.20128010213375092, 0.04064736142754555, -0.25889772176742554, 0.06204241141676903, -0.03590024635195732, -0.027572089806199074, -0.05555332079529762, 0.043377749621868134, 0.04554903134703636, -0.15163059532642365, -0.059955138713121414, 0.1597815304994583, -0.08544041216373444, 0.02070191316306591, 0.17125540971755981, 0.018394839018583298, -0.1544523388147354, 0.16058973968029022, -0.012241832911968231, 0.37009748816490173, 0.329122930765152, 0.33565202355384827, -0.22445133328437805, 0.017308682203292847, -0.1960204690694809, 0.00041002899524755776, -0.12582410871982574, -0.14911602437496185, -0.005532567854970694, -0.0630035549402237, -0.11181129515171051, 0.051162976771593094, -0.11977594345808029, -0.20988990366458893, -0.26035767793655396, -0.18901054561138153, -0.2429395169019699, 0.07965785264968872, 0.060809969902038574, 0.07451757788658142, 0.09275984019041061, 0.09884063154459, 0.07382319867610931, 0.12339828163385391, 0.0973820611834526, 0.07604211568832397, 0.08183716982603073, 0.07557544857263565, 0.027694551274180412, -0.07573265582323074, 0.015990370884537697, 0.9289937019348145, -0.04593310505151749, -0.0739496648311615, -0.04883086681365967, -0.05686519294977188, -0.06941938400268555, -0.05621872842311859, -0.02575661428272724, -0.11544252187013626, -0.08669590204954147, -0.07574136555194855, -0.07742045074701309, -0.024861786514520645, -0.057371221482753754, -0.08079131692647934, -0.2754712998867035, -0.024818016216158867, -0.007089333143085241, -0.008173038251698017, -0.03234618529677391, -0.0038582661654800177, -0.010485879145562649, -0.0048994626849889755, -0.0581662692129612, -0.013081981800496578, 0.008470417000353336, 0.003467538394033909, 0.06187034025788307, 0.050301168113946915, 0.02551860734820366, -0.14963343739509583, -0.08150828629732132, -0.08632095158100128, -0.059525955468416214, -0.05327703803777695, -0.0834173783659935, -0.031622882932424545, -0.16237863898277283, 0.039418935775756836, -0.0711653083562851, -0.012908998876810074, 0.000431983033195138, -0.05454987287521362, -0.04133204370737076, -0.04070371761918068, -0.5080673694610596, 0.09659400582313538, 0.0555892251431942, 0.05229021608829498, 0.01614777371287346, 0.07143568247556686, 0.17598100006580353, 0.22142237424850464, 0.1196407899260521, 0.12998449802398682, 0.05197462812066078, 0.0970827117562294, 0.02144535258412361, 0.0036211498081684113, 0.13637110590934753, 0.03968947008252144, 0.13565808534622192, 0.148691326379776, 0.031594522297382355, 0.006713933777064085, 0.060791607946157455, 0.05388624221086502, 0.18911106884479523, 0.22210343182086945, 0.010276067070662975, 0.058931492269039154, -0.0641307607293129, -0.07897024601697922, 0.002674667164683342, 0.27672064304351807, 0.3347706198692322, -0.025570841506123543, -0.2907028794288635, 0.015347182750701904, 0.004551697056740522, -0.2808229327201843, -0.04345167800784111, -0.3021010458469391, -0.0564676895737648, -0.048307955265045166, 0.5122655630111694, 0.26831933856010437, -0.13581904768943787, 0.5177187919616699, 0.02424648404121399, -0.10701087862253189, -0.3217662572860718, -0.08657199144363403, 0.0806414857506752, -0.0924430564045906, -0.41992470622062683, 0.21901960670948029, -0.18979592621326447, -0.20764857530593872, -0.33937397599220276, -0.08613618463277817, -0.24250687658786774, 0.10380837321281433, -0.1803666055202484, 0.11257719993591309, -0.08526242524385452, 0.2974609434604645, 0.5355485677719116, -0.18902917206287384, 0.45792511105537415, 0.21960780024528503, 0.5136802792549133, 0.12311199307441711, -0.7109520435333252, 0.4459293782711029, -0.4793992042541504, -0.16992884874343872, 0.5491477847099304, -0.3550633490085602, -0.08038268983364105, 0.0968317911028862, -0.23007608950138092, 0.10418543964624405, -0.2869527339935303, -0.5580849051475525, -0.8058128356933594, 0.6585913300514221, 0.23125723004341125, -0.3006332218647003, 0.19359013438224792, 0.03845847398042679, 0.20067192614078522, -0.17145836353302002, -0.3064597547054291, 0.081788569688797, 0.073001429438591, 0.05160512775182724, -0.1921444833278656, -0.14052771031856537, -0.22866453230381012, -0.18933488428592682, -0.451689749956131, 0.2426386922597885, 0.3037548363208771, -0.36040034890174866, -0.7520383596420288, -0.04267765209078789, 0.5506269931793213, 0.3404901921749115, 0.07436280697584152, 0.0956883504986763, -0.5576837658882141, 0.24214112758636475, 0.6433479189872742, -0.2829032242298126, 0.19972677528858185, 0.37771350145339966, 0.23692382872104645, -0.24904373288154602, -0.13203833997249603, -0.15360978245735168, 0.4655514359474182, 0.5286094546318054, -0.049947407096624374, 0.158883199095726, -0.28720414638519287, 0.08544866740703583, 0.012016941793262959, -0.11556010693311691, -0.16409511864185333, -0.0593014732003212, -0.07992042601108551, 0.09091673046350479, -0.33417776226997375, 0.13672785460948944, -0.6151648163795471, 0.07994358986616135, 0.35729432106018066, -0.001217072131112218, -0.1189698800444603, 0.055559806525707245, -0.18102110922336578, -0.001960891066119075, 0.24121105670928955, 0.11333015561103821, -0.1181061863899231, 0.2706367075443268, 0.2931188642978668, 0.6150584816932678, -0.24195721745491028, 0.17057481408119202, -0.12269272655248642, 0.15142393112182617, 0.052577998489141464, 1.0189357995986938, 0.0486331433057785, 0.2431773692369461, 0.03275318443775177, 0.04646685719490051, 0.05300843343138695, -0.3837200403213501, 0.06282801926136017, -0.0640355795621872, -0.11405567079782486, 0.03039010614156723, -0.34277695417404175, 0.013174888677895069, 0.2238701730966568, 0.04942016676068306, -0.24348096549510956, -0.16381436586380005, -0.2855578064918518, -0.08257123827934265, -0.4506356716156006, -0.020858213305473328, -0.1452164202928543, -0.3216734826564789, 0.13716024160385132, -0.4600752890110016, 0.5967923402786255, 0.5474648475646973, -0.39954254031181335, 0.1564413458108902, -0.39817970991134644, 0.0972004234790802, 0.14966125786304474, 0.06851506233215332, 0.7922598123550415, -0.18687880039215088, -0.4301058053970337, 0.44500231742858887, 0.34859734773635864, 0.4536793828010559, 0.1854436695575714, -0.005021802149713039, -0.001315087080001831, -0.0059113698080182076, -0.1769658327102661, 0.036117009818553925, 0.026304010301828384, 0.1045454666018486, -0.17580656707286835, -0.08062508702278137, -0.26200929284095764, -0.31481456756591797, -0.005187933798879385, 0.083547443151474, 0.2270013839006424, 0.27201467752456665, 0.3837360143661499, 0.22022069990634918, 0.1356257051229477, -0.056942012161016464, -0.18310678005218506, -0.4783470928668976, 0.11199401319026947, 0.05604146793484688, 0.04083435982465744, -0.07542790472507477, 0.26392897963523865, 0.0864090770483017, 0.22725951671600342, -0.22889143228530884, -0.11317839473485947, -0.008404018357396126, 0.33246856927871704, 0.7308007478713989, 0.04972982406616211, 0.05522182583808899, 0.19881053268909454, 0.041283171623945236, -0.005452367011457682, 0.5954023003578186, -0.5485915541648865, -0.0006229722057469189, 0.006405244115740061, 0.08349999785423279, -0.000889600021764636, 0.3307764530181885, 0.2169172316789627, 0.1281788945198059, 0.04437611252069473, 0.062013301998376846, -0.07052776217460632, -0.1482640504837036, 0.4476562738418579, 0.021796515211462975, -0.020161766558885574, 0.003220067359507084, 0.06749017536640167, 0.058308195322752, -0.44036445021629333, 0.06754115968942642, 0.24942617118358612, -0.5247313976287842, 0.03204797953367233, -0.15007728338241577, -0.3247080147266388, 0.5038179755210876, -0.004377676174044609, -0.07009618729352951, -0.09009913355112076, 0.2733946442604065, -0.41935062408447266, -0.4840445816516876, 0.25895655155181885, 0.35500195622444153, 0.24072480201721191, 0.36586475372314453, -0.130122110247612, 0.014450009912252426, 0.022671043872833252, -0.03373809531331062, 0.11351065337657928, 0.24530038237571716, -0.6101870536804199, 0.041695207357406616, -0.03603304550051689, -0.08402679115533829, 0.10995250940322876, 0.223091721534729, 0.12393185496330261, 0.06186831742525101, -0.006833923049271107, -0.037189289927482605, -0.07733161002397537, 0.17048336565494537, -0.22092857956886292, 0.1135278269648552, 0.1017378568649292, -0.05252108350396156, 0.12514226138591766, -0.24948589503765106, 0.27125677466392517, -0.05261709913611412, 0.062076546251773834, 0.044030748307704926, -0.05243111401796341, 0.47078773379325867, 0.6053596138954163, 0.10824483633041382, 0.060378145426511765, 0.09040668606758118, -0.011280447244644165, -0.3158385753631592, -0.06554529815912247, -0.10360982269048691, -0.13931326568126678, -0.11464378982782364, -0.12315389513969421, -0.2005588710308075, 0.5059221982955933, 0.040446046739816666, -0.01926502212882042, 0.009670381434261799, 0.008510050363838673, -0.024857323616743088, -0.27623188495635986, -0.01189004722982645, -0.004239121451973915, -0.016685396432876587, -0.043475788086652756, 0.07168824970722198, 0.5476290583610535, 0.04636228829622269, 0.022889401763677597, 0.15257762372493744, 0.013377932831645012, 0.017371397465467453, -0.0971943661570549, 0.7027179598808289, 0.038884032517671585, -0.5646145939826965, 0.035757049918174744, 0.3456195294857025, 0.03781659156084061, -0.0892588272690773, 0.1919834017753601, -0.8297787308692932, -0.46060627698898315, -0.1675867885351181, -0.6216796040534973, 0.05610588192939758, 0.044502221047878265, 0.12015052139759064, -0.024691442027688026, -0.16126872599124908, 0.2338409274816513, 0.053429536521434784, -0.05439101904630661, -0.09111728519201279, 0.05848994851112366, 0.14109425246715546, 1.0205118656158447, 0.003967378754168749, -0.05401679128408432, 0.10592075437307358, -0.07965224981307983, -0.018773972988128662, 0.15937590599060059, 0.14409907162189484, 0.024350974708795547, 0.053308188915252686, -0.016378795728087425, 0.07546637207269669, 0.19088329374790192, -0.04321717470884323, -0.02847468852996826, -0.049740832298994064, -0.06097685918211937, -0.017842769622802734, 0.15096522867679596, 0.08674360811710358, 0.004937600810080767, 0.053507208824157715, -0.021158574149012566, 0.11033906787633896, 0.2267541140317917, 0.034423816949129105, 0.07546145468950272, 0.03144155070185661, 0.11347352713346481, 0.061156343668699265, 0.006954110227525234, 0.0778430700302124, 0.01275547407567501, 0.029572095721960068, 0.013594414107501507, 0.03410356864333153, -0.17009291052818298, -0.015234045684337616, 0.05725039541721344, 0.0059652565978467464, 0.05016682669520378, 0.020024914294481277, 0.3600611388683319, -0.0737394168972969, -0.13589631021022797, -0.54505455493927, -0.01857774518430233, 0.08912163227796555, 0.06272506713867188, 0.08893314749002457, 0.25326254963874817, 0.5043522119522095, 0.34385520219802856, -0.03881198167800903, 0.917861819267273, -0.2513975501060486, 0.46527987718582153, -0.8234880566596985, -0.3462313413619995, -0.08085482567548752, -0.49170348048210144, -0.01499444805085659, -0.051846783608198166, 0.017239859327673912, 0.05112570524215698, -0.00024571039830334485, 0.35747045278549194, -0.14921437203884125, -0.0731334313750267, -0.079618439078331, -0.08319555222988129, 0.037370715290308, 0.3539113998413086, 0.0677352175116539, 0.05657881870865822, 0.016835637390613556, -0.018437616527080536, -0.04004723206162453, 0.14960166811943054, -0.01051410287618637, 0.01420523039996624, 0.10724896192550659, 0.3177872896194458, 0.27605000138282776, -0.04540051519870758, -0.13231602311134338, -0.11359141021966934, -0.11728175729513168, -0.15600620210170746, -0.07950808852910995, -0.2730964124202728, 0.07261504977941513, 0.05271899327635765, 0.15611013770103455, 0.2133665382862091, 0.2270449697971344, -0.257291316986084, 0.05532993748784065, 0.05219406634569168, -0.00048034981591627, -0.07382760941982269, -0.0879414975643158, 0.1342635154724121, -0.02328442595899105, -0.02110440842807293, -6.286508869379759e-05, 0.04301134869456291, -0.0052885315380990505, -0.2451113760471344, 0.012433566153049469, 0.03037535399198532, 0.00489757489413023, -0.04331621155142784, -0.0006697888602502644, 0.534374475479126, 0.05249474197626114, 0.09239029139280319, 0.24088773131370544, 0.021487131714820862, 0.148548424243927, -0.06196838989853859, 0.26723867654800415, 0.15456850826740265, -0.6034902334213257, -0.6185302734375, 0.6006944179534912, -0.0892239436507225, -0.44627460837364197, 0.7360024452209473, -0.35794132947921753, -0.3907291889190674, 0.499619722366333, -0.11515127122402191, -0.017213989049196243, -0.054503608494997025, -0.10042478889226913, -0.13292616605758667, 0.026737187057733536, -0.7792567014694214, -0.017184946686029434, -0.02750459499657154, -0.03667161986231804, -0.07984638214111328, -0.1405043751001358, 0.5424175262451172, -0.0019665013533085585, -0.05722293257713318, -0.14656370878219604, -0.18009747564792633, 0.017013464123010635, 0.31236663460731506, -0.029779938980937004, -0.05988462269306183, -0.11730317771434784, -0.1523793488740921, 0.08366187661886215, 0.28396230936050415, -0.023205243051052094, -0.05688357725739479, -0.0631079375743866, -0.1381947249174118, -0.2056923806667328, -0.5412600040435791, 0.016142675653100014, -0.044330935925245285, -0.16687247157096863, -0.17909830808639526, 0.08112768083810806, -0.12525536119937897, 0.021233566105365753, 0.011238859966397285, 0.0006999007891863585, 0.07216580212116241, -0.030834708362817764, 0.3912487030029297, 0.0631047859787941, 0.03237081319093704, 0.06505529582500458, 0.06383059918880463, 0.11039259284734726, -0.281108558177948, -0.07229984551668167, -0.03344517573714256, -0.032672055065631866, 0.004555350169539452, -0.0563296340405941, -0.017236456274986267, 0.5226488709449768, 0.3950289785861969, -0.22048313915729523, -0.3060331344604492, -0.3511572480201721, 0.007993176579475403, 0.4162098467350006, -0.00858832336962223, 0.5327888131141663, 0.11612158268690109, 0.18631941080093384, -0.07476914674043655, -0.32249006628990173, -0.3899204134941101, -0.36959829926490784, -0.3457287847995758, 0.4948616325855255, -0.35605674982070923, -0.04411763325333595, 0.2415323704481125, -0.1850372552871704, 0.36119747161865234, 0.03674441576004028, -0.19859196245670319, -0.014490422792732716, -0.2354350984096527, -0.0650419145822525, -0.1805613785982132, -0.204290971159935, 0.004339702893048525, 0.1351947784423828, 0.004397334065288305, -0.05565609410405159, 0.012554996646940708, -0.09946675598621368, -0.15262636542320251, 0.020702416077256203, -0.1825326681137085, -0.12124098092317581, 0.04185815528035164, -0.06726931780576706, 0.03952616825699806, -0.08037126809358597, 0.16473497450351715, 0.35129085183143616, -0.1480412483215332, -0.15378150343894958, -0.07109237462282181, -0.03945539891719818, 0.0037682298570871353, -0.07127394527196884, 0.13574600219726562, -0.08198615163564682, 0.026741374284029007, -0.05518979951739311, 0.14108820259571075, -0.18875408172607422, 0.504639208316803, 0.3776856064796448, -0.031464967876672745, 0.154038205742836, -0.02592361904680729, -0.1714588850736618, 0.008530846796929836, 0.10080648958683014, -0.004592931363731623, -0.09425337612628937, 0.0012136706845354687], "sample_rate": 48000}}, {"max_value": 1.0, "model": {"version": "0.7.0", "metadata": {"date": {"year": 2026, "month": 6, "day": 30, "hour": 1, "minute": 37, "second": 17}, "loudness": -21.199744117701798, "gain": 0.05568157615413021}, "architecture": "WaveNet", "config": {"layers": [{"input_size": 1, "condition_size": 1, "head": {"out_channels": 1, "kernel_size": 16, "bias": true}, "channels": 8, "kernel_sizes": [6, 6, 6, 6, 6, 6, 6, 6, 6, 6, 6, 6, 6, 6, 15, 15, 6, 6, 6, 6, 6, 6, 6], "dilations": [1, 3, 7, 17, 41, 101, 239, 1, 3, 7, 17, 41, 101, 239, 1, 13, 1, 3, 7, 17, 41, 101, 239], "activation": [{"type": "LeakyReLU", "negative_slope": 0.01}, {"type": "LeakyReLU", "negative_slope": 0.01}, {"type": "LeakyReLU", "negative_slope": 0.01}, {"type": "LeakyReLU", "negative_slope": 0.01}, {"type": "LeakyReLU", "negative_slope": 0.01}, {"type": "LeakyReLU", "negative_slope": 0.01}, {"type": "LeakyReLU", "negative_slope": 0.01}, {"type": "LeakyReLU", "negative_slope": 0.01}, {"type": "LeakyReLU", "negative_slope": 0.01}, {"type": "LeakyReLU", "negative_slope": 0.01}, {"type": "LeakyReLU", "negative_slope": 0.01}, {"type": "LeakyReLU", "negative_slope": 0.01}, {"type": "LeakyReLU", "negative_slope": 0.01}, {"type": "LeakyReLU", "negative_slope": 0.01}, {"type": "LeakyReLU", "negative_slope": 0.01}, {"type": "LeakyReLU", "negative_slope": 0.01}, {"type": "LeakyReLU", "negative_slope": 0.01}, {"type": "LeakyReLU", "negative_slope": 0.01}, {"type": "LeakyReLU", "negative_slope": 0.01}, {"type": "LeakyReLU", "negative_slope": 0.01}, {"type": "LeakyReLU", "negative_slope": 0.01}, {"type": "LeakyReLU", "negative_slope": 0.01}, {"type": "LeakyReLU", "negative_slope": 0.01}], "bottleneck": 8, "head1x1": {"active": false, "out_channels": 1, "groups": 1}, "layer1x1": {"active": true, "groups": 1}, "groups_input": 1, "groups_input_mixin": 1, "conv_pre_film": {"active": false, "shift": true, "groups": 1}, "conv_post_film": {"active": false, "shift": true, "groups": 1}, "input_mixin_pre_film": {"active": false, "shift": true, "groups": 1}, "input_mixin_post_film": {"active": false, "shift": true, "groups": 1}, "activation_pre_film": {"active": false, "shift": true, "groups": 1}, "activation_post_film": {"active": false, "shift": true, "groups": 1}, "layer1x1_post_film": {"active": false, "shift": true, "groups": 1}, "head1x1_post_film": {"active": false, "shift": true, "groups": 1}, "gating_mode": ["none", "none", "none", "none", "none", "none", "none", "none", "none", "none", "none", "none", "none", "none", "none", "none", "none", "none", "none", "none", "none", "none", "none"], "secondary_activation": [null, null, null, null, null, null, null, null, null, null, null, null, null, null, null, null, null, null, null, null, null, null, null], "slimmable": null}], "head": null, "head_scale": 0.001213670711663123}, "weights": [-0.524909257888794, -0.052178967744112015, 0.29191237688064575, 0.7849733829498291, -0.7980561852455139, 0.004903911612927914, 0.2609289288520813, 1.0377706289291382, 0.0062308781780302525, -0.0007432835991494358, -0.012604930438101292, 0.03007662668824196, -0.1455930918455124, 0.08646516501903534, 0.004892820958048105, -0.01457967609167099, -0.00587356137111783, 0.007529169321060181, -0.01591925323009491, 0.008074422366917133, -0.015675200149416924, 0.042101770639419556, 0.02981136180460453, -0.017735283821821213, 0.11801021546125412, -0.07705486565828323, -0.06678139418363571, 0.06650736927986145, 0.017961565405130386, -0.029558852314949036, 0.2319391965866089, -0.10867466777563095, 0.008340112864971161, 0.004306761082261801, -0.003658396890386939, 0.026215089485049248, -0.2268894910812378, 0.1119692474603653, -0.00044841127237305045, 0.001181314466521144, 0.00016058367327786982, 0.00011898599041160196, 0.0032954728230834007, -0.0019495091401040554, -0.022792067378759384, 0.027326155453920364, 0.019713664427399635, -0.03703583404421806, 0.10495413839817047, -0.07822774350643158, 0.029805123805999756, -0.03631046041846275, 0.05907347798347473, 0.08680912852287292, 0.3098085820674896, -0.1534723937511444, 0.12520094215869904, -0.12949523329734802, 0.06330886483192444, 0.022722093388438225, -0.34957295656204224, 0.10112054646015167, -0.006440917961299419, -0.018084876239299774, 0.018630458042025566, 0.02598615363240242, -0.04762541502714157, -0.008984656073153019, 0.020257659256458282, 0.11205994337797165, -0.09866294264793396, -0.06731098145246506, 0.22125712037086487, -0.10662823915481567, -0.12725339829921722, 0.2003067433834076, -0.016491305083036423, -0.007919831201434135, 0.43295639753341675, -0.18940137326717377, 0.0692925900220871, -0.021309321746230125, 0.016733253374695778, 0.14980469644069672, -0.3492942452430725, 0.18417036533355713, -0.0029997709207236767, 0.004069003276526928, -0.014492061920464039, -0.01578998565673828, 0.0029347529634833336, 0.004614993464201689, 0.024203471839427948, 0.11267635226249695, -0.014369845390319824, -0.029926510527729988, 0.26885589957237244, -0.06529881805181503, -0.145406112074852, 0.08161164075136185, -0.08994223922491074, -0.12300574034452438, 0.45318546891212463, -0.07736857235431671, 0.07497788220643997, 0.07049412280321121, 0.15638937056064606, 0.019667234271764755, 0.33069321513175964, -0.4613342881202698, 0.016824694350361824, -0.00736483559012413, -0.004670214839279652, -0.04953441396355629, 0.06737876683473587, -0.10427620261907578, -0.009797252714633942, -0.09601537883281708, -0.018456092104315758, -0.05742938444018364, -0.27973172068595886, 0.3322681784629822, 0.04434540495276451, -0.16487500071525574, -0.18503053486347198, 0.09895838052034378, -0.357986718416214, 0.48256954550743103, 0.13698624074459076, -0.034391049295663834, 0.15944665670394897, -0.12835021317005157, 0.48891007900238037, -0.4928850829601288, -0.0025603200774639845, -0.005769458599388599, 0.020330557599663734, 0.023251986131072044, 0.004569417331367731, 0.001613929052837193, -0.0361868180334568, -0.06310048699378967, -0.09314466267824173, -0.005254555027931929, -0.39063936471939087, 0.24699313938617706, 0.0012309174053370953, -0.004612554330378771, -0.061513397842645645, -0.04724331572651863, -0.4387089014053345, 0.433226078748703, -0.119436115026474, 0.0727333053946495, 0.03182367607951164, -0.35760897397994995, 0.17345768213272095, 0.12900111079216003, -0.0090140700340271, -0.0016320754075422883, 0.012659426778554916, -0.03615843877196312, 0.008263436146080494, 0.016762910410761833, 0.054996173828840256, -0.009121036157011986, -0.024130983278155327, 0.22015032172203064, -0.10697012394666672, -0.06344730406999588, 0.11228428781032562, -0.07946141064167023, -0.015326150692999363, 0.30854788422584534, -0.23997215926647186, -0.1732049137353897, -0.14219306409358978, 0.07822753489017487, -0.03283660113811493, -0.36745962500572205, 0.2357899695634842, 0.17872321605682373, 0.0027556568384170532, -0.0018934666877612472, 0.0010968552669510245, 0.005883960518985987, -0.005115194711834192, -0.007314115297049284, 0.05050155892968178, -0.019061075523495674, -0.014426111243665218, 0.21814760565757751, -0.11240674555301666, -0.10406219959259033, 0.17255015671253204, -0.16789975762367249, -0.011148705147206783, 0.4268525242805481, -0.32227376103401184, -0.20091842114925385, -0.04624176397919655, -0.14405778050422668, 0.12391606718301773, -0.1111140176653862, -0.17772334814071655, 0.12378378212451935, -0.005242758896201849, -0.013647139072418213, 0.020509513095021248, -0.025536412373185158, -0.027765460312366486, 0.03102961927652359, 0.040535684674978256, 0.039645809680223465, -0.10937497019767761, 0.11381974816322327, 0.14303435385227203, -0.23468373715877533, -0.012216033414006233, 0.17907464504241943, -0.1540268361568451, 0.21082176268100739, 0.3355058431625366, -0.1998635083436966, -0.044981759041547775, -0.17388948798179626, 0.11958745867013931, -0.12528260052204132, -0.33401864767074585, 0.1918237805366516, -0.003992386162281036, -0.0011447184951975942, -0.0019141932716593146, 0.005044260062277317, 0.007411221042275429, 0.013571390882134438, 0.030982570722699165, 0.08195991069078445, -0.04897981137037277, 0.10551325231790543, 0.08437826484441757, -0.09673330187797546, 0.024098273366689682, 0.10231687873601913, -0.06533186137676239, 0.23001453280448914, 0.18006710708141327, -0.24002870917320251, -0.14845386147499084, -0.14035478234291077, -0.11495267599821091, -0.1399952918291092, -0.2078896164894104, -0.05711794272065163, -0.015326390042901039, -0.006173768080770969, -0.004313488490879536, -0.004286088980734348, -0.01801363006234169, -0.0169096440076828, 0.093335822224617, 0.0684904158115387, 0.06402944028377533, 0.0672418549656868, 0.1134268268942833, 0.05268777906894684, 0.2474077045917511, 0.17749983072280884, 0.14881451427936554, 0.161459818482399, 0.2848278880119324, 0.1258249282836914, -0.20371289551258087, -0.25056740641593933, -0.17478632926940918, -0.18183521926403046, -0.24115534126758575, -0.07384021580219269, 0.004776804242283106, 0.0038887339178472757, 0.004803165327757597, 0.0038958012592047453, 0.005650762002915144, 0.0013729857746511698, 0.08399363607168198, 0.06402049213647842, 0.05526090785861015, 0.061076126992702484, 0.10326112061738968, 0.04374488443136215, 0.2505861818790436, 0.2604295313358307, 0.21848689019680023, 0.19107891619205475, 0.3368687033653259, 0.19358870387077332, -0.03253253176808357, 0.08250689506530762, -0.13439905643463135, -0.08206626772880554, 4.844459181185812e-05, 0.1987166553735733, 0.000589326024055481, 0.007652255240827799, -0.01479203812777996, -0.004371260292828083, -0.00548976007848978, 0.02052832767367363, 0.008288982324302197, -0.043908748775720596, 0.0670900046825409, 0.0358719676733017, 0.012376196682453156, -0.12295464426279068, 0.017170455306768417, -0.09460444748401642, 0.1204678863286972, 0.07711046934127808, -0.022334221750497818, -0.2914242744445801, -0.02484004758298397, 0.06908919662237167, -0.18285520374774933, -0.06151049584150314, 0.00821473728865385, 0.3109377920627594, -0.002108736662194133, -0.0018865548772737384, 0.0015519513981416821, 0.0019880710169672966, 0.0005030453321523964, -0.0005235141725279391, 0.006776788737624884, -0.035984598100185394, 0.06384990364313126, 0.03187614679336548, 0.01406976580619812, -0.11703294515609741, 0.054073791950941086, -0.15223434567451477, 0.19972047209739685, 0.05170634016394615, 0.023453710600733757, -0.35974016785621643, -0.007687435019761324, -0.053003475069999695, 0.14305560290813446, -0.1813257783651352, -0.17604809999465942, 0.18677909672260284, 0.0022778394632041454, -0.013902388513088226, -0.024789657443761826, -0.05737781524658203, -0.039099279791116714, 0.01946084387600422, -0.023571673780679703, -0.026629896834492683, -0.024476386606693268, 0.07012161612510681, 0.057658299803733826, -0.1206388771533966, -0.11187096685171127, 0.1526745855808258, -0.14641311764717102, 0.016354916617274284, 0.10482804477214813, -0.09232056885957718, 0.10730133950710297, -0.06368772685527802, 0.037700966000556946, -0.17241446673870087, -0.16023531556129456, 0.04686024785041809, -0.003813390852883458, 0.0012674041790887713, -0.011146944016218185, -0.009492953307926655, -0.0036608527880162, 6.36808545095846e-05, 0.009766303934156895, -0.03662591427564621, -0.05776502937078476, 0.1068115308880806, 0.10850245505571365, 0.00756866903975606, -0.08307977765798569, -0.008567238226532936, 0.010609908029437065, 0.05982848256826401, 0.20924466848373413, -0.13311702013015747, -0.13460421562194824, 0.24315975606441498, 0.30185991525650024, -0.3261669874191284, -0.24897843599319458, 0.04690906032919884, -0.2698661983013153, 0.304976224899292, -0.29430943727493286, -0.07451912015676498, 0.34636664390563965, 0.11075954139232635, -0.8126899003982544, 0.4156431257724762, -0.04302731528878212, -0.6532624363899231, 0.05368341878056526, 0.37588703632354736, -0.005877995863556862, 0.20363056659698486, 0.30837443470954895, 0.11357612162828445, 0.16662977635860443, -0.01775396801531315, 0.06489449739456177, -0.28210440278053284, 0.1594606339931488, 0.2196454107761383, -0.1450967937707901, -0.1121947318315506, 0.5730274319648743, 0.12868289649486542, 0.011727919802069664, 0.36655640602111816, 0.23760411143302917, 0.4998689591884613, 0.27845507860183716, -0.5046303868293762, 0.07158688455820084, -0.005561396945267916, 0.03825240582227707, -0.190487802028656, 0.3008051812648773, 0.27145975828170776, -0.4265104830265045, 0.22716239094734192, 0.10514169931411743, 0.013743337243795395, 0.08525622636079788, -0.11815573275089264, 0.10069937258958817, -0.19579976797103882, 0.06150224804878235, 0.046096451580524445, 0.1251089870929718, 0.2605990171432495, 0.2869475185871124, 0.17046542465686798, 0.403862863779068, 0.23767104744911194, -0.011783180758357048, 0.12281712889671326, -0.04440895467996597, -0.13201318681240082, -0.16973909735679626, 0.02939596399664879, -0.1709425449371338, -0.0999147891998291, 0.1900547444820404, -0.3042093515396118, -0.16255061328411102, -0.06274343281984329, -0.312532514333725, -0.1628100723028183, 0.4485415816307068, 0.053804051131010056, -0.3941146731376648, -0.02933971770107746, -0.1683172881603241, -0.40690287947654724, -0.2344081550836563, 0.06043566018342972, -0.17701281607151031, -0.026272542774677277, -0.15948693454265594, -0.19382457435131073, 0.14211000502109528, 0.10188669711351395, 0.05757240206003189, -0.08947943896055222, 0.02229677140712738, -0.009535487741231918, -0.012604091316461563, -0.010065299458801746, 0.01584201492369175, -0.02179729752242565, -0.030673766508698463, -0.04509308561682701, -0.06693541258573532, 0.07032947987318039, -0.019252881407737732, -0.02625090628862381, -0.0850381851196289, -0.07310453802347183, -0.08591467142105103, 0.15843608975410461, -0.10840193182229996, 0.10853298753499985, -0.034914761781692505, 0.09282083064317703, -0.00508389575406909, 0.013601179234683514, 0.10573123395442963, -0.0419917106628418, 0.02371804229915142, -0.04842635989189148, 0.01934971660375595, 0.0009833895601332188, 0.02732490561902523, 0.0036218962632119656, -0.03729032352566719, 0.023323969915509224, 0.011568109504878521, 0.03564748167991638, -0.009371972642838955, 0.03213841840624809, -0.01133677177131176, -0.007822816260159016, -0.0012663408415392041, 0.1218247190117836, -0.1380101591348648, 0.1898087114095688, -0.13736847043037415, 0.035329461097717285, -0.00840320996940136, 0.06309030950069427, 0.009996370412409306, -0.03795807063579559, 0.04190888628363609, -0.021848328411579132, 0.003099532797932625, 0.009381773881614208, -0.03637201711535454, -0.008726236410439014, -0.0333542600274086, -0.02214452251791954, -0.0711188092827797, -0.04049067199230194, -0.03074292279779911, -0.00519817927852273, -0.0439021959900856, -0.007730190642178059, -0.03390107676386833, 0.10473743081092834, -0.025793377310037613, -0.005431638099253178, -0.049664516001939774, 0.004853899125009775, -0.09039589017629623, 0.13405831158161163, 0.037008967250585556, 0.0791931226849556, 0.10539857298135757, 0.001754003344103694, 0.07465570420026779, 0.014268233440816402, -0.01000446081161499, 0.022547563537955284, -0.042894866317510605, 0.046312179416418076, -0.0007832882693037391, 0.08990739285945892, 0.027276378124952316, 0.046402107924222946, 0.0599418468773365, 0.06204671412706375, 0.0868099182844162, -0.03500291705131531, 0.011410932056605816, 0.08801639080047607, -0.09336137026548386, 0.07250691950321198, -0.03729940205812454, 0.1327793151140213, -0.15293002128601074, 0.007696195505559444, -0.038436733186244965, -0.09640355408191681, 0.03794346749782562, -0.11894644051790237, 0.024358034133911133, 0.12599657475948334, 0.06066128611564636, 0.25702977180480957, 0.016813011839985847, 0.1367916613817215, -0.11731450259685516, -0.20138899981975555, -0.1534092277288437, -0.3921283483505249, -0.11312166601419449, -0.05043322220444679, -0.05372803658246994, -0.12108549475669861, -0.03006967343389988, -0.02288016863167286, -0.1506819874048233, 0.26517757773399353, 0.11346432566642761, 0.08737556636333466, 0.16091464459896088, 0.00329130538739264, 0.07137404382228851, -0.07181208580732346, 0.014097560197114944, 0.07740501314401627, 0.01431380957365036, 0.005471222568303347, -0.3196781873703003, -0.10527355968952179, 0.05102422460913658, 0.030514497309923172, -0.0267463531345129, -0.03767303749918938, 0.11794065684080124, -0.1608569473028183, 0.019203875213861465, 0.04746921360492706, -0.008652291260659695, -0.011897606775164604, -0.21061167120933533, 0.15916435420513153, 0.00017250239034183323, 0.030785517767071724, 0.04997187480330467, 0.09192109853029251, -0.015431747771799564, 0.1363389939069748, -0.069666288793087, -0.04387511685490608, -0.017934532836079597, -0.04286472126841545, -0.03819815069437027, -0.10998900234699249, -0.020218919962644577, -0.013238857500255108, 0.008373488672077656, -0.027093132957816124, -0.008715386502444744, -0.0002704598009586334, 0.027511093765497208, 0.005173334851861, 0.03146107494831085, -0.021172216162085533, 0.04225896671414375, -0.06827190518379211, -0.014129696413874626, 0.0071627595461905, -0.004770017694681883, 0.025622501969337463, -0.043950099498033524, 0.05695305019617081, -0.009553516283631325, -0.020659031346440315, 0.0013215714134275913, 0.013710351660847664, 0.00889497809112072, 0.08916797488927841, -0.006932281423360109, -0.01851704716682434, -0.050764285027980804, -0.057171035557985306, 0.023197276517748833, -0.08982571214437485, 0.034827616065740585, -0.001159722451120615, -0.002223609946668148, -0.06168091669678688, 0.05089270696043968, -0.11410796642303467, 0.011824779212474823, 0.0005795805482193828, 0.017407778650522232, 0.008253563195466995, 0.00035974301863461733, -0.005977059714496136, -0.009104887023568153, -0.019255194813013077, -0.02340148203074932, -0.021436719223856926, -0.01556489896029234, -0.005619535688310862, -0.018955547362565994, 0.004205723293125629, -0.016672395169734955, 0.005868070293217897, -0.030599068850278854, -0.01840353198349476, 0.00021046519395895302, 0.02584748901426792, -0.012298610992729664, 0.01041390560567379, 0.0035121736582368612, 0.02751852758228779, 0.009877918288111687, -0.013780149631202221, 0.00881834328174591, -0.01265625935047865, 0.005469299852848053, -0.00519165163859725, 0.0031903814524412155, 0.014452354982495308, 0.0025453721173107624, -0.0018040281720459461, -0.004934836644679308, 0.008330688811838627, -0.021352780982851982, -0.008316371589899063, -0.014299479313194752, -0.006694169249385595, -0.006151335313916206, -0.011658080853521824, -0.012266017496585846, 0.024027157574892044, -0.01273356843739748, 0.012148980982601643, -0.00010554262553341687, 0.030710110440850258, -0.025208620354533195, 0.04330753907561302, -0.014021741226315498, 0.07097820937633514, -0.05366554111242294, -0.0668526291847229, 0.07047469913959503, -0.017498089000582695, 0.002943877363577485, 0.034889038652181625, -0.025332216173410416, 0.009350528940558434, 0.02919211983680725, 0.028209740296006203, -0.040796082466840744, -0.07178418338298798, -0.0810224860906601, 0.005310435779392719, -0.012659565545618534, -0.047889940440654755, 0.031232424080371857, -0.016154618933796883, -0.04095088317990303, 0.08910328149795532, 0.10844004154205322, 0.10715580731630325, 0.08700904995203018, 0.12929420173168182, 0.03530291095376015, 0.08016207069158554, 0.051900070160627365, 0.06315070390701294, 0.07114151865243912, 0.025907162576913834, -0.00965921301394701, -0.0031330762431025505, -0.003294417867437005, -0.04925047978758812, -0.04673242196440697, -0.03547447547316551, -0.03751504421234131, -0.0575869046151638, -0.01151292584836483, -0.08044999092817307, 0.03812713921070099, -0.11703220009803772, 0.06881784647703171, -0.017956679686903954, -0.0068819704465568066, 0.00991106778383255, 0.03569485619664192, -0.006296935491263866, -0.08413505554199219, -0.013657785020768642, -0.09742245823144913, -0.06225601211190224, -0.013185282237827778, 0.017214423045516014, -0.043180663138628006, -0.09849441796541214, 0.0675857663154602, 0.046233467757701874, 0.022042807191610336, 0.05798431858420372, -0.008250685408711433, 0.07077590376138687, -0.033139053732156754, 0.0062812562100589275, -0.05558467656373978, -0.0394711010158062, 0.005072454456239939, 0.13856714963912964, 0.011924786493182182, 0.029546689242124557, 0.0724843218922615, 0.05563386157155037, 0.009752017445862293, -0.07707737386226654, 0.01814240589737892, 0.03769388794898987, -0.026239192113280296, -0.027794182300567627, -0.006145439576357603, 0.05676326900720596, 0.046874769032001495, 0.0037281224504113197, 0.025977816432714462, 0.047815918922424316, 0.07541543990373611, 0.04383666813373566, 0.07594729214906693, 0.07397013157606125, -0.0008076608646661043, 0.03319912403821945, 0.11920332908630371, 0.11548925936222076, -0.17044347524642944, 0.0004673845542129129, -0.10459985584020615, -0.15213856101036072, -0.19854627549648285, 0.005600142292678356, 0.014658835716545582, -0.0433972030878067, 0.029256345704197884, -0.12171674519777298, 0.05639444664120674, 0.13162367045879364, -0.1375010907649994, -0.06654181331396103, -0.1998022198677063, 0.049383845180273056, -0.4320904612541199, -0.07776996493339539, -0.1296563297510147, -0.038282282650470734, 0.191238671541214, -0.042532097548246384, 0.008916500955820084, 0.0729001984000206, 0.13967157900333405, -0.057921506464481354, -0.1012474000453949, -0.20624497532844543, -0.055719632655382156, 0.01640525832772255, 0.0013338662683963776, -0.12090756744146347, -0.05399700626730919, -0.1904888153076172, -0.09969621896743774, 0.20861391723155975, 0.005448916926980019, 0.07636397331953049, 0.02654365636408329, 0.23532734811306, -0.030373254790902138, -0.1866501122713089, 0.017502695322036743, -0.13243697583675385, 0.04828919842839241, -0.06456726789474487, -0.024851126596331596, -0.039723433554172516, -0.05711720138788223, -0.19417114555835724, 0.20759621262550354, -0.08483102172613144, -0.07934760302305222, -0.015411949716508389, -0.24027948081493378, 0.08657874912023544, 0.025663772597908974, 0.318384051322937, 0.7989743947982788, -0.03184258192777634, 0.020563550293445587, 0.2761496305465698, 0.3145081400871277, -0.8968859314918518, -0.03357706964015961, -0.03441951051354408, -0.15651008486747742, -0.018558697775006294, 0.005813895259052515, 0.01319083385169506, -0.02065742202103138, 0.2034178376197815, 0.20893819630146027, 0.12685629725456238, -0.08636792004108429, 0.12433477491140366, 0.026886217296123505, 0.10966514050960541, 0.20626036822795868, 0.11804361641407013, -0.1564933955669403, -0.045884981751441956, -0.3810272216796875, -0.05795350670814514, -0.007250620052218437, -0.05452180653810501, -0.07933392375707626, 0.18093876540660858, 0.07248841971158981, 0.11545368283987045, 0.3623804748058319, -0.05263834446668625, -0.004636123310774565, -0.08594559878110886, 0.110394187271595, -0.25354039669036865, -0.07570818066596985, 0.026084046810865402, 0.1969432830810547, 0.00142239301931113, -0.024287095293402672, 0.15064574778079987, 0.2409234344959259, 0.14278902113437653, -0.07174774259328842, 0.12390244752168655, 0.24234381318092346, -0.09756916016340256, -0.0115177808329463, 0.1814648061990738, 0.3031862676143646, -0.11554108560085297, -0.26537084579467773, -0.11432010680437088, 0.0014906480209901929, -0.027765316888689995, -0.004384351894259453, -0.010055630467832088, 0.04857676103711128, 0.17590977251529694, -0.074707992374897, 0.12876883149147034, 0.14247989654541016, -0.03706860542297363, 0.02181221731007099, 0.10798399895429611, 0.07738196849822998, 0.07489793747663498, -0.11068630963563919, -0.08988498896360397, 0.08847212791442871, -0.15654921531677246, 0.11486417800188065, -0.21548470854759216, -0.011002590879797935, -0.1630391925573349, 0.0203356072306633, 0.014849571511149406, 0.018488483503460884, 0.017139514908194542, 0.009002349339425564, 0.011839381419122219, -0.007889977656304836, -0.012699333019554615, -0.013213258236646652, -0.01314216572791338, -0.0155118303373456, -0.000698687566909939, 0.011769024655222893, 0.010052998550236225, 0.015059719793498516, 0.010390708222985268, 0.0025304844602942467, -0.014795002527534962, 0.03526974469423294, 0.03199086710810661, 0.020232796669006348, 0.03168965503573418, 0.024857576936483383, 0.014920477755367756, -0.03200754523277283, -0.03076491318643093, -0.032093606889247894, -0.03513902798295021, -0.026793571189045906, -0.008560734800994396, 0.01428685151040554, 0.015101349912583828, 0.013548093847930431, 0.010059051215648651, 0.027298878878355026, 0.021821357309818268, 0.002106203930452466, 0.007847314700484276, 0.005976264830678701, 0.008100505918264389, 0.004401097074151039, -0.00390087952837348, 0.03631569817662239, 0.03184990957379341, 0.021138394251465797, 0.04046054556965828, 0.021007271483540535, 0.019840670749545097, 0.02154640294611454, 0.026028573513031006, 0.03350738063454628, 0.024039575830101967, 0.024320123717188835, 0.017578739672899246, -0.00042713023140095174, -0.0035320017486810684, -0.000655449868645519, -0.0007369782542809844, -0.0039993771351873875, 0.011704201810061932, 0.0022383343894034624, 0.005501201376318932, 0.007768229115754366, 7.488387927878648e-05, 0.002438958501443267, 0.026678305119276047, 0.0050880638882517815, -0.004179760813713074, -0.014380061998963356, -0.003500536549836397, 0.0016596813220530748, -0.012319584377110004, -0.005488865543156862, -0.008086657151579857, -0.004228235688060522, -0.0016156623605638742, -0.004978709388524294, 0.019236629828810692, 0.0017941792029887438, 0.004878166597336531, 0.010534909553825855, -0.003888119710609317, -0.0017041561659425497, 0.0033576448913663626, -0.0003174864687025547, 0.0008636537240818143, -0.0016884111100807786, 0.0020123571157455444, -0.0012973552802577615, 0.00048426949069835246, 0.010307271964848042, -0.0006370015325956047, -0.020508265122771263, 0.002406919375061989, 0.003717671846970916, 0.009600228630006313, 0.018971353769302368, 0.0139835299924016, 0.010657398030161858, 0.0032598720863461494, 0.011349678970873356, 0.00616792356595397, 0.012075809761881828, -0.025120871141552925, -0.013678920455276966, 0.012196879833936691, -0.015908362343907356, 0.010687368921935558, 0.03404684364795685, 0.02778366580605507, 0.008536149747669697, 0.024771180003881454, 0.020617814734578133, 0.019035348668694496, 0.016226716339588165, -0.009774780832231045, -0.007277314085513353, 0.0008021544199436903, -0.023000914603471756, 0.028137510642409325, -0.015747306868433952, -0.027857841923832893, -0.02307714708149433, -0.025297584012150764, -0.029857147485017776, 0.005086610093712807, 0.018449530005455017, 0.0007767561473883688, -0.006236815359443426, -0.010859860107302666, -0.011284722946584225, 0.03822605311870575, 0.005966612603515387, 0.0247564148157835, 0.02175774611532688, 0.014596158638596535, 0.026621125638484955, 0.0008972944342531264, 0.031517233699560165, 0.011786192655563354, 0.024378139525651932, 0.011836066842079163, 0.01650666445493698, 0.041861068457365036, 0.01311882957816124, 0.008112275041639805, 0.012422477826476097, 0.009973294101655483, 0.01580190286040306, 0.007740457076579332, -0.0004181585682090372, -0.0015683474484831095, 0.002740241354331374, 1.646710734348744e-05, 0.004972418770194054, -0.0004114441107958555, -0.005545256659388542, -0.005779769737273455, -0.0008098791586235166, -0.0030312954913824797, 0.003690394340083003, -0.0019329108763486147, 0.005635568872094154, 0.009585020132362843, 0.001535438816063106, 0.00436800392344594, -0.007688448298722506, 0.008508601225912571, 4.161033939453773e-05, -0.0002933937357738614, 0.0001147982184193097, -0.0006976575241424143, 0.0016920458292588592, -0.0015860390849411488, 0.003322335658594966, 0.005495248828083277, 0.002097300486639142, 0.004640120547264814, 0.0016834150301292539, 0.009471864439547062, -0.0016147753922268748, -0.0007003296632319689, -0.0017306882655248046, -0.0009470062796026468, -0.0017290862742811441, -0.0011217399733141065, -0.0033177307341247797, 0.005929910112172365, -0.002973546041175723, 0.0018753689946606755, -0.008110413327813148, 0.009011035785079002, -0.0537542998790741, -0.05504607409238815, -0.04451229050755501, -0.04989580810070038, -0.048380810767412186, -0.06076599657535553, -0.06281481683254242, -0.0693313330411911, -0.08757078647613525, -0.044547196477651596, -0.02139449305832386, -0.018360836431384087, -0.11814434081315994, -0.11954641342163086, -0.13823102414608002, -0.11387956142425537, -0.07948251813650131, -0.05174028128385544, 0.0915721133351326, 0.06341516971588135, 0.085380919277668, 0.0661061629652977, 0.012124042958021164, 0.022093556821346283, -0.06464378535747528, -0.06486469507217407, -0.05929087847471237, -0.05911896750330925, -0.03738733008503914, -0.0458560474216938, -0.010673196986317635, -0.01959170587360859, -0.014791999943554401, -0.026357779279351234, -0.031485650688409805, -0.03192353993654251, -0.04046089947223663, -0.03921837359666824, -0.06321415305137634, -0.033926233649253845, -0.024293946102261543, 0.010509622283279896, 0.08361579477787018, 0.03890354186296463, 0.04137285426259041, 0.06112813949584961, -0.0072504873387515545, 0.05827527493238449, -0.0657249242067337, -0.09663362801074982, 0.03593114763498306, -0.08810529857873917, -0.06724321097135544, -0.13135024905204773, 0.009991157799959183, 0.02549092099070549, 0.05934770777821541, -0.046478476375341415, -0.039708226919174194, 0.0016657140804454684, 0.034702401608228683, 0.007674265652894974, -0.025716377422213554, 0.008275256492197514, -0.19189207255840302, -0.19838549196720123, 0.0021955843549221754, -0.02036232315003872, 0.036726996302604675, -0.04033047705888748, 0.08736135065555573, 0.0914294570684433, 0.0600278377532959, 0.0601351372897625, -0.0043509406968951225, 0.09165586531162262, 0.03947716951370239, 0.05797576159238815, -0.004754015244543552, -0.06816132366657257, -0.096528559923172, 0.052404988557100296, -0.05318186432123184, 0.10892070084810257, -0.07725067436695099, -0.11119958758354187, 0.08811372518539429, 0.07007207721471786, 0.28454306721687317, 0.11181831359863281, -0.03655305504798889, 0.05099130794405937, -0.04154611751437187, -0.07278008759021759, 0.05616725608706474, -0.0064138686284422874, 0.0045273578725755215, 0.002608111361041665, 0.002426502062007785, 0.0036908297333866358, 0.0032538785599172115, 0.006622925866395235, -0.001761740306392312, -0.00048523154691793025, -0.0016168513102456927, -0.0011702872579917312, -0.0019069649279117584, 0.00030552048701792955, 0.003649322781711817, 0.003215923672541976, 0.0015567369991913438, 0.0029547882732003927, 0.0016675898805260658, 0.0002264568320242688, -4.1683175368234515e-05, 0.00032207969343289733, 0.001923547824844718, -0.0008610950317233801, 0.0014349635457620025, 0.007885131053626537, -0.0005030787433497608, -0.000983706908300519, -0.001261010067537427, -0.0018923870520666242, -0.0021652705036103725, -0.004317138344049454, 0.0008503049029968679, 0.000419036514358595, 0.0005009893793612719, 0.001256799791008234, 0.0006882310262881219, 0.0069391303695738316, 5.077687092125416e-05, -9.872388909570873e-05, 5.9446167142596096e-05, -0.0002977092226501554, -0.00017483044939581305, -0.00018453272059559822, -5.137099833518732e-06, -0.00023924522974994034, -3.2908057619351894e-05, -0.004792043473571539, -0.0025131376460194588, -0.0007559219375252724, 0.019455965608358383, 0.01427761372178793, 0.010453622788190842, 0.01752537302672863, 0.016679193824529648, 0.01271243765950203, -0.0010904567316174507, 0.007469573989510536, -0.003725065616890788, 0.008533705957233906, -0.004658068530261517, 0.004752961918711662, 0.00942065380513668, 0.019058698788285255, 0.013938741758465767, 0.0012714788317680359, 0.0172160342335701, 0.013966398313641548, -0.0011786087416112423, 0.0005987144540995359, 0.001796133816242218, -0.0020291574764996767, -0.016528142616152763, -0.02304631471633911, -0.013474177569150925, -0.01436599064618349, -0.03166493773460388, -0.003464014967903495, -0.025728948414325714, -0.0041852546855807304, 0.012106675654649734, 0.015615776181221008, 0.012421089224517345, 0.007049092557281256, -0.0057792263105511665, 0.0044855657033622265, 0.008503708057105541, 0.008207233622670174, 0.007061222568154335, 0.007201263215392828, 0.019035663455724716, 0.016479182988405228, 0.00862728338688612, 0.018430287018418312, 0.002989834873005748, 0.005888188257813454, -0.010790394619107246, -0.020301610231399536, -0.04431873932480812, -0.08731550723314285, -0.07993421703577042, -0.0584084652364254, 0.038844428956508636, -0.006202504970133305, -0.05175117403268814, -0.0875655859708786, 0.010437057353556156, -0.02594783902168274, 0.006533668842166662, 0.0009450069046579301, 0.09007963538169861, -0.8075870275497437, -0.00044702307786792517, -0.012894307263195515, -0.00795008148998022, -0.013419458642601967, -0.030126819387078285, -0.0014150580391287804, 0.002979117212817073, 0.20869357883930206, -0.004021972883492708, 0.006970561575144529, 0.0002933449577540159, 0.012089906260371208, 0.04048826918005943, 0.00485209608450532, -0.15293489396572113, -0.05896485224366188, 0.014228494837880135, 0.010137911885976791, -0.015174351632595062, -0.0042055039666593075, -0.0024065920151770115, 0.003903808072209358, -0.08610764890909195, 0.2622765302658081, -0.00039346417179331183, 0.009577536955475807, -0.010126972571015358, 0.020040854811668396, 0.02292909286916256, 0.0006137587479315698, 0.03825411573052406, -0.1888982504606247, -0.016572242602705956, -0.017596542835235596, -0.002865527756512165, -0.015984447672963142, 0.006977043580263853, -0.002602588152512908, 0.07836615294218063, 0.11775995790958405, -0.005286599043756723, -0.013029079884290695, -0.025689195841550827, 0.0005577930714935064, 0.019000912085175514, -0.0054186321794986725, 0.013736044056713581, 0.021415311843156815, -0.0008180874865502119, 0.010020281188189983, -0.0022877405863255262, -0.0036043862346559763, -0.011999774724245071, -0.010316154919564724, -0.009159482084214687, -0.019184153527021408, -0.0031214095652103424, 0.0011704476783052087, 0.0036624176427721977, 0.017662102356553078, 0.028536485508084297, -0.002358250552788377, 0.04333178326487541, 0.047262631356716156, 0.001019124174490571, -0.022522922605276108, 0.16440145671367645, -0.06836674362421036, -0.278791606426239, 0.06458120793104172, 0.1270938366651535, 0.0033233915455639362, 0.12981653213500977, 0.0956784188747406, 0.0066265505738556385, 0.016329554840922356, 0.006412787362933159, 0.0038734707050025463, -0.00958437379449606, -0.0015199806075543165, -0.01961858943104744, -0.022545846179127693, -0.006590722128748894, 0.0062682307325303555, 0.0043021333403885365, 0.021191013976931572, 0.02281695231795311, 0.029079703614115715, 0.04240885376930237, 0.0385342575609684, 0.03252086788415909, 0.03308704122900963, 0.03313048928976059, 0.012416178360581398, 0.02473800629377365, 0.00899516697973013, 0.03206297382712364, 0.026927722617983818, -0.046960920095443726, -0.03754430636763573, -0.040457479655742645, -0.044593170285224915, -0.043175339698791504, -0.04387051612138748, 0.0456010065972805, 0.038294222205877304, 0.05388547107577324, 0.03650841861963272, 0.06074496731162071, 0.05765698850154877, -0.03988153487443924, -0.03140967711806297, -0.026788940653204918, -0.021422484889626503, -0.02723374217748642, -0.04325243458151817, 0.009109105914831161, -0.009964694269001484, 0.013829191215336323, -0.007288776338100433, 0.022910207509994507, 0.015925727784633636, -0.007209459785372019, -0.0028420016169548035, -0.0020502146799117327, -0.002583656460046768, -0.0034239490050822496, -0.0030683830846101046, 0.004931075498461723, 0.003506270470097661, 0.003462827065959573, 0.0034819466527551413, 0.003932942170649767, 0.005581248085945845, 0.009675953537225723, 0.012164667248725891, 0.01206977665424347, 0.012587664648890495, 0.011785642243921757, 0.014121539890766144, 0.0007429763209074736, -0.005844798870384693, -0.006475590169429779, -0.006460560020059347, -0.00522938696667552, -0.006072001066058874, -0.016919638961553574, -0.012019257061183453, -0.011396520771086216, -0.010602934285998344, -0.011819708161056042, -0.013277703896164894, 0.005169038660824299, 0.0006077375146560371, 0.00041111483005806804, 0.0004740128351841122, -0.0001325080229435116, -0.002643628977239132, -0.004090454429388046, -0.0029845430981367826, -0.002879308070987463, -0.002668040106073022, -0.0030665199737995863, -0.002078444231301546, 0.003602023236453533, 0.0005222644540481269, -0.0016009018290787935, -0.0009108648519031703, 0.00024253349693026394, -0.001236393116414547, -0.0353899709880352, -0.058249473571777344, -0.02889370173215866, -0.06912785023450851, -0.06646008044481277, 0.14311419427394867, -0.022942371666431427, 0.029790407046675682, 0.02959691360592842, 0.019195541739463806, 0.06279004365205765, 0.1554318517446518, -0.01412137784063816, -0.026306502521038055, -0.08171413093805313, -0.09647951275110245, -0.021842604503035545, 0.24615401029586792, 0.06760359555482864, -0.001284959027543664, 0.02508174441754818, 0.022349731996655464, 0.023954523727297783, -0.006494494155049324, 0.10323768854141235, 0.04767956584692001, 0.05317675322294235, 0.12367016822099686, 0.0949668288230896, 0.16382387280464172, -0.01799163408577442, -0.07601840794086456, -0.062331538647413254, -0.045299943536520004, -0.09997409582138062, -0.15229666233062744, 0.03623362258076668, -0.004332985728979111, 0.0872209370136261, 0.0011679909657686949, -0.09294077008962631, -0.21904154121875763, -0.05244741216301918, 0.018938222900032997, -0.005453847348690033, -0.013202117756009102, 0.013529633171856403, 0.12081916630268097, -0.005177720915526152, -0.02073608711361885, 0.018581824377179146, 0.031010843813419342, 0.0386989451944828, 0.249905064702034, 0.008636989630758762, -0.02437148243188858, -0.017585692927241325, 0.02847454510629177, -0.06577689200639725, 0.13289335370063782, 0.022123700007796288, 0.028448646888136864, 0.08353034406900406, 0.06764953583478928, 0.005461075808852911, 0.1375611424446106, 0.002507352503016591, 0.019578207284212112, 0.011298079043626785, 0.012372259981930256, -0.018020030111074448, -0.17530012130737305, -0.009410262107849121, 0.0289853997528553, -0.025607090443372726, 0.027814099565148354, -0.03258606046438217, 0.0745806023478508, 0.021917173638939857, 0.07940060645341873, 0.08171901851892471, 0.08834494650363922, 0.051237281411886215, 0.027113625779747963, 0.01358014065772295, 0.010521912947297096, -0.010654035024344921, -0.013722393661737442, 0.011962411925196648, -0.008067567832767963, 0.011158854700624943, 0.04496297240257263, 0.014223286882042885, 0.04015488922595978, 0.029569977894425392, -0.037345729768276215, -0.007293833885341883, 0.012531480751931667, -0.008628375828266144, -0.031097417697310448, 0.05631367489695549, -0.032010048627853394, -0.029195792973041534, -0.010655120015144348, 0.05714556202292442, 0.016872750595211983, 0.009752191603183746, 0.012645679526031017, -0.018637266010046005, 0.021375752985477448, 0.048603035509586334, 0.0644916445016861, 0.020826909691095352, -0.01892283745110035, 0.003983581438660622, 0.009507374837994576, 0.041212908923625946, -0.013302774168550968, -0.0780671089887619, 0.028957832604646683, -0.02167324349284172, -0.015020261518657207, 0.019630219787359238, -0.024014584720134735, 0.01354803517460823, -0.034739647060632706, -0.003068935591727495, 0.018307369202375412, 0.04664655774831772, -0.014181248843669891, -0.013586342334747314, -0.012624978087842464, 0.009893137030303478, -0.0002780196664389223, -0.014186026528477669, 0.028093185275793076, 0.004011135082691908, 0.0031856035348027945, -0.003863440128043294, -0.0023864172399044037, 0.07197470963001251, 0.06603769958019257, -0.07820865511894226, 0.03153422847390175, 1.6091462384792976e-05, -4.442739736987278e-05, -7.691790960961953e-05, 0.0003027702041435987, 0.0001408217940479517, -0.00018183169595431536, 0.0005832184106111526, 0.00022294576046988368, 0.0001840374752646312, 0.0002539478591643274, 0.0004889247938990593, -0.00017242913600057364, 0.0009870404610410333, 0.0009662691154517233, 0.0006674534524790943, 0.00046640614164061844, 0.0010303918970748782, 0.0010414090938866138, -0.0004954327596351504, -0.0005908545572310686, 1.2342261470621452e-05, -0.0003857133851852268, -0.0006816243985667825, -0.0004248660115990788, -0.0008453167974948883, -0.0008289326797239482, -0.0010590298334136605, -0.0007078640628606081, -0.0007463102228939533, -0.0015212123980745673, 0.00018754608754534274, 0.00014960058615542948, 0.0004361099563539028, 0.0002574710233602673, 7.646501762792468e-05, -3.2310214010067284e-05, -0.0004389063687995076, -0.00018545913917478174, -0.00039749586721882224, -0.0005572384689003229, -0.00033373842597939074, 7.65276672609616e-06, -0.00043667774298228323, -0.0005014300695620477, -2.9311362595763057e-05, -0.0007136634667403996, -0.0007169866003096104, -0.00022967308177612722, -0.03709626942873001, -0.045566052198410034, -0.05197784677147865, -0.11125772446393967, 0.012804755941033363, -0.0011708058882504702, -0.052765678614377975, 0.03632817789912224, 0.02853420563042164, 0.04854204133152962, 0.09345852583646774, 0.03495032340288162, -0.016527507454156876, -0.04587993025779724, -0.09422218799591064, -0.13603612780570984, -0.10601291805505753, -0.19359581172466278, 0.06805570423603058, 0.02094523422420025, 0.007501053158193827, -0.018564948812127113, 0.023090006783604622, -0.03641705960035324, 0.11730062961578369, 0.0300418883562088, 0.05425241217017174, 0.09653402864933014, -0.0801316350698471, 0.07781316339969635, 0.0007730615325272083, -0.09558838605880737, -0.0684051364660263, 0.030964480713009834, -0.0692639872431755, 0.14632458984851837, 0.06153283640742302, 0.04809771105647087, 0.06898198276758194, 0.005868741311132908, 0.006817099172621965, 0.036733269691467285, -0.05018078163266182, 0.007513963617384434, -0.019866956397891045, -0.0635051280260086, -0.040018558502197266, -0.10140334069728851, 0.0015690512955188751, 0.005772449541836977, 0.002787094796076417, 0.005981071386486292, 0.0016691084019839764, 0.00584991741925478, 0.002033873461186886, -0.00026764601352624595, -0.0031105773523449898, -0.0016358918510377407, -0.0029415637254714966, -0.0012500379234552383, 0.013576630502939224, 0.015836065635085106, 0.010385258123278618, 0.016361739486455917, 0.009015092626214027, 0.016147051006555557, -0.004873103927820921, -0.0010392280528321862, -0.004954314790666103, -0.0006452602101489902, -0.0039157927967607975, -0.007474787533283234, -0.017795782536268234, -0.01794537529349327, -0.017654282972216606, -0.01485513150691986, -0.0197841115295887, -0.01413794420659542, 0.0016559627838432789, 0.003798232413828373, 0.005036523565649986, 0.004802559036761522, 0.002621678402647376, -0.0010919040068984032, -0.009356680326163769, -0.008225232362747192, -0.009416214190423489, -0.006797503679990768, -0.010849498212337494, -0.0043504368513822556, -0.010066607967019081, 0.0007864022045396268, -0.010836171917617321, -0.002977698342874646, -0.010035867802798748, -0.00320306234061718, -0.07926157861948013, -0.0416831336915493, 0.2663242220878601, -0.11119337379932404, -0.05351366102695465, -0.0057411338202655315, 0.22043634951114655, -0.044516418129205704, 0.012670287862420082, -0.005647591315209866, 1.1858748197555542, -0.23193518817424774, 0.037338171154260635, 0.0002494711661711335, -1.0230945348739624, -0.007639812771230936, -0.030679836869239807, 0.01170207466930151, -0.37619325518608093, -0.16080987453460693, 0.021085714921355247, -0.0004940261133015156, 0.1376034915447235, 0.001072612009011209, 0.054664503782987595, 0.01026222389191389, 0.053780440241098404, 0.3136864900588989, 0.07687832415103912, 0.0009248899295926094, -0.09513932466506958, -0.005567941814661026, -0.008750072680413723, -0.010820710100233555, -0.16914483904838562, -0.24362726509571075, 0.07058050483465195, -3.932200343115255e-05, -0.02506226673722267, 0.0026230013463646173, 0.0039019216783344746, 0.00030026063905097544, 0.3798147141933441, 0.12209368497133255, -0.12537530064582825, -0.0009419493726454675, -0.26374170184135437, -0.0006967657245695591, -0.014118407852947712, -0.00033062841976061463, -0.1839091181755066, 0.13145621120929718, 0.015959983691573143, 2.761214636848308e-05, 0.1217372715473175, -0.00597563199698925, 0.0022994044702500105, 0.00634772889316082, 0.2492324560880661, 0.09116916358470917, 0.2116103321313858, -0.000581567466724664, -0.24176520109176636, -0.008541721850633621, 0.04033656045794487, 0.011825436726212502, 0.2108197808265686, 0.13172340393066406, -0.02684171125292778, -0.0005449284217320383, -0.028295285999774933, -0.006067743059247732, 0.0293226670473814, -0.01078058872371912, -0.0067558432929217815, -0.32021310925483704, 0.07826479524374008, -0.0006940701277926564, -0.18500660359859467, -0.005000796169042587, 0.039038293063640594, -0.10713715851306915, 0.010939394123852253, -0.03997430205345154, -0.17453204095363617, -0.08412431925535202, -0.17678292095661163, 0.37202271819114685, 0.026115657761693, 0.013112102635204792, 0.04406488686800003, 0.019047589972615242, 0.005668549798429012, 0.0268331877887249, -0.023943569511175156, -0.0002948310284409672, 0.0048522199504077435, -0.012618024833500385, -0.004954307805746794, -0.051403772085905075, 0.05585410073399544, 0.07486319541931152, 0.07651937752962112, 0.06767654418945312, 0.04319530352950096, -0.005211274139583111, -0.0060149431228637695, 0.038795214146375656, -0.009188363328576088, 0.017966976389288902, 0.0023627171758562326, 0.06616974622011185, 0.021752383559942245, 0.008291464298963547, 0.011963016353547573, -0.004674444906413555, -0.005765427835285664, -0.002617785707116127, 0.00010523002129048109, 0.057373590767383575, 0.015926435589790344, 0.04157153517007828, 0.009738659486174583, 0.0628107562661171, 0.013972830027341843, 0.0036133620887994766, 0.00871594063937664, 0.006216003559529781, 0.006996887736022472, 0.01206621341407299, 0.006342350505292416, 0.0058908346109092236, -0.003466139081865549, 0.012805818580091, 0.004372613504528999, -0.08770211786031723, 0.0008647501235827804, 0.010751158930361271, 0.013006898574531078, 0.007333798799663782, 0.0007553707109764218, 0.0009008484776131809, 0.006940220482647419, 0.006763877347111702, 0.00397407915443182, 0.0013711428036913276, 0.005078597459942102, 0.01673104614019394, 0.003204192966222763, 0.0034538297913968563, 0.0035834694281220436, 0.001225230167619884, 0.004699911456555128, 0.01601485349237919, 0.026265859603881836, 0.0015048390487208962, 0.0008340160711668432, 0.008698979392647743, 0.029492320492863655, 0.0037504807114601135, -0.018106596544384956, -0.006240743212401867, -0.0076597086153924465, -0.012096313759684563, -0.010257279500365257, -0.000287642382318154, 0.0104565704241395, 0.008326996117830276, 0.00837226863950491, 0.00936645083129406, 0.012872402556240559, -0.0006942632608115673, -0.010552973486483097, -0.010809391736984253, -0.00873615313321352, -0.008700073696672916, -0.00787253025919199, -0.0016355279367417097, -0.0003879893629346043, -0.004482345189899206, -0.00789818074554205, -0.004103487357497215, -0.0026191375218331814, 0.0008551310747861862, 0.07035696506500244, 0.07275881618261337, 0.055373139679431915, 0.03189161419868469, 0.03853939101099968, -0.04742959141731262, -0.21576759219169617, -0.24820476770401, -0.21840469539165497, -0.23345768451690674, -0.3147853910923004, -0.14421446621418, 0.03799936920404434, -0.010826067067682743, -0.01305745355784893, -0.03002050332725048, 0.02626006305217743, 0.058699581772089005, 0.080215223133564, 0.055523425340652466, 0.10829125344753265, 0.021955810487270355, 0.0769805833697319, 0.13187040388584137, 0.13681969046592712, 0.04635633900761604, 0.05907033383846283, 0.022722406312823296, 0.04090229049324989, 0.12814277410507202, 0.08873016387224197, 0.05735935643315315, -0.01839480549097061, 0.01635119691491127, -0.012157044373452663, -0.0748419314622879, 0.08389437943696976, 0.0638539120554924, 0.07272021472454071, 0.08704040944576263, 0.08794732391834259, 0.028209470212459564, 0.0064163850620388985, 0.056932542473077774, 0.028654156252741814, 0.08966345340013504, 0.05235124006867409, 0.2047077715396881, 0.027343329042196274, 0.0025443059857934713, 0.015077988617122173, 0.016517553478479385, 0.019200371578335762, 0.031480543315410614, -0.02424517646431923, -0.00987728126347065, -0.010628445073962212, -0.017170673236250877, -0.022596487775444984, -0.008086535148322582, 0.03045814111828804, 0.021832482889294624, 0.028482448309659958, 0.03004431165754795, 0.023532742634415627, 0.007339648436754942, -0.017897451296448708, 0.02264580875635147, 0.005604850128293037, -0.0022859370801597834, -0.00022524784435518086, 0.030785255134105682, 0.006962936371564865, -0.014726501889526844, -0.0114297391846776, 0.0019498920300975442, -0.008205677382647991, 0.02336326241493225, 0.014934876002371311, 0.013064680621027946, -0.0008485783473588526, 0.015601713210344315, 0.021812301129102707, 0.025803664699196815, 0.007317258045077324, 0.005122504197061062, 0.005131072364747524, 0.011064169928431511, 0.007649773731827736, 0.008105064742267132, -0.04628659784793854, 3.132590791210532e-07, -0.01291976124048233, -0.03231728821992874, -0.03676130250096321, -0.05698328837752342, -0.021175529807806015, -0.013433174230158329, 0.07186290621757507, -0.011633282527327538, 0.06562544405460358, 0.005745637696236372, 0.1370050609111786, 0.10514691472053528, 0.17388251423835754, 0.12021025270223618, 0.20538988709449768, 0.08622690290212631, 0.0062805782072246075, 0.019717125222086906, 0.08530426025390625, 0.009422874078154564, 0.04771941900253296, -0.031764693558216095, -0.06096186116337776, -0.11905726045370102, -0.0752769261598587, -0.15528054535388947, -0.037678755819797516, -0.017048191279172897, -0.027975983917713165, -0.003879481926560402, 0.004136937204748392, 0.037586621940135956, 0.006663587875664234, -0.07727289199829102, -0.07484602928161621, 0.03082527592778206, -0.019430451095104218, 0.0061676762998104095, -0.013412976637482643, 0.0634143203496933, -0.07648663222789764, -0.013827015645802021, -0.10249566286802292, -0.050158657133579254, -0.04061980918049812, -0.028323225677013397, 0.010752301663160324, -0.035676028579473495, 0.03319535776972771, 0.028872907161712646, -0.02891586534678936, -0.21371746063232422, -0.08484969288110733, -0.02906651236116886, -0.01498513575643301, -0.05787985026836395, -0.02708319202065468, -0.20937639474868774, 0.00601367000490427, 0.029116926714777946, 0.030939476564526558, 0.04592147469520569, 0.008060721680521965, 0.2228691577911377, -0.08068592101335526, -0.1281512826681137, -0.1377396285533905, -0.0993286594748497, -0.11576934903860092, -0.1030154824256897, -0.01481755543500185, 0.011357534676790237, -0.07540808618068695, -0.0067684766836464405, -0.06110744550824165, 0.15009531378746033, 0.004681236110627651, 0.03780250623822212, 0.0481761209666729, 0.023887192830443382, 0.017550943419337273, 0.10378526896238327, -0.1389223039150238, -0.08078982681035995, -0.030185559764504433, -0.08476144820451736, -0.12874114513397217, -0.15176893770694733, -0.020278196781873703, 0.016079947352409363, -0.004036272875964642, -0.04575688764452934, -0.013664426282048225, -0.04903123900294304, 0.03168410062789917, 0.00965847261250019, 0.06273703277111053, 0.01119306217879057, 0.09527523815631866, 0.1289038509130478, 0.013444878160953522, 0.005785770248621702, 0.001328456331975758, 0.010441861115396023, 0.007012126501649618, 0.1324184089899063, -0.024857867509126663, -0.00899422075599432, 0.00741214444860816, -0.046832431107759476, -0.0331457257270813, 0.00020055283675901592, 0.06478724628686905, 0.044897813349962234, 0.06735614687204361, 0.049848269671201706, 0.027095573022961617, 0.01849995367228985, 0.02231038548052311, 0.049031876027584076, 0.01672445982694626, 0.014568444341421127, -0.00020221220620442182, -0.024635110050439835, 0.013350424356758595, 0.028666865080595016, 0.007017284631729126, -0.009434696286916733, -0.021758297458291054, 0.011510448530316353, 0.04664013162255287, 0.050186317414045334, 0.01686086319386959, 0.026431694626808167, 0.00922772753983736, 0.08291111141443253, 0.03768078610301018, 0.022290661931037903, 0.03765833005309105, 0.0490388385951519, 0.02243920974433422, -0.0005023687845095992, -0.017140613868832588, 0.0047339992597699165, 0.017164571210741997, 0.000769822159782052, -0.014453757554292679, -0.10754247009754181, -0.05718870088458061, -0.021305255591869354, -0.04113113135099411, -0.04617680236697197, -0.06605378538370132, -0.0847969502210617, -0.04967370629310608, -0.08135253190994263, -0.032819826155900955, -0.03817494586110115, -0.06493011116981506, 0.09038250148296356, -0.1076396107673645, -0.12415594607591629, -0.1912592202425003, -0.10397104918956757, -0.14783994853496552, -0.10825745016336441, 0.05876148119568825, 0.07857059687376022, -0.09594972431659698, 0.05823705717921257, -0.03924999013543129, -0.03149306774139404, 0.015161084942519665, 0.08774317800998688, 0.054181668907403946, 0.01988394372165203, 0.04403203725814819, 0.20500563085079193, -0.18783780932426453, -0.15833207964897156, -0.01780611462891102, -0.14996133744716644, -0.18818345665931702, 0.09267321228981018, 0.04960593581199646, -0.00931960716843605, -0.008966918103396893, -0.0557868555188179, -0.0007489881827495992, -0.08092406392097473, 0.02330372855067253, 0.022365204989910126, 0.06764689087867737, 0.005724803078919649, 0.1158260852098465, -0.12450180947780609, -0.06298232823610306, -0.00912983063608408, 0.11151155829429626, -0.03143959492444992, -0.006062333472073078, 0.32339751720428467, -0.07489293068647385, 0.04590585455298424, -0.12282034754753113, -0.002259334549307823, 0.7720343470573425, -0.0020491627510637045, -0.7713754773139954, 0.9943250417709351, -0.10647470504045486, -0.8950169682502747, 0.04325305297970772, 0.009231445379555225, -0.23053136467933655, -0.08530116826295853, 0.0873020589351654, 0.08626632392406464, 0.013913268223404884, 0.2554381787776947, 0.0037531040143221617, 0.0024350641760975122, 0.09948334842920303, 0.04149937629699707, -0.18892623484134674, -0.10192073881626129, 0.04150296375155449, 0.12204178422689438, 0.022203639149665833, 0.013770520687103271, -0.1148267462849617, -0.051115699112415314, 0.0448688268661499, -0.11666446179151535, 0.055259425193071365, 0.27090972661972046, -0.07491506636142731, 0.01529554184526205, -0.01072213239967823, 0.0037763905711472034, -0.15018530189990997, 0.2742319405078888, -0.14623746275901794, -0.013158407062292099, -0.04149578511714935, 0.015000724233686924, -0.037676140666007996, -0.06264621019363403, -0.05972456932067871, -0.11537589132785797, -0.0299244225025177, 0.16730430722236633, 0.07061567902565002, 0.01852237433195114, 0.0896206721663475, 0.05513126403093338, 0.2508758306503296, 0.2747634947299957, 0.16446329653263092, -0.31436869502067566, 0.05745172128081322, 0.0037413383834064007, -0.053765419870615005, -0.013010852970182896, -0.008125566877424717, 0.3056893050670624, 0.1028352677822113, -0.018459850922226906, -0.1321459412574768, 0.0037188027054071426, -0.007403227966278791, -0.12443738430738449, -0.3011137545108795, 0.5326524972915649, -0.11231152713298798, -0.24355751276016235, -0.290746808052063, 0.06352406740188599, -0.4224725663661957, -0.3714367747306824, -0.09325128048658371, 0.10661584138870239, -0.11488538980484009, 0.19156970083713531, 0.019471662119030952, 0.04544924944639206, -0.008987771347165108, 0.0132586769759655, 0.025372527539730072, -0.026198657229542732, -0.004863756243139505, -0.023920724168419838, -0.0037714920472353697, -0.01379883661866188, -0.041877757757902145, -0.03635801747441292, 0.0748748704791069, 0.10185377299785614, 0.12247100472450256, 0.114178866147995, 0.12744268774986267, 0.149089053273201, 0.12173381447792053, 0.07175572216510773, 0.11999610811471939, 0.06953060626983643, 0.10573196411132812, 0.11935486644506454, -0.014178374782204628, -0.028961526229977608, -0.006991602946072817, 0.02432306483387947, 0.029315276071429253, -0.1559147834777832, -0.014249985106289387, 0.008020545355975628, 0.029796751216053963, 0.004583791829645634, 0.04212949424982071, 0.23303602635860443, 0.024429021403193474, 0.03324839845299721, 0.020680656656622887, 0.04483061283826828, -0.002976387972012162, 0.09511540830135345, -0.06499785929918289, -0.07261191308498383, -0.05184204876422882, -0.053967539221048355, -0.07358263432979584, 0.19607536494731903, -0.07683739066123962, 0.03529847785830498, -0.013015500269830227, -0.001661968301050365, 0.006197383627295494, 0.2302481085062027, -0.02969217300415039, -0.009818105958402157, 0.0007574382470920682, -0.05597679689526558, 0.0050047882832586765, 0.036647114902734756, 0.15268604457378387, 0.11337513476610184, 0.16908670961856842, 0.044017769396305084, 0.13962996006011963, 0.3237226605415344, 0.020964935421943665, 0.0934811383485794, 0.0398232601583004, 0.05195778235793114, 0.09623099863529205, 