{"version": "0.7.0", "metadata": {"date": {"year": 2026, "month": 6, "day": 30, "hour": 3, "minute": 10, "second": 26}, "loudness": -13.40382158540188, "gain": 0.4885021889967406, "training": {"settings": {"ignore_checks": false}, "data": {"latency": {"manual": null, "calibration": {"algorithm_version": 1, "delays": [-18], "safety_factor": 1, "recommended": -19, "warnings": {"matches_lookahead": false, "disagreement_too_high": false, "not_detected": false}}}, "checks": {"version": 3, "passed": true}}, "validation_esr": null}}, "architecture": "SlimmableContainer", "config": {"submodels": [{"max_value": 0.5, "model": {"version": "0.7.0", "metadata": {"date": {"year": 2026, "month": 6, "day": 30, "hour": 3, "minute": 10, "second": 26}, "loudness": -13.691990492567408, "gain": 0.48273715082019075}, "architecture": "WaveNet", "config": {"layers": [{"input_size": 1, "condition_size": 1, "head": {"out_channels": 1, "kernel_size": 16, "bias": true}, "channels": 3, "kernel_sizes": [6, 6, 6, 6, 6, 6, 6, 6, 6, 6, 6, 6, 6, 6, 15, 15, 6, 6, 6, 6, 6, 6, 6], "dilations": [1, 3, 7, 17, 41, 101, 239, 1, 3, 7, 17, 41, 101, 239, 1, 13, 1, 3, 7, 17, 41, 101, 239], "activation": [{"type": "LeakyReLU", "negative_slope": 0.01}, {"type": "LeakyReLU", "negative_slope": 0.01}, {"type": "LeakyReLU", "negative_slope": 0.01}, {"type": "LeakyReLU", "negative_slope": 0.01}, {"type": "LeakyReLU", "negative_slope": 0.01}, {"type": "LeakyReLU", "negative_slope": 0.01}, {"type": "LeakyReLU", "negative_slope": 0.01}, {"type": "LeakyReLU", "negative_slope": 0.01}, {"type": "LeakyReLU", "negative_slope": 0.01}, {"type": "LeakyReLU", "negative_slope": 0.01}, {"type": "LeakyReLU", "negative_slope": 0.01}, {"type": "LeakyReLU", "negative_slope": 0.01}, {"type": "LeakyReLU", "negative_slope": 0.01}, {"type": "LeakyReLU", "negative_slope": 0.01}, {"type": "LeakyReLU", "negative_slope": 0.01}, {"type": "LeakyReLU", "negative_slope": 0.01}, {"type": "LeakyReLU", "negative_slope": 0.01}, {"type": "LeakyReLU", "negative_slope": 0.01}, {"type": "LeakyReLU", "negative_slope": 0.01}, {"type": "LeakyReLU", "negative_slope": 0.01}, {"type": "LeakyReLU", "negative_slope": 0.01}, {"type": "LeakyReLU", "negative_slope": 0.01}, {"type": "LeakyReLU", "negative_slope": 0.01}], "bottleneck": 3, "head1x1": {"active": false, "out_channels": 1, "groups": 1}, "layer1x1": {"active": true, "groups": 1}, "groups_input": 1, "groups_input_mixin": 1, "conv_pre_film": {"active": false, "shift": true, "groups": 1}, "conv_post_film": {"active": false, "shift": true, "groups": 1}, "input_mixin_pre_film": {"active": false, "shift": true, "groups": 1}, "input_mixin_post_film": {"active": false, "shift": true, "groups": 1}, "activation_pre_film": {"active": false, "shift": true, "groups": 1}, "activation_post_film": {"active": false, "shift": true, "groups": 1}, "layer1x1_post_film": {"active": false, "shift": true, "groups": 1}, "head1x1_post_film": {"active": false, "shift": true, "groups": 1}, "gating_mode": ["none", "none", "none", "none", "none", "none", "none", "none", "none", "none", "none", "none", "none", "none", "none", "none", "none", "none", "none", "none", "none", "none", "none"], "secondary_activation": [null, null, null, null, null, null, null, null, null, null, null, null, null, null, null, null, null, null, null, null, null, null, null], "slimmable": null}], "head": null, "head_scale": 0.006633047873169357}, "weights": [0.5994517803192139, -0.9585805535316467, -1.1940395832061768, -0.12099378556013107, 0.49259066581726074, 0.40766799449920654, 0.7758582234382629, 1.0749322175979614, -0.29904282093048096, -0.21480616927146912, -0.23032377660274506, 0.31393495202064514, -0.43254557251930237, -0.22771193087100983, 0.9562063813209534, -0.26939985156059265, -0.07181248068809509, 0.22787229716777802, -0.1421942114830017, -0.32619598507881165, 1.109331727027893, 0.35087788105010986, 0.15264864265918732, -0.13990312814712524, -0.6323805451393127, -0.45202723145484924, 0.23178468644618988, 0.08350367844104767, 0.17893928289413452, -0.05515668913722038, 0.19509021937847137, 0.09783720970153809, -0.3849618434906006, 0.1119149848818779, 0.3043535649776459, 0.1115872710943222, 0.48740676045417786, 0.39784374833106995, -0.47700655460357666, 0.018458819016814232, -0.004242041613906622, -0.2949596345424652, -0.2601200044155121, -0.9446894526481628, 0.25793424248695374, -0.1521226167678833, -0.10999804735183716, -0.03561268001794815, -0.07527483254671097, 0.8362328410148621, -0.42636072635650635, -0.18279869854450226, -0.23415690660476685, 0.10160825401544571, -0.1568596214056015, 0.7550718188285828, -0.5678619742393494, 0.46001920104026794, 0.2921869456768036, -0.2772883474826813, -0.6257256865501404, 1.0687981843948364, 0.6294501423835754, -1.2268614768981934, 0.8977577090263367, 1.578798770904541, 0.5554125308990479, -0.30458688735961914, -0.19415035843849182, -0.22651241719722748, -0.106435127556324, -0.6948074698448181, 0.2839251756668091, -0.5463494658470154, -0.07227969914674759, -0.027791740372776985, -0.059622325003147125, 0.062403783202171326, -0.20718370378017426, 0.06713027507066727, -0.6183123588562012, -0.10011591762304306, -0.19755370914936066, -0.12548841536045074, -0.2277590036392212, -0.2690145671367645, 0.24628961086273193, 0.10348149389028549, 0.012430014088749886, -0.2607656717300415, -0.18268074095249176, -0.07050736993551254, 0.3040781617164612, 0.18680550158023834, 0.07961047440767288, 0.17516280710697174, -0.19217656552791595, 0.16180320084095, 0.40676581859588623, 0.0920877531170845, 0.14720840752124786, 0.00960102304816246, 0.23517225682735443, -0.061685387045145035, -0.07431886345148087, -0.07680957764387131, 0.25501877069473267, 0.1815011203289032, 0.2755002975463867, -0.2925545275211334, -0.34840092062950134, -0.003962290473282337, 0.2536294162273407, 0.036160122603178024, 0.6481536626815796, 0.2519305944442749, 0.5605428218841553, -0.059088800102472305, 0.2513853907585144, -0.09818600118160248, 0.13266251981258392, -0.09449569880962372, -0.16073043644428253, -0.026774263009428978, -0.02490159124135971, -0.14095821976661682, -0.3516220152378082, 0.06500864773988724, 0.02389756590127945, 0.3549479842185974, 0.23032265901565552, 0.10902346670627594, -0.7356925010681152, 0.3755420744419098, 0.8063127994537354, -0.7741360664367676, 0.2698940932750702, 0.004815502092242241, 0.09271974116563797, 0.21800418198108673, -0.13990239799022675, -0.3937442898750305, -0.46605783700942993, -0.30236339569091797, 0.5005329251289368, -0.3179291784763336, 0.28022658824920654, 0.002081457758322358, -0.024296553805470467, 0.0036518252454698086, -0.05840080976486206, 0.031129999086260796, -0.19624833762645721, -0.009734105318784714, -0.11460269242525101, -0.011120093986392021, -0.23619800806045532, -0.22109192609786987, 0.27446702122688293, 0.024382779374718666, 0.018346110358834267, 0.030168794095516205, 0.02253526635468006, -0.25766196846961975, 0.16236388683319092, 0.045295458287000656, -0.013129075057804585, 0.005157532170414925, -0.06084040552377701, -0.12448801100254059, -0.09689188748598099, 0.027020364999771118, 0.07104374468326569, 0.023585965856909752, -0.16685494780540466, -0.44407767057418823, -0.3706461191177368, 0.2761552929878235, 0.2984956204891205, 0.2882644236087799, 0.18247582018375397, 0.14357724785804749, -0.13375835120677948, 0.0583551824092865, 0.00042252405546605587, -0.03596488758921623, 0.03784111514687538, -0.10469549149274826, -0.03636680170893669, 0.17641513049602509, 0.07133951783180237, -0.1361680030822754, 0.06507790833711624, -0.14844734966754913, 0.008590931072831154, 0.13362234830856323, 0.0334991030395031, 0.1508886069059372, -0.0754966288805008, -0.2248149812221527, 0.5950380563735962, 0.28102630376815796, 0.2734197974205017, 0.029997799545526505, -1.2874988317489624, -0.0926746129989624, -0.529639720916748, -0.41012653708457947, -0.11697254329919815, -0.24760407209396362, 0.19446530938148499, 0.4320581257343292, 0.02063216082751751, -0.4239385724067688, 0.21540220081806183, 0.3365265429019928, 0.34189295768737793, -0.012186667881906033, 0.4373622536659241, -0.030360175296664238, -8.801020157989115e-05, 0.013516872189939022, -0.050599489361047745, -0.15002299845218658, 0.08779378980398178, -0.11957069486379623, -0.16204090416431427, 0.11317881941795349, -0.15390683710575104, -0.10081744194030762, 0.15905864536762238, -0.11276095360517502, -0.2536178529262543, -0.46247270703315735, -0.2690531015396118, -0.3358946740627289, 0.10754462331533432, -0.01692424714565277, 0.0014003001851961017, -0.013656767085194588, 0.03273683041334152, 0.07313645631074905, 0.3433304727077484, -0.05022338777780533, -0.005981686990708113, -0.01744886301457882, 0.09285029768943787, 0.20227178931236267, 0.10979282855987549, -0.01828801818192005, -0.014684624969959259, -0.02384852059185505, -0.08734298497438431, -0.08630072325468063, 0.7630312442779541, 0.01049561332911253, -0.04608144238591194, -0.025867365300655365, 0.07563995569944382, 0.4234333336353302, 0.15118160843849182, 0.03946612402796745, -0.08588650822639465, -0.05767543613910675, -0.033785294741392136, -0.1010756567120552, 0.13839122653007507, 0.010062381625175476, -0.016642453148961067, 0.06785372644662857, -0.25668978691101074, 0.08066368103027344, 0.38619422912597656, -0.025426330044865608, -0.28550538420677185, -0.1200622096657753, -0.40863993763923645, -0.15426144003868103, -0.361557275056839, -0.05945855751633644, 0.31047552824020386, -0.10872246325016022, -0.2673508822917938, -0.20360276103019714, -0.3938440978527069, -0.27777841687202454, -0.21161121129989624, -0.3757525086402893, -0.11218007653951645, -0.3162629306316376, 0.49252668023109436, 0.037210140377283096, 0.02841804176568985, 0.004423289094120264, 0.020014042034745216, -0.06550995260477066, -0.12888357043266296, 0.10380177199840546, 0.10945409536361694, 0.014932389371097088, 0.08384136855602264, 0.05817953869700432, -0.1421598494052887, -0.3394002914428711, -0.3055281341075897, -0.28687989711761475, -0.25963401794433594, -0.3157348334789276, -0.03723565489053726, -0.06475485861301422, -0.0491904653608799, -0.030264966189861298, -0.0612027645111084, -0.008475564420223236, -0.9198974370956421, -0.1459318995475769, -0.1302722841501236, -0.07697518169879913, -0.15460287034511566, -0.2034626454114914, 0.15725034475326538, 0.0730442926287651, -0.011356217786669731, -0.03777909651398659, -0.05982619524002075, -0.18660393357276917, 0.450001984834671, -0.0763176754117012, -0.053545963019132614, -0.04092701897025108, -0.04485193267464638, 0.043874531984329224, -0.2907503545284271, -0.1332847774028778, -0.007616046816110611, 0.03800080716609955, 0.03798407316207886, 0.0242401584982872, -0.15447567403316498, 0.11043291538953781, 0.2616059184074402, 0.2831569015979767, 0.26915913820266724, -0.0909518375992775, -0.2779681384563446, -0.08729514479637146, -0.02741672284901142, 0.31165388226509094, -0.3331403434276581, -0.2156171202659607, -0.4574773907661438, 0.27697938680648804, -0.04998660832643509, 0.16553910076618195, 0.12960979342460632, -0.19437004625797272, 0.3968368470668793, -0.35130345821380615, -0.7404071688652039, 0.10418317466974258, -0.06803041696548462, -0.0630866289138794, 0.2904528081417084, 0.11107373237609863, 0.11053290963172913, 0.006517788395285606, 0.06925627589225769, 0.15767879784107208, -0.06587190926074982, 0.033541034907102585, 0.0549251064658165, -0.0419795885682106, -0.009760180488228798, 0.045359283685684204, -0.1105680987238884, -0.205177903175354, -0.16891369223594666, -0.02616770751774311, -0.0972704365849495, -0.19760631024837494, 0.46317705512046814, 0.04600909724831581, 0.07103834301233292, 0.050739746540784836, 0.01525713037699461, 0.06389389932155609, 0.03316890075802803, 0.02642008662223816, -0.012618662789463997, -0.02298302948474884, -0.15067104995250702, -0.050772350281476974, 0.10071740299463272, -0.1378401517868042, -0.15885969996452332, -0.11302004754543304, -0.12450212985277176, -0.09596066176891327, 0.017128052189946175, -0.06359776109457016, -0.13778693974018097, -0.050994884222745895, -0.0529363788664341, -0.04484796151518822, 0.26754891872406006, -0.011182594113051891, -0.08438797295093536, 0.06085456535220146, 0.1348896473646164, 0.1517517864704132, -0.18996094167232513, 0.12878845632076263, 0.176535502076149, 0.10551732033491135, 0.1361371874809265, 0.1091359555721283, -0.18993638455867767, -0.04806159436702728, 0.39562687277793884, 0.342003732919693, 0.1729394793510437, 0.2945351004600525, -0.08351318538188934, 0.16728107631206512, 0.06676533073186874, 0.32067975401878357, 0.24611471593379974, -0.22507639229297638, 0.6553773880004883, -0.07555367052555084, -0.03241736441850662, 0.4297330379486084, -0.3367447257041931, -0.06255340576171875, -0.4301707148551941, 0.01600378379225731, 0.016616053879261017, 0.0396835096180439, 0.0022811752278357744, 0.04889901727437973, 0.1721682995557785, -0.00849513802677393, 0.013789334334433079, 0.03658343479037285, 0.024233194068074226, 0.09060198068618774, -0.39382827281951904, -0.03736709803342819, -0.029130177572369576, -0.0753190815448761, 0.012925848364830017, -0.031738054007291794, 0.7676600217819214, 0.04536612704396248, 0.005827248562127352, -0.020595625042915344, 0.005434270948171616, -0.04126865044236183, -0.47721949219703674, 0.17789658904075623, 0.1475505381822586, 0.12913770973682404, 0.10061906278133392, 0.04141787067055702, 0.0863608717918396, 0.0009989471873268485, 0.0643497034907341, 0.08971696346998215, 0.05441148579120636, 0.08222829550504684, -0.4719226062297821, -0.012794301845133305, -0.014883681200444698, -0.0335543192923069, 0.010129181668162346, -0.03774869069457054, 0.46352261304855347, 0.017242394387722015, 0.008052841760218143, -0.0005172740784473717, 0.014702146872878075, -0.019087642431259155, -0.154466450214386, 0.047085825353860855, 0.03291565924882889, 0.07865035533905029, -0.014853259548544884, 0.03984414413571358, 0.33785170316696167, 0.02982696145772934, -0.05127720534801483, 0.27659767866134644, 0.25340649485588074, -0.8201544880867004, 0.005493983626365662, 0.2900814116001129, 0.33353540301322937, 0.4482119679450989, -0.10182587057352066, 0.4025936424732208, 0.1505667269229889, -0.2508792579174042, 0.21657276153564453, 0.26615938544273376, 0.2101791948080063, -0.4000372588634491, 0.12152757495641708, 0.0072613731026649475, -0.05517984926700592, 0.23053114116191864, -0.17352259159088135, -0.16545598208904266, -0.47136545181274414, -0.05645398050546646, -0.09000752866268158, -0.023209115490317345, -0.24679531157016754, -0.21988974511623383, -0.02731100656092167, 0.05861710011959076, -0.15444594621658325, -0.07973574101924896, 0.23944862186908722, 0.6081152558326721, 0.14046762883663177, -0.32968029379844666, 0.08940410614013672, -0.07851892709732056, -0.25676068663597107, -0.08708862215280533, 0.5525690913200378, -0.013539889827370644, -0.13506460189819336, -0.08412224054336548, 0.053297970443964005, 0.018715037032961845, -0.27475452423095703, 0.02098037861287594, -0.029685743153095245, -0.06110009923577309, -0.1555456817150116, 0.6100414395332336, 0.2954745292663574, -0.2790871560573578, -0.1563340127468109, 0.26226845383644104, -0.06090807169675827, 0.7603750228881836, -0.39762523770332336, -0.19803524017333984, 0.18135780096054077, -0.008296284824609756, -0.050055909901857376, -0.020792730152606964, 0.004435328301042318, 0.09624405205249786, -0.01041960809379816, 0.38072553277015686, 0.16823063790798187, 0.08178045600652695, -0.3178691864013672, 0.27131032943725586, -0.23357124626636505, -0.16729533672332764, -0.5787597894668579, -0.4014408588409424, -0.09014685451984406, -0.6198263168334961, 0.45410916209220886, -0.15928998589515686, 0.6218376755714417, -0.5084434151649475, 0.018474316224455833, 0.039163436740636826, -0.7434230446815491, -0.6880640983581543, -0.17142844200134277, -0.4067971110343933, 0.40537261962890625, -0.05238569900393486, -0.016154171898961067, -0.018153313547372818, 0.07169129699468613, -0.2174728959798813, -0.5463384985923767, -0.13943767547607422, 0.05661642551422119, 0.09680196642875671, -0.2238750010728836, 0.33877670764923096, 0.1909562647342682, 0.1785682886838913, -0.09176567196846008, -0.20077626407146454, 0.26735883951187134, -0.2904098331928253, -0.3172163665294647, -0.028031060472130775, 0.0006922383327037096, -0.029912522062659264, -0.05196339264512062, -0.0050587099976837635, -0.3691388964653015, -0.13371112942695618, -0.11665120720863342, -0.25366613268852234, -0.3116241693496704, -0.28407523036003113, 0.039040423929691315, -0.0806102529168129, 0.012515328824520111, -0.12443139404058456, 0.24493573606014252, -0.13513122498989105, 0.5596656799316406, 0.03017318993806839, 0.09249304234981537, 0.11911926418542862, 0.038198962807655334, 0.17770938575267792, -0.6053014397621155, 0.013326823711395264, 0.015243850648403168, 0.06303713470697403, -0.019643660634756088, 0.10767996311187744, -0.1748073399066925, -0.1438835859298706, -0.05902303755283356, -0.18842947483062744, -0.13192157447338104, -0.37405940890312195, 0.4839957356452942, 0.13071845471858978, -0.029984109103679657, -0.05943631753325462, 0.2140682339668274, -0.14195042848587036, -0.3349926471710205, 0.051691677421331406, -0.4417113959789276, 0.4549809992313385, -0.12792421877384186, -0.1041063517332077, 0.07412324845790863, 0.14542974531650543, -0.4085215628147125, -0.5919284820556641, -0.015154914930462837, -0.03967319428920746, 0.31375652551651, -0.0160294808447361, 0.0011324724182486534, -0.05440182611346245, -0.0966922864317894, -0.22629410028457642, 0.46508973836898804, -0.01518518477678299, 0.07564032822847366, -0.01826227270066738, -0.014190006069839, 0.08358060568571091, -0.4760577082633972, 0.11057260632514954, 0.1658504605293274, 0.21154950559139252, 0.15276867151260376, 0.2288438230752945, 0.5388511419296265, -0.05915670469403267, -0.04931437224149704, 0.010795710608363152, -0.034719791263341904, -0.10164707154035568, -0.42382943630218506, 0.0006214301683939993, 0.10349740087985992, 0.2174827605485916, 0.18858762085437775, 0.10022957623004913, 0.1661083996295929, -0.06436082720756531, -0.056060925126075745, 0.02970314212143421, 0.21373341977596283, 0.4192752540111542, -0.3373284935951233, -0.08577313274145126, -0.13552676141262054, -0.05187298730015755, 0.020012978464365005, -0.14073903858661652, -0.03662978112697601, -0.2810758352279663, -0.24356581270694733, -0.19305644929409027, -0.11844362318515778, -0.14263445138931274, -0.13014546036720276, -0.08034181594848633, -0.05299628898501396, -0.13607800006866455, -0.20929491519927979, -0.4787405729293823, -0.5062397718429565, 0.5075343251228333, 0.0668758898973465, 0.48173603415489197, 0.15742044150829315, -0.9729702472686768, 0.0933692529797554, 0.7604992985725403, 0.0482579804956913, -0.0221845842897892, -0.36010950803756714, 0.04707331955432892, -0.5402187705039978, 0.34419071674346924, 0.9137094616889954, 0.17117643356323242, -0.0048765214160084724, -0.17345786094665527, 0.5208196043968201, -0.054197654128074646, -0.04902741685509682, -0.06301429867744446, -0.12476544827222824, -0.08669566363096237, -0.8536659479141235, -0.09959059208631516, -0.10668262094259262, -0.1331564337015152, -0.19813580811023712, -0.20142582058906555, 0.024483567103743553, 0.03331116586923599, 0.006306439638137817, -0.014484935440123081, 0.03938886895775795, 0.019208570942282677, 0.3074195086956024, 0.06478182226419449, 0.0395672544836998, 0.07573644816875458, 0.14445407688617706, 0.3379846513271332, -0.25066936016082764, 0.14333926141262054, 0.08493278175592422, 0.10140162706375122, 0.04811132326722145, 0.06705471873283386, -0.283671498298645, -0.032636042684316635, -0.025690311565995216, -0.19481498003005981, -0.07124738395214081, 0.05370659753680229, -0.08649983257055283, -0.03362790122628212, 0.033274438232183456, 0.0680304542183876, -0.011223644018173218, 0.0599176324903965, 0.4479997158050537, -0.06572791188955307, 0.14783421158790588, 0.21285241842269897, 0.005261359270662069, 0.08701127767562866, -0.2988908886909485, 0.016934378072619438, 0.06838725507259369, -0.08167218416929245, 0.03309667482972145, 0.10114499181509018, 0.14011435210704803, 0.466376930475235, 0.12885312736034393, -0.11744970083236694, -0.553095817565918, -0.31902939081192017, -0.3096601665019989, -0.5831756591796875, 0.1274692267179489, 0.5679550170898438, 0.6454963684082031, 0.374180406332016, 0.41754475235939026, 0.2570710778236389, -0.21432209014892578, -0.005828868597745895, 0.37818315625190735, 0.4185618460178375, -0.383368581533432, 0.02426871284842491, 0.10171596705913544, 0.0958864688873291, 0.02710740640759468, 0.041415274143218994, -0.11401906609535217, 0.06780339777469635, 0.2440004199743271, 0.2259407639503479, 0.05588576942682266, 0.04070316627621651, -0.31714409589767456, -0.07680793106555939, -0.016251998022198677, 0.054648324847221375, 0.16581080853939056, 0.09437720477581024, -0.06579656898975372, -0.030530259013175964, -0.07372701913118362, -0.08337961137294769, 0.01706523634493351, 0.0953652560710907, 0.08599851280450821, -0.09525980055332184, -0.1503763049840927, -0.19057980179786682, 0.11071247607469559, 0.40539929270744324, 0.2946509122848511, 0.10615891963243484, 0.08510782569646835, -0.08766743540763855, 0.06993487477302551, 0.4071149528026581, 0.22339588403701782, 0.04845714941620827, -0.021530168130993843, 0.009538901969790459, 0.03816751018166542, 0.07222472131252289, -0.005346127785742283, 0.1159859299659729, -0.0349406823515892, 0.03788056597113609, 0.0974297821521759, -0.2538261115550995, 0.1042134091258049, -0.01891406439244747, -0.03425697237253189, -0.021815253421664238, -0.05475351959466934, -0.09887652099132538, 0.16661714017391205, -0.01831732504069805, -0.10142017155885696, -0.2541649341583252, 0.6673294901847839, -0.2376777082681656, -0.18490615487098694, 0.01667719893157482, 0.25200629234313965, 0.2533177137374878, -0.35633227229118347, 0.3279332220554352, 0.6452953219413757, 0.18897414207458496, 0.5143135786056519, -0.052179764956235886, -0.22816915810108185, 0.24473977088928223, -0.1341465413570404, 0.020870286971330643, -0.007147365249693394, -0.003129747463390231, 0.012402142398059368, -0.0039281463250517845, -0.7178546786308289, 0.0619339719414711, 0.0025378961581736803, 0.014998038299381733, 0.043076492846012115, 0.013214189559221268, 0.19352252781391144, 0.12770307064056396, 0.1684640794992447, 0.09628277271986008, 0.009695369750261307, 0.04918496683239937, 0.29847726225852966, 0.032796334475278854, 0.047147464007139206, 0.04376567155122757, 0.055791571736335754, -0.04544828459620476, 0.4102669656276703, 0.04578593745827675, 0.07955655455589294, 0.07624118775129318, 0.08204856514930725, -0.09973463416099548, 0.11115146428346634, 0.10427593439817429, 0.13070526719093323, 0.10706386715173721, 0.02942510135471821, 0.052569322288036346, 0.3206667900085449, -0.04923132061958313, -0.07751338928937912, -0.054413698613643646, -0.01497135404497385, 0.12249532341957092, -0.20042358338832855, -0.11628606170415878, -0.15895222127437592, -0.1169995591044426, -0.00513113010674715, 0.28661397099494934, -0.6530540585517883, 0.06308917701244354, 0.052745211869478226, -0.030893223360180855, 0.023673072457313538, 0.10214567929506302, 0.18382760882377625, 0.20738685131072998, 0.38004863262176514, 0.23710373044013977, 0.3658611476421356, 0.29409900307655334, -0.24743153154850006, -0.36369502544403076, 0.14806164801120758, 0.2686457633972168, 0.22333191335201263, -0.7265597581863403, -0.047015510499477386, -0.19000954926013947, -0.3055816888809204, -0.16406840085983276, -0.021478278562426567, -0.49775686860084534, 0.4247666597366333, 0.12847772240638733, 0.14624501764774323, 0.1750389039516449, 0.1717061698436737, 0.1981785148382187, -0.40290573239326477, 0.18943339586257935, 0.2182445079088211, 0.2665017545223236, 0.2740713357925415, 0.3085489273071289, 0.6989582180976868, -0.03776950389146805, -0.045171014964580536, -0.07419535517692566, -0.09722734987735748, -0.021039972081780434, -0.2508809268474579, 0.010020287707448006, -0.008819729089736938, 0.029828300699591637, 0.04643244668841362, 0.07164400815963745, 0.13646206259727478, 0.028195999562740326, -0.003329972270876169, 0.05383266881108284, 0.07299294322729111, 0.10966477543115616, -0.16494131088256836, -0.028567805886268616, 0.025283077731728554, 0.014742630533874035, 0.02366764470934868, 0.016601812094449997, 0.08284024894237518, -0.10149651765823364, -0.04814263433218002, -0.12550455331802368, -0.17128294706344604, -0.039954669773578644, -0.07969770580530167, -0.16682790219783783, -0.04852917417883873, -0.16195543110370636, -0.26967117190361023, -0.055543553084135056, 0.015145480632781982, 0.23182594776153564, -0.09413817524909973, 0.03635834902524948, 0.0823601484298706, -0.015862373635172844, -0.19287173449993134, -0.03239427134394646, 0.0917750895023346, -0.1644180864095688, 0.3475054204463959, 0.3512517213821411, 0.4464644193649292, -0.7349164485931396, 0.08776237070560455, 0.10278790444135666, 0.5101983547210693, -0.40713632106781006, 0.15157264471054077, -1.0414600372314453, -0.09101827442646027, 0.16931116580963135, -0.10088037699460983, -0.4242444336414337, -0.37082839012145996, 0.10018603503704071, -0.02109990455210209, 0.02707909792661667, 0.05401954427361488, -0.030686000362038612, 0.050840362906455994, -0.031885650008916855, -0.013338307850062847, 0.0022823764011263847, 0.08018157631158829, -0.27375057339668274, 0.4016779065132141, -0.5433032512664795, 0.16544553637504578, -0.007253688760101795, 0.15402956306934357, -0.11295177787542343, 0.19629095494747162, -0.16481012105941772, 0.17420241236686707, -0.10297597199678421, 0.09672380238771439, -0.12146264314651489, 0.023096010088920593, -0.15227311849594116, 0.27716150879859924, -0.31887754797935486, 0.2372981458902359, -0.15337017178535461, 0.09094689786434174, -0.07425281405448914, 0.10854058712720871, 0.003289281390607357, -0.05364637449383736, 0.09170398861169815, -0.0025515963789075613, 0.01720551960170269, -0.07272402197122574, 0.1366853564977646, 0.08397947996854782, 0.0003673316678032279, -0.1369856595993042, 0.4466874599456787, -0.18768535554409027, -0.3574387729167938, -0.07658594846725464, 0.03354543074965477, -0.06492213904857635, 0.02778439410030842, 0.07705405354499817, -0.014361665584146976, -0.03200807794928551, 0.027617905288934708, -0.23292699456214905, -0.06833614408969879, 0.2281966209411621, -0.3059169352054596, 0.1249542087316513, 0.13953809440135956, -0.1422640085220337, -0.07249508053064346, -0.09145534038543701, 0.0472906120121479, -0.07998368889093399, 0.30138537287712097, -0.2218172401189804, 0.09236755222082138, -0.028037583455443382, -0.2089361995458603, 0.01896059513092041, -0.16981592774391174, 0.05758993327617645, -0.07846398651599884, -0.3229636549949646, 0.07940386235713959, -0.10163808614015579, -0.11318714916706085, 0.08825273811817169, -0.10724471509456635, 0.04862963780760765, 0.1331278532743454, -0.31950893998146057, -0.02534569799900055, 0.2688576579093933, -0.228068545460701, -0.4143344461917877, 0.4800925552845001, -0.3698846995830536, -0.3926171064376831, -0.26779013872146606, -0.2821314334869385, 0.14270111918449402, -0.26894012093544006, 0.037760622799396515, -0.04382098466157913, -0.18428683280944824, 0.10628663748502731, -0.4915369153022766, 0.12725117802619934, -0.35666733980178833, -0.2919958233833313, 0.8305409550666809, 0.8181934356689453, 0.03283057361841202, -0.08200206607580185, 0.015429762192070484, -0.17694105207920074, 0.052943259477615356, -0.2205834835767746, 0.1147260069847107, -0.26672354340553284, -0.04861745238304138, 0.12992972135543823, -0.34098300337791443, 0.010101590305566788, -0.034447163343429565, -0.883368194103241, -0.8559370040893555, 0.1821553111076355, -0.0004914458259008825, 0.05376251041889191, 0.23230214416980743, -0.14177463948726654, 0.12006664276123047, 0.09015148878097534, -0.12748999893665314, 0.30192819237709045, 0.2034507542848587, 0.516866147518158, -0.36975476145744324, 0.4935322701931, 0.6660835146903992, -0.22106872498989105, 0.4995351731777191, -0.4042194187641144, -0.015640564262866974, -0.12075012922286987, 0.48748642206192017, 0.41540366411209106, 0.25456860661506653, 0.8161566853523254, 0.15961191058158875, 0.24246838688850403, -0.21891355514526367, -0.2850659489631653, -0.4407963156700134, -0.6264768242835999, 0.6305118203163147, 0.3086170256137848, 0.2937493324279785, 0.044834036380052567, -0.0947485938668251, 0.04219427332282066, -0.019995665177702904, -0.001146799186244607, 0.06100446358323097, 0.09313034266233444, -0.01831178553402424, 0.144503653049469, 0.011060690507292747, -0.12034355849027634, 0.14882750809192657, -0.1374511569738388, 0.07878612726926804, 0.0695093497633934, 0.053941093385219574, -0.011402131989598274, 0.0930405929684639, 0.009723340161144733, -0.0013470904668793082, -0.01767171360552311, -0.027421198785305023, 0.007701139431446791, -0.04705527052283287, -0.019602084532380104, -0.037458498030900955, 0.027493778616189957, -0.11826266348361969, 0.007925995625555515, 0.16232846677303314, 0.1805211901664734, 0.13410085439682007, 0.050782203674316406, -0.0022266285959631205, 0.03343108668923378, -0.0908774808049202, 0.00123394385445863, -0.014232208952307701, -0.12861721217632294, -0.025529740378260612, -0.13274818658828735, -0.15651263296604156, -0.07968422770500183, -0.10543252527713776, 0.013127886690199375, -0.03195255622267723, 0.08540789783000946, 0.0706344023346901, -0.03480520844459534, -0.08780892193317413, 0.02276482805609703, 0.018048351630568504, -0.027650387957692146, -0.011138499714434147, 0.032607804983854294, 0.007767792325466871, -0.04772527888417244, 0.0043252697214484215, -0.13587801158428192, -0.1642407476902008, -0.03653319180011749, -0.04368394985795021, -0.25981250405311584, -0.1827457696199417, -0.19100722670555115, -0.1932571679353714, -0.24933448433876038, -0.2339121401309967, -0.2201506495475769, -0.20307527482509613, -0.23564645648002625, -0.18628035485744476, -0.10364267230033875, -0.10320301353931427, -0.004663852974772453, -0.025312473997473717, 0.08377297967672348, 0.0898735299706459, -0.20972031354904175, -0.20308901369571686, 0.05635249987244606, -0.10347231477499008, -0.19762638211250305, -0.10502658784389496, -0.07615040987730026, -0.023421604186296463, -0.1259794682264328, 0.02141188271343708, -0.09107328206300735, 0.028019726276397705, 0.1337016224861145, 0.1497253179550171, 0.15718068182468414, -0.03765234723687172, -0.03249206393957138, -0.1055290624499321, -0.09951034188270569, -0.10827963054180145, -0.0907282903790474, -0.05667371675372124, -0.09648652374744415, -0.03561186417937279, -0.037940144538879395, -0.09084449708461761, -0.003087919671088457, -0.058938272297382355, -0.0657653659582138, -0.5995984077453613, 0.08962256461381912, 0.09474170207977295, 0.068009153008461, 0.07237464189529419, 0.033698949962854385, 0.11784599721431732, 0.11306977272033691, 0.07054007053375244, 0.11658307909965515, 0.0328386127948761, 0.05279514938592911, 0.013695908710360527, 0.01609296165406704, -0.12977305054664612, -0.5035520792007446, 0.18148790299892426, 0.1273593008518219, -0.007277247961610556, 0.026066264137625694, -0.09284519404172897, 0.11400976777076721, 0.15068426728248596, 0.09370211511850357, 0.15169459581375122, -0.05530663579702377, 0.0699232742190361, -0.07238789647817612, -0.028009088709950447, 0.044836439192295074, 0.32434627413749695, 0.02350442111492157, 0.14262612164020538, 0.16436780989170074, 0.026708412915468216, -0.1304483264684677, 0.371410071849823, -0.24444706737995148, -0.19075050950050354, 0.13969524204730988, 0.3480979800224304, -0.10259812325239182, 0.44831159710884094, 0.1845988929271698, -0.025025052949786186, 0.17656835913658142, -0.10073903203010559, 0.10044799745082855, 0.028942640870809555, -0.09410186856985092, 0.039257679134607315, -0.5691330432891846, -0.21518583595752716, -0.3128282427787781, 0.07732994109392166, 0.05966862291097641, -0.006098484620451927, 0.4317777752876282, 0.1050664559006691, 0.10642371326684952, -0.1811029613018036, 0.15731824934482574, 0.07296747714281082, -0.017632797360420227, 0.29864394664764404, 0.1838557869195938, 0.11689559370279312, 0.33033907413482666, -0.42278724908828735, 0.3790294826030731, -0.36052364110946655, 0.21485769748687744, -0.1236063614487648, -0.22637125849723816, 0.37057164311408997, -0.26211217045783997, 0.0656074583530426, -0.04593565687537193, 0.09732132405042648, 0.00938408263027668, -0.05618713051080704, -0.04843621701002121, 0.07941193878650665, -0.07297926396131516, 0.04880467802286148, -0.2982645332813263, 0.18226489424705505, 0.1497766077518463, 0.3766016960144043, -0.2525140941143036, -0.1774907261133194, 0.322341650724411, -0.16762036085128784, -0.06187529116868973, -0.0799105241894722, 0.08676157146692276, -0.5654392838478088, 0.007854574359953403, 0.1868579089641571, -0.024971211329102516, -0.027791703119874, 0.22297623753547668, 0.3807692229747772, 0.22198528051376343, 0.30269670486450195, 0.08276262134313583, -0.6851567029953003, -0.3715510964393616, 0.6089524030685425, -0.19848577678203583, 0.5003045201301575, -0.011361676268279552, 0.7515594363212585, -0.8438801765441895, 0.5415199398994446, -0.5540033578872681, -0.5219487547874451, 0.4436255395412445, 0.2666829526424408, 0.25297120213508606, 0.18298684060573578, -0.11270274221897125, -0.2826564311981201, -0.19930681586265564, 0.04148561507463455, 0.03230537474155426, -0.05470794811844826, -0.005374956876039505, -0.21516498923301697, -0.004522284027189016, -0.25125300884246826, -0.1899416148662567, 0.632359504699707, -0.03835875913500786, 0.031877074390649796, -0.03870328515768051, 0.09028990566730499, -0.008141041733324528, 0.021925166249275208, -0.17253120243549347, -0.010149224661290646, 0.17148849368095398, -0.003843230428174138, 0.010589857585728168, -0.009536931291222572, -0.088402658700943, -0.09390676766633987, -0.21164017915725708, -0.25012969970703125, 0.34746846556663513, 0.16638800501823425, -0.1376955211162567, -0.02235528826713562, 0.06195119768381119, -0.16439738869667053, 0.10908158123493195, 0.1382969170808792, 0.05858839303255081, -0.14156977832317352, 0.21281155943870544, -0.08650834113359451, 0.13644613325595856, -0.149708554148674, -0.058869458734989166, -0.061680492013692856, 0.06009211018681526, -0.3049805462360382, 0.025825170800089836, 0.2225601077079773, 0.04915342107415199, -0.08513680845499039, 0.15488676726818085, -0.1494453251361847, 0.05649546533823013, -0.2767297029495239, 0.27906569838523865, -0.39149191975593567, -0.6845598816871643, 0.15834355354309082, 0.05910305678844452, -0.4988294243812561, -0.23834438621997833, 0.047469496726989746, 0.11287256330251694, -0.2222066968679428, -0.20422115921974182, -1.0326579809188843, 0.27648866176605225, -0.45871952176094055, 0.19994795322418213, 0.16875551640987396, -0.08278194814920425, -0.19055825471878052, -0.14973945915699005, -0.28526613116264343, -0.1511872112751007, -0.07962328940629959, -0.07789384573698044, -0.3875274062156677, -0.19637943804264069, -0.34235939383506775, 0.04853971675038338, -0.04529501870274544, 0.15222394466400146, 0.4792618751525879, 0.04154595732688904, -0.08320195227861404, 0.008754415437579155, 0.02678007073700428, -0.026912987232208252, 0.4297182559967041, -0.16407442092895508, -0.14873303472995758, -0.10637818276882172, -0.1305360198020935, -0.14516215026378632, -0.0057624327018857, 0.11321211606264114, 0.1726463884115219, 0.19086432456970215, 0.1291777789592743, 0.2835022211074829, -0.4476163983345032, 0.08087803423404694, -0.007821238599717617, -0.06942017376422882, 0.019263504073023796, 0.03659122809767723, -0.05347922071814537, -0.008239656686782837, 0.05310678109526634, 0.06076262891292572, 0.07697462290525436, 0.03329496830701828, -0.02047756314277649, -0.05251561105251312, -0.04428934305906296, -0.052791301161050797, -0.08486604690551758, -0.2089328169822693, 0.206821009516716, 0.018839184194803238, 0.005556860473006964, 0.03677988424897194, 0.06272517889738083, -0.03309771046042442, -1.289180874824524, 0.2144704908132553, -0.0826171338558197, -0.062179505825042725, -0.14631447196006775, 0.4947739243507385, -0.7702378630638123, -0.09927819669246674, 0.11561345309019089, -0.5838582515716553, -0.3706229329109192, 0.42445263266563416, -0.7461724281311035, -0.23927615582942963, 0.5928351283073425, 0.9535042643547058, 0.41319242119789124, 0.2990562915802002, -0.020472703501582146, -0.06677018851041794, -0.13156463205814362, -0.14877723157405853, -0.17495942115783691, -0.08396505564451218, -0.7478216290473938, -0.11585541814565659, -0.12526045739650726, -0.05856484919786453, -0.14959703385829926, 0.3046890199184418, 0.21434542536735535, 0.03751089423894882, 0.07159385085105896, 0.10614760965108871, -0.023188728839159012, 0.11064773797988892, 0.31793153285980225, -0.0931803435087204, -0.14283820986747742, -0.1280844360589981, -0.05100696533918381, -0.04125245288014412, 0.12032576650381088, -0.26529461145401, -0.18518990278244019, -0.09975174814462662, 0.06673553586006165, 0.14140138030052185, 0.1751788854598999, 0.05575859174132347, 0.13773272931575775, 0.09829822182655334, 0.03865139186382294, 0.08500581234693527, -0.10871408134698868, 0.020904751494526863, -0.013623432256281376, 0.044766467064619064, 0.018674081191420555, -0.008373912423849106, -0.0250092800706625, 0.1113002598285675, 0.11268305033445358, 0.18446345627307892, 0.0053637647069990635, 0.2529107630252838, -0.38216325640678406, 0.056805990636348724, 0.03464378044009209, 0.054597750306129456, -0.09307121485471725, 0.02272510528564453, 0.4117192327976227, 0.03791254758834839, -0.06757214665412903, 0.03575746342539787, -0.005014361348003149, 0.062450919300317764, 0.5062058568000793, 0.3043068051338196, -0.18170210719108582, -0.21576054394245148, -0.0669071301817894, -0.1734987199306488, 0.18596208095550537, 0.017321690917015076, 0.08999118208885193, -0.4221133589744568, -0.30895036458969116, -0.21279072761535645, -0.3823460340499878, 0.00821977760642767, 0.0087129482999444, 0.012501257471740246, 0.03923768550157547, -0.05730283260345459, -0.12277013063430786, -0.04299800843000412, -0.13827088475227356, -0.06672169268131256, -0.009668798185884953, 0.1113090068101883, -0.0313408263027668, -0.018032044172286987, -0.03678916394710541, -0.014009054750204086, -0.005007637199014425, -0.027312925085425377, -0.30613452196121216, 0.07539593428373337, 0.02780820056796074, -0.04047079756855965, -0.008344413712620735, -0.024094121530652046, 0.7715615034103394, 0.04611082747578621, 0.0073829577304422855, -0.057140979915857315, 0.044086504727602005, 0.02606859803199768, -0.09522628039121628, -0.01800156943500042, -0.027972660958766937, -0.03112536109983921, -0.013232833705842495, 0.022722112014889717, -0.16948279738426208, -0.020514734089374542, -0.04834456741809845, -0.040249209851026535, -0.04419939965009689, -0.010402724146842957, -0.30644530057907104, 0.10395599156618118, 0.1862819939851761, 0.18434709310531616, 0.17169953882694244, 0.138259619474411, -0.33544012904167175, 0.03418074920773506, 0.0642591267824173, 0.06031417101621628, 0.03843143582344055, 0.030704641714692116, 0.525748074054718, -0.010403591208159924, -0.08390811830759048, 0.07452953606843948, 0.24958638846874237, -0.02657291479408741, 0.21178038418293, -0.04670487344264984, -0.33393529057502747, 0.7102935314178467, -0.1545441597700119, 0.18314462900161743, 0.4679601788520813, 0.01925155334174633, -0.038620006293058395, -0.500527024269104, 0.018047066405415535, -0.24365496635437012, -0.288102924823761, 0.025031283497810364, 0.00617700070142746, 0.02134515717625618, 0.02005111239850521, 0.005600502714514732, -0.10796739906072617, -0.0012362685520201921, 0.011667048558592796, 0.050861820578575134, 0.05087719485163689, -0.17912785708904266, 0.26759788393974304, 0.0021114603150635958, 0.010449754074215889, -0.012915543280541897, -0.010819188319146633, 0.0191704872995615, -0.003498131176456809, -0.021830324083566666, -0.028400899842381477, -0.0037373797968029976, 0.0019032565178349614, -0.11675515025854111, -0.2542382478713989, -0.13834451138973236, -0.07155948877334595, -0.1431916058063507, -0.2509208023548126, -0.3395582437515259, 0.31094008684158325, 0.029899973422288895, 0.049264077097177505, 0.022664327174425125, 0.050387345254421234, 0.0968053862452507, -0.09597183763980865, 0.02755626104772091, 0.010959416627883911, -0.0024218193721026182, 0.015704527497291565, 0.06915462762117386, 0.04380595684051514, 0.05519162118434906, 0.030339298769831657, 0.06687910109758377, 0.1553761512041092, 0.24344921112060547, -0.148166686296463, -0.044730134308338165, -0.01970508135855198, -0.02297000028192997, -0.055451102554798126, -0.04868531599640846, 0.12337856739759445, 0.11507251113653183, -0.3363761901855469, 0.07593335956335068, 0.125227153301239, 0.21871156990528107, 0.6392654180526733, -0.0573623850941658, -0.3690340518951416, -0.2120334357023239, -0.3271182179450989, 0.09533970803022385, 0.05674847215414047, 0.0056958808563649654, 0.3646180033683777, -0.15735125541687012, -0.06978237628936768, 0.3984675705432892, -0.00283673033118248, 0.05661674588918686, 0.006680445745587349, 0.0021265579853206873, -0.004711855202913284, -0.03217438980937004, -0.39812666177749634, 0.07220883667469025, 0.027782808989286423, -0.016703328117728233, -0.013234247453510761, -0.06724545359611511, 0.5268314480781555, -0.02972668781876564, 0.013569699600338936, 0.013959585689008236, 0.017485855147242546, 0.020654398947954178, 0.07494646310806274, 0.08699000626802444, 0.11413466185331345, 0.062345657497644424, 0.05312889441847801, 0.09771106392145157, -0.16855205595493317, -0.011047820560634136, 0.03773641586303711, 0.059233397245407104, 0.007313902024179697, -0.03111138381063938, -0.27421849966049194, -0.11618742346763611, -0.13176049292087555, -0.0943560004234314, -0.04083289951086044, -0.07653731107711792, -0.13106508553028107, -0.019569512456655502, 0.00013772572856396437, 0.013018297031521797, 0.00565321184694767, -0.009904374368488789, -0.16377981007099152, -0.035313449800014496, -0.012447696179151535, 0.0024535097181797028, 0.0051667410880327225, 0.0072936262004077435, -0.07831206917762756, 0.03476330265402794, 0.01078715082257986, -0.009145901538431644, -0.009544669650495052, 0.006284968927502632, 0.10452812165021896, 0.25870418548583984, -0.2489907145500183, 0.22399276494979858, 0.2008761465549469, -0.004839599132537842, -0.35379913449287415, 0.4162098467350006, -0.00858832336962223, 0.5327888131141663, 0.11612158268690109, 0.18631941080093384, -0.07476914674043655, -0.32249006628990173, -0.3899204134941101, -0.36959829926490784, -0.3457287847995758, 0.4948616325855255, -0.35605674982070923, -0.14875882863998413, 0.2103482484817505, -0.3303462266921997, 0.2998557984828949, -0.12352372705936432, -0.23566456139087677, -0.07434024661779404, -0.11568428575992584, 0.017035365104675293, -0.023346763104200363, -0.1793430596590042, 0.046284858137369156, 0.08675894886255264, 0.03262217715382576, -0.03453463315963745, 0.007917641662061214, -0.034717947244644165, -0.1251411736011505, 0.05125134810805321, -0.08443936705589294, -0.030961304903030396, -0.02971087023615837, 0.027154548093676567, -0.0036249069962650537, -0.2103876769542694, 0.003641299204900861, 0.13846974074840546, -0.02755209617316723, -0.12672953307628632, -0.10553625971078873, 0.0790938138961792, -0.07374590635299683, 0.027546383440494537, 0.06324231624603271, -0.022126896306872368, 0.03937637433409691, -0.037274301052093506, 0.2135060876607895, -0.13736753165721893, 0.48588860034942627, 0.5700933933258057, -0.061409782618284225, 0.03384675830602646, -0.019187351688742638, -0.07680650055408478, -0.02660258300602436, 0.05823414772748947, -0.00899777002632618, -0.09316345304250717, 0.0066330477249091834], "sample_rate": 48000}}, {"max_value": 1.0, "model": {"version": "0.7.0", "metadata": {"date": {"year": 2026, "month": 6, "day": 30, "hour": 3, "minute": 10, "second": 26}, "loudness": -13.40382158540188, "gain": 0.4885021889967406}, "architecture": "WaveNet", "config": {"layers": [{"input_size": 1, "condition_size": 1, "head": {"out_channels": 1, "kernel_size": 16, "bias": true}, "channels": 8, "kernel_sizes": [6, 6, 6, 6, 6, 6, 6, 6, 6, 6, 6, 6, 6, 6, 15, 15, 6, 6, 6, 6, 6, 6, 6], "dilations": [1, 3, 7, 17, 41, 101, 239, 1, 3, 7, 17, 41, 101, 239, 1, 13, 1, 3, 7, 17, 41, 101, 239], "activation": [{"type": "LeakyReLU", "negative_slope": 0.01}, {"type": "LeakyReLU", "negative_slope": 0.01}, {"type": "LeakyReLU", "negative_slope": 0.01}, {"type": "LeakyReLU", "negative_slope": 0.01}, {"type": "LeakyReLU", "negative_slope": 0.01}, {"type": "LeakyReLU", "negative_slope": 0.01}, {"type": "LeakyReLU", "negative_slope": 0.01}, {"type": "LeakyReLU", "negative_slope": 0.01}, {"type": "LeakyReLU", "negative_slope": 0.01}, {"type": "LeakyReLU", "negative_slope": 0.01}, {"type": "LeakyReLU", "negative_slope": 0.01}, {"type": "LeakyReLU", "negative_slope": 0.01}, {"type": "LeakyReLU", "negative_slope": 0.01}, {"type": "LeakyReLU", "negative_slope": 0.01}, {"type": "LeakyReLU", "negative_slope": 0.01}, {"type": "LeakyReLU", "negative_slope": 0.01}, {"type": "LeakyReLU", "negative_slope": 0.01}, {"type": "LeakyReLU", "negative_slope": 0.01}, {"type": "LeakyReLU", "negative_slope": 0.01}, {"type": "LeakyReLU", "negative_slope": 0.01}, {"type": "LeakyReLU", "negative_slope": 0.01}, {"type": "LeakyReLU", "negative_slope": 0.01}, {"type": "LeakyReLU", "negative_slope": 0.01}], "bottleneck": 8, "head1x1": {"active": false, "out_channels": 1, "groups": 1}, "layer1x1": {"active": true, "groups": 1}, "groups_input": 1, "groups_input_mixin": 1, "conv_pre_film": {"active": false, "shift": true, "groups": 1}, "conv_post_film": {"active": false, "shift": true, "groups": 1}, "input_mixin_pre_film": {"active": false, "shift": true, "groups": 1}, "input_mixin_post_film": {"active": false, "shift": true, "groups": 1}, "activation_pre_film": {"active": false, "shift": true, "groups": 1}, "activation_post_film": {"active": false, "shift": true, "groups": 1}, "layer1x1_post_film": {"active": false, "shift": true, "groups": 1}, "head1x1_post_film": {"active": false, "shift": true, "groups": 1}, "gating_mode": ["none", "none", "none", "none", "none", "none", "none", "none", "none", "none", "none", "none", "none", "none", "none", "none", "none", "none", "none", "none", "none", "none", "none"], "secondary_activation": [null, null, null, null, null, null, null, null, null, null, null, null, null, null, null, null, null, null, null, null, null, null, null], "slimmable": null}], "head": null, "head_scale": 0.006633047873169357}, "weights": [-0.6711435914039612, -0.4965517818927765, 0.07009078562259674, 0.8193321228027344, -0.7725052833557129, -0.442429780960083, 0.05365050584077835, 0.9320200085639954, -0.1386813521385193, 0.06555064767599106, 0.052805688232183456, -0.15652500092983246, -0.03969353064894676, 0.25878793001174927, 0.03439539670944214, 0.020646486431360245, 0.11509808152914047, -0.1531006395816803, -0.07618697732686996, 0.33916300535202026, 0.053975142538547516, 0.004042195156216621, -0.005599861964583397, 0.06967151910066605, 0.05742042884230614, -0.12936197221279144, 0.010236755944788456, 0.08475828915834427, -0.034095391631126404, 0.18172942101955414, 0.12600935995578766, -0.2684331238269806, -0.11963013559579849, 0.047305673360824585, 0.061718523502349854, -0.1737048327922821, -0.1040845736861229, 0.27644631266593933, -0.03493822365999222, 0.05862728878855705, 0.06675954908132553, -0.1638873815536499, -0.12418898195028305, 0.329740434885025, 0.026678621768951416, -0.01033682469278574, 0.00799951795488596, 0.054636601358652115, 0.06801372766494751, -0.10825613141059875, 0.1824420839548111, -0.08025737851858139, 0.01955043338239193, 0.345846951007843, 0.1862272322177887, -0.3202076852321625, 0.07191960513591766, -0.0022781058214604855, -0.0031622766982764006, 0.2409685254096985, 0.23557856678962708, -0.3444039821624756, -0.10903771221637726, -0.04162614792585373, -0.14941616356372833, 0.24475234746932983, 0.19032049179077148, -0.41290032863616943, 0.06069732457399368, 0.03603813424706459, -0.04395430535078049, -0.16125279664993286, -0.16578203439712524, 0.1363467574119568, -0.05558152124285698, 0.05352747067809105, 0.051299065351486206, -0.25135156512260437, -0.2069558948278427, 0.2788725197315216, -0.027963798493146896, 0.16229577362537384, -0.05720257759094238, 0.4120287597179413, 0.2923282980918884, -0.2955549657344818, -0.09057947993278503, 0.07814648002386093, -0.09925656765699387, 0.2524009048938751, 0.2617286741733551, -0.3147183358669281, 0.05881664156913757, 0.02250678464770317, 0.036014702171087265, -0.13516560196876526, -0.11194263398647308, 0.1633640080690384, -0.057106416672468185, -0.10070213675498962, -0.028290053829550743, -0.38476866483688354, -0.20948292315006256, 0.42703965306282043, -0.10143567621707916, -0.119831383228302, 0.09477265924215317, -0.14434438943862915, -0.09867161512374878, -0.19051013886928558, -0.0943392813205719, -0.12173651158809662, 0.04190918803215027, -0.17295457422733307, -0.06586688756942749, -0.09119822084903717, 0.023445764556527138, 0.017409469932317734, -0.00588348601013422, 0.02348288893699646, 0.01599801331758499, 0.03804406151175499, 0.19470004737377167, 0.08925264328718185, -0.11459294706583023, 0.23381973803043365, 0.12100786715745926, 0.2041872888803482, -0.08078257739543915, -0.20942632853984833, 0.0966951921582222, -0.24788866937160492, -0.04690887778997421, -0.200648695230484, -0.09524095058441162, -0.0907338559627533, 0.029281238093972206, -0.13062168657779694, -0.07247873395681381, -0.1596118062734604, 0.02147243544459343, 0.019701344892382622, -0.005402628798037767, 0.023614590987563133, 0.009716900065541267, 0.024853946641087532, 0.1834477037191391, 0.20674748718738556, -0.04003571718931198, 0.16117164492607117, 0.0924760028719902, 0.16748164594173431, 0.0227610245347023, 0.06178213283419609, 0.1250017285346985, 0.05886952951550484, 0.04247665777802467, 0.11773375421762466, 0.04018780216574669, 0.03142024949193001, 0.07388686388731003, 0.07465598732233047, 0.05550543963909149, 0.08866904675960541, -0.00891165528446436, -0.008736548945307732, -0.016345106065273285, -0.012111345306038857, -0.004457520321011543, -0.010529645718634129, -0.09429962188005447, -0.038317881524562836, -0.12159562855958939, -0.15054893493652344, -0.08115909993648529, -0.16049431264400482, 0.05869242548942566, 0.03508269786834717, 0.07476697117090225, 0.10254740715026855, 0.07670119404792786, 0.16181732714176178, 0.03941655158996582, 0.058413777500391006, 0.07980244606733322, 0.06450358778238297, 0.06653402000665665, 0.08544465899467468, -0.007048971019685268, -0.00680573983117938, -0.011936882510781288, -0.008934198878705502, -0.0032137904781848192, -0.008051938377320766, -0.056638188660144806, -0.11501576006412506, -0.13062109053134918, -0.08587876707315445, -0.14199940860271454, -0.18927761912345886, -0.09072338789701462, -0.04296709969639778, -0.09021253883838654, -0.020604806020855904, 0.11869117617607117, 0.10222908109426498, -0.06496831029653549, -0.02957971952855587, -0.07238463312387466, -0.015020561404526234, 0.08861387521028519, 0.07272931933403015, 0.009550768882036209, 0.005591798108071089, 0.01544131338596344, 0.0026267534121870995, -0.013862570747733116, -0.006478562485426664, 0.11229962110519409, 0.054805491119623184, 0.10337020456790924, 0.025145092979073524, -0.14244256913661957, -0.12603168189525604, -0.10644210129976273, -0.0515139177441597, -0.09960310161113739, -0.02371356450021267, 0.13566571474075317, 0.11936001479625702, -0.05880172923207283, -0.026530703529715538, -0.06709104031324387, -0.013597400858998299, 0.08091351389884949, 0.06562699377536774, 0.007979976013302803, 0.0050771222449839115, 0.012596843764185905, 0.0021026150789111853, -0.010839782655239105, -0.004480712115764618, 0.12853021919727325, 0.06356102228164673, 0.11282166838645935, 0.02819744311273098, -0.16053496301174164, -0.14339442551136017, 0.23104126751422882, 0.19191215932369232, 0.035021789371967316, 0.1193152442574501, -0.18225179612636566, -0.19872157275676727, 0.27052485942840576, 0.3279187083244324, 0.015181398950517178, 0.2027825117111206, -0.023400170728564262, -0.2812197804450989, -0.05239926278591156, -0.03429997339844704, 0.0231561828404665, -0.06793802976608276, 0.06993994861841202, 0.07744123041629791, -0.054181553423404694, -0.27781662344932556, -0.06021244451403618, -0.19806191325187683, 0.2123611718416214, 0.308169960975647, 0.2008381336927414, 0.08146526664495468, -0.008064698427915573, 0.1531839519739151, -0.08124826103448868, -0.22376219928264618, 0.16847577691078186, 0.1276218444108963, -0.05280609056353569, 0.0826430544257164, -0.14632275700569153, -0.20329341292381287, -0.08678586781024933, -0.048123136162757874, -0.01737837865948677, -0.08437296748161316, 0.02781546115875244, 0.05278603732585907, -0.16885778307914734, -0.18429096043109894, 0.036133550107479095, -0.19932293891906738, 0.2156335562467575, 0.395052433013916, 0.016620120033621788, 0.06574083119630814, -0.07879597693681717, 0.20708809792995453, -0.16895097494125366, -0.09082534909248352, 0.01888362318277359, 0.04441821575164795, -0.04859519377350807, 0.15941914916038513, -0.13771000504493713, -0.07116236537694931, -0.0028699482791125774, -0.004582787863910198, 0.002311752177774906, -0.022639451548457146, 0.027664830908179283, 0.011211318895220757, -0.029476219788193703, -0.07701423019170761, 0.08457600325345993, -0.26004335284233093, 0.18600523471832275, 0.09138661623001099, 0.026519469916820526, 0.06377145648002625, -0.10181983560323715, 0.25871390104293823, -0.18568630516529083, -0.0831211507320404, 0.01880973018705845, 0.042084041982889175, -0.045681342482566833, 0.15301074087619781, -0.13108493387699127, -0.07253167778253555, -0.002442338038235903, -0.003185232635587454, 0.0011936239898204803, -0.015429584309458733, 0.02082129754126072, 0.008139585144817829, -0.0147576704621315, -0.10180237889289856, 0.11875064671039581, -0.3035605549812317, 0.21771708130836487, 0.08519583195447922, -0.1127745658159256, -0.10425523668527603, 0.16746288537979126, -0.17403654754161835, -0.22992870211601257, 0.30963265895843506, -0.131874680519104, -0.17040342092514038, -0.14949560165405273, -0.2538982331752777, -0.3722310960292816, 0.2300594449043274, 0.03695187717676163, 0.005768194328993559, -0.029573185369372368, 0.03073888085782528, 0.07009108364582062, -0.1511739045381546, -0.022553833201527596, 0.21748635172843933, -0.15347526967525482, -0.008047539740800858, 0.15046577155590057, -0.19900254905223846, 0.022037072107195854, -0.10388873517513275, 0.038199249655008316, -0.15037786960601807, -0.2008717805147171, 0.15815912187099457, 0.09784156084060669, -0.2019232213497162, 0.0014608948258683085, -0.15346772968769073, -0.18291451036930084, 0.29127541184425354, 0.0859513208270073, 0.009063097648322582, -0.023167850449681282, 0.10094550997018814, 0.14691323041915894, -0.038160521537065506, 0.012853430584073067, 0.025562522932887077, 0.018746674060821533, 0.035093262791633606, 0.251828134059906, -0.24122345447540283, 0.19891497492790222, 0.3039528429508209, 0.13857874274253845, -0.21429631114006042, -0.14498582482337952, 0.05215565860271454, -0.16995999217033386, 0.25028297305107117, -0.4894230365753174, 0.445484459400177, 0.11383980512619019, 0.041798558086156845, -0.16246160864830017, 0.7199661731719971, 0.2372736781835556, -0.7508292198181152, 0.08840249478816986, 0.05700754001736641, 0.3288111984729767, 0.43807893991470337, 0.17889074981212616, 0.09775114059448242, 0.09362224489450455, -0.07864654064178467, 0.22715935111045837, -0.5357672572135925, 0.2700098752975464, 0.21553519368171692, 0.1167854592204094, -0.3949699401855469, -0.08524040877819061, 0.40954360365867615, -0.03319338709115982, 0.5088711977005005, 0.13556261360645294, 0.07673454284667969, 0.0714370459318161, -0.30965694785118103, 0.036241065710783005, -0.06030995026230812, 0.06794657558202744, -0.02383722923696041, 0.17096661031246185, 0.07440858334302902, -0.19435779750347137, 0.21113631129264832, -0.0492967888712883, -0.029185427352786064, 0.3989896774291992, -0.39246103167533875, 0.13212141394615173, -0.10874921083450317, -0.1295624077320099, 0.10104476660490036, 0.3582691550254822, 0.4411715269088745, 0.47226080298423767, -0.07903238385915756, 0.3162112832069397, -0.268868088722229, -0.025648750364780426, 0.33250951766967773, 0.38996806740760803, -0.04936020076274872, -0.39830097556114197, 0.30061909556388855, 0.017729612067341805, 0.16673485934734344, 0.24838820099830627, 0.20320935547351837, -0.16614452004432678, -0.40636444091796875, -0.30423521995544434, 0.33013278245925903, 0.2835507094860077, 0.09361226111650467, 0.3340885043144226, -0.1939956247806549, -0.24227939546108246, -0.4737999141216278, -0.25539058446884155, 0.18728779256343842, -0.15516000986099243, -0.07899671047925949, -0.15585316717624664, -0.22108140587806702, 0.058372613042593, 0.07390274852514267, -0.06998729705810547, -0.14986103773117065, -0.14690682291984558, -0.09705960750579834, -0.03293417766690254, 0.07975270599126816, 0.13598385453224182, 0.13478690385818481, 0.12908686697483063, 0.18421012163162231, 0.1306309551000595, 0.1961469203233719, -0.023741498589515686, 0.057228121906518936, -0.021495021879673004, 0.02887970767915249, 0.25079798698425293, -0.11017370223999023, 0.11607605963945389, 0.17306436598300934, 0.16817820072174072, 0.015228820964694023, 0.093906931579113, -0.16690924763679504, 0.008746273815631866, -0.1397951990365982, -0.059609055519104004, 0.032454539090394974, -0.12413579970598221, 0.09019970148801804, -0.0632779449224472, -0.0947083979845047, -0.01687438040971756, -0.11715265363454819, -0.06033982336521149, -0.09356119483709335, 0.039155714213848114, 0.07006984204053879, 0.14775744080543518, 0.06909509003162384, 0.13862229883670807, 0.0040888250805437565, 0.06553167849779129, 0.06724411249160767, 0.17565445601940155, 0.1252022683620453, 0.12614582479000092, -0.17245173454284668, -0.045958977192640305, 0.024936512112617493, 0.09484507143497467, 0.025421524420380592, 0.17078299820423126, -0.017026908695697784, 0.06857900321483612, 0.044860586524009705, 0.135891854763031, 0.12930697202682495, 0.4384688138961792, -0.0350741408765316, 0.06575144827365875, -0.020085956901311874, -0.005519865546375513, 0.06029210984706879, -0.18295937776565552, 0.07754488289356232, -0.046226151287555695, -0.18089784681797028, -0.07948999106884003, -0.11335840076208115, -0.08511822670698166, 0.27583712339401245, -0.1409117579460144, 0.04688892140984535, 0.08796420693397522, -0.06880981475114822, 0.23157131671905518, -0.28191104531288147, -0.015526853501796722, -0.08922236412763596, -0.11196596920490265, -0.11200182884931564, -0.012105390429496765, -0.01011927705258131, -0.0706474557518959, 0.008936124853789806, -0.04522814229130745, 0.015533472411334515, -0.2754727303981781, 0.04691581428050995, 0.041673444211483, -0.07738113403320312, -0.16073821485042572, -0.19915376603603363, -0.1420048028230667, 0.41467422246932983, -0.01984640397131443, 0.06701712310314178, 0.1887098103761673, 0.18144939839839935, 0.14501222968101501, -0.00041561320540495217, 0.11089920252561569, 0.018930330872535706, -0.022811781615018845, 0.04807154834270477, -0.0679413229227066, -0.36864933371543884, -0.0049677747301757336, 0.022480038926005363, 0.017184527590870857, -0.0014493324561044574, 0.012446918524801731, -0.028636330738663673, 0.08747164160013199, 0.02420913800597191, -0.17173513770103455, -0.11965961009263992, -0.08608034253120422, 0.16349799931049347, 0.08031376451253891, -0.002819439396262169, 0.08053150027990341, 0.026209156960248947, 8.630693628219888e-05, -0.19888462126255035, 0.05881956219673157, 0.05739511176943779, -0.011390412226319313, -0.004969033878296614, -0.02072991617023945, 0.049473837018013, -0.1370767056941986, -0.022382933646440506, 0.09009863436222076, 0.08636460453271866, 0.06778471171855927, 0.192400723695755, 0.1678311973810196, 0.11332132667303085, -0.06537657976150513, -0.09620998799800873, -0.1387275755405426, 0.10227102786302567, -0.006822668481618166, -0.05393124744296074, -0.07774896174669266, -0.04811178520321846, -0.09354599565267563, -0.03464032709598541, -0.027117619290947914, 0.01798185147345066, -0.05253004655241966, 0.0786513239145279, -0.0906493216753006, -0.1724533587694168, -0.032188694924116135, -0.03917526826262474, -0.1471853256225586, -0.05247713252902031, 0.08153288811445236, 0.010653095319867134, -0.010581553913652897, 0.059049077332019806, 0.03152088448405266, 0.15724538266658783, 0.09425609558820724, -0.017772914841771126, 0.1078551784157753, 0.039674561470746994, 0.14863157272338867, 0.04652339592576027, -0.08407019823789597, -0.03691749647259712, 0.09647288918495178, 0.042089227586984634, 0.14188450574874878, 0.0765978991985321, 0.002988026011735201, 0.027165215462446213, -0.06324982643127441, -0.04949982091784477, -0.09704665094614029, -0.07448114454746246, 0.014878779649734497, 0.04615642875432968, -0.12662506103515625, 0.0050775050185620785, -0.1807531863451004, 0.09300180524587631, 0.1544884890317917, -0.010174945928156376, -0.05953006446361542, -0.11085416376590729, -0.049972567707300186, -0.11563598364591599, -0.1365397572517395, -0.11076176911592484, -0.06573308259248734, -0.005093992687761784, -0.16849692165851593, -0.02202782966196537, -0.15563581883907318, -0.10505161434412003, 0.10955605655908585, -0.047435466200113297, 0.05242423713207245, -0.05838694050908089, 0.14389561116695404, 0.029695672914385796, -0.04535195976495743, 0.08621897548437119, -0.03882955387234688, 0.010714740492403507, 0.03632233291864395, 0.023409953340888023, 0.015205929055809975, -0.012218440882861614, 0.0034589634742587805, -0.046747010201215744, -0.11671712249517441, 0.10951605439186096, 0.06673628836870193, 0.006260841619223356, 0.03834238648414612, -0.051193829625844955, -0.06077183037996292, 0.03021075390279293, -0.05823015794157982, -0.042567841708660126, 0.0004232339560985565, -0.02357848919928074, -0.04128051921725273, -0.1290818601846695, -0.023427044972777367, 0.04424096643924713, -0.0842113271355629, 0.026082657277584076, 0.04847251996397972, -0.23280557990074158, 0.07340135425329208, 0.10291176289319992, 0.10132978111505508, 0.0664835050702095, -0.03944256529211998, -0.21289053559303284, 0.04611542820930481, 0.06891121715307236, 0.051614027470350266, -0.043254777789115906, -0.02413650043308735, 0.06205981597304344, 0.021980103105306625, 0.018976900726556778, 0.06485848873853683, 0.014838256873190403, -0.058128368109464645, 0.11676032096147537, -0.21238118410110474, -0.1015622541308403, -0.16049276292324066, -0.059377141296863556, -0.060077227652072906, 0.2869906425476074, -0.10493502020835876, -0.071034736931324, 0.04486311227083206, 0.018078604713082314, -0.14288656413555145, -0.16273121535778046, 0.08148135244846344, 0.017901010811328888, -0.032995712012052536, -0.07530302554368973, -0.12828855216503143, -0.03504873812198639, 0.12579116225242615, -0.029543021693825722, -0.038389015942811966, 0.05979377403855324, 0.05426117032766342, -0.017641277983784676, -0.10720857977867126, -0.13308988511562347, -0.009013837203383446, -0.17363716661930084, 0.14385245740413666, 0.23987512290477753, -0.06895644217729568, 0.014575216919183731, 0.144664004445076, -0.1184859499335289, 0.15201599895954132, 0.02211304008960724, 0.1031486913561821, 0.05014535039663315, 0.011256861500442028, -0.06696414947509766, 0.1743525266647339, -0.015400437638163567, -0.07869067043066025, -0.01728682965040207, 0.12839899957180023, 0.026402074843645096, -0.19543300569057465, -0.02733665518462658, -0.06275513768196106, -0.027272626757621765, -0.26130062341690063, -0.21722984313964844, -0.13767512142658234, 0.1210436224937439, -0.13694164156913757, -0.035926129668951035, 0.10098419338464737, 0.042307980358600616, 0.05781988054513931, -0.19205477833747864, 0.05131843313574791, -0.09009178727865219, -0.12072630971670151, -0.29230400919914246, 0.0039259339682757854, -0.2158583104610443, 0.09987460821866989, 0.006980860605835915, 0.04376734420657158, 0.0863574966788292, 0.012122733518481255, 0.0520496629178524, 0.05979439616203308, 0.026469072327017784, -0.010652732104063034, -0.09321846067905426, -0.17154377698898315, 0.21607375144958496, -0.054210562258958817, -0.030011389404535294, -0.07965519279241562, -0.01838214136660099, -0.2512683570384979, 0.21024090051651, 0.030835192650556564, 0.1312180757522583, 0.07179442048072815, 0.2419569343328476, -0.11440528929233551, 0.12971167266368866, -0.06251511722803116, -0.10126497596502304, 0.08814862370491028, -0.04220585152506828, -0.0050111194141209126, -0.09388364851474762, -0.034197110682725906, 0.11213763803243637, 0.21504807472229004, 0.21548274159431458, 0.030191360041499138, -0.04939492791891098, 0.08255347609519958, -0.029728734865784645, -0.09874605387449265, -0.08913096785545349, -0.15153099596500397, 0.15397711098194122, -0.07751414179801941, -0.14202921092510223, -0.1215674951672554, 0.05368532985448837, -0.0855068564414978, 0.1912209689617157, -0.014677252620458603, 0.046368472278118134, -0.11530240625143051, -0.04809637367725372, 0.13645143806934357, -0.05504146218299866, 0.08509261161088943, 0.09069673717021942, 0.03707118704915047, 0.1560913622379303, 0.10580839216709137, -0.12627440690994263, 0.08277688920497894, -0.026242956519126892, -0.07350173592567444, -0.1023745909333229, -0.0663282573223114, 0.08395102620124817, 0.2199389785528183, 0.09198500216007233, 0.05652189999818802, 0.47966480255126953, 0.3183545470237732, 0.004033621866255999, 0.00016869301907718182, 0.6074120998382568, 0.8621351718902588, -0.8756239414215088, 0.027622781693935394, -0.05681465566158295, 0.040941253304481506, -0.160441592335701, -0.06554649025201797, 0.041090987622737885, -0.0520724393427372, 0.09608348459005356, 0.17408564686775208, -0.12939465045928955, 0.030302975326776505, 0.07236938178539276, 0.2594495117664337, -0.024357112124562263, -0.29506805539131165, 0.33131179213523865, -0.2260453850030899, 0.2880606949329376, -0.33445167541503906, 0.3031785190105438, 0.1849854737520218, -0.21588875353336334, 0.019962871447205544, 0.3556636571884155, 0.003620619187131524, 0.32804620265960693, 0.20329436659812927, 0.04708431288599968, -0.07548026740550995, 0.0583057664334774, 0.239912211894989, -0.21862846612930298, -0.043455347418785095, 0.23098991811275482, 0.1876126229763031, 0.15516485273838043, 0.25879645347595215, 0.022115295752882957, -0.06656156480312347, 0.18490399420261383, -0.10111081600189209, 0.05513452738523483, 0.28502804040908813, 0.22370021045207977, 0.12758657336235046, 0.20085297524929047, 0.10697005689144135, 0.014629070647060871, -0.35400936007499695, 0.23185770213603973, 0.20302362740039825, -0.11113955825567245, -0.09339942783117294, 0.22081756591796875, -0.07547968626022339, -0.014924213290214539, -0.0963292047381401, 0.0954418033361435, 0.12558859586715698, -0.0743209645152092, -0.1703290343284607, 0.14070449769496918, 0.2327689826488495, -0.1101546511054039, -0.1857123225927353, -0.012488237582147121, 0.0471830889582634, -0.10590880364179611, 0.09955967962741852, -0.2971978783607483, 0.0020237895660102367, -0.1761048436164856, 0.047738369554281235, 0.0350273959338665, 0.008625131100416183, -0.029121682047843933, -0.01518210954964161, 0.3108076751232147, -0.05991360917687416, -0.01102590374648571, -0.014912718906998634, -0.0046010613441467285, 0.032823555171489716, -0.3505029082298279, -0.0010244621662423015, 0.027797671034932137, -0.06667222827672958, -0.024286899715662003, -0.17522095143795013, 0.3072102963924408, -0.02149229124188423, 0.014929703436791897, 0.061949145048856735, 0.02778416872024536, 0.08869403600692749, -0.09397924691438675, -0.03366684913635254, 0.027252405881881714, 0.008433133363723755, 0.07875236123800278, 0.017297273501753807, -0.35715216398239136, 0.06532403826713562, -0.009228106588125229, 0.04560259357094765, 0.009690454229712486, 0.02485995925962925, -0.1304083615541458, -0.0609501414000988, 0.006077633239328861, -0.01980801671743393, 0.0722370594739914, -0.08494791388511658, 0.3042041063308716, -0.012004256248474121, -0.01571885496377945, -0.00998887699097395, -0.033035244792699814, 0.1191440224647522, 0.10177244246006012, 0.0052177621982991695, -0.06358779221773148, -0.016594834625720978, -0.05576617270708084, 0.1637774109840393, 0.025089019909501076, -0.039524421095848083, -0.009370899759232998, 0.015954695641994476, -0.007605738006532192, 0.27100157737731934, -0.16079694032669067, 0.030124180018901825, 0.012008718214929104, -0.006149410270154476, 0.009026005864143372, 0.2759307026863098, 0.14832046627998352, 0.07575473934412003, 0.001179197453893721, 0.04748189449310303, -0.14067602157592773, -0.11677055060863495, 0.03814749792218208, -0.00662938691675663, 0.004524458199739456, 0.10508795082569122, 0.02197231352329254, 0.3070644438266754, -0.165087029337883, 0.0018307880964130163, -0.03332999348640442, -0.06351960450410843, -0.09464441239833832, 0.09173320233821869, -0.23283079266548157, -0.03081997111439705, 0.010878298431634903, 0.04225912317633629, 0.10078439861536026, -0.11971359699964523, 0.10889216512441635, -0.0747285932302475, -0.025789989158511162, 0.012809453532099724, -0.07297837734222412, -0.12547867000102997, 0.12850448489189148, 0.074490986764431, 0.0661710798740387, 0.0997907742857933, 0.2485070675611496, 0.23552027344703674, -0.02133716270327568, -0.04854266345500946, -0.11252710223197937, -0.003102673450484872, -0.06441523879766464, -0.062442436814308167, -0.2778298258781433, -0.004151138011366129, -0.027610531076788902, -0.10889256000518799, 0.002457373309880495, -0.08440906554460526, -0.22727631032466888, -0.05091270059347153, -0.07757619023323059, -0.05810125544667244, -0.012087678536772728, -0.08290400356054306, 0.28274792432785034, -0.08601080626249313, -0.0935373529791832, -0.09945853799581528, -0.11291775107383728, -0.07108788192272186, -0.11118846386671066, 0.043110258877277374, 0.016634343191981316, 0.08221524953842163, 0.08390398323535919, 0.0953226089477539, 0.2592516839504242, -0.013901617377996445, -0.01794327422976494, -0.04312073439359665, -0.035066016018390656, 0.0354730524122715, 0.22495871782302856, 0.016062257811427116, -0.015734193846583366, 0.03280722349882126, 0.01829787902534008, -0.007105852477252483, 0.17759066820144653, -0.019776558503508568, -0.015471499413251877, 0.013140924274921417, -0.02087802067399025, -0.07193314284086227, -0.12514716386795044, -0.028771312907338142, -0.0510987751185894, -0.06701043248176575, -0.06792686134576797, -0.01642005890607834, -0.21873387694358826, 0.026515057310461998, 0.06705565750598907, 0.019115764647722244, 0.06745818257331848, 0.029347633942961693, -0.14727257192134857, -0.003440107451751828, -0.01627247780561447, 0.011788561008870602, 0.05521250516176224, 0.08318693190813065, 0.16211189329624176, 0.09189596027135849, 0.07454484701156616, 0.06661340594291687, 0.08259233087301254, -0.042899247258901596, 0.03360971063375473, 0.08459602296352386, 0.056070927530527115, 0.09162905812263489, 0.09267366677522659, 0.08249461650848389, 0.12283989042043686, 0.053462933748960495, -0.00985143892467022, 0.011251077055931091, -0.03835061565041542, -0.06309822201728821, 0.08148608356714249, -0.03663721680641174, -0.05181795358657837, -0.08612426370382309, -0.036137837916612625, 0.1510372906923294, 0.01942562684416771, -0.04667056351900101, -0.04181022197008133, -0.07257215678691864, -0.06415454298257828, -0.051882363855838776, -0.07377851754426956, 0.006338335573673248, -0.05055262893438339, -0.04645136743783951, -0.11563612520694733, -0.15871386229991913, -0.07977743446826935, -0.03607857599854469, -0.042715247720479965, -0.05196261778473854, 0.11319780349731445, 0.05243963748216629, 0.09841448068618774, 0.006014468148350716, 0.004587812814861536, -0.0002836617059074342, 0.10122683644294739, -0.007124027237296104, -0.050528865307569504, 0.002283507725223899, -0.047946203500032425, -0.027434173971414566, -0.01967264711856842, -0.02637806348502636, -0.028406230732798576, 0.04645342752337456, 0.04352474585175514, -0.008180957287549973, 0.05566590651869774, 0.04372381418943405, -0.04836392402648926, -0.034499648958444595, -0.02851725183427334, -0.056300386786460876, -0.02113478071987629, 0.07249893248081207, 0.040137019008398056, -0.011913078837096691, 0.007848368026316166, -0.0502806156873703, 0.10316251218318939, -0.030484607443213463, -0.02665548399090767, -0.015187287703156471, -0.03644252568483353, -0.0008977745892480016, -0.08098774403333664, -0.2133544534444809, -0.012506884522736073, 0.02753518894314766, 0.04132942110300064, 0.08489806205034256, 0.0725979134440422, -0.022018561139702797, 0.13826091587543488, 0.0030515429098159075, -0.05312815681099892, -0.05335589870810509, -0.02719324640929699, -0.21020488440990448, -0.11525483429431915, 0.05189643055200577, -0.05611683055758476, 0.04751428961753845, 0.10790601372718811, 0.09844043105840683, -0.04661604017019272, 0.03839912265539169, 0.06769341975450516, 0.010507345199584961, -0.0812084823846817, -0.09883370250463486, 0.2676507532596588, -0.059643056243658066, -0.06990541517734528, -0.014914020895957947, 0.06040852516889572, -0.266713410615921, -0.0745435506105423, 0.056080322712659836, 0.07780750840902328, 0.020801717415452003, -0.09717968106269836, -0.040132634341716766, -0.043962012976408005, -0.02990342676639557, 0.06894839555025101, 0.04100087657570839, 0.10511327534914017, 0.14174103736877441, -0.16034309566020966, 0.004261839669197798, -0.018535872921347618, -0.00042236578883603215, -0.10109826922416687, -0.1252208650112152, 0.15452374517917633, -0.014956800267100334, -0.08418495208024979, -0.06593433022499084, -0.04865517094731331, -0.10037755221128464, -0.19366799294948578, -0.00413527013733983, -0.07557908445596695, -0.07199901342391968, -0.012807490304112434, -0.024352049455046654, 0.14679785072803497, -0.024408921599388123, -0.032295309007167816, -0.09147640317678452, 0.004498456139117479, 0.0647694543004036, 0.049103859812021255, -0.07380985468626022, -0.1110854521393776, -0.13597489893436432, -0.12102711945772171, -0.10136691480875015, -0.2796891927719116, 0.04282170906662941, -0.0013095467584207654, -0.01395905576646328, -0.07569479197263718, -0.07918266952037811, 0.15293455123901367, -0.0767706111073494, -0.05128701031208038, -0.033353425562381744, -0.1006210595369339, -0.12379267811775208, 0.13862641155719757, 0.048296838998794556, -0.05752505734562874, -0.016364606097340584, 0.009200179018080235, -0.009123842231929302, 0.24443461000919342, 0.09741941839456558, 0.059915415942668915, 0.06874604523181915, 0.1664348840713501, 0.215036541223526, 0.08822035044431686, 0.06538106501102448, 0.02660546638071537, 0.04265883192420006, 0.04413497447967529, 0.040585603564977646, -0.17300531268119812, -0.06610602140426636, -0.1010248064994812, -0.018003705888986588, -0.025294488295912743, -0.06841731816530228, -0.21885231137275696, 0.01163784321397543, -0.03958414867520332, 0.00030664372025057673, -0.02336888574063778, -0.02795829437673092, 0.10949216037988663, -0.021568477153778076, -0.04261387884616852, -0.00451688002794981, -0.0359833687543869, 0.027116674929857254, -0.08107961714267731, 0.025146501138806343, 0.053781650960445404, 0.05492514371871948, 0.0342676006257534, 0.1484416127204895, 0.15555162727832794, -0.018171444535255432, -0.026612168177962303, 0.024397078901529312, -0.004619326908141375, 0.08966811001300812, 0.13997507095336914, 0.07074294984340668, 0.05751675367355347, 0.05688270181417465, -0.009822584688663483, -0.027484873309731483, 0.05134642869234085, -0.12520797550678253, -0.060916345566511154, -0.25912636518478394, -0.1496814787387848, -0.06411154568195343, 0.14390632510185242, -0.3410423696041107, -0.2392377108335495, -0.14428478479385376, 0.2590203285217285, 0.277093768119812, -0.015492861159145832, -0.07942402362823486, -0.7489849328994751, 0.13776637613773346, 0.09776675701141357, -0.48578566312789917, -0.03463407978415489, 0.13267745077610016, 0.07846946269273758, -0.0050100525841116905, 0.2334321290254593, -0.1915210485458374, 0.10488944500684738, -0.26179200410842896, -0.19248472154140472, 0.057457029819488525, 0.05006980895996094, 0.19327861070632935, -0.045420460402965546, -0.43835940957069397, 0.2195751965045929, -0.006862936075776815, 0.09672088176012039, -0.09097948670387268, 0.1996683031320572, 0.23778635263442993, 0.3350309729576111, -0.0715961754322052, -0.04233146458864212, 0.18148073554039001, 0.21384356915950775, -0.17124757170677185, -0.10151386260986328, 0.009454173967242241, -0.2731780409812927, 0.2380845844745636, -0.2811661660671234, -0.2076224386692047, 0.04793481528759003, 0.3170590400695801, 0.09709227830171585, 0.060437001287937164, 0.18155193328857422, -0.21022216975688934, 0.12269464880228043, 0.09684261679649353, 0.1915832757949829, 0.2170049250125885, 0.1918586939573288, 0.04694923013448715, 0.17723160982131958, 0.11413375288248062, -0.0373481884598732, 0.05428973212838173, 0.06490373611450195, -0.32941076159477234, -0.15303707122802734, -0.08504349738359451, -0.15941105782985687, 0.062022555619478226, -0.1507607400417328, 0.11301002651453018, -0.11984795331954956, -0.21818780899047852, -0.07898266613483429, -0.07360167056322098, -0.1446893960237503, 0.23145371675491333, -0.10194196552038193, 0.16407354176044464, -0.07393025606870651, -0.22915443778038025, 0.14390423893928528, 0.04872654750943184, -0.009341691620647907, 0.19109433889389038, 0.07854261994361877, 0.00016348792996723205, 0.00039039686089381576, -0.0004049701674375683, -0.00027999113081023097, -0.0002907823654823005, -0.00031198697979561985, -0.0007596493815071881, -0.0005115045933052897, -0.0002564215974416584, -0.00023312281700782478, -0.00010786734492285177, 0.00028102053329348564, 0.0012810307089239359, 0.001612923457287252, 0.0006926952046342194, 0.0009624925442039967, 0.0010151696624234319, 0.0006346513400785625, -0.0007282207370735705, -0.0012480620061978698, 0.0005278541939333081, 0.0004316556442063302, 0.000916009652428329, 0.0010733450762927532, -0.0007796576246619225, -0.00042087581823579967, -0.0009905226761475205, -0.0005909609608352184, -0.0008411167073063552, -0.0012511004460975528, 0.0006148943793959916, 0.0009803716093301773, 0.001286966260522604, 0.0012400205014273524, 0.0013965073740109801, 0.0006568857934325933, 0.0005255616852082312, 0.00018647783144842833, 1.0117195415659808e-05, -0.0003135979932267219, -0.0006396679673343897, -0.0006524366326630116, -0.0011850899318233132, -0.0015721000963822007, 0.0002628427173476666, -0.00022922895732335746, 0.00037179942592047155, 0.0006553071434609592, -0.02687363512814045, -0.029292689636349678, -0.025934210047125816, -0.02438889443874359, -0.03496284410357475, -0.028571777045726776, -0.006539993453770876, -0.0006722116377204657, -0.03451118990778923, -0.017062591388821602, -0.02677346207201481, -0.006963486783206463, -0.014666113071143627, -0.008151514455676079, 0.027729202061891556, -0.018317973241209984, -0.009630638174712658, -0.0008617806015536189, -0.004188194405287504, -0.010964194312691689, -0.06008508428931236, -0.04473162442445755, -0.01707366481423378, -0.01936763897538185, 0.0006356678204610944, -0.003420019755139947, 0.0010539309587329626, 0.0028965661767870188, -0.002963260980322957, -0.0029339902102947235, -0.014360938221216202, -0.021358340978622437, -0.018120547756552696, -0.016018757596611977, -0.020708583295345306, -0.018068956211209297, -0.009112115018069744, -0.0124945268034935, 0.07867869734764099, 0.03333048149943352, 0.059451308101415634, -0.005436240695416927, -0.010176252573728561, -0.004885550122708082, -0.028588032349944115, -0.02600766532123089, -0.008733480237424374, -0.011494981124997139, 0.0764281377196312, 0.024481289088726044, 0.01856975071132183, 0.061897702515125275, 0.08445069938898087, 0.05921938642859459, 0.003675291547551751, 0.043359529227018356, 0.07022645324468613, 0.0149955153465271, 0.008135173469781876, -0.3058115839958191, -0.040087319910526276, -0.02040773816406727, -0.0951315388083458, -0.043444614857435226, 0.025334587320685387, 0.1122039407491684, 0.05930972844362259, 0.000977479969151318, 0.0349983386695385, 0.032358553260564804, 0.07075668126344681, 0.07505351305007935, 0.01045883446931839, 0.015127926133573055, 0.04949172958731651, 0.006644196808338165, 0.10964131355285645, -0.013116949237883091, -0.08530281484127045, -0.04666667431592941, -0.05992355942726135, -0.017686698585748672, -0.11239473521709442, -0.022706354036927223, 0.014133235439658165, 0.12007225304841995, 0.10393837839365005, -0.012828866951167583, -0.02555834874510765, 0.2142931967973709, -0.014106225222349167, -0.017955198884010315, -0.010488453321158886, 0.012052304111421108, -0.013027097098529339, 0.14206863939762115, 0.03870099037885666, 0.07269968092441559, 0.022230926901102066, -0.045395880937576294, -0.09097376465797424, 0.2522023022174835, 0.014222215861082077, -0.007819278165698051, -0.0032865905668586493, -0.04294300079345703, 0.03617367520928383, -0.11839661002159119, -0.017937887459993362, -0.07591860741376877, -0.05530806630849838, -0.17460283637046814, -0.14488984644412994, 0.42210811376571655, -0.06455180048942566, -0.0611756294965744, -0.07014036178588867, -0.04139681160449982, 0.030160555616021156, -0.40860533714294434, -0.06860888749361038, -0.039546526968479156, -0.10772036015987396, -0.006328679621219635, -0.018386315554380417, 0.05097838118672371, 0.023920724168419838, 0.014361729845404625, -0.06868381798267365, -0.029966037720441818, -0.053026337176561356, 0.0250695887953043, -0.007325403392314911, 0.022773897275328636, -0.021841321140527725, -0.07638885080814362, -0.20532189309597015, 0.0114740626886487, 0.06449439376592636, 0.0645643025636673, 0.1275126039981842, 0.11090927571058273, 0.28500720858573914, -0.23412108421325684, 0.0750906839966774, 0.09267493337392807, 0.04693242162466049, 0.0656631588935852, 0.0744585245847702, 0.01950954832136631, 0.03860465809702873, -0.03730616346001625, 0.02540348470211029, -0.004493268206715584, -0.005618256516754627, 0.23925001919269562, 0.0014645300107076764, 0.06258952617645264, 0.011319617740809917, 0.16842664778232574, 0.029341325163841248, -0.11478787660598755, -0.034031033515930176, -0.05409790202975273, 0.03430844098329544, -0.035384826362133026, -0.02979005128145218, 0.13121852278709412, 0.04925430566072464, 0.1244131326675415, 0.08486014604568481, -0.0019994149915874004, 0.024862628430128098, 0.07944821566343307, 0.004393131006509066, -0.052325289696455, -0.07015407830476761, 0.032951321452856064, 0.020055172964930534, -0.06529437750577927, 0.2550589144229889, 0.203392893075943, 0.20120760798454285, 0.09968531876802444, 0.22171060740947723, -0.11641344428062439, -0.034709151834249496, -0.09854264557361603, -0.1406337320804596, -0.11659008264541626, -0.17854635417461395, 0.060903988778591156, -0.004079057835042477, -0.026891136541962624, 0.020254598930478096, -0.01900148205459118, -0.004191756248474121, -0.012552573345601559, 0.012914245948195457, -0.033463478088378906, -0.023140165954828262, 0.00832889974117279, -0.0035674378741532564, 0.02473686821758747, 0.0074599795043468475, -0.04349924996495247, 0.04124411568045616, -0.038064856082201004, 0.0011215570848435163, -0.0004726185870822519, -0.021578989923000336, 0.041428666561841965, -0.049590326845645905, 0.019671810790896416, -0.010424589738249779, -0.011296271346509457, 0.00013456119631882757, -0.022044945508241653, 0.02166190929710865, 0.0062310476787388325, 0.013902762904763222, -0.02185959741473198, -0.0067467233166098595, -0.009986866265535355, 0.0044186851009726524, 0.003096772590652108, 0.01322074607014656, -0.031159918755292892, -0.017819780856370926, 0.021090548485517502, 0.03788706660270691, -0.012697643600404263, -0.03240940347313881, -0.05129934474825859, -0.0027890887577086687, 0.057047318667173386, -0.06985949724912643, 0.008079861290752888, -0.023909717798233032, 0.024632317945361137, 0.04065081849694252, 0.035328928381204605, 0.08690941333770752, 0.005660627037286758, 0.0034424373880028725, 0.003908061422407627, -0.02624092996120453, 0.021891463547945023, 0.014100725762546062, 0.05493433400988579, 0.15849527716636658, 0.14677047729492188, -0.007966945879161358, -0.01151403971016407, -0.04796662554144859, -0.03829053044319153, -0.09540096670389175, -0.11384786665439606, 0.02668382227420807, 0.03301900997757912, 0.007289114873856306, -0.007047830615192652, 0.03165338933467865, -0.09005182236433029, -0.0033266982063651085, -0.01333873625844717, -0.016491830348968506, 0.004645244218409061, -0.2117697298526764, 0.034704793244600296, -0.08387983590364456, -0.06698915362358093, -0.05993051081895828, -0.04174800217151642, 0.01649382896721363, -0.05729984864592552, -0.05491558834910393, -0.025823529809713364, 0.0018734247423708439, 0.06363401561975479, -0.01971404440701008, -0.0275172870606184, -0.017371423542499542, 0.023911399766802788, 0.014158528298139572, 0.001964451977983117, 0.053043823689222336, -0.09290774911642075, -0.04128238558769226, -0.017496392130851746, 0.041249360889196396, 0.11611422151327133, 0.21684949100017548, 0.11497349292039871, -0.004649587906897068, 0.010660354048013687, 0.023276295512914658, 0.019151583313941956, 0.024306394159793854, 0.06822270154953003, -0.020807771012187004, -0.03499523922801018, -0.047719806432724, 0.08614703267812729, -0.004148981999605894, -0.1252061128616333, -0.05614152178168297, -0.050745025277137756, -0.03796636685729027, -0.027984309941530228, -0.023083752021193504, 0.2142760008573532, -0.062184520065784454, -0.04141126573085785, -0.06271575391292572, -0.032834552228450775, 0.019099339842796326, -0.11332408338785172, 0.027902526780962944, 0.0018017743714153767, 0.02274753712117672, 0.033806852996349335, 0.08567027002573013, 0.16525879502296448, 0.008221159689128399, 0.03476472198963165, 0.030136924237012863, 0.07863709330558777, 0.20325008034706116, -0.06331920623779297, -0.03016875870525837, -0.022256504744291306, -0.06883785873651505, -0.04789150133728981, -0.047108594328165054, 0.18946793675422668, -0.010964639484882355, -0.0049543180502951145, 0.1466667503118515, -0.04433801770210266, 0.1257379949092865, -0.008442954160273075, 0.23478849232196808, -0.2421039193868637, 0.00017145655874628574, 0.0036892227362841368, 0.8111488223075867, -0.4120921194553375, 0.37151503562927246, 0.018146958202123642, -0.6061264276504517, 0.3561176359653473, 0.000414591544540599, 0.006144920364022255, -0.23680730164051056, -0.07872311770915985, 0.21614041924476624, 0.010510025545954704, 0.02370198257267475, 0.16518041491508484, 0.0016216650838032365, -0.07262178510427475, 0.20445619523525238, 0.2673453986644745, -0.14534533023834229, 0.030908869579434395, -0.14490513503551483, -0.3722861111164093, -0.001202357467263937, 0.007886161096394062, -0.03311501070857048, -0.41227543354034424, 0.03692445531487465, -0.039288122206926346, -0.10876158624887466, 0.10344279557466507, -0.000614633085206151, 0.01189576555043459, 0.35038331151008606, 0.23586232960224152, -0.1922537088394165, -0.012998503632843494, -0.20866195857524872, -0.16832658648490906, 0.00033998244907706976, 0.0015385904116556048, -0.09603723883628845, 0.2509561777114868, 0.08552782237529755, 0.04962322860956192, 0.15818309783935547, -0.15029171109199524, -0.0005651584942825139, 0.06832040101289749, -0.028520600870251656, 0.2566283047199249, 0.16996805369853973, 0.046972841024398804, -0.1178228035569191, -0.017008431255817413, -0.0022219133097678423, 0.036902159452438354, 0.10181362926959991, 0.14381450414657593, 0.21897001564502716, 0.005818245466798544, -0.1307508498430252, -0.30980050563812256, -0.0009722290560603142, 0.0179362241178751, -0.19756367802619934, -0.032746221870183945, 0.03555388003587723, -0.013045982457697392, -0.001123195281252265, -0.08004888147115707, 0.0706246867775917, -0.1424875557422638, 0.08035432547330856, 0.1194043755531311, -0.22521749138832092, -0.12108874320983887, -0.1315481811761856, 0.3059665262699127, 0.08526460826396942, 0.11723412573337555, 0.18863624334335327, 0.08903812617063522, 0.0521634966135025, 0.030670640990138054, -0.15448923408985138, -0.1419190615415573, -0.16462257504463196, -0.16145767271518707, -0.2209039181470871, 0.27007171511650085, 0.008282353170216084, 0.04271966591477394, 0.04290129616856575, 0.1295783668756485, 0.06725703179836273, -0.2167300283908844, -0.10409056395292282, -0.07877922803163528, -0.03025546297430992, -0.07047639042139053, -0.1687958538532257, 0.27948033809661865, 0.0681791827082634, 0.02925480529665947, 0.007889960892498493, 0.11027523130178452, 0.15277989208698273, 0.023646265268325806, -0.0795372799038887, -0.0892387256026268, -0.09764280170202255, -0.10465021431446075, -0.11209215223789215, 0.02703348733484745, -0.0014391213189810514, -0.028259659186005592, -0.01226282212883234, 0.02642028219997883, 0.15507104992866516, -0.12258074432611465, 0.10009507834911346, 0.00931499432772398, -0.04280916601419449, 0.005595219787210226, -0.03862183913588524, 0.02377898618578911, -0.006306583061814308, -0.006859824061393738, -0.006762600503861904, -0.00655470322817564, -0.006394162308424711, -0.0071184756234288216, 0.0037836874835193157, 0.004649069160223007, 0.0031608440913259983, 0.0024263549130409956, 0.003486962290480733, 0.002519963076338172, -0.007376248016953468, -0.00831188540905714, -0.008563986979424953, -0.008841952309012413, -0.007754250429570675, -0.00639686081558466, -0.0018498216522857547, -0.0013717705151066184, -0.002029663883149624, -0.0010825907811522484, -0.0030978210270404816, -0.0039887684397399426, -0.01007387787103653, -0.0091248145326972, -0.009441040456295013, -0.00959478598088026, -0.009822135791182518, -0.010417835786938667, 0.004337496589869261, 0.0036830510944128036, 0.0028573693707585335, 0.0033915014937520027, 0.002366333967074752, 0.0027573935221880674, -0.0007268005865626037, -0.002076044213026762, -0.0017589331837370992, -0.0016075007151812315, -0.0016615064814686775, -0.0007434479775838554, -0.0019467086531221867, -0.00214378722012043, -0.002370910020545125, -0.0017292052507400513, -0.002709144027903676, -0.0033000328112393618, 0.04071415215730667, 0.04462181776762009, 0.09794773906469345, 0.032489076256752014, 0.027381867170333862, 0.023548001423478127, -0.019664477556943893, -0.025331035256385803, -0.02753221057355404, -0.03638574481010437, -0.023006433621048927, -0.3426252603530884, -0.01763816736638546, -0.025850243866443634, -0.03260616585612297, -0.06808040291070938, -0.046476222574710846, 0.01144275814294815, -0.042067330330610275, -0.07961903512477875, -0.002812705235555768, -0.09800979495048523, -0.04145815968513489, 0.15634854137897491, -0.010841459035873413, -0.04264960438013077, -0.011017274111509323, -0.02952590212225914, 0.05005628615617752, -0.17562265694141388, 0.045292701572179794, 0.0630074068903923, -0.04124489054083824, 0.03364720940589905, 0.007298730779439211, 0.011347874067723751, 0.021129056811332703, 0.03963916376233101, 0.021823912858963013, 0.051497749984264374, 0.038390230387449265, 0.18414877355098724, 0.03634781017899513, 0.021680589765310287, -0.011129268445074558, 0.02551766112446785, -0.002610528841614723, 0.3116188049316406, -0.037871092557907104, -0.041422780603170395, 0.007650280371308327, 0.006905037444084883, -0.03526877611875534, 0.06262098252773285, -0.005388389341533184, 0.041037335991859436, 0.10401651263237, 0.0948501005768776, 0.020866945385932922, 0.020971545949578285, -0.03949815407395363, -0.043210335075855255, -0.06325133144855499, -0.0034377924166619778, -0.005601330194622278, -0.035971999168395996, 0.042868271470069885, 0.04594530537724495, 0.0691974088549614, 0.1256445199251175, 0.10980353504419327, -0.057915300130844116, -0.030966226011514664, -0.03311317414045334, 0.017237620428204536, -0.04960363358259201, -0.043075188994407654, 0.033835552632808685, 0.08469441533088684, 0.06145492568612099, 0.08246585726737976, 0.03187042847275734, 0.05973123013973236, 0.02971210703253746, 0.021491652354598045, 0.064902663230896, -0.0025023003108799458, -0.006192097906023264, -0.02006555162370205, 0.013130083680152893, 0.019950885325670242, -0.007069388870149851, 0.02463466487824917, 0.0907612070441246, 0.07916700839996338, -0.056807707995176315, 0.01982615515589714, 0.027778569608926773, 0.037812501192092896, -0.00526989484205842, 0.017606591805815697, 0.03314783051609993, -0.0030634584836661816, -0.012102643959224224, -0.020025964826345444, -0.0086008720099926, 0.009149295277893543, 0.40367192029953003, -0.07660046219825745, -0.08628249913454056, -0.11669331789016724, -0.11454034596681595, -0.09801866114139557, -0.08532669395208359, 0.041532255709171295, 0.018495606258511543, 0.04838642477989197, 0.04691559076309204, 0.1100161075592041, 0.003993266727775335, 0.09208451956510544, 0.08577679097652435, 0.05231405049562454, 0.0821138322353363, 0.08672741800546646, 0.052017439156770706, -0.08836190402507782, -0.05405210331082344, -0.0957183986902237, -0.1295918971300125, -0.15676921606063843, -0.24124518036842346, -0.005427346099168062, 0.03382233902812004, -0.05024462938308716, -0.04755103215575218, -0.03915572911500931, -0.21023902297019958, 0.05924505740404129, 0.0913626179099083, 0.07905793190002441, 0.07521744072437286, 0.029322771355509758, -0.24397709965705872, 0.04433717578649521, 0.08246457576751709, 0.07721186429262161, 0.0051595233380794525, 0.026007764041423798, -0.014872138388454914, -0.049692150205373764, -0.07799923419952393, -0.0949978157877922, -0.03580494597554207, -0.06871340423822403, -0.13329118490219116, -0.06728354841470718, -0.06399741768836975, -0.10266922414302826, -0.04340026527643204, -0.07426872104406357, -0.025430167093873024, -0.007917351089417934, -0.0331098735332489, -0.08246024698019028, -0.06084847077727318, -0.0520065613090992, 0.10583114624023438, 0.057845570147037506, 0.09191960096359253, 0.016745205968618393, 0.02782437764108181, 0.08755554258823395, 0.0014810925349593163, -0.08946844190359116, -0.04318741708993912, 0.031724926084280014, -0.017492039129137993, -0.04266950860619545, -0.059608474373817444, 0.010196823626756668, 0.12560148537158966, 0.08336401730775833, 0.04774199426174164, 0.10401768982410431, 0.05742991343140602, 0.05638560652732849, 0.022334197536110878, 0.03984321653842926, 0.02613198012113571, 0.011066501028835773, 0.2404455542564392, 0.10063213109970093, 0.0645354762673378, 0.07759548723697662, 0.08221960067749023, 0.12458232045173645, 0.13151521980762482, 0.0018461922882124782, -0.019274743273854256, -0.04357929527759552, -0.039537832140922546, -0.02563880756497383, 0.08151157945394516, -0.006498527247458696, -0.01952638290822506, -0.03504658490419388, -0.04815002530813217, 0.01108497940003872, -0.09260610491037369, 0.00356932426802814, 0.034721266478300095, 0.00880596973001957, 0.007638418115675449, 0.002645074622705579, 0.08271770179271698, 0.04187896475195885, 0.04578252509236336, 0.06619637459516525, 0.06375200301408768, 0.06396912038326263, 0.10034707188606262, 0.10595403611660004, 0.07259129732847214, 0.08757053315639496, 0.1342024952173233, 0.12293689697980881, 0.20349380373954773, 0.07269681245088577, 0.017668845131993294, 0.06060456112027168, 0.05823944881558418, 0.13729210197925568, -0.025942325592041016, 0.02044333703815937, -0.02652570977807045, -0.03742847591638565, -0.017879469320178032, -0.06622982025146484, -0.04708501696586609, -0.015096009708940983, 0.02368103712797165, -0.10280610620975494, 0.0246581993997097, 0.052622660994529724, -0.048474326729774475, 0.09855008125305176, 0.14687012135982513, 0.2176995426416397, 0.11778470873832703, -0.0009832305368036032, -0.1218581423163414, -0.03806807100772858, -0.010342976078391075, -0.03847242891788483, 0.006252015940845013, 0.07701092958450317, 0.023996341973543167, 0.10323274880647659, 0.09500675648450851, 0.007166159339249134, 0.14823462069034576, -0.015152767300605774, 0.08162178844213486, 0.05130760744214058, -0.006702159997075796, -0.035448264330625534, -0.04431269317865372, -0.011510376818478107, -0.04065808653831482, -0.18387921154499054, -0.1650305837392807, -0.059466395527124405, -0.16535493731498718, -0.24739529192447662, -0.007394013460725546, -0.05595792084932327, -0.14225521683692932, -0.1413349062204361, -0.1719411164522171, -0.07300595194101334, 0.169341042637825, 0.07214024662971497, 0.13005957007408142, 0.21997617185115814, 0.10103853791952133, 0.10341261327266693, 0.11765880882740021, 0.10961376130580902, -0.026724355295300484, 0.1448509842157364, -0.11380206048488617, 0.20632825791835785, 0.17740270495414734, -0.024340076372027397, 0.008397756144404411, -0.3200075030326843, 0.0037621171213686466, 0.4337374269962311, -0.016062689945101738, -0.4208041727542877, 0.442966490983963, 0.041030410677194595, -0.2872442901134491, 0.08753067255020142, -0.002712896792218089, -0.2598661780357361, -0.030284782871603966, 0.08582574129104614, 0.12720340490341187, -0.12513333559036255, 0.11753999441862106, -0.2222018986940384, -7.414710125885904e-05, 0.07815368473529816, 0.05792995169758797, -0.19233588874340057, -0.0817352905869484, -0.039177000522613525, -0.03020436502993107, 0.13449037075042725, 0.0023215627297759056, -0.1731751561164856, -0.09923067688941956, 0.07510973513126373, -0.043455347418785095, 0.18186894059181213, 0.08030529320240021, -0.26397526264190674, -0.00018132972763851285, -0.01100081205368042, 0.13837741315364838, -0.18318845331668854, 0.04847968742251396, -0.20826679468154907, 0.15189318358898163, 0.06330357491970062, -0.0015007221372798085, -0.005812043324112892, 0.049278151243925095, 0.13359197974205017, -0.05346520617604256, 0.10484786331653595, -0.1732962727546692, -0.023577546700835228, -0.0017970463959500194, 0.10218875110149384, 0.10423783957958221, 0.3577824532985687, 0.015344888903200626, -0.02974783070385456, -0.2690560221672058, 0.3005998432636261, 0.0017360816709697247, 0.20321199297904968, -0.1436353623867035, -0.16606710851192474, 0.18840491771697998, 0.10217210650444031, -0.14468924701213837, -0.11727423220872879, -0.0011389198480173945, -0.08875423669815063, -0.005263600964099169, -0.288439005613327, 0.3222521245479584, 0.18024781346321106, 0.08686553686857224, -0.17276844382286072, 0.1065116673707962, -0.24771663546562195, -0.13397133350372314, -0.09811534732580185, 0.18675349652767181, 0.007004193961620331, 0.07020425796508789, -0.02597234398126602, 0.020640941336750984, 0.025018341839313507, 0.002140225376933813, -0.01656935177743435, 0.14950557053089142, 0.13042786717414856, 0.14559580385684967, 0.21352887153625488, 0.14824821054935455, 0.28301799297332764, -0.04197465255856514, 0.01878255419433117, -0.026011692360043526, 0.011572225019335747, -0.07588867843151093, -0.029455002397298813, 0.08017562329769135, 0.08587492257356644, 0.029039282351732254, 0.08255485445261002, 0.024144932627677917, 0.09425437450408936, -0.06387306749820709, 0.03839224576950073, 0.06304734945297241, 0.08769900351762772, 0.07350480556488037, 0.08615709096193314, -0.039342768490314484, 0.12839165329933167, 0.10313593596220016, 0.06880529969930649, 0.0946752205491066, 0.12044800817966461, 0.07648566365242004, 0.04684735834598541, 0.132140651345253, 0.10423968732357025, 0.12442565709352493, 0.10297112166881561, 0.005900393705815077, 0.02103693224489689, 0.02354295924305916, 0.0884513184428215, 0.013708986341953278, 0.10511036962270737, 0.05580392852425575, 0.03453534469008446, -0.004367047920823097, -0.0770312026143074, -0.027771618217229843, -0.041925519704818726, 0.0016044073272496462, -0.02547423169016838, 0.02727123163640499, 0.030362574383616447, -0.013218498788774014, 0.03944821655750275, 0.0191118773072958, 0.0267812367528677, -0.029365671798586845, 0.013638302683830261, -0.049336500465869904, -0.026402654126286507, 0.15256436169147491, 0.04576018825173378, 0.019528670236468315, -0.004396255128085613, 0.003049584338441491, 0.024302177131175995, -0.16030816733837128, -0.04433798789978027, -0.02279217354953289, -0.03929927572607994, -0.04579874128103256, -0.06818414479494095, 0.15690888464450836, -0.015252371318638325, -0.07903808355331421, -0.060805946588516235, -0.064528688788414, -0.07073797285556793, 0.0013700226554647088, -0.07531948387622833, -0.042916473001241684, -0.05042136460542679, -0.08830317854881287, -0.07608717679977417, -0.4005477726459503, 0.003274525748565793, 0.0023697027936577797, 0.0093509741127491, 0.018395863473415375, -0.020507173612713814, -0.2674039304256439, 0.03813285753130913, -0.010418759658932686, 0.05484902486205101, 