{"version": "0.7.0", "metadata": {"date": {"year": 2026, "month": 6, "day": 29, "hour": 10, "minute": 38, "second": 17}, "loudness": -17.786846219390995, "gain": 0.622923162567086, "training": {"settings": {"ignore_checks": false}, "data": {"latency": {"manual": null, "calibration": {"algorithm_version": 1, "delays": [-9], "safety_factor": 1, "recommended": -10, "warnings": {"matches_lookahead": false, "disagreement_too_high": false, "not_detected": false}}}, "checks": {"version": 3, "passed": true}}, "validation_esr": null}}, "architecture": "SlimmableContainer", "config": {"submodels": [{"max_value": 0.5, "model": {"version": "0.7.0", "metadata": {"date": {"year": 2026, "month": 6, "day": 29, "hour": 10, "minute": 38, "second": 17}, "loudness": -18.23988538870252, "gain": 0.6473200687046161}, "architecture": "WaveNet", "config": {"layers": [{"input_size": 1, "condition_size": 1, "head": {"out_channels": 1, "kernel_size": 16, "bias": true}, "channels": 3, "kernel_sizes": [6, 6, 6, 6, 6, 6, 6, 6, 6, 6, 6, 6, 6, 6, 15, 15, 6, 6, 6, 6, 6, 6, 6], "dilations": [1, 3, 7, 17, 41, 101, 239, 1, 3, 7, 17, 41, 101, 239, 1, 13, 1, 3, 7, 17, 41, 101, 239], "activation": [{"type": "LeakyReLU", "negative_slope": 0.01}, {"type": "LeakyReLU", "negative_slope": 0.01}, {"type": "LeakyReLU", "negative_slope": 0.01}, {"type": "LeakyReLU", "negative_slope": 0.01}, {"type": "LeakyReLU", "negative_slope": 0.01}, {"type": "LeakyReLU", "negative_slope": 0.01}, {"type": "LeakyReLU", "negative_slope": 0.01}, {"type": "LeakyReLU", "negative_slope": 0.01}, {"type": "LeakyReLU", "negative_slope": 0.01}, {"type": "LeakyReLU", "negative_slope": 0.01}, {"type": "LeakyReLU", "negative_slope": 0.01}, {"type": "LeakyReLU", "negative_slope": 0.01}, {"type": "LeakyReLU", "negative_slope": 0.01}, {"type": "LeakyReLU", "negative_slope": 0.01}, {"type": "LeakyReLU", "negative_slope": 0.01}, {"type": "LeakyReLU", "negative_slope": 0.01}, {"type": "LeakyReLU", "negative_slope": 0.01}, {"type": "LeakyReLU", "negative_slope": 0.01}, {"type": "LeakyReLU", "negative_slope": 0.01}, {"type": "LeakyReLU", "negative_slope": 0.01}, {"type": "LeakyReLU", "negative_slope": 0.01}, {"type": "LeakyReLU", "negative_slope": 0.01}, {"type": "LeakyReLU", "negative_slope": 0.01}], "bottleneck": 3, "head1x1": {"active": false, "out_channels": 1, "groups": 1}, "layer1x1": {"active": true, "groups": 1}, "groups_input": 1, "groups_input_mixin": 1, "conv_pre_film": {"active": false, "shift": true, "groups": 1}, "conv_post_film": {"active": false, "shift": true, "groups": 1}, "input_mixin_pre_film": {"active": false, "shift": true, "groups": 1}, "input_mixin_post_film": {"active": false, "shift": true, "groups": 1}, "activation_pre_film": {"active": false, "shift": true, "groups": 1}, "activation_post_film": {"active": false, "shift": true, "groups": 1}, "layer1x1_post_film": {"active": false, "shift": true, "groups": 1}, "head1x1_post_film": {"active": false, "shift": true, "groups": 1}, "gating_mode": ["none", "none", "none", "none", "none", "none", "none", "none", "none", "none", "none", "none", "none", "none", "none", "none", "none", "none", "none", "none", "none", "none", "none"], "secondary_activation": [null, null, null, null, null, null, null, null, null, null, null, null, null, null, null, null, null, null, null, null, null, null, null], "slimmable": null}], "head": null, "head_scale": 0.005977518990781967}, "weights": [0.15853504836559296, -0.8526264429092407, -1.0107150077819824, 0.06756789982318878, -0.12142065912485123, 0.18269802629947662, -0.2816678285598755, -0.002252286532893777, -0.11240136623382568, -0.2032468020915985, 0.06157781183719635, -0.1663600206375122, 0.11743050813674927, -0.3105049133300781, 0.12366879731416702, -0.2183152288198471, 0.24778032302856445, -0.2152826488018036, 0.41986167430877686, -0.37121328711509705, 0.2736653983592987, 0.08674466609954834, 0.04638754948973656, -0.25074994564056396, 0.01804094761610031, 0.14995473623275757, -0.04580343887209892, 0.167181596159935, -0.36737704277038574, 0.30565252900123596, 0.6423964500427246, -0.460907518863678, -0.24113400280475616, 0.21611733734607697, -0.2488507628440857, 0.4584052562713623, 0.8844938278198242, -0.2583906650543213, -0.3319099545478821, -0.08389925211668015, 0.07951046526432037, -0.05329803749918938, -0.16051852703094482, -0.06123243272304535, -0.01165930274873972, 0.09234365820884705, 0.17411646246910095, 0.02748831920325756, 0.28634271025657654, 0.027251897379755974, 0.09535376727581024, 0.04328432306647301, 0.02473236620426178, 0.18150238692760468, 0.1617790162563324, -0.2594625651836395, -0.08422401547431946, 0.3907429575920105, -0.07529675960540771, 0.3420235514640808, 0.1574546843767166, 0.7687442302703857, 0.26128700375556946, -0.5420408248901367, 0.8767758011817932, -0.10265405476093292, 0.341481477022171, 0.7282715439796448, -0.5026686787605286, -0.5921745300292969, 0.336824893951416, -0.049770548939704895, 0.27552440762519836, -0.5120878219604492, -0.07731086015701294, -0.05942597985267639, -0.2399480938911438, -0.21381554007530212, -0.0327274315059185, -0.3109406530857086, -0.23531469702720642, -0.12205272167921066, -0.05383380129933357, 0.017194099724292755, -0.18478916585445404, -0.20238742232322693, -0.1461695283651352, 0.12672625482082367, 0.012522212229669094, -0.12066918611526489, -0.025828516110777855, -0.0770440325140953, -0.10766574740409851, 0.009977959096431732, 0.287509024143219, 0.24715319275856018, 0.11406130343675613, 0.6525534987449646, -0.43831679224967957, 0.06147637590765953, -0.2868068516254425, -0.26559269428253174, 0.016330081969499588, -0.22981524467468262, 0.1444379687309265, -0.23947742581367493, -0.1258537769317627, -0.13642311096191406, 0.09849037975072861, -0.11934386193752289, -0.3050992786884308, 0.170942023396492, -0.028606535866856575, 0.10000861436128616, -0.04904559627175331, 0.04271450638771057, 0.27642467617988586, -0.27253761887550354, 0.15697969496250153, -0.22094212472438812, -0.05507326126098633, -0.27874284982681274, -0.2741301655769348, 0.14731992781162262, -0.07486552745103836, 0.347563236951828, 0.15500493347644806, 0.1705467253923416, -0.10301236063241959, 0.18336834013462067, 0.3214411437511444, 0.4026164412498474, -0.049417659640312195, 0.5138205885887146, 0.9416617155075073, -0.31087690591812134, 0.31943899393081665, -0.6091784238815308, 0.027329977601766586, 0.4180774390697479, 0.2522661089897156, -0.5137693881988525, -0.5977317690849304, -0.24155837297439575, 0.3609837293624878, -0.168109729886055, 0.30678054690361023, 0.11974967271089554, 0.10029742121696472, 0.13027985394001007, 0.06965561211109161, -0.03149782866239548, -0.025276154279708862, 0.16876307129859924, 0.13149650394916534, 0.12056294083595276, 0.09414747357368469, 0.11654691398143768, 0.12474645674228668, 0.16963985562324524, 0.14120106399059296, 0.34536829590797424, 0.3770371973514557, 0.06351704150438309, -0.021290935575962067, -0.10229944437742233, -0.05330939590930939, 0.20233818888664246, 0.05427652969956398, -0.01391539629548788, -0.26146626472473145, 0.11509553343057632, 0.28170937299728394, -0.09809896349906921, -0.034699659794569016, 0.40322044491767883, -0.20851397514343262, 0.012584461830556393, 0.035245630890131, 0.09981001168489456, 0.1056833416223526, -0.04768746346235275, -0.29654404520988464, 0.09524640440940857, 0.16849607229232788, -0.008611354045569897, 0.10520891845226288, 0.0947384387254715, 0.22643567621707916, 0.04683035612106323, -0.055177103728055954, 0.28285300731658936, 0.5022608637809753, 0.08703731745481491, 0.03394579514861107, -0.06703983247280121, -0.18608272075653076, -0.24994663894176483, -0.1458015888929367, 0.15953588485717773, 0.15092921257019043, -0.1417931169271469, -0.16914404928684235, 0.19765330851078033, -0.2727282643318176, -0.3162820339202881, -1.0463201999664307, -0.10919477790594101, 0.5505260825157166, -0.07612895220518112, -0.5079506039619446, -0.10719875246286392, 0.5268797874450684, -0.017785580828785896, 0.3754710555076599, 0.433803528547287, 0.19818808138370514, -0.10842052847146988, 0.5117188096046448, -0.1081681028008461, -0.05536830425262451, -0.14351487159729004, 0.14175821840763092, -0.16643255949020386, -0.1062513217329979, 0.03900275006890297, 0.02222195826470852, -0.20153629779815674, 0.25592055916786194, 0.07399525493383408, -0.009895634837448597, -0.010925150476396084, -0.0049199596978724, 0.12301655858755112, 0.19247090816497803, -0.12449979782104492, -0.1926252394914627, 0.069875068962574, 0.02960585616528988, -0.04095492511987686, 0.09384791553020477, -0.25218716263771057, 0.721920371055603, 0.0012850288767367601, 0.02420579083263874, -0.011259074322879314, 0.05340546369552612, -0.00042859656969085336, 0.10459282249212265, 0.014282453805208206, 0.0005837867502123117, 0.02420368418097496, -0.007223529275506735, -0.0522695817053318, 0.16830751299858093, 0.06746284663677216, 0.023089347407221794, 0.03886691853404045, 0.14947308599948883, -0.0021308574359863997, 0.3789658844470978, -0.02692563459277153, -0.01074028480798006, -0.02897750958800316, -0.0012814290821552277, -0.24522562325000763, 0.47269001603126526, 0.004540846683084965, -0.004913559183478355, -0.029109949246048927, -0.09301254153251648, -0.09912565350532532, 0.14629881083965302, -0.0004504286334849894, -0.2021985650062561, -0.14986708760261536, -0.1521444469690323, 0.2252805531024933, -0.3091711103916168, 0.040646638721227646, 0.29764699935913086, -0.3723278045654297, -0.19030123949050903, 0.17872633039951324, 0.011219344101846218, -0.04222016781568527, 0.2811190187931061, -0.1213286966085434, -0.23840178549289703, -0.36194416880607605, 0.5261746644973755, -0.0068605574779212475, 0.022832928225398064, 0.07957347482442856, 0.03485269844532013, 0.18791313469409943, 0.08642017096281052, 0.055394940078258514, 0.08725076913833618, 0.007658030372112989, 0.04319317638874054, -0.08642160892486572, 0.48856064677238464, 0.019159583374857903, -0.0013546788832172751, 0.02897261083126068, 0.008265034295618534, 0.02402651309967041, -0.05798158049583435, -0.0511191226541996, -0.016399674117565155, -0.019900599494576454, -0.11273755878210068, -0.024696245789527893, -0.3180662989616394, -0.07104372978210449, -0.059229493141174316, -0.01570941135287285, -0.01146662887185812, -0.2923741042613983, 0.021574463695287704, -0.0007046171231195331, -0.004923055414110422, -0.021740490570664406, -0.03801938146352768, 0.15708206593990326, 0.064022496342659, 0.025861933827400208, 0.007505328394472599, -0.028102796524763107, 0.023540440946817398, -0.05546550825238228, 0.022573476657271385, -0.012216685339808464, -0.08706202358007431, -0.08259020000696182, 0.0184004046022892, -0.06479528546333313, -0.02890923246741295, 0.01495242491364479, 0.030207272619009018, 0.02630603313446045, 0.0561811737716198, -0.10882115364074707, 0.09934056550264359, -0.3528144955635071, 0.020064406096935272, 0.3191627562046051, 0.3957459628582001, 0.16814637184143066, 0.19204585254192352, -0.1511969119310379, 0.13526639342308044, 0.0030571187380701303, -0.40330415964126587, -0.04667593166232109, 0.15513713657855988, -0.48071175813674927, -0.14850793778896332, -0.1115436926484108, -0.20908395946025848, -0.0622454397380352, 0.28116464614868164, -0.040698595345020294, -0.07070104032754898, -0.034164756536483765, -0.11212494224309921, -0.13246963918209076, -0.03313079848885536, -0.030690522864460945, -0.12826722860336304, -0.12299410253763199, -0.0932515412569046, -0.0749606192111969, 0.11812862008810043, 0.021294374018907547, 0.05072978511452675, 0.04019514471292496, 0.04767661541700363, 0.011933697387576103, 0.1897045522928238, 0.0014620632864534855, 0.009213190525770187, -0.012023606337606907, 0.012255298905074596, 0.009909297339618206, 0.23709766566753387, -0.015448740683495998, -0.016932092607021332, -0.023274429142475128, 0.0022250500041991472, -0.0037409337237477303, -0.2859705090522766, 0.009858344681560993, 0.0024877781979739666, 0.006236555986106396, 0.001807551016099751, 0.000626359018497169, -0.3046115040779114, -0.017503751441836357, 0.021233931183815002, -0.05724412575364113, 0.03800147771835327, 0.051788900047540665, 0.2479272037744522, 0.03108135238289833, -0.01814362406730652, -0.0003031556261703372, 0.014720907434821129, 0.0045750876888632774, 0.32022392749786377, -0.007843638770282269, -0.006214143242686987, -0.003938848152756691, -0.0017758841859176755, -0.007351523730903864, 0.2739769220352173, -0.1356336921453476, 0.050134606659412384, -0.22229844331741333, 0.6549521684646606, -0.5370230674743652, 0.02922753430902958, 0.18626809120178223, -0.024793677031993866, -0.30205655097961426, 0.07442578673362732, 0.0047882660292088985, -0.22102241218090057, -0.13588982820510864, -0.23391559720039368, -0.08826715499162674, -0.4251539409160614, -0.038481004536151886, -0.4768615961074829, 0.069783516228199, 0.09985366463661194, 0.05634743347764015, 0.034963566809892654, 0.03870927914977074, -0.12280269712209702, -0.14288519322872162, -0.04634593427181244, 0.03574288263916969, -0.09382283687591553, -0.02697618305683136, -0.20086927711963654, 0.03486473485827446, -0.024358682334423065, -0.15695226192474365, -0.09621439129114151, -0.04840361326932907, -0.026447048410773277, 0.07704351097345352, -0.07042360305786133, -0.07423440366983414, -0.015932008624076843, 0.1564372330904007, 0.22178080677986145, -0.06633497029542923, 0.014327362179756165, -0.035777442157268524, 0.023434370756149292, -0.03281053155660629, -0.0259211715310812, -0.008034531027078629, -0.0058733513578772545, -0.015916947275400162, 0.00010732254304457456, -0.0042725070379674435, 0.03829340636730194, -0.0010294499807059765, 0.0005575850955210626, 0.003074835054576397, 0.009224721230566502, -0.00022844858176540583, 0.03262736275792122, 0.0034867585636675358, 0.0060785915702581406, 0.012607147917151451, 0.01190254557877779, 0.02261839248239994, -0.3940940797328949, 0.0003622759541030973, 0.00010376679711043835, -0.0008481162367388606, -0.003900686278939247, -0.004957342520356178, -0.0839638039469719, -0.021463604643940926, 0.049965690821409225, 0.4382573664188385, -0.16471333801746368, 0.1862819790840149, -0.3887695372104645, 0.016977449879050255, 0.3106786012649536, 0.43223661184310913, -0.01591643877327442, 0.03575608506798744, 0.1699683517217636, 0.0005934503278695047, 0.06801261007785797, 0.3683851361274719, 0.2542673349380493, -0.27773037552833557, 0.031017417088150978, -0.07720621675252914, 0.04575946182012558, -0.02657250314950943, 0.14283040165901184, -0.10168756544589996, 0.14160284399986267, -0.180365189909935, -0.01808961294591427, -0.1805090755224228, 0.10055076330900192, 0.1682025045156479, 0.1945190727710724, -0.3082715570926666, -0.3824847936630249, -0.035538818687200546, 0.06496481597423553, 0.4630650281906128, 0.21760272979736328, -0.07278373092412949, -0.0026483717374503613, 0.2768332064151764, -0.27140992879867554, -0.24385380744934082, -0.02373056858778, 0.2673788368701935, -0.08762931078672409, -0.11886777728796005, 0.006715821102261543, -0.030724499374628067, -0.2425040900707245, -0.08106521517038345, 0.41322824358940125, -0.4622856676578522, -0.2475348860025406, 0.41066452860832214, -0.18409830331802368, -0.11001897603273392, 0.049799274653196335, 0.09150982648134232, -0.02994399517774582, -0.020968226715922356, 0.20013374090194702, -0.24339742958545685, -0.05745669826865196, -0.09862938523292542, -0.3870829939842224, 0.05358245596289635, -0.2661983072757721, -0.1906360536813736, -0.11120915412902832, -0.10633613914251328, 0.2482513189315796, -0.2810409963130951, 0.5049571990966797, 0.1884714812040329, -0.07458417117595673, 0.11954208463430405, -0.039420828223228455, -0.4492545425891876, -0.0702923834323883, 0.4818810522556305, 0.6327322125434875, -0.23502877354621887, 0.6180715560913086, 0.5001696348190308, -0.10132873803377151, 0.44224780797958374, 0.4464286267757416, -0.5591736435890198, -0.1542218178510666, -0.09589053690433502, 0.2033669650554657, 0.14945726096630096, 0.051353901624679565, 0.36649972200393677, 0.25982657074928284, 0.22748176753520966, -0.11301960051059723, -0.23981407284736633, -0.009701848961412907, -0.02680189535021782, -0.10913868993520737, -0.07903335988521576, -0.039711322635412216, 0.356526255607605, 0.24104173481464386, 0.29726535081863403, -0.03260728716850281, -0.26003336906433105, -0.582091748714447, -0.05134276673197746, -0.09163065254688263, 0.15680739283561707, -0.12020660936832428, -0.04673653468489647, -0.45911940932273865, -0.21540434658527374, -0.02261529117822647, -0.37951722741127014, -0.3243694305419922, -0.04633399844169617, -0.22778946161270142, 0.172725111246109, 0.040147483348846436, 0.19793066382408142, 0.1720145344734192, -0.14727015793323517, -0.10936468839645386, -0.29047656059265137, -0.33661746978759766, -0.22780939936637878, -0.3610546588897705, -0.11215120553970337, 0.08542611449956894, -0.14171475172042847, 0.045378848910331726, 0.11163463443517685, -0.1572030782699585, -0.031124450266361237, 0.07014665007591248, -0.06162075698375702, -0.1933325231075287, -0.21834681928157806, -0.261391282081604, 0.13865680992603302, 0.49956178665161133, 0.08980689942836761, -0.007809363305568695, 0.2647300660610199, 0.28482046723365784, 0.03231215104460716, -0.015399912372231483, -0.3606261909008026, -0.3689659535884857, 0.7196217179298401, 0.13409306108951569, -0.12650161981582642, -0.023234039545059204, -0.3164583444595337, -0.7081971764564514, 0.28521546721458435, 0.11792294681072235, 0.3206644356250763, 0.09094154089689255, 0.013646135106682777, 0.006421098485589027, -0.019886493682861328, -0.11205107718706131, 0.23439213633537292, -0.7273096442222595, 0.07743155211210251, -0.019992241635918617, 0.030476093292236328, -0.07778897136449814, 0.3188028037548065, -0.14285558462142944, -0.010940439067780972, -0.013412334956228733, -0.00968487374484539, 0.05333217605948448, 0.093717060983181, -0.4321783483028412, -0.07004644721746445, -0.07277324050664902, 0.09513576328754425, -0.09104602783918381, 0.19436639547348022, -0.32238417863845825, 0.02567880228161812, -0.16173747181892395, -0.05295390263199806, 0.021001020446419716, 0.15906494855880737, 0.0879877358675003, 0.046083301305770874, 0.1250055432319641, -0.07212745398283005, 0.06736037135124207, 0.5463346242904663, -0.7012390494346619, -0.20747189223766327, -0.1290024220943451, -0.26982051134109497, 0.06056202948093414, -0.057312555611133575, -0.3272629380226135, 0.02580789476633072, 0.06423937529325485, 0.17636094987392426, 0.1382504552602768, 0.053764231503009796, 0.797655463218689, 0.117343470454216, 0.02954084984958172, 0.21852189302444458, 0.16345234215259552, -0.34303906559944153, -0.09381444752216339, -0.5447118878364563, -0.3562909662723541, 0.06402067095041275, -0.0759458914399147, 0.03080132231116295, 0.6349077224731445, 0.953728973865509, -0.061272334307432175, -0.17730598151683807, 0.2986087203025818, -0.16344961524009705, -0.20642554759979248, 0.3410246968269348, 0.6777114868164062, 0.43017342686653137, 0.12318215519189835, 0.35050690174102783, 0.48380404710769653, 0.12545673549175262, 0.27556315064430237, 0.19172817468643188, 0.31457969546318054, 0.24117746949195862, 0.8993866443634033, -0.2342967540025711, -0.10639090836048126, 0.048993393778800964, -0.18683630228042603, -0.07699254155158997, -0.24595941603183746, 0.1597805619239807, 0.08102813363075256, 0.009751372039318085, 0.04679588973522186, 0.12881480157375336, -0.36279624700546265, -0.018600130453705788, -0.02443789504468441, -0.030373025685548782, -0.032575830817222595, -0.05151126906275749, -0.8038426637649536, 0.005448388867080212, 0.02006698213517666, 0.04772412031888962, -0.036797698587179184, 0.03903234377503395, -0.5366125702857971, 0.019668782129883766, 0.01439895574003458, 0.02411693148314953, 0.06277453154325485, 0.07537703961133957, -0.10989440977573395, 0.04957735165953636, 0.07032400369644165, 0.12847182154655457, 0.17088548839092255, 0.36621391773223877, 1.174177646636963, -0.05933745205402374, -0.017782382667064667, 0.027877716347575188, -0.0693480372428894, 0.0018573524430394173, -0.24699652194976807, -0.022706639021635056, -0.031510964035987854, -0.1372552216053009, -0.2267867773771286, -0.36914026737213135, 0.965682327747345, 0.19368089735507965, -0.22179944813251495, 0.09143634140491486, -0.09453662484884262, 0.8451970219612122, -0.4336365759372711, -0.5923120379447937, 0.5991213321685791, 0.8867290019989014, 0.3079204261302948, 0.416911244392395, 0.3911972939968109, 0.5157888531684875, 0.5704635381698608, -0.2529655694961548, 0.11935852468013763, 0.44515708088874817, -0.4568999409675598, -0.011661224067211151, -0.09504424780607224, -0.15863610804080963, -0.06421098858118057, -0.11629708856344223, 0.4820997714996338, -0.04740668460726738, 0.13034743070602417, 0.2342408448457718, 0.15606644749641418, 0.21343828737735748, 0.43247219920158386, 0.0802195742726326, 0.08138272911310196, 0.11238975077867508, 0.0748785063624382, 0.1620570868253708, 0.10823910683393478, -0.13928258419036865, -0.1296563744544983, -0.14855803549289703, -0.14688865840435028, -0.11540999263525009, -0.22586123645305634, 0.14471644163131714, 0.20872943103313446, 0.3208737075328827, 0.2192617803812027, 0.14530318975448608, 0.65131676197052, 0.19215033948421478, 0.16981536149978638, 0.08466339856386185, 0.12233489006757736, -0.0024899605195969343, -0.33655768632888794, 0.04841236025094986, 0.05512205511331558, 0.08575001358985901, 0.08297116309404373, 0.07348302751779556, 0.8970714211463928, -0.06963684409856796, -0.09012090414762497, -0.15284916758537292, -0.11461715400218964, -0.13802139461040497, -0.03405306115746498, -0.0692232996225357, -0.06739158183336258, -0.06989958882331848, -0.05739375576376915, -0.18001562356948853, 0.40544989705085754, -0.40781334042549133, 0.04525555670261383, 0.3036097586154938, 0.12318664789199829, 0.9358075261116028, -0.07499445974826813, 0.27007564902305603, 0.16751962900161743, 0.3549084961414337, -0.6307934522628784, -0.3035694658756256, 0.7772783637046814, 0.5700050592422485, 0.5497282147407532, -0.2728493809700012, -0.662244439125061, 0.3481219410896301, -0.26761651039123535, -0.024349911138415337, -0.02728116326034069, -0.017071135342121124, -0.03383832424879074, -0.023246755823493004, -0.15721724927425385, 0.09090913832187653, 0.058019008487463, 0.02571619115769863, 0.041637271642684937, -0.008397053927183151, -0.6412544846534729, -0.1403692066669464, -0.07261690497398376, -0.012635402381420135, 0.004036283120512962, 0.07084587961435318, 0.07497454434633255, -0.0021764824632555246, -0.01863587461411953, -0.030080657452344894, -0.06848173588514328, -0.04704805836081505, -0.7117100954055786, -0.10929171741008759, -0.05320882424712181, -0.02473536692559719, 0.020611431449651718, 0.04398471489548683, -0.2786952555179596, 0.3040259778499603, 0.21476535499095917, 0.20567482709884644, 0.25693124532699585, 0.15877388417720795, -0.030627397820353508, -0.06942351907491684, -0.03497110307216644, -0.04568825289607048, -0.04433982074260712, -0.050971370190382004, -0.30388590693473816, 0.15196998417377472, 0.07715372741222382, 0.07468893378973007, 0.07639998942613602, 0.09402233362197876, -0.6409889459609985, -0.06562356650829315, -0.03295597434043884, 0.011632317677140236, 0.006053712218999863, 0.004174061119556427, 0.3893648684024811, 0.2939993143081665, 0.3617869019508362, -0.04875269532203674, 0.2680680751800537, 0.6121243834495544, 0.21221128106117249, -0.3192967474460602, 0.29527634382247925, 0.16587844491004944, 0.07958956807851791, -0.3990228474140167, 0.31523266434669495, -0.17415057122707367, -0.2928120493888855, -0.5793119668960571, -0.39728063344955444, -0.4600934684276581, 0.30204638838768005, -0.08293665200471878, -0.07874221354722977, -0.07231921702623367, -0.03979314863681793, -0.018595291301608086, 0.06651491671800613, 0.17602379620075226, 0.15248116850852966, 0.14108243584632874, 0.10487440973520279, 0.09374866634607315, -0.19076432287693024, -0.08648990094661713, -0.06463084369897842, -0.06874252110719681, -0.09442394226789474, -0.08190213888883591, 0.06988781690597534, 0.01891806162893772, 0.02558317221701145, 0.019642459228634834, 0.015409842133522034, 0.004838047083467245, -0.6652054786682129, -0.018819967284798622, -0.03070061095058918, -0.029560774564743042, -0.02738645114004612, -0.02366659976541996, -0.5544453263282776, -0.007402174174785614, 0.004906452260911465, 0.015751533210277557, 0.009023572318255901, 0.01212758757174015, -0.2456454485654831, -0.07411599904298782, -0.06606780737638474, -0.060679417103528976, -0.058752987533807755, -0.07459703832864761, 0.4840092360973358, 0.17389200627803802, 0.16191881895065308, 0.15760618448257446, 0.16180504858493805, 0.18806196749210358, 0.004124079365283251, -0.1063867136836052, -0.1080264076590538, -0.11309606581926346, -0.11678317189216614, -0.13103768229484558, 0.7309732437133789, 0.022146299481391907, 0.01705966889858246, -0.01167303416877985, 0.3963201940059662, 0.42755043506622314, -0.19402651488780975, -0.5502824783325195, -0.08597338944673538, 0.07043277472257614, 0.25991290807724, -0.4525119960308075, 0.7808356285095215, -0.04109715670347214, 0.5181735157966614, -0.7588238716125488, -0.6906030774116516, -0.2333211898803711, -0.5763740539550781, -0.013365874998271465, 0.08263207226991653, -0.002572090132161975, 0.01715363748371601, -0.14993873238563538, -0.075686976313591, -0.0003148461109958589, 0.023402780294418335, 0.025888076052069664, -0.12915004789829254, -0.1726507991552353, 0.03552911803126335, -0.31703680753707886, -0.19318947196006775, -0.2974604666233063, 0.05425815284252167, 0.04081231355667114, -0.08416423201560974, -0.004445692058652639, 0.09603720158338547, 0.08116037398576736, -0.01127018965780735, 0.16249307990074158, 0.04020364210009575, -0.38596752285957336, -0.17455066740512848, -0.10389146208763123, -0.4319693446159363, -0.37310704588890076, -0.3230402171611786, 0.00773001229390502, 0.06221415102481842, -0.016163578256964684, -0.08557066321372986, -0.01631045900285244, -0.006422095932066441, -0.13683904707431793, 0.020609915256500244, 0.2121201455593109, -0.09660852700471878, 0.02054709568619728, 0.6973226070404053, 0.6461248993873596, 0.360772043466568, -0.570278525352478, -0.047177575528621674, 0.03189843147993088, -0.015867870301008224, -0.07946108281612396, -0.03028031811118126, -0.09964379668235779, -0.05462045967578888, -0.1292966902256012, 0.1973009556531906, -0.10288034379482269, 0.6022308468818665, -0.08520063757896423, 0.49901941418647766, 0.0005159961874596775, -0.008040514774620533, 0.018020369112491608, -0.04798769950866699, 0.07912467420101166, -0.009168549440801144, 0.058917369693517685, 0.02176314778625965, 0.12197024375200272, -0.09377015382051468, 0.04973648115992546, -0.06903079152107239, 0.4451322853565216, -0.026266973465681076, 0.3022421896457672, -0.13782554864883423, 0.017181554809212685, -0.0711124986410141, 0.04952679201960564, -0.02068164385855198, -0.1432393491268158, -0.1770944446325302, -0.16270829737186432, -0.18049344420433044, 0.06616521626710892, -0.1824755221605301, -0.12841090559959412, 0.11801471561193466, 0.20941293239593506, 0.02958556078374386, -0.32803085446357727, 0.09826147556304932, 0.01573769748210907, 0.037958063185214996, -0.04477589949965477, -0.021309779956936836, -0.03691912442445755, -0.025314871221780777, 0.2221733033657074, -0.10560876876115799, -0.14852449297904968, 0.12197433412075043, 0.012782120145857334, -0.19094353914260864, -0.1669459044933319, -0.4047050476074219, -0.4858371913433075, -0.012477542273700237, 0.043067920953035355, -0.08740188926458359, 0.17610982060432434, -0.027551202103495598, 0.07578833401203156, 0.05966775119304657, -0.10592662543058395, -0.1260957419872284, 0.17288757860660553, -0.0877993106842041, -0.1125156506896019, -0.10690924525260925, -0.2202608734369278, -0.22608833014965057, 0.1666220873594284, 0.13595476746559143, -0.05328470468521118, 0.1594962477684021, 0.16591212153434753, 0.051213961094617844, 0.14807672798633575, 0.14202558994293213, -0.03884916752576828, 0.10091190785169601, 0.01029179897159338, 0.24402600526809692, 0.3256901800632477, 0.058886609971523285, -0.45640066266059875, 0.033262137323617935, -0.7732817530632019, 0.16611090302467346, 0.6331002712249756, -0.20534072816371918, 0.7189919352531433, -0.45732757449150085, 0.45048418641090393, -0.3985964357852936, -0.14628009498119354, 0.6975990533828735, -0.4114674925804138, 0.3533904552459717, 0.2946164906024933, 0.148029163479805, -0.7772077918052673, -0.12535034120082855, -0.4111469089984894, -0.0442473441362381, -0.009293762966990471, 0.025558868423104286, 0.00763160502538085, 0.06867105513811111, 0.043977104127407074, 0.022536855190992355, 0.07746151089668274, 0.035609204322099686, 0.06659068167209625, 0.11687975376844406, -0.013794482685625553, 0.06679388135671616, -0.02545047551393509, -0.30453231930732727, 0.03932083398103714, 0.010294955223798752, -0.019364628940820694, -0.0047856103628873825, -0.054285772144794464, -0.032816629856824875, -0.006465259939432144, -0.06877891719341278, -0.020505568012595177, -0.06578608602285385, -0.09056971967220306, 0.021215692162513733, -0.04676121473312378, 0.010272553190588951, -0.18589836359024048, -0.06857972592115402, -0.04674391821026802, -0.0322720929980278, 0.008596833795309067, -0.04531769081950188, -0.032415181398391724, -0.052539385855197906, -0.05287380516529083, -0.05924646556377411, -0.08856762200593948, -0.08626001328229904, -0.07258771359920502, -0.07828518003225327, -0.18699392676353455, -0.30735453963279724, -0.10990606993436813, -0.0804024189710617, -0.11226669698953629, -0.10320882499217987, -0.05261779576539993, -0.09512542188167572, -0.13865511119365692, -0.0669790506362915, -0.101377934217453, -0.030747463926672935, -0.11780928820371628, -0.1706584095954895, -0.1653216928243637, 0.023235047236084938, 1.1805380582809448, 0.09675988554954529, 0.0726042166352272, 0.09234898537397385, 0.08571507036685944, 0.05760900303721428, 0.07885342091321945, 0.11703598499298096, 0.06970184296369553, 0.10257816314697266, 0.024024590849876404, 0.10241061449050903, 0.1354656219482422, 0.1752815544605255, -0.03895564749836922, 0.49536946415901184, -0.038309309631586075, -0.017428290098905563, -0.04980216547846794, -0.02553235925734043, 0.0001230866473633796, -0.03742774575948715, -0.03273414447903633, -0.012740564532577991, -0.018287329003214836, -0.010141244158148766, -0.06142810732126236, -0.06210365518927574, -0.01885692961513996, 0.04486764594912529, 0.03705552965402603, -0.12050055712461472, -0.11608986556529999, -0.10975755006074905, -0.10130798816680908, -0.07571355998516083, -0.08724606037139893, -0.10967667400836945, -0.06733303517103195, -0.08930859714746475, -0.09737326949834824, -0.1034044623374939, -0.1122557669878006, -0.12934023141860962, -0.05582671985030174, 0.7523354887962341, 0.10008959472179413, 0.09986811876296997, 0.08738435804843903, 0.08322898298501968, 0.07193303108215332, 0.06989961862564087, 0.09235171228647232, 0.06459947675466537, 0.07730326801538467, 0.08335341513156891, 0.1016707718372345, 0.08360490947961807, 0.13176275789737701, 0.002433671383187175, 0.7553674578666687, -0.0650181770324707, -0.052114516496658325, -0.06474613398313522, -0.052507203072309494, -0.030837753787636757, -0.05351300537586212, -0.06544741243124008, -0.036797475069761276, -0.055687785148620605, -0.07046808302402496, -0.06827307492494583, -0.08138838410377502, -0.05997532978653908, -0.09586501866579056, 0.3237731456756592, 0.21901704370975494, -0.6158416271209717, 0.39303189516067505, 0.5377814769744873, -0.16992789506912231, -0.1062411367893219, -0.523862898349762, -0.34942615032196045, 0.3985905945301056, -0.05712621286511421, -0.182669997215271, 0.6140340566635132, 0.16934335231781006, -0.7662608027458191, 1.1592029333114624, -0.7655007243156433, -0.37831589579582214, -0.03928207606077194, -0.09592292457818985, -0.003379636909812689, -0.09541882574558258, -0.28865936398506165, -0.4506891965866089, -0.39086753129959106, 0.13511310517787933, 0.15082065761089325, -0.13435718417167664, -0.7177199125289917, -0.46410229802131653, -0.4555378258228302, 0.13160564005374908, 0.1314513236284256, -0.6815765500068665, -0.5501499772071838, -0.635928750038147, 0.7103387713432312, -0.2035435140132904, -0.14787864685058594, 0.14199022948741913, -0.22213219106197357, 0.46170923113822937, 0.1790187507867813, 0.036203280091285706, 0.11735015362501144, 0.1902981996536255, 0.08694305270910263, 0.13147494196891785, -0.5164624452590942, -0.13783904910087585, 0.20254041254520416, -0.13079212605953217, 0.05383459851145744, 0.5076500177383423, -0.33644556999206543, -0.3457556664943695, 0.09746675938367844, 0.05036407336592674, 0.29689428210258484, -0.14950376749038696, 0.06180141121149063, -0.42018231749534607, 0.11517935246229172, 0.5458589196205139, 0.5389959812164307, 0.21785539388656616, -0.5994113087654114, -0.20908954739570618, 0.12089287489652634, -0.19385573267936707, 0.007688523270189762, -0.12077983468770981, 0.02811579406261444, 0.658492386341095, -0.13249965012073517, 0.05555478855967522, -0.5335384011268616, -0.6109700202941895, -0.2326345592737198, -0.27963733673095703, 1.0449432134628296, -0.058908428996801376, 0.2662912607192993, 0.5589187145233154, -0.05948782339692116, -0.9118386507034302, 0.382414847612381, -0.168758824467659, -0.35215112566947937, 0.4485397934913635, 0.5228880047798157, -0.031052498146891594, -0.0843028873205185, 0.022809498012065887, 0.015116323716938496, -0.4890737533569336, -0.23332703113555908, 0.0027148756198585033, -0.08741831034421921, 0.11868247389793396, 0.03180670365691185, 0.1376972198486328, 0.2672790586948395, 0.02773154340684414, 0.038335930556058884, 0.10131832212209702, 0.030004987493157387, -0.8426235318183899, -0.5140718817710876, 0.17115020751953125, 0.05709832161664963, 0.08506686985492706, -0.08684069663286209, 0.011783085763454437, 0.2576988935470581, -0.04553024470806122, -0.1019572764635086, -0.05953599140048027, 0.04857785627245903, 0.3141617178916931, 0.8333041667938232, -0.1399199217557907, -0.03722625598311424, -0.013461989350616932, 0.021371016278862953, 0.07002615928649902, 0.040177177637815475, -0.06814219802618027, -0.023537419736385345, -0.017467692494392395, -1.0636382102966309, -0.11458700895309448, 0.06933066993951797, -0.07994545251131058, 0.10203900933265686, 0.601855993270874, -1.9954346418380737, -0.3316594958305359, -0.24380220472812653, 0.013682800345122814, 0.07134503126144409, 0.21426153182983398, -0.5628828406333923, 0.3205810785293579, 0.047344040125608444, -0.09041508287191391, -0.5117586255073547, 0.24640072882175446, -0.14329664409160614, 0.007464222609996796, -0.0022926991805434227, -0.055513449013233185, -0.5892285108566284, 0.17116963863372803, -0.5585452318191528, -0.7760332226753235, 0.5152643322944641, 0.6064687967300415, -0.3211999833583832, -0.8464759588241577, -0.24432571232318878, 0.14941899478435516, -0.34428051114082336, -0.0017894094344228506, -0.09790556132793427, 0.002389967907220125, -0.12254277616739273, -0.028775202110409737, -0.17554786801338196, -0.08542021363973618, -0.13165348768234253, -0.1535455882549286, 0.0547533817589283, -0.009658614173531532, 0.16022926568984985, -0.1062345877289772, -0.09459210187196732, -0.0730491429567337, -0.043170150369405746, -0.07850386202335358, 0.22013598680496216, 0.035235852003097534, 0.06440960615873337, 0.14400917291641235, 0.1502755731344223, 0.4208332896232605, -0.28739067912101746, -0.036083344370126724, -0.08917511254549026, -0.04731973633170128, -0.11275031417608261, -0.19895727932453156, 0.9789082407951355, 0.017105164006352425, 0.027286682277917862, 0.011910744942724705, -0.11785601824522018, 0.11244574189186096, -0.548835277557373, -0.30610668659210205, -0.24171599745750427, -0.1048445999622345, -0.2810983657836914, 0.25675785541534424, 0.08265851438045502, 0.19306451082229614, 0.2013818472623825, 0.10171452909708023, 0.1767224669456482, 0.3578440546989441, 0.2899285852909088, 0.09650625288486481, 0.11274433135986328, 0.02985045500099659, 0.09148486703634262, 0.2125810831785202, -0.4351746439933777, 0.18972255289554596, -0.18413475155830383, 0.6800428628921509, -0.30425938963890076, -0.04006064683198929, 0.15791386365890503, -0.09509364515542984, 0.45706814527511597, -0.08161614090204239, -0.41998815536499023, 0.4271460771560669, 0.4500845968723297, -0.44876113533973694, -0.45271041989326477, -0.12443387508392334, 0.1284121572971344, 0.44820642471313477, -0.5036340355873108, 0.1045081838965416, -0.12148860841989517, 0.14848215878009796, 0.05838736891746521, 0.06410276889801025, -1.0729804039001465, -0.025989236310124397, 0.15063609182834625, -0.050783753395080566, -0.09653457999229431, 1.6116584447445348e-05, -0.39785829186439514, 0.014852860942482948, 0.05816410109400749, -0.0662669762969017, -0.1076827421784401, -0.0206434465944767, -0.5031007528305054, -0.08550970256328583, -0.1696198582649231, -0.18382389843463898, -0.1461542844772339, -0.04432126507163048, -0.2108040302991867, -0.0118103651329875, -0.12784141302108765, -0.23065081238746643, -0.08921918272972107, -0.20329557359218597, 0.711086630821228, -0.03120706044137478, -0.1213395744562149, -0.23725031316280365, -0.11484229564666748, -0.2624679207801819, -0.5365123152732849, -0.3470834791660309, -0.10701023042201996, -0.09737254679203033, 0.0006423523300327361, -0.03706163913011551, 0.18097101151943207, 0.18137739598751068, 0.0634012296795845, 0.09496645629405975, 0.014737986028194427, 0.05971222743391991, 0.03704743832349777, 0.11110416054725647, 0.04201708361506462, 0.08956998586654663, 0.05380202829837799, 0.006385427433997393, 0.3770562410354614, 0.32256338000297546, 0.18032802641391754, 0.17598474025726318, -0.11555950343608856, -0.14300121366977692, 0.32928934693336487, 0.3454706072807312, -0.08731106668710709, -0.5802814364433289, -0.01575038768351078, -0.740130603313446, -0.2667076289653778, -0.23894549906253815, -0.029461879283189774, 0.05328129604458809, -0.6066475510597229, -0.39237019419670105, -0.6229730844497681, -0.17887797951698303, -0.1698470413684845, -0.11909960210323334, -0.018989581614732742, -0.04385308548808098, -0.36962804198265076, 0.07085808366537094, 0.15184326469898224, 0.1109858974814415, -0.0038477012421935797, -0.08059381693601608, -0.33170178532600403, -0.02093280665576458, 0.017714573070406914, -0.02163791097700596, 0.014489668421447277, -0.1274278610944748, -0.10401742905378342, -0.1346278190612793, 0.10420364141464233, 0.05233386531472206, 0.0069862729869782925, 0.009913763031363487, 0.14488087594509125, -0.08280398696660995, -0.19017811119556427, -0.17618922889232635, -0.25868847966194153, -0.21928101778030396, 0.3205816447734833, 0.009349382482469082, 0.0430634506046772, -0.028879690915346146, -0.029761821031570435, -0.023364659398794174, -0.4288226366043091, -0.3056557774543762, -0.17902310192584991, -0.1940881758928299, 0.024680403992533684, 0.1070767343044281, 0.02674621343612671, 0.1029980406165123, -0.07936455309391022, 0.07525163888931274, 0.018066000193357468, 0.10479352623224258, 0.02732137404382229, -0.01909218169748783, 0.08618568629026413, -0.0110540222376585, -0.013239134103059769, 0.026420272886753082, 0.09335663914680481, -0.0407961830496788, -0.24603493511676788, -0.010575741529464722, -0.18471413850784302, -0.2679826021194458, -0.34091639518737793, -0.3749956786632538, 0.31355077028274536, -0.32728898525238037, 0.3072221577167511, -0.8494092226028442, 0.28399956226348877, 0.05916134640574455, 0.3453933298587799, -0.04545995593070984, -0.42008283734321594, -0.4023924469947815, -0.6440678238868713, -0.05531647801399231, -0.004551773890852928, -0.0528506375849247, -0.0451570600271225, -0.044309720396995544, -0.2058599442243576, 0.08054371178150177, 0.04808729514479637, 0.07078715413808823, 0.08814163506031036, 0.0493389256298542, -0.025047870352864265, -0.046236950904130936, -0.02786729671061039, -0.03449978679418564, -0.05997832491993904, -0.06183638051152229, -0.21256308257579803, -0.03149183839559555, 0.026515623554587364, -0.005419562570750713, 0.06415306776762009, -0.056887730956077576, -0.09678976237773895, 0.006356859114021063, 0.015341605991125107, 0.10418881475925446, 0.06982758641242981, -0.013054757378995419, 0.013587498106062412, -0.021693330258131027, -0.04753529280424118, -0.10601714253425598, -0.08692051470279694, -0.1597081571817398, -0.745918333530426, 0.04355639964342117, -0.08022955805063248, -0.07449603825807571, -0.15846499800682068, -0.06357920914888382, 0.23219357430934906, -0.16564665734767914, -0.18127694725990295, -0.23457372188568115, -0.31737592816352844, -0.3150389492511749, 0.1316254585981369, 0.09681717306375504, 0.0886741355061531, 0.12524132430553436, 0.1164240837097168, 0.22640864551067352, -0.2556934356689453, 0.08328082412481308, 0.3143177628517151, 0.4557028114795685, 0.2587753236293793, 0.17270459234714508, -0.03263334184885025, -0.4666416347026825, 0.047421395778656006, -0.6451529264450073, -0.14984886348247528, -0.16941894590854645, -0.7222315669059753, -0.32578957080841064, 0.06679582595825195, 0.12269958853721619, -0.44099071621894836, 0.5998589396476746, -0.2123604416847229, 0.06203760951757431, 0.06934857368469238, 0.04954633489251137, 0.1274506151676178, 0.08769425004720688, -0.08102644979953766, 0.12194134294986725, 0.11414334923028946, 0.34525203704833984, 0.2891831398010254, 0.3125903606414795, 0.07183553278446198, -0.0050462777726352215, 0.012902175076305866, -0.028868092224001884, -0.025827612727880478, -0.0058542718179523945, 0.03259503096342087, -0.0068848938681185246, -0.04446100816130638, -0.08856090903282166, 0.019138984382152557, -0.0651482567191124, -0.6745370030403137, 0.03810359537601471, 0.09455977380275726, 0.22211366891860962, 0.19153432548046112, 0.17635849118232727, -0.41893354058265686, -0.030271358788013458, -0.07351087778806686, -0.17815110087394714, -0.15773259103298187, -0.1499135047197342, -0.6703774333000183, 0.12819015979766846, 0.09755074232816696, 0.09847469627857208, 0.07690860331058502, 0.03916753828525543, 0.2513730823993683, 0.023583535104990005, 0.008932456374168396, 0.046915940940380096, -0.0028459783643484116, 0.020884456112980843, -0.21562492847442627, -0.05963978171348572, -0.06278050690889359, -0.06768735498189926, -0.032274309545755386, -0.06019005551934242, -0.39063596725463867, -0.002331797732040286, 0.5825858116149902, 0.04013844206929207, -0.0017245810013264418, -0.08604887872934341, 0.01213111449033022, 0.4162098467350006, -0.00858832336962223, 0.5327888131141663, 0.11612158268690109, 0.18631941080093384, -0.07476914674043655, -0.32249006628990173, -0.3899204134941101, -0.36959829926490784, -0.3457287847995758, 0.4948616325855255, -0.35605674982070923, -0.08795050531625748, 0.20618028938770294, -0.041072916239500046, 0.13640068471431732, 0.12679849565029144, 0.0029444366227835417, -0.1788995862007141, -0.26512411236763, -0.2104833722114563, -0.14110802114009857, -0.22392810881137848, -0.06889522820711136, 0.10627894103527069, 0.0949184000492096, 0.057560015469789505, 0.04185236245393753, -0.01771942339837551, -0.0698585957288742, 0.07079335302114487, -0.08464036136865616, -0.007988120429217815, -0.06915155798196793, -0.14548206329345703, -0.03597346693277359, -0.16856297850608826, 0.017182860523462296, 0.18917416036128998, 0.024184023961424828, -0.2221815139055252, -0.09404447674751282, -0.05892153084278107, -0.03960656002163887, 0.1280028373003006, 0.08335287868976593, -0.006563729606568813, 0.10097099840641022, 0.09659228473901749, 0.18740476667881012, -0.06840649992227554, 0.18265864253044128, 0.1364658772945404, 0.07585512101650238, 0.2090097814798355, 0.09639173746109009, -0.19585876166820526, 0.052075646817684174, 0.25955021381378174, 0.07914113253355026, 0.09439119696617126, 0.005977518857174006], "sample_rate": 48000}}, {"max_value": 1.0, "model": {"version": "0.7.0", "metadata": {"date": {"year": 2026, "month": 6, "day": 29, "hour": 10, "minute": 38, "second": 17}, "loudness": -17.786846219390995, "gain": 0.622923162567086}, "architecture": "WaveNet", "config": {"layers": [{"input_size": 1, "condition_size": 1, "head": {"out_channels": 1, "kernel_size": 16, "bias": true}, "channels": 8, "kernel_sizes": [6, 6, 6, 6, 6, 6, 6, 6, 6, 6, 6, 6, 6, 6, 15, 15, 6, 6, 6, 6, 6, 6, 6], "dilations": [1, 3, 7, 17, 41, 101, 239, 1, 3, 7, 17, 41, 101, 239, 1, 13, 1, 3, 7, 17, 41, 101, 239], "activation": [{"type": "LeakyReLU", "negative_slope": 0.01}, {"type": "LeakyReLU", "negative_slope": 0.01}, {"type": "LeakyReLU", "negative_slope": 0.01}, {"type": "LeakyReLU", "negative_slope": 0.01}, {"type": "LeakyReLU", "negative_slope": 0.01}, {"type": "LeakyReLU", "negative_slope": 0.01}, {"type": "LeakyReLU", "negative_slope": 0.01}, {"type": "LeakyReLU", "negative_slope": 0.01}, {"type": "LeakyReLU", "negative_slope": 0.01}, {"type": "LeakyReLU", "negative_slope": 0.01}, {"type": "LeakyReLU", "negative_slope": 0.01}, {"type": "LeakyReLU", "negative_slope": 0.01}, {"type": "LeakyReLU", "negative_slope": 0.01}, {"type": "LeakyReLU", "negative_slope": 0.01}, {"type": "LeakyReLU", "negative_slope": 0.01}, {"type": "LeakyReLU", "negative_slope": 0.01}, {"type": "LeakyReLU", "negative_slope": 0.01}, {"type": "LeakyReLU", "negative_slope": 0.01}, {"type": "LeakyReLU", "negative_slope": 0.01}, {"type": "LeakyReLU", "negative_slope": 0.01}, {"type": "LeakyReLU", "negative_slope": 0.01}, {"type": "LeakyReLU", "negative_slope": 0.01}, {"type": "LeakyReLU", "negative_slope": 0.01}], "bottleneck": 8, "head1x1": {"active": false, "out_channels": 1, "groups": 1}, "layer1x1": {"active": true, "groups": 1}, "groups_input": 1, "groups_input_mixin": 1, "conv_pre_film": {"active": false, "shift": true, "groups": 1}, "conv_post_film": {"active": false, "shift": true, "groups": 1}, "input_mixin_pre_film": {"active": false, "shift": true, "groups": 1}, "input_mixin_post_film": {"active": false, "shift": true, "groups": 1}, "activation_pre_film": {"active": false, "shift": true, "groups": 1}, "activation_post_film": {"active": false, "shift": true, "groups": 1}, "layer1x1_post_film": {"active": false, "shift": true, "groups": 1}, "head1x1_post_film": {"active": false, "shift": true, "groups": 1}, "gating_mode": ["none", "none", "none", "none", "none", "none", "none", "none", "none", "none", "none", "none", "none", "none", "none", "none", "none", "none", "none", "none", "none", "none", "none"], "secondary_activation": [null, null, null, null, null, null, null, null, null, null, null, null, null, null, null, null, null, null, null, null, null, null, null], "slimmable": null}], "head": null, "head_scale": 0.005977518990781967}, "weights": [-0.5445635914802551, -0.2979092597961426, 0.45123085379600525, 0.6399514079093933, -0.5728367567062378, -0.42360520362854004, 0.5537010431289673, 1.0504342317581177, -0.20250090956687927, 0.13202643394470215, -0.043767474591732025, -0.16953276097774506, 0.1622793823480606, 0.10489741712808609, -0.11137153953313828, 0.030479025095701218, -0.05437009409070015, -0.15610557794570923, 0.05609452724456787, 0.07168904691934586, 0.15950949490070343, -0.07872872799634933, 0.061218149960041046, 0.15909692645072937, -0.0946505144238472, -0.13850416243076324, 0.11336340755224228, -0.06142820790410042, 0.04215360805392265, 0.1796473115682602, -0.14419814944267273, -0.11516439914703369, -0.19811268150806427, 0.13806259632110596, -0.031952936202287674, -0.17992059886455536, 0.1440476030111313, 0.11021476238965988, -0.11712092161178589, 0.11393237113952637, -0.02310853637754917, -0.15098004043102264, 0.0963759496808052, 0.15176565945148468, 0.1336594671010971, -0.10796067863702774, 0.06074881926178932, 0.1375035047531128, -0.10066837817430496, -0.14702185988426208, 0.27651742100715637, -0.19825969636440277, 0.08834686130285263, 0.33077284693717957, -0.12319266051054001, -0.15687645971775055, -0.009786983020603657, 0.14517652988433838, -0.14336510002613068, 0.15239650011062622, -0.2912231385707855, 0.11925756931304932, -0.015698477625846863, 0.15025068819522858, -0.09777669608592987, 0.17496880888938904, -0.1571638137102127, 0.1235850602388382, 0.12318620085716248, -0.09993518888950348, 0.08405426144599915, -0.17942428588867188, 0.22415566444396973, -0.16475650668144226, 0.031387269496917725, -0.1088319644331932, 0.19496697187423706, -0.1514941155910492, 0.347059965133667, -0.1816592663526535, -0.08339952677488327, 0.2558397948741913, -0.19107647240161896, 0.26294583082199097, -0.2714828550815582, 0.16509629786014557, -0.09896017611026764, 0.1874982714653015, -0.17953231930732727, 0.1663733869791031, -0.22668060660362244, 0.11514521390199661, 0.13992442190647125, -0.10417979210615158, 0.19998566806316376, -0.13653482496738434, 0.3252054750919342, -0.10982567071914673, 0.03553520143032074, -0.25304096937179565, 0.16010452806949615, -0.27916231751441956, 0.4030008912086487, -0.0867689847946167, -0.09368262439966202, 0.027092372998595238, -0.05474535748362541, 0.11604447662830353, -0.19802060723304749, 0.04422222822904587, -0.02731296978890896, 0.028954986482858658, -0.0660330280661583, 0.02801639400422573, -0.11539942771196365, 0.1044071838259697, 0.12523546814918518, -0.07195470482110977, 0.12226943671703339, -0.13507352769374847, 0.16529610753059387, -0.07429839670658112, 0.1941085159778595, -0.09339013695716858, 0.040297966450452805, -0.04650386795401573, 0.2109152376651764, -0.05628121644258499, -0.06150561571121216, -0.059304606169462204, -0.06061893329024315, 0.017048951238393784, -0.12062354385852814, 0.04515561833977699, -0.1053437665104866, 0.028383050113916397, -0.12360462546348572, 0.07615549117326736, -0.17615458369255066, 0.03593404218554497, 0.12831062078475952, -0.034447845071554184, 0.08051494508981705, -0.10803350806236267, 0.08473092317581177, -0.14191995561122894, 0.19778896868228912, 0.03741776943206787, 0.15765807032585144, -0.1756131947040558, 0.19665510952472687, -0.11736804991960526, 0.026414522901177406, -0.13296560943126678, 0.16698986291885376, -0.10434436798095703, 0.18469876050949097, -0.1161046177148819, 0.025381097570061684, -0.06892968714237213, 0.0685059204697609, -0.06622663885354996, 0.12360958755016327, -0.05421002209186554, -0.02181459777057171, 0.12365136295557022, -0.12893232703208923, 0.08081651479005814, -0.16946391761302948, 0.10415096580982208, -0.07042942196130753, 0.17868871986865997, -0.18587131798267365, 0.04976930469274521, -0.21852795779705048, 0.1255820244550705, 0.04139639437198639, -0.17358267307281494, 0.14403927326202393, -0.08012104034423828, 0.2065872997045517, -0.11702689528465271, 0.03698745369911194, -0.10119819641113281, 0.1158323660492897, -0.0843711793422699, 0.17769469320774078, -0.09199249744415283, -0.0376921109855175, 0.12337600439786911, -0.13274335861206055, 0.08556369692087173, -0.19784873723983765, 0.10271982848644257, -0.05012720450758934, 0.17528624832630157, -0.25439563393592834, 0.11468755453824997, -0.3188001215457916, 0.16447019577026367, -0.20308277010917664, 0.0947049930691719, -0.18269836902618408, -0.05018732696771622, 0.34368517994880676, -0.09574653208255768, -0.11893849819898605, 0.08489508926868439, -0.11584228277206421, -0.04505544155836105, 0.18630442023277283, -0.05929314345121384, 0.1995556801557541, -0.14726217091083527, 0.13595087826251984, 0.07800993323326111, -0.2866777777671814, -0.013809895142912865, 0.15156929194927216, -0.09720537811517715, 0.18023395538330078, 0.13770519196987152, -0.26235562562942505, 0.0547959990799427, -0.20159780979156494, 0.10009433329105377, -0.20596858859062195, -0.058887649327516556, 0.2573464810848236, -0.06072748079895973, -0.20610001683235168, 0.13979288935661316, -0.2031787931919098, 0.024198593571782112, 0.25795915722846985, -0.07761649042367935, 0.2079114317893982, -0.09991464018821716, 0.23681329190731049, 0.07854614406824112, -0.36601388454437256, 0.09224175661802292, 0.21780499815940857, -0.20249183475971222, 0.3074728548526764, 0.1728738248348236, -0.46577510237693787, 0.03269665688276291, -3.227111665182747e-05, 1.492779210821027e-05, 4.3428732169559225e-05, -0.0001339392183581367, -8.892433834262192e-05, 0.00025586591800674796, 1.920358590723481e-05, 4.7150777390925214e-05, 6.23763189651072e-05, -4.6827331971144304e-05, -6.43599996692501e-05, 3.869914871756919e-05, 8.366728252440225e-06, -3.331439438625239e-05, -5.615802729153074e-05, 9.573721035849303e-05, 7.982549141161144e-05, -0.0001619454415049404, 4.994335176888853e-05, -7.838006581550871e-07, -3.567007661331445e-05, 0.00016891700215637684, 9.36358846956864e-05, -0.0003581958881113678, -4.022096254630014e-05, 8.21824596641818e-06, 3.866882616421208e-05, -0.00014673199621029198, -9.195580059895292e-05, 0.00028645843849517405, -2.72077659246861e-06, 3.694046608870849e-05, 5.831395537825301e-05, -8.606001210864633e-05, -7.739630382275209e-05, 0.0001369085512124002, 3.414905586396344e-05, -1.3527325791073963e-05, -4.255205931258388e-05, 0.00013748301716987044, 9.041629527928308e-05, -0.0002628734800964594, 0.00011203688336536288, 6.02123727730941e-05, -1.2604075891431421e-05, 0.0003281446697656065, 0.00012728263391181827, -0.0007866024388931692, -0.03813876956701279, 0.0660843774676323, -0.24345135688781738, 0.231240376830101, 0.17514252662658691, -0.18519547581672668, -0.002836058847606182, 0.02687038853764534, -0.11018913984298706, 0.14089301228523254, 0.096989706158638, -0.10494908690452576, 0.013731171377003193, -0.0634659081697464, 0.15445050597190857, -0.23341543972492218, -0.14552736282348633, 0.13434407114982605, -0.014447925612330437, -0.05434638634324074, 0.20037589967250824, -0.31080353260040283, -0.2150065302848816, 0.18332186341285706, 0.000561916152946651, 0.01922994665801525, -0.2735264003276825, 0.320094496011734, 0.18602848052978516, -0.16661101579666138, -0.01626122184097767, 0.031552355736494064, -0.17181561887264252, 0.20869283378124237, 0.15350666642189026, -0.1675729751586914, 0.01304567139595747, -0.033865999430418015, 0.1843918263912201, -0.26092788577079773, -0.13947603106498718, 0.14992401003837585, 0.039104219526052475, -0.1271575391292572, 0.3506197929382324, -0.44907909631729126, -0.18676552176475525, 0.2086125910282135, -0.1825701743364334, 0.09279009699821472, -0.012119642458856106, -0.3853083550930023, 0.18511250615119934, 0.12384197860956192, -0.10440007597208023, 0.09950476884841919, -0.19061031937599182, -0.32751286029815674, 0.1612890213727951, 0.07153858244419098, 0.10510405153036118, -0.18831926584243774, 0.09349163621664047, 0.2598249018192291, -0.27520766854286194, -0.09195461869239807, 0.046859703958034515, -0.005194197408854961, 0.015405657701194286, 0.21426153182983398, -0.2849198579788208, -0.03407891467213631, -0.05868585407733917, 0.09442149847745895, -0.1306876689195633, -0.36685118079185486, 0.21953734755516052, -0.015832114964723587, 0.028824791312217712, 0.015539247542619705, -0.13010810315608978, -0.3222188651561737, 0.20678101480007172, 0.11148207634687424, 0.1811574399471283, -0.18543082475662231, 0.0927966982126236, 0.3489622473716736, -0.17504191398620605, 0.06848770380020142, 0.09108716249465942, -0.18547490239143372, 0.18863193690776825, 0.27112799882888794, -0.19947029650211334, -0.0693841427564621, 0.050370942801237106, 0.020197488367557526, 0.3749661147594452, -0.015289739705622196, -0.031358782202005386, -0.02283233404159546, -0.03476722538471222, 0.007812273222953081, -0.2797946333885193, -0.06196761876344681, -0.1868598461151123, 0.33490586280822754, -0.42834943532943726, -0.0007354806293733418, 0.5219956636428833, -0.5572834014892578, -0.15861937403678894, -0.04172008857131004, 0.06795851141214371, -0.23345397412776947, -0.07021473348140717, 0.0024713417515158653, 0.3615034222602844, -0.111953966319561, 0.2713335156440735, -0.7157542705535889, 0.034050025045871735, -0.051825378090143204, 0.09714944660663605, -0.001091421814635396, -0.35426583886146545, 0.21425418555736542, 0.08748900145292282, 0.22024451196193695, 0.13422957062721252, -0.04518221318721771, 0.5483165979385376, 0.0014588533667847514, 0.2725067436695099, 0.2165437787771225, 0.23103469610214233, -0.3029290437698364, 0.08112147450447083, 0.1809363067150116, -0.46314942836761475, 0.00018114031990990043, -0.16493487358093262, 0.23986516892910004, 0.13461852073669434, -0.3806041181087494, 0.1733221858739853, -0.12813988327980042, 0.12204586714506149, 0.0018768025329336524, 0.6298539042472839, 0.24519284069538116, -0.3609364330768585, 0.39395129680633545, 0.5575279593467712, -0.7433907985687256, -0.32037001848220825, -0.0018072051461786032, -0.6444063186645508, -0.33739331364631653, -0.18914976716041565, -0.356113076210022, -0.4062001407146454, 0.007630631793290377, 0.08946726471185684, 0.0004154343332629651, -0.19999869167804718, -0.20332759618759155, -0.32545432448387146, -0.16454897820949554, 0.24435482919216156, -0.31009218096733093, 0.06386298686265945, -0.0007580563542433083, -0.006156830117106438, -0.2712482511997223, -0.18322566151618958, 0.23946179449558258, -0.1938093602657318, -0.05910932272672653, -0.1344064325094223, -0.20840707421302795, -0.010471310466527939, 0.08651047945022583, 0.07629206031560898, 0.011394203640520573, -0.04862099513411522, -0.008902028203010559, -0.03838867321610451, -0.11030396074056625, -0.1472988724708557, -0.040899571031332016, 0.08197691291570663, -0.14960066974163055, -0.06092091649770737, 0.0561073012650013, 0.009117240086197853, 0.09106355160474777, 0.053326740860939026, 0.09930436313152313, 0.018439801409840584, -0.0760212242603302, -0.09047891199588776, -0.05956338346004486, 0.08361359685659409, 0.011003583669662476, -0.03785962238907814, 0.19720058143138885, 0.016275351867079735, 0.0742974504828453, 0.07057874649763107, -0.016326453536748886, -0.08286307752132416, -0.09059946984052658, 0.02547064982354641, -0.11521267890930176, -0.13869433104991913, 0.0026380589697510004, 0.21354901790618896, 0.07226499915122986, -0.08008593320846558, -0.0828094333410263, 0.008044354617595673, -0.0793774202466011, -0.17862382531166077, -0.04299911484122276, -0.06176416948437691, -0.08650246262550354, -0.017440002411603928, 0.05970340222120285, -0.10442942380905151, 0.008002206683158875, -0.04848357290029526, -0.004922805353999138, 0.05793551728129387, -0.052275918424129486, -0.21266292035579681, -0.12248151749372482, 0.061688169836997986, 0.1635657697916031, 0.23797321319580078, 0.16856831312179565, 0.1607968956232071, 0.04687007516622543, -0.2747802436351776, -0.23638342320919037, -0.25225940346717834, -0.05400324612855911, -0.0908358246088028, 0.03256778419017792, -0.12908120453357697, -0.24485449492931366, -0.17574825882911682, -0.07642798870801926, 0.16751238703727722, 0.17618484795093536, -0.03934980928897858, 0.16480505466461182, 0.20479625463485718, -0.0365019217133522, -0.14047232270240784, -0.1333782821893692, -0.1924409419298172, -0.039087433367967606, -0.092136912047863, -0.12891271710395813, -0.13017937541007996, 0.06434700638055801, -0.17395295202732086, -0.14526325464248657, -0.18485873937606812, -0.0012178693432360888, -0.08926878124475479, -0.30221518874168396, -0.08265484124422073, -0.11484134942293167, -0.20328356325626373, -0.12515921890735626, 0.14947079122066498, 0.22099462151527405, 0.07831158488988876, 0.12115409970283508, -0.056637898087501526, -0.09709803760051727, -0.023054681718349457, -0.018261196091771126, -0.05514229089021683, 0.0695342943072319, 0.10150487720966339, 0.07881113141775131, -0.07015860825777054, 0.11889731884002686, -0.08728466928005219, -0.13945473730564117, -0.14547479152679443, -0.051030006259679794, -0.040700532495975494, -0.2387854903936386, -0.2501334547996521, -0.13490144908428192, -0.08048176765441895, 0.050627365708351135, 0.03584711253643036, -0.1404632329940796, -0.0864826962351799, -0.1635502725839615, 0.013760475441813469, -0.170963853597641, -0.1412626951932907, 0.01693534292280674, -0.09080885350704193, -0.042298488318920135, 0.055909980088472366, 0.06972865760326385, -0.022111540660262108, 0.12766173481941223, 0.21367163956165314, 0.14795765280723572, 0.22013962268829346, 0.11482033878564835, -0.05268269032239914, -0.08022847026586533, 0.03598879650235176, 0.09679177403450012, 0.14448514580726624, 0.17949305474758148, 0.00953105092048645, -0.0944608673453331, -0.00042332487646490335, 8.043194975471124e-05, -5.194771074457094e-05, -9.496959683019668e-05, -7.17035072739236e-05, 0.00014718527381774038, -0.0011284849606454372, -0.0013403499033302069, -0.0010835619177669287, -0.00109187513589859, -0.0009766524890437722, -0.000973650545347482, 0.0009457561536692083, 0.0006285959389060736, 0.00020393243175931275, 0.00042184669291600585, 0.0002507446624804288, 0.00014625968469772488, 0.0008620968437753618, 0.0005030002794228494, 0.0005186642520129681, 0.0005197511054575443, 0.0005926999729126692, 0.00028643026598729193, -0.0004452265566214919, -8.842581883072853e-05, -0.0002969097113236785, -0.000278828083537519, -0.00033807900035753846, -0.0003021082084160298, -7.422412454616278e-05, 0.0008186523918993771, 0.00018388102762401104, 0.00034106191014871, 0.0001723331370158121, 0.0011831551091745496, 0.0011068579042330384, 0.0005272696726024151, 0.0010996139608323574, 0.0008648571092635393, 0.0012963616754859686, 0.0007418011082336307, 0.0010273130610585213, 0.0007086177938617766, 0.00044836176675744355, 0.0004460782220121473, 0.0007835936266928911, 0.0004594268393702805, 0.0015053433598950505, 0.0018213395960628986, 0.0016220423858612776, 0.0016278506955131888, 0.001764137065038085, 0.0018761452520266175, -0.003168532159179449, -0.0032530990429222584, -0.0031067454256117344, -0.0033129004295915365, -0.002972651505842805, -0.0033635031431913376, 0.0010841735638678074, 0.000905366032384336, 0.0008529220940545201, 0.0010527054546400905, 0.0008991123177111149, 0.00035876588663086295, 0.00045381279778666794, 0.0002230592508567497, 0.0003180083294864744, 0.00029141115373931825, 0.00015670790162403136, 0.00016752674127928913, -0.000163103875820525, 4.3786691094283015e-05, -9.587525710230693e-05, -0.00017516080697532743, 5.342286385712214e-05, -0.00045032287016510963, -1.669005177973304e-05, 0.0003583337820600718, -0.00021066564659122378, -2.6187030016444623e-05, 0.00035593382199294865, 0.0011773925507441163, 0.0021805784199386835, 0.002008412266150117, 0.0024095564149320126, 0.0023523832205682993, 0.0020559534896165133, 0.002345905639231205, -0.0011727034579962492, -0.001314758788794279, -0.00136701506562531, -0.001106482814066112, -0.0015750518068671227, -0.0010208766907453537, -0.10974661260843277, 0.06300005316734314, -0.01864529773592949, 0.059580329805612564, -0.1708506941795349, -0.08969271183013916, 0.04598014056682587, -0.13075079023838043, -0.06481242179870605, -0.10994318127632141, 0.07237029075622559, 0.13561895489692688, -0.04432828351855278, 0.05357307195663452, -0.22266103327274323, 0.13424190878868103, -0.17687523365020752, 0.10632266849279404, -0.01713959127664566, -0.02400415576994419, -0.038167309015989304, -0.05615958198904991, 0.07663977891206741, -0.11398617178201675, -0.18504002690315247, -0.10310415923595428, -0.06947895139455795, 0.07870375365018845, -0.10348288714885712, -0.01851566508412361, -0.022623466327786446, 0.22472895681858063, -0.0703936219215393, 0.08323409408330917, -0.3694412112236023, -0.14634762704372406, 0.12853758037090302, -0.14055989682674408, 0.15867117047309875, -0.2559412717819214, 0.20748060941696167, 0.09435117244720459, -0.0994972214102745, -0.012749827466905117, 0.00812863651663065, -0.09978262335062027, 0.04460744559764862, -0.05489746108651161, -0.0584162175655365, -0.010251215659081936, 0.0005418696673586965, -0.10963768512010574, 0.03218166530132294, 0.2152824103832245, 0.09080993384122849, 0.030447734519839287, 0.006641092244535685, 0.10847516357898712, -0.08590301126241684, -0.3459763526916504, 0.10638496279716492, -0.036459729075431824, 0.015338541939854622, -0.1350608468055725, -0.011558929458260536, 0.03974250331521034, -0.029842613264918327, 0.014743458479642868, -0.032896313816308975, 0.027287332341074944, -0.15994371473789215, -0.3103692829608917, -0.1395666003227234, 0.0205809585750103, 0.02507062256336212, -0.09841719269752502, -0.1406339854001999, -0.013249143026769161, 0.025966176763176918, -0.08006865531206131, 0.11778977513313293, -0.005016644019633532, 0.28410962224006653, 0.11951571702957153, -0.07592562586069107, -0.004197881557047367, -0.04254963994026184, 0.11547017097473145, -0.12584179639816284, -0.09252346307039261, 0.0007353296969085932, 0.00940688792616129, 0.14120830595493317, 0.10938436537981033, 0.025112362578511238, 0.09246308356523514, -0.10455687344074249, -0.016178203746676445, 0.016812847927212715, -0.0027107982896268368, -0.10556147992610931, -0.41580602526664734, -0.14321477711200714, 0.09138380736112595, -0.02797759510576725, -0.08008134365081787, 0.13991591334342957, 0.30552685260772705, 0.0891423150897026, -0.06882091611623764, 0.10070222616195679, 0.11706492304801941, -0.10963010042905807, 0.10120104253292084, 0.1259787678718567, 0.1345226913690567, 0.12620574235916138, 0.07712780684232712, 0.03374782204627991, 0.35185545682907104, 0.13625353574752808, 0.010080925188958645, 0.0436762273311615, -0.16404764354228973, -0.08154283463954926, -0.21977747976779938, 0.034392282366752625, 0.006127824075520039, 0.02171807363629341, 0.29962286353111267, 0.06413791328668594, 0.004794048145413399, -0.17721545696258545, 0.09828264266252518, 0.07161838561296463, -0.17362672090530396, 0.21664918959140778, -0.024118764325976372, 0.06672213971614838, -0.05169542506337166, 0.007117869798094034, -0.0724479928612709, -0.06706554442644119, -0.2849481999874115, -0.0033165737986564636, 0.1457531750202179, 0.1925889104604721, -0.012746458873152733, -0.01149086095392704, 0.01774308644235134, -0.022464266046881676, -0.12506546080112457, 0.04188689962029457, 0.43068987131118774, 0.23259179294109344, 0.00015074155817274004, 0.00016295677050948143, 0.2280208170413971, 0.26488304138183594, -0.5757248401641846, -0.11689692735671997, -0.08644580841064453, -0.050301745533943176, -0.0006189941777847707, -4.132298636250198e-05, 0.21475517749786377, -0.21329446136951447, 0.011877157725393772, 0.12295002490282059, -0.16525483131408691, -0.05422884598374367, -0.001164813875220716, -0.0004031856660731137, -0.2819776237010956, -0.16767406463623047, 0.3613579571247101, 0.0579732246696949, 0.07855237275362015, -0.4250096380710602, 0.000611431198194623, 0.00017376196046825498, -0.09851855784654617, -0.31490767002105713, 0.11075888574123383, -0.14132432639598846, 0.15744736790657043, 0.19978328049182892, 0.0001968719734577462, 7.934905443107709e-05, 0.015631724148988724, -0.23855257034301758, -0.36143675446510315, -0.30388084053993225, 0.013014405965805054, 0.17272129654884338, -0.0006094469572417438, -0.00028301411657594144, 0.32900065183639526, -0.0108182393014431, 0.030387723818421364, -0.26211050152778625, 0.2665974497795105, 0.0872366651892662, 0.0009553144336678088, -8.003858238225803e-05, -0.0008622287423349917, -0.036310527473688126, -0.3257609009742737, 0.03457934781908989, 0.4969266951084137, -0.0573376789689064, 0.001807838212698698, 0.0001345862401649356, 0.0497807115316391, -0.08987705409526825, -0.3394790291786194, -0.10434713959693909, 0.03810567781329155, 0.25414952635765076, 0.001594335655681789, 0.0002049659233307466, 0.3034544587135315, 0.09770632535219193, -0.03217065706849098, -0.07318447530269623, -0.008542452938854694, 0.16867057979106903, -0.11406146734952927, 0.09470701962709427, -0.20561450719833374, -0.09125052392482758, -0.16281166672706604, -0.055639248341321945, 0.11279524117708206, 0.019903995096683502, 0.03742217272520065, 2.0997256797272712e-05, -0.17164206504821777, -0.038658302277326584, -0.13745740056037903, 0.009722408838570118, -0.19193434715270996, -0.0010132946772500873, 0.32563644647598267, 0.017480336129665375, 0.11848314851522446, -0.031442251056432724, 0.08505131304264069, -0.0444277785718441, -0.27369263768196106, 0.011695845052599907, 0.03363252058625221, -0.008738124743103981, 0.061502277851104736, -0.18148115277290344, 0.18671691417694092, -0.04788128659129143, -0.005790612194687128, -0.1487833857536316, 0.030093098059296608, -0.18591813743114471, -0.07204152643680573, -0.0017396179027855396, 0.045422207564115524, -0.1643185317516327, 0.020360980182886124, -0.13628847897052765, -0.06532996147871017, -0.013122030533850193, -0.015554092824459076, 0.0951118990778923, -0.09600656479597092, 0.09249599277973175, -0.07858779281377792, -0.0037572714500129223, -0.02573505789041519, 0.023406589403748512, 0.05606972798705101, -0.12723936140537262, -0.045873817056417465, 0.056817345321178436, 0.06399495154619217, 0.057951223105192184, 0.01640658639371395, 0.034420132637023926, -0.18421491980552673, -0.01670377142727375, -0.09691119194030762, -0.05395391955971718, -0.03442995250225067, -0.10267579555511475, 0.007201036438345909, -0.007658535614609718, 0.0813315287232399, 0.01636558584868908, 0.13965566456317902, 0.04684137925505638, 0.012794913724064827, 0.027589458972215652, -0.062341030687093735, -0.01647009514272213, -0.02063501439988613, -0.04276084527373314, 0.4243814945220947, -0.03364778310060501, -0.0472833551466465, -0.09336686879396439, -0.05740950256586075, -0.03429174795746803, 0.09873414039611816, -0.03362690284848213, 0.01932060532271862, -0.06803325563669205, 0.049210306257009506, 0.1365833282470703, 0.042360447347164154, 0.039598360657691956, 0.033165108412504196, -0.003417824860662222, -0.03204595670104027, 0.002990806009620428, -0.24331778287887573, -0.03802679479122162, -0.15116246044635773, -0.05955857038497925, -0.006352424621582031, -0.10403753817081451, -0.2591065764427185, 0.025395462289452553, 0.16147474944591522, 0.14179065823554993, -0.030390910804271698, 0.22920848429203033, -0.14131681621074677, 0.0361362099647522, -0.009901786223053932, -0.006335596088320017, 0.07283291220664978, 0.22583742439746857, -0.3128051161766052, 0.04981786012649536, 0.08478014916181564, -0.03748983517289162, -0.24396304786205292, 0.3553771674633026, 0.03254469111561775, -0.04508593678474426, -0.029130320996046066, -0.16392141580581665, -0.11528288573026657, -0.26896172761917114, 0.37492257356643677, -0.08901702612638474, -0.12407273799180984, -0.13474397361278534, -0.23569729924201965, 0.257776141166687, -0.312255322933197, 0.03440900146961212, 0.014098995365202427, -0.07242030650377274, -0.09044631570577621, -0.07283873856067657, 0.6840978264808655, 0.029532914981245995, -0.07201132923364639, -0.0028159250505268574, -0.01000569574534893, -0.06925205141305923, 0.9830328226089478, -0.06855318695306778, -0.04109582677483559, -0.06339280307292938, 0.000948934000916779, -0.24849200248718262, 0.2517542541027069, 0.010527574457228184, 0.03287636488676071, -0.017059549689292908, 0.04250992834568024, 0.05784646049141884, 0.03736508637666702, -0.08224188536405563, -0.037070807069540024, -0.06534697115421295, -0.2709975838661194, -0.01074313372373581, -0.11496244370937347, 0.1704852432012558, -0.033630337566137314, 0.015905728563666344, 0.09112220257520676, 0.09921383857727051, 0.05262716859579086, -0.032932355999946594, -0.05179035663604736, -0.033092811703681946, -0.13766026496887207, -0.062231771647930145, 0.041028767824172974, -0.1409415751695633, -0.09490641951560974, -0.06602970510721207, -0.10359355062246323, 0.0757804661989212, -0.03816594183444977, 0.04329827055335045, -0.02659640647470951, -0.07103770226240158, -0.03028307855129242, -0.05737663805484772, 0.05736054480075836, -0.07579082250595093, 0.04281802475452423, -0.05477204918861389, -0.0025206459686160088, -0.1314164251089096, -0.09091012924909592, -0.08704342693090439, -0.09404820948839188, -0.05093079060316086, -0.11324448138475418, -0.011525331065058708, 0.03516979515552521, -0.0224104393273592, 0.10050246864557266, -0.015734920278191566, 0.0424642488360405, -0.012667572125792503, -0.0032172168139368296, -0.15437984466552734, -0.06769540160894394, 0.023340793326497078, -0.07906164228916168, -0.022702472284436226, -0.14807629585266113, -0.046205926686525345, 0.06004418432712555, 0.012340185232460499, 0.1392209380865097, 0.11382470279932022, -0.10949090868234634, 0.022130796685814857, 0.026850370690226555, 0.04228628799319267, -0.010612634010612965, -0.1288152039051056, -0.10400118678808212, -0.04600745439529419, -0.019433552399277687, -0.09711029380559921, 0.07238084077835083, -0.029959863051772118, -0.2849181294441223, -0.03979222849011421, 0.011748970486223698, -0.20405007898807526, 0.06742139160633087, 0.10371281206607819, 0.10121187567710876, -0.033683642745018005, -0.020007029175758362, 0.07976021617650986, -0.1706758737564087, -0.2289101481437683, 0.04300467669963837, -0.0680730789899826, -0.03175283595919609, -0.06842757761478424, 0.13312533497810364, -0.11787272244691849, 0.1375642567873001, -0.008222278207540512, -0.09545104205608368, -0.020601745694875717, -0.20870336890220642, -0.15551453828811646, 0.09314695000648499, -0.02123205177485943, 0.024289634078741074, -0.09155017882585526, -0.09953702241182327, -0.16514761745929718, 0.21383549273014069, 0.008472307585179806, -0.006794209126383066, 0.2083706110715866, 0.11706545203924179, -0.23156461119651794, -0.4503656029701233, 0.03628966957330704, 0.06459685415029526, 0.25203636288642883, 0.04730349779129028, 0.14620760083198547, -0.18622972071170807, -0.0608682744204998, -0.03303069993853569, -0.007021538447588682, -0.2100890725851059, 0.026339614763855934, 0.30906951427459717, -0.022627267986536026, -0.18269643187522888, -0.050547175109386444, -0.20878995954990387, -0.3308482766151428, -0.12687617540359497, -0.13300490379333496, 0.12140684574842453, -0.01980631798505783, 0.22943545877933502, 0.30796968936920166, 0.08473391085863113, 0.040077656507492065, 0.18652215600013733, 0.2642427682876587, 0.11860842257738113, 0.1953285038471222, -0.22149962186813354, -0.06450653076171875, 0.0736311674118042, 0.07031858712434769, -0.10322914272546768, 0.048702437430620193, 0.10284701734781265, 0.006758378352969885, 0.011847750283777714, -0.12445168197154999, 0.0013992550084367394, 0.012362264096736908, -0.06935889273881912, -0.005556531250476837, 0.05946153774857521, 0.039180342108011246, -0.09994827955961227, -0.027670055627822876, 0.42316433787345886, -0.00564254866912961, -0.03617554530501366, -0.001930610160343349, 0.05574977770447731, 0.0036312793381512165, -0.18330851197242737, -0.0635022222995758, -0.10156559199094772, 0.06655361503362656, -0.05483856797218323, -0.12319718301296234, 0.26096805930137634, 0.03860868513584137, 0.013896262273192406, 0.08807153254747391, 0.019147060811519623, 0.05259992554783821, -0.03686675429344177, -0.010638139210641384, 0.07023271173238754, 0.05022973567247391, 0.16216595470905304, 0.10346312820911407, 0.07251543551683426, 0.047448400408029556, -0.037467312067747116, 0.01106290239840746, -0.12894095480442047, -0.039620719850063324, 0.08988326042890549, 0.07137320190668106, 0.05082656070590019, 0.12874415516853333, 0.026373671367764473, 0.1448090523481369, 0.17463646829128265, -0.0446891188621521, -0.11724404245615005, 0.04330480098724365, -0.016552075743675232, -0.011377450078725815, 0.11839576810598373, 0.052484963089227676, 0.010099236853420734, 0.0845375582575798, 0.15060687065124512, 0.48474356532096863, 0.6213188767433167, 0.029732385650277138, 0.04756752401590347, 0.11428510397672653, 0.21131207048892975, 0.17744140326976776, -0.3648258149623871, -0.06042073667049408, -0.014689301140606403, -0.11514787375926971, -0.14750157296657562, -0.03276641666889191, 0.12761147320270538, -0.016029704362154007, -0.006546942517161369, -0.028861884027719498, -0.0669027641415596, 0.19386611878871918, -0.03598913550376892, 0.005255069583654404, -0.06472866237163544, -0.10773800313472748, -0.0349700003862381, -0.19609574973583221, 0.3042663633823395, -0.06059662997722626, -0.0775580033659935, 0.03249229118227959, -0.009938106872141361, 0.13076689839363098, -0.2865220606327057, -0.026559747755527496, -0.09195997565984726, -0.146274596452713, -0.10329579561948776, -0.03483259677886963, -0.009872453287243843, 0.10959790647029877, -0.2677312195301056, -0.18611952662467957, 0.02361479215323925, 0.3913966417312622, 0.020238658413290977, 0.0659751296043396, -0.9581827521324158, 0.13480380177497864, -0.3784835934638977, 0.052509110420942307, 0.02417888678610325, 0.022209344431757927, -0.17601655423641205, 0.18863806128501892, 0.32293397188186646, -0.06984252482652664, 0.04566528648138046, -0.31496354937553406, -0.3542531132698059, 0.4085438549518585, 0.013497736304998398, 0.188607856631279, -0.1245969831943512, -0.2754237651824951, 0.48727652430534363, -0.37767133116722107, -0.14387813210487366, 0.6523430347442627, 0.16328975558280945, -0.013019935227930546, 0.34744736552238464, -0.12845025956630707, 0.2043386846780777, -0.10024915635585785, 0.1552589237689972, -0.16272442042827606, 0.2628866732120514, -0.16350285708904266, -0.11439185589551926, -0.28139379620552063, -0.2690824568271637, -0.14134766161441803, -0.14941346645355225, 0.2769653797149658, -0.13186615705490112, -0.08168405294418335, 0.13858149945735931, -0.10699740797281265, -0.040396735072135925, 0.23511894047260284, 0.11446256190538406, 0.021711386740207672, 0.0240692887455225, 0.009729254990816116, 0.04798083007335663, 0.024797558784484863, -0.4402833580970764, 0.001579542295075953, 0.2516202926635742, -0.6293761730194092, 0.2608781158924103, -0.25300246477127075, -0.4058030843734741, -0.14872413873672485, -0.5722581148147583, 0.03271729126572609, 0.30459973216056824, -0.5043275952339172, 0.22567765414714813, -0.4005851149559021, 0.09595455229282379, 0.09948083758354187, -0.3679583668708801, 0.053102247416973114, 0.09530878812074661, -0.1123502179980278, 0.05643930658698082, 0.1594119668006897, -0.09061065316200256, 0.05933613330125809, 0.09058328717947006, 0.007241751533001661, -0.031031658872961998, -0.07469699531793594, -0.16181622445583344, -0.22032511234283447, 0.08231887966394424, 0.027278060093522072, 0.0603523850440979, 0.09795252233743668, 0.07426709681749344, 0.002751388819888234, 0.3306630849838257, 0.012270113453269005, -0.007765411864966154, -0.00012227660045027733, 0.05970963463187218, 0.07205988466739655, 0.04745542258024216, -0.025896312668919563, -0.014075901359319687, -0.04882797971367836, 0.14187835156917572, 0.2661426365375519, -0.32271984219551086, 0.046005092561244965, 0.05244935676455498, 0.05253477767109871, -0.06871732324361801, -0.10270899534225464, 0.31118419766426086, -0.001317549147643149, -2.0886200218228623e-06, -0.019539613276720047, -0.10062265396118164, -0.23603326082229614, 0.02653323858976364, 0.01080566830933094, -0.007423643488436937, -0.02734651416540146, -0.19216538965702057, -0.38571473956108093, -0.026813752949237823, -0.00026193264056928456, -0.003270025597885251, 0.08779333531856537, 0.1959608942270279, 0.47147735953330994, -0.31653261184692383, 0.009725685231387615, -0.047662947326898575, 0.05703273415565491, 0.017909059301018715, 0.054002322256565094, 0.058779504150152206, 0.08179492503404617, 0.08421213179826736, 0.08344819396734238, 0.1713017374277115, 0.30851808190345764, 0.00994790904223919, 0.06687469780445099, 0.055776651948690414, 0.10074080526828766, 0.1264394074678421, 0.05931176617741585, -0.28850221633911133, -0.015734590590000153, 0.048518355935811996, 0.07874169200658798, 0.0035497744102030993, -0.10434486716985703, 0.09952006489038467, -0.016939610242843628, 0.058406464755535126, 0.026258431375026703, 0.025990404188632965, 0.105485700070858, -0.11715544760227203, -0.06269554048776627, -0.10863221436738968, -0.06597385555505753, -0.14704124629497528, -0.21937918663024902, -0.09983484447002411, -0.01394630502909422, -0.10635627806186676, -0.10934678465127945, -0.12292129546403885, -0.1081252321600914, -0.11382783949375153, -0.019737739115953445, 0.02746242843568325, -0.08745771646499634, -0.013786299154162407, -0.2257838398218155, 0.11920445412397385, 0.06238987669348717, 0.04080089554190636, 0.04176667332649231, 0.010923592373728752, -0.02192026376724243, 0.28133469820022583, 0.0547456219792366, -0.00497907679527998, 0.019726058468222618, -0.03271950036287308, 0.05068490281701088, -0.11046592146158218, 0.040749695152044296, 0.07719383388757706, 0.037088677287101746, 0.06201620027422905, 0.041666071861982346, 0.3596600592136383, 0.025367168709635735, -0.018592312932014465, 0.07078543305397034, 0.052748579531908035, 0.045554328709840775, 0.004975311458110809, 0.07737096399068832, -0.043219905346632004, -0.012650594115257263, -0.16065210103988647, -0.18884077668190002, -0.012330257333815098, 0.04005321115255356, -0.008350674994289875, 0.08960090577602386, -0.05489637702703476, -0.14321719110012054, 0.0449187271296978, 0.0746891126036644, 0.07786702364683151, 0.014941691420972347, -0.04674774035811424, -0.07436390221118927, -0.1016019731760025, 0.019607773050665855, -0.0015358433593064547, 0.011081824079155922, 0.11290955543518066, 0.14758187532424927, -0.17167794704437256, 0.03384933993220329, 0.08751720935106277, 0.028578022494912148, -0.05796632915735245, 0.119761623442173, 0.08051318675279617, 0.0664156973361969, -0.033504605293273926, -0.04835162311792374, -0.09569288790225983, 0.035916246473789215, -0.03384425863623619, 0.018885413184762, 0.028464024886488914, 0.06323006004095078, 0.10749524086713791, 0.05920359864830971, 0.09297599643468857, -0.02777285873889923, 0.027711421251296997, 0.061456553637981415, 0.084583580493927, 0.06899559497833252, 0.029346929863095284, 0.05360599607229233, -0.03858823701739311, -0.12395084649324417, -0.006700710393488407, 0.12778601050376892, -0.13686469197273254, -0.008563653565943241, -0.017917869612574577, -0.05408915504813194, 0.03262532874941826, -0.03509785979986191, 0.03519555553793907, 0.06942594051361084, 0.010161437094211578, -0.011802046559751034, -0.10358613729476929, -0.17204436659812927, -0.11633863300085068, 0.0023680084850639105, -0.012419763021171093, 0.07248218357563019, 0.11934417486190796, -0.21954882144927979, 0.005755079910159111, -0.015047427266836166, -0.08176906406879425, -0.02277611568570137, 0.0012386044254526496, -0.12268028408288956, -0.04336220771074295, 0.029660020023584366, 0.07148393243551254, 0.09657999128103256, -0.04331929609179497, -0.05560603737831116, -0.20183305442333221, 0.05492966249585152, 0.01904240995645523, 0.04968808591365814, 0.13517479598522186, 0.21142330765724182, -0.24913592636585236, -0.09827634692192078, -0.060992613434791565, -0.1023947075009346, -0.0229828879237175, -0.10592159628868103, 0.0006865741452202201, 0.09575822949409485, 0.14195604622364044, 0.1231134831905365, 0.04556484520435333, 0.0770498737692833, 0.062281589955091476, -0.010509359650313854, -0.0267392098903656, -0.08493304252624512, -0.19158536195755005, -0.16494029760360718, -0.018007703125476837, 0.0266707930713892, -0.021531883627176285, -0.007184484042227268, -0.03947269916534424, 0.15740855038166046, 0.023689119145274162, 0.013178723864257336, 0.0006359904073178768, -0.003496936522424221, -0.11088827252388, -0.09968303143978119, 0.21341994404792786, -0.0017724018543958664, -0.02837287075817585, -0.04545840620994568, -0.03300939500331879, -0.11717024445533752, -0.19429323077201843, -0.010216133669018745, -0.02570468559861183, 0.02959737367928028, 0.056926216930150986, 0.15286608040332794, -0.16685937345027924, 0.009144129231572151, -0.03401932865381241, -0.024561060592532158, -0.02152292989194393, 0.0068085030652582645, -0.4595106244087219, -0.021126005798578262, 0.0031149950809776783, 0.020457947626709938, -0.0387202650308609, 0.09789249300956726, -0.0350080281496048, -0.07320638000965118, 0.05063723400235176, 0.0070793782360851765, 0.003493161406368017, -0.0220301803201437, -0.21826404333114624, -0.026472058147192, -0.0160031970590353, 0.007416259031742811, 0.03902055323123932, -0.014024601317942142, 0.5805262923240662, 0.007094880100339651, 0.011989555321633816, -0.021619100123643875, 0.010322971269488335, -0.08002785593271255, -0.06281156092882156, -0.048096854239702225, -0.0092462794855237, -0.005502380896359682, 0.11521149426698685, 0.16650550067424774, 0.1646220088005066, 0.0265025831758976, -0.00626527750864625, 0.02448132261633873, 0.04856126382946968, -0.004471561871469021, -0.039479490369558334, -0.04426685348153114, -0.035333842039108276, -0.014665205031633377, -0.016000349074602127, 0.06787712872028351, -0.0007075367029756308, 0.0177068542689085, -0.02689378708600998, -0.1335882544517517, 0.16502568125724792, -0.037761833518743515, -0.004471090622246265, -0.008868326433002949, 0.030354101210832596, -0.00279955193400383, -0.09200090914964676, -0.046693429350852966, -0.02060946449637413, -0.015346771106123924, -0.026790941134095192, -0.11051186919212341, 0.008867385797202587, -0.09181634336709976, 0.012015119194984436, -0.0036371774040162563, 0.07638832181692123, -0.021276790648698807, -0.02546059340238571, -0.08931039273738861, -0.08164171874523163, 0.03748741000890732, -0.05110105872154236, 0.03633858263492584, -0.06768934428691864, -0.03582192584872246, 0.12028608471155167, -0.015567310154438019, -0.032023314386606216, 0.0016930983401834965, -0.10106166452169418, -0.027816584333777428, -0.05147235840559006, -0.08878345042467117, -0.0492536798119545, -0.01827586442232132, -0.07405165582895279, -0.12287861108779907, 0.07391855120658875, 0.05587480962276459, -0.06291705369949341, -0.037593621760606766, -0.03012702614068985, -0.032805345952510834, 0.37653887271881104, -0.00839161965996027, 0.06641233712434769, 0.0746043398976326, 0.22091874480247498, 0.28142955899238586, -0.050315044820308685, -0.025714073330163956, -0.0225224569439888, -0.005189546849578619, -0.13868094980716705, -0.03464483469724655, -0.05423590913414955, 0.08178157359361649, 0.08182189613580704, 0.12433873116970062, 0.04707527905702591, -0.05497965216636658, 0.1665755957365036, -0.027250798419117928, -0.026172274723649025, 0.038852889090776443, -0.006373845972120762, 0.039175838232040405, -0.24074220657348633, 0.0018943065078929067, -0.016497232019901276, -0.013161805458366871, 0.039097465574741364, -0.15839914977550507, 0.08998130261898041, -0.0674528181552887, -0.09660038352012634, -0.13000287115573883, -0.0570097416639328, 0.11177337169647217, -0.14244690537452698, 0.14058756828308105, 0.1274280697107315, -0.21652624011039734, -0.28557589650154114, 0.1253819316625595, 0.0815909206867218, -0.10515682399272919, 0.04881058633327484, -0.295144259929657, 0.12159930914640427, 0.22645612061023712, 0.05078662931919098, 0.46933677792549133, -0.01735752820968628, -0.013380855321884155, 0.5184527039527893, 0.10317694395780563, 0.5050321817398071, -0.014824390411376953, -0.19072137773036957, 0.2639593780040741, -0.02603309229016304, 0.11701740324497223, -0.12678539752960205, 0.04791949316859245, 0.027395373210310936, -0.054130688309669495, -0.0381404347717762, -0.1555021107196808, -0.34734800457954407, -0.012180651538074017, -0.0717843621969223, 0.15445266664028168, 0.3027312457561493, -0.21452443301677704, -0.14626352488994598, 0.10521294921636581, -0.16305211186408997, -0.03429432958364487, 0.1840503215789795, 0.01287604495882988, 0.049245674163103104, -0.00028029788518324494, -0.19934393465518951, -0.2013910859823227, -0.5024629235267639, -0.13448455929756165, -0.21672025322914124, -0.08015118539333344, 0.06830360740423203, -0.007958312518894672, -0.18156744539737701, 0.17456471920013428, 0.05817938223481178, -0.00928714033216238, -0.22616752982139587, 0.03390076011419296, -0.24069981276988983, 0.05923300236463547, 0.10196542739868164, 0.40192553400993347, 0.11555977910757065, 0.1168505996465683, 0.029511447995901108, -0.5084624886512756, 0.2908686697483063, 0.4088580310344696, 0.29379531741142273, 0.17058832943439484, 0.15072891116142273, -0.19851280748844147, -0.15064647793769836, -0.44914180040359497, 0.03932482376694679, 0.2722690999507904, 0.2555818259716034, 0.10307849943637848, -0.3421657681465149, -0.11155568808317184, -0.02515418268740177, 0.0074854581616818905, -0.09928201884031296, 0.09812717884778976, 0.15856191515922546, -0.2810360789299011, -0.10098864883184433, -0.11806219816207886, 0.2230178862810135, 0.02307807467877865, 0.026676123961806297, 0.012802841141819954, 0.062230370938777924, -0.017408663406968117, 0.00946730189025402, -0.042681269347667694, 0.011477075517177582, -0.04053177312016487, -0.03614865988492966, -0.09246798604726791, -0.0009793663630262017, -0.0020570745691657066, 0.03232461214065552, 0.025903578847646713, 0.07322903722524643, 0.06758454442024231, -0.004804110154509544, 0.012710540555417538, -0.02168598212301731, 0.011057530529797077, -0.03531508520245552, -0.10702797025442123, 0.007464405614882708, 0.04235723242163658, 0.01606867089867592, -0.029057888314127922, 0.010857624933123589, 0.036699872463941574, -6.77722055115737e-05, -0.048609960824251175, -0.07042046636343002, -0.08047205209732056, -0.1358245611190796, 0.017753025516867638, 0.040829699486494064, 0.0017801848007366061, 0.014454612508416176, -0.041828982532024384, -0.002004384296014905, -0.08888556063175201, -0.008106674998998642, 0.0024001137353479862, 0.015907110646367073, 0.030039219185709953, 0.10448740422725677, 0.21757306158542633, -0.07606824487447739, 0.035318661481142044, 0.0077354214154183865, 0.014645577408373356, -0.006971624679863453, -0.00466483598574996, -0.028079427778720856, 0.07034998387098312, 0.033877719193696976, 0.018447771668434143, 0.026845775544643402, 0.01122397743165493, 0.0024615421425551176, -0.057328082621097565, 4.424367216415703e-05, 0.035940010100603104, -0.004434511065483093, 0.05247655138373375, -0.01603558473289013, -0.014793790876865387, 0.0010576775530353189, -0.0014235256239771843, 0.03114386461675167, 0.0061012511141598225, -0.008626597002148628, 0.06780379265546799, 0.020557427778840065, 0.0480731837451458, -0.0030043069273233414, 0.01019138004630804, -0.0424724742770195, 0.013678411953151226, -0.016413778066635132, -0.03706550970673561, -0.008815285749733448, 0.04482400044798851, 0.0604812428355217, 0.02249353751540184, 0.04610181227326393, 0.038479283452034, 0.03717086464166641, 0.014735625125467777, -0.06689382344484329, -0.017061293125152588, -0.024202635511755943, 0.007706322241574526, -0.01575017161667347, -0.018086127936840057, -0.012066923081874847, -0.038096535950899124, -0.02743496000766754, -0.03596091642975807, 0.06707412749528885, -0.04265619441866875, 0.004350129049271345, -0.08764366805553436, -0.040573395788669586, -0.00907621905207634, -0.03572424128651619, 0.0015510432422161102, 0.0008548544137738645, -0.023676812648773193, 0.06641824543476105, 0.02414523996412754, 0.033500880002975464, -0.014364066533744335, -0.011683340184390545, 0.02928239293396473, -0.0507807694375515, 0.012481295503675938, -0.06757208704948425, -0.029967404901981354, 0.037581704556941986, 0.06360062211751938, 0.021424515172839165, 0.010902265086770058, 0.04450342804193497, -0.06125403195619583, 0.040092114359140396, -0.020692571997642517, 0.005283774808049202, -0.03448355942964554, 0.10779722034931183, 0.027399156242609024, 0.03701348602771759, -0.02678874135017395, -0.031233496963977814, -0.008847024291753769, 0.027368538081645966, 0.09171122312545776, 0.06335253268480301, -0.015502593480050564, 0.0028585465624928474, -0.02318144030869007, -0.05320562794804573, -0.02636849135160446, 0.0603007934987545, 0.03745923936367035, 0.015468111261725426, 0.069242462515831, 0.020360471680760384, 0.05955507233738899, 0.02546677365899086, 0.05708708614110947, -0.014393598772585392, 0.08826780319213867, 0.07642379403114319, 0.006091446615755558, 0.04442238062620163, 0.021671289578080177, -0.048991747200489044, -0.065595343708992, 0.010866960510611534, 0.311504989862442, -0.12535086274147034, -0.03764762356877327, -0.0486261285841465, 0.015057619661092758, 0.06482617557048798, 0.05486568063497543, 0.07206632941961288, 0.00995149090886116, 0.011986245401203632, 0.012793492525815964, 0.06786751747131348, -0.1599305272102356, -0.005155858118087053, 0.03342156112194061, -0.014726782217621803, 0.04103604331612587, 0.04253457114100456, 0.1418474316596985, 0.08478236198425293, 0.007271123118698597, -0.003038233146071434, -0.009664143435657024, -0.012139989994466305, -0.054048046469688416, -0.010882937349379063, 0.025117861106991768, -0.002172012347728014, -0.03816971182823181, -0.1079355850815773, 0.13273996114730835, -0.0419376939535141, -0.018660956993699074, 0.02071741782128811, -0.050689078867435455, -0.03606599569320679, -0.09499438107013702, 0.14316649734973907, -0.008657108061015606, -0.012142756953835487, -0.025724543258547783, -0.02245933562517166, 0.05006449297070503, 0.04348872974514961, -0.0696253702044487, -0.10946700721979141, -0.13005943596363068, -0.16119647026062012, -0.20666024088859558, 0.10741809755563736, 0.006070038303732872, -0.0320720449090004, -0.041050221771001816, -0.03250594064593315, 0.00624446664005518, -0.05858507379889488, 0.05659104138612747, 0.026837829500436783, 0.039064668118953705, -0.0470067635178566, 0.0006213824963197112, 0.007390696555376053, 0.039148855954408646, 0.05469857528805733, 0.03804470971226692, -0.029603807255625725, -0.028223147615790367, 0.004269185941666365, -0.03693808987736702, -0.04389315843582153, 0.013519221916794777, 0.06670151650905609, 0.07036426663398743, -0.2665608525276184, 0.03140648826956749, 0.037377893924713135, 0.014826254919171333, -0.03069593757390976, -0.05037261173129082, -0.0692339688539505, 0.009111857041716576, 0.012981734238564968, 0.00548009155318141, 0.02943289279937744, 0.02680567279458046, 0.030611688271164894, -0.051323212683200836, -0.005026985425502062, 0.0735776349902153, -0.050522446632385254, -0.06566566973924637, 0.026861010119318962, 0.03157190605998039, 0.0047766477800905704, -0.022210991010069847, 0.03645751252770424, -0.12590660154819489, 0.04284222051501274, -0.07755786925554276, -0.05684612691402435, -0.04735235124826431, -0.031138205900788307, -0.09603668004274368, -0.07911492884159088, 0.13336221873760223, -0.007016310468316078, -0.028798818588256836, -0.0061975871212780476, 0.05973614752292633, -0.09290382266044617, 0.07595596462488174, -0.027846533805131912, -0.049506742507219315, -0.03435105085372925, 0.022133704274892807, 0.09593499451875687, 0.027269944548606873, 0.011546730063855648, 0.04013306275010109, -0.016247674822807312, 0.05317762866616249, 0.03133080527186394, 0.016933806240558624, 0.009884689003229141, 0.0047538504004478455, 0.003709884127601981, -0.1776421219110489, 0.020708933472633362, -0.060329586267471313, -0.06498975306749344, -0.011428608559072018, -0.04464704170823097, -0.0720977708697319, -0.18217986822128296, 0.02846028283238411, -0.013442757539451122, -0.0222192220389843, 0.01944001391530037, 0.03911864012479782, -0.11100534349679947, -0.021902142092585564, -0.055395618081092834, -0.03468377888202667, -0.045452434569597244, -0.08062233030796051, 0.11693385988473892, -0.03343743085861206, -0.0014447944704443216, 0.026472151279449463, -0.019719665870070457, 0.0144472261890769, 0.017182746902108192, -0.0314846932888031, 0.02377467043697834, 0.012255976907908916, 0.0878751128911972, 0.017587171867489815, 0.04830217361450195, -0.0070891957730054855, -0.0023955313954502344, -0.028020411729812622, 0.07427743822336197, 0.013968278653919697, -0.06535821408033371, 0.008732901886105537, -0.007093724794685841, 0.04086647927761078, 0.02327650971710682, 0.0655081495642662, 0.01690215989947319, -0.02112594246864319, -0.01916288398206234, -0.05400063470005989, -0.07186176627874374, -0.13685853779315948, 0.20774711668491364, 0.014242706820368767, 0.009773761965334415, -0.004627009853720665, 0.006340670399367809, 0.01337822899222374, 0.03865978121757507, -0.04399657994508743, -0.04493175074458122, -0.03847886621952057, -0.08237046748399734, -0.025450730696320534, -0.027631960809230804, -0.006333688274025917, 0.03784330561757088, -0.026011846959590912, -0.021764395758509636, 0.024000998586416245, -0.015185076743364334, 0.07272981107234955, -0.005937020760029554, 0.043920185416936874, 0.01983441784977913, -0.028017137199640274, -0.061674199998378754, -0.038218192756175995, 0.05124703422188759, -0.027562545612454414, -0.03099905140697956, -0.034104567021131516, -0.03232178837060928, -0.05104321241378784, 0.02962394617497921, -0.08707191050052643, 0.005303254351019859, -0.03888015076518059, 0.15012705326080322, -0.019790342077612877, -0.00796977337449789, -0.022578928619623184, -0.045629989355802536, -0.07855046540498734, 0.200723335146904, -0.0014470434980466962, 0.0112828454002738, 0.023131947964429855, 0.0006847847253084183, 0.08297255635261536, -0.017040859907865524, -0.09616145491600037, 0.019307909533381462, 0.0002347806585021317, -0.042872145771980286, -0.09067609161138535, -0.06569641083478928, 0.06742894649505615, -0.06154356524348259, -0.2616375982761383, -0.015197654254734516, -0.016059990972280502, 0.04276828467845917, 0.022527379915118217, 0.057567525655031204, 0.11351393908262253, -0.03226861730217934, 0.10036502033472061, -0.018710773438215256, -0.015365900471806526, -0.0038301083259284496, -0.1358448565006256, -0.0359564945101738, -0.04736575111746788, 0.027334505692124367, -0.06693604588508606, 0.04059648886322975, 0.029373187571763992, -0.08419066667556763, -0.02195874974131584, -0.13209998607635498, 0.13922622799873352, 0.1526886522769928, -0.02901172637939453, 0.04815218225121498, -0.16235913336277008, 0.3334035873413086, -0.34878572821617126, 0.028126534074544907, -0.05360166355967522, -0.039544861763715744, 0.11225474625825882, 0.124716617166996, -0.11448609083890915, -0.07756846398115158, -0.16919565200805664, 0.056365471333265305, -0.14508870244026184, 0.01589612103998661, -0.03408895432949066, -0.03710703179240227, -0.028781766071915627, -0.07059073448181152, -0.10788797587156296, -0.09290599822998047, -0.046387627720832825, -0.0508231557905674, 0.00015800801338627934, 0.0009080281015485525, 0.002322604414075613, 0.05208577215671539, -0.06402993947267532, 0.020407594740390778, 0.15252529084682465, 0.04616235941648483, 0.055736105889081955, 0.014632743783295155, 0.07502631098031998, -0.06788074970245361, 0.08510492742061615, 0.23990638554096222, 0.038679733872413635, -0.0027694765012711287, -0.14416712522506714, 0.02646896243095398, -0.08578076213598251, 0.035098351538181305, 0.05773022025823593, 0.13713133335113525, 0.032510243356227875, -0.12404493242502213, -0.21627795696258545, 0.09116709232330322, -0.2491062879562378, -0.08081866055727005, -0.07011925429105759, 0.13688215613365173, 0.050591275095939636, 0.048692744225263596, -0.010365575551986694, -0.010780874639749527, -0.02475784905254841, -0.014016237109899521, 0.009870006702840328, -0.04244232550263405, 0.014273041859269142, 0.014535043388605118, 0.0364597924053669, 0.047872792929410934, 0.05273332819342613, 0.0006636784528382123, -0.017544317990541458, -0.013479971326887608, -0.023262005299329758, -0.03693252056837082, -0.02734028920531273, 0.0034740692935884, -0.00803068745881319, -0.021017638966441154, -0.02806268259882927, -0.027164511382579803, -0.024689776822924614, -0.1823144108057022, 0.0207531601190567, -0.007126426324248314, 0.0037520881742239, 0.01665366068482399, 0.009741347283124924, 0.2133844792842865, 0.00871024839580059, -0.008306520991027355, -0.005844415165483952, -0.002386729698628187, -0.009471781551837921, -0.10156210511922836, 0.009289320558309555, 0.0063015553168952465, 0.01692354492843151, 0.013998610898852348, 0.02457500621676445, 0.020439423620700836, 0.009139874950051308, 0.009179621003568172, -0.0021878345869481564, 0.005331260617822409, -0.002052455209195614, 0.1885349303483963, 0.013224815018475056, 0.02076129987835884, -0.01294743549078703, -0.0024925542529672384, 0.05641031637787819, 0.07573448866605759, 0.003126021707430482, 0.02490973100066185, 0.02643582597374916, 0.05508538708090782, -0.06140056625008583, -0.28789857029914856, 0.001341885537840426, 0.020880606025457382, 0.001776450895704329, -0.02425154484808445, 0.014430185779929161, 0.0023804735392332077, -0.013495308347046375, -0.031107859686017036, -0.026121089234948158, 0.017548689618706703, -0.010069579817354679, -0.17982010543346405, 0.07258205115795135, 0.012353627942502499, 0.014065803028643131, 0.0403205081820488, 0.008972549811005592, 0.05356607586145401, 0.011957533657550812, -0.025076743215322495, -0.018744708970189095, 0.03739850968122482, -0.021806586533784866, 0.28133848309516907, 0.004315776750445366, -0.016951624304056168, -0.015035840682685375, -0.012342418543994427, -0.031254157423973083, -0.058467600494623184, 