{"version": "0.7.0", "metadata": {"date": {"year": 2026, "month": 6, "day": 29, "hour": 5, "minute": 47, "second": 1}, "loudness": -19.081261888399208, "gain": 0.7690918849170927, "training": {"settings": {"ignore_checks": false}, "data": {"latency": {"manual": null, "calibration": {"algorithm_version": 1, "delays": [-15], "safety_factor": 1, "recommended": -16, "warnings": {"matches_lookahead": false, "disagreement_too_high": false, "not_detected": false}}}, "checks": {"version": 3, "passed": true}}, "validation_esr": null}}, "architecture": "SlimmableContainer", "config": {"submodels": [{"max_value": 0.5, "model": {"version": "0.7.0", "metadata": {"date": {"year": 2026, "month": 6, "day": 29, "hour": 5, "minute": 47, "second": 1}, "loudness": -20.014932886018837, "gain": 0.7867836177699602}, "architecture": "WaveNet", "config": {"layers": [{"input_size": 1, "condition_size": 1, "head": {"out_channels": 1, "kernel_size": 16, "bias": true}, "channels": 3, "kernel_sizes": [6, 6, 6, 6, 6, 6, 6, 6, 6, 6, 6, 6, 6, 6, 15, 15, 6, 6, 6, 6, 6, 6, 6], "dilations": [1, 3, 7, 17, 41, 101, 239, 1, 3, 7, 17, 41, 101, 239, 1, 13, 1, 3, 7, 17, 41, 101, 239], "activation": [{"type": "LeakyReLU", "negative_slope": 0.01}, {"type": "LeakyReLU", "negative_slope": 0.01}, {"type": "LeakyReLU", "negative_slope": 0.01}, {"type": "LeakyReLU", "negative_slope": 0.01}, {"type": "LeakyReLU", "negative_slope": 0.01}, {"type": "LeakyReLU", "negative_slope": 0.01}, {"type": "LeakyReLU", "negative_slope": 0.01}, {"type": "LeakyReLU", "negative_slope": 0.01}, {"type": "LeakyReLU", "negative_slope": 0.01}, {"type": "LeakyReLU", "negative_slope": 0.01}, {"type": "LeakyReLU", "negative_slope": 0.01}, {"type": "LeakyReLU", "negative_slope": 0.01}, {"type": "LeakyReLU", "negative_slope": 0.01}, {"type": "LeakyReLU", "negative_slope": 0.01}, {"type": "LeakyReLU", "negative_slope": 0.01}, {"type": "LeakyReLU", "negative_slope": 0.01}, {"type": "LeakyReLU", "negative_slope": 0.01}, {"type": "LeakyReLU", "negative_slope": 0.01}, {"type": "LeakyReLU", "negative_slope": 0.01}, {"type": "LeakyReLU", "negative_slope": 0.01}, {"type": "LeakyReLU", "negative_slope": 0.01}, {"type": "LeakyReLU", "negative_slope": 0.01}, {"type": "LeakyReLU", "negative_slope": 0.01}], "bottleneck": 3, "head1x1": {"active": false, "out_channels": 1, "groups": 1}, "layer1x1": {"active": true, "groups": 1}, "groups_input": 1, "groups_input_mixin": 1, "conv_pre_film": {"active": false, "shift": true, "groups": 1}, "conv_post_film": {"active": false, "shift": true, "groups": 1}, "input_mixin_pre_film": {"active": false, "shift": true, "groups": 1}, "input_mixin_post_film": {"active": false, "shift": true, "groups": 1}, "activation_pre_film": {"active": false, "shift": true, "groups": 1}, "activation_post_film": {"active": false, "shift": true, "groups": 1}, "layer1x1_post_film": {"active": false, "shift": true, "groups": 1}, "head1x1_post_film": {"active": false, "shift": true, "groups": 1}, "gating_mode": ["none", "none", "none", "none", "none", "none", "none", "none", "none", "none", "none", "none", "none", "none", "none", "none", "none", "none", "none", "none", "none", "none", "none"], "secondary_activation": [null, null, null, null, null, null, null, null, null, null, null, null, null, null, null, null, null, null, null, null, null, null, null], "slimmable": null}], "head": null, "head_scale": 0.006056930426536239}, "weights": [-0.41754472255706787, -1.0764282941818237, -1.3174841403961182, -0.13543331623077393, -0.2865394651889801, -0.05662181228399277, 0.10311567038297653, -0.009654713794589043, 0.20700602233409882, -0.17391836643218994, -0.3494323194026947, 0.02868320234119892, 0.10375317186117172, -0.18627862632274628, 0.2686946392059326, -0.15667998790740967, -0.15774597227573395, -0.024510271847248077, 0.36991381645202637, -0.24528396129608154, 0.4122875928878784, -0.36972227692604065, -0.027490710839629173, 0.09532667696475983, 0.3502878248691559, 0.39958417415618896, 0.2007158249616623, -0.2416812926530838, -0.3883049786090851, 0.16527456045150757, 0.41827982664108276, 0.01435290277004242, 0.14518970251083374, -0.27805471420288086, -0.31537023186683655, 0.31187549233436584, 0.6917435526847839, 0.26880109310150146, 0.026215029880404472, 0.21952663362026215, 0.5403342843055725, -0.20412307977676392, -0.7508571147918701, -0.18977268040180206, 0.010182656347751617, 0.20093092322349548, 0.8587549924850464, -0.19979803264141083, -0.689058780670166, 0.062045589089393616, 0.14098045229911804, 0.22297264635562897, 0.7736712694168091, -0.007325063459575176, -0.8074095249176025, -0.19897642731666565, 0.013932330533862114, 0.6801437735557556, 0.5279654860496521, 0.013439738191664219, -0.04485916346311569, 0.5796267986297607, 0.2029753476381302, -0.5216729640960693, 0.20308950543403625, 0.11706548929214478, 0.2038196474313736, 0.16321581602096558, 0.8968460559844971, -0.8993579149246216, 0.9503307938575745, -1.1187397241592407, 0.31974583864212036, -0.36928853392601013, -0.07287699729204178, 0.2836364805698395, 0.16445323824882507, 0.5293865203857422, 0.4721781611442566, 0.21242383122444153, -0.11813082545995712, 0.14672791957855225, 0.05204376205801964, 0.3869885504245758, 0.17091426253318787, -0.1746084839105606, -0.13823775947093964, 0.2470761090517044, -0.0087259067222476, 0.01199330948293209, 0.2532457709312439, -0.22437812387943268, -0.4529871344566345, 0.0618019737303257, 0.2612795829772949, 0.2881182134151459, 0.0845533013343811, 0.36321696639060974, -0.5909883379936218, -0.05158314108848572, -0.174728125333786, -0.0628158375620842, 0.233645498752594, -0.2359958291053772, 0.041096385568380356, -0.12633758783340454, 0.23293396830558777, 0.362286239862442, 0.48739469051361084, 0.10168135911226273, -0.7968443036079407, -0.07921402901411057, 0.32405611872673035, 0.17391470074653625, 0.3243093490600586, -0.1771853268146515, -0.3189346492290497, -0.18204045295715332, 0.33471500873565674, 0.21582268178462982, 0.5226348042488098, -0.11128254234790802, 0.006139528471976519, 0.15023399889469147, 0.2901841998100281, 0.3394224941730499, 0.13358789682388306, -0.3416256904602051, -0.5389003157615662, 0.45823541283607483, 0.3961298167705536, 0.1461135447025299, 0.144087016582489, 0.4643794596195221, 1.141573190689087, -0.5855357646942139, -0.26833993196487427, -0.7701265811920166, -0.11044642329216003, 0.7270614504814148, -0.3426291346549988, -0.6820237040519714, -0.8171407580375671, -0.6302739381790161, 0.38546591997146606, -0.1510302871465683, 0.3410080373287201, 0.15404878556728363, 0.054240550845861435, 0.28685614466667175, 0.36158186197280884, 0.20392608642578125, 0.35728827118873596, -0.0549502857029438, 0.09284384548664093, 0.36725494265556335, -0.10172385722398758, 0.22080786526203156, 0.13875499367713928, 0.05639651417732239, 0.2561627924442291, 0.4097825884819031, 0.1974831521511078, 0.14255985617637634, -0.12926481664180756, -0.2863548994064331, -0.18044444918632507, -0.4050859808921814, -0.5298476219177246, -0.07361993938684464, 0.18312659859657288, -0.08439987897872925, 0.10443667322397232, -0.2105257362127304, -0.1808047741651535, -0.3019707500934601, -0.40818262100219727, -0.08951564878225327, -0.26209911704063416, -0.40189528465270996, -0.1701667159795761, -0.3739469349384308, -0.13972795009613037, -0.003403268288820982, 0.02522353082895279, 0.5248662829399109, 0.1328941434621811, -0.7012512683868408, 0.24211251735687256, 0.3627910017967224, 0.0712345615029335, -0.042918555438518524, 0.173012375831604, 0.1144741028547287, -0.337899774312973, 0.11584291607141495, 0.1537257730960846, -0.14262236654758453, 0.1633823662996292, -0.14129365980625153, -0.16707105934619904, 0.06672122329473495, -0.22126613557338715, -0.24163417518138885, -1.0318683385849, 0.8491309881210327, 0.05902572348713875, -0.2791672348976135, 0.28762343525886536, 0.5543001890182495, -0.28992581367492676, 0.22726836800575256, 0.5050678253173828, -0.3078986406326294, 0.22190400958061218, 0.49992889165878296, 0.12636539340019226, -0.11008881777524948, 0.4255686104297638, 0.012163876555860043, 0.12332546710968018, 0.12576130032539368, -0.06564906239509583, 0.11363828182220459, -1.2836768627166748, -0.14071521162986755, -0.28158196806907654, -0.3084868788719177, -0.19379544258117676, -0.5003206729888916, 0.5654109716415405, 0.006338919512927532, -0.07900197058916092, -0.07278259098529816, 0.03587477654218674, 0.009730509482324123, -0.7297566533088684, 0.06173980236053467, -0.01894577406346798, -0.10924049466848373, -0.33283957839012146, -0.6697037220001221, 0.47995516657829285, 0.026140904054045677, 0.050029341131448746, 0.17703001201152802, 0.311525821685791, 0.4600229263305664, -1.4074281454086304, -0.043263502418994904, -0.000987555948086083, 0.06369075924158096, 0.1931326538324356, 0.39089295268058777, 0.8176916241645813, 0.07265860587358475, 0.09540943801403046, 0.18723541498184204, -0.10811027139425278, 0.041688140481710434, 0.0560687780380249, -0.09917070716619492, -0.1748369187116623, -0.2086729258298874, -0.009500961750745773, -0.24720755219459534, 0.7451295256614685, -0.0393342562019825, -0.06106777861714363, -0.11168719083070755, 0.03416581079363823, 0.08256503194570541, -1.1396797895431519, -0.5674058794975281, 0.15743523836135864, 0.0147749874740839, 0.437832236289978, 1.2401992082595825, -0.707507312297821, 0.7466564178466797, -1.0171087980270386, -0.4763515889644623, 0.3594725430011749, 0.08058074116706848, -0.2774001359939575, 0.946865439414978, -0.9683588147163391, -0.6669038534164429, -0.24810858070850372, -0.2990352213382721, 0.34666895866394043, -0.06493787467479706, -0.03355979546904564, -0.10175947099924088, -0.03852491080760956, -0.07684913277626038, 0.6391587257385254, 0.09332194179296494, 0.06923218816518784, 0.15289384126663208, 0.1364850401878357, 0.26552826166152954, 0.7763397693634033, 0.008312721736729145, -0.011291248723864555, 0.010723067447543144, -0.015634067356586456, -0.028180629014968872, 0.5009195804595947, -0.012804510071873665, 0.055455707013607025, 0.09111469984054565, 0.00024952416424639523, 0.030064722523093224, -0.4134778082370758, -0.01599041000008583, -0.14872734248638153, -0.19716793298721313, -0.17902448773384094, -0.22870932519435883, -0.022152047604322433, 0.00876904372125864, -0.009437540546059608, -0.030700277537107468, 0.007393484003841877, 0.0254218690097332, -0.6054715514183044, 0.07174033671617508, -0.04397624731063843, -0.024238185957074165, 0.06970611959695816, 0.11965251713991165, -0.516880989074707, -0.012967501766979694, 0.13207365572452545, 0.10146532207727432, 0.14494821429252625, 0.012901654466986656, -0.1853555589914322, -0.03217906877398491, 0.008263245224952698, 0.0018471877556294203, -0.01708599179983139, -0.08592414855957031, 0.08706250786781311, 0.21763260662555695, 0.12752464413642883, 0.516225278377533, -0.06601744890213013, 0.25534600019454956, -0.75225830078125, -0.6153904795646667, -0.411940336227417, 0.3978455364704132, 0.22317233681678772, -0.261659175157547, 0.20729821920394897, -0.51264888048172, -0.32595154643058777, -0.3621349036693573, -0.22823567688465118, 0.08923836052417755, 0.23587217926979065, -0.21692228317260742, -0.30409663915634155, -0.06825513392686844, -0.3671044409275055, -0.26817336678504944, -0.44880056381225586, 0.005764597095549107, -0.19025292992591858, -0.2847338020801544, -0.20692281424999237, -0.11860928684473038, -0.09388953447341919, -0.028702931478619576, 0.006737587973475456, -0.1190771535038948, 0.054955217987298965, -0.05724672973155975, 0.2713221609592438, -0.04094497486948967, 0.07930184155702591, 0.04484757035970688, 0.10014797747135162, 0.16666029393672943, -0.42171600461006165, -0.0784044861793518, 0.021081535145640373, -0.03718872368335724, -0.06204304099082947, -0.26146674156188965, 0.23342713713645935, 0.06313062459230423, -0.052381593734025955, -0.007208752445876598, -0.037099551409482956, -0.052706051617860794, -0.8387213349342346, -0.0265203770250082, 0.006436832249164581, -0.005155983380973339, 0.0051394179463386536, -0.002562635112553835, -0.8384824395179749, -0.03738031163811684, -0.024568960070610046, -0.046571120619773865, -0.04245283082127571, -0.07551797479391098, -0.05847182124853134, 0.023655535653233528, 0.0003150117408949882, 0.012498474679887295, 0.0013046617386862636, 0.000687420426402241, -0.09371213614940643, 0.01610378548502922, 0.18349815905094147, -0.830165445804596, -0.601665735244751, -0.2695941627025604, 0.15877766907215118, 0.45545390248298645, -0.39670300483703613, 0.5846034288406372, -0.06332632899284363, -0.20073527097702026, 1.401769757270813, -0.3564642369747162, 0.07346360385417938, 1.0991785526275635, -0.3978075087070465, 0.07806256413459778, -0.4535410702228546, 0.29696691036224365, 0.3238106369972229, 0.2677433490753174, 0.3509874939918518, 0.10607601702213287, -0.31994226574897766, -0.020465558394789696, 0.06613615155220032, 0.10851942747831345, -0.0589417889714241, 0.14104586839675903, -0.1269036829471588, -0.35813412070274353, -0.41385459899902344, -0.3647409677505493, -0.3672963082790375, -0.23547643423080444, 0.19437149167060852, 0.07547950744628906, 0.025726040825247765, 0.018794270232319832, 0.04333794116973877, 0.1978907585144043, -0.05545283854007721, 0.0358879417181015, -0.03324463218450546, -0.09022955596446991, 0.03780021890997887, -0.054897524416446686, 0.7398076057434082, -0.1068681925535202, -0.023302912712097168, -0.05484354868531227, -0.1795760989189148, -0.325175017118454, -0.1989731788635254, 0.008316169492900372, 0.010827179998159409, 0.01874568499624729, 0.011583355255424976, -0.0027635779697448015, 0.45765286684036255, 0.0033664510119706392, 0.023027265444397926, 0.042375437915325165, 0.02881057932972908, -0.02805713377892971, -0.7376628518104553, -0.01898568868637085, -0.028586117550730705, -0.043425094336271286, -0.03256203234195709, -0.0005179163417778909, 0.7082825303077698, -0.11430127918720245, -0.2284902185201645, 0.1514064520597458, 0.32390427589416504, 0.23955540359020233, -0.4135057032108307, 0.553263247013092, 0.5251133441925049, -0.38094398379325867, -0.07010868191719055, -0.13884320855140686, -0.3187183439731598, -0.4303446114063263, -0.4359283149242401, 1.0581555366516113, 0.3044918179512024, -0.22269432246685028, 0.15608708560466766, -0.11549358814954758, -0.1160561665892601, -0.04656829684972763, 0.08340457826852798, 0.11939976364374161, 0.12295373529195786, 0.07819506525993347, 0.08205171674489975, 0.013281911611557007, -0.07595538347959518, -0.008832261897623539, -0.22458526492118835, -0.0511922761797905, -0.22816117107868195, 0.029863879084587097, 0.19175337255001068, 0.07915886491537094, -0.08455834537744522, -0.18381819128990173, -0.21558614075183868, -0.32469844818115234, 0.2527007460594177, 0.30268582701683044, 0.4972490072250366, -0.21693484485149384, 0.0023099298123270273, 0.029426855966448784, -0.1001383364200592, -0.1468082070350647, 0.12568892538547516, -0.25780919194221497, -0.32936108112335205, -0.24318453669548035, 0.44751349091529846, 0.5006477236747742, 0.37998345494270325, -0.11009200662374496, -0.13000422716140747, 0.26800337433815, -0.40639716386795044, -0.10781754553318024, 0.4428238868713379, -0.17863385379314423, 0.1347314417362213, 0.09543419629335403, 0.04284894838929176, 0.3102048337459564, 0.0285948496311903, 0.034083787351846695, -0.24204647541046143, 0.2549822926521301, -0.44922810792922974, -0.3451671898365021, 0.7181513905525208, 0.3637078106403351, -0.2305116057395935, 0.24375073611736298, 0.28351807594299316, -0.016898322850465775, 0.12267644703388214, -0.05592086538672447, 0.15610980987548828, 0.15994828939437866, 0.5086414813995361, 0.11435770243406296, 0.15020865201950073, 0.6556349396705627, -0.9355074763298035, -0.9997180700302124, -0.0854879766702652, -0.09581111371517181, 0.1361401528120041, 0.03671625256538391, -0.021651482209563255, 0.03033221885561943, -0.3007676601409912, -0.273979514837265, 0.058107465505599976, -0.12966765463352203, -0.15884970128536224, -0.04169582948088646, -0.1269143968820572, -0.11160588264465332, -0.10788600146770477, 0.10898487269878387, 0.17847032845020294, 0.14567598700523376, -0.13276517391204834, -0.4801381826400757, -0.3520088791847229, 0.09333121031522751, 0.03548217937350273, 0.010340011678636074, 0.5343155860900879, -0.34032145142555237, -0.19325965642929077, -0.11893946677446365, -0.05049392208456993, -0.2586324214935303, -0.1415192037820816, 0.04833757504820824, -0.21720826625823975, 0.06938018649816513, 0.002132247667759657, 0.11444630473852158, 0.4412340819835663, 0.1243763342499733, -0.7291880249977112, 0.0601256899535656, 0.07811114192008972, 0.01841535046696663, 0.07766690105199814, 0.24783426523208618, -0.5481042265892029, -0.22486695647239685, -0.1634015440940857, -0.07283519953489304, -0.3041219413280487, -0.04767501726746559, 0.061076804995536804, -0.261708527803421, -0.3473399877548218, -0.44532763957977295, -0.25329700112342834, -0.1378084272146225, 0.41258418560028076, 0.21686217188835144, -0.043888598680496216, 0.31104210019111633, -0.20200616121292114, -0.38333335518836975, -0.11202111840248108, -0.5656073093414307, -0.527872622013092, 0.4568405747413635, -0.580376923084259, -0.3984934091567993, -0.06117568537592888, -0.7609650492668152, -0.39101096987724304, -0.7335423231124878, 0.11498546600341797, 0.2935979664325714, 0.2638935446739197, -0.032973531633615494, -0.14649072289466858, -0.23442399501800537, 0.0886162742972374, 0.3577096164226532, -0.06439071893692017, 0.04252980276942253, 0.20659072697162628, 0.35889187455177307, 0.1279696524143219, -0.0023958475794643164, -0.15694746375083923, -0.06282246112823486, 0.006773517932742834, -0.13999426364898682, -0.05041410028934479, 0.3640232980251312, 0.0014707169029861689, -0.19873188436031342, -0.13349966704845428, -0.3264176845550537, -0.4711504280567169, -0.5236198902130127, 0.2494269460439682, -0.11067253351211548, 0.01209854707121849, 0.11195344477891922, 0.025308607146143913, 0.08148675411939621, -0.1877169907093048, 0.18170800805091858, 0.0832112580537796, -0.04095091670751572, -0.025547560304403305, -0.012823469005525112, -0.2557564675807953, 0.012149669229984283, -0.03695226460695267, -0.07349220663309097, 0.09539002925157547, -0.2940082848072052, 0.6858272552490234, 0.023536648601293564, 0.04963154345750809, 0.17910335958003998, 0.024279657751321793, -0.07970719039440155, 0.07113875448703766, -0.06179400160908699, -0.014894654043018818, -0.02382848598062992, -0.08254115283489227, -0.5116973519325256, 1.1344573497772217, -0.0226655974984169, -0.07531070709228516, -0.2153034806251526, -0.01713607832789421, 0.3760972023010254, -0.0640142634510994, 0.4258289635181427, -0.27249303460121155, -0.15494981408119202, 0.2495090663433075, 0.1586243063211441, 0.21344013512134552, 0.016518978402018547, 0.10667166858911514, -0.9057559967041016, 0.1209898293018341, 0.3046545684337616, 0.5994380116462708, -0.15871687233448029, -0.15122221410274506, -0.11546201258897781, -0.11081328988075256, -0.09135769307613373, 0.7127056121826172, 0.13868477940559387, 0.11541268229484558, 0.09364628791809082, 0.05033037066459656, 0.03592685982584953, -0.34607815742492676, 0.06421799957752228, 0.06375189125537872, 0.05972626060247421, 0.08809598535299301, 0.08558891713619232, -0.4645085632801056, -0.12148332595825195, -0.1194203794002533, -0.10058993101119995, -0.11828876286745071, -0.16544660925865173, -0.6486706733703613, 0.13809072971343994, 0.11806213855743408, 0.12131306529045105, 0.1323271095752716, 0.14705626666545868, -0.6404244303703308, 0.037824541330337524, 0.04496030509471893, 0.05117044970393181, 0.0740782618522644, 0.08039817959070206, -0.49845975637435913, 0.12838201224803925, 0.14274880290031433, 0.1174917221069336, 0.08003633469343185, 0.19630232453346252, 0.9789692163467407, -0.09263084083795547, -0.07342302799224854, -0.062352389097213745, 0.022527189925312996, 0.09751038998365402, -0.02728665992617607, -0.07986610382795334, -0.10733069479465485, -0.12636306881904602, -0.18856969475746155, -0.30525270104408264, 0.857354462146759, 0.6187700033187866, 0.023045875132083893, 0.048085641115903854, 0.511578381061554, 0.24393999576568604, -0.3146663010120392, -0.7716324925422668, 0.5708968043327332, 0.7765058875083923, 0.4153870642185211, 0.7954697012901306, 0.8421071171760559, 0.3620045483112335, 0.23880551755428314, 0.3666117489337921, 0.10300435870885849, 0.5818803310394287, -0.4410380423069, 0.05145137757062912, 0.07207634299993515, -0.008110049180686474, -0.09384985268115997, -0.04491380974650383, 0.8118376135826111, -0.022695759311318398, -0.026018915697932243, -0.0026106832083314657, 0.04638997092843056, 0.03005286492407322, 0.46485525369644165, -0.042676277458667755, -0.06394997984170914, 0.018625453114509583, 0.08039219677448273, -0.005325033329427242, 0.18409672379493713, 0.3280651867389679, 0.2831701636314392, 0.20945946872234344, 0.2356586456298828, 0.027987437322735786, 0.12519191205501556, -0.181845560669899, -0.18876084685325623, -0.1355283260345459, -0.1411186009645462, 0.002221594797447324, 0.7144609689712524, -0.22128883004188538, -0.17281180620193481, -0.12803475558757782, -0.1487257331609726, -0.0034401072189211845, 0.35328811407089233, 0.26174700260162354, 0.23815134167671204, 0.16565518081188202, 0.15985018014907837, 0.055945150554180145, 0.3837973475456238, -0.14679990708827972, -0.13690592348575592, -0.11028838157653809, -0.09633948653936386, -0.024847516790032387, 0.7185328006744385, -0.18451198935508728, -0.17111225426197052, -0.10763517767190933, -0.10008447617292404, -0.10328388959169388, 0.96466064453125, -0.5449612140655518, 0.02108432725071907, 0.2083359807729721, 0.08410612493753433, -0.353947252035141, 0.04453546181321144, -0.9835913181304932, 0.03164273872971535, 0.7756870985031128, -0.9573522806167603, -0.7752900719642639, 1.5073713064193726, -0.5094377994537354, 0.11806987226009369, 0.6755492091178894, -0.6967538595199585, 0.45348024368286133, -0.23954124748706818, -0.23353999853134155, -0.24694061279296875, -0.1668742448091507, -0.036554452031850815, -0.01523211132735014, -0.7136335968971252, 0.07610546052455902, 0.08893433213233948, 0.04712637513875961, -0.012050229124724865, -0.02946830354630947, -0.6546531915664673, 0.10158007591962814, 0.1080731600522995, 0.07294172048568726, 0.0068971929140388966, 0.016777344048023224, -0.2608686089515686, -0.10907287895679474, -0.06602995842695236, -0.07582079619169235, 0.04331720992922783, 0.07015955448150635, -0.4105788767337799, 0.04210049286484718, 0.017286835238337517, 0.023450147360563278, -0.015713078901171684, -0.035779863595962524, -0.2932436764240265, 0.05226154997944832, 0.04361396282911301, 0.041345249861478806, -0.020304976031184196, -0.024869736284017563, -0.6617105603218079, 0.2482983022928238, 0.18129894137382507, 0.034923750907182693, 0.08597925305366516, 0.12147895246744156, 0.507066547870636, -0.0895932987332344, -0.06554681807756424, 0.0036761187948286533, -0.020398059859871864, -0.03994669020175934, 0.3253951370716095, -0.1216755136847496, -0.08499830216169357, -0.0293342936784029, -0.04311225935816765, -0.05328694358468056, 0.3495209515094757, 0.27691176533699036, 0.37416335940361023, -0.3615468740463257, -0.01474707666784525, 0.06847015768289566, -0.1009526327252388, -0.5296508073806763, -0.15644504129886627, -0.4937407374382019, 0.21336962282657623, -0.48206692934036255, -0.6576716303825378, -0.8341019153594971, -0.6109892129898071, -0.6021532416343689, -0.42225468158721924, 0.037153445184230804, 0.4074731767177582, -0.3061809241771698, -0.1822570413351059, -0.018399816006422043, -0.029297100380063057, 0.14933748543262482, -0.261574387550354, 0.07798486202955246, 0.07312458753585815, 0.04172287508845329, 0.09477764368057251, 0.10379699617624283, -0.13404592871665955, 0.19597241282463074, 0.11750493198633194, 0.019569270312786102, 0.01303442195057869, -0.15297795832157135, -0.5878607034683228, -0.4096050560474396, -0.3003438115119934, -0.1784818023443222, -0.08655887097120285, -0.012914316728711128, -0.309291273355484, 0.1410224735736847, 0.10456744581460953, 0.0722026377916336, 0.026967618614435196, 0.001258702133782208, -0.8242747783660889, 0.1954955756664276, 0.14183485507965088, 0.08057238906621933, 0.04740529879927635, -0.013531592674553394, -0.36421748995780945, 0.20633378624916077, 0.16365550458431244, 0.1260748952627182, 0.15856929123401642, -0.057257410138845444, -0.2347376048564911, -0.10942339152097702, -0.08010628819465637, -0.06183997541666031, -0.06526809930801392, -0.007508119568228722, 0.6686658263206482, -0.08226355165243149, -0.07104886323213577, -0.0546860545873642, -0.07906755805015564, 0.040963802486658096, 0.5792773962020874, 0.3327900171279907, 0.19127725064754486, 0.5961205959320068, -0.3951967656612396, 0.17420491576194763, -0.1492125689983368, 0.5366170406341553, -0.7160598635673523, 0.6792219877243042, 0.17439238727092743, -0.39999455213546753, 1.5061501264572144, -0.07587258517742157, -0.4812544286251068, 0.7880159020423889, -0.6890076398849487, 0.5344337821006775, -0.7149741649627686, -0.21982549130916595, -0.23626773059368134, -0.09190396219491959, -0.04476114735007286, -0.2968847453594208, -0.35670313239097595, -0.14413495361804962, -0.47875815629959106, -0.46496132016181946, -0.45334717631340027, -0.20686082541942596, -0.0926261767745018, -0.2459610104560852, -0.14642514288425446, -0.04278313368558884, 0.377824604511261, 0.17440591752529144, 0.3137088418006897, 0.04578378051519394, 0.20263321697711945, 0.39227646589279175, 0.22714446485042572, -0.15143999457359314, -0.6365973353385925, -0.8143278360366821, 0.2764541506767273, 0.4456877112388611, 0.1811629980802536, -0.051909346133470535, 0.0979883149266243, -0.16519466042518616, -0.12567715346813202, 0.016204411163926125, -0.12747450172901154, -0.1042710617184639, -0.18759965896606445, -0.04127500206232071, -0.24566756188869476, -0.5076587796211243, -0.5211784839630127, -0.3154459297657013, 0.037080664187669754, -0.027816256508231163, -0.020841427147388458, -0.09505021572113037, 0.038870688527822495, -0.05269186943769455, 0.06072907894849777, 0.04191330447793007, 0.09884142130613327, -0.062095124274492264, -0.09089438617229462, 0.20114314556121826, 0.31345000863075256, -0.0820077657699585, -0.1316363662481308, -0.6912330985069275, 0.12924887239933014, 0.218449667096138, -0.12484204769134521, 0.07921629399061203, -0.09218697994947433, -0.06304521858692169, 0.14366856217384338, 0.03549648076295853, -0.14365051686763763, 0.108101487159729, -0.15991532802581787, 0.3309314250946045, 0.6208559274673462, -0.08310778439044952, -0.566479504108429, 0.1949186772108078, 0.04058005288243294, -0.4193025827407837, 0.01617620140314102, 0.005879102740436792, -0.039798442274332047, -0.05753294378519058, -0.024739010259509087, -0.09991905093193054, -0.2877242863178253, -0.11772218346595764, 0.1267746090888977, -0.23213130235671997, 0.05571504682302475, -0.43105772137641907, 0.3143807053565979, 0.5002791285514832, 0.1666572540998459, -0.1599796712398529, -0.12801147997379303, -0.24719421565532684, -0.13788731396198273, -0.16255944967269897, -0.38232266902923584, -0.02165978029370308, -0.04993651807308197, -0.7557213306427002, -0.03139479085803032, -0.7276170253753662, -0.6135990023612976, -0.4264945685863495, -0.14169220626354218, 0.4613758325576782, 0.0886068120598793, -0.04058190807700157, 0.07535078376531601, 0.12218045443296432, -0.06655753403902054, 0.08320827782154083, 0.3082243800163269, -0.1732177436351776, 0.14326360821723938, 0.7284756898880005, -0.32503384351730347, 0.09023329615592957, -0.5716352462768555, -0.24277198314666748, -0.03952334076166153, 0.007063743192702532, 0.10083983093500137, 0.08682996034622192, 0.06394180655479431, 0.0824098140001297, 0.15217696130275726, -0.016764594241976738, 0.342450350522995, -0.3999217450618744, -0.025587046518921852, -0.043878667056560516, -0.3229108154773712, -0.4775373637676239, -0.6044277548789978, -0.3811666667461395, 0.7587631344795227, 0.11339907348155975, -0.03171255812048912, 0.028343524783849716, -0.060610201209783554, 0.11794115602970123, -0.16022321581840515, -0.04797286167740822, 0.06997498869895935, 0.09915877878665924, -0.6619912981987, -0.9270131587982178, 0.3551495671272278, 0.27283456921577454, 0.1819351464509964, -0.31199005246162415, 0.17022384703159332, 0.8365904092788696, 0.0032894171308726072, -0.03359876573085785, -0.01952621340751648, -0.039241429418325424, -0.06446997076272964, -0.0627664178609848, -0.05548263341188431, -0.13575933873653412, -0.08170399814844131, -0.17299051582813263, -0.12919512391090393, -0.25596392154693604, -0.2504318356513977, 0.10482019186019897, -0.12329044938087463, 0.000904870277736336, 0.0026866502594202757, -0.008808217942714691, -0.0007545898552052677, -0.006775415502488613, -0.014268863014876842, -0.014779658988118172, 0.003026195801794529, -0.0206164438277483, 0.00023837319167796522, -0.03453437611460686, -0.0614577941596508, -0.02803828753530979, -0.0767095759510994, 0.13576985895633698, -0.0028374893590807915, -0.003022894961759448, -0.0001125698909163475, 0.0015066476771607995, 0.02247699163854122, 0.02678239531815052, 0.03426637873053551, 0.0336514376103878, 0.034676555544137955, 0.06471110880374908, 0.1426590234041214, 0.11660580337047577, 0.09431904554367065, 0.33306270837783813, -0.07822190970182419, -0.2330530285835266, -0.16809137165546417, -0.14637035131454468, -0.21070563793182373, -0.17338624596595764, -0.13735823333263397, -0.1403038501739502, -0.07171521335840225, -0.1864267885684967, -0.05603973940014839, -0.11708179861307144, -0.07488551735877991, 0.1403556913137436, -0.06296630203723907, 0.2053995281457901, -0.04029887169599533, -0.05923018231987953, -0.02651698887348175, -0.016432369127869606, -0.004130516666918993, 0.01024513691663742, -0.015471292659640312, -0.03470877185463905, -0.01791202276945114, 0.041850678622722626, 0.11150757968425751, 0.17674250900745392, 0.101976677775383, 0.1831885129213333, 0.03922773897647858, 0.2485312670469284, 0.10458499193191528, 0.1334419697523117, 0.1765793114900589, 0.12411918491125107, 0.1442233920097351, 0.16424089670181274, 0.03439813107252121, 0.09657682478427887, 0.0689288079738617, 0.06372669339179993, -0.0022249827161431313, -0.060013964772224426, -0.06772791594266891, 0.2645462155342102, -0.04796242341399193, -0.04318201169371605, -0.02067834883928299, -0.05590540170669556, -0.05607745796442032, -0.06545939296483994, -0.06295682489871979, -0.047400787472724915, -0.12599140405654907, -0.06960050016641617, -0.09513260424137115, -0.1632082611322403, -0.08737854659557343, 0.2810439169406891, 0.14568626880645752, 0.013918841257691383, 0.007881795056164265, 0.00017574192315805703, 0.00494967307895422, 0.004518952686339617, -0.002342024352401495, 8.151450310833752e-05, 0.018585387617349625, 0.006121260579675436, -0.002201254479587078, 0.0010645921574905515, -0.06495919078588486, -0.01626656949520111, -0.04087449982762337, -0.9710739254951477, 0.04880278557538986, 0.020546838641166687, 0.028175709769129753, 0.039918627589941025, 0.03544078767299652, 0.06463742256164551, 0.051332660019397736, 0.05612499266862869, 0.08829780668020248, 0.06202363967895508, 0.1585414856672287, 0.14201782643795013, 0.06990696489810944, 0.35182881355285645, 0.4253653287887573, 0.584616482257843, 0.2585514485836029, 0.061205655336380005, -0.1529160887002945, -0.17995649576187134, -0.18621809780597687, -0.6866553425788879, -0.19387774169445038, 0.09581393748521805, 0.024602752178907394, -0.04018881916999817, -0.15952658653259277, -0.1331024467945099, -0.0043894206173717976, 0.25074025988578796, -0.342399001121521, 0.2732888162136078, 0.22480709850788116, -0.25069689750671387, -0.12599697709083557, 0.0343334898352623, -0.042289700359106064, -0.07214757800102234, -0.22915753722190857, -0.5741176605224609, -0.6891078352928162, -0.0988844484090805, -0.436541348695755, -0.09666549414396286, 0.06130007281899452, -0.162310391664505, 0.17504574358463287, 0.009995409287512302, 0.1512346863746643, 0.2952513098716736, 0.2856746315956116, 0.363890141248703, 0.02281160093843937, 0.28376275300979614, -0.12673752009868622, -0.17628419399261475, 0.15891236066818237, -0.04548245295882225, -0.04876505210995674, 0.0539790540933609, -0.13458146154880524, -0.408176064491272, -0.678132176399231, 0.009641607291996479, 0.18907348811626434, -0.09888596832752228, -0.136191263794899, -0.3210960328578949, -0.2550612688064575, 0.05514242500066757, -0.04602266103029251, -0.09370746463537216, -0.056106679141521454, -0.14063063263893127, 0.3404180705547333, -0.5474945902824402, -0.5267877578735352, 0.14536812901496887, 0.4484526216983795, 0.24144332110881805, -0.5184361338615417, 0.1034647524356842, -0.13215485215187073, -0.2149057686328888, -0.23304034769535065, 0.5922324657440186, 1.0050811767578125, 0.1701928675174713, -0.5018813610076904, -0.19372805953025818, -0.18347300589084625, 0.7878390550613403, -0.02374795824289322, -0.05676122009754181, 0.372230589389801, 0.058394670486450195, 0.14719559252262115, 0.05936124548316002, -0.14317971467971802, -0.5801467299461365, 0.7728777527809143, 0.5128605961799622, 0.20657551288604736, 0.3939944803714752, 0.4052577018737793, -0.018174506723880768, -0.0866900309920311, 0.20731239020824432, -0.2576489746570587, -0.20813092589378357, 0.009611756540834904, -0.00975111499428749, -0.08028768748044968, 0.11730856448411942, -1.1611943244934082, 0.5234962105751038, -0.07801353931427002, -0.015903513878583908, 0.049527186900377274, 0.01164312195032835, -0.3970950245857239, -0.7627756595611572, -0.2957981526851654, 0.12070766091346741, 0.05068179592490196, 0.07694359868764877, 0.15592613816261292, 0.5647944808006287, -0.07391037791967392, -0.03227562829852104, -0.01202462613582611, -0.11490818858146667, -0.16828559339046478, -0.9132001399993896, 0.6079528331756592, -0.18175135552883148, -0.08919375389814377, -0.27139198780059814, -0.2449537068605423, 0.008045501075685024, -0.7815949320793152, -0.0395025797188282, 0.037962011992931366, 0.20972827076911926, -0.06818666309118271, -0.1689285784959793, -0.02432105876505375, -0.030752751976251602, 0.04591695964336395, 0.04843888804316521, 0.036711711436510086, 0.39696910977363586, -0.4399329125881195, 0.036373838782310486, 0.1120082214474678, 0.0038886007387191057, 0.20327529311180115, -0.5773235559463501, 0.06726603955030441, 0.570683479309082, -0.2582381069660187, -0.20428982377052307, -0.1881352812051773, -0.020772995427250862, -0.07534566521644592, 0.03964425250887871, 0.29476913809776306, -0.06941982358694077, -0.5259159207344055, 0.09825081378221512, 0.10303568840026855, 0.1777392327785492, 0.15731757879257202, 0.06533312797546387, 0.1446564793586731, 0.038665782660245895, 0.08503125607967377, -0.14797520637512207, 0.040326688438653946, -0.06873191893100739, 0.1089945062994957, -0.5969133377075195, -0.08286099135875702, -0.05160222947597504, -0.1857946366071701, -0.14877301454544067, -0.05703458935022354, -0.1685825139284134, 0.4606449604034424, -0.02436036244034767, -0.19761021435260773, -0.045883968472480774, -0.04355525225400925, 0.05992535501718521, 0.5134279131889343, 0.38319623470306396, 0.2948489189147949, 0.2554225027561188, 0.17927186191082, 0.045750610530376434, 0.10685758292675018, 0.2834959328174591, 0.2503041625022888, 0.14458408951759338, 0.16347774863243103, 0.1322338730096817, 0.0523616224527359, 0.15736107528209686, 0.11284282058477402, 0.0835772305727005, 0.07791971415281296, 0.09117773175239563, -0.06304597109556198, 0.029773999005556107, -0.053730130195617676, -0.05869476497173309, -0.03644656389951706, 0.08607034385204315, 0.03686429187655449, 0.022290537133812904, 0.013457412831485271, 0.014529849402606487, 0.02327762544155121, -0.2269970029592514, -0.14316217601299286, 0.0020704225171357393, 0.029768943786621094, 0.03926033154129982, 0.013547074981033802, -0.1585935354232788, -0.5723928213119507, 0.05294816568493843, 0.03978918492794037, 0.4338275194168091, 0.06865107268095016, 0.046033553779125214, -0.19341717660427094, -0.05948569253087044, 0.07836146652698517, 0.19804981350898743, -0.638232946395874, 0.535394549369812, -0.1674407422542572, -0.4581329822540283, 0.3388655185699463, 0.27166688442230225, 0.2077467441558838, 0.3525138795375824, 0.2201518416404724, -0.009905241429805756, -0.0011667525395751, 0.061987899243831635, 0.20480568706989288, 0.09217896312475204, -0.6710428595542908, -0.11119512468576431, -0.14216947555541992, -0.20292122662067413, -0.21253350377082825, -0.1550566554069519, 0.11817042529582977, -0.11340484768152237, -0.14815330505371094, -0.20686352252960205, -0.26398104429244995, -0.05324699729681015, 0.6327945590019226, -0.3118058145046234, -0.21710984408855438, -0.21453358232975006, -0.11234425008296967, 0.08284672349691391, 0.2060248851776123, -0.0656115710735321, -0.09265808016061783, -0.09886762499809265, -0.023444823920726776, -0.05730314552783966, 0.29657912254333496, 0.04308021441102028, -0.009865754283964634, 0.0008775375317782164, 0.07773274183273315, -0.07604111731052399, 0.34630444645881653, 0.19739815592765808, 0.19875894486904144, 0.23028509318828583, 0.12553398311138153, 0.5518575310707092, -0.26836439967155457, -0.10126732289791107, -0.10989545285701752, -0.05408632010221481, -0.10877104848623276, 0.2528396546840668, -0.2517137825489044, -0.10552965849637985, -0.16572605073451996, -0.11154448240995407, -0.015272443182766438, -0.04838726297020912, -0.009481888264417648, -0.007783052045851946, 0.02007085643708706, -0.22363650798797607, 0.3819155693054199, -0.07601812481880188, -0.18260033428668976, 0.26841622591018677, -0.3475366234779358, 0.09502467513084412, -0.3053625226020813, -0.6639800071716309, 0.2919958829879761, -0.5289332270622253, -0.2943176031112671, 0.6425849795341492, -0.14823795855045319, -0.23196826875209808, -0.37576720118522644, -0.011143171228468418, -0.09741848707199097, -0.09216296672821045, -0.07124201953411102, 0.05395864322781563, -0.22003905475139618, 0.1003994569182396, 0.08473080396652222, 0.04598555713891983, 0.06220763176679611, -0.0028559239581227303, -0.27387088537216187, 0.16232946515083313, 0.1701064109802246, 0.10836589336395264, 0.07858791947364807, -0.04592178016901016, -0.23270255327224731, -0.10192432254552841, 0.03530508652329445, 0.14194031059741974, -0.0008272182894870639, 0.11209917813539505, 0.2830016314983368, -0.1863609403371811, -0.07720836251974106, -0.08346759527921677, -0.09862706810235977, 0.06489978730678558, 0.4696956276893616, -0.18095557391643524, -0.10275356471538544, -0.15631407499313354, -0.09810581803321838, 0.0112301642075181, 0.02192387543618679, -0.0851549357175827, -0.03796565532684326, -0.01895478367805481, 0.06150301173329353, 0.07062084227800369, -0.029918821528553963, -0.041071418672800064, 0.1247408390045166, 0.2030838429927826, 0.3010653257369995, 0.42693981528282166, 0.2507805824279785, -0.027170458808541298, 0.05237267538905144, 0.20476585626602173, 0.27655404806137085, 0.22400690615177155, 0.07059746235609055, -0.08241190016269684, -0.09877202659845352, 0.04238370433449745, -0.04383106529712677, -0.1638193279504776, 0.009065200574696064, 0.07967314124107361, -0.10139330476522446, 0.3942270576953888, 0.4976925253868103, -0.3626439571380615, 0.5035332441329956, 0.366644948720932, -0.07968717068433762, 0.279685914516449, -0.15444444119930267, -0.19545680284500122, -0.3148488402366638, -0.07888674736022949, -0.1282510906457901, -0.1537356972694397, -0.0782279446721077, -0.19608719646930695, -0.09199731796979904, 0.162782222032547, 0.12299522012472153, 0.37643393874168396, 0.3180025517940521, 0.05683572217822075, 0.20759086310863495, 0.21818280220031738, 0.1253749281167984, 0.20255883038043976, 0.12574151158332825, 0.1925034523010254, 0.19018173217773438, -0.04725909233093262, 0.09140641242265701, -0.02440180629491806, 0.04206713289022446, 0.04826446250081062, 0.19769150018692017, -0.0802990198135376, -0.10734859853982925, -0.19493338465690613, -0.3067626953125, -0.18394534289836884, 0.22589647769927979, -0.0841159075498581, -0.1695498377084732, -0.2389345020055771, -0.4023255705833435, -0.24778887629508972, 0.15969501435756683, -0.042579926550388336, -0.10085342079401016, -0.08990012854337692, -0.13397938013076782, -0.17496109008789062, -0.20813164114952087, 0.0753883644938469, 0.03299832344055176, 0.024266060441732407, 0.014733278192579746, 0.004608874209225178, 0.3122469186782837, 0.1282123476266861, 0.11344049125909805, 0.11287572979927063, 0.10066205263137817, 0.06793374568223953, -0.0756990984082222, 0.03944569453597069, 0.17225195467472076, 0.10623176395893097, -0.020754743367433548, -0.3913525342941284, -0.13165299594402313, -0.394848108291626, -0.5861309170722961, -0.5844545364379883, -0.23714295029640198, -0.39345303177833557, -0.27905142307281494, -0.1820671558380127, 0.41620880365371704, -0.24575170874595642, -0.10675656050443649, 0.10754808783531189, 0.07946877181529999, 0.0249318964779377, 0.07069891691207886, 0.04122694581747055, 0.10595552623271942, 0.09385476261377335, 0.056278448551893234, 0.0222978163510561, -0.030714085325598717, 0.12325156480073929, 0.019969092682003975, 0.015516540966928005, 0.00792918261140585, 0.026195349171757698, 0.02698330581188202, -0.041334666311740875, -0.00729304039850831, -0.009064028970897198, -0.027637556195259094, 0.018456589430570602, -0.021263794973492622, -0.1365039050579071, -0.26739537715911865, -0.3622712790966034, -0.020009845495224, -0.025010040029883385, -0.024013839662075043, -0.07555971294641495, -0.1064424067735672, -0.1187480017542839, 0.1397252231836319, -0.01959129236638546, 8.148737833835185e-05, -0.029509026557207108, -0.009124032221734524, 0.03404043987393379, 0.5192598104476929, 0.1749836504459381, 0.24557144939899445, 0.29290682077407837, 0.2451508790254593, 0.31607988476753235, -0.13009995222091675, -0.07411597669124603, -0.03276092931628227, 0.020171545445919037, 0.00930287130177021, 0.11139359325170517, -0.360799103975296, -0.020822949707508087, -0.029965410009026527, 0.01310505997389555, 0.013950344175100327, 0.089434914290905, -0.11462463438510895, 1.1600873222050723e-05, 0.20347803831100464, 0.017206139862537384, 0.0027078967541456223, -0.17370644211769104, -0.014941628091037273, 0.4162098467350006, -0.00858832336962223, 0.5327888131141663, 0.11612158268690109, 0.18631941080093384, -0.07476914674043655, -0.32249006628990173, -0.3899204134941101, -0.36959829926490784, -0.3457287847995758, 0.4948616325855255, -0.35605674982070923, -0.019918151199817657, 0.0607721209526062, -0.054352689534425735, 0.022859977558255196, -0.006681372877210379, 0.029021628201007843, 0.006162233650684357, -0.042147889733314514, -0.019350465387105942, -0.023670807480812073, -0.09066683799028397, -0.09854941815137863, 0.0957542210817337, 0.13805776834487915, 0.2398480474948883, 0.15090879797935486, -0.0026289918459951878, 0.0019055984448641539, 0.012136939913034439, -0.025465071201324463, 0.004735470283776522, -0.04130839183926582, -0.02880377136170864, -0.024618707597255707, -0.16753825545310974, -0.15170973539352417, 0.09162072092294693, 0.16267141699790955, -0.10024059563875198, -0.10405149310827255, -0.014907700940966606, -0.032423485070466995, -0.024104313924908638, -0.04107792675495148, -0.020269684493541718, 0.004715361632406712, -0.04474332183599472, -0.016872277483344078, -0.07925104349851608, 0.007172089535742998, 0.03469310700893402, 0.17131319642066956, 0.0868731290102005, 0.21292360126972198, -0.3733780086040497, -0.08296895772218704, 0.1900656521320343, -0.11593622714281082, -0.26840347051620483, 0.006056930291153294], "sample_rate": 48000}}, {"max_value": 1.0, "model": {"version": "0.7.0", "metadata": {"date": {"year": 2026, "month": 6, "day": 29, "hour": 5, "minute": 47, "second": 1}, "loudness": -19.081261888399208, "gain": 0.7690918849170927}, "architecture": "WaveNet", "config": {"layers": [{"input_size": 1, "condition_size": 1, "head": {"out_channels": 1, "kernel_size": 16, "bias": true}, "channels": 8, "kernel_sizes": [6, 6, 6, 6, 6, 6, 6, 6, 6, 6, 6, 6, 6, 6, 15, 15, 6, 6, 6, 6, 6, 6, 6], "dilations": [1, 3, 7, 17, 41, 101, 239, 1, 3, 7, 17, 41, 101, 239, 1, 13, 1, 3, 7, 17, 41, 101, 239], "activation": [{"type": "LeakyReLU", "negative_slope": 0.01}, {"type": "LeakyReLU", "negative_slope": 0.01}, {"type": "LeakyReLU", "negative_slope": 0.01}, {"type": "LeakyReLU", "negative_slope": 0.01}, {"type": "LeakyReLU", "negative_slope": 0.01}, {"type": "LeakyReLU", "negative_slope": 0.01}, {"type": "LeakyReLU", "negative_slope": 0.01}, {"type": "LeakyReLU", "negative_slope": 0.01}, {"type": "LeakyReLU", "negative_slope": 0.01}, {"type": "LeakyReLU", "negative_slope": 0.01}, {"type": "LeakyReLU", "negative_slope": 0.01}, {"type": "LeakyReLU", "negative_slope": 0.01}, {"type": "LeakyReLU", "negative_slope": 0.01}, {"type": "LeakyReLU", "negative_slope": 0.01}, {"type": "LeakyReLU", "negative_slope": 0.01}, {"type": "LeakyReLU", "negative_slope": 0.01}, {"type": "LeakyReLU", "negative_slope": 0.01}, {"type": "LeakyReLU", "negative_slope": 0.01}, {"type": "LeakyReLU", "negative_slope": 0.01}, {"type": "LeakyReLU", "negative_slope": 0.01}, {"type": "LeakyReLU", "negative_slope": 0.01}, {"type": "LeakyReLU", "negative_slope": 0.01}, {"type": "LeakyReLU", "negative_slope": 0.01}], "bottleneck": 8, "head1x1": {"active": false, "out_channels": 1, "groups": 1}, "layer1x1": {"active": true, "groups": 1}, "groups_input": 1, "groups_input_mixin": 1, "conv_pre_film": {"active": false, "shift": true, "groups": 1}, "conv_post_film": {"active": false, "shift": true, "groups": 1}, "input_mixin_pre_film": {"active": false, "shift": true, "groups": 1}, "input_mixin_post_film": {"active": false, "shift": true, "groups": 1}, "activation_pre_film": {"active": false, "shift": true, "groups": 1}, "activation_post_film": {"active": false, "shift": true, "groups": 1}, "layer1x1_post_film": {"active": false, "shift": true, "groups": 1}, "head1x1_post_film": {"active": false, "shift": true, "groups": 1}, "gating_mode": ["none", "none", "none", "none", "none", "none", "none", "none", "none", "none", "none", "none", "none", "none", "none", "none", "none", "none", "none", "none", "none", "none", "none"], "secondary_activation": [null, null, null, null, null, null, null, null, null, null, null, null, null, null, null, null, null, null, null, null, null, null, null], "slimmable": null}], "head": null, "head_scale": 0.006056930426536239}, "weights": [-0.4828929007053375, -0.049387115985155106, 0.0057124486193060875, 0.691338062286377, -0.6906692385673523, -0.33198344707489014, 0.3106287121772766, 1.0030744075775146, -0.2575308084487915, 0.04055210202932358, -0.026134740561246872, 0.007728091441094875, 0.22057974338531494, 0.03279503434896469, -0.020639833062887192, 0.027188794687390327, 0.007100219838321209, 0.01988694816827774, 0.024678457528352737, 0.007877071388065815, 0.004898958373814821, 0.00038995398790575564, 0.002315375255420804, 0.0011586392065510154, 0.0020343551877886057, 0.002837840234860778, 0.15682032704353333, 0.07484070211648941, 0.0278758741915226, -0.009566215798258781, -0.19372650980949402, -0.04848949983716011, -0.26594164967536926, 0.02663474529981613, -0.019180290400981903, -0.001009768107905984, 0.19040608406066895, 0.039534132927656174, -0.16340874135494232, 0.03412457928061485, -0.013516229577362537, -0.01032283715903759, 0.12106610089540482, 0.09849429875612259, 0.15834541618824005, -0.02098589763045311, 0.045420944690704346, -0.040402963757514954, -0.11816788464784622, -0.08489632606506348, 0.33883363008499146, -0.05963871628046036, 0.09453577548265457, 0.15771111845970154, -0.1319195181131363, -0.0779917910695076, 0.23325049877166748, -0.01923920214176178, 0.14100322127342224, -0.24691149592399597, 0.23658765852451324, -0.08850476145744324, 0.039366379380226135, -0.022971786558628082, 0.027061207219958305, -0.05896248668432236, 0.06731758266687393, -0.0562572255730629, -0.0064424024894833565, -0.00026502221589908004, -0.00530875101685524, -0.0005443949485197663, -0.00898174662142992, 0.0008556993561796844, -0.23303823173046112, 0.07088044285774231, -0.0990663394331932, 0.28111135959625244, -0.20730003714561462, 0.021271800622344017, 0.15480859577655792, 0.1361997276544571, 0.09671725332736969, -0.12192515283823013, 0.29448139667510986, -0.03084072656929493, 0.08713041245937347, 0.0570133738219738, 0.060723744332790375, -0.1938462257385254, 0.2537213861942291, -0.0841790959239006, -0.05565844848752022, 0.06193689629435539, -0.06284347176551819, 0.23422008752822876, -0.17473547160625458, 0.089882992208004, -0.24633727967739105, -0.08240565657615662, -0.1820119172334671, 0.16771292686462402, -0.21735680103302002, 0.15147393941879272, 0.2171912044286728, 0.16448351740837097, 0.18123330175876617, 0.345825731754303, -0.38241589069366455, -0.38741305470466614, -0.05438736081123352, -0.11582648009061813, -0.09830939024686813, -0.03729948401451111, -0.11420941352844238, -0.02003326639533043, -0.005422088783234358, -0.032553501427173615, -0.020914200693368912, -0.016210239380598068, -0.005499274004250765, -0.004660045262426138, -0.07933788746595383, -0.28602778911590576, -0.21886567771434784, -0.24003693461418152, 0.3737473487854004, 0.3649871051311493, 0.28969454765319824, 0.026117907837033272, 0.1755099594593048, 0.18867462873458862, -0.23812192678451538, -0.3860097825527191, 0.12524674832820892, 0.1339401751756668, -0.001603758311830461, 0.2544056475162506, -0.3860968351364136, -0.4029994308948517, -0.135504350066185, -0.17759685218334198, -0.13737091422080994, -0.33591920137405396, 0.16498537361621857, 0.19048787653446198, -0.12178002297878265, -0.0750073492527008, -0.06414171308279037, -0.40070581436157227, 0.3128110468387604, 0.3051895499229431, -2.2592134882870596e-06, 0.0001483952219132334, 8.328544208779931e-05, 2.552957994339522e-05, 7.876090967329219e-05, -4.396389704197645e-05, -3.3465955340261644e-08, 1.529543260403443e-05, 8.688974048709497e-06, 2.7428825433162274e-06, 8.13849601399852e-06, -4.372182957013138e-06, -1.2876129495964506e-08, -1.7802587990445318e-06, -1.0119041462530731e-06, -3.3413724054298655e-07, -9.514123462395219e-07, 4.880279789176711e-07, 4.555201485345606e-06, -0.00021192230633459985, -0.00011833050666609779, -3.568876491044648e-05, -0.00011239852028666064, 6.382404535543174e-05, -4.442279532668181e-06, 0.00021162560733500868, 0.00011820796498795971, 3.569841283024289e-05, 0.00011224461923120543, -6.364825821947306e-05, -1.1025470030290307e-06, 0.00010232470231130719, 5.7656139688333496e-05, 1.786975008144509e-05, 5.436138962977566e-05, -2.9936792998341843e-05, 9.867742392088985e-07, -9.576221782481298e-05, -5.398481516749598e-05, -1.674721897870768e-05, -5.087619138066657e-05, 2.7987902285531163e-05, 8.658910701342393e-06, -0.0003062355099245906, -0.00017026810382958502, -5.0476272008381784e-05, -0.0001625557051738724, 9.362913260702044e-05, -0.17501281201839447, -0.1896464228630066, 0.0881153866648674, -0.20085176825523376, 0.23695801198482513, 0.046237844973802567, 0.05272853001952171, 0.060284167528152466, 0.09425493329763412, -0.06091783195734024, 0.021165482699871063, -0.02264467068016529, 0.021413372829556465, 0.004986314568668604, 0.015717873349785805, 0.005523209925740957, 0.003413762431591749, 0.002864119131118059, 0.07142036408185959, 0.21813823282718658, -0.10697700083255768, 0.33255934715270996, -0.06431404501199722, -0.1143021285533905, -0.15781331062316895, -0.2033180147409439, 0.05391516536474228, -0.20988163352012634, 0.07095050811767578, 0.10583093762397766, -0.24404004216194153, -0.06876814365386963, -0.011734334751963615, -0.09606166183948517, 0.13675902783870697, 0.057830240577459335, 0.18897542357444763, 0.1566559374332428, 0.012008080258965492, 0.2534865140914917, -0.29814690351486206, -0.06137393042445183, 0.12399383634328842, 0.10360518097877502, 0.026989521458745003, 0.3435092270374298, -0.29217585921287537, -0.15002569556236267, 0.01407699566334486, 0.012477788142859936, 0.003008501371368766, 0.0031753270886838436, 0.0017316453158855438, 0.023722516372799873, 0.00176504987757653, 0.003417460946366191, 0.0028506647795438766, 0.00451257498934865, 0.004328938666731119, 0.007827343419194221, 0.00042791126179508865, -9.79003234533593e-05, -0.00014362465299200267, -0.0006368808099068701, -0.0007097753696143627, -0.0012596334563568234, -0.016905158758163452, -0.013773947022855282, -0.0012995890574529767, -0.0010767815401777625, 0.0002888169256038964, -0.0270526185631752, 0.016839005053043365, 0.013757140375673771, 0.0013600068632513285, 0.0011452846229076385, -0.000234928957070224, 0.02699495106935501, 0.011408170685172081, 0.011057318188250065, 0.004260326270014048, 0.004821807611733675, 0.0034522253554314375, 0.02044706419110298, -0.010967395268380642, -0.010798770003020763, -0.00441858172416687, -0.005047646816819906, -0.0037032959517091513, -0.01989426463842392, -0.019727569073438644, -0.014957798644900322, 0.0005820235819555819, 0.0011690957471728325, 0.0023660031147301197, -0.030355075374245644, -0.015340386889874935, -0.007920750416815281, -0.016339655965566635, -0.033712238073349, -0.032142531126737595, -0.038716159760951996, -0.0024016869720071554, -0.00045450785546563566, -0.002237502718344331, -0.007956658490002155, -0.007381089497357607, -0.010489629581570625, -4.545866613625549e-05, -0.00015558997984044254, 5.561352736549452e-05, 0.0008898633532226086, 0.0008604964823462069, 0.0013100376818329096, 0.018770355731248856, 0.010693049058318138, 0.01981932856142521, 0.038145359605550766, 0.036572691053152084, 0.043046530336141586, -0.018556972965598106, -0.010493945330381393, -0.019620515406131744, -0.03796231001615524, -0.03638352081179619, -0.04289752244949341, -0.012007776647806168, -0.005384530406445265, -0.012828944250941277, -0.028840189799666405, -0.02731042169034481, -0.03380511328577995, 0.011461644433438778, 0.004990291316062212, 0.012242655269801617, 0.027976859360933304, 0.0264570489525795, 0.032920073717832565, 0.021498078480362892, 0.012908315286040306, 0.022541526705026627, 0.041641779243946075, 0.040069472044706345, 0.04647969454526901, -0.06353919208049774, 0.04491936415433884, -0.06960741430521011, -0.13914315402507782, 0.09571143239736557, 0.10228773206472397, -0.011768133379518986, 0.03809753432869911, -0.035808954387903214, -0.007153745740652084, -0.003138178028166294, -2.251126898045186e-05, -0.002460428513586521, -0.006422644946724176, -0.00041658818372525275, 0.000999738578684628, -0.0007715558167546988, -0.0017183704767376184, -0.07773087918758392, 0.05033231899142265, 0.07863882184028625, -0.016797343268990517, -0.19776271283626556, -0.031849879771471024, 0.06450819969177246, 0.04325525090098381, -0.19319230318069458, -0.1368790864944458, 0.1353987753391266, -0.012467332184314728, 0.10560646653175354, -0.045135874301195145, -0.19199620187282562, -0.11195892095565796, 0.10172705352306366, 0.07575951516628265, 0.05314423888921738, -0.13409066200256348, 0.1238495409488678, 0.08941105753183365, -0.08784706890583038, 0.03412450850009918, -0.03817668929696083, -0.12300290167331696, 0.25676944851875305, 0.03431546315550804, -0.10595139116048813, -0.05978533625602722, 0.13406577706336975, 0.4951198399066925, 0.03434108570218086, -0.0011081170523539186, 0.4825471043586731, -0.007879468612372875, -0.025133473798632622, 0.2902946174144745, -0.23988069593906403, 0.16504034399986267, 0.19077114760875702, 9.329029853688553e-05, -0.779388427734375, -0.030308274552226067, 0.04638764634728432, -0.5251803398132324, -0.34526413679122925, 0.017865903675556183, -0.10357163846492767, -1.2442393199307844e-05, 0.043501779437065125, -0.00444778660312295, 0.030017316341400146, -0.15375153720378876, -0.2673099935054779, -0.04455380141735077, 0.6004562377929688, -8.361286745639518e-06, -0.7150656580924988, -0.004718943499028683, 0.03156869858503342, 0.05667593330144882, -0.12855853140354156, 0.6100493669509888, 0.05811643972992897, 2.2385092961485498e-05, 0.11456485092639923, 0.013356729410588741, -0.04855330288410187, -0.02844669297337532, -0.024527160450816154, -0.07010364532470703, 0.41863101720809937, 6.716843472531764e-06, -0.4844823181629181, 0.00525311753153801, -0.018415536731481552, -0.058287158608436584, 0.0851457342505455, -0.3225046694278717, 0.14567503333091736, -2.6016929041361436e-05, 0.009372897446155548, 0.006926559843122959, -0.01313232071697712, 0.14865221083164215, 0.15617163479328156, -0.009222226217389107, 0.7702338695526123, -1.3310654139786493e-05, -0.30348461866378784, -0.020160308107733727, 0.005113819148391485, -0.35721555352211, -0.012728539295494556, -0.11445198208093643, 0.00011629905930021778, 7.40710584068438e-06, 0.15917538106441498, 0.022835401818156242, 0.03836275264620781, -0.2849655747413635, -0.09137032926082611, -0.0773099809885025, 0.42448893189430237, 7.362860924331471e-05, -0.3112969994544983, 0.009077162481844425, -0.005281523335725069, -0.36153504252433777, -0.171149343252182, 0.35686323046684265, -0.24582183361053467, -0.07999736070632935, -0.02219308167695999, 0.0004390598041936755, -0.273540735244751, -0.015851590782403946, 0.28906330466270447, 0.1721121072769165, 0.17944298684597015, 0.04220094159245491, 0.3028186559677124, -0.01231310237199068, 0.080405093729496, 0.07216266542673111, -0.0004190127656329423, -0.19968441128730774, 0.05416877195239067, 0.12468266487121582, 0.15878403186798096, 0.17773433029651642, 0.23860737681388855, 0.15821093320846558, 0.1296035647392273, -0.2432621419429779, -0.022765809670090675, 0.014587859623134136, -0.04623781517148018, 0.025657285004854202, 0.05357266962528229, 0.36255553364753723, 0.037396207451820374, 0.06919457018375397, 0.06353194266557693, -0.03282400220632553, 0.06302917748689651, 0.022165831178426743, 0.15279529988765717, 0.0765768364071846, 0.07865016162395477, -0.0342349074780941, 0.1646088808774948, 0.41334307193756104, 0.022043639793992043, -0.05721460282802582, -0.0207198653370142, 0.0812627300620079, 0.0863165631890297, 0.30896127223968506, -0.09302229434251785, -0.1380547285079956, -0.14433906972408295, -0.08494933694601059, -0.06644260883331299, 0.3782291114330292, -0.04316464066505432, 0.01390646118670702, 0.08246660977602005, 0.05379517003893852, 0.0963522344827652, -0.14873674511909485, 0.01299438439309597, 0.10336191207170486, -0.07225620746612549, 0.2113303691148758, -0.08069606125354767, 0.07159952819347382, -0.0192593801766634, -0.19192300736904144, 0.03285125270485878, 0.16459567844867706, -0.036855846643447876, -0.361004114151001, -0.1207568496465683, -0.32197991013526917, -0.2252061665058136, -0.14338192343711853, -0.03370819240808487, 0.4560602307319641, -0.1519785374403, 0.2132607400417328, 0.21337829530239105, 0.042045168578624725, 0.06264840066432953, -0.3882330656051636, -0.05548742040991783, 0.03249864652752876, -0.11143697798252106, 0.1369367092847824, -0.08690711855888367, 0.009203261695802212, -0.20743535459041595, -0.13479548692703247, -0.1883489340543747, -0.1173282042145729, -0.13452190160751343, 0.12787310779094696, -0.013877312652766705, -0.18901897966861725, -0.2810998260974884, -0.2623788118362427, -0.05973679572343826, 0.3943605422973633, 0.06837653368711472, -0.033412884920835495, 0.2010340839624405, -0.13689279556274414, 0.023743832483887672, 0.049580562859773636, -0.09034141153097153, -0.018421348184347153, 0.11035848408937454, -0.04001074656844139, 0.1509752869606018, 0.17067430913448334, 0.33962151408195496, -0.11054830253124237, 0.0029859861824661493, 0.1418948620557785, -0.07647732645273209, -0.05463992431759834, -0.0886836126446724, 0.010331185534596443, -0.07356268912553787, 0.01913788542151451, 0.15845908224582672, 0.07094009965658188, -0.2336338311433792, 0.02014935575425625, 0.0024248864501714706, -0.13798251748085022, 0.09523959457874298, 0.15379232168197632, 0.09510466456413269, 0.008906886912882328, 0.07605602592229843, -0.1755409985780716, 0.13678327202796936, 0.4138704836368561, 0.056779831647872925, 0.007513593416661024, -0.08554062247276306, -0.02695279009640217, -0.06411710381507874, 0.00362732307985425, 0.06463349610567093, 0.0422368086874485, -0.07590948045253754, 0.031590841710567474, -0.0304714348167181, 0.07172449678182602, -0.08255703002214432, 0.007415054831653833, -0.03152351453900337, 0.06524225324392319, -0.009453585371375084, -0.00806385651230812, 0.01485193707048893, -0.04089347645640373, 0.027437305077910423, 0.09574791043996811, 0.09405074268579483, 0.08275580406188965, -0.049922287464141846, -0.16108310222625732, -0.05484476312994957, 0.0544506274163723, -0.14662879705429077, 0.13050411641597748, 0.04950237274169922, -0.021650398150086403, 0.03350663557648659, 0.04939883202314377, 0.05182325839996338, 0.013316946104168892, 0.027703961357474327, 0.08619541674852371, 0.009265207685530186, -0.055873382836580276, 0.10998978465795517, -0.009474714286625385, 0.062421251088380814, 0.01489620003849268, 0.03893023729324341, -0.014454096555709839, 0.12710770964622498, 0.0657157227396965, -0.0038314317353069782, 0.038968607783317566, 0.0041592540219426155, -0.030198637396097183, -0.010844922624528408, -0.07759328931570053, 0.032278694212436676, -0.007568239700049162, 0.026967711746692657, 0.028475364670157433, 0.019225208088755608, -0.03750007227063179, 0.00595729099586606, 0.03112027421593666, -0.019078794866800308, -0.004226637072861195, 0.020778870210051537, 0.0326475091278553, -0.03264551982283592, -0.019117604941129684, 0.10337059944868088, -0.1497698873281479, 0.15678732097148895, 0.0242408849298954, -0.01984727568924427, -0.09865769743919373, 0.1384403556585312, -0.10357718914747238, 0.08221700042486191, 0.005583308637142181, -0.011965295299887657, 0.00651063397526741, 0.14835914969444275, -0.0582723505795002, 0.09179984033107758, 0.028131186962127686, 0.048624828457832336, 0.06132836267352104, -0.10408230870962143, 0.06047024950385094, -0.004327784758061171, -0.019335133954882622, -0.011968798004090786, 0.00831103976815939, 0.10742441564798355, -0.09759387373924255, 0.07370860129594803, -0.05357518419623375, 0.0019207581644877791, 0.04085651412606239, 0.0424472875893116, 0.017365815117955208, -0.018366742879152298, -0.0007100570946931839, -0.04653205722570419, 0.003264224622398615, 0.17365257441997528, -0.08343417942523956, 0.045162737369537354, -0.0014636546839028597, -0.0016696241218596697, -0.023774413391947746, -0.01595081388950348, 0.06819528341293335, -0.15684813261032104, -0.292866051197052, 0.2264455258846283, 0.15383590757846832, 0.20305563509464264, 0.2710866630077362, 0.15174080431461334, 0.315677672624588, 0.1816694736480713, 0.15425969660282135, 0.019628871232271194, 0.1768999993801117, 0.1913580745458603, -0.0678875669836998, -0.2534007132053375, -0.13055510818958282, -0.1692923605442047, -0.07246667891740799, -0.07903632521629333, 0.40222081542015076, -0.056503549218177795, -3.994335565948859e-05, 0.18699601292610168, 0.2235877811908722, -0.1441260129213333, -0.22083225846290588, 0.1693853735923767, 0.12273971736431122, 0.22358489036560059, -3.4177588759121136e-07, -0.1591489613056183, 0.008816980756819248, -0.08294051885604858, -0.23226654529571533, -0.17925861477851868, -0.2993037700653076, -0.10040421783924103, 0.1431833952665329, -0.17712177336215973, -0.1904878467321396, -0.08880782872438431, -0.2755068838596344, 0.10843569785356522, 0.18122024834156036, -0.07174669206142426, -0.04084569215774536, -0.04694436490535736, 0.02910320647060871, -0.05734572559595108, 0.006482903379946947, -0.13882611691951752, 0.11217456310987473, -0.09271571040153503, -0.058155737817287445, 0.22419892251491547, -0.16989000141620636, 0.3858349025249481, -0.21992440521717072, -0.0012350413016974926, 0.11561663448810577, 0.14617875218391418, 0.0005637268186546862, 0.10342103987932205, 0.05601786449551582, -0.1518099308013916, -0.04258780553936958, 0.1978255659341812, -0.12256843596696854, -0.30506619811058044, 0.11725670099258423, 0.13359791040420532, -0.007248444017022848, -0.13701428472995758, 0.03018307127058506, -0.0765347108244896, 0.13816694915294647, 0.07833940535783768, -0.04127984866499901, 0.20160062611103058, -0.2649354338645935, 0.139313206076622, 0.023291127756237984, -0.04628963768482208, -0.0719337984919548, -0.007551183458417654, -0.049162596464157104, 0.2334587723016739, 0.03717956691980362, -0.13867321610450745, -0.08955990523099899, 0.17143353819847107, -0.15714940428733826, -0.14009293913841248, -0.1973913162946701, 0.16620589792728424, -0.1274387240409851, -0.24239683151245117, 0.03303614631295204, 0.04467575624585152, -0.173415869474411, 0.24333271384239197, -0.2680770456790924, 0.0440402515232563, 0.24028277397155762, 0.02103181555867195, 0.09601081907749176, -0.30753692984580994, 0.4002220630645752, -0.33327165246009827, -0.08495648950338364, -0.04061908647418022, 0.10100753605365753, -0.20924437046051025, 0.08435528725385666, 0.05734335631132126, -0.006587605457752943, -0.006398804485797882, -0.2042311280965805, 0.4504058361053467, -0.4466698169708252, 0.03658556565642357, 0.089597187936306, 0.039664968848228455, -0.14957071840763092, 0.17549800872802734, -0.27160564064979553, 0.01997535675764084, 0.06038727983832359, -0.06378044188022614, 0.016453757882118225, -0.16917428374290466, 0.04098222404718399, 0.001072134356945753, -0.08373457938432693, 0.018902886658906937, 0.1397634744644165, -0.3231225311756134, 0.21188274025917053, 0.04243869706988335, -0.01744280941784382, -0.3762925863265991, 0.0013172987382858992, -0.016309786587953568, -0.018873736262321472, -0.03802281245589256, 0.17621000111103058, -0.07569875568151474, -0.0006371416384354234, 0.17497576773166656, 0.6147236227989197, 0.021676460281014442, -0.044876351952552795, 0.0015331145841628313, 0.6969281435012817, -0.006272237282246351, -0.20144814252853394, 0.1674344837665558, 0.0034492132253944874, -0.07204780727624893, 0.1506388932466507, 0.2107752412557602, -0.10265744477510452, -0.0643053874373436, 0.3148226737976074, 0.19410210847854614, -0.2225303202867508, 0.2497575432062149, -0.2163916379213333, -0.10735541582107544, -0.013151357881724834, -0.05221796780824661, 0.8714629411697388, 0.04610510170459747, 0.22549282014369965, -0.16448429226875305, 0.14177663624286652, -0.16658368706703186, -0.17580164968967438, -0.3216531276702881, 0.046816639602184296, -0.708688497543335, 0.3811878263950348, 0.277911901473999, -0.15004462003707886, 0.0010038387263193727, 0.26536986231803894, -0.13111375272274017, 0.10066396743059158, 0.29109761118888855, -0.00902970414608717, 0.04818491265177727, 0.07112756371498108, 0.071263886988163, -0.06621547788381577, 0.010931771248579025, 0.17629866302013397, -0.4901699423789978, 0.11436205357313156, 0.1594465672969818, 0.2084413319826126, 0.250838965177536, 0.16632577776908875, 0.04052029922604561, -0.09269797801971436, -0.4870491623878479, 0.5629397630691528, -0.02344883233308792, -0.004383629187941551, 0.059134792536497116, 0.3752487599849701, 0.42513006925582886, -0.2666465938091278, -0.24945750832557678, 0.2029893547296524, 0.3760848343372345, -0.14675027132034302, -0.21440091729164124, 0.41174644231796265, -0.34776973724365234, 0.11597493290901184, -0.027704160660505295, 0.010151129215955734, 0.019931860268115997, -0.057742081582546234, 0.21696437895298004, -0.16341464221477509, -0.09445105493068695, -0.2157338410615921, -0.16863735020160675, -0.012324945069849491, -0.0047686174511909485, 0.10334253311157227, -0.10335749387741089, -0.2629920542240143, 0.06120750680565834, -0.05178884416818619, 0.12737025320529938, 0.1971217691898346, -0.18057118356227875, 0.004149367101490498, 0.12373258918523788, 0.0882977843284607, 0.22344505786895752, 0.061465900391340256, 0.2380155771970749, -0.32585608959198, -0.02886040322482586, -0.11834117025136948, 0.04630885273218155, -0.10982533544301987, -0.05929924175143242, 0.35028353333473206, 0.10370464622974396, 0.08054224401712418, 0.13584627211093903, 0.11120660603046417, 0.18823745846748352, -0.1870422661304474, -0.14174406230449677, 0.06478873640298843, 0.0903778076171875, -0.0029237205162644386, -0.15297430753707886, -0.16510459780693054, -0.01929343305528164, -0.08814151585102081, -0.06741472333669662, -0.07331531494855881, 0.07302353531122208, 0.1987248957157135, -0.03554075211286545, 0.019824981689453125, -0.2773580253124237, -0.10470768064260483, -0.16531793773174286, 0.45374351739883423, -0.003753941273316741, -0.09964554011821747, -0.03453485295176506, 0.0019828968215733767, -0.02012423239648342, 0.005368961952626705, 0.013626400381326675, -0.008682839572429657, 0.10160748660564423, 0.13003753125667572, 0.11734414845705032, -0.14324143528938293, -0.06457582861185074, -0.18747879564762115, -0.0028857730794698, 0.053174037486314774, 0.023776525631546974, -0.12489884346723557, -0.04735283926129341, -0.040847741067409515, 0.06399005651473999, -0.0814245268702507, 0.06006093695759773, -0.19181683659553528, 0.13318906724452972, 0.10041163861751556, 0.07113935798406601, 0.06950059533119202, 0.17171043157577515, -0.017987117171287537, 0.04390236735343933, 0.005532881710678339, 0.025762587785720825, 0.023464877158403397, 0.18614643812179565, -0.16429875791072845, 0.10837361961603165, 0.04741782695055008, 0.1976570039987564, -0.07228849083185196, 0.26269036531448364, -0.08860614895820618, -0.006079841870814562, 0.021115833893418312, 0.21902918815612793, -0.005431960336863995, -0.00503751402720809, -0.014477618969976902, -0.07427742332220078, -0.0038626433815807104, 0.03941934183239937, 0.060314424335956573, -0.0004000455082859844, -0.13168707489967346, -0.04727691784501076, -0.1201922595500946, -0.09467965364456177, -0.0007315368857234716, -0.1582791805267334, 0.06105494499206543, -0.12613828480243683, -0.10503984242677689, -0.010525915771722794, 0.2869076728820801, -0.08908846229314804, -0.42375195026397705, -0.0030229806434363127, 0.0035506230778992176, -0.210768923163414, -0.04684722423553467, 0.16326037049293518, -0.18563726544380188, -0.10621636360883713, 0.021915923804044724, 0.15465044975280762, 0.06287491321563721, 0.14744612574577332, -0.14360453188419342, -0.08464901149272919, -0.09178996831178665, 0.03825285658240318, 0.2387351393699646, 0.3159596920013428, -0.16378238797187805, -0.0340239480137825, 0.10092553496360779, 0.24494518339633942, 0.06990287452936172, 0.35334503650665283, -0.2574259340763092, 0.02395612746477127, -0.041128501296043396, -0.23443034291267395, -0.17826877534389496, 0.0241486094892025, 0.10802402347326279, -0.02108394354581833, 0.0015113309491425753, -0.033465296030044556, -0.04229896515607834, 0.010149084031581879, -0.20906884968280792, 0.07882820814847946, -0.09354609251022339, 0.037340227514505386, -0.16661803424358368, 0.21081320941448212, 0.36102837324142456, 0.0003887258062604815, 0.013860817067325115, 0.02899501845240593, 0.05282273143529892, 0.0464518778026104, -0.38510480523109436, -0.05051475390791893, 0.0009365768637508154, -0.13764986395835876, -0.09941340237855911, -0.23638562858104706, 0.5323353409767151, -0.1333230435848236, 0.16378752887248993, -0.11290105432271957, 0.04850539192557335, 0.32165849208831787, -0.1351826786994934, -0.051886409521102905, 0.019712381064891815, -0.0474095419049263, -0.04989507421851158, -0.014098715037107468, 0.27665212750434875, 0.0082625113427639, -0.0790930911898613, -0.11865125596523285, 0.009570423513650894, -0.3619452118873596, 0.3341076076030731, 0.004530698526650667, -0.029755109921097755, -0.021305887028574944, -0.06509529054164886, -0.17347578704357147, 0.4257625341415405, 0.06476709246635437, 0.03717852011322975, 0.015948621556162834, 0.0760904997587204, 0.12232104688882828, 0.11824361234903336, -0.013524598442018032, -0.09975170344114304, -0.0027014226652681828, 0.0486006885766983, 0.03647458553314209, 0.06890988349914551, -0.07514674216508865, 0.16974225640296936, -0.08757414668798447, -0.1228867694735527, -0.1536320596933365, 0.07603602111339569, -0.020383965224027634, -0.02262253873050213, -0.06944949924945831, -0.012966074980795383, -0.05110500752925873, 0.19592641294002533, 0.025587964802980423, -0.053354863077402115, 0.011532140895724297, -0.12076826393604279, -0.17520210146903992, 0.1695571392774582, 0.05345704406499863, 0.06185535341501236, 0.028302056714892387, 0.04607347398996353, -0.0073761832900345325, 0.2135123610496521, -0.07166838645935059, -0.054084256291389465, -0.0714460015296936, -0.1509571075439453, -0.17492873966693878, 0.40836217999458313, -0.0007410990074276924, -0.06574252247810364, -0.06813115626573563, -0.009275326505303383, -0.04917962849140167, 0.21621690690517426, -0.12084001302719116, -0.2244022935628891, -0.15947020053863525, -0.4109078347682953, -0.29576846957206726, -0.15240731835365295, 0.07872872054576874, 0.007536773569881916, 0.005070826038718224, -0.14649233222007751, 0.2840343713760376, 0.14025600254535675, 0.05947849527001381, -0.15991030633449554, -0.17181289196014404, -0.10974057763814926, -0.3375784754753113, 0.032968588173389435, 0.0757874995470047, -0.09192753583192825, 0.05909935012459755, -0.05049875006079674, -0.025197908282279968, -0.0858466848731041, 0.04441283643245697, 0.08821070939302444, 0.08542822301387787, -0.08819781243801117, -0.02742571197450161, 0.10210258513689041, -0.07723740488290787, -0.08368487656116486, -0.25959089398384094, -0.015797214582562447, -0.4109894633293152, -0.24071422219276428, -0.09598778933286667, -0.01036891620606184, -0.1090790182352066, -0.06224486976861954, -0.1737724393606186, -0.17600588500499725, -0.10168169438838959, 0.020420268177986145, -0.016046449542045593, -0.009126982651650906, 0.033462319523096085, -0.10848387330770493, -0.09576993435621262, 0.04726395756006241, -0.025994686409831047, -0.1960451453924179, -0.0807519182562828, 0.0651320293545723, 0.00897668395191431, -0.05708220973610878, 0.023867808282375336, -0.03904076665639877, 0.1342144012451172, -0.3507367670536041, 0.014567249454557896, 0.14330480992794037, -0.02221297286450863, -0.038128457963466644, -0.09260081499814987, 0.3402644991874695, 0.0018152390839532018, -0.0208926759660244, -0.07069189101457596, 0.012128298170864582, 0.23124681413173676, -0.352998286485672, 0.18763017654418945, -0.020232198759913445, 0.0230709221214056, -0.14123483002185822, -0.15742141008377075, 0.2841176986694336, -0.1843118518590927, -0.14828775823116302, -0.25503048300743103, -0.12815381586551666, -0.33042317628860474, -0.25650447607040405, -0.044929374009370804, -0.04867713153362274, -0.0330100879073143, -0.05446205288171768, -0.023948030546307564, 0.09249614924192429, 0.11788951605558395, 0.11543188244104385, 0.1720132827758789, 0.03838995099067688, 0.09520015120506287, -0.18461433053016663, -0.03518104553222656, -0.02233840711414814, -0.016684534028172493, -0.05510547384619713, 0.020868072286248207, 0.04036615416407585, -0.016278866678476334, 0.17759202420711517, -0.032415103167295456, 0.02144683711230755, -0.009660040959715843, 0.03071829304099083, -0.08688754588365555, -0.10356785356998444, -0.0064811669290065765, -0.15779145061969757, -0.05286766216158867, 0.02570793218910694, 0.014263241551816463, -0.024135908111929893, -0.0273223128169775, -0.030402764678001404, -0.0081003587692976, 0.04670710489153862, 0.008416657336056232, 0.1160467192530632, -0.06715618818998337, 0.006826403085142374, -0.09634567052125931, -0.0030137626454234123, -0.023657210171222687, 0.0323515385389328, -0.09201554208993912, -0.02237396128475666, 0.055139847099781036, 0.039014145731925964, 0.05399416759610176, -0.1616538017988205, 0.016412965953350067, 0.004796492867171764, 0.005396849010139704, -0.04245800897479057, 0.01585141383111477, -0.021922357380390167, 0.03815561160445213, -0.07761281728744507, 0.04884590953588486, 0.007755015976727009, 0.11687492579221725, -0.0845244750380516, -0.044453661888837814, -0.018842162564396858, -0.19140544533729553, 0.1611952930688858, 0.16396719217300415, -0.1404855102300644, -0.4676532447338104, 0.059853531420230865, 0.2285052090883255, -0.21824239194393158, -0.05839831754565239, -0.722992479801178, 0.031423602253198624, 0.0749751403927803, -0.13253606855869293, 0.002192144049331546, -0.2826540172100067, 0.37709009647369385, 0.17486673593521118, 0.3332971930503845, -0.09376015514135361, 0.13945603370666504, -0.34075936675071716, 0.16461119055747986, 0.2031959891319275, 0.21742165088653564, -0.005367289762943983, -0.040292076766490936, -0.21824826300144196, -0.11186904460191727, 0.17061832547187805, -0.2635357677936554, -0.30701640248298645, 0.27852511405944824, -0.1733470857143402, 0.3796781897544861, -0.012626374140381813, 0.17675842344760895, 0.17209263145923615, 0.04403117671608925, 0.17596928775310516, 0.39815983176231384, -0.1607302576303482, -0.20935609936714172, -0.3213246166706085, -0.16235262155532837, -0.042109135538339615, 0.1667245626449585, 0.34744349122047424, -0.1112297922372818, 0.034851640462875366, 0.03982497379183769, -0.26152217388153076, 0.05760530009865761, 0.03143841400742531, 0.10263221710920334, 0.11585187166929245, 0.09719482064247131, -0.07656669616699219, -0.056871771812438965, 0.27749329805374146, -0.03424463048577309, 0.17248724400997162, 0.06234327331185341, -0.1825263500213623, 0.24747943878173828, -0.48522499203681946, -0.200071781873703, -0.28742071986198425, -0.0014724483480677009, 0.3422914147377014, -0.31240400671958923, -0.4783920645713806, 0.19623646140098572, -0.2896558344364166, -0.03346232697367668, -0.18058212101459503, -0.17814303934574127, 0.13526175916194916, 0.1963425576686859, -0.2843109965324402, 0.15355975925922394, 0.20306432247161865, -0.03842073306441307, 0.11083730310201645, 0.04120288044214249, -0.09218184649944305, 0.004249354358762503, 0.05294075235724449, 0.04608071595430374, -0.03217039629817009, 0.38648512959480286, 0.015890171751379967, -0.02274155803024769, -0.08506719768047333, -0.07069279253482819, -0.02563810534775257, 0.18218745291233063, 0.06475125253200531, 0.001010341802611947, -0.01451889518648386, 0.062318354845047, 0.0958336666226387, 0.14733998477458954, -0.034069135785102844, 0.020766735076904297, 0.016562316566705704, 0.008315777406096458, -0.049306001514196396, 0.23514579236507416, -0.03881031647324562, -0.060091402381658554, -0.08839249610900879, -0.096776083111763, -0.23447585105895996, 0.09871698915958405, -0.06422339379787445, -0.011391762644052505, 0.0190188717097044, -0.014273717999458313, -0.07081370055675507, 0.30062875151634216, -0.010371255688369274, 0.009342797100543976, 0.01025131531059742, -0.04135381430387497, -0.25006523728370667, 0.31929048895835876, 0.03573702275753021, -0.003522047773003578, -0.017679844051599503, -0.04644840210676193, 0.08024770766496658, 0.07856196910142899, -0.01644311659038067, 0.046268582344055176, 0.08763595670461655, 0.11236526817083359, 0.11599879711866379, -0.8389842510223389, 0.11093457043170929, 0.061197664588689804, 0.04438917338848114, 0.033964868634939194, 0.1762407273054123, -0.7756378054618835, 0.03556058183312416, -0.00021540012676268816, -0.009681649506092072, 0.05089162662625313, -0.07822669297456741, -0.43198710680007935, 0.014465121552348137, -0.007474715355783701, -0.01242718007415533, 0.11285418272018433, 0.058065902441740036, -0.4544818103313446, 0.06371860206127167, 0.005197334568947554, 0.048302795737981796, 0.07054453343153, -0.020455121994018555, -0.23700855672359467, -0.01178843341767788, 0.09698577970266342, 0.12244656682014465, 0.15946562588214874, 0.24057668447494507, -0.40988966822624207, 0.09355442970991135, 0.06653162837028503, 0.10086816549301147, 0.003368687815964222, 0.3386131525039673, -0.48888465762138367, -0.09910806268453598, -0.07614289224147797, -0.10711753368377686, -0.14377161860466003, -0.2649742066860199, -0.49326205253601074, 0.015780340880155563, -0.0008753296569921076, 0.07285244762897491, 0.07571432739496231, 0.22001664340496063, -0.030845731496810913, 0.006758807692676783, 0.027915995568037033, 0.0409366711974144, -0.048453833907842636, -0.158090740442276, 0.1985078901052475, -0.0243734922260046, 0.043384552001953125, 0.03526272624731064, 0.2201930582523346, 0.3135857582092285, -0.026008017361164093, 0.029731862246990204, -0.0010330945951864123, 0.002650274196639657, -0.008847672492265701, -0.003397438209503889, 0.11801519989967346, 0.06841270625591278, 0.007558705285191536, 0.09474567323923111, 0.2681707441806793, 0.44578707218170166, 0.04909887537360191, -0.06512945890426636, -0.10805012285709381, -0.11471939831972122, 0.17463532090187073, 0.12607945501804352, -0.033504851162433624, -0.04179619997739792, 0.003760185092687607, 0.05036158487200737, -0.07289020717144012, -0.03808426856994629, 0.10957367718219757, 0.03811926394701004, 0.018965670838952065, -0.03484762832522392, -0.058931104838848114, -0.12205337733030319, 0.23267309367656708, -0.02059709094464779, -0.05960706248879433, 0.06858356297016144, 0.2249511480331421, -0.14536041021347046, 0.11874275654554367, -0.03440855070948601, -0.07363461703062057, -0.07053705304861069, -0.010648711584508419, -0.007124974392354488, -0.04775014892220497, -0.12522070109844208, -0.06690239906311035, 0.014539016410708427, -0.20732569694519043, -0.2007369101047516, 0.09071148931980133, -0.068672314286232, 0.07269641011953354, 0.08896692097187042, 0.1654161512851715, 0.10808607935905457, -0.0029920379165560007, -0.13479317724704742, 0.04639214649796486, 0.09444379061460495, -0.13241808116436005, 0.17535258829593658, -0.036520492285490036, -0.13487578928470612, 0.12744396924972534, 0.23739923536777496, 0.11147022992372513, 0.036955446004867554, -0.1369657963514328, -0.02576853334903717, 0.047687601298093796, 0.011551952920854092, -0.04739893227815628, 0.10421942919492722, 0.12428668886423111, 0.14873144030570984, -0.09082362055778503, -0.1324990838766098, -0.09450548887252808, -0.2066269963979721, 0.014958632178604603, -0.005412476137280464, 0.07132162153720856, 0.06120717525482178, 0.10355658084154129, 0.06854898482561111, -0.10476651042699814, 0.0052927760407328606, 0.04705508053302765, -0.011935023590922356, -0.015519578009843826, 0.08731648325920105, -0.08398519456386566, 0.0783233568072319, 0.017429105937480927, 0.021495992317795753, 0.017910830676555634, -0.1443038433790207, -0.0685901939868927, -0.029767056927084923, 0.005039498209953308, 0.05104106664657593, 0.10411044210195541, 0.1439223736524582, -0.2580181360244751, 0.0809149295091629, 0.06491199135780334, -0.03529614210128784, -0.014706429094076157, -0.12540127336978912, 0.05928969755768776, -0.038825616240501404, 0.01897403597831726, -0.07849808037281036, 0.09220242500305176, -0.14917391538619995, -0.20244699716567993, -0.016743365675210953, 0.060821473598480225, 0.011212681420147419, -0.054552193731069565, -0.03481219336390495, -0.13774393498897552, 0.041204750537872314, -0.0815783441066742, -0.051399167627096176, -0.07230132818222046, -0.010111120529472828, -0.3372446894645691, 0.11280738562345505, 0.0027325458358973265, 0.050795696675777435, 0.10621896386146545, -0.029322855174541473, -0.0374138280749321, 0.011486397124826908, 0.03495198115706444, 0.12769725918769836, 0.13930539786815643, 0.05688811093568802, 0.03277331218123436, -0.07854011654853821, -0.035241320729255676, -0.03260326012969017, -0.059551630169153214, 0.03159269690513611, 0.0202774778008461, -0.0035447129048407078, -0.06812386959791183, -0.03760664165019989, -0.03190288692712784, 0.03409317880868912, -0.11381257325410843, -0.03455641493201256, -0.02112261950969696, -0.03449001908302307, -0.04233959689736366, -0.13302208483219147, 0.23971860110759735, -0.03625165671110153, 0.03062363713979721, -0.07950287312269211, -0.06816888600587845, -0.09162167459726334, -0.05707331374287605, -0.07056578248739243, -0.040014564990997314, -0.0058607966639101505, -0.05358411744236946, -0.1870054006576538, -0.1218850389122963, 0.04879669100046158, 0.10450576990842819, 0.023552773520350456, 0.028273437172174454, 0.16078205406665802, -0.23822443187236786, -0.05053495615720749, -0.08048953860998154, -0.02403203584253788, -0.06362178176641464, -0.2595592141151428, 0.13378368318080902, 0.04461885243654251, 0.14595909416675568, 0.1297793686389923, 0.1749729961156845, 0.279939204454422, 0.19741293787956238, 0.04000086337327957, 0.021439241245388985, -0.03827357292175293, -0.06417493522167206, -0.33728525042533875, 0.08079413324594498, 0.0796407163143158, -0.01581725664436817, 0.012709202244877815, 0.06040239334106445, 0.15757128596305847, -0.24548926949501038, 0.14253181219100952, 0.07710672169923782, 0.09797913581132889, 0.08010160177946091, -0.32917168736457825, 0.191647469997406, -0.022664375603199005, -0.08567237854003906, -0.017286507412791252, -0.09216836094856262, -0.01698272116482258, -0.1486092507839203, 0.07973989099264145, 0.07520303875207901, 0.03816364333033562, 0.08080817759037018, -0.02618698962032795, -0.17280805110931396, -0.0901886448264122, 0.00013670050248038024, -0.03571222350001335, 0.019012542441487312, 0.1683673858642578, -0.13296939432621002, -0.021278278902173042, 0.04287440702319145, -0.06554368138313293, 0.07774479687213898, 0.3194209039211273, 0.09736768156290054, 0.06501056253910065, -0.08598285168409348, 0.1781199872493744, -0.27323970198631287, 0.0917186513543129, 0.028053367510437965, 0.002093061339110136, -0.013518419116735458, -0.027025502175092697, 0.09051355719566345, -0.09059986472129822, -0.08978644013404846, 0.04118918254971504, 0.13650652766227722, 0.07706977427005768, 0.0021395066287368536, 0.2917073965072632, 0.10800671577453613, -0.04663299396634102, -0.08846437186002731, 0.061340708285570145, 0.04733491316437721, 0.06784094870090485, 0.009971695020794868, -0.02249622903764248, -0.003399682929739356, -0.25625699758529663, 0.13301202654838562, 0.3958166539669037, -0.16270580887794495, -0.03983836621046066, -0.05429770052433014, -0.06094317138195038, 0.08750815689563751, -0.02733042649924755, -0.04152262210845947, -0.029266756027936935, -0.09032779186964035, 0.01810082420706749, -0.13562221825122833, -0.15777765214443207, -0.02144574746489525, -0.34045079350471497, -0.05414470657706261, 0.273185670375824, 0.09034094959497452, 0.11603030562400818, 0.21470557153224945, 0.27882644534111023, -0.025333136320114136, -0.23784370720386505, 0.30453699827194214, 0.8418095707893372, 0.009258925914764404, 0.6092658042907715, -0.003075529122725129, -0.645037055015564, 0.21884334087371826, -0.0663076713681221, 0.4794912338256836, -0.27280664443969727, -0.3129290044307709, 0.2062833607196808, 0.10025319457054138, -0.12455873191356659, -0.3449242413043976, -0.07223538309335709, 0.5639782547950745, 0.1317853480577469, -0.01394059881567955, -0.09171012789011002, -0.04303412884473801, -0.03587687760591507, 0.05202912539243698, -0.10028311610221863, 0.36445289850234985, -0.036040496081113815, -0.2751871645450592, 0.004454841837286949, 0.0933973640203476, -0.19562342762947083, -0.23734547197818756, -0.006790616549551487, 0.4211563467979431, 0.27151235938072205, 0.13921944797039032, -0.20321260392665863, -0.14875616133213043, -0.16227197647094727, 0.08403800427913666, 0.20853076875209808, -0.24862387776374817, -0.14111661911010742, 0.2933124303817749, 0.1873132288455963, 0.04581618681550026, 0.11086574196815491, 0.2789600193500519, 0.3988209664821625, 0.062456537038087845, -0.03816412016749382, 0.11322569847106934, 0.38669607043266296, -0.04871025308966637, 0.022107882425189018, 0.13245485723018646, -0.46452605724334717, 0.8078249096870422, 0.2117483764886856, -0.18432509899139404, 0.059331223368644714, 0.24727225303649902, -0.1456746757030487, -0.12449927628040314, -0.04946665093302727, 0.46858182549476624, -0.20976808667182922, -0.2539975345134735, -0.024573253467679024, -0.2178248167037964, 0.03743162378668785, -0.4138508439064026, 0.06562333554029465, -0.017665324732661247, 0.14623557031154633, 0.12140296399593353, -0.16397608816623688, -0.13734062016010284, -0.14154650270938873, 0.22632260620594025, 0.041518356651067734, -0.005966918542981148, 0.005339290015399456, 0.02481319010257721, -0.0023792870342731476, 0.3267238140106201, -0.05525524169206619, 0.011164603754878044, -0.027445901185274124, -0.013810419477522373, -0.0367770791053772, 0.1515108346939087, -0.025046315044164658, 0.026202892884612083, -0.0162445567548275, -0.021562382578849792, -0.06496550142765045, -0.015259587205946445, -0.05764508247375488, -0.031689416617155075, -0.03315864875912666, -0.0695098489522934, -0.07978424429893494, -0.1244264468550682, -0.021976318210363388, -0.02070484682917595, -0.053205084055662155, -0.03603658452630043, -0.0009930615779012442, -0.05668562650680542, -0.08447298407554626, -0.10620725899934769, -0.02895452454686165, -0.023402540013194084, -0.01391314622014761, -0.024249641224741936, 0.10238727927207947, -0.0342094823718071, -0.05667103826999664, -0.005573015660047531, 0.026315268129110336, -0.12601792812347412, 0.034961286932229996, 0.04305502772331238, 0.10181760787963867, 0.1511792540550232, 0.10526443272829056, -0.07381321489810944, -0.08557804673910141, 0.08881057053804398, -0.031113451346755028, -0.14955922961235046, -0.1129508689045906, -0.3161185383796692, 0.14533674716949463, 0.12356147915124893, 0.03259610757231712, 0.11294559389352798, 0.2183726727962494, -0.0721893310546875, 0.16026264429092407, 0.17232215404510498, 0.14156542718410492, 0.162201926112175, 0.15788070857524872, 0.0287510734051466, -0.0953337550163269, 0.11786989122629166, 0.0042105913162231445, -0.017484012991189957, 0.003710260149091482, -0.13528437912464142, -0.07719238102436066, 0.06583984941244125, 0.12498896569013596, 0.06426016986370087, 0.09696776419878006, 0.1444736272096634, -0.026394829154014587, -0.14463333785533905, -0.0017346423119306564, 0.06140187010169029, -0.07457184046506882, -0.2597493529319763, 0.1794539839029312, 0.1047426164150238, 0.2229793816804886, 0.12405574321746826, 0.23284690082073212, 0.0032351661939173937, -0.0251651331782341, -0.09583649039268494, -0.07843071967363358, 0.010683556087315083, -0.011342798359692097, -0.1816636025905609, 0.044589564204216, 0.0169600211083889, 0.0639934316277504, -0.08053164184093475, -0.024411607533693314, 0.2527020573616028, 0.020091911777853966, 0.09575536847114563, 0.03700718283653259, 0.05019128695130348, 0.12660346925258636, -0.08543869107961655, -0.05797109752893448, -0.06618891656398773, -0.14209038019180298, 0.0016404405469074845, 0.021683475002646446, 0.18764829635620117, 0.01818455010652542, 0.03887622430920601, 0.0633421316742897, -0.02832883596420288, 0.12404344230890274, -0.028350401669740677, -0.14734463393688202, 0.0962408259510994, 0.10332780331373215, 0.012896810658276081, 0.3057587146759033, 0.02553754486143589, 0.03556440398097038, 0.054349690675735474, 0.030372334644198418, 0.13438351452350616, 0.05184395611286163, -0.11523527652025223, -0.02579713985323906, -0.005031661596149206, -0.012974992394447327, 0.029447004199028015, 0.18518054485321045, 0.029680190607905388, -0.0724678561091423, -0.03342362493276596, -0.02453749068081379, -0.04156853258609772, -0.19538535177707672, 0.10306587815284729, -0.0650002583861351, -0.055901192128658295, -0.06253581494092941, -0.04307510703802109, -0.03665752708911896, -0.21661895513534546, -0.061274051666259766, 0.02474995329976082, -0.011782531626522541, -0.02111632376909256, -0.06013787165284157, -0.05403192341327667, -0.012234837748110294, -0.0372178740799427, 0.04520159214735031, 0.08553019165992737, -0.12161587178707123, -0.07522401213645935, 0.012324445880949497, 0.027235906571149826, 0.0532054528594017, 0.052181802690029144, -0.018743103370070457, -0.14665938913822174, 0.15826469659805298, 0.19709692895412445, 0.17045500874519348, 0.27904757857322693, 0.08680548518896103, 0.21330960094928741, 0.10159364342689514, 0.0252650398761034, 0.03182380273938179, 0.11531854420900345, 0.04940151795744896, -0.4243052303791046, 0.004387811757624149, -0.049517374485731125, 0.013680539093911648, -0.014868526719510555, 0.09089314937591553, -0.14289052784442902, -0.0014447069261223078, -0.045164402574300766, -0.12308041751384735, -0.1212974488735199, -0.007246231194585562, -0.29101869463920593, 0.13083741068840027, 0.09659665077924728, 0.09033632278442383, 0.054829828441143036, 0.07714322209358215, 0.016223426908254623, -0.04510704427957535, 0.001956915482878685, -0.000461323099443689, 0.028101718053221703, 0.04595157131552696, 0.14813677966594696, -0.07617397606372833, -0.030906403437256813, -0.05696336179971695, -0.03461926430463791, -0.03097638301551342, -0.021572278812527657, 0.02847229316830635, -0.002851692494004965, -0.018128590658307076, -0.026151932775974274, 0.06817055493593216, -0.18531090021133423, -0.1241549402475357, -0.10274478048086166, -0.1042148619890213, 0.024730365723371506, 0.06680943071842194, -0.10114736109972, -0.06461043655872345, -0.03162315860390663, -0.12340659648180008, -0.15130984783172607, -0.08156486600637436, -0.13471665978431702, -0.060594163835048676, -0.0006922162720002234, -0.05586066469550133, 0.007717077154666185, -0.06040627881884575, -0.2673313617706299, 0.04817768558859825, 0.04540250077843666, 0.10554521530866623, 0.11572934687137604, 0.045288603752851486, -0.26933571696281433, 0.020586159080266953, 0.027513550594449043, 0.006218038033694029, -0.026111062616109848, -0.08679647743701935, -0.26722052693367004, 0.04363830015063286, 0.11176774650812149, 0.052214354276657104, 0.12344641238451004, 0.04369793459773064, -0.26658880710601807, -0.04229983687400818, 0.013366753235459328, 0.013414002023637295, 0.044404782354831696, 0.2184571921825409, 0.0768866240978241, -0.012205822393298149, -0.00950949639081955, 0.007379123475402594, -0.028095180168747902, -0.05294651538133621, 0.16269418597221375, -0.12578633427619934, -0.10473526269197464, -0.08946570754051208, -0.0932518020272255, 0.06057257950305939, 0.19436629116535187, 0.024114003404974937, -0.07982601225376129, -0.025584883987903595, -0.02845112979412079, 0.010740913450717926, 0.044781457632780075, 0.016688279807567596, -0.03060002811253071, 0.03427952527999878, 0.0068654571659862995, 0.03792367875576019, 0.32449325919151306, -0.0049707237631082535, 0.03382772207260132, -0.06472999602556229, -0.04058842360973358, 0.017948433756828308, -0.21647033095359802, -0.05891919881105423, 0.0351136177778244, 0.05469852313399315, 0.01603073626756668, -0.017248984426259995, 0.4584653675556183, 0.024832475930452347, -0.035233236849308014, 0.039400264620780945, -0.06726585328578949, -0.04030867666006088, 0.15936817228794098, 0.02960292249917984, 0.0004463996447157115, 0.03663962706923485, -0.05267060920596123, -0.038825079798698425, 0.2561429440975189, -0.036975156515836716, 0.020643822848796844, -0.013730709441006184, -0.037719305604696274, -0.06496220827102661, -0.07791057229042053, 0.010972556658089161, 0.02960730530321598, 0.03925088420510292, -0.011163176037371159, -0.15176160633563995, 0.04442179203033447, 0.04912349209189415, 0.03706630691885948, 0.005667882040143013, -0.03771813586354256, 0.14150555431842804, 0.18013527989387512, 0.02036990039050579, 0.008991782553493977, 0.03866586834192276, -0.0018899317365139723, -0.11801332980394363, 0.070137619972229, 0.01829511858522892, -0.022781601175665855, 0.014223240315914154, 0.07772856950759888, 0.09584172815084457, 0.020956384018063545, 0.07910643517971039, 0.05436866730451584, -0.04418942332267761, 0.026001442223787308, -0.018398180603981018, -0.12175437808036804, -0.0030533538665622473, -0.047805529087781906, -0.05890033394098282, -0.03605646640062332, -0.0012586868833750486, -0.0011625181650742888, -0.11299259215593338, -0.08884717524051666, -0.0847950279712677, -0.17389363050460815, 0.07949095964431763, -0.08095844835042953, 0.02292844094336033, 0.04190327972173691, -0.04382048174738884, -0.0006553875282406807, -0.024964574724435806, 0.11636815220117569, 0.0077669317834079266, 0.0566401407122612, 0.04437839612364769, 0.015465224161744118, -0.04690084978938103, 0.09511834383010864, 0.16458311676979065, 0.189454585313797, 0.18285329639911652, 0.15978434681892395, 0.17147885262966156, 0.30612409114837646, -0.05227186903357506, -0.008677779696881771, 0.06381364911794662, 0.021240757778286934, 0.06825903058052063, 0.10677933692932129, -0.04130370914936066, -0.052823446691036224, 0.003673168830573559, -0.12093610316514969, -0.15111806988716125, -0.12513238191604614, -0.001658617053180933, 0.04478374496102333, 0.054367467761039734, 0.21633152663707733, 0.11555112153291702, 0.05826609954237938, -0.02179594337940216, -0.33367815613746643, -0.192091703414917, 0.3987885117530823, 0.28425106406211853, 0.204280823469162, -0.33759254217147827, 0.09808709472417831, 0.05799345299601555, -0.16735722124576569, 0.029238179326057434, 0.28952088952064514, -0.24868768453598022, -0.13349951803684235, 0.15906722843647003, 0.23312930762767792, -0.23175698518753052, 0.38736534118652344, 0.02834911458194256, -0.11392241716384888, 0.02639646828174591, -0.007632993161678314, -0.07512129098176956, -0.23169782757759094, -0.08409242331981659, 0.024507030844688416, 0.09763722866773605, -0.21841007471084595, -0.17655010521411896, 0.027515986934304237, 0.14144077897071838, -0.0738547071814537, 0.3080671429634094, 0.23973846435546875, 0.01554759219288826, 0.046702150255441666, 0.00018271122826263309, -0.032018031924963, 0.05759163573384285, 0.03324342891573906, -0.10835513472557068, 0.03775562718510628, -0.12924514710903168, 0.1031147688627243, 0.051252275705337524, -0.21302713453769684, 0.083892822265625, -0.13567610085010529, -0.17812864482402802, 0.18030349910259247, 0.041220054030418396, -0.04453587532043457, -0.007456702180206776, 0.3733971118927002, 0.14950531721115112, 0.030297482386231422, -0.029043206945061684, -0.23134689033031464, 0.07058977335691452, -0.1771843582391739, 0.003879386931657791, -0.10622840374708176, 0.07299336791038513, 0.11440393328666687, 0.21832114458084106, -0.07415943592786789, -0.09234870970249176, 0.15385235846042633, -0.15024930238723755, -0.0009020673460327089, -0.0964852124452591, 0.15172210335731506, -0.02194131724536419, 0.28280872106552124, -0.2048858404159546, 0.08473508805036545, -0.19493968784809113, -0.12647411227226257, -0.023195231333374977, 0.1440872997045517, 0.03592405468225479, 0.0736178308725357, 0.07111869752407074, 0.10539645701646805, 0.01382883358746767, 0.033117782324552536, -0.08738457411527634, -0.06968040764331818, -0.0050376118160784245, 0.05737333372235298, 0.055460646748542786, 0.036999594420194626, -0.06902973353862762, 0.09643528610467911, -0.07751613855361938, -0.10368267446756363, -0.035001061856746674, 0.01701202616095543, 0.046729300171136856, 0.31389281153678894, 0.014265733771026134, 0.01967095211148262, 0.02809530682861805, 0.05130985379219055, 0.08205986022949219, -0.12129759043455124, 0.0028493967838585377, 0.0235134307295084, 0.15056918561458588, 0.10162650048732758, 0.19887840747833252, -0.333625465631485, -0.0488240011036396, 0.0823654755949974, 0.09867672622203827, 0.07584244012832642, 0.10642395168542862, 0.04515618458390236, 0.035742007195949554, 0.058440085500478745, 0.061931684613227844, 0.07012895494699478, 0.12383079528808594, 0.14059318602085114, -0.00456618145108223, -0.03818652778863907, -0.05614478886127472, -0.04412446543574333, -0.10408803820610046, 0.08605688065290451, -0.04476499930024147, 0.014325090683996677, -0.0993981882929802, 0.024600986391305923, 0.027460569515824318, 0.14789852499961853, -0.006836819462478161, -0.005533102434128523, 0.07478386908769608, 0.005788344889879227, -0.028780778869986534, -0.030218172818422318, 0.03165508434176445, -0.005490056239068508, 0.001974660437554121, -0.02368495985865593, -0.040599822998046875, 0.06187864765524864, -0.05959708243608475, -0.008487729355692863, -0.05588952824473381, 0.022758768871426582, -0.020317520946264267, -0.31484857201576233, -0.035427652299404144, 0.026129549369215965, 0.02242097444832325, -0.08739306032657623, -0.04266874119639397, 0.015873203054070473, -0.03533554449677467, -0.035055115818977356, -0.04204303026199341, 0.06802092492580414, 0.0019074160372838378, -0.04667872190475464, 0.014437288977205753, 0.0078086755238473415, 0.02324160747230053, 0.02909265272319317, -0.031203003600239754, -0.00354509218595922, 0.05139633268117905, 0.013795466162264347, 0.009395456872880459, -0.06096161901950836, 0.04889250174164772, -0.10128621011972427, 0.081185482442379, 0.032337117940187454, 0.08436929434537888, 0.09655073285102844, -0.038030315190553665, -0.11771260201931, 0.03767780587077141, 0.010359085164964199, 0.0076341889798641205, -0.06370755285024643, 0.13236552476882935, -0.14675581455230713, -0.018437277525663376, 0.03246011957526207, -0.008180741220712662, -0.11907416582107544, -0.13383202254772186, -0.16139598190784454, 0.04077965393662453, 