{"version": "0.7.0", "metadata": {"date": {"year": 2026, "month": 6, "day": 29, "hour": 10, "minute": 33, "second": 9}, "loudness": -17.6585928600564, "gain": 0.5600104089207361, "training": {"settings": {"ignore_checks": false}, "data": {"latency": {"manual": null, "calibration": {"algorithm_version": 1, "delays": [-9], "safety_factor": 1, "recommended": -10, "warnings": {"matches_lookahead": false, "disagreement_too_high": false, "not_detected": false}}}, "checks": {"version": 3, "passed": true}}, "validation_esr": null}}, "architecture": "SlimmableContainer", "config": {"submodels": [{"max_value": 0.5, "model": {"version": "0.7.0", "metadata": {"date": {"year": 2026, "month": 6, "day": 29, "hour": 10, "minute": 33, "second": 8}, "loudness": -18.35860506708765, "gain": 0.6194735465050267}, "architecture": "WaveNet", "config": {"layers": [{"input_size": 1, "condition_size": 1, "head": {"out_channels": 1, "kernel_size": 16, "bias": true}, "channels": 3, "kernel_sizes": [6, 6, 6, 6, 6, 6, 6, 6, 6, 6, 6, 6, 6, 6, 15, 15, 6, 6, 6, 6, 6, 6, 6], "dilations": [1, 3, 7, 17, 41, 101, 239, 1, 3, 7, 17, 41, 101, 239, 1, 13, 1, 3, 7, 17, 41, 101, 239], "activation": [{"type": "LeakyReLU", "negative_slope": 0.01}, {"type": "LeakyReLU", "negative_slope": 0.01}, {"type": "LeakyReLU", "negative_slope": 0.01}, {"type": "LeakyReLU", "negative_slope": 0.01}, {"type": "LeakyReLU", "negative_slope": 0.01}, {"type": "LeakyReLU", "negative_slope": 0.01}, {"type": "LeakyReLU", "negative_slope": 0.01}, {"type": "LeakyReLU", "negative_slope": 0.01}, {"type": "LeakyReLU", "negative_slope": 0.01}, {"type": "LeakyReLU", "negative_slope": 0.01}, {"type": "LeakyReLU", "negative_slope": 0.01}, {"type": "LeakyReLU", "negative_slope": 0.01}, {"type": "LeakyReLU", "negative_slope": 0.01}, {"type": "LeakyReLU", "negative_slope": 0.01}, {"type": "LeakyReLU", "negative_slope": 0.01}, {"type": "LeakyReLU", "negative_slope": 0.01}, {"type": "LeakyReLU", "negative_slope": 0.01}, {"type": "LeakyReLU", "negative_slope": 0.01}, {"type": "LeakyReLU", "negative_slope": 0.01}, {"type": "LeakyReLU", "negative_slope": 0.01}, {"type": "LeakyReLU", "negative_slope": 0.01}, {"type": "LeakyReLU", "negative_slope": 0.01}, {"type": "LeakyReLU", "negative_slope": 0.01}], "bottleneck": 3, "head1x1": {"active": false, "out_channels": 1, "groups": 1}, "layer1x1": {"active": true, "groups": 1}, "groups_input": 1, "groups_input_mixin": 1, "conv_pre_film": {"active": false, "shift": true, "groups": 1}, "conv_post_film": {"active": false, "shift": true, "groups": 1}, "input_mixin_pre_film": {"active": false, "shift": true, "groups": 1}, "input_mixin_post_film": {"active": false, "shift": true, "groups": 1}, "activation_pre_film": {"active": false, "shift": true, "groups": 1}, "activation_post_film": {"active": false, "shift": true, "groups": 1}, "layer1x1_post_film": {"active": false, "shift": true, "groups": 1}, "head1x1_post_film": {"active": false, "shift": true, "groups": 1}, "gating_mode": ["none", "none", "none", "none", "none", "none", "none", "none", "none", "none", "none", "none", "none", "none", "none", "none", "none", "none", "none", "none", "none", "none", "none"], "secondary_activation": [null, null, null, null, null, null, null, null, null, null, null, null, null, null, null, null, null, null, null, null, null, null, null], "slimmable": null}], "head": null, "head_scale": 0.0044069063559326275}, "weights": [0.06225040555000305, -0.8849567770957947, -1.199966549873352, -0.12458886206150055, 0.08043127506971359, -0.03928130492568016, 0.05812246352434158, 0.022194601595401764, 0.05280901864171028, -0.2684028744697571, -0.11340857297182083, -0.20176242291927338, 0.29140734672546387, -0.4529261291027069, 0.166901096701622, -0.2923971712589264, 0.06842740625143051, -0.26343223452568054, 0.6124331951141357, -0.519370436668396, 0.3362031579017639, 0.012012306600809097, 0.0043625901453197, -0.022087356075644493, 0.03897681087255478, 0.031768426299095154, -0.025343338027596474, 0.2966461181640625, -0.6362717151641846, 0.18374629318714142, 0.6893225312232971, -0.5125628709793091, -0.09682150930166245, 0.3335297405719757, -0.5795400142669678, 0.3387339115142822, 1.0140407085418701, -0.2879999279975891, -0.18009641766548157, -0.26191413402557373, -0.4105778634548187, -0.24787332117557526, -0.14040400087833405, 0.06807675212621689, 0.27969494462013245, -0.34581929445266724, -0.11322285979986191, -0.2912162244319916, -0.08511993288993835, 0.4586462378501892, 0.5403637290000916, -0.36143651604652405, -0.2335728257894516, -0.08781388401985168, -0.1719016283750534, 0.2006385177373886, 0.40122488141059875, 0.6528121829032898, -0.04036916047334671, 0.15838085114955902, 0.10696738958358765, 0.6453392505645752, -0.18879741430282593, -0.6914291381835938, 0.7026271224021912, 0.8536354303359985, 0.22947636246681213, 0.9443163871765137, 0.5171847343444824, -0.6357765793800354, 0.2634705901145935, -0.030168715864419937, 0.2761753797531128, -0.5875502228736877, -0.11971928179264069, -0.13186140358448029, -0.07948759198188782, -0.13561250269412994, -0.012676418758928776, -0.15124745666980743, -0.26763567328453064, -0.07078352570533752, -0.24823790788650513, -0.006451355293393135, -0.26253730058670044, -0.23160183429718018, -0.07998353987932205, 0.11989281326532364, 0.02447441965341568, 0.10382669419050217, 0.16969162225723267, 0.11627814918756485, -0.21093399822711945, -0.09631766378879547, 0.4649987816810608, 0.22010672092437744, 0.10458829998970032, 0.707647442817688, -0.16265441477298737, 0.2240334153175354, -0.1791919767856598, -0.09274151176214218, 0.266747385263443, -0.14905160665512085, -0.006643802858889103, -0.43094402551651, -0.17020848393440247, -0.177711620926857, 0.1739877313375473, -0.1055227667093277, -0.3167809545993805, 0.0926225483417511, -0.3230728209018707, 0.2499866932630539, -0.5674251914024353, 0.16505475342273712, 0.5133392810821533, -0.11743131279945374, 0.2531346082687378, -0.2927413284778595, 0.3048006296157837, -0.35874295234680176, -0.3181670904159546, 0.14916200935840607, 0.059069324284791946, -0.03699614480137825, 0.13457615673542023, 0.3744368255138397, 0.037159767001867294, 0.5625728368759155, 0.3801386058330536, 0.18801137804985046, -0.10462090373039246, 0.6437429189682007, 0.8016635775566101, -0.28356704115867615, 0.3859691619873047, -0.18900635838508606, -0.18074606359004974, 0.5220993757247925, 0.38421663641929626, -0.495160847902298, -0.5977232456207275, -0.5040903687477112, 0.3818163573741913, -0.19088943302631378, 0.2705813944339752, 0.031361259520053864, -0.012092686258256435, 0.008925230242311954, -0.09005064517259598, -0.2135583460330963, 0.0805901512503624, 0.2361183613538742, 0.14669185876846313, 0.24514780938625336, 0.32018065452575684, 0.33071190118789673, 0.26295962929725647, 0.034714195877313614, 0.08596673607826233, 0.23778825998306274, 0.03498635068535805, 0.28338897228240967, -0.09998876601457596, -0.1258847415447235, 0.06403741985559464, -0.0065894233994185925, -0.06410878151655197, 0.2959422171115875, 0.08043325692415237, 0.24008053541183472, 0.024198446422815323, 0.17260704934597015, 0.31412169337272644, 0.12404440343379974, 0.06511722505092621, 0.0684666857123375, 0.170296773314476, 0.24700304865837097, 0.2294619083404541, -0.16077551245689392, -0.06669674068689346, 0.0913911759853363, -0.02078813686966896, 0.14644402265548706, 0.2731402516365051, 0.04175766557455063, 0.38197270035743713, -0.06895409524440765, 0.07002629339694977, 0.05094311013817787, 0.012487723492085934, 0.2747162878513336, 0.23494870960712433, -0.024392960593104362, -0.051214952021837234, -0.0670485645532608, -0.09071077406406403, -0.09971123933792114, 0.05028867721557617, -0.1554766744375229, -0.4697062075138092, 0.2199029177427292, -0.6518692374229431, 0.43248263001441956, -0.6856245994567871, -0.4720074236392975, 0.3514662981033325, 0.1217287927865982, -0.2816195487976074, 0.36143359541893005, 0.18842147290706635, 0.021818313747644424, 0.1624806970357895, 0.5544766187667847, 0.20832031965255737, -0.08829545974731445, 0.5014618039131165, -0.10869760811328888, -0.06033306568861008, 0.010323592461645603, -0.17535385489463806, -0.12761327624320984, -0.027260834351181984, 0.07757654041051865, 0.06342842429876328, -0.01878294162452221, 0.15714071691036224, 0.3270954489707947, 0.484926700592041, 0.01939249597489834, 0.04281604662537575, -0.007823656313121319, 0.06623475253582001, -0.1468401849269867, 0.008835726417601109, -0.02987915836274624, -0.10837089270353317, 0.022182315587997437, -0.054797083139419556, -0.3492557406425476, 0.5189880132675171, -0.007216920610517263, 0.05902886018157005, -0.05411594361066818, 0.029927607625722885, 0.34336718916893005, 0.7661381363868713, -0.00514634745195508, -0.0061914254911243916, 0.003900916548445821, 0.022472720593214035, -0.05145692825317383, 0.05715572088956833, 0.03656015172600746, 0.12581415474414825, 0.11665080487728119, 0.006218805443495512, 0.3837146461009979, 0.054680075496435165, -0.007741275243461132, -0.03680012375116348, 0.028306350111961365, 0.13869427144527435, -0.1261070817708969, 0.1663207709789276, -0.001118198619224131, -0.007403364405035973, -0.03274470195174217, -0.012632693164050579, 0.13108016550540924, -0.21270616352558136, -0.3522856831550598, -0.2607356011867523, -0.13805942237377167, 0.45681557059288025, 0.25587859749794006, -0.8798030614852905, 0.29776763916015625, -0.008657116442918777, -0.035899728536605835, 0.21995706856250763, 0.04699455946683884, -0.21430590748786926, -0.49715572595596313, 0.35066255927085876, 0.29720962047576904, -0.2462899535894394, -0.32183173298835754, 0.5244848132133484, -0.0566975474357605, -0.013924511149525642, -0.03539613261818886, -0.03674235939979553, 0.01050132792443037, 0.0015803271671757102, -0.012013206258416176, 0.041034430265426636, -0.01897263713181019, -0.01013119611889124, 0.09851572662591934, 0.023687617853283882, -0.003540372010320425, 0.03996109217405319, 0.023733211681246758, -0.02549566887319088, -0.01738889515399933, -0.12229312211275101, -0.0006327197188511491, 0.10196530818939209, -0.07375679910182953, 0.009823134168982506, 0.004830833058804274, 0.019058799371123314, -0.0734238550066948, -0.13404187560081482, 0.014636395499110222, -0.042898569256067276, -0.187169149518013, 0.06720545142889023, 0.036761574447155, 0.018468981608748436, -0.002914122538641095, 0.06611347198486328, 0.060983847826719284, -0.14616364240646362, 0.055552445352077484, -0.1224888414144516, 0.05057474598288536, 0.09717357158660889, -0.1850862056016922, -0.03755073994398117, -0.025162281468510628, 0.08587159216403961, -0.060092415660619736, -0.09089628607034683, -0.04537862539291382, 0.17262926697731018, -0.033102378249168396, -0.03347355127334595, -0.021796174347400665, -0.07332370430231094, 0.0989001989364624, -0.0330154113471508, -0.04076841101050377, 0.04416296258568764, 0.2898411750793457, 0.05690724030137062, 0.207255020737648, 0.14125968515872955, -0.05090056359767914, 0.01976473443210125, -0.039173878729343414, -0.13117259740829468, 0.07315623760223389, 0.03440343588590622, 0.055996641516685486, -0.10435927659273148, -0.10551165044307709, -0.2502860128879547, -0.016097135841846466, 0.31569069623947144, -0.15436366200447083, -0.14809444546699524, -0.05237219110131264, -0.20791640877723694, -0.20545314252376556, 0.00581787247210741, 0.05363178998231888, -0.09122690558433533, -0.18914684653282166, -0.0553935244679451, -0.012891443446278572, 0.01532051619142294, -0.020977649837732315, 0.03438914939761162, 0.03530997037887573, 0.03779150918126106, 0.032932523638010025, 0.2061740607023239, -0.020688870921730995, -0.021424710750579834, -0.04720207303762436, -0.019390277564525604, -0.0030634801369160414, -0.22860637307167053, 0.01888386718928814, 0.03157030791044235, 0.04850432649254799, 0.03389054536819458, -0.039211973547935486, -0.06671410799026489, -0.0013436656445264816, -0.008353522047400475, -0.0059829154051840305, -0.010818598791956902, 0.008254879154264927, -0.18346141278743744, -0.14430196583271027, -0.04575761780142784, -0.12706491351127625, -0.14232215285301208, -0.047911059111356735, -0.10977160930633545, 0.07318625599145889, 0.04870687425136566, 0.10900989174842834, 0.0551174022257328, 0.09753718972206116, 0.10467700660228729, 0.018582358956336975, -0.016054267063736916, 0.0331311970949173, -0.013008002191781998, -0.049313899129629135, -0.397137850522995, -0.10705447196960449, 0.3269367516040802, -0.04739723727107048, 0.8647546768188477, -0.05483722686767578, 0.08950412273406982, 0.18574048578739166, -0.004602515604346991, 0.5147643089294434, -0.038778215646743774, -0.02323397994041443, 0.12294960021972656, -0.12756629288196564, -0.19978953897953033, 0.05898835137486458, -0.4567326009273529, -0.0016376238781958818, -0.42719656229019165, 0.04728769510984421, 0.11813966184854507, 0.11294667422771454, 0.2575066089630127, 0.01220958586782217, 0.5758596062660217, 0.05514553189277649, -0.008242601528763771, 0.025605641305446625, -0.10728733241558075, 0.08782368898391724, -0.4121173918247223, -0.015298073180019855, -0.010474644601345062, -0.014659980311989784, -0.02389441803097725, -0.012056592851877213, -0.0897013396024704, -0.27958419919013977, -0.3848462998867035, -0.22106020152568817, -0.1543557047843933, -0.41830024123191833, -0.24548828601837158, -0.11204522103071213, 0.03016946278512478, -0.1889721155166626, -0.09972462803125381, 0.09990973770618439, 0.1302105337381363, -0.03241683915257454, -0.020387040451169014, -0.019172102212905884, 0.01623529940843582, 0.005229906644672155, 0.07986137270927429, -0.03841680660843849, -0.09043300896883011, -0.0857199877500534, -0.19835922122001648, -0.007239903789013624, 0.3716956377029419, -0.04603498429059982, -0.0038407014217227697, -0.032512906938791275, 0.07928677648305893, -0.07390067726373672, -0.061868809163570404, 0.015492748469114304, 0.012077584862709045, 0.017131244763731956, 0.020773056894540787, 0.014599466696381569, 0.17473724484443665, 0.19706116616725922, 0.08564362674951553, 0.3289644122123718, -0.15803644061088562, -0.08950125426054001, -0.08968112617731094, 0.12080313265323639, 0.1571100950241089, 0.4415859282016754, 0.0796651616692543, -0.05175572261214256, 0.1404721736907959, 0.4083029329776764, -0.012222516350448132, 0.4024222493171692, 0.23998641967773438, -0.2790159285068512, 0.056618206202983856, -0.21458154916763306, -0.18624113500118256, 0.018530894070863724, -0.061531614512205124, -0.13166987895965576, 0.1267811357975006, -0.18592569231987, -0.0764162614941597, -0.2155303806066513, -0.1380467712879181, -0.00936280470341444, 0.18529391288757324, -0.17165033519268036, -0.4434426724910736, -0.16841015219688416, 0.11725421249866486, 0.40186047554016113, 0.36594781279563904, -0.11470349878072739, -0.24902154505252838, 0.4938075542449951, -0.5001289248466492, 0.13867749273777008, 0.1261497139930725, 0.33361250162124634, -0.3182169198989868, 0.007790053728967905, 0.05743337795138359, 0.041804682463407516, -0.24204720556735992, -0.12230395525693893, 0.34282514452934265, -0.7811484932899475, 0.014445025473833084, 0.35155391693115234, 0.1932559758424759, -0.18778124451637268, -0.133207306265831, -0.03612693399190903, -0.19902849197387695, 0.14085173606872559, 0.41736090183258057, -0.17102672159671783, -0.23075121641159058, -0.03993828967213631, -0.6161682605743408, 0.03107711300253868, -0.36374351382255554, -0.13405904173851013, -0.13782648742198944, 0.022105438634753227, 0.2099006325006485, -0.24854516983032227, 0.6147986054420471, 0.13664399087429047, -0.11932521313428879, 0.14813412725925446, 0.004628418944776058, 0.02100941725075245, -0.23651432991027832, 0.3536764681339264, 0.7181645035743713, -0.1300700157880783, 0.5475841164588928, 1.2146615982055664, -0.19597506523132324, 0.36954033374786377, 0.6155189871788025, -0.6189541816711426, -0.11932211369276047, -0.1410432755947113, 0.23083481192588806, -0.07595806568861008, -0.11495568603277206, -0.06933958828449249, -0.004237893968820572, -0.3022785484790802, -0.1934976726770401, -0.08822844922542572, 0.0621761791408062, 0.04443533718585968, -0.05596384033560753, -0.03901529684662819, 0.005902869161218405, 0.464348167181015, 0.4497013986110687, 0.45278555154800415, 0.10027044266462326, -0.3685010075569153, -0.7516199350357056, 0.22902143001556396, 0.08524292707443237, 0.22588582336902618, 0.02033601701259613, -0.02441978082060814, -0.2858860194683075, -0.2190127819776535, -0.043273165822029114, -0.3717186152935028, -0.4466535151004791, -0.011827593669295311, -0.31473326683044434, 0.07181733101606369, 0.09894164651632309, 0.31617826223373413, 0.24042601883411407, -0.0001947135606314987, 0.004894522950053215, -0.1127089112997055, -0.11878717690706253, -0.0177118219435215, -0.31422436237335205, 0.28105032444000244, 0.23636922240257263, -0.15565568208694458, 0.03309476375579834, 0.04589558020234108, -0.1606486588716507, -0.031200408935546875, 0.14002317190170288, 0.046531278640031815, -0.21432900428771973, -0.3084860146045685, -0.34574824571609497, 0.17751839756965637, 0.6224591732025146, 0.18304023146629333, 0.016841959208250046, 0.31393375992774963, 0.6670558452606201, -0.03448469564318657, -0.19905954599380493, -0.6139828562736511, -0.3666456341743469, 0.5276965498924255, -0.19838695228099823, -0.43700912594795227, 0.7066256403923035, -0.4238508343696594, -0.7738474011421204, 0.3555096387863159, 0.14153584837913513, 0.32482627034187317, 0.4574853777885437, 0.026763267815113068, 0.16261030733585358, 0.13648287951946259, -0.06097566708922386, -0.20209337770938873, -0.5389547944068909, 0.09108809381723404, 0.022785218432545662, 0.01815231889486313, 0.11022569239139557, 0.03263969346880913, -0.045282114297151566, -0.07279957830905914, -0.1649579256772995, -0.17324486374855042, -0.038096874952316284, -0.04536700248718262, -0.383897602558136, 0.0759843960404396, -0.021580135449767113, 0.02795649878680706, 0.16196054220199585, -0.24015362560749054, -0.6365122199058533, 0.03914624825119972, 0.03179899603128433, 0.06846629828214645, -0.10296595841646194, 0.6508758068084717, 0.10101394355297089, -0.09978141635656357, 0.009829888120293617, -0.1245119497179985, -0.06469466537237167, 0.36821451783180237, -0.6963803172111511, -0.1712169051170349, -0.18849733471870422, 0.03850101679563522, 0.47776392102241516, 0.038867585361003876, -0.1461673527956009, -0.15420210361480713, -0.05479229614138603, -0.10261552035808563, 0.2764379680156708, 0.06814735382795334, 0.09868605434894562, 0.27149251103401184, 0.402211993932724, 0.3469622731208801, -0.034017641097307205, -0.33545178174972534, 0.11699188500642776, -0.49477142095565796, -1.0336796045303345, 0.3862041234970093, -0.8093876242637634, -0.4681852161884308, 0.7895835041999817, 0.6346489787101746, 0.3382108807563782, -0.34972500801086426, 0.33486273884773254, 0.548281729221344, -0.2075168639421463, -0.27064093947410583, 1.2964860200881958, 0.4744364619255066, 0.1341564953327179, 0.4878316819667816, 0.6369341015815735, 0.09747709333896637, -0.03444367274641991, -0.15083831548690796, 0.01996290124952793, -0.21437788009643555, 0.004570066463202238, -0.09688375890254974, 0.0042703403159976006, 0.13125205039978027, -0.06885755062103271, 0.047988928854465485, -0.1319001168012619, 0.034183185547590256, 0.08652596175670624, 0.10187015682458878, 0.18512491881847382, 0.3321891129016876, -0.6886181831359863, -0.052939411252737045, -0.120048388838768, -0.10501644015312195, -0.08100132644176483, -0.1660812348127365, -1.0552116632461548, 0.03740553557872772, 0.09020033478736877, 0.08397220075130463, 0.07470863312482834, 0.1146685779094696, 0.028727881610393524, 0.022049786522984505, 0.031499940901994705, 0.024607637897133827, 0.03997514396905899, 0.10663774609565735, -0.6227337121963501, 0.17959889769554138, -0.06696975231170654, -0.04397834837436676, 0.22312697768211365, 0.24346570670604706, 0.36160746216773987, -0.12630556523799896, 0.06672415882349014, 0.09903094917535782, -0.12971089780330658, 0.042184192687273026, -0.10801676660776138, -0.08188814669847488, -0.04338867962360382, -0.14760532975196838, -0.24033577740192413, -0.4892616868019104, 0.9800907373428345, 0.0647868737578392, -0.37495672702789307, -0.011360925622284412, 0.4283333420753479, 0.05781177058815956, -0.5003989338874817, -0.49950674176216125, 0.9130159020423889, 0.4672379195690155, -0.004579531494528055, 0.2198881357908249, 0.3462153673171997, 0.2996034324169159, 0.5376853942871094, -0.7405514121055603, 0.22031326591968536, 0.4677111804485321, -0.44075846672058105, -0.038495708256959915, -0.03589188680052757, -0.030488967895507812, -0.021224185824394226, -0.04322918877005577, -0.5572491884231567, 0.04330828785896301, 0.04101607948541641, 0.0351906418800354, 0.02896314114332199, 0.0500829853117466, -0.4471706449985504, 0.07160986959934235, 0.04384810850024223, 0.039254315197467804, 0.02115497924387455, 0.005810559261590242, -0.20840859413146973, -0.05250847712159157, -0.043897632509469986, -0.004294463898986578, 0.005959643051028252, -0.06862775981426239, -0.17625507712364197, 0.11088478565216064, 0.11157917976379395, 0.08333359658718109, 0.08163035660982132, 0.08714562654495239, -0.019708050414919853, 0.27751755714416504, 0.12211688607931137, 0.16721676290035248, 0.1651555299758911, 0.03643536940217018, -0.3283620774745941, -0.00835415255278349, 0.009731529280543327, 0.01105456706136465, 0.028563959524035454, -8.94174154382199e-05, 0.7117599248886108, 0.0009119260357692838, -0.02651349827647209, -0.03015272319316864, -0.04792962968349457, -0.028072532266378403, 0.23087728023529053, -0.056907977908849716, -0.057323649525642395, -0.06018146499991417, -0.03024625964462757, -0.13559158146381378, 0.4452380836009979, -0.27467072010040283, 0.2982175648212433, 0.03505232557654381, 0.40358781814575195, -0.009433167055249214, -0.30774784088134766, 0.20677372813224792, -0.14692121744155884, 0.33198264241218567, 0.376228392124176, -0.1746128350496292, 0.43015894293785095, 0.6071759462356567, 0.3639891445636749, -0.2472764551639557, -0.3973390758037567, 0.15419693291187286, -0.3208429515361786, -0.03526090458035469, -0.028058022260665894, -0.028660528361797333, -0.03024039790034294, -0.015445082448422909, -0.739054799079895, 0.048002690076828, 0.03539807349443436, 0.04509786516427994, 0.034946974366903305, 0.023178815841674805, -0.8745819330215454, 0.05038851499557495, 0.05191098153591156, 0.07582227885723114, 0.02151644602417946, -0.001017021480947733, -0.5489680767059326, -0.003345135599374771, -0.0185630414634943, 0.0045774104073643684, -0.02408371865749359, 0.013104132376611233, -0.4955095052719116, 0.014484048821032047, 0.03266623243689537, -4.204997458145954e-05, 0.0326387844979763, 0.010954167693853378, -0.08689412474632263, 0.08267759531736374, 0.08047135174274445, 0.05251900479197502, 0.06454215943813324, 0.09734393656253815, -0.12345679104328156, -0.09870737791061401, -0.02338396944105625, -0.030658304691314697, -0.04227294400334358, 0.0009445040486752987, -0.21477361023426056, 0.15108858048915863, 0.06607189029455185, 0.06345827132463455, 0.0754808783531189, 0.021205004304647446, 0.18019473552703857, 0.2726588547229767, 0.1759869009256363, 0.16585911810398102, 0.11729419231414795, 0.04938817396759987, -0.4364543855190277, 0.3724486231803894, 0.2915201783180237, 0.3927369713783264, 0.6923015117645264, 0.3624027967453003, -0.022007090970873833, -0.6605684757232666, -0.3054773211479187, -0.34443217515945435, 0.441274493932724, -0.07499600946903229, -0.1563159078359604, -0.23004646599292755, -0.23258434236049652, 0.7684045433998108, 0.017884783446788788, -0.8975713849067688, 0.27581587433815, 0.036703888326883316, 0.023180201649665833, 0.02535063959658146, 0.008795224130153656, 0.039315368980169296, 0.1926598697900772, -0.049513477832078934, -0.020989973098039627, -0.03935498371720314, -0.014917626045644283, -0.05906234681606293, -0.2754344940185547, -0.30557432770729065, -0.23488976061344147, -0.24277977645397186, -0.20269887149333954, -0.3226131796836853, 0.4793132245540619, 0.011792625300586224, 0.01146162860095501, 0.002691933186724782, 0.014626470394432545, -0.03577324375510216, -0.24650919437408447, -0.004278269130736589, -0.0032606152817606926, 0.024960482493042946, 0.004341199062764645, 0.07251133769750595, 0.04153621569275856, 0.09791143983602524, 0.09362323582172394, 0.09926047176122665, 0.03996695578098297, 0.2532002925872803, -0.003005217295140028, 0.017064841464161873, 0.016393374651670456, 0.016228357329964638, 0.015167174860835075, 0.025464873760938644, 0.43624401092529297, -0.026877954602241516, -0.024179957807064056, -0.022923976182937622, -0.030551893636584282, -0.04103155806660652, -0.019351743161678314, -0.1356154829263687, -0.13647118210792542, -0.1301400512456894, -0.1271916776895523, -0.19736823439598083, 0.3979155719280243, 0.14949271082878113, 0.09727761149406433, 0.16617146134376526, -0.43566620349884033, 0.30923962593078613, 0.087553009390831, 0.3852832317352295, -0.1604762226343155, 0.39422544836997986, 0.09787172824144363, -0.2168484926223755, 0.2601850628852844, -0.5951493382453918, 0.13904424011707306, -0.23633457720279694, 0.016023892909288406, -0.6389943361282349, -0.5055413246154785, -0.03320370987057686, 0.019561443477869034, -0.03526711463928223, -0.03038899414241314, -0.011166218668222427, 0.11696116626262665, -0.22041232883930206, 0.008870922960340977, 0.285177081823349, -0.05891551822423935, -0.003909289836883545, 0.26774701476097107, -0.11669190973043442, -0.03835161402821541, 0.27840009331703186, -0.129644513130188, -0.0035323556512594223, 0.015050793997943401, -0.07002273201942444, -0.09059736877679825, 0.008034836500883102, 0.04359964653849602, -0.09135882556438446, -0.16627156734466553, 0.26089927554130554, 0.4140801727771759, 0.7785931825637817, 0.39986497163772583, -0.10871666669845581, -0.3717045783996582, -0.19261211156845093, -0.07457417994737625, -0.10830271244049072, -0.08780449628829956, 0.011121893301606178, 0.007289339788258076, -0.21945060789585114, 0.048908207565546036, 0.2411387711763382, -0.230887308716774, -0.0063516986556351185, 0.1988089382648468, -0.08089549094438553, 0.22007808089256287, -0.028032969683408737, -0.026120517402887344, 0.03276108577847481, 0.06418240070343018, 0.026263661682605743, -0.09965077042579651, -0.08199498057365417, 0.360237717628479, 0.08009130507707596, -0.21057367324829102, -0.2766419053077698, -0.18297088146209717, -0.4413277804851532, 0.12718389928340912, 0.3097469210624695, -0.11591815948486328, -0.14150036871433258, -0.09281211346387863, 0.09395159780979156, -0.06047545745968819, 0.03776383772492409, -0.31776201725006104, -0.20203977823257446, -0.012549096718430519, 0.2969382703304291, -0.49183252453804016, 0.04459061473608017, 0.4918166995048523, 0.20591211318969727, 0.2137535959482193, -0.13006553053855896, 0.11707396060228348, 0.17170937359333038, -0.02740829437971115, -0.03371390327811241, 0.0365968719124794, 0.07915347069501877, 0.01410621963441372, 0.11379221826791763, -0.02145404927432537, -0.09464913606643677, -0.18659332394599915, -0.13644511997699738, -0.13350538909435272, 0.1315561681985855, 0.3348574936389923, 0.008842486888170242, 0.019700873643159866, 0.12167434394359589, 0.04687659814953804, -0.11261262744665146, -0.0007870657136663795, 0.20008836686611176, 0.3869202435016632, 0.020666763186454773, -0.2984340488910675, -0.20040854811668396, 0.15138478577136993, -0.12098874896764755, -0.06452246010303497, -0.0042455801740288734, -0.015014126896858215, -0.15430834889411926, 0.04866262525320053, 0.1069595143198967, -0.004903533961623907, -0.3564392626285553, -0.28510773181915283, 0.46490782499313354, 0.2703789174556732, -0.10567094385623932, -0.040003109723329544, -0.2473701536655426, -0.24212129414081573, -0.021250572055578232, -0.18087953329086304, -0.020723380148410797, -0.00784225296229124, -0.11623259633779526, 0.10933968424797058, 0.0863240584731102, -0.06204632669687271, 0.13435415923595428, 0.3007626533508301, 0.18548093736171722, -0.11809250712394714, -0.09232260286808014, 0.23617027699947357, 0.13316170871257782, -0.299209326505661, -0.2114209234714508, -0.6864035725593567, 0.05153529718518257, 0.3366580307483673, -0.2519441843032837, 0.02746685780584812, 0.6364887952804565, -0.09887604415416718, 0.45893988013267517, -0.026007382199168205, 0.9449313282966614, -0.07443144172430038, -0.3536410629749298, 0.007612159941345453, -0.12869615852832794, -0.05643250793218613, 0.1976364701986313, -0.5644652247428894, -0.23248165845870972, 0.02317507565021515, 0.0013675226364284754, 0.006044446025043726, -0.004323309753090143, -0.0027876365929841995, 8.404688560403883e-05, -0.02747981809079647, -0.019271237775683403, -0.036993708461523056, 0.010129330679774284, -0.06465695798397064, -0.053892213851213455, -0.06111181527376175, -0.015696493908762932, -0.34788528084754944, -0.005568427499383688, -0.0032980376854538918, -0.0016498274635523558, 0.010663904249668121, 0.0033413583878427744, 0.006375436671078205, 0.014727103523910046, 0.004007898271083832, 0.004181942902505398, -0.006702890153974295, 0.01867458038032055, 0.011577202938497066, -0.009975981898605824, -0.025363994762301445, -0.6017390489578247, 0.21586404740810394, 0.03061271645128727, 0.041565973311662674, 0.0858650729060173, 0.05328287556767464, 0.0923181101679802, 0.012917821295559406, 0.010341414250433445, 0.08071952313184738, 0.08236215263605118, 0.01872115768492222, -0.07645542919635773, 0.04147768393158913, -0.050070714205503464, -0.6548059582710266, 0.01877877488732338, 0.0015635874588042498, 0.005675826221704483, 0.0036159781739115715, 0.018523193895816803, 0.00501928199082613, 0.0008362123044207692, -0.007783897686749697, 0.020002422854304314, -0.013987941667437553, 0.007900108583271503, 0.01785854808986187, 0.02366911619901657, 0.039505939930677414, 0.43295741081237793, -0.0017710394458845258, 0.003151485463604331, 0.008204558864235878, 0.004165267571806908, -0.0028949843253940344, 0.002962842583656311, 0.0046252598986029625, 0.00728065287694335, -0.012080724351108074, 0.002620782470330596, -0.006067286245524883, -0.013123522512614727, 0.0045202733017504215, -0.002316283294931054, -0.601462185382843, 0.08200124651193619, 0.014997392892837524, 0.03782999515533447, -0.0033060743007808924, 0.061170030385255814, 0.017480939626693726, 0.043901290744543076, -0.007006271276623011, 0.04778163880109787, -0.03470944985747337, 0.03010633774101734, -0.035313598811626434, 0.08119391649961472, 0.2571253478527069, 0.5415472984313965, -0.006542609538882971, -0.006207003258168697, -0.010060681961476803, 0.00019724026788026094, -0.00848547462373972, -0.006007942371070385, -0.004468248691409826, -0.006149936001747847, -0.012080023996531963, -0.005441973451524973, 0.0017059483798220754, 0.001372908940538764, -0.0030338710639625788, 0.022919734939932823, 1.31529700756073, 3.9089107303880155e-05, 0.00015649317356292158, -0.0007177673978731036, -0.003776218742132187, 0.0005114632658660412, -0.002139946911484003, -0.0014468930894508958, 0.003729002783074975, 0.0059617324732244015, 0.001034251181408763, 0.003087189281359315, -0.010416358709335327, -0.05949408560991287, -0.03958066552877426, 0.22414322197437286, -0.06670652329921722, -0.05142064020037651, -0.0769139751791954, -0.07965706288814545, -0.08357763290405273, -0.07692762464284897, -0.07505607604980469, -0.0866595059633255, -0.06136349216103554, -0.0657990500330925, -0.026633555069565773, -0.05154561623930931, -0.2467600554227829, -0.2217765599489212, 0.6657053828239441, -0.05179140344262123, 0.46685275435447693, 0.21583542227745056, -0.1653260886669159, -0.11284704506397247, -0.25556328892707825, -0.3183438777923584, -0.2280503660440445, 0.383037269115448, 0.09112212061882019, -0.2223251760005951, 0.31220492720603943, 0.4354487657546997, -0.4191848337650299, 0.8444745540618896, 0.009590430185198784, -0.8786816596984863, -0.08913702517747879, 0.1117044985294342, 0.22165881097316742, -0.07545856386423111, -0.33056461811065674, -0.6878374218940735, -0.8954966068267822, 0.06847652047872543, -0.1858748346567154, -0.33514004945755005, -0.6706966161727905, -0.9400529265403748, -1.08799409866333, -0.18273591995239258, 0.21728552877902985, -0.5748817324638367, -0.9050715565681458, -1.0363463163375854, -0.34094715118408203, 0.4336232542991638, 0.19915395975112915, 0.4437098205089569, -0.6595970392227173, 0.013268339447677135, 0.07119159400463104, -0.27247729897499084, 0.02877509780228138, 0.2905699610710144, -0.02583508938550949, -0.12444392591714859, -0.21962006390094757, 0.313008576631546, 0.08825399726629257, -0.13688774406909943, -0.128388911485672, 0.18306568264961243, 0.3811761140823364, 0.2169809341430664, -0.08019909262657166, 0.5891843438148499, -0.010453110560774803, 0.5787878036499023, 0.2187419980764389, -0.2611742317676544, -0.2922690808773041, 0.15496228635311127, 0.04889937862753868, 0.2861205041408539, -0.32350414991378784, -0.19185175001621246, 0.057896342128515244, 0.45746177434921265, -0.029850387945771217, 0.3317026197910309, -0.2927120327949524, 0.29332810640335083, 0.23642010986804962, 0.21307121217250824, 0.349885493516922, 0.23254822194576263, 0.5534762144088745, -0.24567006528377533, 0.6774330139160156, 0.38755106925964355, 0.07763881981372833, 0.0350610725581646, 0.14244969189167023, -1.2707253694534302, -0.2668550908565521, 0.16629306972026825, 0.45327869057655334, -0.2508597671985626, -0.06777919828891754, -0.1994924247264862, -0.03756023570895195, 0.2720552384853363, -0.03418486937880516, 0.048174623399972916, 0.13870088756084442, 0.11889492720365524, -0.2698829174041748, 0.06232689321041107, -0.21590586006641388, 0.03969802334904671, 0.21563102304935455, 0.10458828508853912, 0.03488785773515701, -0.07834558933973312, -0.013446238823235035, -0.948406457901001, -0.8046984672546387, 0.14587490260601044, -0.19995397329330444, 0.6271800994873047, -0.44496601819992065, -0.042820997536182404, -0.2187926322221756, 0.013773833401501179, -0.2848599851131439, 0.4519464671611786, -0.3528759777545929, 0.4937029778957367, 0.12363950163125992, -0.024295050650835037, -0.08332725614309311, 0.02876862697303295, -0.1245252713561058, 0.15893594920635223, 0.04917899891734123, -0.025196218863129616, 0.10438577085733414, 0.019821731373667717, -0.37493062019348145, -0.01654425635933876, 0.39836472272872925, 0.08034878969192505, -0.25007835030555725, 0.17316444218158722, -0.3055501878261566, -0.005622117314487696, -0.4749968945980072, -0.007066074293106794, -0.0015461606672033668, 0.14306491613388062, -0.5404729843139648, 0.06235036253929138, -0.12133349478244781, 0.695320725440979, 0.1338166743516922, -0.36960795521736145, 0.14204266667366028, -0.02006552554666996, 0.05975694954395294, -0.07624038308858871, -0.029492327943444252, 0.388798326253891, -0.18811696767807007, -0.21254734694957733, 0.4364703595638275, 0.5867054462432861, -0.7323127388954163, -0.849163293838501, 0.4684361219406128, -0.4714789390563965, -0.04106278717517853, -0.14368458092212677, -0.0627497062087059, -0.04913613945245743, -0.03499224781990051, 0.03816506266593933, 0.6196703910827637, 0.20427431166172028, 0.046485140919685364, 0.06271853297948837, 0.03976929932832718, 0.21833869814872742, 0.8167409300804138, 0.016378872096538544, 0.04889003187417984, 0.017249999567866325, -0.027719298377633095, 0.1913125365972519, 0.31894195079803467, 0.021790338680148125, -0.010206183418631554, -0.1255708634853363, -0.0594111904501915, 0.18196293711662292, -0.13821834325790405, -0.07661495357751846, -0.013664709404110909, 0.09464210271835327, 0.008744499646127224, -0.21387353539466858, -0.39313018321990967, -0.03196632117033005, -0.008621200919151306, -0.005015503149479628, 0.06818769872188568, -0.016222545877099037, -0.2904170751571655, 0.19948968291282654, 0.3102860748767853, 0.2755526602268219, 0.15895111858844757, 0.435466468334198, 0.13550828397274017, -0.16829177737236023, -0.24128472805023193, -0.2445298582315445, -0.16119176149368286, -0.23546993732452393, -0.11386598646640778, 0.03674034774303436, 0.010976509191095829, 0.005560463294386864, 0.00373176671564579, 0.12935341894626617, -0.15892401337623596, -0.5474216938018799, -0.2560257017612457, 0.49332553148269653, -0.4804840683937073, 0.12872785329818726, 0.08259009569883347, -0.34603267908096313, 1.0295490026474, 0.679632306098938, -0.44044625759124756, 0.40655216574668884, 0.8111525774002075, -0.6452772617340088, 0.5494633316993713, 0.16913606226444244, 0.5913976430892944, 0.309836745262146, -0.008896810933947563, 0.24839210510253906, 0.102757029235363, 0.14850062131881714, 0.13619102537631989, 0.28370729088783264, -0.23827634751796722, -0.09414676576852798, 0.02268185280263424, -0.19633421301841736, -0.12989924848079681, -0.08324003219604492, -0.29498010873794556, 0.0613168366253376, 0.06405486166477203, -0.016342880204319954, -0.02085833065211773, 0.07324346154928207, -0.16002929210662842, 0.09641681611537933, 0.07592222839593887, 0.015614952892065048, 0.15642032027244568, 0.19206616282463074, 0.42451855540275574, -0.11300933361053467, -0.16307972371578217, -0.2642611861228943, -0.4601494073867798, -0.5402156710624695, 0.3983701169490814, -0.04869972541928291, -0.08493499457836151, -0.10794094949960709, -0.12635134160518646, -0.1929282695055008, -0.3577328622341156, -0.018985958769917488, -0.10533580929040909, -0.09276264160871506, -0.038745176047086716, -0.12574441730976105, 0.36713114380836487, -0.03508179262280464, 0.05650236830115318, 0.07080250233411789, 0.012737348675727844, 0.12427204847335815, -0.20621581375598907, 0.003157528815791011, -0.014935639686882496, -0.033594612032175064, -0.04175543040037155, -0.016265664249658585, -0.06131405383348465, 0.20234347879886627, 0.16774095594882965, 0.1250324249267578, 0.19018703699111938, -0.2746317982673645, -0.2095799744129181, 0.25326675176620483, -0.31812357902526855, -1.0173730850219727, 0.18108715116977692, -0.7160082459449768, -0.014928877353668213, -0.40546056628227234, -0.16989962756633759, -0.3533327281475067, -0.19581353664398193, -0.25711286067962646, -0.551175594329834, 0.0629284605383873, -0.010683989152312279, -0.02949558012187481, -0.09889788180589676, -0.16165268421173096, -0.1643141657114029, 0.24629764258861542, 0.13279719650745392, 0.13745597004890442, 0.07488042861223221, -0.02015129290521145, -0.20300695300102234, -0.023916471749544144, 0.02239721640944481, 0.05642256513237953, 0.08426733314990997, 0.025216128677129745, -0.007251956965774298, -0.001445353263989091, -0.05761416256427765, -0.034380894154310226, -0.050124865025281906, 0.07634076476097107, 0.3508387804031372, 0.1077587679028511, -0.22921791672706604, -0.21230167150497437, -0.1809651106595993, -0.41380491852760315, 0.27145034074783325, -0.020227249711751938, -0.0011782367946580052, 0.0038636696990579367, -0.012955180369317532, 0.05632264167070389, -0.5924801230430603, 0.04201974719762802, -0.008587759919464588, 0.08666246384382248, 0.16216188669204712, 0.35963767766952515, 0.6674965023994446, 0.04594318941235542, -0.10745412856340408, -0.034325260668992996, 0.025024017319083214, 0.09421466290950775, 0.07454662770032883, -0.011461547575891018, -0.0004936230834573507, 0.01565365493297577, 0.0003543154743965715, 0.04428698122501373, -0.045314278453588486, -0.013072994537651539, -0.16779492795467377, 0.1602034568786621, 0.016411462798714638, -0.212137371301651, 0.1440323442220688, -0.1824137419462204, 0.31198084354400635, 0.22755183279514313, -0.02010468766093254, -0.7702308893203735, 0.45448294281959534, -0.046066369861364365, 0.3874775171279907, -0.24511580169200897, -0.20989736914634705, -0.19010132551193237, -0.5942876935005188, 0.0046041058376431465, 0.04077042639255524, 0.04331472888588905, 0.03161484748125076, -0.0069939070381224155, -0.36540329456329346, 0.05753672868013382, 0.04895058274269104, 0.06364366412162781, 0.15012091398239136, -0.007883533835411072, 0.21939760446548462, -0.045993175357580185, -0.04259355738759041, -0.038791120052337646, -0.11022018641233444, -0.033824317157268524, -0.2433510422706604, 0.08728323876857758, 0.1783178448677063, 0.12713594734668732, 0.26004698872566223, 0.12608903646469116, -0.13467425107955933, 0.0242175105959177, -0.018678296357393265, 0.21709200739860535, 0.17210431396961212, 0.22317886352539062, -0.16559095680713654, 0.011486761271953583, 0.06284622848033905, -0.09920516610145569, -0.040157560259103775, -0.10574883222579956, -1.052411437034607, 0.07725068181753159, 0.042874108999967575, 0.05791845545172691, 0.04386823996901512, 0.0663394033908844, 0.7007930874824524, -0.13185477256774902, -0.17833364009857178, -0.2120944708585739, -0.23280146718025208, -0.2817293703556061, 0.27415791153907776, 0.10520127415657043, 0.1256851702928543, 0.145905539393425, 0.17443227767944336, 0.22883206605911255, -0.3709414303302765, 0.3676937222480774, 0.2195911407470703, 0.21362532675266266, 0.4347129464149475, -0.07767601311206818, 0.22062517702579498, -0.4066116511821747, -0.1530105173587799, -0.6797539591789246, 0.02230675518512726, 0.9228546619415283, -0.30898797512054443, -0.43128058314323425, 0.16747461259365082, 0.22578784823417664, -0.10843133926391602, 0.5565882325172424, 0.11075840145349503, 0.007648177910596132, 0.020539261400699615, 0.04304474592208862, 0.05903825908899307, 0.12454180419445038, -0.7502237558364868, 0.017017705366015434, 0.034372709691524506, 0.06912390887737274, 0.1029299721121788, 0.17642486095428467, 0.06641127169132233, 0.01117613073438406, 0.01798313297331333, 0.02345038391649723, 0.03475969657301903, 0.04110927879810333, 0.19543755054473877, 0.018352828919887543, 0.04242832213640213, 0.110662080347538, 0.18539366126060486, 0.23727303743362427, -0.3870964050292969, 0.03086264058947563, 0.07713474333286285, 0.16170401871204376, 0.2731330096721649, 0.37265682220458984, -0.018236704170703888, 0.011747670359909534, 0.02176484279334545, 0.03718315809965134, 0.06235046312212944, 0.07641596347093582, -0.6621254682540894, -0.004875128157436848, -0.03404916077852249, -0.037770308554172516, -0.12928323447704315, -0.12674283981323242, 0.3267814815044403, -0.014057937078177929, -0.04260988533496857, -0.08750937879085541, -0.1525438278913498, -0.24918003380298615, -0.022690000012516975, -0.015489552170038223, -0.01988072320818901, -0.03567071631550789, -0.010591056197881699, -0.07102712988853455, 0.18823657929897308, 0.21315255761146545, 0.26985466480255127, -0.0979732945561409, 0.39637845754623413, -0.083339624106884, 0.10223416239023209, 0.4162098467350006, -0.00858832336962223, 0.5327888131141663, 0.11612158268690109, 0.18631941080093384, -0.07476914674043655, -0.32249006628990173, -0.3899204134941101, -0.36959829926490784, -0.3457287847995758, 0.4948616325855255, -0.35605674982070923, -0.05118533596396446, 0.205521360039711, -0.13381388783454895, 0.22293813526630402, 0.14436151087284088, 0.0032150372862815857, -0.1661117672920227, -0.40848538279533386, -0.04593123123049736, -0.053016070276498795, -0.3213626444339752, -0.01779572106897831, 0.1255917102098465, 0.009720569476485252, 0.030160706490278244, 0.0558789037168026, -0.060995157808065414, 0.0016329486388713121, 0.01732865907251835, -0.051205042749643326, -0.05393568053841591, -0.09080133587121964, -0.19589969515800476, -0.0568515844643116, -0.08527188003063202, 0.03745494410395622, 0.20528805255889893, 0.1572558879852295, -0.2755347788333893, -0.10655178129673004, 0.06206479296088219, -0.10335462540388107, -0.01066887192428112, 0.0608329139649868, 0.005912358406931162, -0.000775428197812289, 0.12901714444160461, 0.27691903710365295, 0.058114320039749146, 0.14836061000823975, 0.11506330221891403, 0.060832638293504715, 0.17979386448860168, 0.09930005669593811, -0.223836287856102, 0.04858427867293358, 0.18962901830673218, -0.11349094659090042, -0.06281168013811111, 0.004406906257430595], "sample_rate": 48000}}, {"max_value": 1.0, "model": {"version": "0.7.0", "metadata": {"date": {"year": 2026, "month": 6, "day": 29, "hour": 10, "minute": 33, "second": 9}, "loudness": -17.6585928600564, "gain": 0.5600104089207361}, "architecture": "WaveNet", "config": {"layers": [{"input_size": 1, "condition_size": 1, "head": {"out_channels": 1, "kernel_size": 16, "bias": true}, "channels": 8, "kernel_sizes": [6, 6, 6, 6, 6, 6, 6, 6, 6, 6, 6, 6, 6, 6, 15, 15, 6, 6, 6, 6, 6, 6, 6], "dilations": [1, 3, 7, 17, 41, 101, 239, 1, 3, 7, 17, 41, 101, 239, 1, 13, 1, 3, 7, 17, 41, 101, 239], "activation": [{"type": "LeakyReLU", "negative_slope": 0.01}, {"type": "LeakyReLU", "negative_slope": 0.01}, {"type": "LeakyReLU", "negative_slope": 0.01}, {"type": "LeakyReLU", "negative_slope": 0.01}, {"type": "LeakyReLU", "negative_slope": 0.01}, {"type": "LeakyReLU", "negative_slope": 0.01}, {"type": "LeakyReLU", "negative_slope": 0.01}, {"type": "LeakyReLU", "negative_slope": 0.01}, {"type": "LeakyReLU", "negative_slope": 0.01}, {"type": "LeakyReLU", "negative_slope": 0.01}, {"type": "LeakyReLU", "negative_slope": 0.01}, {"type": "LeakyReLU", "negative_slope": 0.01}, {"type": "LeakyReLU", "negative_slope": 0.01}, {"type": "LeakyReLU", "negative_slope": 0.01}, {"type": "LeakyReLU", "negative_slope": 0.01}, {"type": "LeakyReLU", "negative_slope": 0.01}, {"type": "LeakyReLU", "negative_slope": 0.01}, {"type": "LeakyReLU", "negative_slope": 0.01}, {"type": "LeakyReLU", "negative_slope": 0.01}, {"type": "LeakyReLU", "negative_slope": 0.01}, {"type": "LeakyReLU", "negative_slope": 0.01}, {"type": "LeakyReLU", "negative_slope": 0.01}, {"type": "LeakyReLU", "negative_slope": 0.01}], "bottleneck": 8, "head1x1": {"active": false, "out_channels": 1, "groups": 1}, "layer1x1": {"active": true, "groups": 1}, "groups_input": 1, "groups_input_mixin": 1, "conv_pre_film": {"active": false, "shift": true, "groups": 1}, "conv_post_film": {"active": false, "shift": true, "groups": 1}, "input_mixin_pre_film": {"active": false, "shift": true, "groups": 1}, "input_mixin_post_film": {"active": false, "shift": true, "groups": 1}, "activation_pre_film": {"active": false, "shift": true, "groups": 1}, "activation_post_film": {"active": false, "shift": true, "groups": 1}, "layer1x1_post_film": {"active": false, "shift": true, "groups": 1}, "head1x1_post_film": {"active": false, "shift": true, "groups": 1}, "gating_mode": ["none", "none", "none", "none", "none", "none", "none", "none", "none", "none", "none", "none", "none", "none", "none", "none", "none", "none", "none", "none", "none", "none", "none"], "secondary_activation": [null, null, null, null, null, null, null, null, null, null, null, null, null, null, null, null, null, null, null, null, null, null, null], "slimmable": null}], "head": null, "head_scale": 0.0044069063559326275}, "weights": [-0.32679542899131775, -0.23391276597976685, 0.42223310470581055, 0.7687738537788391, -0.6875562071800232, -0.3491708040237427, 0.3508862853050232, 1.0129755735397339, -0.1220078319311142, 0.10577083379030228, -0.13748036324977875, -0.23780687153339386, 0.32607004046440125, 0.019155677407979965, -0.02838636003434658, -0.019012903794646263, -0.16832804679870605, -0.33760735392570496, 0.17651009559631348, -0.021265199407935143, 0.07511480152606964, -0.048229511827230453, 0.17419354617595673, 0.24685360491275787, -0.25351545214653015, -0.12755537033081055, -0.040257882326841354, 0.002713856054469943, 0.13819308578968048, 0.2548972964286804, -0.32518550753593445, -0.059794045984745026, -0.08990518748760223, 0.12431517988443375, -0.11817239224910736, -0.25902804732322693, 0.330281525850296, 0.057808004319667816, 0.003938605077564716, 0.12969599664211273, -0.09097357839345932, -0.23437915742397308, 0.2470150738954544, 0.1417718231678009, 0.031107263639569283, -0.07676950097084045, 0.17749041318893433, 0.1961624026298523, -0.22373820841312408, -0.10226831585168839, 0.15757519006729126, -0.16457568109035492, 0.20896278321743011, 0.4452230930328369, -0.2624068856239319, -0.10206107795238495, -0.011395307257771492, 0.04715333506464958, -0.13209401071071625, 0.11927928775548935, -0.24745047092437744, 0.07456710189580917, -0.015170585364103317, 0.08416537940502167, -0.10213606804609299, 0.161415696144104, -0.15800324082374573, 0.10259009897708893, 0.11513730138540268, -0.030751967802643776, 0.10408156365156174, -0.17985846102237701, 0.24261333048343658, -0.1432836949825287, 0.023165633901953697, -0.03347516804933548, 0.2326645851135254, -0.17307578027248383, 0.39565613865852356, -0.17598162591457367, -0.07889953255653381, 0.18817181885242462, -0.2247905433177948, 0.2895973324775696, -0.3131823241710663, 0.1616610735654831, -0.08586706966161728, 0.09401814639568329, -0.17215792834758759, 0.14404669404029846, -0.2248268723487854, 0.078408382833004, 0.11202143877744675, -0.021163972094655037, 0.17917901277542114, -0.11294586211442947, 0.28510764241218567, -0.07511791586875916, 0.019829178228974342, -0.15983779728412628, 0.18711596727371216, -0.2909237742424011, 0.42688488960266113, -0.07411204278469086, -0.22704742848873138, -0.1745334416627884, 0.10403573513031006, -0.04686986654996872, 0.049990784376859665, 0.10654544085264206, -0.1404261589050293, -0.17866340279579163, 0.005854339804500341, -0.24778813123703003, 0.03503597527742386, 0.2367309331893921, 0.29011255502700806, 0.051625460386276245, 0.013454985804855824, -0.04236060753464699, -0.10588374733924866, -0.20229695737361908, 0.3603724539279938, 0.05175531655550003, -0.1569572240114212, 0.15910445153713226, -0.08514516055583954, -0.16542187333106995, -0.14005646109580994, -0.2967722415924072, 0.12285734713077545, -0.1976224184036255, 0.23019824922084808, 0.15641529858112335, -0.2470140904188156, -0.1364615261554718, -0.013277322053909302, -0.07322283089160919, 0.07902276515960693, 0.11691731959581375, 0.29697051644325256, 0.15319481492042542, -0.06936120986938477, 0.04673955217003822, -0.2607373297214508, -0.29623985290527344, 0.3181368410587311, 0.2594001591205597, -0.0065289949998259544, -0.0019360808655619621, -0.158431276679039, -0.24219529330730438, -0.0001216500168084167, -0.00027698228950612247, -0.0001187787638627924, -0.00012118276208639145, -0.00024986331118270755, -9.189720003632829e-05, -9.081636380869895e-05, -0.0002018453524215147, -8.830167644191533e-05, -9.088234946830198e-05, -0.00018236109463032335, -6.871120422147214e-05, 0.00015273186727426946, 0.00035351645783521235, 0.0001496462500654161, 0.0001514698233222589, 0.0003186406975146383, 0.00011543794244062155, 0.00024940757430158556, 0.0006169673870317638, 0.0002477060188539326, 0.0002460005634929985, 0.000557564664632082, 0.00019071114365942776, -0.00022781816369388252, -0.0005562069709412754, -0.00022567296400666237, -0.0002248399396194145, -0.0005022027180530131, -0.0001736937992973253, -0.00013022373605053872, -0.0002959594130516052, -0.00012713395699393004, -0.00012960453750565648, -0.0002669316891115159, -9.838594996836036e-05, 0.0001295163674512878, 0.00029631206416524947, 0.00012658363266382366, 0.00012886899639852345, 0.00026721355970948935, 9.781816333997995e-05, 0.00030835845973342657, 0.0007940868381410837, 0.00030853747739456594, 0.00030386049184016883, 0.0007202137494459748, 0.00023813909501768649, -0.1055774837732315, 0.08840525150299072, -0.11146978288888931, -0.0620703361928463, 0.09300267696380615, 0.01782519370317459, -0.07592258602380753, 0.07341359555721283, -0.07815749198198318, -0.05603677034378052, 0.03664414957165718, 0.027713805437088013, 0.1442580223083496, -0.14751534163951874, 0.12073042243719101, 0.10298556834459305, -0.10313814878463745, -0.08219178020954132, 0.133344367146492, -0.1602707952260971, 0.1838332712650299, 0.18418684601783752, -0.11234764009714127, -0.04070840775966644, -0.17156678438186646, 0.16063764691352844, -0.19782160222530365, -0.1192275732755661, 0.10771143436431885, 0.0325983427464962, -0.11801257729530334, 0.11332675069570541, -0.12978392839431763, -0.036745261400938034, 0.06475743651390076, 0.02257571741938591, 0.11936339735984802, -0.09784761071205139, 0.14136017858982086, 0.08398516476154327, -0.1135716661810875, -0.019937893375754356, 0.18113188445568085, -0.25374725461006165, 0.2811620235443115, 0.22091422975063324, -0.2672351598739624, -0.06195228174328804, -0.03691709786653519, 0.09081710129976273, -0.04999928921461105, 0.004138307645916939, 0.04764051362872124, -0.026283051818609238, -0.027039285749197006, 0.06644156575202942, -0.037064142525196075, 0.004038606304675341, 0.036392346024513245, -0.023118896409869194, 0.05412326380610466, -0.10789144784212112, 0.06676828861236572, -0.008467867970466614, -0.06015333533287048, 0.031191853806376457, 0.1174333393573761, -0.21146097779273987, 0.0897667407989502, -0.026979610323905945, -0.09471911191940308, 0.06783561408519745, -0.07679779827594757, 0.15940819680690765, -0.09610453248023987, 0.01652810536324978, 0.11222375184297562, -0.04347336292266846, -0.03895359858870506, 0.08912937343120575, -0.052542634308338165, 0.0034721598494797945, 0.04840756207704544, -0.027326909825205803, 0.04076521471142769, -0.09256026893854141, 0.054108988493680954, -0.0063492474146187305, -0.05221391096711159, 0.026682410389184952, 0.1165713295340538, -0.23363742232322693, 0.13371641933918, -0.03761766105890274, -0.11436199396848679, 0.11714620143175125, -0.08255795389413834, 0.07134343683719635, -0.27601760625839233, 0.2365497201681137, 0.09786099940538406, -0.1108003556728363, -0.04291681945323944, 0.051814932376146317, -0.1823669672012329, 0.23194201290607452, 0.057169705629348755, -0.09831515699625015, 0.060149677097797394, -0.11193778365850449, 0.22204458713531494, -0.33587953448295593, -0.11297246813774109, 0.07383247464895248, 0.013790138065814972, -0.09171949326992035, 0.28614306449890137, -0.4031343460083008, -0.19795605540275574, 0.10662434995174408, -0.031725335866212845, 0.03192158043384552, -0.41194382309913635, 0.42715540528297424, 0.1581881046295166, -0.08525444567203522, -0.05500122532248497, 0.044672030955553055, -0.22340518236160278, 0.27395251393318176, 0.10716032981872559, -0.14718098938465118, 0.0506645105779171, -0.033686041831970215, 0.22162461280822754, -0.3077864348888397, -0.06373447179794312, 0.06849268078804016, 0.09234827011823654, -0.17144198715686798, 0.4443316161632538, -0.5011895895004272, -0.11134414374828339, 0.08748821169137955, -0.1196066215634346, -0.022955097258090973, 0.08584226667881012, -0.424358606338501, 0.09317721426486969, 0.07564269751310349, -0.08041159808635712, -0.022991597652435303, -0.12640102207660675, -0.40295910835266113, 0.06945275515317917, 0.03237932547926903, 0.04173221066594124, -0.09087799489498138, -0.008657514117658138, 0.32220590114593506, -0.22065864503383636, -0.07188686728477478, -0.04360641539096832, 0.10308892279863358, -0.11319588124752045, 0.27449294924736023, -0.22427134215831757, -0.005340027157217264, 0.03573785722255707, 0.0007488163537345827, -0.009386200457811356, -0.43699926137924194, 0.15974844992160797, -0.041029416024684906, 0.10720512270927429, -0.09142657369375229, -0.0344703234732151, -0.38133251667022705, 0.1519414484500885, 0.08555272966623306, 0.12153533101081848, -0.07707855850458145, -0.004774494096636772, 0.40118521451950073, -0.095436230301857, 0.10146556049585342, -0.001774773234501481, -0.08345599472522736, 0.0668579488992691, 0.3318789601325989, -0.12235844135284424, -0.03959084302186966, 0.014141960069537163, 0.39215487241744995, 0.22178374230861664, -0.01014909241348505, -0.0391630157828331, -0.06162877753376961, -0.011717190966010094, 0.18632659316062927, -0.2757240831851959, -0.05167548358440399, -0.33992907404899597, 0.00023538741515949368, -0.45362916588783264, 0.2380618304014206, 0.5395820140838623, -0.5410274267196655, 0.03472520783543587, 0.08307114243507385, 0.27790725231170654, 0.0002437532093608752, -0.13030532002449036, 0.05284355953335762, 0.5690268278121948, -0.07773514091968536, 0.2265821099281311, -0.46757322549819946, 0.3836868405342102, 0.0003240840451326221, 0.0988079234957695, -0.017601877450942993, -0.250661164522171, 0.29476866126060486, 0.14548099040985107, 0.015506420284509659, 0.22997261583805084, 0.0008359946077689528, 0.2576539218425751, -0.22402310371398926, -0.2209973782300949, 0.22179467976093292, 0.3431941270828247, -0.17565695941448212, 0.021593688055872917, 0.0004757506831083447, 0.204767107963562, 0.2485085278749466, 0.147311270236969, 0.07104102522134781, 0.4293409585952759, 0.012578488327562809, 0.05485251545906067, -0.00029314655694179237, 0.6222613453865051, 0.3048417568206787, 0.4979897141456604, 0.07092345505952835, -0.055571768432855606, 0.9170814156532288, 0.1971019208431244, 0.0004118551150895655, 0.14869168400764465, 0.1828615814447403, -0.42001497745513916, -0.3779257833957672, -0.12808366119861603, -0.05358262360095978, -0.22114548087120056, -0.0003857106785289943, -0.030639806762337685, -0.1573013812303543, -0.6621135473251343, -0.433929443359375, -0.3712279498577118, 0.11277363449335098, 0.06309101730585098, 0.0004002643981948495, -0.07352259010076523, -0.17391358315944672, 0.2888006269931793, -0.47941476106643677, -0.280458003282547, 0.16960284113883972, -0.2376587688922882, -0.05607234686613083, -0.12316707521677017, -0.31559666991233826, 0.11253403127193451, 0.040373653173446655, 0.017511840909719467, -0.13895922899246216, 0.05633991211652756, -0.14551281929016113, 0.20293112099170685, -0.04360391944646835, -0.14613458514213562, 0.040245093405246735, -0.18888813257217407, -0.00986841507256031, 0.2334095984697342, 0.3323085308074951, 0.07635731250047684, 0.040913909673690796, -0.0003232976305298507, 0.052394330501556396, -0.04445967078208923, 0.4892251193523407, -0.12314620614051819, 0.0737779513001442, -0.0002484217402525246, -0.4885799288749695, 0.06107059866189957, 0.6025891304016113, 0.048329781740903854, -0.17312198877334595, 0.05615530163049698, 0.021178066730499268, 0.09612743556499481, 0.098256416618824, 0.08832686394453049, -0.11620485782623291, 0.2857276499271393, 0.05359689146280289, -0.38497573137283325, 0.4433409869670868, -0.11787671595811844, -0.21728205680847168, -0.1502894014120102, -0.15317434072494507, -0.2363532930612564, 0.125501811504364, -0.02611750364303589, -0.03694502264261246, 0.004872989375144243, -0.17654113471508026, -0.03527691215276718, -0.09566494077444077, -0.11516718566417694, -0.03437003120779991, 0.08849674463272095, 0.025087697431445122, -0.1209108904004097, 0.03618483990430832, 0.11320868879556656, 0.08327186852693558, 0.10027187317609787, 0.05061820521950722, 0.2558525800704956, -0.20220673084259033, -0.21241450309753418, -0.19126461446285248, -0.16042838990688324, -0.017381325364112854, -0.08070962131023407, 0.0472671240568161, -0.12490615248680115, -0.24553421139717102, -0.049050472676754, -0.08774121105670929, 0.10446970909833908, 0.34094151854515076, -0.016362465918064117, 0.18330436944961548, 0.07761376351118088, -0.04253348335623741, -0.07158797234296799, -0.25479140877723694, -0.0012176568852737546, -0.13717873394489288, -0.05116056278347969, 0.16909465193748474, -0.39596202969551086, 0.14001262187957764, -0.13383597135543823, -0.14057442545890808, -0.07380086928606033, 0.02345241792500019, -0.06484916806221008, 0.0904599204659462, -0.05489455163478851, -0.21889978647232056, -0.12300591915845871, -0.24018731713294983, -0.0022358172573149204, 0.3056505024433136, 0.0657799243927002, 0.03449206054210663, 0.038303192704916, 0.1077173575758934, 0.02633737400174141, 0.09200678020715714, -0.11138755828142166, 0.07073616236448288, -0.06382493674755096, -0.21446557343006134, 0.07678350061178207, -0.32121628522872925, 0.030948469415307045, -0.032454635947942734, -0.11409582942724228, -0.10567621141672134, 0.06632274389266968, -0.08309534192085266, -0.010907681658864021, -0.1075286939740181, -0.02923748269677162, -0.062340568751096725, 0.07573099434375763, 0.055480364710092545, 0.10136555135250092, -0.12503266334533691, 0.09362027794122696, 0.06184438616037369, -0.0072829825803637505, 0.11297721415758133, 0.0854957327246666, -0.06881173700094223, 0.06552024930715561, 0.10474611818790436, -0.28260278701782227, 0.211407870054245, 0.05167488008737564, 0.03087262436747551, 0.06510443240404129, -0.10216955095529556, -0.0689438208937645, -0.004693907219916582, 0.010405086912214756, -0.020427169278264046, 0.06860316544771194, -0.055107999593019485, 0.03439407795667648, 0.06307665258646011, 0.00027886792668141425, 0.0005362951778806746, 0.0005689653917215765, 0.00047939203795976937, 0.0005946164601482451, 0.000541883404366672, -0.0004939671489410102, -0.0005133833619765937, -0.0004832098784390837, -0.0005274434224702418, -0.0007423411007039249, -0.0007373552653007209, 0.0004664648149628192, 0.0004815276770386845, 0.0003679036453831941, 0.0002902840788010508, 0.0002317094913451001, 0.00022149411961436272, 0.00039907070458866656, 0.00026194279780611396, -0.00018530970555730164, -0.00015973376866895705, -0.0002413373877061531, -0.00037690153112635016, -0.00031814721296541393, 2.6568966859485954e-05, -4.160831304034218e-05, -0.00023008155403658748, -0.00044658512342721224, -0.0006444248137995601, -0.00023370236158370972, 0.0002197479479946196, 0.0006489292718470097, 0.00046172336442396045, 0.0005664168274961412, 0.0006167726824060082, 0.00044098362559452653, 0.00013300994760356843, 0.00022632424952462316, 0.00039176494465209544, 0.0003970283141825348, 0.0005355604807846248, 0.0007004252984188497, 0.0006023117457516491, 0.000326993758790195, 0.00045941240387037396, 0.0007302927551791072, 0.0007071233121678233, 0.015850577503442764, 0.07771632820367813, 0.06714285910129547, 0.18293967843055725, 0.31046122312545776, 0.024213094264268875, -0.009132531471550465, -0.06602828204631805, -0.05465567111968994, 0.01562940888106823, 0.12438001483678818, -0.12755519151687622, 0.2130916863679886, 0.10502807050943375, 0.13593201339244843, -0.2692505717277527, -0.059909287840127945, -0.24627560377120972, -0.0058799623511731625, 0.20198191702365875, -0.0021593591663986444, -0.3110191226005554, -0.19608758389949799, -0.1667468100786209, -0.10708019137382507, -0.005994714796543121, -0.002097740303725004, 0.07890769094228745, 0.539408266544342, -0.5545911192893982, -0.05146576836705208, 0.0479133240878582, -0.09234676510095596, 0.10713785886764526, 0.09726642072200775, 0.06423702836036682, -0.12797433137893677, 0.01747959293425083, -0.0016902267234399915, -0.08594673126935959, -0.30190423130989075, 0.468468576669693, 0.05829521641135216, 0.0034971663262695074, -0.001920760958455503, -0.032459989190101624, -0.3460785150527954, 0.6890963315963745, -0.17663511633872986, -0.06165154278278351, -0.10378401726484299, -0.09495653212070465, -0.32625100016593933, -0.18742859363555908, -0.015337901189923286, -0.08884447813034058, 0.07417018711566925, -0.13745197653770447, 0.032086048275232315, 0.033684421330690384, -0.1324012130498886, -0.05799813196063042, -0.3639752268791199, -0.34439653158187866, 0.035792507231235504, 0.08336693793535233, -0.11067117005586624, -0.027628453448414803, -0.1524299830198288, -0.14240749180316925, -0.09277070313692093, 0.05597219988703728, 0.03438010811805725, -0.012173815630376339, 0.08439788967370987, 0.10761257261037827, -0.06554705649614334, -0.02768070623278618, -0.12370587140321732, 0.08887261897325516, -0.16404208540916443, 0.015629801899194717, -0.4707947373390198, 0.029261447489261627, 0.08908066153526306, -0.02479245513677597, 0.0649559423327446, 0.06786162406206131, -0.07460027188062668, 0.07412392646074295, -0.06488364189863205, -0.0672009289264679, -0.034265149384737015, -0.20301881432533264, -0.03432539477944374, 0.014895831234753132, 0.009288173168897629, -0.05170663446187973, -0.11636821925640106, 0.025080135092139244, -0.04875243827700615, -0.11368916183710098, 0.01425432600080967, -0.026945052668452263, 0.15115366876125336, 0.039679352194070816, 0.1633363664150238, -0.038821931928396225, -0.11509325355291367, -0.1255435347557068, -0.154352605342865, -0.215204119682312, -0.09920291602611542, -0.057928647845983505, 0.10167190432548523, -0.0055452752858400345, -0.08229207992553711, -0.196593776345253, 0.09527148306369781, 0.15717028081417084, 0.10964149236679077, -0.017674043774604797, 0.1400882601737976, 0.2864260673522949, 0.019372012466192245, -0.029696207493543625, 0.10317355394363403, 0.0008308168035000563, -0.007048370316624641, 0.28343018889427185, -0.33220916986465454, -0.06953980028629303, -0.07127334922552109, -0.04202328994870186, -0.014767048880457878, -0.16705931723117828, -0.12515874207019806, 0.03852495551109314, 0.057284899055957794, -0.02102496847510338, -0.020404120907187462, -0.1855122148990631, 0.04470578953623772, 0.165538489818573, -0.2525676488876343, -0.02310960926115513, -0.09099258482456207, -0.07805722206830978, -0.2344096153974533, 0.09423314779996872, -0.07727289944887161, -0.0017853168537840247, -0.15967167913913727, 0.030438197776675224, 0.02819962240755558, 0.1814698576927185, -0.04304303973913193, 0.06066861003637314, 0.11362221091985703, 0.03397740423679352, -0.23711654543876648, -0.19614174962043762, -0.054250333458185196, 0.1827637106180191, 0.3737197518348694, 0.2011546939611435, 0.07342439889907837, -0.057472750544548035, 0.04115452244877815, -0.12636232376098633, -0.16144908964633942, -0.1424531489610672, -0.14323660731315613, 0.21344196796417236, 0.06327886879444122, -0.11539767682552338, -0.30780473351478577, 0.12405942380428314, 0.19618399441242218, -0.2523441016674042, -0.07580983638763428, 0.06742995232343674, 0.08355457335710526, -0.03975003585219383, 0.285929799079895, -0.16592513024806976, 0.15136432647705078, 0.2028302699327469, 0.06327074766159058, 0.06919310986995697, 0.1112176850438118, -0.2216911017894745, -0.04731297492980957, -0.014348926022648811, 0.11256764829158783, -0.004127390682697296, -0.21113575994968414, 0.34648481011390686, 0.15318706631660461, 0.07156749069690704, 0.2686697542667389, 0.5740414261817932, 0.299402117729187, 0.00015341295511461794, 0.17886924743652344, 0.4786198139190674, 0.7410129904747009, -0.9860870242118835, 0.18420478701591492, -0.06427884846925735, -0.057268284261226654, 0.00043340062256902456, 0.4294552206993103, -0.1130995899438858, 0.08223411440849304, 0.28874531388282776, 0.30043044686317444, -0.23080016672611237, -0.029027706012129784, 0.0003282927209511399, -0.12617413699626923, -0.06518176943063736, -0.3786454498767853, 0.3466404378414154, 0.15717141330242157, -0.09669066220521927, -0.27879729866981506, 0.0008966927998699248, 0.06681859493255615, 0.01997922547161579, -0.04971541464328766, 0.19811733067035675, 0.08539178222417831, 0.014839841984212399, 0.2657341957092285, 6.52297239867039e-05, 0.288107305765152, 0.209967240691185, 0.22425994277000427, -0.10089366883039474, 0.5999292731285095, 0.08954386413097382, 0.2594664394855499, -0.00022376592096406966, 0.744398295879364, -0.023883743211627007, 0.24138353765010834, -0.05747057870030403, -0.002110815607011318, 0.12310570478439331, 0.17147305607795715, 0.0002947415632661432, -0.34399551153182983, 0.15549343824386597, 0.24913208186626434, 0.10882057249546051, -0.5145501494407654, 0.4267734885215759, -0.1398080587387085, -0.0006351350457407534, -0.634063720703125, 0.17208996415138245, -0.0945735052227974, -0.05686764791607857, -0.11487264186143875, -0.09173984080553055, 0.1131913959980011, 0.00025387914502061903, -0.43816784024238586, 0.37462007999420166, -0.052058469504117966, 0.0620587058365345, -0.1151588037610054, 0.07413417100906372, 0.05218806117773056, -0.2146853804588318, 0.1562565118074417, -0.2499316781759262, -0.08665460348129272, -0.19351597130298615, 0.07041963189840317, 0.06707750260829926, 0.04371727257966995, 0.10337980091571808, -0.11276650428771973, 0.07385580241680145, 0.011265454813838005, 0.0015982006443664432, 0.015675334259867668, -0.053178925067186356, 0.013543752022087574, -0.0580933541059494, 0.0025507144164294004, -0.045616935938596725, 0.03202226385474205, -0.04178990423679352, 0.10471819341182709, -0.046824388206005096, 0.02370578423142433, -0.07960928976535797, 0.056935008615255356, 0.024674244225025177, 0.012100206688046455, -0.08207092434167862, -0.05804794281721115, 0.03290611878037453, -0.02242804877460003, 0.07065073400735855, -0.05799904465675354, -0.06402949243783951, -0.17176099121570587, 0.05162210389971733, -0.07091748714447021, 0.049986980855464935, 0.10416875779628754, 0.21302323043346405, -0.035331517457962036, -4.777699359692633e-06, -0.07660580426454544, -0.07828035205602646, 0.04900061711668968, 0.08653856813907623, 0.019832752645015717, 0.04336358979344368, -0.010623987764120102, -0.03554290160536766, -0.09389852732419968, 0.15771859884262085, -0.10166298598051071, -0.14876551926136017, -0.04534076154232025, -0.13959546387195587, -0.258256733417511, -0.018085360527038574, 0.02423638477921486, 0.04069258272647858, 0.08442404121160507, 0.05664622038602829, 0.15328474342823029, -0.016970111057162285, -0.1779536008834839, -0.17663994431495667, -0.35928475856781006, -0.20779068768024445, -0.21408115327358246, -0.022340545430779457, -0.004376730415970087, -0.08866613358259201, -0.16713547706604004, -0.2071664184331894, -0.14763571321964264, 0.07729706168174744, 0.005518436431884766, 0.055163849145174026, 0.202105313539505, 0.13967658579349518, 0.12019714713096619, -0.15137913823127747, 0.06976107507944107, -0.09053464233875275, 0.14351481199264526, -0.08244702965021133, -0.12802445888519287, -0.09220409393310547, -0.004041966982185841, -0.010891813784837723, 0.1481693685054779, 0.06787056475877762, 0.12003516405820847, -0.04842948168516159, -0.04163818806409836, -0.03333522751927376, -0.09706754982471466, -0.1578594297170639, -0.16701769828796387, 0.14055998623371124, 0.13468901813030243, 0.11103124916553497, 0.09314516186714172, 0.08746563643217087, 0.5358655452728271, -0.3089611530303955, -0.042784836143255234, 0.04158010706305504, 0.020273175090551376, -0.0318763293325901, -0.03424518182873726, -0.25476503372192383, 0.04139481112360954, -0.0035096348728984594, 0.03348906710743904, 0.10218722373247147, -0.0666910707950592, -0.04130299389362335, 0.09408418834209442, 0.07303696125745773, 0.011723226867616177, 0.06324676424264908, -0.31978875398635864, 0.03813689574599266, -0.14877338707447052, -0.024244988337159157, -0.08362546563148499, -0.18634672462940216, 0.44137588143348694, -0.47614237666130066, 0.03540755435824394, -0.0714932531118393, 0.029184183105826378, -0.19806817173957825, 0.05869419500231743, 0.20387007296085358, -0.038650594651699066, 0.09917205572128296, -0.02133030816912651, 0.048885416239500046, -0.15457911789417267, 0.8662830591201782, -0.08514069765806198, -0.09232635796070099, -0.04240448400378227, -0.06908337026834488, -0.46359434723854065, 0.16107934713363647, -0.02280442789196968, 0.07239694893360138, 0.0769360214471817, 0.053735896944999695, 0.10408808290958405, 0.021073270589113235, 0.006245585158467293, 0.006578396540135145, 0.0013124891556799412, -0.039481863379478455, -0.06574368476867676, -0.3379378318786621, 0.01755599118769169, -0.02364654280245304, 0.021843861788511276, 0.046768806874752045, -0.01897766813635826, -0.14986009895801544, 0.042473528534173965, 0.006104023661464453, 0.04218370094895363, 0.1006171852350235, 0.06918135285377502, 0.14118139445781708, -0.01033364050090313, 0.07515941560268402, -0.002394690178334713, 0.04266517609357834, 0.23056161403656006, 0.07392991334199905, -0.08865544945001602, 0.18788845837116241, -0.1417490839958191, -0.05744720622897148, 0.3288019299507141, -0.28404390811920166, -0.015719912946224213, 0.035955991595983505, -0.012253251858055592, -0.03509126976132393, -0.04290378838777542, 0.03300277888774872, -0.08690440654754639, 0.05811214819550514, 0.058310333639383316, 0.06826206296682358, -0.05365564674139023, 0.23418410122394562, -0.03801687806844711, -0.009496918879449368, -0.0045131416991353035, 0.036836713552474976, 0.15574198961257935, -0.08665567636489868, -0.03926355019211769, -0.02322467789053917, 0.03945161774754524, 0.030545614659786224, 0.11533629894256592, -0.03597543388605118, 0.07799112796783447, 0.05728490650653839, -0.004046471789479256, 0.056896258145570755, 0.1160878911614418, -0.10794217139482498, 0.0286635160446167, 0.10919837653636932, 0.06852693110704422, 0.09442278742790222, -0.06619148701429367, -0.22299255430698395, -0.004535891115665436, 0.08575059473514557, 0.08173274248838425, 0.02525932528078556, -0.07174546271562576, -0.0755937248468399, 0.07217823714017868, -0.07720620930194855, 0.0016944088274613023, -0.03214394673705101, -0.2305767834186554, 0.08911807835102081, -0.01049477607011795, -0.015048759058117867, 0.03365299105644226, -0.06171674281358719, -0.17493025958538055, 0.2577599585056305, 0.006095157004892826, 0.038517724722623825, 0.07430864125490189, 0.04521573707461357, 0.013913772068917751, -0.01497395895421505, -0.07107808440923691, -0.10738382488489151, -0.054107021540403366, -0.07299457490444183, -0.20109118521213531, -0.11729996651411057, 0.0028529930859804153, 0.0716102197766304, 0.0521094836294651, -0.02494741417467594, -0.037922102957963943, 0.33936458826065063, -0.03792519122362137, -0.09432359784841537, 0.01738099940121174, 0.20677712559700012, 0.06363029778003693, -0.1075703501701355, 0.0448865070939064, -0.018605640158057213, 0.11614169180393219, 0.14151427149772644, 0.2776077091693878, -0.06247313320636749, -0.08509035408496857, 0.04367385059595108, -0.06080286204814911, -0.2046932578086853, -0.05843936279416084, 0.26871469616889954, 0.00010595281491987407, -0.14648401737213135, 0.20864272117614746, -0.16284061968326569, -0.15267424285411835, -0.018021011725068092, -0.02907690219581127, 0.05491707846522331, 0.0646376833319664, -0.009992418810725212, 0.20510493218898773, 0.010523354634642601, -0.0827949270606041, 0.0634700208902359, 0.05933051556348801, 0.19787289202213287, 0.328574538230896, -0.20703832805156708, -0.051431216299533844, 0.13013049960136414, 0.04448387399315834, -0.03894590958952904, 0.041437726467847824, 0.023338761180639267, 0.03453444316983223, -0.12551584839820862, -0.010577765293419361, -0.10900814086198807, -0.05262305960059166, 0.05041314288973808, -0.02985534630715847, -0.07008480280637741, 0.08527900278568268, -0.019088158383965492, -0.03410044685006142, 0.031233742833137512, 0.04631251469254494, -0.0516023263335228, 0.04308053106069565, -0.027409078553318977, -0.031173225492239, 0.06333117187023163, 0.035961613059043884, 0.054610393941402435, -0.11267998814582825, 0.025340160354971886, -0.10057530552148819, 0.03251293674111366, -0.13979214429855347, 0.27929240465164185, -0.21667246520519257, 0.29014548659324646, -0.00796828418970108, 0.06745641678571701, 0.04861847683787346, -0.08831814676523209, 0.03129708766937256, -0.06582604348659515, 0.02398756332695484, 0.025079205632209778, -0.01952451281249523, 0.022994857281446457, 0.06299332529306412, -0.13838514685630798, -0.12062123417854309, 0.058511365205049515, 0.01326465979218483, -0.024386031553149223, 0.05313130468130112, 0.01882750727236271, -0.010511497035622597, -0.2070167511701584, -0.005069880746304989, -0.009453421458601952, -0.07238148152828217, 0.03830811753869057, -0.09475448727607727, 0.1552942544221878, -0.029374904930591583, -0.10202045738697052, -0.15058106184005737, 0.047444943338632584, 0.29190024733543396, 0.19648383557796478, 0.017697174102067947, -0.03219323977828026, -0.15115022659301758, -0.010291427373886108, 0.38535889983177185, 0.03598402440547943, -0.00030628617969341576, 0.04039069265127182, 0.09446254372596741, -0.011192409321665764, 0.02734522707760334, -0.015356834046542645, 0.07708017528057098, -0.1422567218542099, 0.2129836082458496, -0.25014060735702515, -0.04161874204874039, 0.3778688907623291, 0.0004387066001072526, -0.06417818367481232, -0.07680642604827881, -0.0567205473780632, -0.15243586897850037, 0.21126651763916016, -0.0030799161177128553, 0.0773545354604721, -0.12942996621131897, 0.00653252936899662, 0.09862686693668365, -0.29567503929138184, -0.09810767322778702, 0.20047791302204132, -0.21241600811481476, -0.09768065810203552, -0.010011141188442707, 0.057065390050411224, 0.072401262819767, -0.08287402987480164, -0.012877010740339756, 0.3425896465778351, 0.24225759506225586, 0.07079608738422394, -0.14530378580093384, -0.8247748017311096, 0.12613114714622498, 0.04930054396390915, 0.031002096831798553, -0.1783936619758606, 0.39000242948532104, 0.3370378017425537, 0.18588833510875702, 0.40444836020469666, -0.15406478941440582, 0.44249197840690613, 0.18938469886779785, -0.13877494633197784, 0.4161149561405182, 0.29848146438598633, -0.1994258463382721, 0.05040457099676132, -0.07087113708257675, 0.05245615169405937, -0.018314583227038383, 0.09868057072162628, 0.2101033329963684, -0.042298927903175354, 0.03255608305335045, -0.09584616124629974, -0.28301629424095154, 0.01757524535059929, -0.16491277515888214, 0.235794797539711, 0.2575727701187134, 0.32181674242019653, -0.047918710857629776, -0.1147836446762085, -0.23134611546993256, 0.16268110275268555, 0.05818944051861763, -0.09036191552877426, 0.37109845876693726, -0.15134936571121216, 0.004753651563078165, -0.15122513473033905, -0.06729608029127121, -0.0639992207288742, -0.22732701897621155, 0.06984394043684006, -0.08796829730272293, -0.1643640249967575, -0.07370037585496902, 0.06528583914041519, -0.05607539042830467, 0.08915946632623672, -0.15622441470623016, 0.23630040884017944, -0.7645100355148315, -0.052304383367300034, 0.09860476106405258, -0.17083342373371124, -0.1747836023569107, -0.3759006857872009, -0.18415820598602295, 0.04497290030121803, -0.3304135203361511, 0.061652667820453644, -0.2744441330432892, -0.06774484366178513, 0.15374013781547546, 0.1836118847131729, 0.17200762033462524, 0.1049194484949112, -0.20040349662303925, 0.007554645650088787, 0.17043370008468628, -0.05944206938147545, 0.0531071238219738, 0.06342960149049759, 0.03491644933819771, 0.018023645505309105, -0.10458660870790482, -0.05606197193264961, 0.0021904315799474716, 0.06317543983459473, 0.0934324562549591, 0.0717439278960228, 0.13235801458358765, 0.08386541903018951, -0.004561007022857666, 0.41069430112838745, -0.028261199593544006, -0.07806345075368881, 0.014523421414196491, -0.052392520010471344, -0.04176493361592293, -0.009639735333621502, 0.03628526255488396, 0.013560022227466106, -0.020128851756453514, 0.10203085839748383, 0.34379759430885315, -0.12243764847517014, 0.04122987389564514, 0.0341767892241478, 0.036758825182914734, -0.014248281717300415, -0.07451531291007996, 0.3190907835960388, -0.055838894098997116, -0.02076394110918045, -0.03404352813959122, 0.046070609241724014, 0.16248778998851776, -0.13176296651363373, 0.07986848056316376, 0.017496466636657715, 0.025597980245947838, -0.018456831574440002, -0.06305591762065887, -0.08676407486200333, -0.009687178768217564, 0.02492666058242321, 0.09890631586313248, 0.06165246665477753, 0.38971635699272156, -0.1979331523180008, 0.06045687198638916, 0.01839178428053856, 0.05878058448433876, 0.06523285061120987, -0.021082846447825432, -0.09398156404495239, 0.0006565694347955287, 0.05997581034898758, 0.05855335295200348, 0.008766870945692062, 0.12604761123657227, -0.09748823195695877, -0.10862965881824493, -0.0888499990105629, -0.08398871123790741, -0.12812472879886627, 0.037470314651727676, -0.10002823919057846, 0.08227945119142532, 0.030634192749857903, 0.05678221583366394, 0.014538602903485298, 0.08396483212709427, -0.05576708912849426, 0.13690775632858276, 0.10404501110315323, 0.09880996495485306, 0.16466175019741058, 0.0730733573436737, -0.1767047941684723, 0.03226161375641823, 0.015927445143461227, 0.05108599364757538, -0.04865679517388344, -0.05230293050408363, 0.2488737553358078, -0.08359279483556747, -0.09437251091003418, -0.11160437017679214, -0.21697364747524261, -0.22264906764030457, -0.005285025108605623, -0.04583074524998665, 0.028305213898420334, -0.009198866784572601, -0.040414344519376755, -0.02953365631401539, 0.053978096693754196, 0.13341274857521057, 0.08543860912322998, 0.01310037449002266, 0.1115124374628067, 0.0504201240837574, 0.1495911180973053, -0.06245917081832886, -0.05038696900010109, 0.03652309253811836, -0.025165481492877007, -0.08719874173402786, -0.30475935339927673, 0.029527228325605392, 0.07978957146406174, -0.01907244138419628, 0.023634351789951324, 0.1491246223449707, 0.19237388670444489, 0.03986658900976181, 0.08375786989927292, 0.03618287667632103, 0.03396948426961899, 0.05431291460990906, 0.12428174167871475, -0.032790567725896835, -0.0003658958012238145, -0.024636218324303627, -0.06602229923009872, -0.07446363568305969, 0.06556490808725357, 0.015838144347071648, -0.01679655723273754, 0.017278920859098434, 0.050967276096343994, 0.06525371223688126, 0.15103691816329956, -0.1079578772187233, -0.0039991699159145355, -0.018096014857292175, -0.07048358768224716, -0.03355621173977852, -0.04156089946627617, 0.03136133402585983, -0.006822158116847277, -0.006284303497523069, -0.07649786025285721, -0.046624213457107544, -0.1823079138994217, 0.03565286099910736, 0.02663361094892025, -0.009732811711728573, 0.07563497871160507, 0.15638718008995056, 0.07801403105258942, 0.010973448865115643, 0.022664638236165047, 0.006169487256556749, -0.10396520048379898, -0.03070477955043316, -0.04135039821267128, -0.011652681045234203, -0.021577559411525726, 0.047779105603694916, -0.010615539737045765, 0.07237940281629562, -0.061181943863630295, 0.041299644857645035, 0.05582386255264282, -0.001129142357967794, -0.0261226836591959, -0.025738492608070374, -0.13769479095935822, 0.016290226951241493, -0.007214113604277372, -0.041308436542749405, -0.044910747557878494, 0.02566640079021454, -0.15738217532634735, 0.020619196817278862, 0.020932946354150772, 0.06890527904033661, 0.06338900327682495, 0.2166440784931183, -0.05464309826493263, 0.0335242785513401, -0.020840108394622803, -0.013384267687797546, -0.12876920402050018, -0.07181037962436676, -0.04389175400137901, -0.024203624576330185, -0.0026274342089891434, 0.10076111555099487, 0.09739429503679276, 0.04282122105360031, 0.020260468125343323, 0.005152628291398287, 0.06385015696287155, 0.02432795986533165, -0.035577189177274704, 0.05797690898180008, 0.03742741420865059, 0.01072954386472702, -0.05840538069605827, -0.05687589943408966, -0.014314782805740833, -0.10854615271091461, -0.05752875283360481, -0.0007484533707611263, 0.019135499373078346, 0.046351734548807144, 0.05651606619358063, -0.10030902922153473, -0.09440751373767853, 0.017319120466709137, -0.024455681443214417, -0.029067065566778183, 0.04922571778297424, 0.04417850449681282, 0.025756733492016792, 0.07324158400297165, 0.05123385041952133, 0.031290385872125626, -0.08758195489645004, -0.051472388207912445, -0.12484213709831238, 0.006734232418239117, -0.03835926949977875, 0.0732550248503685, 0.007917865179479122, 0.21292813122272491, 0.3532799184322357, 0.025779135525226593, -0.009527592919766903, -0.05176813527941704, -0.049051813781261444, -0.026956310495734215, 0.14734581112861633, -0.016329577192664146, 0.009671170264482498, 0.02011617086827755, -0.029380472376942635, 0.07331573218107224, 0.15479791164398193, -0.017139475792646408, -0.04207568243145943, -0.05008618161082268, -0.020791487768292427, 0.05270953103899956, -0.020386185497045517, 0.07735881954431534, 0.012189745903015137, 0.03885646536946297, -0.010536808520555496, -0.025929750874638557, -0.1719629168510437, 0.015453793108463287, 0.0430091917514801, 0.05942739546298981, -0.155742809176445, -0.06542268395423889, 0.047774188220500946, 0.030021265149116516, -0.08390194177627563, -0.05852511525154114, -0.10861518979072571, -0.12992750108242035, 0.019012155011296272, -0.055853407829999924, -0.00042033172212541103, -0.08727344870567322, -0.05338229984045029, 0.0152081698179245, -0.2454889565706253, -0.027317602187395096, 0.09843455255031586, -0.06621474772691727, 0.0986269935965538, 0.09468498826026917, 0.5786100029945374, 0.07480869442224503, 0.02460828796029091, 0.06645440310239792, 0.060751158744096756, -0.026313457638025284, 0.15138570964336395, -0.00595363974571228, 0.0512545108795166, 0.024295946583151817, -0.04271379113197327, -0.025248633697628975, 0.26411527395248413, -0.023987838998436928, 0.09203778952360153, 0.06562864035367966, 0.008237314410507679, -0.02441415563225746, 0.10524758696556091, -0.10648118704557419, 0.02978271245956421, -0.04926198348402977, 0.03385766223073006, -0.06394899636507034, -0.03225585073232651, -0.000514318177010864, -0.05979005619883537, -0.057095177471637726, 0.0140495290979743, 0.061998400837183, 0.0411396324634552, -0.0031723345164209604, 0.033642783761024475, 0.042025331407785416, 0.033347394317388535, 0.06190486624836922, -0.15561239421367645, -0.032791562378406525, -0.05549060180783272, -0.004541434347629547, -0.15853498876094818, 0.11516910046339035, -0.10905247926712036, 0.007541100960224867, -0.05626682937145233, 0.03342271223664284, -0.013471626676619053, -0.030491668730974197, 0.05199012532830238, 0.008674811571836472, 0.05002312734723091, -0.03864887356758118, 0.09541288018226624, -0.08071865141391754, -0.014017251320183277, -0.026863809674978256, 0.037186723202466965, 0.05516595393419266, 0.07090550661087036, -0.07241550087928772, -0.019570233300328255, 0.07317746430635452, -0.03333096206188202, 0.021222304552793503, -0.03582370653748512, 0.008350697346031666, 0.09165944904088974, -0.12306739389896393, -0.03101343847811222, 0.01875106245279312, 0.021042408421635628, 0.01280500739812851, 0.06143798306584358, 0.03154538571834564, -0.02646045759320259, -0.07535036653280258, -0.0886574387550354, -0.006493451073765755, 0.07075300812721252, -0.03824010118842125, -0.01743912510573864, 0.02264256402850151, -0.013599148020148277, -0.17336565256118774, 0.26544877886772156, -0.02948104590177536, 0.03209085762500763, -0.038533229380846024, 0.059114087373018265, 0.1391817033290863, 0.009927158243954182, 0.009618468582630157, 0.0026356687303632498, 0.06516174226999283, -0.0026249978691339493, 0.1878109574317932, -0.12666961550712585, -0.04146122932434082, -0.039027582854032516, 0.047051604837179184, 0.04584912955760956, -0.05628719925880432, -0.11673495918512344, 0.033135998994112015, 0.016463419422507286, -0.04355989024043083, -0.07410235702991486, -0.09143088012933731, -0.03253994509577751, 0.11619777232408524, 0.12937983870506287, -0.27164968848228455, -0.08390770852565765, 0.08193069696426392, 0.01583823747932911, -0.11837183684110641, -0.08257731795310974, -0.11675471067428589, 0.026115084066987038, 0.18961884081363678, -0.035851769149303436, 0.6626846790313721, 0.13073210418224335, -0.053921177983284, 0.3726578652858734, 0.019063446670770645, 0.2814497649669647, -0.23926600813865662, -0.049519456923007965, 0.20352840423583984, -0.002614164026454091, 0.1948285847902298, 0.2561412751674652, 0.013346152380108833, -0.03564510494470596, -0.12807761132717133, -0.061000026762485504, -0.19524326920509338, -0.2054908275604248, 0.14461347460746765, -0.04817365109920502, 0.12310657650232315, 0.22829540073871613, 0.04702666029334068, -0.11580066382884979, 0.044175054877996445, -0.07727138698101044, 0.07591661810874939, 0.04167042672634125, -0.002993486588820815, -0.16662956774234772, -0.02198195457458496, 0.3111220598220825, -0.2928008735179901, -0.33633923530578613, -0.018727341666817665, -0.02172529511153698, -0.06986131519079208, 0.0915619283914566, 0.003991865552961826, 0.06573288142681122, 0.15957966446876526, -0.020969504490494728, -0.005829698871821165, -0.24827121198177338, 0.13522034883499146, -0.3056444525718689, -0.08375799655914307, -0.08042991161346436, 0.45088860392570496, 0.25891977548599243, -0.004721158184111118, 0.13732895255088806, -0.26449036598205566, 0.20952294766902924, 0.4249092936515808, 0.12947949767112732, 0.1371115893125534, 0.22197772562503815, -0.17978045344352722, -0.2163032442331314, -0.1634327620267868, 0.19696196913719177, -0.07551272213459015, -0.0014545090962201357, 0.048603978008031845, -0.20536071062088013, -0.22132565081119537, 0.01964951679110527, 0.06850704550743103, -0.0999964103102684, 0.06770443171262741, 0.12132421880960464, -0.18717844784259796, -0.04923709109425545, -0.16061069071292877, 0.19769571721553802, -0.0529695488512516, -0.03088444657623768, -0.022799216210842133, -0.07424619048833847, -0.06356153637170792, 0.2606801986694336, 0.019770370796322823, 0.010254926979541779, 0.025585168972611427, -0.029992979019880295, 0.029185354709625244, 0.0656275823712349, 0.006916508544236422, -0.1705384999513626, -0.14816619455814362, -0.07946906238794327, -0.08944679796695709, 0.08068637549877167, 0.05218308046460152, -0.037385519593954086, 0.04525153338909149, 0.0017535348888486624, 0.03904000669717789, 0.12250279635190964, -0.052508436143398285, -0.003335980698466301, -0.04790762439370155, -0.05459306016564369, -0.09914343059062958, 0.04701799526810646, 0.0727141946554184, 0.06728784739971161, 0.06480646133422852, 0.07877369970083237, 0.11612404137849808, 0.16234762966632843, -0.009310760535299778, -0.031185176223516464, 0.003409618278965354, -0.043484609574079514, 8.536630775779486e-05, -0.27739816904067993, -0.017862942069768906, 0.04382430016994476, -0.01643078587949276, -0.04211234673857689, 0.024041101336479187, -0.25374603271484375, -0.013447864912450314, 0.01124606654047966, 0.003998958505690098, -0.025271117687225342, -0.0005219134618528187, -0.2186097949743271, -0.011473742313683033, 0.03615572303533554, -0.0017797271721065044, 0.015557403676211834, 0.03140849620103836, 0.06250575184822083, 0.049321629106998444, -0.013188479468226433, -0.01861005276441574, -0.0458657406270504, -0.015242808498442173, 0.09437337517738342, -0.027302024886012077, 0.031123852357268333, -0.011940726079046726, 0.0402892641723156, 0.10398364067077637, -0.2615705132484436, 0.04980650916695595, 0.08219955861568451, 0.01564098708331585, 0.060143474489450455, 0.09927068650722504, -0.08537140488624573, -0.05941302329301834, -0.05590055510401726, -0.09715574234724045, -0.038918737322092056, -0.10009956359863281, -0.03122023493051529, -0.043793633580207825, -0.02745252288877964, -0.03187217190861702, -0.07000283151865005, -0.05693429335951805, 0.043664220720529556, 0.043974507600069046, 0.049392446875572205, 0.05644366890192032, 0.024845974519848824, 0.08789777010679245, -0.1056218296289444, -0.04287803918123245, 0.040793851017951965, -0.027876095846295357, -0.030970409512519836, 0.018289562314748764, -0.07125115394592285, -0.014676675200462341, -0.046357546001672745, 0.039409514516592026, -0.04181544482707977, 0.025524979457259178, -0.006506009958684444, 0.07479379326105118, 0.07230610400438309, 0.04822028428316116, 0.0089114373549819, -0.01272877212613821, 0.012604779563844204, 0.015563420951366425, 0.09058943390846252, 0.022672146558761597, -0.07120877504348755, 0.005335961934179068, 0.08383508026599884, 0.0065266466699540615, 0.009097713977098465, -0.026782512664794922, -0.06570446491241455, -0.026115311309695244, 0.07736623287200928, 0.0655510276556015, 0.07295560091733932, -0.023826485499739647, 0.11369714885950089, 0.02921425737440586, 0.03633347153663635, 0.009190135635435581, -0.013898237608373165, -0.021732840687036514, 0.06653238832950592, -0.06326223909854889, 0.03609015420079231, 0.026082422584295273, 0.017804034054279327, -0.04813490808010101, 0.02748798206448555, -0.05023324117064476, 0.032848186790943146, 0.025144953280687332, 0.06080281361937523, -0.03689529001712799, 0.039298202842473984, -0.005701837129890919, -0.01837180182337761, -0.0227949395775795, 0.0033618174493312836, 0.019751381129026413, 0.07574790716171265, 0.0011165596079081297, -0.06627793610095978, 0.023087600246071815, 0.03484855219721794, 0.017134319990873337, -0.016186445951461792, 0.05899862200021744, -0.023794004693627357, 0.056321024894714355, 0.025051981210708618, -0.021165762096643448, 0.011231725104153156, -0.018161585554480553, -0.03604252263903618, -0.043539538979530334, 0.012092252261936665, -0.021246815100312233, -0.009785722009837627, -0.0983046442270279, 0.046861015260219574, -0.061159852892160416, -0.03669339790940285, 0.03781788796186447, 0.004506621044129133, -0.038114313036203384, -0.10502824932336807, -0.004734242334961891, -0.0023844914976507425, 0.04624823480844498, -0.03538835421204567, 0.05463607236742973, 0.03528803214430809, 0.0101796705275774, 0.010759993456304073, -0.04669969901442528, -0.01813076063990593, 0.036679044365882874, 0.020883409306406975, -0.0005957484827376902, -0.0007336347480304539, -0.0010106258559972048, -0.0008435045019723475, -0.0012795465299859643, -0.0011352573055773973, -7.438632019329816e-05, 0.0005705254734493792, -0.0005009210435673594, -0.0004605837748385966, -0.0004916097968816757, 0.0007834024145267904, 0.0006136872689239681, 3.155185186187737e-05, 0.00013631529873237014, -0.00027500060969032347, 0.00025429113884456456, 0.0010104784741997719, -0.0012614495353773236, -0.0013916782336309552, -0.0009912584209814668, -0.00044486470869742334, -0.0005036658840253949, -0.0014841128140687943, -0.000648086192086339, -0.00044761603930965066, -0.0006216648034751415, -0.00015328195877373219, -0.0008077916572801769, -0.0021389005705714226, 0.0005945268203504384, -3.876181290252134e-05, 0.0007000071927905083, 0.00020082038827240467, 0.0004910706775262952, 6.878982821945101e-05, 2.880520696635358e-05, 6.419119745260105e-05, 0.0010932504665106535, 0.0007616631919518113, 0.0008566032629460096, -0.0004231383791193366, -0.0013304164167493582, -0.0020006545819342136, -0.0013809179654344916, -0.0017843205714598298, -0.0012431297218427062, -0.0010554896434769034, 0.018023138865828514, -0.01616375707089901, -0.028484107926487923, -0.019736329093575478, -0.03465615212917328, 0.0005919834366068244, -0.02537628635764122, -0.005545767489820719, 0.014028733596205711, 0.009511691518127918, 0.013645162805914879, -0.09130710363388062, 0.011025117710232735, 0.02863128110766411, 0.027562828734517097, 0.00835682824254036, 0.012885191477835178, 0.07715420424938202, -0.008068631403148174, 0.01235122885555029, -0.01518250908702612, -0.015012220479547977, -0.03075503557920456, 0.12884856760501862, 0.005121522583067417, 0.0238991379737854, 0.027567265555262566, 0.012162133120000362, 0.004234374035149813, -0.12274782359600067, 0.009631585329771042, 0.01691596396267414, 0.01956864818930626, 0.04232785478234291, -0.006811800412833691, -0.04113447293639183, 0.013454491272568703, 0.008458022028207779, 0.014900218695402145, 0.026812490075826645, 0.058278102427721024, 0.10822823643684387, -0.014205006882548332, -0.03994400054216385, -0.02489813230931759, -0.035348571836948395, -0.07194079458713531, 0.09232436865568161, 0.02748805657029152, 0.016668526455760002, -0.0648520216345787, -0.05151069536805153, -0.02923789992928505, 0.1904514729976654, -0.050832800567150116, -0.031968723982572556, -0.032412562519311905, -0.04648929834365845, -0.09147774428129196, 0.054741717875003815, -0.07305467873811722, -0.039010077714920044, 0.005045135505497456, 0.02267337590456009, -0.012819673866033554, -0.030498536303639412, -0.017073679715394974, 0.06350412964820862, -0.010841366834938526, 0.012585874646902084, 0.0104634128510952, -0.1681569218635559, -0.013987001031637192, 0.0257004052400589, -0.01647310145199299, -0.03798340633511543, -0.038813188672065735, -0.13102395832538605, -0.0003647345583885908, 0.04240395501255989, 0.06257832795381546, 0.047020867466926575, 0.12522843480110168, -0.12814825773239136, -0.03020417131483555, -0.029650703072547913, -0.03547876328229904, -0.03155139461159706, -0.04629912227392197, -0.1113361120223999, -0.0030332026071846485, -0.06326649338006973, -0.036570627242326736, -0.019855907186865807, -0.0878181904554367, -0.06675779074430466, 0.13846951723098755, 0.11063012480735779, 0.1315663903951645, 0.07652349770069122, 0.08470813184976578, -0.09909527748823166, -0.021005073562264442, -0.024875057861208916, -0.013569761998951435, 0.01784893125295639, -0.029645100235939026, -0.1263827383518219, 0.050864554941654205, 0.035057973116636276, 0.07544375956058502, 0.08705855906009674, 0.1880093812942505, -0.21569055318832397, 0.014569764025509357, 0.023331493139266968, -0.00325721874833107, -0.03009100817143917, -0.013312547467648983, -0.046928901225328445, 0.14366883039474487, 0.12739521265029907, 0.09206221252679825, 0.10269538313150406, -0.02025354467332363, 0.030033349990844727, -0.076828233897686, -0.0737212523818016, -0.06838040053844452, -0.04788528382778168, -0.0959198921918869, 0.38397982716560364, -0.020620597526431084, -0.07604771852493286, 0.008193125016987324, 0.010523584671318531, -0.04454249516129494, -0.14100071787834167, 0.08226560801267624, 0.0860413983464241, 0.01578129455447197, 0.062310200184583664, 0.053857751190662384, 0.05166877433657646, -0.10597627609968185, -0.02474948950111866, -0.010197347961366177, -0.024028494954109192, -0.010251330211758614, -0.05395546555519104, 0.0009171473211608827, 0.024903224781155586, 0.017076734453439713, 0.10784624516963959, 0.01637113466858864, 0.0366145595908165, 0.0007001505582593381, 0.3053112328052521, -0.10490874201059341, -0.24616384506225586, 0.09236545860767365, 0.17315371334552765, -0.15606357157230377, -0.07022132724523544, 8.850615995470434e-05, 0.06850498914718628, -0.04949413985013962, 0.15980824828147888, 0.02562766522169113, -0.05214189365506172, 0.008789662271738052, -0.043159663677215576, 0.0004554829793050885, 0.027320364490151405, 0.15375015139579773, -0.15543274581432343, 0.10771187394857407, 0.0749986544251442, 0.0013343216851353645, 0.09614209830760956, 0.00018073584942612797, -0.019269157201051712, 0.011372131295502186, 0.0684446394443512, 0.08492544293403625, -0.1227613016963005, -0.09311849623918533, -0.06770595908164978, -0.00033790021552704275, -0.14242398738861084, -0.0009538085432723165, -0.06419581174850464, -0.09488265961408615, -0.16804510354995728, -0.01917569525539875, -0.08632408082485199, 2.879680869227741e-05, -0.07550313323736191, -0.22894133627414703, 0.10179061442613602, 0.22605155408382416, 0.054441988468170166, -0.013741525821387768, 0.025523653253912926, 3.0705032258993015e-05, 0.24575531482696533, 0.04224928095936775, -0.32718536257743835, 0.14862534403800964, 0.015923019498586655, 0.0018054470419883728, -0.11283858120441437, -0.0009468579082749784, 0.11001863330602646, 0.21550369262695312, 0.011994179338216782, -0.39800626039505005, 0.14291560649871826, -0.1004449799656868, -0.08260428160429001, -1.4266770449467003e-05, 0.10165880620479584, -0.09334515035152435, 0.0918426662683487, -0.2114691138267517, 0.1038060411810875, -0.30988797545433044, -0.15038257837295532, -0.03159031644463539, 0.20999975502490997, 0.0025284187868237495, -0.013551658019423485, 0.05051327869296074, 0.053991030901670456, 0.008217345923185349, -0.031283553689718246, 0.010497655719518661, -0.008257078006863594, -0.08179710060358047, -0.07518485933542252, -0.027797063812613487, -0.01528272032737732, -0.011336336843669415, -0.06326548010110855, 0.0190382432192564, 0.040394145995378494, 0.035905856639146805, -9.379185212310404e-05, -0.03747572749853134, -0.013795253820717335, -0.06172426789999008, -0.01461691502481699, -0.03741234168410301, -0.05239727720618248, -0.06954686343669891, -0.005569516681134701, 0.02684689126908779, 0.04936518147587776, -0.07469131052494049, -0.06056128814816475, 0.041727215051651, -0.07221788167953491, 0.03159262612462044, 0.03217097371816635, -0.006190700456500053, -0.03714822232723236, 0.02335289493203163, -0.13257893919944763, -0.0160868838429451, 0.024574201554059982, 0.052604470402002335, 0.02167566306889057, 0.032591696828603745, 0.05294720083475113, 0.01637745276093483, -0.05445129796862602, 0.03519662842154503, 0.04724806547164917, 0.058676932007074356, 0.006947472225874662, -0.030688539147377014, 0.004289794713258743, -0.02066584676504135, 0.011579730547964573, 0.009755200706422329, 0.3698001801967621, -0.026975378394126892, -0.025816921144723892, -0.04868170991539955, 0.005573881324380636, 0.041448429226875305, 0.10852903127670288, 0.05480167642235756, 0.048316799104213715, 0.08027271181344986, 0.024719692766666412, 0.03714714199304581, 0.3330278694629669, 0.01435770746320486, -0.024388790130615234, -0.026304516941308975, 0.014075949788093567, 0.022010231390595436, -0.012812001630663872, -0.0843823105096817, -0.004224475007504225, 0.021148305386304855, 0.00210971524938941, 0.030194010585546494, 0.029287349432706833, -0.0209545586258173, -0.04061729460954666, -0.015382479876279831, -0.03227567672729492, -0.05432957410812378, 0.1609378308057785, 0.04195355623960495, -0.00238070753403008, 0.00562137458473444, 0.057342279702425, 0.11874347925186157, -0.26763904094696045, -0.07231009751558304, -0.0043737618252635, -0.02523181401193142, -0.010656652972102165, 