{"version": "0.7.0", "metadata": {"date": {"year": 2026, "month": 6, "day": 29, "hour": 13, "minute": 16, "second": 33}, "loudness": -19.07071979325662, "gain": 0.7900568702823483, "training": {"settings": {"ignore_checks": false}, "data": {"latency": {"manual": null, "calibration": {"algorithm_version": 1, "delays": [-16], "safety_factor": 1, "recommended": -17, "warnings": {"matches_lookahead": false, "disagreement_too_high": false, "not_detected": false}}}, "checks": {"version": 3, "passed": true}}, "validation_esr": null}}, "architecture": "SlimmableContainer", "config": {"submodels": [{"max_value": 0.5, "model": {"version": "0.7.0", "metadata": {"date": {"year": 2026, "month": 6, "day": 29, "hour": 13, "minute": 16, "second": 32}, "loudness": -19.466265752729278, "gain": 0.8173647098555039}, "architecture": "WaveNet", "config": {"layers": [{"input_size": 1, "condition_size": 1, "head": {"out_channels": 1, "kernel_size": 16, "bias": true}, "channels": 3, "kernel_sizes": [6, 6, 6, 6, 6, 6, 6, 6, 6, 6, 6, 6, 6, 6, 15, 15, 6, 6, 6, 6, 6, 6, 6], "dilations": [1, 3, 7, 17, 41, 101, 239, 1, 3, 7, 17, 41, 101, 239, 1, 13, 1, 3, 7, 17, 41, 101, 239], "activation": [{"type": "LeakyReLU", "negative_slope": 0.01}, {"type": "LeakyReLU", "negative_slope": 0.01}, {"type": "LeakyReLU", "negative_slope": 0.01}, {"type": "LeakyReLU", "negative_slope": 0.01}, {"type": "LeakyReLU", "negative_slope": 0.01}, {"type": "LeakyReLU", "negative_slope": 0.01}, {"type": "LeakyReLU", "negative_slope": 0.01}, {"type": "LeakyReLU", "negative_slope": 0.01}, {"type": "LeakyReLU", "negative_slope": 0.01}, {"type": "LeakyReLU", "negative_slope": 0.01}, {"type": "LeakyReLU", "negative_slope": 0.01}, {"type": "LeakyReLU", "negative_slope": 0.01}, {"type": "LeakyReLU", "negative_slope": 0.01}, {"type": "LeakyReLU", "negative_slope": 0.01}, {"type": "LeakyReLU", "negative_slope": 0.01}, {"type": "LeakyReLU", "negative_slope": 0.01}, {"type": "LeakyReLU", "negative_slope": 0.01}, {"type": "LeakyReLU", "negative_slope": 0.01}, {"type": "LeakyReLU", "negative_slope": 0.01}, {"type": "LeakyReLU", "negative_slope": 0.01}, {"type": "LeakyReLU", "negative_slope": 0.01}, {"type": "LeakyReLU", "negative_slope": 0.01}, {"type": "LeakyReLU", "negative_slope": 0.01}], "bottleneck": 3, "head1x1": {"active": false, "out_channels": 1, "groups": 1}, "layer1x1": {"active": true, "groups": 1}, "groups_input": 1, "groups_input_mixin": 1, "conv_pre_film": {"active": false, "shift": true, "groups": 1}, "conv_post_film": {"active": false, "shift": true, "groups": 1}, "input_mixin_pre_film": {"active": false, "shift": true, "groups": 1}, "input_mixin_post_film": {"active": false, "shift": true, "groups": 1}, "activation_pre_film": {"active": false, "shift": true, "groups": 1}, "activation_post_film": {"active": false, "shift": true, "groups": 1}, "layer1x1_post_film": {"active": false, "shift": true, "groups": 1}, "head1x1_post_film": {"active": false, "shift": true, "groups": 1}, "gating_mode": ["none", "none", "none", "none", "none", "none", "none", "none", "none", "none", "none", "none", "none", "none", "none", "none", "none", "none", "none", "none", "none", "none", "none"], "secondary_activation": [null, null, null, null, null, null, null, null, null, null, null, null, null, null, null, null, null, null, null, null, null, null, null], "slimmable": null}], "head": null, "head_scale": 0.007191967425123886}, "weights": [-0.4367748498916626, -0.8463202118873596, -1.0112096071243286, -0.00728384917601943, -0.0756031721830368, 0.4891217052936554, -0.22257623076438904, -0.036659061908721924, -0.01876007951796055, -0.07207968831062317, -0.1414676308631897, 0.6373615264892578, -0.2563849687576294, -0.25582972168922424, -0.04568706080317497, -0.10027598589658737, 0.014965415932238102, 0.6282553672790527, 0.003851927351206541, -0.33108624815940857, 0.07901059091091156, -0.3484072983264923, 0.18174681067466736, -0.2224801480770111, -0.184027761220932, 0.3755478262901306, 0.38834133744239807, -0.3092650771141052, -0.12874755263328552, -0.21731631457805634, -0.16535405814647675, 0.07920964062213898, 0.39339807629585266, -0.30389997363090515, -0.025410069152712822, -0.07275789976119995, 0.09424339979887009, 0.3549562692642212, 0.3558313250541687, -0.1786409616470337, -0.25120872259140015, -0.12351930141448975, -0.10888257622718811, -0.07137242704629898, 0.12512800097465515, -0.19093352556228638, -0.027389822527766228, -0.14552830159664154, -0.0742107480764389, 0.12919293344020844, 0.27370837330818176, -0.22240838408470154, -0.14164935052394867, 0.00237863278016448, -0.16536873579025269, -0.10134086012840271, 0.1481909453868866, 0.21582505106925964, 0.10117495805025101, 0.20500536262989044, 0.3010086715221405, 0.20795103907585144, 0.029691943898797035, -0.7750944495201111, 0.31949833035469055, 0.16367509961128235, 0.2111831158399582, 0.2781064808368683, 0.23812894523143768, -0.41518163681030273, 0.3963063359260559, -0.24291658401489258, 0.2692105174064636, -0.47554171085357666, -0.12759508192539215, -0.14113982021808624, -0.028389528393745422, 0.06231961026787758, 0.2622326910495758, 0.22506780922412872, -0.13044840097427368, -0.022389613091945648, -0.1361187994480133, -0.11260383576154709, -0.15658462047576904, -0.15985146164894104, -0.17132240533828735, 0.11792536079883575, 0.06501860171556473, -0.2507498860359192, 0.1739257276058197, 0.04861704260110855, -0.24821783602237701, 0.10024090111255646, 0.15430237352848053, 0.2077317237854004, -0.04570017382502556, 0.27156391739845276, -0.10174950212240219, -0.11856766790151596, -0.27717161178588867, -0.32963013648986816, -0.1408306509256363, -0.2765141725540161, 0.01729930005967617, -0.29684922099113464, -0.08759775757789612, -0.06232902780175209, 0.04987730458378792, -0.1926296353340149, -0.2536703646183014, -0.11956030130386353, 0.24838122725486755, -0.07003065198659897, 0.047845229506492615, -0.03759092837572098, 0.06938294321298599, -0.14702990651130676, 0.16514283418655396, -0.25929006934165955, 0.09289960563182831, -0.2261466085910797, -0.24599523842334747, 0.10009165853261948, 0.15779763460159302, -0.03124873898923397, -0.0815214291214943, 0.21261534094810486, 0.036613672971725464, 0.2218395471572876, 0.32592105865478516, 0.21458403766155243, 0.2681173086166382, 0.521461546421051, 0.9222465753555298, -0.3276309669017792, 0.22350506484508514, -0.4021144509315491, -0.18486417829990387, 0.4955103099346161, 0.1237482875585556, -0.5378090143203735, -0.62969970703125, -0.3417396545410156, 0.36180952191352844, -0.23055614531040192, 0.2641587555408478, -0.07355477660894394, -0.08342140913009644, 0.033124953508377075, -0.0022566812112927437, -0.10101652890443802, -0.05154891312122345, 0.009529794566333294, 0.06617466360330582, 0.14055508375167847, 0.16526329517364502, 0.0799652561545372, 0.02396957017481327, -0.0540081225335598, 0.10633789002895355, 0.32566243410110474, 0.22333189845085144, 0.10778085887432098, 0.05775249004364014, -0.0667029321193695, 0.035274241119623184, -0.01214521937072277, -0.0316089428961277, -0.005190183408558369, 0.038513436913490295, 0.033045534044504166, -0.07849879562854767, -0.02289338782429695, -0.0006049579242244363, 0.11326324194669724, 0.21649351716041565, 0.00969334039837122, 0.05326567217707634, 0.03361055627465248, -0.12771211564540863, -0.1444636732339859, 0.14405395090579987, 0.135764017701149, 0.09969738870859146, -0.09445163607597351, 0.15472662448883057, -0.0218126829713583, 0.07828108966350555, -0.17333532869815826, 0.1883723884820938, 0.15080054104328156, 0.17971020936965942, 0.02425449714064598, 0.11986026167869568, -0.02514868602156639, -0.15489135682582855, 0.01826874352991581, -0.13346298038959503, -0.14738434553146362, 0.06329768151044846, -0.07992026954889297, -0.044180870056152344, 0.186876118183136, -0.18083547055721283, -0.19104589521884918, -0.9798716902732849, -0.2592625916004181, 0.25720250606536865, 0.05599100515246391, -0.2973513901233673, 0.028767762705683708, 0.31026574969291687, 0.10358926653862, 0.13362504541873932, 0.4879254996776581, 0.20157532393932343, -0.16463536024093628, 0.4694208800792694, -0.10022389888763428, -0.08436907827854156, -0.0691428929567337, -0.24193339049816132, -0.30533748865127563, 0.12794646620750427, 0.054892051964998245, 0.045452117919921875, 0.11794710159301758, -0.16812121868133545, 0.16562487185001373, -0.1822279840707779, 0.01589272730052471, 0.002726036822423339, -0.02539382316172123, 0.001991809345781803, -0.19296196103096008, -0.33967581391334534, -0.026744410395622253, 0.04328535497188568, -0.012474484741687775, -0.05382918193936348, -0.08944570273160934, 0.3096330761909485, 0.021917078644037247, -0.09547825157642365, -0.06983786076307297, -0.020034151151776314, 0.031754378229379654, 1.0152660608291626, -0.004329338204115629, -0.012752715498209, 0.01276892889291048, 0.041378747671842575, 0.12817232310771942, -0.08347522467374802, -0.0082893380895257, -0.03803948685526848, -0.16627146303653717, -0.1003604456782341, 0.21546587347984314, 0.023636167868971825, 0.01781088300049305, 0.09954085201025009, 0.0409640371799469, -0.053032923489809036, 0.14837096631526947, 0.14662766456604004, 0.023104263469576836, -0.039263129234313965, 0.12408546358346939, 0.05400498956441879, 0.16008473932743073, 0.08452831953763962, -0.18541496992111206, -0.07787542790174484, -0.17500782012939453, 0.16178691387176514, -0.016995729878544807, -0.3957088887691498, 0.03467001020908356, 0.1992633044719696, -0.2105201631784439, 0.04925879091024399, -0.5260679125785828, -0.16930732131004333, 0.11624056845903397, 0.4899384081363678, 0.00637070182710886, -0.24587853252887726, -0.4393148422241211, 0.4942246675491333, 0.01695350371301174, 0.047029610723257065, -0.005961102899163961, -0.02407236397266388, -0.025498585775494576, 0.006069151684641838, -0.012372288852930069, 0.031054485589265823, 0.03836118057370186, 0.015297879464924335, -0.03189276158809662, 0.05528426542878151, 0.04247605428099632, -0.04965435341000557, -0.13682067394256592, 0.06619589030742645, -0.15339381992816925, -0.02680554986000061, 0.035239577293395996, 0.05056358501315117, 0.00615982711315155, -0.048959214240312576, 0.049699392169713974, -0.026913689449429512, -0.01937286928296089, -0.04827149212360382, -0.030918249860405922, -0.04285440593957901, -0.41760605573654175, 0.07301918417215347, -0.0154526736587286, -0.001394312595948577, 0.0019149202853441238, 0.012696409597992897, 0.038379766047000885, -0.12860973179340363, 0.16957898437976837, -0.08155442029237747, 0.10510958731174469, 0.09636130928993225, -0.21002700924873352, -0.16315646469593048, -0.22125427424907684, -0.058546435087919235, -0.1450195163488388, -0.0755949467420578, -0.10840289294719696, -0.04767409712076187, -0.02853083610534668, 0.05771419778466225, 0.03919212147593498, 0.026501642540097237, -0.00020280451280996203, -0.014222190715372562, -0.04274190589785576, -0.08983206003904343, 0.24418313801288605, 0.02778223156929016, 0.46086299419403076, 0.24558240175247192, 0.10905663669109344, 0.1905892789363861, 0.011903470382094383, -0.03590390086174011, -0.21686051785945892, 0.15679122507572174, -0.05269521474838257, -0.3172937333583832, -0.12093581259250641, -0.20821712911128998, -0.16523675620555878, 0.26538729667663574, -0.025251194834709167, -0.009050480090081692, 0.11582265049219131, -0.059601183980703354, -0.04878072440624237, -0.006780410651117563, 0.05731535330414772, -0.0421789176762104, -0.18826940655708313, -0.04414357990026474, -0.0006951672257855535, -0.033350612968206406, -0.008333138190209866, 0.011822533793747425, -0.00500165531411767, 0.019187191501259804, 0.055542826652526855, 0.22857508063316345, -0.004521975759416819, -0.0011183759197592735, 0.003978862427175045, 0.019791223108768463, -0.09450332820415497, -0.2608846426010132, -0.007726771291345358, -0.007972082123160362, 0.01918323151767254, -0.012729720212519169, -0.10019482672214508, 0.08723900467157364, 0.008442730642855167, -0.0018165067303925753, -0.003499341430142522, 0.024044347926974297, 0.048085443675518036, -0.13794684410095215, -0.05979073420166969, -0.0567927211523056, -0.0960150882601738, -0.050818536430597305, -0.1849917769432068, 0.09527101367712021, 0.09229198843240738, 0.13684791326522827, 0.16933369636535645, 0.16908122599124908, 0.07842456549406052, 0.30514106154441833, 0.021390702575445175, 0.029249409213662148, 0.05470757186412811, 0.0660218894481659, 0.08978008478879929, -0.4538916349411011, -0.14959917962551117, 0.18547342717647552, -0.08019688725471497, 0.8085731863975525, -0.05607254430651665, 0.13670112192630768, 0.06506457179784775, 0.14485956728458405, 0.2854558229446411, 0.1696736067533493, -0.1675814390182495, 0.1984836906194687, -0.10657927393913269, -0.1012958362698555, 0.43220463395118713, -0.40255969762802124, -0.1148538589477539, -0.4809221029281616, -0.042647991329431534, -0.02194088324904442, -0.029469577595591545, -0.016644729301333427, -0.17322920262813568, -0.023006150498986244, 0.026403160765767097, 0.0057363444939255714, 0.037856873124837875, -0.16924799978733063, 0.09079135954380035, -0.16827422380447388, 0.007286113686859608, 0.0009233472519554198, 0.006175398826599121, 0.039460837841033936, 0.02598344162106514, 0.20413197576999664, 0.09850689023733139, 0.09664013981819153, -0.008039076812565327, 0.029259316623210907, 0.07351312041282654, 0.1464415341615677, -0.007142782676964998, 0.04884084686636925, -0.12595216929912567, -0.13449010252952576, 0.23259133100509644, 0.20630890130996704, -0.040863242000341415, -0.04277006909251213, 0.023106331005692482, 0.037046946585178375, -0.13016949594020844, -0.11566298454999924, 0.00435575982555747, -0.0016908791149035096, -0.006621936801820993, -0.0019515575841069221, 0.021838076412677765, 0.3412604331970215, -0.005791074130684137, 0.00022589221771340817, -0.008611536584794521, 0.027860291302204132, -0.011707770638167858, -0.07208189368247986, 0.002464768709614873, 0.002739155199378729, 0.004077266436070204, -0.002635905984789133, -0.0018863203004002571, 0.05232004076242447, -0.03227613866329193, 0.048830579966306686, 0.32593634724617004, -0.4728717803955078, 0.034148942679166794, -0.5645778179168701, 0.12912216782569885, 0.24850203096866608, 0.40053898096084595, -0.04378228262066841, -0.12856370210647583, 0.12092649936676025, 0.04853935167193413, -8.024497947189957e-05, 0.2944692075252533, 0.28989413380622864, -0.36771395802497864, 0.026168566197156906, -0.08098596334457397, -0.004676824435591698, 0.12530246376991272, 0.059120774269104004, -0.04052351042628288, -0.052582163363695145, -0.148423433303833, -0.10527997463941574, -0.181963711977005, -0.23210206627845764, 0.10701600462198257, -0.019710037857294083, -0.12282242625951767, -0.30028802156448364, 0.020341819152235985, -0.0633973702788353, 0.1830650269985199, 0.27952009439468384, -0.04646436125040054, 0.05986297130584717, -0.07747331261634827, -0.017167693004012108, -0.13073697686195374, -0.17296037077903748, -0.005791089031845331, 0.012764237821102142, -0.04316908121109009, 0.050209447741508484, 0.08330270648002625, -0.14385899901390076, -0.16844771802425385, 0.13315850496292114, -0.1761481612920761, 0.11556492000818253, -0.12329079955816269, -0.11035729944705963, -0.17145973443984985, 0.07960584759712219, 0.2591501772403717, 0.16454151272773743, 0.0062389494851231575, 0.10144257545471191, -0.1749386191368103, 0.02394186146557331, -0.08956411480903625, -0.15946096181869507, -0.14215604960918427, -0.21987168490886688, 0.14487923681735992, 0.007512924261391163, 0.19629012048244476, 0.4938074052333832, -0.12093666195869446, -0.03228721022605896, 0.15227721631526947, -0.20464399456977844, 0.003237796248868108, 0.00763244042173028, -0.06599733978509903, 1.172776222229004, 0.1981351524591446, 0.2126488983631134, -0.3195696771144867, 0.4753192961215973, -0.20860643684864044, -0.268213152885437, 0.18423698842525482, 0.03647364675998688, -0.5343460440635681, -0.05967196077108383, -0.22496794164180756, 0.18601641058921814, 0.007522054947912693, -0.08510488271713257, 0.2509869933128357, 0.016375567764043808, 0.006925694178789854, -0.13646961748600006, -0.04158948361873627, 0.03808017447590828, 0.10247927159070969, -0.025209007784724236, 0.018025875091552734, -0.0030783882830291986, 0.39779534935951233, 0.48459479212760925, 0.5274629592895508, 0.17421726882457733, -0.28941136598587036, -0.8962864875793457, 0.1771424263715744, 0.11874726414680481, 0.39364397525787354, 0.14424680173397064, 0.023112716153264046, -0.2947717308998108, -0.1044323742389679, 0.03069741651415825, -0.2336869090795517, -0.23232989013195038, 0.12832218408584595, -0.13590045273303986, 0.014252488501369953, 0.06247313693165779, 0.31112393736839294, 0.42775869369506836, 0.04861932247877121, -0.3676055669784546, -0.22256116569042206, -0.11594530194997787, 0.12579013407230377, 0.09096889942884445, 0.03347206488251686, -0.5078371167182922, -0.13074620068073273, 0.33970263600349426, 0.19624729454517365, -0.02754923515021801, 0.0368342250585556, -0.1567760705947876, 0.46653270721435547, 0.2651557922363281, 0.3507028818130493, 0.11514328420162201, -0.3300207257270813, -0.7220138907432556, 0.24481531977653503, -0.020267292857170105, 0.11294067651033401, 0.9125937223434448, 0.34232446551322937, 0.32428932189941406, -0.6261463761329651, -0.4502463936805725, 0.4559474289417267, -0.5263956189155579, -0.4100378155708313, 0.6167204976081848, -0.8954175114631653, -0.7531399726867676, 0.5627612471580505, 0.18622547388076782, 0.341084748506546, 0.21821989119052887, 0.4163314402103424, -0.030933555215597153, -0.30565327405929565, -0.5343503355979919, -0.3078773617744446, -0.32041653990745544, 0.347941517829895, 0.07401015609502792, -0.1219562441110611, 0.06599997729063034, -0.060994021594524384, -0.22799089550971985, -0.45956674218177795, -0.26350244879722595, 0.05168595537543297, 0.13515233993530273, 0.21758373081684113, 0.09793147444725037, -0.25932052731513977, -0.20319874584674835, -0.24273018538951874, -0.16995859146118164, -0.4192611277103424, -0.693627119064331, -0.032654035836458206, 0.09250644594430923, 0.23776428401470184, 0.23530876636505127, 0.3560406565666199, -0.021048933267593384, 0.169133722782135, 0.14322955906391144, 0.09545187652111053, 0.021930642426013947, 0.07563044875860214, -0.4772065281867981, 0.0273433867841959, -0.0025363261811435223, 0.06888511776924133, 0.21896794438362122, 0.22751116752624512, 0.12683087587356567, 0.021145138889551163, -0.040321387350559235, 0.06439072638750076, 0.12163353711366653, -0.03443324193358421, 0.03881474584341049, 0.09389017522335052, 0.36103716492652893, 0.1873900145292282, 0.001517060212790966, 0.09868346154689789, 0.06018899008631706, -0.20823277533054352, -0.5338064432144165, 0.35853996872901917, -0.1433011144399643, -0.0708361566066742, 0.07315236330032349, 0.19519004225730896, 0.5994204878807068, -0.23504754900932312, 0.9489912390708923, 0.15267282724380493, -0.22319166362285614, -0.30109938979148865, 1.1435015201568604, 0.4980364441871643, 0.17140166461467743, 0.34976422786712646, 0.586776852607727, 0.14049658179283142, 0.050270117819309235, -0.03761446848511696, -0.044275667518377304, -0.18679571151733398, -0.5459964871406555, -0.1306886374950409, -0.06200210377573967, 0.009358877316117287, -0.22189012169837952, -0.07621482014656067, -0.2873624563217163, -0.0793515145778656, -0.04760497808456421, -0.0528375618159771, 0.1423887461423874, 0.1200743317604065, -0.5319868326187134, 0.08322219550609589, 0.044065382331609726, 0.01529853418469429, -0.6053022146224976, 0.1125781387090683, -0.14782367646694183, -0.023035656660795212, 0.013634954579174519, 0.21554559469223022, 0.13082706928253174, 0.1929340362548828, -0.32763078808784485, -0.11628518998622894, 0.0755566954612732, -0.12129037082195282, -0.10128548741340637, -0.13017010688781738, 0.04716423153877258, 0.12010958790779114, -0.2205548882484436, -0.11372128129005432, -0.034858014434576035, 0.04018309712409973, 0.5149021744728088, -0.27083897590637207, 0.05006694421172142, 0.1223970353603363, -0.153577983379364, -0.08282554149627686, -0.24327968060970306, -0.08818535506725311, -0.08027200400829315, -0.2256363183259964, -0.14218303561210632, -0.3923646807670593, 0.811380922794342, -0.02853327989578247, 0.0005801402148790658, 0.04062649980187416, 0.12290070950984955, -0.6207228899002075, -0.31673353910446167, -0.6212751269340515, 0.007890167646110058, 0.22088727355003357, 0.5094769597053528, 0.6953260898590088, 0.8108841776847839, -0.08330833911895752, -0.35684213042259216, -0.36800140142440796, 0.3056231737136841, 0.5083501935005188, -0.3895297348499298, -0.04925886541604996, -0.02597738988697529, -0.001971016637980938, -0.01185182947665453, 0.2673330307006836, 0.10324177891016006, 0.059681471437215805, 0.04896772280335426, 0.0032918567303568125, -0.013446195051074028, -0.1664157658815384, 0.11049319058656693, 0.009546104818582535, -0.045351460576057434, -0.01724849082529545, 0.12381376326084137, 0.058673515915870667, -0.1688593626022339, -0.12376605719327927, -0.17303521931171417, -0.13650356233119965, -0.11513987183570862, -0.39886102080345154, 0.21572065353393555, 0.11251349002122879, 0.20628342032432556, 0.20331935584545135, 0.26528051495552063, 0.1694054901599884, -0.22363042831420898, 0.020846791565418243, -0.05604064092040062, -0.11089947074651718, 0.0342574268579483, 0.1875438392162323, -0.023909280076622963, -0.00897818524390459, -0.04492012783885002, -0.07191658020019531, -0.03867762163281441, -0.000907689449377358, 0.9224801659584045, 0.02833894081413746, 0.05944681912660599, 0.09125446528196335, 0.07354213297367096, 0.04949541762471199, 0.08224901556968689, -0.009623358957469463, 0.023915164172649384, 0.03404320776462555, -0.040897563099861145, -0.23641151189804077, 0.2979593575000763, -0.15600796043872833, -0.06482142955064774, 0.12989556789398193, -0.2054889053106308, 0.04290163889527321, -0.3404656946659088, -0.14692473411560059, -0.17568306624889374, 0.4884112775325775, -0.2156587541103363, 0.6233974695205688, 0.5061631798744202, 0.24442686140537262, -0.1578841209411621, 0.30871814489364624, -0.39434894919395447, 0.25373849272727966, -0.3178132474422455, 0.04262221232056618, 0.0076353601180016994, 0.043672263622283936, 0.14565585553646088, 0.23018145561218262, -0.5522553324699402, -0.036869317293167114, -0.026305025443434715, -0.06047163903713226, -0.11642468720674515, -0.23389439284801483, -0.49082687497138977, -0.03875454142689705, 0.002502206712961197, -0.02266056090593338, -0.11540952324867249, -0.07567346841096878, -0.24728135764598846, 0.03983570635318756, 0.1147286593914032, 0.11248478293418884, 0.05708952993154526, 0.13296741247177124, -0.5844196677207947, -0.02608514204621315, -0.09105730056762695, -0.08042670786380768, -0.010627718642354012, -0.07208801060914993, -0.24104149639606476, -0.01029989030212164, -0.06053686887025833, -0.06287400424480438, -0.0470254011452198, -0.13159112632274628, -0.29882052540779114, -0.18977372348308563, -0.05682184919714928, -0.06215129420161247, -0.19543103873729706, -0.21462422609329224, 0.21640613675117493, 0.21854567527770996, 0.10253563523292542, 0.14405663311481476, 0.23149485886096954, 0.31293511390686035, -0.5550451278686523, 0.08681266754865646, 0.004006476141512394, -0.04786858707666397, 0.08826078474521637, -0.09411775320768356, 0.2422293871641159, 0.5421962738037109, 0.2935387194156647, -0.14853446185588837, 0.08738058060407639, 0.019093703478574753, -0.029810968786478043, -0.2827693223953247, 0.06856520473957062, -0.14109854400157928, 0.25503695011138916, -0.6132282018661499, 0.6448516249656677, 0.07380793988704681, 0.03598857298493385, -0.15532302856445312, -0.025925084948539734, -0.5780339241027832, 0.48865562677383423, 0.15153908729553223, -0.02446889504790306, -0.16146990656852722, -0.07358895987272263, -0.03156912326812744, 0.14217424392700195, -0.19926346838474274, -0.0152407456189394, 0.15337534248828888, 0.12074138224124908, -0.11721085011959076, -0.1983223408460617, 0.02329690381884575, 0.09667488187551498, 0.044636476784944534, -0.039420705288648605, -0.22921787202358246, 0.10057324171066284, -0.0120469331741333, 0.006134725641459227, 0.01146092638373375, 0.025145038962364197, 0.03609934821724892, -0.5713146924972534, 0.020973315462470055, -0.0027359400410205126, -0.01693262904882431, -0.017173374071717262, -0.007734211627393961, -0.5247562527656555, -3.911006569978781e-05, -0.006000004708766937, 0.011903643608093262, -0.013846530579030514, -0.034836094826459885, -0.23636338114738464, -0.12114119529724121, -0.08918143808841705, -0.0886434018611908, -0.15303438901901245, -0.21164381504058838, 0.7031639814376831, 0.14584730565547943, 0.10070382803678513, 0.09462670236825943, 0.15515664219856262, 0.26237383484840393, -0.3552402853965759, -0.014492892660200596, -0.009127023629844189, -0.003714135382324457, 0.016872012987732887, -0.02095922641456127, 0.12462115287780762, 0.02897016331553459, 0.20013634860515594, 0.17808404564857483, -0.10684358328580856, 0.14189881086349487, -0.18585580587387085, 0.004525770433247089, -0.4343963861465454, 0.04039568454027176, 0.18727146089076996, -0.25355836749076843, 0.7970414161682129, -0.16761021316051483, 0.28293469548225403, -0.24498586356639862, 0.0021420966368168592, -0.3799164891242981, -0.4766073524951935, -0.04002217575907707, -0.14221765100955963, -0.1475524753332138, -0.0003973415296059102, -0.06640337407588959, -0.051809828728437424, 0.0741686299443245, -0.2985564172267914, 0.16160044074058533, 0.10239455103874207, -0.17771562933921814, 0.1160673126578331, -0.029455596581101418, 0.08990319818258286, 0.778016209602356, 0.13525180518627167, 0.04962873458862305, 0.20335566997528076, -0.06166325509548187, 0.03908834233880043, 0.13773712515830994, 0.018147049471735954, -0.009159480221569538, 0.12405534088611603, -0.2017628699541092, 0.027231629937887192, 0.2637062072753906, 0.012858896516263485, 0.16863198578357697, 0.5577098727226257, -0.11408964544534683, 0.017766395583748817, 0.04403449967503548, -0.07588852196931839, 0.04585029184818268, 0.07573148608207703, -0.05707794800400734, -0.1213211789727211, 0.12017320096492767, -0.21825091540813446, -0.1281309574842453, 0.23601658642292023, -0.006914213299751282, 0.04149027541279793, 0.4429956078529358, -0.20761525630950928, -0.08106600493192673, -0.04230961203575134, -0.09044329822063446, -0.11208540201187134, -0.03560854122042656, -0.1515108048915863, 0.07082456350326538, -0.12061360478401184, -0.11306576430797577, 0.13115839660167694, -0.15305514633655548, 0.230971097946167, 0.6389803886413574, 0.12261143326759338, 0.20655076205730438, 0.06122419610619545, 0.06704971939325333, 0.1284341663122177, 0.07784873992204666, 0.0586930550634861, 0.09331479668617249, 0.07575996965169907, 0.06209879741072655, 0.11397969722747803, 0.14306321740150452, 0.050182778388261795, 0.060480665415525436, 0.15988121926784515, -0.14770519733428955, -0.01629706844687462, 0.09980405122041702, -0.1390027403831482, -0.09884528070688248, -0.008990753442049026, -0.04030538722872734, -0.1682169884443283, -0.009299874305725098, -0.05655813217163086, -0.1400865614414215, -0.13940000534057617, 0.017057733610272408, -0.002532243262976408, 0.22552108764648438, 0.3209090828895569, 0.01020197756588459, -0.12019817531108856, 0.07725980132818222, -0.06034563109278679, 0.2178003042936325, -0.2932513356208801, 0.09962233155965805, -0.029951661825180054, -0.35466623306274414, 0.33818522095680237, -0.42581823468208313, -0.15851572155952454, 0.5055509209632874, -0.16411273181438446, -0.10418431460857391, 0.07386637479066849, -0.009350311011075974, -0.053787779062986374, 0.06166772544384003, 0.06653939187526703, -0.14827798306941986, 0.14559303224086761, 0.21002337336540222, -0.09626417607069016, 0.20245346426963806, 0.030497446656227112, 0.05155954137444496, 0.1244703084230423, -0.0209873728454113, 0.24005554616451263, -0.020706290379166603, -0.08465246856212616, -0.18683861196041107, 0.04972724989056587, 0.016100388020277023, -0.19595323503017426, 0.273523211479187, 0.11541782319545746, -0.13867221772670746, 0.19194422662258148, -0.138371542096138, 0.34705570340156555, 0.46461600065231323, -0.13772468268871307, -0.2910774052143097, -0.4357152581214905, 0.018306206911802292, -0.3439905643463135, 0.30856987833976746, -0.5216732621192932, 0.8942283391952515, -0.5451837182044983, 0.38486605882644653, -0.5354929566383362, -0.6322500109672546, 0.38781481981277466, -0.2719545364379883, 0.18562406301498413, -0.41896185278892517, 0.35243839025497437, 0.22640351951122284, -0.30053791403770447, -0.14918407797813416, 0.06474898010492325, 0.018481917679309845, 0.08670996129512787, 0.06515034288167953, 0.07276395708322525, 0.06687264144420624, 0.04090922325849533, 0.10304815322160721, 0.08748521655797958, 0.14752532541751862, 0.1315513402223587, 0.061297979205846786, 0.1953834593296051, 0.011934529058635235, -1.3139030933380127, -0.04742255434393883, -0.014771034009754658, -0.07547501474618912, -0.045909322798252106, -0.051378291100263596, -0.04879340901970863, -0.0036368495784699917, -0.07078754901885986, -0.04066893458366394, -0.07104187458753586, -0.06490909308195114, -0.01816563308238983, -0.10752624273300171, 0.05143004655838013, -0.632450520992279, -0.0071212113834917545, 0.008740600198507309, -0.005104173440486193, -0.0229655634611845, 0.008533556945621967, -0.023755252361297607, 0.030899090692400932, 0.01724732667207718, -0.026360373944044113, 0.018101157620549202, 0.029862048104405403, 0.028932465240359306, 0.06547734886407852, 0.05276637151837349, -0.4168302118778229, -0.006505988538265228, -0.1040676012635231, -0.035683486610651016, -0.05536586418747902, -0.036705393344163895, -0.01440367940813303, -0.16369099915027618, -0.0469413623213768, -0.06773605942726135, -0.020673252642154694, 0.021252227947115898, -0.11430707573890686, -0.2707523703575134, -0.07800412178039551, -0.7614356875419617, 0.06065746024250984, 0.15131038427352905, 0.08463989943265915, 0.1434222012758255, 0.12411915510892868, 0.10155101865530014, 0.2544408142566681, 0.136367067694664, 0.2052152007818222, 0.17228712141513824, 0.1334165781736374, 0.14082090556621552, 0.2729310095310211, 0.14194655418395996, -0.019029106944799423, -0.0638098269701004, -0.02987813949584961, 0.0031732574570924044, -0.023961668834090233, -0.09038543701171875, -0.060443855822086334, -0.11251083761453629, -0.12328021973371506, -0.1486061066389084, -0.2050015926361084, -0.17666515707969666, -0.1293553113937378, -0.23817265033721924, -0.331612765789032, 0.13347278535366058, -0.09175147861242294, -0.06389626860618591, -0.11682691425085068, -0.12196316570043564, -0.0471009723842144, -0.08943801373243332, -0.048624712973833084, -0.11048182845115662, -0.04680928215384483, -0.1295846551656723, -0.13335897028446198, -0.018712909892201424, -0.14481216669082642, -0.019899999722838402, 1.5977815389633179, 0.07287651300430298, 0.05500488355755806, 0.09557344019412994, 0.10403958708047867, 0.020303936675190926, 0.06697344779968262, 0.015526041388511658, 0.08867126703262329, 0.010630106553435326, 0.07417445629835129, 0.0875716432929039, -0.017318565398454666, 0.054149504750967026, 0.012705226428806782, -0.1177954450249672, -0.09519290924072266, -0.030092822387814522, -0.04535514861345291, -0.007006815634667873, -0.060189638286828995, -0.03708649426698685, -0.027680741623044014, -0.056098613888025284, -0.03744233399629593, -0.08797332644462585, -0.07396386563777924, -0.02518688514828682, -0.15029694139957428, -0.07865313440561295, 0.520514726638794, -0.043483804911375046, 0.4015370309352875, 0.14680686593055725, 0.21133118867874146, -0.7866572737693787, -0.6306553483009338, -0.9130839109420776, 0.2896389067173004, 0.04106981307268143, 0.3574211597442627, -0.11675425618886948, 0.8830423951148987, 0.30234208703041077, 0.009569153189659119, 0.9428747892379761, 0.12246454507112503, -0.47087979316711426, -0.10484419018030167, 0.014228405430912971, -0.03749380633234978, -0.12102680653333664, 0.023537643253803253, 0.4814814329147339, -0.3811684846878052, 0.053807273507118225, 0.13814879953861237, -0.07632959634065628, -0.004931821953505278, -0.15038642287254333, -0.7109561562538147, -0.07564215362071991, 0.00938708707690239, 0.1618107557296753, 0.2003936767578125, -0.7333741188049316, -0.09127084165811539, 0.11139850318431854, 0.0338163822889328, 0.04913688078522682, 0.3278563916683197, 0.65663743019104, 0.5743070840835571, -0.061401188373565674, -0.009854208678007126, 0.07145723700523376, -0.011277574114501476, -0.09891284257173538, -0.2680039405822754, 0.21032224595546722, 0.22442986071109772, -0.01493991818279028, -0.11299530416727066, 0.12721262872219086, -0.2951942980289459, -0.01953987032175064, 0.0012768593151122332, -0.14838679134845734, 0.21576263010501862, 0.45157113671302795, 0.7737776637077332, 0.074801966547966, -0.14241093397140503, 0.02439955063164234, 0.011887392960488796, 0.053439121693372726, -0.3613615930080414, -0.21034680306911469, 0.10001170635223389, 0.15070101618766785, -0.05997203290462494, -0.3294192850589752, -0.30499693751335144, 0.028181608766317368, 0.1080881655216217, 0.5469093322753906, -1.1983652114868164, -0.275003045797348, -0.5594280362129211, -0.7148691415786743, 0.5852417349815369, 0.4683399498462677, -0.4399394094944, -0.11093774437904358, 0.016091033816337585, -1.0246561765670776, 0.7871259450912476, 0.6327184438705444, 0.5157697796821594, -0.16619610786437988, 0.059172604233026505, 0.11079490929841995, -0.08684975653886795, -0.16648244857788086, -0.056820258498191833, 0.00036910909693688154, 0.189025416970253, -0.1556553691625595, -0.07757382839918137, -0.09697426855564117, -0.13226182758808136, -0.16909924149513245, 0.07787082344293594, -0.08809573203325272, -0.03087792918086052, 0.07621712982654572, -0.059622399508953094, -0.5027162432670593, -0.2858096957206726, 0.023114213719964027, 0.13462843000888824, 0.2975360155105591, 0.233743816614151, 0.4120963215827942, -0.3145062327384949, -0.27133262157440186, -0.3049602508544922, -0.3822961747646332, -0.3408152759075165, -0.21056382358074188, 0.17170463502407074, 0.208087757229805, 0.2597784101963043, 0.29438769817352295, 0.27234217524528503, 0.30102264881134033, -0.19232995808124542, -0.027725225314497948, -0.02543794922530651, -0.06261901557445526, -0.024730516597628593, 0.2605033814907074, 0.7132875919342041, -0.004815322812646627, 0.03814788535237312, 0.030857417732477188, -0.06304409354925156, -0.07158024609088898, -0.15243637561798096, 0.05038970708847046, -0.0009729682351462543, 0.03130478039383888, 0.13155147433280945, 0.16042587161064148, 0.20712871849536896, 0.08938862383365631, 0.24761322140693665, 0.0943431481719017, -0.34383976459503174, -0.731606125831604, -0.4500262439250946, -0.02442411333322525, 0.5476194024085999, 0.7321698069572449, -0.5216639637947083, 0.02698543667793274, 0.38822564482688904, 0.6008915305137634, -0.7286632657051086, 0.27121588587760925, 0.6200692653656006, -0.4707387089729309, -0.43602997064590454, -0.03963109105825424, -0.10911887139081955, -0.05408387631177902, -0.07256948202848434, -0.09784514456987381, 0.32515859603881836, -0.04529007151722908, 0.07479871809482574, 0.02854524739086628, 0.022138528525829315, 0.21285849809646606, 0.8951192498207092, 0.11104964464902878, 0.0012612103018909693, 0.038930974900722504, 0.030101295560598373, 0.03474738076329231, 0.70378577709198, 0.020216133445501328, -0.049691371619701385, -0.03492655232548714, -0.08941404521465302, 0.1265144795179367, 0.3004588484764099, 0.14383311569690704, 0.04640275612473488, 0.19432544708251953, -0.0022194881457835436, 0.17422403395175934, 0.11344467103481293, -0.03085457533597946, 0.07179613411426544, -0.006225918885320425, 0.09320764988660812, -0.10619620978832245, 0.1520491987466812, 0.040426287800073624, 0.014563094824552536, 0.0065895565785467625, -0.007761114276945591, -0.17998415231704712, 0.16486041247844696, 0.015279724262654781, 0.02538895793259144, 0.11775559931993484, 0.029276877641677856, -0.1069893166422844, 0.005748689640313387, -0.03408757224678993, -0.02807624824345112, -0.04803382605314255, -0.06797127425670624, -0.005339065100997686, -0.07589953392744064, -0.8279927372932434, -0.31634125113487244, 0.6570822596549988, 0.29539021849632263, -0.40410861372947693, 0.18789970874786377, -0.44721540808677673, 0.20204482972621918, 0.12700553238391876, -0.7933543920516968, 0.7366352677345276, 0.4469364583492279, -0.2020508050918579, 0.021356690675020218, 0.1740051656961441, 0.9033735394477844, 0.3551413118839264, -0.07698259502649307, 0.09851212054491043, 0.028219230473041534, 0.045918580144643784, 0.081807941198349, 0.22004033625125885, -0.028707008808851242, 0.028242111206054688, 0.23005087673664093, 0.04746013879776001, -0.06045858934521675, 0.008131023496389389, -0.08704468607902527, -0.12165466696023941, -0.10095849633216858, -0.030116766691207886, 0.06746373325586319, -0.10001339018344879, 0.07164990901947021, 0.029952166602015495, 0.002660826314240694, -0.005830131471157074, -0.029800426214933395, -0.010289446450769901, 0.11232536286115646, -0.11745477467775345, -0.04617182910442352, -0.0505559965968132, -0.06251858919858932, -0.12423156201839447, 0.46389293670654297, 0.021636072546243668, 0.014765163883566856, 0.04770335555076599, 0.025359179824590683, 0.062241606414318085, 0.265036404132843, 0.12587431073188782, 0.09739436209201813, 0.15478837490081787, 0.1885662078857422, 0.1494581401348114, 0.0855192244052887, -0.07388061285018921, 0.049053456634283066, 0.2505297064781189, 0.30698511004447937, 0.20771968364715576, -0.5412354469299316, 0.006325540132820606, -0.0610145628452301, -0.12310602515935898, -0.14990399777889252, -0.30185285210609436, 0.41211479902267456, 0.23548930883407593, -0.6904649138450623, 0.7032225728034973, -0.01273450255393982, 0.16781626641750336, 0.3009166419506073, 0.2163936048746109, -0.48020464181900024, -0.24396666884422302, 0.4667375087738037, -0.7394997477531433, 0.320803701877594, -0.38702210783958435, 0.3708080053329468, -0.29706013202667236, -0.336952269077301, -0.4298381209373474, -0.5650725364685059, 0.03774121403694153, 0.048958566039800644, -0.012197808362543583, 0.0976041629910469, 0.06924016028642654, 0.013247380033135414, 0.29471179842948914, 0.34868770837783813, 0.5009233355522156, 0.3226129710674286, 0.1895393431186676, -0.6876915097236633, -0.11130965501070023, -0.1247556060552597, -0.19975058734416962, -0.12282215803861618, -0.11419279873371124, -0.4349071681499481, -0.11220400035381317, -0.27405187487602234, -0.26095813512802124, -0.202371746301651, -0.11501684039831161, 0.3237799406051636, -0.36367830634117126, -0.3751610815525055, -0.35261762142181396, -0.24635839462280273, -0.08187707513570786, 0.48230141401290894, 0.14059799909591675, 0.2820999324321747, 0.34768033027648926, 0.14516006410121918, 0.13386839628219604, 0.02418477088212967, -0.004000500310212374, -0.006014147307723761, -0.01007790956646204, -0.010002302937209606, 0.04004208371043205, 0.5596798062324524, 0.022540505975484848, 0.009433516301214695, 0.031032754108309746, 0.009081874042749405, 0.03879085183143616, 0.25507238507270813, -0.007207477930933237, 0.0021338362712413073, -0.0033558111172169447, 0.020935844630002975, -0.04186873510479927, 0.2881118953227997, -0.022735297679901123, 0.0572952963411808, 0.12406373769044876, -0.07708186656236649, 0.07781793177127838, 0.17570997774600983, -0.4181305766105652, 1.3073015213012695, 0.5040140748023987, 0.6250045895576477, -0.4603268802165985, 0.27438515424728394, 0.0033710331190377474, -0.16339552402496338, 0.1931387484073639, -0.0696193277835846, -0.41005632281303406, -0.31107035279273987, -0.018767179921269417, 0.003168689087033272, 0.020104173570871353, -0.054665129631757736, -0.03023405745625496, -0.03146388381719589, 0.16366907954216003, 0.11589183658361435, 0.25732845067977905, 0.428928405046463, 0.6378539800643921, -0.1699042171239853, 0.02539125643670559, -0.05028919875621796, -0.09709611535072327, 0.026158619672060013, -0.143988236784935, 0.2446771115064621, 0.004542479757219553, -0.0008247369551099837, -0.00196644919924438, 0.0007711173966526985, 0.013370262458920479, -0.31256264448165894, 0.007719110697507858, 0.00431314529851079, 0.0022059318143874407, 0.018773116171360016, 0.08637308329343796, -0.235597163438797, -0.012990057468414307, -0.012026502750813961, -0.007299679797142744, -0.015946583822369576, -0.051767587661743164, -0.9543760418891907, 0.0005800706567242742, 0.010194978676736355, 0.030686691403388977, 0.007102763745933771, 0.03652559965848923, 0.4649108946323395, 0.038912009447813034, -0.004003678914159536, -0.0032420100178569555, 0.01902819238603115, -0.032467491924762726, 0.3505910336971283, -0.003670435631647706, -0.030480673536658287, -0.05976464971899986, -0.014056851156055927, -0.0655609667301178, 0.06969762593507767, -0.08948113024234772, 0.3014583885669708, 0.2201993316411972, -0.10866370052099228, -0.29816436767578125, 0.33139660954475403, -0.17973072826862335, -0.2057587057352066, -0.11158458143472672, 0.2519839406013489, 0.09796896576881409, -0.0241362564265728, 0.07404766976833344, -0.28157350420951843, 0.13464562594890594, 0.289245069026947, 0.175473153591156, 0.00268836272880435, -0.00986288208514452, -0.008523200638592243, -0.011712810955941677, -0.010163969360291958, -0.0066190860234200954, -0.7832291126251221, -0.009497386403381824, 0.0006536623695865273, 0.005455930717289448, -0.028097469359636307, 0.06369221955537796, -0.11263703554868698, 0.017733370885252953, 0.016574202105402946, 0.021828094497323036, 0.028920931741595268, 0.0035188179463148117, -0.5638894438743591, 0.015613608993589878, 0.005997973959892988, 0.006697357166558504, -0.0006537584704346955, -0.012056437321007252, -0.20219463109970093, -0.04910777881741524, -0.004313690587878227, 0.06697186082601547, 0.1075754165649414, 0.1442345678806305, 0.04009641706943512, -0.015098415315151215, -0.00814336072653532, -0.012731660157442093, -0.0074323806911706924, 0.007034472655504942, -1.380292296409607, -0.005513135809451342, 0.0041957516223192215, -0.007772207725793123, 0.0015155085129663348, -0.021292880177497864, 0.04374989494681358, 0.0186934694647789, 0.02163861133158207, -0.022543562576174736, -0.017157724127173424, 0.021206393837928772, -0.16459308564662933, -0.0038467561826109886, -0.0052148038521409035, 0.008944829925894737, -0.009745216928422451, 0.014539838768541813, 0.38154539465904236, -0.29545506834983826, 0.4362649917602539, 0.00938969012349844, -0.06462884694337845, -0.2750166058540344, -0.09274965524673462, 0.4162098467350006, -0.00858832336962223, 0.5327888131141663, 0.11612158268690109, 0.18631941080093384, -0.07476914674043655, -0.32249006628990173, -0.3899204134941101, -0.36959829926490784, -0.3457287847995758, 0.4948616325855255, -0.35605674982070923, -0.005704571958631277, -0.0037184092216193676, -0.0222009290009737, -0.04178214073181152, -0.06912319362163544, -0.09372614324092865, -0.1366855949163437, -0.06123405694961548, -0.015115112066268921, -0.03964376822113991, -0.0216157715767622, -0.01744377613067627, -0.018106231465935707, -0.011807752773165703, -0.011416523717343807, -0.010214369744062424, 0.013196349143981934, 0.029695531353354454, 0.004864182788878679, -0.02644438110291958, -0.09692635387182236, -0.171809121966362, -0.2641078233718872, -0.04894494637846947, 0.07170552760362625, 0.04630783945322037, 0.056116294115781784, 0.022871172055602074, 0.042237382382154465, 0.028582708910107613, 0.0216516125947237, 0.01702755317091942, 0.001310686580836773, -0.025576353073120117, -0.0011907991720363498, 0.03425528481602669, 0.0995587483048439, 0.2823350131511688, 0.44156700372695923, 0.1187676340341568, -0.003006474580615759, 0.0446440652012825, 0.015441779978573322, 0.012343524023890495, -0.0007708069169893861, 0.006882729008793831, 0.017264876514673233, 0.019768008962273598, 0.05635609105229378, 0.007191967264370888], "sample_rate": 48000}}, {"max_value": 1.0, "model": {"version": "0.7.0", "metadata": {"date": {"year": 2026, "month": 6, "day": 29, "hour": 13, "minute": 16, "second": 33}, "loudness": -19.07071979325662, "gain": 0.7900568702823483}, "architecture": "WaveNet", "config": {"layers": [{"input_size": 1, "condition_size": 1, "head": {"out_channels": 1, "kernel_size": 16, "bias": true}, "channels": 8, "kernel_sizes": [6, 6, 6, 6, 6, 6, 6, 6, 6, 6, 6, 6, 6, 6, 15, 15, 6, 6, 6, 6, 6, 6, 6], "dilations": [1, 3, 7, 17, 41, 101, 239, 1, 3, 7, 17, 41, 101, 239, 1, 13, 1, 3, 7, 17, 41, 101, 239], "activation": [{"type": "LeakyReLU", "negative_slope": 0.01}, {"type": "LeakyReLU", "negative_slope": 0.01}, {"type": "LeakyReLU", "negative_slope": 0.01}, {"type": "LeakyReLU", "negative_slope": 0.01}, {"type": "LeakyReLU", "negative_slope": 0.01}, {"type": "LeakyReLU", "negative_slope": 0.01}, {"type": "LeakyReLU", "negative_slope": 0.01}, {"type": "LeakyReLU", "negative_slope": 0.01}, {"type": "LeakyReLU", "negative_slope": 0.01}, {"type": "LeakyReLU", "negative_slope": 0.01}, {"type": "LeakyReLU", "negative_slope": 0.01}, {"type": "LeakyReLU", "negative_slope": 0.01}, {"type": "LeakyReLU", "negative_slope": 0.01}, {"type": "LeakyReLU", "negative_slope": 0.01}, {"type": "LeakyReLU", "negative_slope": 0.01}, {"type": "LeakyReLU", "negative_slope": 0.01}, {"type": "LeakyReLU", "negative_slope": 0.01}, {"type": "LeakyReLU", "negative_slope": 0.01}, {"type": "LeakyReLU", "negative_slope": 0.01}, {"type": "LeakyReLU", "negative_slope": 0.01}, {"type": "LeakyReLU", "negative_slope": 0.01}, {"type": "LeakyReLU", "negative_slope": 0.01}, {"type": "LeakyReLU", "negative_slope": 0.01}], "bottleneck": 8, "head1x1": {"active": false, "out_channels": 1, "groups": 1}, "layer1x1": {"active": true, "groups": 1}, "groups_input": 1, "groups_input_mixin": 1, "conv_pre_film": {"active": false, "shift": true, "groups": 1}, "conv_post_film": {"active": false, "shift": true, "groups": 1}, "input_mixin_pre_film": {"active": false, "shift": true, "groups": 1}, "input_mixin_post_film": {"active": false, "shift": true, "groups": 1}, "activation_pre_film": {"active": false, "shift": true, "groups": 1}, "activation_post_film": {"active": false, "shift": true, "groups": 1}, "layer1x1_post_film": {"active": false, "shift": true, "groups": 1}, "head1x1_post_film": {"active": false, "shift": true, "groups": 1}, "gating_mode": ["none", "none", "none", "none", "none", "none", "none", "none", "none", "none", "none", "none", "none", "none", "none", "none", "none", "none", "none", "none", "none", "none", "none"], "secondary_activation": [null, null, null, null, null, null, null, null, null, null, null, null, null, null, null, null, null, null, null, null, null, null, null], "slimmable": null}], "head": null, "head_scale": 0.007191967425123886}, "weights": [-0.30928415060043335, -0.22960713505744934, 0.5447874665260315, 0.7259104251861572, -0.7210102677345276, -0.26823535561561584, 0.37563011050224304, 1.0332976579666138, -0.177897647023201, -0.02516874670982361, -0.06928961724042892, -0.11823178082704544, 0.1769769936800003, 0.2049006223678589, -0.07457441091537476, -0.12838464975357056, -0.09194540232419968, -0.20070984959602356, 0.03283309191465378, 0.1469644457101822, 0.16601715981960297, 0.11631599068641663, 0.13409018516540527, 0.15636740624904633, -0.08752571046352386, -0.3116760551929474, 0.0460951067507267, 0.16752010583877563, 0.08449291437864304, 0.14138031005859375, -0.1422906517982483, -0.2572054862976074, -0.167642742395401, -0.04004579409956932, -0.0610642284154892, -0.1415119469165802, 0.15398868918418884, 0.25830069184303284, -0.0694807693362236, -0.011954648420214653, -0.03238045796751976, -0.11708515137434006, 0.09239257127046585, 0.27993354201316833, 0.09140333533287048, 0.05297163501381874, 0.10556676983833313, 0.0803929790854454, -0.08321884274482727, -0.2846014201641083, 0.23677372932434082, 0.008460390381515026, 0.14914549887180328, 0.31926754117012024, -0.0833234190940857, -0.31037378311157227, 0.09820130467414856, 0.0482058972120285, 0.05083198472857475, -0.004273646976798773, -0.041813623160123825, -0.08766257762908936, 0.05527167767286301, 0.09151801466941833, 0.031472593545913696, 0.050896693021059036, 0.002167067490518093, -0.04978593811392784, 0.05590463802218437, -0.0015402862336486578, -0.11981175094842911, -0.035678792744874954, 0.01750345155596733, 0.05986739322543144, -0.09774796664714813, -0.001337810535915196, -0.013312013819813728, 0.019012384116649628, 0.1114915981888771, 0.07498235255479813, 0.030224042013287544, 0.19402220845222473, 0.013958903029561043, 0.11842598766088486, -0.034818459302186966, -0.08342676609754562, -0.027491288259625435, 0.0921068787574768, -0.01199645921587944, 0.010873804800212383, -0.015130676329135895, -0.07868452370166779, 0.05600691959261894, -0.0015767865115776658, 0.012779132463037968, 0.024054886773228645, 0.08586419373750687, 0.10267338901758194, -0.1121618002653122, -0.14770042896270752, -0.08978733420372009, -0.09490673243999481, 0.12248113006353378, 0.19869104027748108, -0.06030686944723129, -0.0025487574748694897, 0.014696312136948109, -0.09022825956344604, 0.04588328301906586, -0.01400820817798376, -0.02776367776095867, 0.010044322349131107, 0.005880529992282391, -0.08666042238473892, 0.052209652960300446, 0.01559870969504118, 0.12446201592683792, -0.03253995627164841, 0.03933308273553848, 0.0944715142250061, -0.06246647238731384, -0.00872837658971548, 0.17389070987701416, -0.04510445520281792, -0.03929540514945984, 0.20064355432987213, -0.053155168890953064, 0.010458849370479584, -0.059460047632455826, -0.07993647456169128, 0.022946730256080627, -0.21755090355873108, 0.12790383398532867, -0.014330528676509857, -0.0636824443936348, -0.0007024688529781997, -0.01620207168161869, -0.09255880862474442, 0.04740968719124794, -0.013357127085328102, 0.09102252125740051, 0.0006169174448587, -0.0023660946171730757, 0.10337850451469421, -0.1061423048377037, -0.036713190376758575, 0.17225904762744904, 0.07226923108100891, 0.04443039745092392, 0.12824009358882904, -0.09757331758737564, -0.03459293022751808, 0.04988186061382294, 0.030444104224443436, 0.051933564245700836, -0.024185985326766968, -0.10190676152706146, -0.04838446155190468, 0.03661790117621422, 0.020829573273658752, 0.03651992976665497, -0.017241261899471283, -0.07083222270011902, -0.03395070508122444, -0.07946199178695679, -0.056655529886484146, -0.09789642691612244, 0.04154597595334053, 0.17584684491157532, 0.08329292386770248, -0.11253874003887177, -0.07747926563024521, -0.13846278190612793, 0.0544852614402771, 0.23259231448173523, 0.09451271593570709, 0.10540517419576645, 0.07604723423719406, 0.1354549080133438, -0.05560576543211937, -0.23052959144115448, -0.09285259991884232, 0.04326954856514931, 0.02550658956170082, 0.04407469928264618, -0.020291443914175034, -0.08505125343799591, -0.040316369384527206, -0.0588262602686882, -0.03715222701430321, -0.06293623894453049, 0.028759239241480827, 0.12028814107179642, 0.05590753257274628, -0.13763484358787537, -0.12019632011651993, -0.20534656941890717, 0.08191265165805817, 0.2978537380695343, 0.11392240971326828, 0.003459456143900752, -0.0072457194328308105, 0.018818233162164688, -0.0014345507370308042, -0.029020247980952263, 0.030822262167930603, 0.0027401731349527836, -0.004159195814281702, 0.012728915549814701, -0.0003676857450045645, -0.02165905013680458, 0.021888412535190582, -0.003905342426151037, 0.013787955977022648, -0.03931459039449692, 0.007502967957407236, 0.04570638760924339, -0.06517025083303452, -0.013028506189584732, 0.03239146247506142, -0.052399322390556335, 0.019039390608668327, 0.0647733137011528, -0.08538764715194702, 0.005667094141244888, -0.030703537166118622, 0.048036038875579834, -0.010213294066488743, -0.0638924241065979, 0.08326271176338196, 0.0032730845268815756, -0.005046839360147715, 0.01574106514453888, -0.0004173733468633145, -0.025239372625947, 0.02640959993004799, -0.0041244663298130035, 0.00898827239871025, -0.02276330254971981, 0.0025812441017478704, 0.03331981971859932, -0.037671055644750595, -0.009109625592827797, 0.037601057440042496, -0.051292289048433304, 0.03908071666955948, 0.053624797612428665, -0.12712083756923676, 0.20353181660175323, 0.15809597074985504, 0.13553699851036072, -0.017185144126415253, -0.12961071729660034, -0.00571939442306757, 0.14270907640457153, 0.1712341606616974, 0.0579228475689888, 0.006634982768446207, -0.05416123569011688, -0.08846284449100494, -0.09153875708580017, -0.05133073404431343, -0.03373435139656067, -0.02139901928603649, 0.15048104524612427, 0.03844856843352318, -0.031090378761291504, -0.25427696108818054, -0.17494679987430573, -0.042009640485048294, 0.19460296630859375, 0.11943116784095764, 0.18860101699829102, 0.054798539727926254, 0.10700767487287521, 0.0023422138765454292, -0.06156160682439804, -0.02868714928627014, 0.13327144086360931, 0.08736569434404373, 0.031859707087278366, -0.05308847874403, -0.11489906162023544, -0.03626878932118416, -0.1776023954153061, -0.07593801617622375, -0.10784462094306946, -0.047789331525564194, 0.07622572779655457, -0.008902883157134056, -0.15526334941387177, -0.1608092188835144, -0.08163618296384811, -0.042365290224552155, 0.20204059779644012, 0.20148387551307678, -0.00011345888196956366, -7.584301056340337e-05, -5.215545752434991e-05, -3.110330362687819e-05, -0.0001258825941476971, -0.00011148123303428292, -4.645939770853147e-05, -2.8200553060742095e-05, -1.2759081982949283e-05, 9.339890311821364e-06, -5.264190258458257e-05, -1.9743767552427016e-05, 0.0002622662577778101, 0.00015876458201091737, 0.0001095765910577029, 9.362421405967325e-05, 0.00028847414068877697, 0.0003537446609698236, 0.0003151179407723248, 0.00016582559328526258, 9.9036747997161e-05, 7.964022370288149e-05, 0.0003414457605686039, 0.0004676391545217484, -0.0003130038676317781, -0.0001649957412155345, -9.871568181551993e-05, -7.956268382258713e-05, -0.0003395341045688838, -0.00046401191502809525, -8.05231902631931e-05, -5.325500023900531e-05, -3.390863639651798e-05, -1.2210994100314565e-05, -9.003755985759199e-05, -6.550909165525809e-05, 0.00016274942026939243, 0.00010694116645026952, 7.612545596202835e-05, 5.71995296922978e-05, 0.00018092204118147492, 0.00018730269221123308, 0.00032748092780821025, 0.00011692776024574414, 2.6442488888278604e-05, -1.296559003094444e-05, 0.0003421155270189047, 0.0005571720539592206, -0.14341533184051514, -0.11852096766233444, 0.026572611182928085, -0.24565592408180237, -0.02117292955517769, 0.22705186903476715, -0.0737437978386879, -0.09555337578058243, -0.16465671360492706, -0.20010711252689362, -0.039731983095407486, 0.17311245203018188, 0.09139075130224228, 0.033903539180755615, 0.08121870458126068, 0.1653146743774414, -0.08404120802879333, -0.2238217145204544, -0.0001836051669670269, 0.2269434630870819, -0.0245714969933033, 0.08569502085447311, -0.0759165957570076, -0.1632210910320282, -0.006423632148653269, -0.12145242094993591, -0.09374406933784485, -0.2465229332447052, 0.016957677900791168, 0.11691449582576752, 0.06038404256105423, -0.1982884556055069, -0.10285218060016632, -0.20758017897605896, 0.019743256270885468, 0.21189184486865997, 0.14383219182491302, 0.019022947177290916, 0.05461706966161728, 0.2208060473203659, 0.019442308694124222, -0.05432397872209549, 0.04011326655745506, 0.0423133410513401, 0.15388426184654236, 0.13539130985736847, 0.02582230232656002, -0.2037729173898697, 0.20374685525894165, 0.2877553105354309, 0.10980089008808136, -0.22384613752365112, -0.01329563558101654, 0.07396180927753448, -0.021273938938975334, 0.3295880854129791, -0.4783984124660492, 0.21566879749298096, -0.09660223871469498, 0.21480561792850494, -0.21945767104625702, 0.5293070077896118, 0.0005511340568773448, -0.7059558629989624, 0.29793086647987366, 0.015385839156806469, 0.027684971690177917, 0.4973987340927124, -0.09534957259893417, -0.14410170912742615, 0.004296239465475082, 0.2651458978652954, 0.14862488210201263, -0.3917398154735565, 0.09800894558429718, -0.08950778841972351, -0.1403161734342575, -0.1824546754360199, 0.0035480684600770473, 0.3302542269229889, 0.17000387609004974, 0.1369180679321289, 0.11210170388221741, 0.23240439593791962, 0.22076918184757233, -0.13259312510490417, -0.0027180607430636883, 0.0443526990711689, 0.2489912360906601, -0.039124373346567154, -0.006371461320668459, 0.28216415643692017, -0.18675291538238525, 0.256928950548172, -0.0031820398289710283, 0.08232913166284561, 0.36468109488487244, -0.27031248807907104, 0.19699059426784515, -0.02967473864555359, 0.06355183571577072, -0.2667770981788635, 0.0040499866008758545, 0.37689414620399475, 0.3055805265903473, 0.21330243349075317, 0.41326284408569336, 0.2960030436515808, -0.10504303127527237, 0.1867552101612091, -0.002871373202651739, -0.20527321100234985, -0.31458497047424316, 0.19011007249355316, -0.17350603640079498, -0.13937190175056458, 0.06277307868003845, 0.10133396834135056, -0.001856883056461811, -0.45017367601394653, -0.3361484706401825, 0.05765772610902786, 0.22040560841560364, -0.17479769885540009, -0.1464235782623291, -0.12318930774927139, -0.004370888229459524, -0.4237086772918701, -0.34316784143447876, 0.15877655148506165, -0.12845735251903534, -0.01715809665620327, -0.2624834477901459, -0.15185272693634033, 0.07635720819234848, 0.16754692792892456, -0.14585469663143158, -0.18551136553287506, -0.25418010354042053, -0.17643386125564575, -0.12974290549755096, 0.13690903782844543, 0.032782506197690964, 0.0364970788359642, -0.047696955502033234, -0.016577260568737984, -0.037880249321460724, 0.28931963443756104, 0.2148885726928711, 0.1865854114294052, 0.08120870590209961, 0.051491353660821915, 0.0010185358114540577, -0.3236376941204071, 0.12668153643608093, 0.24439266324043274, 0.16292907297611237, -0.01635442115366459, 0.013462669216096401, -0.29428672790527344, -0.030157312750816345, -0.20374374091625214, -0.13362382352352142, 0.047454290091991425, -0.022497257217764854, 0.26110202074050903, -0.06050088629126549, 0.00809575617313385, 0.04916903376579285, -0.03644955903291702, -0.08589856326580048, 0.04892372712492943, -0.0016211309703066945, -0.011400156654417515, 0.17340309917926788, 0.058235108852386475, 0.1589139997959137, -0.2250179499387741, 0.0864064022898674, 0.07139865309000015, 0.14028173685073853, -0.030840950086712837, -0.14860491454601288, -0.2949739396572113, -0.06800757348537445, -0.05079735815525055, 0.02351701632142067, -0.030878445133566856, 0.045628007501363754, -0.21688562631607056, 0.059020593762397766, 0.04057413339614868, 0.18126720190048218, 0.14130128920078278, 0.27348706126213074, -0.19384801387786865, -0.19691738486289978, -0.23347032070159912, -0.16470804810523987, -0.008689881302416325, -0.10687138885259628, 0.10460292547941208, -0.10327789932489395, -0.2411395013332367, -0.07209222763776779, -0.03913728520274162, 0.08214270323514938, 0.34051477909088135, -0.07058124244213104, 0.1664537638425827, 0.16470089554786682, -0.046327654272317886, 0.029997369274497032, -0.39116108417510986, 0.10993307828903198, 0.10474793612957001, -0.14604608714580536, 0.005527010653167963, 0.07885684072971344, -0.15575461089611053, -0.21166032552719116, -0.14057670533657074, -0.21394173800945282, -0.06030561402440071, -0.20073170959949493, 0.24692267179489136, -0.07072916626930237, -0.18185465037822723, -0.2171860933303833, -0.24090905487537384, -0.0018786031287163496, 0.37178096175193787, 0.028766049072146416, 0.0742807537317276, 0.01934022828936577, 0.015473814681172371, 0.018991416320204735, -0.01848961040377617, -0.02139921672642231, -0.032607000321149826, -0.05276739224791527, 0.010705353692173958, -0.038222428411245346, -0.058469079434871674, -0.013558933511376381, 0.036990609019994736, 0.06846687942743301, 0.037251122295856476, 0.07532496750354767, 0.10491137206554413, -0.02156895399093628, 0.019236160442233086, 0.05515888333320618, 6.9524976424872875e-06, 0.05159878730773926, 0.09411625564098358, 0.015025824308395386, 0.0017250061500817537, -0.036245785653591156, 0.016144275665283203, -0.036901261657476425, -0.0867040678858757, -0.00524617824703455, 0.03804253786802292, -0.0008250770042650402, -0.022078540176153183, 0.0199136845767498, 0.0057443538680672646, 0.01856028474867344, -0.00391529593616724, 0.027867009863257408, -0.0023879900109022856, 0.027382640168070793, 0.03751125931739807, -0.016994168981909752, -0.011417382396757603, 0.06167015805840492, 0.041470225900411606, 0.06613775342702866, 0.14766915142536163, 0.0005003348924219608, 0.0003343336866237223, 0.00030060275457799435, 0.00026287545915693045, 0.0002386056148679927, 0.00025602366076782346, -0.00025691866176202893, -0.0004882178036496043, -0.0005245625507086515, -0.0005705837393179536, -0.0005966475582681596, -0.000477624504128471, -0.0003034409892279655, -0.0002997988776769489, -0.0002944025909528136, -0.0002101311256410554, -9.492794197285548e-05, -7.726905460003763e-05, -0.0004934286116622388, -0.0004614967037923634, -0.00045145026524551213, -0.0002849980955943465, -0.00014010439917910844, -0.00015190656995400786, 0.0005145383765920997, 0.0001469646522309631, 7.744537288090214e-05, -6.610645505134016e-05, -0.00015906745102256536, -5.534438059839886e-06, -3.181735519319773e-05, -5.5284046538872644e-05, -6.794765067752451e-05, -6.0966012824792415e-05, -5.0872244173660874e-05, -8.32818477647379e-05, -3.321160693303682e-05, 0.00026780893676914275, 0.0003305680293124169, 0.000396380084566772, 0.00043254639604128897, 0.00032622553408145905, -0.00039158473373390734, -0.0001004934310913086, -2.9284270567586645e-05, 0.00014963102876208723, 0.0003362209245096892, 0.000303393549984321, 0.011022089049220085, 0.0022886095102876425, 0.06763111799955368, 0.03514375537633896, -0.028568405658006668, 0.031902141869068146, 0.0019423194462433457, -0.02284417860209942, 0.017403237521648407, -0.02833487279713154, -0.13193266093730927, 0.04514074698090553, 0.03392013907432556, 0.01783503219485283, 0.003628448350355029, -0.027323147282004356, -0.0103192999958992, -0.027872569859027863, 0.013443504460155964, 0.03156918287277222, 0.06089925765991211, 0.041090644896030426, 0.05694654583930969, -0.040131185203790665, 0.006630306597799063, -0.028280310332775116, 0.04960249736905098, 0.0008274284773506224, -0.10230451822280884, 0.06315632164478302, -0.006981003098189831, 0.04577789455652237, 0.10222785174846649, 0.1102701872587204, 0.023749617859721184, -0.02869362197816372, -0.0046617453917860985, 0.011983423493802547, -0.04109906405210495, -0.007752488367259502, 0.12466070801019669, -0.0465993732213974, 0.0254485085606575, 0.012054570019245148, -0.05197662487626076, -0.06921656429767609, 0.046821944415569305, -0.052914831787347794, -0.13385938107967377, -0.1286127269268036, -0.11700435727834702, -0.1272830367088318, -0.15528911352157593, -0.3087581396102905, -0.00248980731703341, 0.0024951801169663668, -0.011768764816224575, -0.02539694309234619, 0.009917978197336197, 0.010905051603913307, -0.09029792994260788, -0.01581641659140587, -0.2602354884147644, -0.1969364434480667, -0.006497632712125778, 0.22792410850524902, -0.26265230774879456, -0.1154109388589859, -0.1375470608472824, -0.07464754581451416, -0.12467608600854874, 0.20841307938098907, -0.09218234568834305, -0.08279544115066528, 0.06441762298345566, 0.098204605281353, -0.0761934220790863, -0.20655252039432526, 0.06595182418823242, -0.0046109482645988464, -0.07396221160888672, -0.11864353716373444, -0.004733520094305277, -0.11432259529829025, 0.06425245851278305, -0.1059219166636467, -0.03842507302761078, -0.06847791373729706, -0.19199424982070923, 0.17984887957572937, -0.14993339776992798, -0.12533725798130035, -0.03497058153152466, -0.26977628469467163, 0.008550251834094524, 0.1332828253507614, 0.0514831617474556, 0.10925671458244324, 0.12236053496599197, 0.11229526251554489, 0.10499511659145355, 0.13662059605121613, -0.05695555359125137, -0.10408740490674973, -0.027254005894064903, -0.04203646630048752, -0.16949161887168884, -0.2875153124332428, -0.08639037609100342, -0.10110274702310562, -0.0683211162686348, 0.04936302453279495, 0.1326335072517395, 0.20310431718826294, -0.1807553619146347, -0.18429957330226898, -0.160597026348114, 0.041205231100320816, 0.16235443949699402, 0.42676296830177307, 0.022985152900218964, 0.10928177088499069, 0.18024154007434845, 0.12918369472026825, -0.04511325806379318, -0.22988781332969666, 0.027822325006127357, 0.013302030973136425, 0.006143215578049421, 0.10845550894737244, 0.14342345297336578, 0.26498982310295105, 0.07676808536052704, 0.012067264877259731, -0.061132095754146576, -0.04879296198487282, 0.0676991194486618, 0.18328848481178284, -0.10889533907175064, -0.23618699610233307, -0.18674395978450775, -0.16889746487140656, -0.07063071429729462, 0.06959069520235062, -0.10251643508672714, 0.006413073744624853, -0.0033795672934502363, -0.0651509091258049, -0.12685616314411163, 0.11232586205005646, -0.0011606469051912427, -0.014243731275200844, -0.07139334082603455, 0.13070586323738098, 0.01965431310236454, 0.06874443590641022, -0.012991485185921192, 0.10791260749101639, 0.09092191606760025, 0.07348936796188354, -0.07929594814777374, -0.15076753497123718, -0.042892299592494965, 0.16888543963432312, 0.18873903155326843, 0.10505624115467072, 0.0567888505756855, -0.027693137526512146, 0.10660269111394882, -0.09744952619075775, -0.08316875249147415, -0.05950453132390976, -0.046999599784612656, 0.12054362893104553, 0.029307017102837563, -0.0014036005595698953, -0.015597937628626823, -0.08301258087158203, -0.0755515769124031, 0.03574268892407417, -0.09461367130279541, 0.07827537506818771, -0.008823199197649956, -0.081975057721138, 0.0852878987789154, -0.12952634692192078, 0.12180273234844208, 0.1269189417362213, -0.0067764464765787125, 0.09646739810705185, 0.107798270881176, -0.10150934010744095, 0.05677490681409836, 0.023698529228568077, -0.027202153578400612, -0.008158259093761444, -0.016977980732917786, 0.17138904333114624, -0.21112073957920074, -0.051943589001894, -0.15366129577159882, 0.5989116430282593, 0.1619531512260437, -7.029710832284763e-05, -0.03970491513609886, 0.6412422060966492, 0.5458524823188782, -0.8207699656486511, 0.24454203248023987, -0.31159475445747375, -0.11200420558452606, 0.0005800358485430479, -0.03788851574063301, -0.14889749884605408, 0.27276334166526794, 0.24061928689479828, 0.16643406450748444, -0.2117704451084137, -0.0014149299822747707, 0.00013894711446482688, -0.19582903385162354, -0.005480139050632715, 0.20924384891986847, 0.15935374796390533, -0.007050083950161934, -0.12183971703052521, -0.22037070989608765, 0.00047662187716923654, -0.013133023865520954, -0.033206257969141006, 0.027497591450810432, 0.21967507898807526, 0.03385510295629501, 0.1223267912864685, 0.059431642293930054, 0.0004152305191382766, 0.0019105932442471385, 0.09421787410974503, 0.4594789445400238, -0.11956314742565155, -0.1666778028011322, 0.21748849749565125, 0.12493656575679779, -0.0005266659427434206, -0.07986869663000107, -0.057576194405555725, -0.18237166106700897, 0.061597391963005066, -0.01782744750380516, 0.3435531258583069, 0.10704930871725082, -0.00012720050290226936, 0.1159014105796814, 0.15201649069786072, -0.0002160537987947464, -0.08664458245038986, -0.4458373785018921, 0.5919976234436035, -0.13798975944519043, -0.0004636638332158327, 0.16745460033416748, 0.27074405550956726, -0.6890621781349182, 0.002136195544153452, -0.13615289330482483, 0.12464623898267746, 0.056349288672208786, 0.001154287252575159, 0.0401717908680439, 0.39567670226097107, -0.27042075991630554, -0.026285303756594658, -0.13164959847927094, -0.010796750895678997, 0.13698287308216095, -0.08944515883922577, 0.05975915119051933, -0.1875298023223877, -0.010136347264051437, -0.05766824260354042, 0.006498158909380436, 0.017862262204289436, 0.019902002066373825, -0.020027805119752884, -0.00413110014051199, 0.06494756788015366, 0.019274482503533363, 0.00022502636420540512, 0.0002842824615072459, -0.051276855170726776, -0.032938748598098755, 0.023544853553175926, 0.06027548387646675, 0.04483437165617943, 0.006565552670508623, 0.00020375559688545763, -0.0640374943614006, -0.007037242874503136, 0.04968075081706047, 0.08830884099006653, 0.037783339619636536, 0.04457712173461914, -0.0368662066757679, -0.0209538284689188, -0.0037747614551335573, -0.07024335116147995, -0.017437146976590157, -0.03039136901497841, 0.08683398365974426, 0.033194348216056824, 0.003093726234510541, 0.011041989549994469, 0.01748567260801792, 0.02307973802089691, 0.07303199172019958, -0.01738957315683365, -0.04387249797582626, -0.05536474287509918, -0.035687558352947235, 0.04779557138681412, 0.05006185173988342, -0.054623935371637344, 0.08056644350290298, 0.1203174814581871, -0.003737356746569276, 0.03686489164829254, -0.10408417135477066, -0.07982177287340164, 0.0424296073615551, 0.019647151231765747, 0.012630492448806763, -0.03795984759926796, 0.17991994321346283, 0.07048259675502777, -0.00409636739641428, 0.0017428683349862695, -0.010655013844370842, -0.047071050852537155, 0.2166813462972641, -0.07136665284633636, -0.005297235678881407, -0.004873339552432299, 0.00502890907227993, 0.029346926137804985, 0.05432498827576637, -0.09321630746126175, -0.03428606688976288, 0.04687092453241348, -0.0015304583357647061, 0.03285384550690651, 0.15010526776313782, -0.14236177504062653, -0.0034550584387034178, 0.002232359489426017, 0.008893621154129505, -0.16026845574378967, 0.2543943226337433, -0.15704169869422913, -0.011956223286688328, 0.0032614730298519135, -0.05783510580658913, -0.13180799782276154, 0.16094744205474854, -0.08508896827697754, 0.030320191755890846, 0.006611422169953585, -0.01805262826383114, -0.05621030926704407, -0.26415517926216125, 0.09890606254339218, 0.01355078537017107, 0.01742744818329811, 0.08035589009523392, 0.1623755693435669, -0.17250046133995056, 0.013248881325125694, 0.050223201513290405, 0.026734622195363045, 0.03706260398030281, 0.04654926434159279, -0.019551897421479225, 0.11039885133504868, -0.010362239554524422, -0.016943659633398056, -0.0023313001729547977, -0.0025858136359602213, -0.0855150893330574, 0.05859651416540146, -0.015484275296330452, -0.013317952863872051, -0.003358215792104602, -0.004655481781810522, -0.04344792664051056, 0.02654012106359005, 0.012395595200359821, 0.03387109562754631, 0.0337570384144783, -0.0005623033503070474, 0.02034889906644821, 0.033228665590286255, 0.013304239138960838, 0.03454078733921051, 0.001665752730332315, 0.05689943581819534, -0.023718219250440598, 0.03673549368977547, 0.043272413313388824, 0.04921511933207512, 0.029177170246839523, 0.03908810019493103, 0.09202694892883301, -0.008081302046775818, -0.013137894682586193, 0.00013536297774408013, -0.021006520837545395, -0.003967962693423033, 0.11778126657009125, -0.13621127605438232, -0.04442247003316879, -0.02504901960492134, 0.0047977822832763195, -0.04845371097326279, -0.005571792367845774, -0.05950741842389107, 0.0013354740804061294, 0.00481068342924118, 0.0040434133261442184, -0.01367451436817646, 0.04254204407334328, -0.01816452294588089, -0.01669296622276306, -0.02125617116689682, -0.008142233826220036, -0.036493174731731415, -0.00606334675103426, -0.0177751574665308, 0.021516766399145126, 0.0009092945838347077, -0.012041271664202213, 0.01497743371874094, 0.018475502729415894, -0.00620650127530098, 0.01598713919520378, -0.02154659852385521, -0.017589319497346878, -0.003950244747102261, -0.00725216418504715, -0.0384349524974823, -0.01842627488076687, -0.011997712776064873, 0.019136738032102585, -0.0035699037835001945, -0.02068622224032879, 0.026951013132929802, -0.024295566603541374, -0.011624583043158054, 0.007388715632259846, 0.022877300158143044, -0.033551041036844254, -0.017938874661922455, -0.0006364982691593468, 0.009954695589840412, 0.019068004563450813, 0.07751170545816422, -0.018541108816862106, 0.06423830986022949, 0.02612002193927765, 0.006510770879685879, -0.011542925611138344, 0.015165489166975021, -0.039913639426231384, 0.007435772567987442, -0.03380861505866051, -0.08690863102674484, -0.023624984547495842, -0.10379284620285034, -0.02789914421737194, -0.09914599359035492, 0.010949158109724522, 0.10110916197299957, 0.11097639799118042, 0.1347581446170807, 0.027230150997638702, 0.2343686819076538, 0.04885965958237648, 0.005707910284399986, 0.14030048251152039, 0.10963066667318344, 0.13968101143836975, -0.23168404400348663, -0.09745924919843674, 0.11539702862501144, 0.15321528911590576, 0.07248173654079437, 0.15473301708698273, -0.23996683955192566, 0.002125315833836794, -0.02904805727303028, 0.012043272145092487, -0.17065215110778809, -0.37476488947868347, 0.34422340989112854, 0.02964743785560131, -0.1000802218914032, -0.14971669018268585, -0.13105028867721558, -0.35316699743270874, -0.0579826645553112, -0.04915095493197441, -0.056203264743089676, -0.03744182363152504, -0.088446706533432, -0.06723618507385254, -0.1362539529800415, 0.005409331992268562, -0.018206525593996048, 0.16728545725345612, 0.13806378841400146, 0.2740823030471802, -0.16128535568714142, -0.09507854282855988, -0.053005315363407135, -0.04395689070224762, -0.2046729475259781, -0.17212633788585663, 0.06145669147372246, 0.006834580097347498, 0.004978602286428213, -0.01034003496170044, -0.0726550817489624, -0.060806356370449066, 0.22782765328884125, 0.022693278267979622, 0.06981173157691956, 0.01653769053518772, 0.1219157725572586, -0.09743590652942657, -0.3500446081161499, 0.1581384688615799, 0.09861888736486435, 0.2514800727367401, 0.08931189775466919, 0.16863644123077393, -0.09321781247854233, -0.08862138539552689, -0.04723935201764107, -0.036897387355566025, -0.2082495540380478, -0.12096946686506271, 0.21542517840862274, -0.025557179003953934, -0.015003232285380363, -0.018869658932089806, 0.04662933573126793, -0.18800632655620575, -0.11910794675350189, -0.07652508467435837, 0.09578584134578705, 0.11822976171970367, 0.023862404748797417, 0.20632794499397278, -0.16411282122135162, 0.050110381096601486, 0.1278442144393921, 0.09120075404644012, 0.08704736828804016, 0.22045506536960602, -0.18271169066429138, -0.06927555054426193, 0.06449484080076218, 0.058108020573854446, -0.07793606072664261, 0.00017701731121633202, 0.00796602014452219, -0.007902816869318485, -0.02673865295946598, -0.07483173906803131, 0.0034475596621632576, 0.0026508900336921215, 0.014111046679317951, 0.03224312886595726, 0.03747379034757614, 0.01638076826930046, -0.11769571155309677, -0.12608914077281952, -0.005915523506700993, 0.04121888801455498, 0.048688653856515884, 0.06832735985517502, -0.002661507809534669, 0.00874315295368433, -0.1606348305940628, 0.0565384104847908, 0.01587599702179432, -0.09726282209157944, -0.06062084436416626, 0.1874379962682724, -0.06799492239952087, -0.04792473465204239, -0.04014768451452255, -0.023721368983387947, 0.06678996235132217, 0.010140253230929375, -0.16967517137527466, -0.0325685515999794, 0.05384621396660805, 0.07015451788902283, 0.07144114375114441, 0.15973083674907684, 0.10659895092248917, 0.10876329988241196, 0.16587653756141663, 0.141402006149292, -0.08748149126768112, -0.07001949101686478, 0.13444672524929047, 0.012232053093612194, -0.0034690960310399532, 0.026261715218424797, 0.0025929713156074286, 0.07413739711046219, 0.04437614977359772, -0.026401976123452187, -0.029130583629012108, 0.00120112847071141, 0.053017809987068176, -0.057551074773073196, -0.06820462644100189, -0.017437297850847244, 0.005333269480615854, -0.07080689817667007, -0.03423081710934639, 0.048413556069135666, 0.014404624700546265, -0.028432833030819893, -0.04788149148225784, -0.1256624311208725, -0.040880169719457626, 0.36847758293151855, 0.20580896735191345, 0.005829951725900173, 0.0593147873878479, 0.027777396142482758, 0.09001586586236954, -0.11122345179319382, -0.05925797298550606, -0.017078038305044174, -0.005281644407659769, 0.03064272552728653, -0.0053637088276445866, 0.1908753216266632, 0.15991361439228058, 0.017413396388292313, 0.00561746209859848, 0.03415490314364433, -0.09010510891675949, -0.052931949496269226, 0.03023308515548706, -0.006271439138799906, -0.018988503143191338, -0.07986012101173401, -0.08636194467544556, 0.11247225105762482, 0.02876693569123745, -0.0821664035320282, -0.10618460178375244, -0.07972539216279984, -0.04814077541232109, 0.18734516203403473, 0.05661546066403389, 0.09413346648216248, -0.08700966835021973, -0.07863318175077438, -0.039485301822423935, 0.0017685133498162031, -0.007058496121317148, -0.23082484304904938, -0.7654618620872498, 0.10977474600076675, 0.10495010018348694, -0.14391560852527618, -0.05835462361574173, -0.12965090572834015, 0.0624062679708004, 0.22005854547023773, 0.2847417891025543, -0.14145910739898682, 0.23180058598518372, -0.051862020045518875, -0.13960330188274384, -0.18101057410240173, 0.03427904471755028, -0.06300538033246994, -0.16261526942253113, -0.22753161191940308, -0.007518659345805645, 0.018029309809207916, -0.0910397320985794, -0.025486793369054794, 0.03255413845181465, -0.11037790030241013, 0.46744853258132935, -0.11675280332565308, -0.014032790437340736, -0.012462112121284008, -0.036880411207675934, -0.02472490258514881, -0.05524585396051407, 0.0020316371228545904, -0.20637531578540802, -0.3376498222351074, 0.1120196282863617, 0.03372932970523834, 0.3977246880531311, -0.1715497523546219, 0.0278808381408453, 0.15309566259384155, 0.042295750230550766, -0.08230920135974884, -0.09789811819791794, 0.004899387247860432, -0.04766679182648659, -0.004629392642527819, -0.009094463661313057, -0.27147918939590454, 0.0876203402876854, 0.2693864405155182, 0.09752417355775833, 0.09175985306501389, 0.41828712821006775, -0.000877021811902523, -0.03489099070429802, -0.4055672585964203, -0.22326676547527313, -0.18141070008277893, -0.33916157484054565, 0.1699834167957306, 0.047362130135297775, 0.029977770522236824, -0.093792624771595, -0.4019654095172882, 0.012444807216525078, 0.07086365669965744, -0.06085958704352379, 0.09265503287315369, 0.01463385485112667, -0.22674506902694702, 0.04203163459897041, 0.13637323677539825, 0.010942773893475533, 0.1624395251274109, 0.08963663876056671, -0.034879133105278015, -0.049225807189941406, 0.016218526288866997, -0.06538786739110947, -0.016176555305719376, 0.18486104905605316, 0.0763462632894516, 0.09289080649614334, 0.0401831716299057, 0.016128577291965485, -0.0652589499950409, 0.17947477102279663, -0.05440061539411545, -0.032178495079278946, 0.09533155709505081, -0.0048436070792376995, 0.14500176906585693, -0.052544184029102325, 0.009626378305256367, -0.011121238581836224, -0.04578035697340965, 0.11179712414741516, 0.2222159206867218, -0.22362615168094635, 0.06384999305009842, 0.10825047641992569, 0.14968989789485931, -0.04319378361105919, -0.10490339994430542, 0.19377446174621582, -0.02541170082986355, -0.03965320065617561, -0.10423140227794647, -0.16982249915599823, -0.08162397146224976, -0.06675320863723755, -0.014872640371322632, -0.02749164216220379, -0.01657765358686447, -0.10537942498922348, -0.08146116137504578, -0.2848418354988098, 0.0007088098209351301, 0.03787119686603546, 0.20286984741687775, 0.13706126809120178, 0.33309611678123474, -0.25717228651046753, -0.028025243431329727, 0.028103057295084, 0.04951677471399307, -0.0003993253340013325, 0.01582517847418785, -0.3680229187011719, 0.02740238979458809, 0.001469228882342577, 0.04878469556570053, -0.08806239068508148, 0.2391487956047058, -0.22456355392932892, 0.02313549444079399, -0.10191439837217331, -0.15867702662944794, -0.28067129850387573, -0.2134096920490265, 0.0676143690943718, 0.051210738718509674, -0.04892722889780998, -0.006605647969990969, -0.07506206631660461, -0.256415992975235, 0.14885714650154114, 0.00892440415918827, -0.027236802503466606, -0.010161912068724632, 0.0849384218454361, 0.08030206710100174, -0.18371093273162842, -0.004179575014859438, 0.049663882702589035, 0.0463249646127224, -0.10675112903118134, -0.06396432220935822, 0.03542091324925423, 0.0031387372873723507, -0.048379238694906235, -0.025769619271159172, -0.10568617284297943, -0.06683873385190964, 0.2768264412879944, -0.04913569241762161, -0.0055001419968903065, -0.09473127871751785, -0.07609785348176956, -0.1365528106689453, 0.24790334701538086, 0.042748965322971344, 0.013917122036218643, 0.006724955979734659, 0.0072570666670799255, 0.14639456570148468, 0.05930214375257492, -0.054083626717329025, -0.03273462876677513, -0.020740564912557602, -0.024500805884599686, 0.07441826909780502, -0.038165245205163956, 0.03080214560031891, -0.015391369350254536, 0.03896206244826317, -0.020949093624949455, 0.020660139620304108, 0.10328780114650726, 0.05771104246377945, 0.03604472056031227, 0.0011776239844039083, -0.02920631319284439, 0.05778414383530617, 0.004356816876679659, -0.010565492324531078, -0.03535766154527664, -0.05018030107021332, -0.004423250909894705, 0.06184475123882294, -0.08526858687400818, 0.03309733048081398, 0.03662216290831566, 0.039974939078092575, -0.006585148628801107, 0.06835510581731796, 0.04642360657453537, 0.007479184772819281, 0.0003429059870541096, 0.024044306948781013, 0.04567938297986984, -0.06215888634324074, -0.045864976942539215, -0.0156701672822237, -0.020947303622961044, 0.0014622421003878117, -0.025697793811559677, -0.11155549436807632, 0.05288198962807655, 0.06486662477254868, -0.13118240237236023, 0.05048818141222, 0.012463598512113094, 0.0006805339362472296, 0.010975249111652374, 0.0006775607471354306, -0.11127704381942749, -0.05886523053050041, 0.023017223924398422, -0.0035634771920740604, 0.028613893315196037, -0.001317304908297956, -0.004820181522518396, 0.13955706357955933, 0.0340832956135273, 0.01079167053103447, -0.007661409676074982, 0.0225268192589283, -0.056521326303482056, -0.03291740268468857, -0.007743453606963158, -0.07158544659614563, -0.029380450025200844, 0.027881594374775887, -0.04065665230154991, -0.007521453779190779, 0.016871383413672447, 0.020181110128760338, -0.006030320189893246, 0.06787509471178055, 0.05582504719495773, 0.07262151688337326, 0.03163384646177292, 0.002928910544142127, -0.031926244497299194, -0.0023361830972135067, 0.3202512860298157, 0.02968532405793667, -0.018918463960289955, -0.00243952265009284, -0.018423570320010185, -0.06593775749206543, 0.12920354306697845, 0.029177632182836533, -0.00786659587174654, 0.0061851609498262405, 0.020134972408413887, -0.06039191037416458, 0.006292469799518585, -0.13311906158924103, -0.12955978512763977, -0.10611555725336075, -0.20735912024974823, -0.008617375046014786, -0.05333255976438522, -0.043744273483753204, -0.04593842476606369, 0.09453487396240234, -0.05069673806428909, 0.009034921415150166, 0.026023337617516518, 0.10287456959486008, 0.023790428414940834, -0.4105200469493866, -0.12647023797035217, 0.01735902950167656, 0.03631558641791344, 0.08462028950452805, 0.011821478605270386, -0.19753240048885345, -0.08056199550628662, 0.06045463681221008, 0.04664769396185875, 0.06265334039926529, -0.020731676369905472, 0.14267878234386444, -0.022365614771842957, -0.0251005869358778, -0.07953988015651703, -0.0749281793832779, -0.05583380162715912, 0.025081897154450417, -0.1575849950313568, 0.01083790510892868, 0.026115337386727333, 0.11137110739946365, 0.06477012485265732, 0.019050614908337593, 0.24883143603801727, 0.05104517191648483, 0.045251715928316116, -0.08072157949209213, -0.11695872247219086, -0.2630355954170227, 0.11989336460828781, 0.009946735575795174, -0.02157202735543251, -0.07462925463914871, -0.00474935956299305, -0.16532067954540253, -0.05198204517364502, -0.04453800246119499, 0.0012063065078109503, -0.0177763681858778, 0.004069366492331028, -0.017702944576740265, 0.08538360893726349, 0.013849182985723019, -0.017990298569202423, 0.1478976607322693, -0.04494674131274223, -0.02464422583580017, -0.002800123533234, -0.0008743094513192773, 0.014456612057983875, -0.030378470197319984, 0.04065022990107536, -0.09688813239336014, -0.02021653577685356, -0.04200510308146477, 0.007194076664745808, -0.018709244206547737, -0.05160880088806152, 0.02441171370446682, -0.025069408118724823, 0.0008240220486186445, 0.05732893571257591, -0.0035648804623633623, -0.0426039956510067, 0.09438223391771317, -0.1603996753692627, -0.03473060578107834, -0.044182151556015015, 0.007411058060824871, 0.028382064774632454, 0.05536452680826187, 0.028782274574041367, 0.016352426260709763, 0.05093182995915413, -0.011446954682469368, -0.06296263635158539, 0.08510395139455795, 0.10109220445156097, 0.036864928901195526, -0.0014704600907862186, 0.012971492484211922, 0.018002450466156006, 0.03717442601919174, -0.05873695760965347, 0.04118119925260544, 0.07017916440963745, 0.006748487241566181, 0.029259372502565384, 0.04899090528488159, -0.10624769330024719, -0.024222975596785545, 0.007653877604752779, -0.01376456581056118, -0.037508562207221985, -0.023653315380215645, -0.06866874545812607, 0.029709383845329285, 0.01978199928998947, 0.01359607558697462, 0.021746566519141197, 0.06999237090349197, -0.014232181943953037, 0.04277513921260834, 0.030315762385725975, -0.009543215855956078, 0.04501577839255333, 0.00996363814920187, -0.0064811185002326965, -0.050417233258485794, -0.05899127572774887, 0.003895611735060811, 0.038310565054416656, -0.0198716651648283, 0.10180655121803284, 0.02196311391890049, 0.022861935198307037, -0.006544019561260939, 0.011909118853509426, 0.028374455869197845, 0.21959231793880463, 0.031817518174648285, 0.01622491516172886, -0.048833321779966354, -0.0793284997344017, 0.006172834429889917, 0.0286602471023798, 0.031154915690422058, 0.0320407934486866, 0.02652035653591156, 0.019124558195471764, -0.12207278609275818, -0.010473774746060371, 0.002411971800029278, 0.0035343870986253023, -0.062220361083745956, -0.020029405131936073, -0.2062806785106659, 0.0581204928457737, 0.04274832457304001, 0.04678475856781006, 0.1134040355682373, 0.08904097974300385, -0.03855987638235092, -0.04408971220254898, -0.03340707719326019, -0.011898993514478207, -0.016708865761756897, 0.0006884129252284765, -0.10086755454540253, 0.03723471611738205, 0.018037326633930206, 0.06136033684015274, 0.06500248610973358, 0.028856433928012848, 0.07128089666366577, 0.008182664401829243, 0.05541098117828369, 0.032870128750801086, 0.09245603531599045, 0.047274522483348846, 0.05673312395811081, -0.0048576416447758675, 0.038755256682634354, -0.016229460015892982, -0.022830871865153313, -0.0171490628272295, 0.3016773760318756, -0.07608821988105774, -0.0016411024844273925, -0.021277645602822304, 0.08327455073595047, 0.070747509598732, 0.16060644388198853, -0.0036410214379429817, 0.04892415925860405, 0.17019757628440857, -0.06232389435172081, 0.05864080414175987, 0.1479724496603012, 0.09467607736587524, -0.06991668790578842, -0.03238581493496895, -0.17115631699562073, 0.27190735936164856, 0.057161394506692886, 0.020105823874473572, 0.8305087089538574, 0.05216819792985916, -0.03775397688150406, 0.05438993498682976, -0.026977356523275375, 0.2704995572566986, 0.024729514494538307, 0.16519667208194733, 0.14397339522838593, -0.024209320545196533, 0.12469995021820068, 0.07642930746078491, 0.04484167695045471, 0.03296339139342308, -0.12192226946353912, -0.1424380987882614, -0.06349419057369232, -0.24318262934684753, 0.11624833941459656, -0.06330958008766174, -0.07444431632757187, 0.13130876421928406, 0.08570019900798798, 0.07547959685325623, 0.11446605622768402, -0.15183280408382416, 0.120807945728302, 0.1712675392627716, -0.004328015726059675, 0.025548838078975677, -0.017089590430259705, -0.1349690854549408, -0.16707423329353333, -0.2046309858560562, 0.013502602465450764, -0.17957256734371185, -0.10350608825683594, 0.17781886458396912, 0.021489378064870834, 0.06344141811132431, 0.11047443747520447, -0.020389024168252945, 0.08901582658290863, 0.12628310918807983, 0.09621036052703857, -0.2171812653541565, 0.23423267900943756, 0.37188947200775146, 0.3594214618206024, 0.1213722750544548, 0.03451553359627724, 0.4888351559638977, -0.1804206371307373, 0.372880756855011, 0.13562628626823425, 0.0029734154231846333, 0.14154818654060364, 0.0678970143198967, 0.006064595188945532, -0.10932712256908417, -0.17375832796096802, 0.2430782914161682, -0.06403397023677826, -0.10411715507507324, 0.09297160804271698, -0.13172148168087006, -0.03109852783381939, -0.042067382484674454, 0.037826210260391235, -0.06229319050908089, 0.051128458231687546, 0.11834519356489182, -0.19920577108860016, -0.07017063349485397, -0.08716210722923279, 0.2609035074710846, 0.027087289839982986, 0.07423620671033859, 0.02362597920000553, -0.03244829922914505, -0.055396758019924164, 0.04736141860485077, 0.02409379370510578, -0.03592948988080025, -0.07455097138881683, -0.025975625962018967, -0.06166912615299225, 0.10390298068523407, -0.00663856090977788, 0.09139596670866013, 0.052540313452482224, 0.05219297856092453, 0.034333229064941406, -0.07231426984071732, 0.016143275424838066, -0.0070599960163235664, -0.011118953116238117, -0.056744787842035294, -0.09354841709136963, 0.006372109055519104, 0.01331472396850586, 0.014338454231619835, 0.030598219484090805, 0.008602135814726353, 0.03231523931026459, -0.06559183448553085, -0.0396355539560318, -0.009405083023011684, 0.019964611157774925, -0.03421083465218544, 0.0030747929122298956, -0.09557169675827026, -0.007537475321441889, 0.03902751952409744, -0.0032213579397648573, -0.010622803121805191, -0.015170933678746223, -0.218769833445549, 0.03819837421178818, -0.04506084322929382, 0.009267028421163559, 0.12628138065338135, 0.12272625416517258, -0.17158985137939453, 0.029510438442230225, 0.006362605839967728, -0.011980017647147179, -0.03378744795918465, 0.025672726333141327, 0.004200559109449387, -0.006959215272217989, -0.04830349609255791, -0.010135293938219547, -0.007104090880602598, 0.0018651756690815091, 0.0110958032310009, -0.02651194855570793, -0.0036554269026964903, -0.05454528331756592, -0.028848564252257347, 0.006066665984690189, 0.0070555745624005795, -0.012231551110744476, -0.019278211519122124, -0.058889131993055344, -0.0008896215003915131, 0.004111958667635918, -0.032318249344825745, 0.03959028050303459, 0.025124024599790573, 0.02543853223323822, 0.004904035944491625, 0.043510593473911285, -0.005795157980173826, -0.004427877254784107, 0.007310250774025917, 0.05524181202054024, 0.031643155962228775, -0.00742398202419281, -0.012032845057547092, 0.02944871224462986, 0.0035232510417699814, 0.01544101070612669, 0.0017966153100132942, 0.0025040702894330025, -0.043745942413806915, -0.003553507151082158, 0.000286497815977782, -0.040200069546699524, -0.015062745660543442, 0.0028084011282771826, -0.009187617339193821, 0.013133305124938488, 0.017417246475815773, -0.009995848871767521, -0.056190650910139084, -0.03863915428519249, 0.009425404481589794, -0.02937835268676281, -0.08139996230602264, -0.13015896081924438, -0.11276765912771225, 0.015272705815732479, 0.04520778730511665, -0.05587541311979294, -0.0222336295992136, 0.08373232930898666, -0.029173826798796654, -0.06657394021749496, 0.05212680250406265, 0.08115076273679733, 0.05836664140224457, 0.05825140327215195, 0.05661758780479431, 0.1265055388212204, 0.07357964664697647, 0.09570236504077911, 0.11417912691831589, 0.021636659279465675, -0.044566769152879715, -0.006145567167550325, -0.04695320874452591, 0.04119395837187767, 0.02713909186422825, 0.03783680871129036, 0.06973783671855927, 0.060113318264484406, -0.07762792706489563, -0.02597242034971714, -0.0672045573592186, -0.05571909248828888, -0.12035256624221802, -0.014441096223890781, 0.024032259359955788, 0.01788901351392269, 0.06770642101764679, 0.030492274090647697, 0.10964963585138321, -0.0167708657681942, 0.08764038980007172, -0.0007076156325638294, -0.0013103389646857977, 0.01801748014986515, 0.05390000715851784, -0.025189779698848724, -0.08488021045923233, -0.0074288127943873405, -0.05581634119153023, -0.03421533852815628, -0.03426115959882736, -0.10340119153261185, 0.09200792759656906, 0.045413557440042496, -0.008042178116738796, 0.0794188380241394, 0.03172948211431503, 0.10864770412445068, -0.13031218945980072, 0.06472702324390411, 0.006936466321349144, 0.050214216113090515, 0.0519629642367363, -0.06242038309574127, 0.04367651045322418, -0.03274190425872803, -0.007043410092592239, -0.10635694116353989, 0.04996924847364426, 0.053475864231586456, -0.004288625903427601, 0.06130188703536987, 0.04671339690685272, 0.05719143897294998, 0.064076267182827, 0.16694100201129913, -0.17455317080020905, 0.017953157424926758, 0.005306777078658342, 0.009377035312354565, 0.027855023741722107, 0.269611120223999, 0.040135759860277176, -0.011875178664922714, -0.006863884162157774, -0.04552764818072319, -0.07806131988763809, 0.20307113230228424, 0.005746157374233007, 0.021238598972558975, 0.08534583449363708, 0.06915514171123505, 0.10444345325231552, 0.04114314168691635, -0.004080388695001602, -0.05449899658560753, -0.12007409334182739, -0.07093339413404465, -0.10787452757358551, -0.105772003531456, 0.032881494611501694, 0.03228564187884331, 0.10432524234056473, 0.08339326828718185, 0.12228706479072571, 0.02546525001525879, -0.03592737391591072, 0.002086807508021593, -0.05310927703976631, -0.06862109154462814, -0.11444874852895737, -0.17362043261528015, 0.013740332797169685, -0.02604280784726143, -0.008715195581316948, 0.012997480109333992, 0.04358008876442909, 0.04407547786831856, -0.060668010264635086, 0.06953320652246475, 0.1585422307252884, 0.23487932980060577, 0.17371611297130585, 0.3142264187335968, -0.10191094130277634, -0.004820272792130709, 0.06093379855155945, -0.04517427086830139, 0.043967120349407196, 0.011463522911071777, -0.028388148173689842, 0.019686633720993996, -0.06350693851709366, 0.03563433885574341, 0.10156950354576111, -0.10754094272851944, 0.048415880650281906, -0.005412707105278969, -0.03748643398284912, -0.04531840980052948, -0.020956704393029213, -0.01512953545898199, -0.13855361938476562, -0.014042750000953674, 0.03619908541440964, 0.0266337301582098, 0.06208884343504906, 0.02799343690276146, 0.03020545095205307, 0.012826381251215935, 0.03090348280966282, 0.017883161082863808, -0.02812720090150833, 0.015250066295266151, 0.010228078812360764, -0.03715304657816887, 0.007403715047985315, -0.053107090294361115, -0.003843872807919979, -0.0031093833968043327, -0.05435499921441078, -0.005825411062687635, -0.03216357156634331, 0.0034422476310282946, -0.018760468810796738, -0.07158800959587097, -0.007808721624314785, -0.010470549575984478, -0.05979137495160103, -0.0499708391726017, -0.04655487462878227, -0.021886439993977547, -0.09920399636030197, -0.00092429353389889, -0.0020630210638046265, -0.011129782535135746, 0.004006249364465475, 0.019054245203733444, 0.239332377910614, 0.0014037721557542682, 0.01201277133077383, 0.02864292822778225, 0.032944705337285995, -0.01759001985192299, 0.04761096090078354, -0.006441587116569281, -0.029633965343236923, -0.05621771141886711, 0.05502260848879814, -0.0369768962264061, -0.02528245560824871, -0.044156234711408615, -0.039266712963581085, -0.09146986901760101, -0.03164801746606827, 0.031132206320762634, 0.028707120567560196, 0.03504285216331482, 0.0034676005598157644, 0.08982875943183899, 0.026813801378011703, -0.02328450046479702, -0.03763146698474884, -0.02314394898712635, 0.041697822511196136, -0.040606893599033356, 0.010336881503462791, 0.03992931544780731, 0.0009934346890076995, -0.05423825606703758, -0.06247824430465698, 0.025234373286366463, 0.03416832163929939, -0.012826837599277496, -0.030800314620137215, 0.029413718730211258, 0.03523237630724907, -0.029508648440241814, 0.025556473061442375, 0.08387293666601181, -0.11817444115877151, 0.021334121003746986, -0.024163566529750824, 0.281585693359375, 0.04223142936825752, -0.02299163118004799, -0.016375018283724785, -0.036240968853235245, -0.029323305934667587, 0.040331918746232986, -0.05970326438546181, -0.021311946213245392, 0.06749514490365982, 0.005265476647764444, -0.016965162009000778, -0.002045352477580309, -0.0030123447068035603, -0.01766929402947426, -0.044154807925224304, 0.008951152674853802, -0.011712673120200634, -0.026812871918082237, -0.024433095008134842, -0.021747730672359467, -0.08477217704057693, 0.03281547501683235, 0.04723711311817169, 0.02162821777164936, 0.0161579679697752, 0.02334986999630928, -0.0320814773440361, 0.002055161166936159, -0.010221453383564949, -0.0072540100663900375, 0.009113704785704613, 0.022609584033489227, -0.0475110225379467, 0.0203881673514843, -0.009290973655879498, 0.02828490547835827, -0.002156757051125169, -0.0178351029753685, 0.01652209274470806, 0.006365146487951279, 0.04594910144805908, 0.05036228150129318, 0.04491531103849411, 0.0238388329744339, 0.07427318394184113, -0.01652822084724903, -0.009776677936315536, -0.004870920442044735, 0.0037298689130693674, -0.01847398839890957, 0.11226329952478409, 0.033285826444625854, -0.002825341187417507, 0.0011488565942272544, -0.0014274787390604615, 0.011719453148543835, -0.024429280310869217, -0.077412448823452, 0.006473013665527105, 0.05750805512070656, 0.053519923239946365, 0.02147221937775612, 0.002660454250872135, 0.05899087339639664, -0.09056379646062851, -0.16760405898094177, -0.006256908178329468, 0.2032516747713089, -0.012696392834186554, -0.01722072623670101, 0.2516847848892212, -0.016873452812433243, -0.049651987850666046, 0.10208303481340408, -0.057721395045518875, -0.2267172932624817, 0.13551737368106842, 0.18937908113002777, 0.19357840716838837, 0.1499413549900055, 0.04072682186961174, 0.034591011703014374, 0.03884550929069519, 0.19198523461818695, -0.08784053474664688, -0.12900441884994507, 0.013371882028877735, 0.04789598658680916, 0.10586894303560257, -0.0265644658356905, 0.02967384085059166, -0.20026326179504395, 0.09659118950366974, 0.11810362339019775, -0.17662976682186127, 0.02212417684495449, 0.06714184582233429, -0.14396965503692627, 0.05940568819642067, -0.24701239168643951, -0.15485933423042297, -0.13155409693717957, -0.05865858867764473, -0.12986016273498535, 0.0098599037155509, -0.03983808308839798, -0.017030948773026466, -0.1524094194173813, 0.02873062714934349, 0.06345947086811066, -0.08517690747976303, 0.0013250549091026187, 0.13194672763347626, 0.22466342151165009, 0.03202051296830177, 0.13259242475032806, 0.3419283926486969, 0.4253191351890564, 0.04451536759734154, 0.3302530348300934, -0.00834216084331274, 0.016182895749807358, 0.023319508880376816, 0.10003389418125153, 0.002031574724242091, -0.02651708386838436, 0.05043042451143265, 0.04213511943817139, 0.014059705659747124, -0.04874280467629433, -0.005666482262313366, -0.21516075730323792, -0.08754066377878189, -0.09542711079120636, 0.19580382108688354, -0.06145523861050606, -0.13308387994766235, -0.18794794380664825, 0.034481924027204514, -0.16383373737335205, -0.07471568882465363, -0.021291520446538925, 0.18964022397994995, 0.05343594402074814, 0.07918547093868256, 0.008351078256964684, 0.12115257233381271, 0.08379599452018738, 0.10292905569076538, 0.1726079285144806, 0.04451066255569458, 0.11406733840703964, 0.012245029211044312, 0.03397204354405403, 0.04804585874080658, -0.011025723069906235, 0.10461992770433426, -0.046581611037254333, -0.05173066258430481, -0.03383008390665054, -0.020337728783488274, 0.05168917775154114, 0.005367896985262632, -0.014005506411194801, -0.06600429117679596, -0.05689132958650589, -0.05544860288500786, -0.07038814574480057, -0.11988050490617752, -0.04314634948968887, -0.04889243096113205, -0.004665721207857132, 0.03589782491326332, 0.15163439512252808, -0.058310240507125854, 0.1311173439025879, 0.17364495992660522, 0.18322792649269104, 0.22679787874221802, 0.21230466663837433, 0.011876549571752548, 0.031093990430235863, 0.04405894875526428, 0.03675860911607742, 0.07823747396469116, 0.10512809455394745, 0.11971520632505417, -0.01134500652551651, -0.02212665043771267, -0.025524388998746872, -0.07190056890249252, 0.033075399696826935, 0.07962463051080704, 0.018083084374666214, -0.016887657344341278, 0.0014117887476459146, 0.006006668321788311, -0.015725085511803627, 0.09468179196119308, -0.014612062834203243, 0.016540998592972755, 0.0033112666569650173, 0.006465069949626923, -0.03197835385799408, 0.12794843316078186, 0.020498421043157578, 0.0007557523204013705, -0.029621073976159096, -0.0022518280893564224, 0.0012671718141064048, 0.08203793317079544, -0.026079345494508743, -0.016959574073553085, -0.04072214290499687, -0.05778932571411133, -0.03583904355764389, 0.022044191136956215, -0.03054003417491913, -0.03355017676949501, -0.04824112355709076, -0.028002433478832245, -0.013597238808870316, -0.039256565272808075, -0.03097892925143242, -0.006158136762678623, -0.045775022357702255, -0.04620642215013504, 