{"version": "0.7.0", "metadata": {"date": {"year": 2026, "month": 6, "day": 29, "hour": 17, "minute": 2, "second": 26}, "loudness": -20.589568881769125, "gain": 0.30395778068418317, "training": {"settings": {"ignore_checks": false}, "data": {"latency": {"manual": null, "calibration": {"algorithm_version": 1, "delays": [-16], "safety_factor": 1, "recommended": -17, "warnings": {"matches_lookahead": false, "disagreement_too_high": false, "not_detected": false}}}, "checks": {"version": 3, "passed": true}}, "validation_esr": null}}, "architecture": "SlimmableContainer", "config": {"submodels": [{"max_value": 0.5, "model": {"version": "0.7.0", "metadata": {"date": {"year": 2026, "month": 6, "day": 29, "hour": 17, "minute": 2, "second": 25}, "loudness": -20.64455488183016, "gain": 0.3053790934271285}, "architecture": "WaveNet", "config": {"layers": [{"input_size": 1, "condition_size": 1, "head": {"out_channels": 1, "kernel_size": 16, "bias": true}, "channels": 3, "kernel_sizes": [6, 6, 6, 6, 6, 6, 6, 6, 6, 6, 6, 6, 6, 6, 15, 15, 6, 6, 6, 6, 6, 6, 6], "dilations": [1, 3, 7, 17, 41, 101, 239, 1, 3, 7, 17, 41, 101, 239, 1, 13, 1, 3, 7, 17, 41, 101, 239], "activation": [{"type": "LeakyReLU", "negative_slope": 0.01}, {"type": "LeakyReLU", "negative_slope": 0.01}, {"type": "LeakyReLU", "negative_slope": 0.01}, {"type": "LeakyReLU", "negative_slope": 0.01}, {"type": "LeakyReLU", "negative_slope": 0.01}, {"type": "LeakyReLU", "negative_slope": 0.01}, {"type": "LeakyReLU", "negative_slope": 0.01}, {"type": "LeakyReLU", "negative_slope": 0.01}, {"type": "LeakyReLU", "negative_slope": 0.01}, {"type": "LeakyReLU", "negative_slope": 0.01}, {"type": "LeakyReLU", "negative_slope": 0.01}, {"type": "LeakyReLU", "negative_slope": 0.01}, {"type": "LeakyReLU", "negative_slope": 0.01}, {"type": "LeakyReLU", "negative_slope": 0.01}, {"type": "LeakyReLU", "negative_slope": 0.01}, {"type": "LeakyReLU", "negative_slope": 0.01}, {"type": "LeakyReLU", "negative_slope": 0.01}, {"type": "LeakyReLU", "negative_slope": 0.01}, {"type": "LeakyReLU", "negative_slope": 0.01}, {"type": "LeakyReLU", "negative_slope": 0.01}, {"type": "LeakyReLU", "negative_slope": 0.01}, {"type": "LeakyReLU", "negative_slope": 0.01}, {"type": "LeakyReLU", "negative_slope": 0.01}], "bottleneck": 3, "head1x1": {"active": false, "out_channels": 1, "groups": 1}, "layer1x1": {"active": true, "groups": 1}, "groups_input": 1, "groups_input_mixin": 1, "conv_pre_film": {"active": false, "shift": true, "groups": 1}, "conv_post_film": {"active": false, "shift": true, "groups": 1}, "input_mixin_pre_film": {"active": false, "shift": true, "groups": 1}, "input_mixin_post_film": {"active": false, "shift": true, "groups": 1}, "activation_pre_film": {"active": false, "shift": true, "groups": 1}, "activation_post_film": {"active": false, "shift": true, "groups": 1}, "layer1x1_post_film": {"active": false, "shift": true, "groups": 1}, "head1x1_post_film": {"active": false, "shift": true, "groups": 1}, "gating_mode": ["none", "none", "none", "none", "none", "none", "none", "none", "none", "none", "none", "none", "none", "none", "none", "none", "none", "none", "none", "none", "none", "none", "none"], "secondary_activation": [null, null, null, null, null, null, null, null, null, null, null, null, null, null, null, null, null, null, null, null, null, null, null], "slimmable": null}], "head": null, "head_scale": 0.003631681604131918}, "weights": [-0.19206026196479797, -0.632867693901062, -1.1479507684707642, 0.19184985756874084, 0.07504002004861832, 0.2031870186328888, 0.05306420475244522, -0.22976507246494293, -0.126034677028656, 0.19481228291988373, -0.0159537885338068, 0.26799243688583374, 0.07177156209945679, -0.5214783549308777, -0.16943411529064178, 0.20048290491104126, 0.16803336143493652, 0.22300991415977478, 0.409618616104126, -0.6206894516944885, -0.03047250211238861, 0.019159112125635147, 0.004525091033428907, 0.0872628316283226, -0.034102361649274826, -0.11282813549041748, -0.04117137938737869, 0.09726229310035706, 0.012524677440524101, 0.25545480847358704, -0.11214464157819748, -0.38355880975723267, -0.08976417034864426, 0.17773272097110748, 0.04810241609811783, 0.41181811690330505, -0.09785297513008118, -0.4504210352897644, -0.14731641113758087, 0.09186740219593048, 0.018413806334137917, 0.049531418830156326, -0.055772215127944946, -0.09654054045677185, -0.012910270132124424, 0.15317991375923157, 0.18455758690834045, 0.09726662933826447, -0.005483645014464855, -0.04919443652033806, -0.035948555916547775, 0.13902102410793304, 0.15506194531917572, 0.23492474853992462, -0.0425562746822834, -0.21378463506698608, -0.1799144595861435, 0.29831403493881226, -0.29825812578201294, -0.0051362598314881325, 0.48051774501800537, 0.36482685804367065, 0.2671176791191101, -0.9292932152748108, 0.47277766466140747, -0.026367133483290672, -0.01147521659731865, 0.6280237436294556, -0.37098586559295654, -0.5078927874565125, 0.5173120498657227, -0.08955501019954681, 0.20594237744808197, -0.44076094031333923, -0.12726019322872162, -0.19551882147789001, 0.021997014060616493, 0.005399436689913273, -0.13700753450393677, -0.02993529476225376, -0.37081432342529297, 0.10003937780857086, 0.01595015823841095, 0.22553479671478271, -0.026779217645525932, -0.13891321420669556, -0.12990359961986542, 0.13564760982990265, 0.1401349902153015, -0.042271893471479416, 0.029178811237215996, -0.13476260006427765, -0.2718932032585144, 0.18242309987545013, -0.08875739574432373, -0.062449514865875244, -0.11928800493478775, 0.14854417741298676, -0.08853708207607269, -0.11806246638298035, -0.27985358238220215, -0.2847587764263153, -0.12348297983407974, -0.29223525524139404, -0.029766997322440147, -0.25227925181388855, -0.19612109661102295, -0.13088127970695496, 0.16306506097316742, -0.2531813085079193, -0.3154447674751282, -0.10707072168588638, 0.1874714344739914, -0.03756905347108841, 0.07011789083480835, 0.03329983726143837, -0.28117531538009644, -0.112137570977211, 0.1888095587491989, -0.11834046244621277, 0.16638991236686707, -0.18326029181480408, -0.31775006651878357, 0.21502454578876495, 0.22128817439079285, 0.21528609097003937, 0.0112498439848423, 0.24351993203163147, -0.20230001211166382, 0.38515979051589966, 0.352093368768692, 0.3022332191467285, -0.03068952076137066, 0.552990198135376, 0.9353116154670715, -0.3365422487258911, 0.23483914136886597, -0.562126636505127, 0.11935663223266602, 0.5757340788841248, -0.12855583429336548, -0.5146591663360596, -0.5940946340560913, -0.3077317476272583, 0.39231136441230774, -0.2627768814563751, 0.27447181940078735, 0.10912071168422699, -0.0824088603258133, -0.09157535433769226, -0.10691706836223602, -0.13377495110034943, -0.14134271442890167, 0.2932059168815613, 0.17994703352451324, 0.15500301122665405, 0.11481444537639618, 0.20051732659339905, 0.10511211305856705, 0.37166720628738403, 0.38042131066322327, 0.3328782320022583, 0.16488130390644073, 0.11848020553588867, 0.07052956521511078, -0.03969641774892807, -0.03710348531603813, -0.2730218470096588, -0.051721446216106415, -0.13086014986038208, -0.4941919445991516, 0.026088694110512733, -0.0568360835313797, -0.17973369359970093, 0.21084289252758026, -0.2557409405708313, -0.23304690420627594, -0.05360989272594452, -0.08485769480466843, 0.037030208855867386, -0.02577342838048935, 0.1954907327890396, -0.21450702846050262, 0.1727849245071411, 0.05894235521554947, 0.03005591407418251, 0.07192037254571915, 0.024672333151102066, 0.4265567660331726, 0.24272480607032776, 0.15576346218585968, 0.026252759620547295, 0.132354274392128, 0.09107065200805664, -0.23099611699581146, -0.11791520565748215, -0.15984492003917694, -0.15061688423156738, -0.1642950028181076, -0.2627609968185425, 0.24845358729362488, -0.13292181491851807, 0.028523214161396027, 0.14722217619419098, -0.31932082772254944, -0.04550760239362717, -0.9263181090354919, -0.242710143327713, 0.13993394374847412, 0.30263495445251465, -0.6310218572616577, -0.20881026983261108, 0.3526761829853058, 0.016381170600652695, -0.505266547203064, 0.4632123112678528, 0.19010044634342194, -0.17412236332893372, 0.40451785922050476, -0.05051497742533684, -0.017773138359189034, 0.10555306822061539, -0.004685638472437859, 0.019358009099960327, 0.07270454615354538, -0.19975046813488007, -0.18434008955955505, -0.04793627932667732, -0.11242004483938217, -0.10495010763406754, 0.1063564270734787, 0.4332309663295746, 0.18884310126304626, -0.6352419257164001, 0.1041591614484787, -0.208919495344162, 0.011373903602361679, 0.016065925359725952, 0.04827991873025894, 0.011356228962540627, -0.04320051521062851, 0.11782679706811905, 0.04975954443216324, -0.009187711402773857, 0.02237074263393879, 0.11419612169265747, 0.04315568134188652, 0.30520907044410706, 0.2145431488752365, -0.0006598449544981122, 0.038491860032081604, 0.05895008519291878, 0.03257007524371147, -0.04784148558974266, 0.05398178845643997, 0.11822038143873215, 0.13598310947418213, -0.057077664881944656, 0.06534090638160706, 0.3012158274650574, -0.003945726901292801, -0.09989836066961288, -0.19880695641040802, -0.3483060598373413, -0.0591307133436203, -0.22089101374149323, 0.21026265621185303, -0.027400914579629898, 0.0363193079829216, 0.18021021783351898, 0.0742722600698471, 0.07202040404081345, -0.561545729637146, -0.07291562110185623, -0.022090855985879898, 0.020725172013044357, -0.052877090871334076, -0.048220861703157425, -0.7322087287902832, 0.2961331307888031, 0.04263311251997948, -0.28731465339660645, -0.1080092042684555, -0.08524901419878006, -0.5247564911842346, -0.34893113374710083, 0.21932746469974518, 0.015664707869291306, -0.27598440647125244, -0.3074052929878235, 0.4317682087421417, -0.02382187731564045, -0.04635217785835266, 0.017513619735836983, -0.1411711722612381, 0.04531296342611313, -0.03194119781255722, 0.04679011180996895, -0.014377341605722904, 0.03085310384631157, -0.0010087303817272186, 0.13358119130134583, -0.08658725768327713, -0.043827567249536514, -0.0029204171150922775, -0.08651868999004364, -0.17687289416790009, -0.15696842968463898, 0.11928228288888931, 0.11873890459537506, 0.22150467336177826, 0.05202239379286766, -0.02721766196191311, 0.1418602168560028, -0.19203364849090576, -0.2047090381383896, -0.2921121120452881, -0.08906369656324387, -0.15435591340065002, -0.2764040231704712, 0.05045777186751366, -0.0350763313472271, -0.09152591973543167, -0.11770398169755936, -0.2501269280910492, -0.14764580130577087, 0.2876044809818268, 0.019590921700000763, 0.03254787251353264, 0.021571360528469086, 0.04057573527097702, -0.027381164953112602, -0.30006733536720276, -0.019202986732125282, 0.00866206269711256, -0.04603663831949234, -0.10876280814409256, -0.07512695342302322, -0.020531676709651947, -0.0010915298480540514, -0.015432745218276978, 0.028763985261321068, 0.0544477216899395, -0.010848227888345718, -0.15258000791072845, -0.11133737117052078, -0.09567975997924805, 0.24698123335838318, -0.07912734150886536, 0.13871212303638458, 0.01912088133394718, 0.005468158051371574, 0.349189817905426, -0.057073939591646194, 0.24706609547138214, -0.04989558458328247, 0.03421151265501976, 0.007772452663630247, -0.42888566851615906, -0.3131791055202484, -0.26510268449783325, -0.056878045201301575, 0.2806318700313568, 0.10901512950658798, 0.15831851959228516, 0.1548270732164383, 0.10199730098247528, 0.05565912649035454, 0.05988335236907005, -0.1534591019153595, -0.2245304435491562, -0.2361915558576584, -0.1511021852493286, 0.012502902187407017, 0.014948800206184387, -0.03140697628259659, -0.04380112513899803, -0.04473896697163582, -0.026592165231704712, -0.1862611025571823, 0.28260961174964905, 0.18636250495910645, 0.10065698623657227, 0.13612432777881622, 0.1339159905910492, 0.16826342046260834, -0.697609007358551, -0.14035183191299438, -0.05191173776984215, -0.07675191760063171, -0.03094753623008728, -0.07882873713970184, 0.1477919965982437, -0.09086973965167999, -0.09429185837507248, -0.14391541481018066, -0.06739576160907745, -0.08286210894584656, -0.026913821697235107, -0.10530615597963333, -0.05205683037638664, -0.032655149698257446, -0.02035701274871826, 0.08293100446462631, 0.07380307465791702, 0.09857816994190216, 0.05691457539796829, 0.07836556434631348, 0.10949623584747314, 0.2831915318965912, 0.1035035103559494, 0.03306776285171509, 0.024802066385746002, -0.003125293180346489, -0.05082019045948982, -0.18758828938007355, 0.04437417909502983, -0.11275236308574677, 0.19090083241462708, -0.01397019624710083, 0.6215684413909912, 0.08550587296485901, -0.046411946415901184, 0.31907621026039124, 0.18301478028297424, -0.036873236298561096, 0.1712723970413208, -0.16763131320476532, -0.11707157641649246, -0.2974489629268646, -0.24932220578193665, 0.36259934306144714, -0.46768343448638916, -0.05976375192403793, -0.39400988817214966, 0.11191854625940323, 0.10558059066534042, 0.061729032546281815, 0.12343601882457733, 0.09606628865003586, 0.02822321653366089, -0.11456745862960815, -0.12507440149784088, -0.02687556855380535, -0.10947532206773758, 0.16434502601623535, -0.026476722210645676, -0.019033728167414665, -0.007537697441875935, -0.022961771115660667, -0.03164348751306534, -0.13705585896968842, 0.13422372937202454, 0.10233747959136963, 0.11375977843999863, 0.22611616551876068, 0.22119779884815216, 0.1301964521408081, -0.2866520285606384, -0.0799323245882988, -0.09946957975625992, -0.22754976153373718, -0.15407466888427734, -0.1029374971985817, 0.22641617059707642, -0.034262485802173615, -0.040599580854177475, -0.04462553560733795, -0.06296001374721527, -0.0634693130850792, 0.03048771433532238, 0.03147578239440918, 0.03818819299340248, 0.06399153918027878, 0.05883191525936127, 0.04685208573937416, 0.6803573966026306, -0.028860177844762802, -0.04115552455186844, -0.06072505936026573, -0.04969862848520279, -0.07113035023212433, -0.0010680968407541513, -0.009754602797329426, -0.008958140388131142, -0.014911709353327751, -0.01980697549879551, -0.009868727996945381, 0.2226157784461975, -0.025382768362760544, -0.09953892976045609, 0.24417437613010406, 0.14332592487335205, -0.05236337333917618, -0.10750163346529007, 0.11091601103544235, 0.2593189775943756, 0.4358402192592621, -0.09125262498855591, -0.004309245850890875, 0.1688358634710312, -0.046409688889980316, -0.36554116010665894, 0.2430683672428131, 0.23824821412563324, -0.35175108909606934, 0.032673005014657974, -0.16726143658161163, -0.012094208970665932, 0.053642984479665756, -0.36921003460884094, -0.35857969522476196, -0.18159201741218567, -0.055928509682416916, -0.013487775810062885, -0.09737256169319153, -0.20613551139831543, 0.09218711405992508, -0.0010540776420384645, 0.10032740235328674, -0.10260401666164398, 0.014795144088566303, -0.25392475724220276, -0.11547984182834625, 0.0020495380740612745, -0.10882044583559036, 0.18489842116832733, -0.10356365144252777, 0.07423846423625946, 0.16771185398101807, -0.377554327249527, -0.0036463486030697823, -0.05774707347154617, -0.12629123032093048, 0.06272538006305695, 0.21236738562583923, -0.18914808332920074, 0.035672660917043686, -0.02675413154065609, -0.13237117230892181, 0.1513538956642151, 0.12832531332969666, -0.3414585292339325, 0.02018051967024803, 0.030555734410881996, -0.008205506019294262, 0.10224269330501556, -0.2827051281929016, -0.2329891324043274, -0.2610221803188324, 0.02909529209136963, -0.1129300519824028, -0.16966134309768677, -0.05170156806707382, -0.13942639529705048, 0.16961614787578583, -0.07626380771398544, 0.006360609084367752, 0.21434372663497925, -0.3631501793861389, -0.12229720503091812, 0.08393444865942001, -0.07313860207796097, -0.10274312645196915, 0.1066378578543663, -0.2763458490371704, 0.42770156264305115, 0.3030349016189575, 0.21703793108463287, -0.302706241607666, 0.14466023445129395, -0.6008757948875427, -0.14152483642101288, 0.06424427777528763, -0.2241244912147522, -0.48267561197280884, -0.11180759966373444, -0.23729270696640015, 0.23893731832504272, -0.0058594453148543835, -0.09947032481431961, 0.09836845099925995, -0.01270927395671606, -0.18391139805316925, -0.39485612511634827, -0.1885235756635666, -0.1612081378698349, -0.10631567984819412, -0.12175518274307251, -0.07234117388725281, 0.0798574686050415, 0.19010160863399506, 0.12071027606725693, 0.2565917670726776, 0.012843930162489414, -0.19616182148456573, -0.5182569026947021, 0.06006137281656265, -0.05106469616293907, 0.0911092460155487, 0.020599396899342537, 0.008093497715890408, -0.15195010602474213, -0.0854000523686409, -0.032547708600759506, -0.2942502796649933, -0.2588728666305542, 0.1180381029844284, 0.02034672349691391, -0.038150474429130554, -0.015864694491028786, 0.16577062010765076, 0.23833882808685303, 0.028649255633354187, -0.16073592007160187, -0.09593512862920761, -0.1086345836520195, 0.048785217106342316, -0.12352033704519272, 0.23959054052829742, -0.08673395961523056, -0.10929139703512192, 0.12250184267759323, 0.14733441174030304, -0.13166791200637817, -0.045292604714632034, -0.027354229241609573, 0.009131723083555698, -0.10579390078783035, -0.10587136447429657, -0.008474670350551605, 0.2836337685585022, 0.28209570050239563, 0.11901582777500153, -0.005542726721614599, 0.28911247849464417, 0.6804860234260559, 0.41553425788879395, -0.13100743293762207, -0.37547236680984497, -0.36824658513069153, 0.2410300374031067, 0.05030019208788872, -0.46899038553237915, -0.03802984580397606, -0.5603580474853516, -0.06664060801267624, -0.034349359571933746, 0.15219654142856598, 0.22030699253082275, 0.16002678871154785, -0.021771885454654694, -0.034640997648239136, -0.03485256806015968, 0.05182268097996712, -0.054010845720767975, -0.4691044092178345, 0.032941773533821106, -0.11937626451253891, -0.17929093539714813, 0.012510685250163078, -0.04513903707265854, 0.2737712264060974, -0.005526253953576088, 0.056332048028707504, 0.09358257055282593, -0.045863114297389984, 0.05108840763568878, -0.35590511560440063, -0.012689747847616673, -0.06981968134641647, -0.02746259607374668, -0.05543083697557449, -0.11210796982049942, -0.6220133900642395, 0.04348759353160858, 0.07036039233207703, 0.10936760902404785, -0.01162070780992508, 0.058694493025541306, 0.1256566196680069, -0.01394710224121809, 0.002195861656218767, -0.04445507004857063, 0.005421550013124943, 0.0451149046421051, -0.2840164303779602, 0.018935514613986015, -0.06194428727030754, -0.023502882570028305, -0.0737733244895935, 0.1739358752965927, 0.10062331706285477, 0.016912858933210373, -0.0272785946726799, -0.012462924234569073, 0.20523996651172638, 0.24906840920448303, -0.0645654946565628, -0.05193888768553734, 0.06298279762268066, 0.03783999755978584, -0.02975723147392273, 0.2270374894142151, 0.022359471768140793, -0.6099883913993835, -0.6695700287818909, -0.016975298523902893, -0.16690656542778015, -0.44804322719573975, 0.016770130023360252, 0.32009831070899963, 0.34357550740242004, -0.32264673709869385, 0.23554447293281555, 0.45718979835510254, -0.11146818846464157, 0.527367353439331, 0.8247079253196716, -0.1056952252984047, 0.16715773940086365, 0.24301758408546448, 0.5019359588623047, 0.030386656522750854, 0.006241900380700827, 0.031227577477693558, 0.09784087538719177, 0.11313565820455551, 0.35242968797683716, -0.14946362376213074, -0.026993460953235626, 0.013682098127901554, -0.12483064830303192, 0.06087323650717735, -0.3192494213581085, -0.009950884617865086, 0.010543325915932655, -0.07772726565599442, -0.11825479567050934, -0.22334612905979156, -0.1575685292482376, -0.05556695535778999, -0.030495917424559593, -0.07048338651657104, -0.08044426143169403, -0.14093878865242004, -0.14881551265716553, -0.006989684887230396, 0.02575099654495716, -0.015225186944007874, -0.03344599902629852, 0.008773024193942547, 0.08561985939741135, 0.049536798149347305, 0.032301854342222214, 0.08632940798997879, 0.10760004818439484, 0.17684972286224365, -0.5450263023376465, 0.11356236785650253, 0.07419155538082123, 0.06292029470205307, 0.16107206046581268, 0.15756292641162872, 0.1334940493106842, -0.05811665579676628, 0.14772698283195496, 0.20199012756347656, -0.07983921468257904, 0.08844399452209473, -0.3722461462020874, -0.0771668329834938, -0.11712421476840973, -0.1714140623807907, -0.18927587568759918, -0.23818394541740417, 0.6810938119888306, -0.07598122954368591, -0.2559150159358978, 0.017964942380785942, -0.465810090303421, -0.03824470192193985, -0.45724451541900635, -0.43234142661094666, 0.15369439125061035, 0.41561082005500793, 0.6087274551391602, 0.2781565487384796, 0.5395671725273132, 0.16813236474990845, 0.2809808552265167, -0.36945101618766785, 0.3299539387226105, 0.33991894125938416, -0.4694176912307739, 0.04194106534123421, 0.08521603792905807, 0.017166588455438614, 0.07551248371601105, -0.026247767731547356, 0.17361445724964142, -0.13120466470718384, -0.08599849045276642, -0.05031989514827728, -0.13082940876483917, -0.21499507129192352, 0.050454311072826385, 0.016629785299301147, -0.0325004942715168, 0.004491889849305153, 0.025278780609369278, 0.05287610739469528, -0.14552509784698486, 0.06418760120868683, 0.016497207805514336, -0.08224914968013763, -0.03921611234545708, -0.1411227434873581, 0.06193414703011513, 0.12348131835460663, 0.011634360067546368, 0.044311754405498505, 0.10787574201822281, 0.13713493943214417, -0.026048382744193077, -0.09705537557601929, -0.01050630770623684, 0.032042499631643295, -0.004057034850120544, -0.034698329865932465, 0.0015582629712298512, 0.10120785981416702, 0.1224438026547432, -0.011808216571807861, -0.014617067761719227, -0.2274085432291031, 0.42006033658981323, -0.07099244743585587, -0.08840607851743698, 0.06420870125293732, 0.034347936511039734, 0.29506543278694153, -0.0426044762134552, -0.06921467185020447, -0.06879204511642456, -0.02887900173664093, -0.01130893174558878, -0.06691098213195801, 0.40633320808410645, -0.1155124381184578, -0.21313661336898804, 0.14901462197303772, 0.1965159922838211, -0.27164414525032043, -0.2696683406829834, -0.2666890323162079, -0.19143332540988922, 0.1349293440580368, -0.1693781465291977, 0.19375285506248474, 0.4563586115837097, 0.3630580008029938, 0.08474178612232208, -0.08429001271724701, -0.25679150223731995, 0.00882934220135212, -0.3431551158428192, 0.004425607156008482, 0.01019290555268526, 0.01156827062368393, 0.047194115817546844, 0.017015207558870316, -0.3694628179073334, -0.01818416640162468, -0.012718966230750084, -0.016872379928827286, -0.04049227014183998, -0.0036855069920420647, -0.43461307883262634, 0.005976100452244282, -0.0012695498298853636, 0.008968429639935493, -0.017827782779932022, -0.01280430518090725, -0.35052499175071716, 0.06390931457281113, -0.009993215091526508, 0.049740955233573914, 0.11282609403133392, 0.19179625809192657, -0.2074996680021286, 0.012284038588404655, 0.12142987549304962, 0.07656529545783997, -0.0072151352651417255, -0.08579330146312714, 0.09361431747674942, -0.05617068335413933, -0.08062233775854111, -0.06528034061193466, -0.02235792763531208, 0.0274007860571146, -0.033214617520570755, 0.0639459416270256, 0.15435750782489777, 0.13949206471443176, -0.01563226617872715, -0.0591653548181057, 0.05549273267388344, -0.11710060387849808, -0.23512762784957886, -0.18434034287929535, 0.04328546300530434, 0.22282014787197113, -0.10270232707262039, 0.05466767027974129, 0.10710427910089493, 0.03605065122246742, -0.05361803621053696, -0.3705366551876068, 0.0024182964116334915, 0.4014810621738434, 0.24556569755077362, 0.2287399172782898, 0.32293152809143066, 0.502902626991272, -0.05178610235452652, -0.14770086109638214, 0.21387390792369843, 0.03608431667089462, 0.31110215187072754, -0.09213732928037643, -0.15435759723186493, -0.45707011222839355, -0.07828883081674576, 0.031783051788806915, 0.05956924706697464, -0.7838233709335327, 0.3154089152812958, 0.00755501352250576, 0.0012514604022726417, 0.009085734374821186, -0.026122139766812325, -0.0013907296815887094, -0.3925268352031708, 0.00012682838132604957, 0.002867909846827388, 0.003606276586651802, 0.02478407509624958, -0.01803409308195114, -0.23998194932937622, -0.0066539994440972805, -0.0004086571861989796, -0.010969623923301697, 0.010166608728468418, 0.01129945833235979, -0.22513167560100555, 0.010627666488289833, 0.026622094213962555, 0.04804082214832306, 0.026903806254267693, 0.05706740915775299, -0.4003105163574219, -0.008785665035247803, -0.018700478598475456, -0.03507177531719208, -0.024180812761187553, -0.04387716203927994, -0.4207083284854889, -0.0042067477479577065, -0.015709536150097847, -0.024056654423475266, -0.010155167430639267, -0.042708493769168854, -0.3672586679458618, 0.005502854473888874, 0.024324437603354454, -0.06622852385044098, -0.04779461771249771, -0.14631308615207672, 0.10216548293828964, 0.020446661859750748, -0.028147855773568153, -0.03994308039546013, -0.10279373824596405, -0.07708907127380371, -0.3250410258769989, -0.013743069022893906, -0.010520555078983307, 0.07475874572992325, 0.08948636800050735, 0.13736669719219208, -0.04054425284266472, 0.13580331206321716, 0.23140691220760345, 0.03343193605542183, 0.06229614093899727, 0.40218937397003174, 0.1805562674999237, 0.02981537953019142, -0.43166032433509827, -0.17814791202545166, 0.17397087812423706, -0.06532316654920578, 0.2236393541097641, -0.6122168898582458, -0.4014967679977417, 0.04454595223069191, 0.12097771465778351, -0.5092849731445312, -0.5109723210334778, 0.0687563493847847, 0.15904976427555084, 0.03819025307893753, 0.12948660552501678, -0.07404868304729462, -0.11466732621192932, 0.10719285160303116, -0.13234946131706238, 0.05805201455950737, 0.030787330120801926, -0.15242809057235718, -0.6607511043548584, -0.4993484318256378, 0.17693756520748138, 0.22172991931438446, -0.029409725219011307, -0.061972495168447495, -0.04370051994919777, -0.1587965041399002, 0.01603463850915432, -0.005407305434346199, -0.06780686974525452, 0.07180390506982803, 0.020090686157345772, -0.2059536725282669, -0.24596372246742249, -0.3904348909854889, -0.40289390087127686, -0.1772196739912033, -0.24310636520385742, -0.05679837614297867, 0.058503516018390656, -0.09442576766014099, -0.059420812875032425, 0.04699176549911499, 0.04637938365340233, 0.04675256460905075, -0.059937819838523865, 0.10219281166791916, 0.10060624033212662, -0.12622493505477905, -0.803713321685791, -0.6879240274429321, 0.21180270612239838, 0.038271110504865646, -0.05803762748837471, -0.12274337559938431, 0.006930160336196423, -0.008533520624041557, 0.0750773549079895, 0.0310874842107296, -0.047962773591279984, 0.028686871752142906, -0.09077995270490646, -0.15101312100887299, -0.11391320079565048, -0.3025195896625519, -0.021284189075231552, -0.06557460129261017, -0.18008321523666382, 0.0812111347913742, -0.0369790643453598, 0.01804562285542488, 0.053675636649131775, -0.05891402065753937, -0.13113035261631012, 0.0031469196546822786, -0.15133517980575562, -0.06518719345331192, 0.15067452192306519, 0.08512886613607407, 0.15298974514007568, 0.2081586718559265, -0.020565764978528023, 0.020531008020043373, 0.07310251146554947, 0.11326760053634644, -0.11884603649377823, -0.07125170528888702, 0.06978341937065125, 0.053316302597522736, -0.10510977357625961, 0.11766152828931808, 0.14020375907421112, -0.0458688884973526, -0.22602196037769318, -0.10351923108100891, -0.11509064584970474, 0.005563395097851753, 0.12100476026535034, 0.10614757239818573, -0.01879095286130905, 0.06191736087203026, -0.06964366137981415, 0.15712693333625793, 0.15677830576896667, 0.20307263731956482, -0.16306602954864502, -0.06115910783410072, 0.1744605302810669, 0.44751954078674316, 0.32528558373451233, -0.2462581843137741, -0.5729445815086365, 0.5126709938049316, -0.0773387923836708, -0.09814546257257462, 0.005746368318796158, 0.02321590483188629, -0.014803113415837288, -0.04199991375207901, -0.2091420292854309, 0.12670131027698517, 0.15834452211856842, 0.008725273422896862, 0.1370222568511963, -0.00707155279815197, -0.2414768934249878, 0.0824931338429451, 0.30803415179252625, 0.0012243594974279404, -0.01747847907245159, -0.07719357311725616, -0.07615197449922562, 0.15257243812084198, 0.127813920378685, -0.08233940601348877, -0.3678896725177765, -0.2811248004436493, -0.05130457133054733, 0.25140881538391113, 0.36584702134132385, -0.39953935146331787, -0.8423017859458923, 0.1698252409696579, 0.31199881434440613, -0.5790560245513916, 0.24452412128448486, 0.6385522484779358, -0.14330022037029266, -0.173824280500412, -0.42899665236473083, 0.6143175959587097, -0.3642807602882385, 0.3033040463924408, -0.34567582607269287, -0.5800544023513794, 0.291880339384079, -0.08768575638532639, 0.13994120061397552, 0.25026267766952515, -0.2316099852323532, -0.005859814118593931, 0.12073762714862823, 0.11027421802282333, 0.14096297323703766, 0.12342046946287155, 0.15050825476646423, 0.14319275319576263, 0.067446768283844, 0.16189098358154297, 0.1256338357925415, 0.09657416492700577, 0.05369920656085014, -0.0037742694839835167, 0.011819068342447281, 0.10965245217084885, -0.22675104439258575, -0.11362133920192719, -0.05762804299592972, -0.04625209420919418, -0.06252676248550415, -0.06859668344259262, -0.13452817499637604, -0.013227871619164944, -0.09987328946590424, -0.01803269423544407, -0.05547545477747917, -0.01728164218366146, 0.12612584233283997, 0.16885803639888763, 0.10439082980155945, -0.16881638765335083, 0.09133756905794144, 0.07248122990131378, 0.038016945123672485, 0.009606805630028248, 0.027415402233600616, 0.138340562582016, 0.09575168043375015, 0.07025611400604248, 0.07379403710365295, 0.11133037507534027, 0.05853754281997681, 0.0008968875044956803, -0.04825252667069435, -0.1426011025905609, 0.37858420610427856, 0.0009646722464822233, 0.0007414911524392664, -0.0015317670768126845, -0.00567631796002388, -0.0068109361454844475, -0.008833926171064377, -0.017207404598593712, -0.004711547866463661, -0.021347172558307648, -0.026173599064350128, -0.025913478806614876, -0.05089903995394707, -0.05799723044037819, -0.03037702664732933, 0.32920870184898376, 0.041874781250953674, 0.026993481442332268, 0.024917418137192726, 0.021282220259308815, 0.03031943365931511, 0.03690545633435249, 0.0791822299361229, 0.036026403307914734, 0.06231885775923729, 0.0776531994342804, 0.11959552019834518, 0.09083908051252365, 0.10281423479318619, 0.18416139483451843, -0.5356141328811646, -0.022210143506526947, -0.0278773196041584, -0.018766803666949272, -0.016307596117258072, -0.013712797313928604, -0.023329095914959908, -0.04384593293070793, -0.05116671696305275, -0.0336010605096817, -0.056231800466775894, -0.074496328830719, -0.04842185229063034, -0.12748964130878448, -0.09644868969917297, 0.2384776771068573, -0.10149964690208435, -0.10551758110523224, -0.12697842717170715, -0.10530389100313187, -0.14066745340824127, -0.10718033462762833, -0.09999730437994003, -0.1435677707195282, -0.10541334748268127, -0.0930444747209549, -0.03922382742166519, 0.03368933126330376, -0.01208088081330061, -0.1031147688627243, 0.07803649455308914, 0.15727627277374268, 0.10763654857873917, 0.15309125185012817, 0.13075914978981018, 0.0508420355618, 0.10140791535377502, 0.11920013278722763, 0.04943665862083435, 0.07485666871070862, 0.037270285189151764, 0.07884588092565536, -0.0774938315153122, -0.04141382500529289, -0.1454671174287796, -0.3389244079589844, -0.03769468516111374, -0.032733235508203506, -0.09214586019515991, -0.07181689888238907, -0.14464110136032104, -0.13560271263122559, -0.13552920520305634, -0.15135174989700317, -0.15242978930473328, -0.08647093921899796, -0.04065250977873802, -0.04155164211988449, -0.0035887581761926413, -0.1769961714744568, 0.1842029094696045, -0.1069466769695282, -0.4066062867641449, 0.1871946156024933, 0.10586543381214142, -0.5452297329902649, -0.04212619364261627, -0.22123976051807404, -0.12692143023014069, 0.06517589092254639, -0.16968576610088348, 0.42539727687835693, 0.11308619379997253, -0.44384050369262695, 0.04632497578859329, 0.5080330967903137, 0.043093763291835785, -0.4491084814071655, 0.1448434740304947, -0.03427538275718689, -0.08364082127809525, -0.15275676548480988, -0.23835839331150055, -0.2920442819595337, -0.29510363936424255, -0.15430711209774017, -0.3016645908355713, -0.17427168786525726, -0.4286225736141205, -0.06168034300208092, -0.06272825598716736, 0.0317370668053627, 0.11946225166320801, -0.3964728116989136, -0.011785588227212429, 0.19197560846805573, 0.11499127745628357, 0.07571329176425934, -0.13950087130069733, 0.1646035760641098, 0.1569291651248932, 0.20522478222846985, 0.09060172736644745, -0.16794832050800323, -0.15135902166366577, -0.03222595900297165, -0.40952956676483154, -0.4010513424873352, 0.10124976933002472, 0.09884127974510193, 0.09698889404535294, -0.07355693727731705, 0.12460798025131226, 0.0045059435069561005, -0.1375255286693573, -0.1290813386440277, 0.04308564215898514, -0.01701345667243004, 0.2953416109085083, 0.10957802832126617, 0.31306302547454834, -0.11378703266382217, -0.26902154088020325, -0.10413046181201935, -0.24345119297504425, -0.30707013607025146, -0.8255968689918518, 0.062376245856285095, 0.2360367625951767, 0.08000054955482483, -0.0381709560751915, -0.10778213292360306, 0.18233075737953186, 0.13882586359977722, 0.28521960973739624, 0.2773066759109497, -0.12104417383670807, 0.05109613388776779, 0.12062292546033859, -0.23056001961231232, 0.28826263546943665, 0.17165231704711914, 0.2610219717025757, -0.6957796812057495, -0.08374402672052383, -0.6270196437835693, 0.37926506996154785, 0.13704602420330048, 0.005270559340715408, -0.07264535874128342, 0.41765543818473816, -0.22338947653770447, -0.20362132787704468, -0.1283802092075348, -0.12673546373844147, -0.6581186652183533, -0.171580970287323, -0.08058607578277588, -0.3424186110496521, -0.23709973692893982, -0.08405676484107971, -0.5072696805000305, 0.6815297603607178, 0.11374418437480927, -0.0281323604285717, -0.06023622676730156, 0.2263856828212738, 0.3652285039424896, -0.1646331250667572, -0.01229299046099186, 0.03298226371407509, 0.14301452040672302, -0.12905344367027283, 0.675459086894989, -0.5481342077255249, -0.027123693376779556, -0.028034405782818794, 0.05285417288541794, -0.11536168307065964, 0.14492200314998627, 0.11039804667234421, -0.009455567225813866, -0.09266547113656998, 0.06057306006550789, -0.09278310090303421, -0.5067707300186157, 0.4050491750240326, 0.028654983267188072, -0.16650627553462982, -0.03244363144040108, -0.18385711312294006, 0.14011165499687195, 0.1178363636136055, 0.0491003654897213, -0.02971574477851391, -0.10998346656560898, -0.33157312870025635, -0.6194589734077454, -1.128111481666565, 0.07311801612377167, 0.10438590496778488, 0.013366840779781342, -0.11423434317111969, -0.024085531011223793, 0.14007681608200073, 0.494493693113327, -0.36076876521110535, 0.2463071048259735, -0.5665303468704224, 0.27304574847221375, 0.3824661076068878, 0.2014916092157364, -0.7855954170227051, 0.24788984656333923, -0.5509247183799744, 0.5190953612327576, 0.38196372985839844, 0.31898683309555054, -0.2587254047393799, -0.5741171836853027, 0.2741311192512512, -0.27513235807418823, -0.1612469106912613, -0.0019719982519745827, -0.1111648827791214, -0.09857127815485, 0.10331719368696213, 0.1311710923910141, -0.2672382593154907, -0.353344202041626, -0.4219874143600464, -0.2592436671257019, -0.20294921100139618, -0.048146478831768036, 0.19819283485412598, -0.11305006593465805, -0.056292854249477386, -0.10515014827251434, -0.10185635089874268, -0.2335864156484604, 0.20394344627857208, 0.05135911703109741, 0.12114280462265015, 0.10849261283874512, -0.03172960877418518, -0.048982907086610794, 0.1345754712820053, 0.11127491295337677, 0.26354852318763733, 0.1245226263999939, 0.059457167983055115, 0.0558675117790699, 0.021129930391907692, -0.06066921725869179, -0.011512775905430317, -0.05047190189361572, -0.02041298896074295, 0.15907876193523407, -0.28365442156791687, 0.02217303030192852, 0.025516875088214874, 0.05520468205213547, 0.0256503876298666, 0.1565323919057846, 0.33387690782546997, -0.061849385499954224, -0.0011304091894999146, -0.14373856782913208, -0.022282570600509644, -0.0788048729300499, 0.04151438921689987, -0.006259102839976549, -0.017680535092949867, 0.015081942081451416, -0.04084185138344765, 0.0825231745839119, -0.1980990469455719, 0.2675853967666626, -0.1962898075580597, 0.2791021168231964, -0.35308268666267395, -0.07480350136756897, -0.061535876244306564, -0.18059112131595612, 0.8114142417907715, 0.3145518898963928, -0.31083279848098755, -0.05581158772110939, 0.11530905216932297, -0.37624070048332214, 0.11009463667869568, -0.41077110171318054, 0.44365066289901733, 0.38721126317977905, -0.037210457026958466, 0.06448450684547424, 0.06744228303432465, 0.108880415558815, 0.052939336746931076, 0.13208229839801788, -0.4285571575164795, -0.13046006858348846, -0.03417016938328743, -0.17694957554340363, -0.10204783827066422, -0.031244324520230293, -0.11882041394710541, -0.22681660950183868, -0.15320444107055664, -0.16416892409324646, -0.14781464636325836, -0.18429680168628693, 0.14254502952098846, -0.02197454683482647, -0.09986090660095215, -0.1708517223596573, -0.1895706057548523, -0.12051428854465485, -0.2565699815750122, -0.13618779182434082, -0.11175121366977692, -0.2557120621204376, -0.14042986929416656, -0.422076940536499, 0.47124654054641724, -0.05131852626800537, -0.08382046967744827, 0.02528623305261135, 0.03397997096180916, -0.05411939695477486, -0.21847359836101532, 0.028199555352330208, 0.07672824710607529, 0.10727355629205704, 0.10838788002729416, 0.07298273593187332, 0.20671670138835907, 0.08088362962007523, 0.11262884736061096, 0.26807913184165955, 0.29140597581863403, 0.17490680515766144, -0.30255234241485596, 0.0544012077152729, 0.038275040686130524, -0.006426054053008556, 0.009080677293241024, -0.03223560377955437, 0.05185028910636902, 0.22833144664764404, 0.18744654953479767, 0.1292516142129898, -0.10695846378803253, -0.29600706696510315, -0.11082154512405396, 0.569685161113739, -0.2791082561016083, 0.06650270521640778, 0.010913072153925896, -0.5706093907356262, 0.6816390752792358, -0.3173239827156067, 0.1191265806555748, -0.28628677129745483, -0.1112608015537262, -0.2704341411590576, -0.6279422640800476, -0.022693654522299767, 0.07398834079504013, 0.1552949845790863, 0.11119469255208969, 0.022085050120949745, -0.20091252028942108, -0.008037067949771881, 0.08694997429847717, 0.0012895760592073202, -0.018949132412672043, -0.07120174169540405, -0.09954535216093063, -0.11766786128282547, -0.15339738130569458, -0.21175351738929749, -0.11058574914932251, -0.11515206843614578, -0.013523463159799576, -0.07788917422294617, 0.009592300280928612, -0.011437640525400639, -0.06923659145832062, -0.16789285838603973, -0.10468869656324387, 0.13352620601654053, -0.2313542664051056, -0.18105879426002502, -0.13460296392440796, -0.2517971992492676, 0.097467340528965, -0.04290371015667915, 0.00516976835206151, -0.055533766746520996, 0.05899885669350624, 0.12454242259263992, -0.6863164901733398, -0.01396750658750534, 0.01656748726963997, 0.027454422786831856, -0.046355970203876495, -0.03616973012685776, 0.4652664363384247, 0.06144014000892639, -0.035909656435251236, 0.01501719281077385, 0.0831121951341629, 0.2511786222457886, -0.0847213864326477, -0.0025275053922086954, -0.017979571595788002, -0.020988518372178078, 0.0035746428184211254, -0.06134125217795372, -0.006721733137965202, 0.06285151839256287, -0.17494162917137146, 0.03413223847746849, -0.06372185796499252, 0.02730303630232811, -0.04322497546672821, 0.10033219307661057, 0.31829163432121277, 0.07658487558364868, 0.1594880074262619, -0.5579649806022644, 0.26681721210479736, -0.46115273237228394, 0.3473528325557709, 0.0884896069765091, -0.17996276915073395, -0.3158811330795288, -0.570151686668396, -0.012029838748276234, -0.01215656939893961, 0.03239807114005089, 0.03762606903910637, -0.05720485746860504, -0.24328967928886414, 0.10671527683734894, 0.045105691999197006, 0.19109506905078888, 0.33577775955200195, 0.33063453435897827, 0.01439632847905159, -0.11034969985485077, -0.10649000108242035, -0.16752196848392487, -0.13934344053268433, -0.287545770406723, -0.06890475004911423, 0.029787322506308556, 0.0718107745051384, 0.06350397318601608, 0.10497858375310898, -0.03739549219608307, -0.13229705393314362, -0.08895108103752136, -0.08397335559129715, 0.08560685068368912, 0.10311578959226608, 0.00811654794961214, -0.07227738201618195, 0.02563571371138096, 0.009982810355722904, -0.10800477117300034, -0.14222443103790283, -0.316841185092926, -0.6939222812652588, 0.016447924077510834, 0.0318918414413929, 0.0340547189116478, -0.04160669445991516, -0.03915613144636154, 0.48834142088890076, -0.1250612884759903, -0.17731733620166779, -0.21841029822826385, -0.3107663691043854, -0.2167736440896988, 0.0865660086274147, 0.08445291966199875, 0.08012911677360535, 0.10510042309761047, 0.14431096613407135, 0.2729370594024658, -0.2564253807067871, -0.020854361355304718, 0.286952406167984, 0.2339547723531723, -0.023627832531929016, 0.17152370512485504, -0.14908410608768463, -0.055237870663404465, -0.31034424901008606, -0.07940270751714706, 0.10818037390708923, 0.11325434595346451, -0.05570455640554428, -0.26460161805152893, -0.015006931498646736, 0.42346420884132385, -9.774270438356325e-06, 0.017458254471421242, 0.008205573074519634, -0.017441269010305405, -0.0047979336231946945, -0.012279031798243523, -0.031528912484645844, -0.031784217804670334, -0.08418562263250351, 0.027895843610167503, 0.09983304142951965, 0.07406924664974213, -0.052677594125270844, 0.31906408071517944, -0.06966913491487503, 0.012509887106716633, -0.11396197229623795, -0.08067779242992401, 0.0848270133137703, -0.25266021490097046, 0.02952652983367443, -0.0028915642760694027, 0.00891308207064867, 0.02159389667212963, 0.035970959812402725, 0.031005049124360085, -0.016055116429924965, -0.020364582538604736, -0.0058362120762467384, 0.04961535707116127, 0.0360708087682724, 0.158730149269104, -0.064494289457798, 0.01567978225648403, -0.009721202775835991, -0.06675444543361664, -0.08985623717308044, -0.14084568619728088, -0.450697124004364, 0.004673444665968418, -0.017033208161592484, -0.035256948322057724, -0.044265326112508774, -0.009803161956369877, 0.22066015005111694, 0.026281017810106277, 0.017842406406998634, 0.04181550070643425, 0.07764942198991776, -0.025351254269480705, 0.38655024766921997, -0.02079988270998001, -0.0022120263893157244, 0.024998078122735023, -0.009583432227373123, -0.010706918314099312, -0.026227300986647606, -0.008476389572024345, 0.21502982079982758, -0.07039814442396164, -0.03187596797943115, 0.032172370702028275, 0.033363524824380875, 0.4162098467350006, -0.00858832336962223, 0.5327888131141663, 0.11612158268690109, 0.18631941080093384, -0.07476914674043655, -0.32249006628990173, -0.3899204134941101, -0.36959829926490784, -0.3457287847995758, 0.4948616325855255, -0.35605674982070923, 0.0035664639435708523, 0.12376692146062851, 0.01625842973589897, 0.08641093224287033, 0.0574745275080204, -0.04945436120033264, -0.07119646668434143, -0.20745666325092316, -0.3700783848762512, -0.27612748742103577, -0.13481871783733368, -0.009763059206306934, 0.0023172362707555294, 0.04546087607741356, 0.09949152916669846, 0.07970486581325531, -0.08352682739496231, -0.0028139753267169, -0.07208982855081558, -0.02820190228521824, -0.06839275360107422, -0.22934864461421967, -0.12583677470684052, -0.0742601603269577, 0.001170324394479394, 0.08579151332378387, 0.1474170684814453, 0.028251588344573975, -0.08538522571325302, -0.12650416791439056, -0.05258642137050629, 0.015059223398566246, 0.01877593621611595, 0.01903681643307209, -0.011609218083322048, 0.04376444220542908, 0.016512049362063408, 0.2038576602935791, 0.07846707105636597, 0.1820819228887558, 0.36309322714805603, 0.3306070864200592, 0.05501258000731468, -0.056704990565776825, -0.05973498150706291, 0.013527457602322102, 0.08389266580343246, 0.07998568564653397, -0.06617483496665955, 0.0036316815229575083], "sample_rate": 48000}}, {"max_value": 1.0, "model": {"version": "0.7.0", "metadata": {"date": {"year": 2026, "month": 6, "day": 29, "hour": 17, "minute": 2, "second": 26}, "loudness": -20.589568881769125, "gain": 0.30395778068418317}, "architecture": "WaveNet", "config": {"layers": [{"input_size": 1, "condition_size": 1, "head": {"out_channels": 1, "kernel_size": 16, "bias": true}, "channels": 8, "kernel_sizes": [6, 6, 6, 6, 6, 6, 6, 6, 6, 6, 6, 6, 6, 6, 15, 15, 6, 6, 6, 6, 6, 6, 6], "dilations": [1, 3, 7, 17, 41, 101, 239, 1, 3, 7, 17, 41, 101, 239, 1, 13, 1, 3, 7, 17, 41, 101, 239], "activation": [{"type": "LeakyReLU", "negative_slope": 0.01}, {"type": "LeakyReLU", "negative_slope": 0.01}, {"type": "LeakyReLU", "negative_slope": 0.01}, {"type": "LeakyReLU", "negative_slope": 0.01}, {"type": "LeakyReLU", "negative_slope": 0.01}, {"type": "LeakyReLU", "negative_slope": 0.01}, {"type": "LeakyReLU", "negative_slope": 0.01}, {"type": "LeakyReLU", "negative_slope": 0.01}, {"type": "LeakyReLU", "negative_slope": 0.01}, {"type": "LeakyReLU", "negative_slope": 0.01}, {"type": "LeakyReLU", "negative_slope": 0.01}, {"type": "LeakyReLU", "negative_slope": 0.01}, {"type": "LeakyReLU", "negative_slope": 0.01}, {"type": "LeakyReLU", "negative_slope": 0.01}, {"type": "LeakyReLU", "negative_slope": 0.01}, {"type": "LeakyReLU", "negative_slope": 0.01}, {"type": "LeakyReLU", "negative_slope": 0.01}, {"type": "LeakyReLU", "negative_slope": 0.01}, {"type": "LeakyReLU", "negative_slope": 0.01}, {"type": "LeakyReLU", "negative_slope": 0.01}, {"type": "LeakyReLU", "negative_slope": 0.01}, {"type": "LeakyReLU", "negative_slope": 0.01}, {"type": "LeakyReLU", "negative_slope": 0.01}], "bottleneck": 8, "head1x1": {"active": false, "out_channels": 1, "groups": 1}, "layer1x1": {"active": true, "groups": 1}, "groups_input": 1, "groups_input_mixin": 1, "conv_pre_film": {"active": false, "shift": true, "groups": 1}, "conv_post_film": {"active": false, "shift": true, "groups": 1}, "input_mixin_pre_film": {"active": false, "shift": true, "groups": 1}, "input_mixin_post_film": {"active": false, "shift": true, "groups": 1}, "activation_pre_film": {"active": false, "shift": true, "groups": 1}, "activation_post_film": {"active": false, "shift": true, "groups": 1}, "layer1x1_post_film": {"active": false, "shift": true, "groups": 1}, "head1x1_post_film": {"active": false, "shift": true, "groups": 1}, "gating_mode": ["none", "none", "none", "none", "none", "none", "none", "none", "none", "none", "none", "none", "none", "none", "none", "none", "none", "none", "none", "none", "none", "none", "none"], "secondary_activation": [null, null, null, null, null, null, null, null, null, null, null, null, null, null, null, null, null, null, null, null, null, null, null], "slimmable": null}], "head": null, "head_scale": 0.003631681604131918}, "weights": [-0.5932818651199341, -0.16197462379932404, 0.13941602408885956, 0.705597996711731, -0.8138616681098938, -0.4312313199043274, 0.23472237586975098, 1.131839394569397, -0.06427792459726334, 0.11225845664739609, -0.08171525597572327, 0.05640857294201851, 0.34068620204925537, -0.09697948396205902, -0.04851594939827919, -0.040675826370716095, -0.13268491625785828, -0.06492696702480316, 0.07830739766359329, -0.15480929613113403, 0.01751563884317875, -0.042037367820739746, 0.05608968064188957, -0.031350377947092056, -0.07959800213575363, 0.05291401222348213, -0.06238975003361702, -0.0017036816570907831, 0.08399920910596848, -0.05926742032170296, -0.3048190176486969, 0.08952204138040543, -0.03906881436705589, 0.11187887191772461, -0.06559786945581436, 0.059375613927841187, 0.33104610443115234, -0.08706560730934143, 0.015418969094753265, 0.10349741578102112, -0.061812300235033035, 0.03597218915820122, 0.23224079608917236, -0.008743270300328732, -0.015896670520305634, -0.07874944806098938, 0.08237762749195099, -0.08625475317239761, -0.19578291475772858, 0.017857486382126808, 0.09725789725780487, -0.14857672154903412, 0.14419104158878326, 0.09339097887277603, -0.2854723334312439, 0.05016475170850754, -0.027809279039502144, -0.06646175682544708, 0.06267689168453217, -0.10709807276725769, -0.03928634896874428, 0.10507584363222122, 0.0035722374450415373, -0.022590575739741325, 0.03375379741191864, -0.0227340254932642, -0.020884782075881958, 0.04322700947523117, -0.00823597889393568, 0.018725628033280373, -0.03021184541285038, 0.013449269346892834, 0.016842929646372795, -0.036007359623909, 0.0436430424451828, 0.09394405782222748, -0.049719467759132385, 0.13120146095752716, 0.052601899951696396, -0.14093941450119019, -0.07712265849113464, -0.029348330572247505, 0.04974187910556793, -0.08684340864419937, -0.017876656726002693, 0.15330158174037933, -0.03827613592147827, -0.037888579070568085, 0.0443534329533577, -0.07440037280321121, -0.026058269664645195, 0.09153202176094055, 0.017343558371067047, 0.04255395382642746, -0.03203662484884262, 0.04827718436717987, 0.03522086888551712, -0.053749557584524155, 0.0684964507818222, 0.060301776975393295, -0.08428660780191422, 0.12045826762914658, 0.05583133175969124, -0.11910448968410492, -0.11090859770774841, 0.05669279396533966, -0.12123417109251022, 0.04008731245994568, 0.19441288709640503, -0.023366758599877357, -0.053288884460926056, 0.03892198204994202, -0.12395679205656052, -0.0164493340998888, 0.1077113151550293, 0.01921742968261242, 0.05074479058384895, -0.06280382722616196, 0.09397371113300323, -0.06375791132450104, -0.07489536702632904, -0.011675916612148285, 0.21747246384620667, -0.1302499622106552, 0.11256769299507141, 0.05599084496498108, -0.20452721416950226, 0.017468756064772606, -0.06258779764175415, -0.04023417830467224, -0.13270631432533264, -0.08627699315547943, 0.3249049782752991, -0.019561393186450005, -0.13330532610416412, 0.058928001672029495, -0.20235419273376465, 0.007378789130598307, 0.17418423295021057, -0.0322633795440197, 0.12890681624412537, -0.04664051905274391, 0.1245165690779686, -0.03445149585604668, -0.23157235980033875, -0.06099942326545715, 0.20650430023670197, 0.0167449489235878, 0.23009823262691498, -0.06043174862861633, -0.2946203351020813, -0.04309042915701866, 0.04392985999584198, 0.04407183825969696, 0.04497600346803665, 0.0318533293902874, 0.02475213073194027, 0.04235199838876724, 0.014461038634181023, 0.013476423919200897, 0.012432069517672062, 0.011361677199602127, 0.008913790807127953, 0.012451714836061, -0.012710971757769585, -0.011840435676276684, -0.010969897732138634, -0.010140364058315754, -0.008093870244920254, -0.011249309405684471, -0.062056656926870346, -0.046662867069244385, -0.051645658910274506, -0.05043882876634598, -0.03416519984602928, -0.05819060280919075, 0.06402355432510376, 0.049494192004203796, 0.0477045401930809, 0.0477558933198452, 0.038330286741256714, 0.0722113624215126, 0.035295527428388596, 0.034160975366830826, 0.031247736886143684, 0.02647869847714901, 0.0224923063069582, 0.029972750693559647, -0.02033744938671589, -0.01915535144507885, -0.01769474521279335, -0.016038108617067337, -0.012593038380146027, -0.01751650683581829, -0.08127409964799881, -0.09031306952238083, -0.07885915786027908, -0.05088699236512184, -0.07648078352212906, -0.11144235730171204, 0.04533122107386589, 0.02391473576426506, 0.046816784888505936, 0.054920878261327744, 0.059844713658094406, 0.02994026243686676, 0.018283220008015633, 0.01554667018353939, 0.01664603315293789, 0.01660456508398056, 0.007996574975550175, 0.012791577726602554, -0.01403392106294632, -0.012314633466303349, -0.012475384399294853, -0.012529549188911915, -0.005264344159513712, -0.00976879894733429, -0.0770317018032074, -0.01918204501271248, -0.059480223804712296, -0.034074392169713974, -0.030837848782539368, -0.051514871418476105, 0.06139512360095978, 0.02105446346104145, 0.05037158727645874, 0.07009616494178772, 0.03484584391117096, 0.05367302522063255, 0.02829093299806118, 0.03531553968787193, 0.024424592033028603, 0.05503273382782936, 0.02941504493355751, 0.026197180151939392, -0.02530837245285511, -0.020717201754450798, -0.021121710538864136, -0.024937009438872337, -0.024384979158639908, -0.019950266927480698, -0.08840499073266983, -0.06313765794038773, -0.026360895484685898, -0.03288431093096733, -0.1400662660598755, -0.08713913708925247, 0.28387197852134705, -0.01688525080680847, 0.2182629108428955, 0.06521589308977127, -0.3281477391719818, 0.09508699178695679, 0.11373506486415863, -0.0617264099419117, 0.061884526163339615, 0.0340815894305706, -0.21148091554641724, -0.023180391639471054, -0.06980657577514648, 0.10618807375431061, -0.0518672950565815, -0.01444897148758173, 0.17486119270324707, -0.028808260336518288, -0.09734232723712921, -0.05153880640864372, -0.24003168940544128, -0.1332385390996933, 0.37180835008621216, 0.0021811514161527157, 0.2516017556190491, -0.144504114985466, 0.1760856807231903, 0.09615553170442581, -0.25034958124160767, 0.0830959603190422, 0.22314099967479706, -0.07250130921602249, 0.11120695620775223, 0.023752592504024506, -0.300552636384964, 0.06267089396715164, -0.21534305810928345, 0.08892388641834259, -0.16236521303653717, -0.11138460785150528, 0.21565130352973938, -0.09752551466226578, -0.22077006101608276, 0.044809162616729736, -0.15298184752464294, -0.14071299135684967, 0.4024302363395691, 0.0852353647351265, -0.00016959993808995932, 0.00010643606219673529, -0.00018891136278398335, -0.00016056369349826127, 0.0002525348390918225, 0.00011730963888112456, -3.37317687808536e-05, 3.950923201045953e-05, -4.7869143600109965e-05, -3.832541187875904e-05, 8.368973794858903e-05, 4.859364707954228e-05, 2.7700956707121804e-05, -3.4955857699969783e-05, 4.180250471108593e-05, 3.335319343023002e-05, -7.380700117209926e-05, -4.442198769538663e-05, 0.000205661854124628, -0.00011993932275800034, 0.00023062268155626953, 0.0002009503950830549, -0.0002850895980373025, -0.0001259854034287855, -0.0002380032674409449, 0.0001332870015176013, -0.0002728825784288347, -0.00024335463240277022, 0.0003134415892418474, 0.00013228323950897902, -0.00011697450099745765, 8.364061795873567e-05, -0.00013369836960919201, -0.00011082883429480717, 0.00019451974367257208, 9.610737470211461e-05, 5.462696935865097e-05, -5.28530144947581e-05, 7.095909677445889e-05, 5.7512712373863906e-05, -0.00011553341755643487, -6.312692130450159e-05, 0.00031842623138800263, -0.00017417741764802486, 0.0004068504204042256, 0.0003861432778649032, -0.0003776236844714731, -0.00013721782306674868, -0.12870320677757263, 0.016716243699193, -0.008927601389586926, -0.1510622352361679, 0.22084929049015045, 0.06617894768714905, -0.044143471866846085, 0.022769933566451073, -0.1748288869857788, -0.10235771536827087, 0.12294204533100128, -0.038036685436964035, 0.03756038099527359, -0.0590631440281868, 0.06532902270555496, 0.010520217008888721, -0.1419883519411087, -0.006531442049890757, -0.005200356710702181, 0.07306244969367981, 0.012292513623833656, -0.02362954057753086, -0.31849953532218933, 0.02931077405810356, 0.0013306471519172192, 0.024453245103359222, -0.12323368340730667, -0.13113725185394287, 0.2737997770309448, -0.07253371924161911, 0.056247033178806305, -0.08107927441596985, -0.15237461030483246, -0.1325625330209732, 0.23702611029148102, 0.0557815320789814, 0.10684812813997269, -0.0998699739575386, 0.07212307304143906, 0.08959393203258514, -0.18969179689884186, 0.08937585353851318, 0.029842734336853027, -0.1048836037516594, 0.18021385371685028, 0.018172331154346466, -0.2455097883939743, -0.007471894845366478, 0.2300165444612503, 0.12143058329820633, 0.30491843819618225, -0.22401577234268188, -0.10595530271530151, 0.3730328381061554, -0.008178118616342545, 0.33750972151756287, -0.11635889112949371, -0.10121962428092957, -0.12296784669160843, -0.012267869897186756, -0.3415359854698181, 0.4148921072483063, -0.00013559711806010455, -0.5038664937019348, 0.02470511756837368, 0.11663015186786652, 0.2104368805885315, 0.02860751375555992, -0.043926648795604706, -0.3539268374443054, -0.0006210473948158324, 0.07824956625699997, 0.22435757517814636, -0.3558253347873688, 0.36693817377090454, 0.17149055004119873, 0.14841891825199127, -0.400824636220932, 0.00014068782911635935, 0.31187704205513, 0.2209414541721344, 0.20157402753829956, 0.555953323841095, -0.03645089641213417, -0.07448844611644745, -0.7204501032829285, -0.0011613558745011687, 0.2941974103450775, 0.39982324838638306, -0.12139101326465607, 0.10029957443475723, 0.009292424656450748, -0.09138698130846024, -0.00023609280469827354, -0.00010532871965551749, 0.16745686531066895, 0.09290394186973572, -0.1128312349319458, 0.10530508309602737, -0.07815053313970566, -0.07895302772521973, -0.06133231148123741, -0.0003536731528583914, 0.12407972663640976, 0.16635335981845856, 0.13953356444835663, 0.3453565835952759, -0.24527308344841003, -0.2629798650741577, 0.075495645403862, -1.0350159755034838e-05, -0.19947795569896698, -0.17982536554336548, 0.07457279413938522, -0.2668854594230652, 0.10444377362728119, 0.13952544331550598, 0.5693071484565735, -0.0007204088615253568, -0.40997040271759033, -0.3672924339771271, 0.0471525713801384, 0.14002041518688202, -0.17217661440372467, -0.19031503796577454, 0.02938738279044628, 0.0004044997040182352, -0.42566922307014465, -0.24991312623023987, 0.12071670591831207, -0.13583894073963165, -0.07678937166929245, -0.12613804638385773, -0.1665067821741104, 0.021262535825371742, 0.10964599996805191, -0.19592535495758057, -0.3353580832481384, -0.3030349314212799, -0.18204981088638306, -0.15871210396289825, 0.06741886585950851, -0.01572759449481964, 0.012911127880215645, 0.014699035324156284, -0.0363554023206234, 0.051505815237760544, 0.29576170444488525, 0.06051779165863991, -0.10618533194065094, -0.06744889169931412, -0.08945880830287933, -0.24806736409664154, -0.03228537738323212, 0.1087530106306076, 0.3683573305606842, 0.2237391620874405, -0.06110385060310364, 0.06672360748052597, -0.11169624328613281, -0.06537137925624847, -0.24750031530857086, -0.09245901554822922, 0.06629138439893723, 0.0326787605881691, 0.1869872659444809, -0.1384185403585434, -0.21131235361099243, -0.18194983899593353, -0.0493873655796051, -0.08229394257068634, 0.11181563138961792, 0.13592921197414398, 0.14066079258918762, 0.20745931565761566, 0.09920231252908707, 0.13558043539524078, -0.17969639599323273, 0.10654088854789734, 0.11088285595178604, 0.13445162773132324, -0.09370312094688416, -0.19856810569763184, -0.22085656225681305, -0.18774081766605377, 0.001498632482253015, 0.017709078267216682, -0.15754477679729462, -0.09434476494789124, -0.19788336753845215, 0.11062689870595932, 0.06700511276721954, 0.15715110301971436, 0.1722610890865326, 0.1639188975095749, -0.150079146027565, -0.23790590465068817, -0.29129430651664734, -0.12100812047719955, 0.1506453901529312, -0.07733260840177536, -0.22583988308906555, 0.1806405633687973, -0.3628959059715271, -0.09516612440347672, 0.2594456374645233, 0.17912939190864563, 0.23556335270404816, -0.013267222791910172, 0.22508761286735535, 0.1689521223306656, -0.08278068155050278, -0.0674663707613945, -0.31638452410697937, -0.01848660409450531, 0.10745885968208313, -0.031195132061839104, -0.0739569440484047, -0.01588802970945835, -0.19212941825389862, -0.25674059987068176, -0.14882871508598328, -0.17565852403640747, -0.04379342496395111, -0.06628646701574326, 0.1705746352672577, -0.08486686646938324, -0.20577824115753174, -0.22653524577617645, -0.14295253157615662, 0.08935558050870895, 0.2979389727115631, 0.012956008315086365, 0.13245370984077454, 0.030991675332188606, -0.07951388508081436, 0.060499563813209534, -0.008399245329201221, -0.023963475599884987, 0.024288063868880272, -0.02160945162177086, 0.05040757730603218, 0.01172815915197134, -0.05512763932347298, -0.017134999856352806, -0.11687301844358444, -0.11297077685594559, 0.004612957127392292, 0.11128223687410355, 0.034911178052425385, 0.04562550410628319, -0.14419519901275635, -0.11027345061302185, 0.13316909968852997, 0.011259154416620731, 0.0853792056441307, 0.03112972527742386, 0.0644669309258461, 0.15584786236286163, -0.10320093482732773, -0.031109729781746864, -0.07830046117305756, -0.03192079812288284, 0.07826267182826996, 0.06442886590957642, -0.039896853268146515, 0.0011657023569568992, -0.018599161878228188, 0.04997365176677704, 0.0563800148665905, 0.023560432717204094, 0.08113018423318863, -0.02299416996538639, 0.011079695075750351, -0.03406941890716553, -0.04266900196671486, -0.0862663984298706, 0.05809125304222107, -0.06713297218084335, 0.0296874288469553, 0.0010173170594498515, 0.0010838559828698635, 0.0008453738410025835, 0.000853757606819272, 0.0007031334098428488, 0.000670515582896769, -0.0008600709261372685, -0.0006975967553444207, -0.0008770003914833069, -0.0007961716619320214, -0.0007196578662842512, -0.0007552573224529624, 0.0009947004728019238, 0.0008642436587251723, 0.00033486797474324703, 0.0002907323359977454, 0.00024669902632012963, 0.000165209494298324, 0.00012706071720458567, 4.209642793284729e-05, -2.6136403903365135e-06, 6.598027539439499e-06, 0.00021189788822084665, 0.00014811960863880813, 0.00011779129272326827, 0.0002699119213502854, 0.00013960851356387138, 0.00012336144573055208, -7.198203820735216e-05, -0.0001219767946167849, 0.0007802864420227706, 0.0006988826207816601, 0.0004929813439957798, 0.00041319281444884837, 0.00028535648016259074, 0.0002457041700836271, -0.00039377473876811564, -0.0003774748183786869, 4.158812953392044e-05, 8.512788190273568e-05, 0.0002252854174003005, 0.00033406203147023916, 0.0010221799602732062, 0.0005488350288942456, 0.0005354933673515916, 0.0004511102451942861, 0.0006598641630262136, 0.0007096343906596303, -0.010858622379601002, 0.01980048418045044, -0.029617786407470703, -0.017920656129717827, -0.02151334658265114, -0.007501143030822277, -0.04551006481051445, -0.048544757068157196, -0.01449283491820097, 0.0011627780040726066, -0.05090971291065216, -0.1240948736667633, 0.06072745844721794, 0.012307548895478249, -0.07659183442592621, -0.044415850192308426, -0.09062685072422028, -0.18895551562309265, 0.007139576133340597, -0.031292129307985306, 0.031270962208509445, 0.04270290583372116, 0.00012237986084073782, -0.07726622372865677, -0.06221631169319153, -0.008878885768353939, 0.017644116654992104, 0.036406178027391434, 0.021050425246357918, 0.08161922544240952, -0.008204220794141293, 0.054176636040210724, 0.015240930952131748, 0.02901732362806797, 0.019839348271489143, 0.1070629432797432, -0.009046293795108795, 0.03130008280277252, 0.045743659138679504, 0.005320480093359947, 0.040561698377132416, 0.10739798098802567, 0.10002618283033371, 0.0693092942237854, -0.04210190102458, -0.08037841320037842, -0.07945103198289871, -0.060901910066604614, -0.056521639227867126, 0.03329635038971901, 0.04779420420527458, 0.008767749182879925, -0.09135749936103821, -0.11807733029127121, 0.0443994402885437, -0.013582436367869377, -0.04726315662264824, 0.026389431208372116, -0.09678199887275696, -0.024916553869843483, -0.09335161000490189, 0.033981211483478546, -0.03850506991147995, 0.13406270742416382, 0.22179056704044342, 0.18580013513565063, 0.02291698195040226, -0.019182821735739708, -0.1090826615691185, 0.11466823518276215, 0.13893941044807434, 0.23488429188728333, 0.026439165696501732, -0.00468961987644434, 0.10787932574748993, 0.13815125823020935, -0.13229133188724518, -0.10695377737283707, 0.017034024000167847, 0.06681077927350998, 0.10005715489387512, 0.020247019827365875, -0.04046104848384857, -0.05258091539144516, 0.008565246127545834, -0.10022713243961334, -0.0349811352789402, -0.12592031061649323, -0.051348377019166946, 0.09102591127157211, -0.19029799103736877, -0.1538715362548828, -0.040523238480091095, -0.18367785215377808, 0.15465599298477173, 0.06845244020223618, 0.05964428186416626, 0.06489074975252151, 0.08312223106622696, 0.012592271901667118, 0.03362414985895157, 0.033904168754816055, -0.041208792477846146, -0.06893844902515411, -0.07014927268028259, -0.06675814092159271, -0.1057610809803009, -0.06386137753725052, 0.01906583271920681, 0.0019076946191489697, 0.034172434359788895, 0.03590298071503639, -0.02073828876018524, 0.04508389160037041, 0.03480931371450424, 0.048918694257736206, 0.0343438982963562, 0.04358607158064842, 0.07402278482913971, 0.13424672186374664, -0.020346935838460922, 0.009360414929687977, 0.051768526434898376, 0.04968681558966637, -0.08903674781322479, -0.08951452374458313, 0.028154505416750908, 0.01949148438870907, 0.010972823947668076, 0.01250105258077383, 0.015801547095179558, -0.02438122034072876, 0.018574515357613564, 0.04278842359781265, 0.01112954132258892, 0.02220621146261692, 0.09617269039154053, 0.08814138919115067, 0.00915918592363596, 0.005817923229187727, 0.06160259246826172, 0.06011921539902687, 0.06462929397821426, 0.10176002234220505, 0.02387635037302971, 0.026129242032766342, 0.019266854971647263, 0.014274469576776028, -0.030137132853269577, 0.010510359890758991, 0.012458734214305878, 0.00811237096786499, -0.00016369056538678706, 0.014813689514994621, -0.00275043654255569, 0.0638589933514595, 0.027021560817956924, 0.013016249984502792, 0.06166244298219681, 0.08592492341995239, 0.008952386677265167, 0.04120872914791107, -0.007237032521516085, -0.016703683882951736, 0.00575540354475379, 0.02880784310400486, 0.023022158071398735, 0.039616577327251434, 0.023591376841068268, 0.02772476151585579, -0.017659176141023636, -0.03473232686519623, -0.04306085407733917, 0.030131181702017784, 0.03732464835047722, 0.012850608676671982, 0.005983689799904823, -0.00357230706140399, -0.010962906293570995, 0.005348543170839548, -0.02367987111210823, -0.026092613115906715, -0.03331996127963066, -0.04204041138291359, 0.009602982550859451, -0.05355948582291603, -0.013354787603020668, -0.04484088346362114, 0.05281151831150055, 0.08400801569223404, 0.09405134618282318, -0.04968288168311119, 0.0725596696138382, 0.02688882127404213, 0.06762810051441193, -0.02274709939956665, -0.03297596052289009, 0.0019304829183965921, -0.18120160698890686, -0.04095592349767685, -0.02754156105220318, 0.5403740406036377, 0.37976810336112976, 0.0004334827826824039, -0.11769221723079681, 0.6101750731468201, 0.47728782892227173, -0.00421160226687789, 0.3414427936077118, -0.21317636966705322, -0.0853813961148262, 0.0004003772628493607, -0.2113259732723236, -0.07397128641605377, -0.07345758378505707, 0.06329591572284698, 0.09214486181735992, -0.30990496277809143, -0.05773047357797623, 0.0004610884643625468, -0.09270482510328293, 0.2608439326286316, -0.15327826142311096, 0.09361609816551208, -0.011333988048136234, -0.3270675539970398, -0.20379596948623657, 0.0001858393516158685, -0.12690742313861847, -0.06010918319225311, -0.27223289012908936, 0.1448589563369751, -0.043321643024683, 0.12977245450019836, 0.14833326637744904, -0.0002333085285499692, 0.006685344502329826, 0.09037850052118301, -0.19127072393894196, 0.035539042204618454, -0.19289912283420563, 0.013629014603793621, 0.21926982700824738, -0.0007355962297879159, 0.02399364486336708, 0.12694646418094635, -0.004926907829940319, 0.037797510623931885, 0.04373445734381676, 0.0551878921687603, 0.0796319916844368, -0.0005829190486110747, -0.0722150132060051, 0.07806115597486496, -0.16921117901802063, 0.0002548274351283908, -0.36935514211654663, 0.4870937466621399, -0.05407430976629257, -0.0037393991369754076, 0.20571330189704895, 0.17113706469535828, -0.13563375174999237, -0.10042387247085571, 0.029982879757881165, 0.17340616881847382, 0.14335377514362335, 0.0012888656929135323, 0.02042672224342823, 0.26197224855422974, 0.05850108340382576, -0.018072012811899185, -0.05372164398431778, -0.03132408484816551, 0.1517447978258133, -0.11838193982839584, 0.1843806803226471, -0.1256222277879715, -0.0809895321726799, -0.1929861456155777, -0.013170899823307991, 0.0501747652888298, -0.03821951895952225, -0.0034219338558614254, -0.04010147601366043, 0.00800248421728611, -0.027337314561009407, -0.026363255456089973, 0.028645500540733337, 0.0005653101252391934, -0.031146137043833733, -0.047769077122211456, 0.004452697932720184, -0.09383223950862885, -0.11398416012525558, -0.06673195958137512, -0.05526676028966904, -0.06871139258146286, 0.013929943554103374, 0.022694895043969154, 0.09761251509189606, 0.02692028135061264, -0.006500951945781708, -0.0006706386338919401, -0.07754542678594589, 0.020050961524248123, -0.003491248469799757, 0.1624300479888916, 0.17567172646522522, 0.014188571833074093, -0.021531691774725914, 0.055635858327150345, 0.001881992444396019, 0.13931407034397125, 0.07178898900747299, 0.0813477486371994, -0.0644933357834816, 0.06115976348519325, 0.06298825144767761, 0.11275387555360794, 0.096478670835495, -0.008800534531474113, 0.18458613753318787, 0.045459724962711334, 0.010643510147929192, -0.03715920075774193, -0.12222477793693542, 0.014226146042346954, -0.023359769955277443, -0.12086261808872223, -0.020324239507317543, -0.00424971291795373, -0.15236085653305054, -0.1301705241203308, -0.021864211186766624, 0.037470221519470215, 0.1831115335226059, 0.11703765392303467, 0.10263199359178543, -0.23358449339866638, -0.06091775745153427, -0.17179061472415924, -0.1851927638053894, -0.022695502266287804, 0.10270695388317108, -0.19312100112438202, 0.19577641785144806, -0.01566292718052864, -0.022615116089582443, -0.29157742857933044, -0.05759727954864502, 0.18999475240707397, 0.12377040088176727, 0.14055182039737701, 0.19876199960708618, 0.11676431447267532, 0.14486584067344666, -0.25574129819869995, -0.0585719496011734, -0.06749364733695984, -0.1072038784623146, -0.07133104652166367, -0.02330981194972992, -0.2683478891849518, 0.0693257749080658, -0.140634223818779, 0.03820549324154854, 0.0024174621794372797, -0.06766530871391296, 0.20427970588207245, -0.15790557861328125, -0.11946558952331543, -0.11276372522115707, -0.09518764913082123, -0.001655266503803432, 0.31711456179618835, 0.05617789551615715, 0.055618613958358765, 0.03156736493110657, 0.07499253004789352, 0.11360856145620346, -0.02405869960784912, 0.003486988367512822, 0.027059383690357208, -0.021313784644007683, -0.032843466848134995, -0.014518555253744125, -0.12355135381221771, 0.002832177560776472, -0.0320134237408638, -0.06182624399662018, -0.03401170298457146, 0.03563980385661125, -0.13121537864208221, 0.05955085903406143, 0.0810212790966034, 0.0011869354639202356, -0.06880855560302734, 0.017642272636294365, 0.045231856405735016, 0.038306333124637604, 0.032797303050756454, 0.05447494238615036, 0.08734799176454544, -0.034041497856378555, -0.0217104684561491, 0.05228549614548683, 0.04606273025274277, 0.004513167776167393, 0.03964566811919212, 0.03614823520183563, 0.019176026806235313, 0.0922631248831749, 0.06707222759723663, 0.09141447395086288, 0.12252262979745865, 0.02436070144176483, 0.20231376588344574, -0.023312829434871674, 0.002881761407479644, -0.11304233223199844, -0.11248044669628143, 0.056123748421669006, 0.15395274758338928, -0.0030680920463055372, -0.02266298420727253, -0.020245172083377838, 0.070623978972435, -0.002540928777307272, 0.0031107880640774965, -0.012558667920529842, -0.028788214549422264, -0.046262722462415695, 0.020757833495736122, -0.011297234334051609, -0.009281618520617485, -0.030084919184446335, -0.032898228615522385, -0.03053073026239872, 0.02162301167845726, -0.022370338439941406, 0.0005188945797272027, 0.011993530206382275, 0.03549158200621605, 0.030955519527196884, -0.004536581691354513, 0.013161265291273594, 0.024121461436152458, 0.022002724930644035, 0.005131955724209547, -0.03268655389547348, -0.005955049302428961, -0.005859295837581158, -0.0015253585297614336, 0.011228939518332481, 0.009770465083420277, 0.0068076374009251595, 0.0184650681912899, -0.0037235578056424856, 0.002624750370159745, 0.05326889827847481, 0.07926210761070251, 0.06389684230089188, -0.05869655683636665, 0.028271103277802467, 0.027635125443339348, -0.017261095345020294, 0.045767609030008316, 0.09425393491983414, -0.025465281680226326, 0.0059715332463383675, 0.010018267668783665, -0.00701690511777997, 0.013976826332509518, 0.012873549945652485, 0.04934512823820114, -0.03896836191415787, -0.017387961968779564, 0.022590750828385353, 0.015170380473136902, 0.007953062653541565, 0.009064321406185627, -0.06715496629476547, -0.016732854768633842, 0.005455910228192806, 0.006666843313723803, 0.020789077505469322, 0.033304356038570404, -0.08027404546737671, 0.012317991815507412, 0.025005465373396873, -0.012275991961359978, -0.009681669995188713, -0.017823083326220512, 0.03725941479206085, 0.01361888274550438, 0.008783204481005669, -0.004691106267273426, 0.004557617008686066, -0.03900744765996933, -0.043743789196014404, 0.026698235422372818, -0.012165633961558342, -0.014851613901555538, -0.02068152092397213, -0.01610942743718624, 0.010894879698753357, 0.006430506240576506, 0.03336230292916298, -0.014824423007667065, 0.013016624376177788, -0.04128525033593178, 0.08187450468540192, 0.05034572631120682, -0.045647524297237396, -0.038762129843235016, -0.021476957947015762, -0.0003928827354684472, 0.07915797084569931, 0.012149139307439327, -0.10798922181129456, -0.12947040796279907, -0.06417923420667648, -0.23106814920902252, -0.13401775062084198, -0.05873066186904907, -0.03669149801135063, 0.026832779869437218, 0.017336489632725716, 0.004482146818190813, 0.05093545839190483, 0.26349687576293945, -0.1434289962053299, -0.13057483732700348, -0.16836832463741302, -0.1018064022064209, -0.29987210035324097, -0.20217707753181458, 0.055132292211055756, 0.0608234740793705, 0.12386929243803024, 0.1232418566942215, 0.0931396409869194, -0.06274381279945374, -0.15504296123981476, -0.008972416631877422, -0.04490937292575836, -0.1899307519197464, 0.027786046266555786, 0.25514277815818787, -0.05211972817778587, -0.13111281394958496, -0.08586806803941727, -0.05912444740533829, -0.18862007558345795, -0.10282894968986511, -0.17949585616588593, 0.048250604420900345, 0.09402483701705933, -0.022492850199341774, 0.11012247949838638, -0.07875209301710129, 0.10235419869422913, 0.1701531857252121, 0.15533068776130676, 0.09321173280477524, 0.10747256129980087, -0.16738484799861908, -0.09293846786022186, 0.07045291364192963, 0.03973598778247833, -0.14856299757957458, -0.021698767319321632, 0.0274642426520586, -0.03573375195264816, -0.0739249438047409, -0.06877399235963821, 0.019942298531532288, 0.014461192302405834, 0.0919780358672142, 0.09574593603610992, 0.12985622882843018, 0.033898331224918365, -0.10445133596658707, 0.011296285316348076, 0.0572468563914299, -0.014995113015174866, 0.044647715985774994, 0.058144476264715195, 0.0263297650963068, 0.13553528487682343, -0.009035862050950527, -0.05656478926539421, -0.09463844448328018, 0.00027244436205364764, -0.017504017800092697, 0.0792403519153595, 0.16558076441287994, -0.15756236016750336, 0.022648807615041733, -0.1094224825501442, 0.028180735185742378, -0.10157456248998642, -0.09598340839147568, -0.05245722830295563, 0.16318097710609436, 0.19772163033485413, 0.1878679394721985, 0.2562251389026642, 0.11977017670869827, 0.09133873134851456, 0.13919924199581146, 0.06199116259813309, -0.06914055347442627, -0.022121969610452652, -0.04163191094994545, -0.024974538013339043, -0.05097762867808342, 0.08423111587762833, -0.012983456254005432, -0.009654597379267216, 0.023114541545510292, 0.01819717511534691, -0.051489487290382385, 0.04732067510485649, -0.005817446392029524, -0.011027528904378414, 0.0175897479057312, -0.04359300062060356, -0.03585658594965935, 0.03779750317335129, -0.04874275624752045, -4.880843334831297e-06, -0.006718892138451338, 0.029798166826367378, 0.03461140766739845, -0.023105250671505928, 0.008330444805324078, -0.006467974744737148, -0.0034166467376053333, 0.0580228827893734, 7.380006718449295e-05, 0.0007447338430210948, -0.01585107110440731, 0.010848934762179852, 0.0010050639975816011, -0.00221360195428133, 0.00688862893730402, 0.012217377312481403, -0.004580274224281311, -0.010440977290272713, -0.011432884261012077, 0.09660525619983673, 0.12828552722930908, -0.06375785171985626, 0.026546107605099678, 0.04279611259698868, 0.01419649738818407, -0.07302935421466827, 0.10048066079616547, -0.022190451622009277, 0.01441878266632557, 0.002751297317445278, -0.07017132639884949, 0.01550714299082756, 0.0019304184243083, -0.3010598421096802, -0.07755936682224274, -0.08233056217432022, 0.0592622309923172, 0.09925271570682526, -0.05923605337738991, -0.1127900779247284, 0.4675872027873993, 0.05396830290555954, 0.00956683699041605, 0.00031432945979759097, -0.7795423269271851, 0.25633421540260315, -0.005061724688857794, -0.18748150765895844, -0.21548427641391754, 0.3032452464103699, 0.03766756132245064, 0.11328050494194031, 0.2825292646884918, -0.14022834599018097, 0.06983638554811478, 0.06814488023519516, -0.11668097972869873, 0.17019492387771606, 0.03826674446463585, 0.033485110849142075, -0.2791944146156311, -0.05487439036369324, 0.05553244426846504, -0.09533292800188065, -0.28654783964157104, 0.1753421574831009, 0.02653190679848194, 0.07195477932691574, 0.32990485429763794, -0.10986484587192535, 0.0005831281887367368, 0.07840578258037567, -0.017350085079669952, 0.19566838443279266, -0.10215631872415543, -0.03573792427778244, -0.20711243152618408, -0.3100925385951996, -0.15933050215244293, 0.03941476717591286, 0.03184770420193672, -0.09473109990358353, -0.03731928765773773, -0.021794293075799942, 0.1436558961868286, -0.02532767876982689, -0.08238792419433594, 0.09240163862705231, 0.09429933875799179, -0.03778855875134468, 0.034093912690877914, -0.006810126826167107, 0.10642463713884354, 0.1379302442073822, 0.057609815150499344, 0.3170108199119568, 0.33381593227386475, -0.1446235477924347, 0.006637965328991413, -0.1365709751844406, -0.31311458349227905, -0.2771672010421753, -0.05910440534353256, -0.013015060685575008, 0.10014234483242035, -0.06787487864494324, 0.033063244074583054, 0.06819339096546173, -0.011210179887712002, 0.10574477910995483, 0.06584789603948593, 0.16057345271110535, 0.08979224413633347, -0.14927320182323456, 0.06852678209543228, 0.16525119543075562, 0.04456331580877304, 0.024575117975473404, 0.0332060344517231, -0.06277231127023697, -0.10329161584377289, -0.052426453679800034, -0.11176463961601257, -0.01667024753987789, 0.23485682904720306, -0.0008576153195463121, 0.12286178767681122, 0.04942856356501579, -0.06335485726594925, -0.060047756880521774, 0.33690574765205383, -0.04842545837163925, -0.13527782261371613, -0.039899446070194244, -0.11816056072711945, -0.18270748853683472, 0.14859697222709656, -0.10452932119369507, -0.0685841515660286, -0.11700388789176941, -0.0016750782961025834, -0.08658802509307861, -0.203037828207016, 0.020924502983689308, 0.04229637607932091, 0.042389996349811554, -0.11917490512132645, -0.037756696343421936, 0.38627737760543823, -0.09348931908607483, -0.04111751914024353, -0.13032996654510498, -0.10443226248025894, -0.0830254852771759, 0.06265918910503387, -0.12025174498558044, -0.1437699794769287, -0.10995058715343475, -0.19285167753696442, -0.18629583716392517, -0.2033943086862564, 0.12470906227827072, 0.12888994812965393, 0.2447778880596161, 0.1225668415427208, 0.24969571828842163, -0.3627666234970093, 0.003678207052871585, 0.05241784080862999, 0.07490749657154083, 0.0814782977104187, 0.004881616681814194, -0.19081276655197144, 0.08678965270519257, 0.0566362626850605, 0.1433737874031067, 0.03949115425348282, 0.23812279105186462, -0.27662885189056396, -0.10159407556056976, -0.06514725834131241, -0.14004004001617432, -0.17527516186237335, 0.014951425604522228, -0.2056800127029419, -0.009619960561394691, -0.09697538614273071, -0.022432729601860046, -0.10835835337638855, -0.024258751422166824, -0.06339240074157715, 0.13482491672039032, 0.11069269478321075, 0.2123294621706009, 0.22006559371948242, 0.05873147398233414, -0.29575297236442566, -0.025443682447075844, 0.010497531853616238, 0.00032523873960599303, -0.10319281369447708, -0.006659107282757759, -0.04051699861884117, 0.01123325526714325, -0.0396418496966362, -0.019913766533136368, -0.19738344848155975, -0.0699509009718895, -0.04247136414051056, -0.12167221307754517, -0.07627952843904495, -0.21760323643684387, -0.1219719722867012, -0.09266027808189392, 0.29510074853897095, -0.04218935966491699, -0.06764551252126694, 0.04426996782422066, -0.039267390966415405, 0.014765646308660507, -0.003813526825979352, 0.05547362565994263, 0.07494564354419708, 0.1206352561712265, -0.014874251559376717, 0.15451933443546295, -0.08662120252847672, -0.12698687613010406, -0.11443230509757996, -0.20791201293468475, -0.10340609401464462, -0.23665453493595123, -0.04433063045144081, 0.06247694045305252, -0.14774681627750397, -0.12405245751142502, -0.037616122514009476, -0.0008771307184360921, -0.10723477602005005, 0.10264943540096283, 0.04001638665795326, 0.1352747231721878, 0.07325287908315659, 0.1198846697807312, 0.05951744690537453, -0.0047916267067193985, -0.053880803287029266, -0.0762309730052948, -0.006047101691365242, -0.03962906450033188, -0.03787405043840408, -0.13183501362800598, -0.04194631427526474, 0.04271310567855835, -0.12929873168468475, -0.1084248349070549, -0.14475661516189575, -0.02317708544433117, -0.14144162833690643, -0.26212844252586365, -0.1904752403497696, -0.22116488218307495, -0.03073566034436226, 0.007651776075363159, 0.00881514698266983, -0.012849655002355576, 0.0226571224629879, 0.022333839908242226, 0.028178507462143898, 0.002128234365954995, -0.0022039690520614386, -0.03342261537909508, -0.011129644699394703, -0.01648249477148056, -0.00966657418757677, 0.031589023768901825, 0.02313794568181038, -0.005763470195233822, 0.025542424991726875, 0.02724604681134224, 0.044450629502534866, 0.001702178968116641, 0.006723135709762573, 0.008113974705338478, -0.010130480863153934, -0.014396735467016697, -0.014088784344494343, -0.01522560603916645, -0.016915246844291687, -0.030025865882635117, -0.027724118903279305, -0.021473966538906097, -0.037995703518390656, -0.010363606736063957, 0.0034591248258948326, 0.01076482143253088, 0.005112042650580406, 0.010484136641025543, 0.0017440102528780699, -0.007470554672181606, -0.010346157476305962, 0.03412293270230293, -0.026198387145996094, -0.022784031927585602, -0.036952074617147446, -0.0075699519366025925, 0.008141772821545601, 0.04097549617290497, 0.018970659002661705, 0.015896521508693695, 0.03046307899057865, -0.044473376125097275, 0.025118626654148102, -0.1105274111032486, -0.12768836319446564, -0.12772546708583832, -0.17214380204677582, 0.049092695116996765, 0.05425923317670822, 0.0063615962862968445, 0.06438937038183212, 0.13446739315986633, -0.21207381784915924, -0.09740614145994186, -0.07201261073350906, 0.06272859126329422, 0.05479662865400314, -0.16194644570350647, -0.26053181290626526, -0.09757707267999649, -0.08353248238563538, -0.09155455231666565, -0.0096144312992692, 0.047253623604774475, -0.021206693723797798, 0.1583995372056961, 0.21941961348056793, 0.2436431497335434, 0.11077786982059479, 0.152665376663208, -0.0113093052059412, 0.05253969132900238, -0.02045517787337303, -0.045412588864564896, 0.03709084168076515, 0.18432728946208954, -0.0050274827517569065, -0.06393019109964371, 0.08808980882167816, 0.09363722801208496, 0.08676885813474655, 0.05126938596367836, 0.2539978325366974, 0.05520712211728096, -0.01746826060116291, -0.05165160447359085, -0.060040183365345, -0.12252712994813919, 0.0716625526547432, -0.0006532002007588744, 0.019952910020947456, -0.0036983469035476446, 0.008075428195297718, 0.014584294520318508, -0.008329423144459724, -0.01105909701436758, -0.007964507676661015, -0.021646825596690178, -0.004518413450568914, -0.017865456640720367, -0.023304302245378494, 0.019331425428390503, 0.010841052047908306, -0.019877715036273003, 0.0353270061314106, 0.039529718458652496, -0.02519596740603447, -0.006199326831847429, -0.010271180421113968, 0.013908312655985355, -0.007305963430553675, -0.01344760786741972, 0.009525801986455917, -0.01689976640045643, -0.021348850801587105, -0.008896292187273502, -0.02097119763493538, -0.0010975508484989405, -0.018238451331853867, -0.00827117171138525, 0.000733627995941788, 0.014853375032544136, 0.007766899652779102, 0.01654491014778614, 0.010057374835014343, 0.007126577664166689, -0.003806408029049635, 0.05751011520624161, -0.01863725669682026, -0.010441373102366924, 0.038785822689533234, 0.006678846664726734, -0.0009007650660350919, 0.013069954700767994, 0.020907821133732796, 0.004091666080057621, 0.02436274103820324, 0.022970644757151604, 0.024494053795933723, -0.08934339135885239, 0.03841004893183708, -0.021651331335306168, 0.00530185317620635, -0.03314141929149628, 0.008254442363977432, -0.1022254005074501, -0.012241884134709835, -0.03443815931677818, 0.05685456097126007, 0.010023821145296097, 0.010450334288179874, -0.04059455543756485, 0.022067425772547722, 0.014675536192953587, 0.07701332122087479, 0.00442991079762578, 0.009727176278829575, 0.04197908937931061, -0.01991564966738224, 0.002806244418025017, 0.05781223997473717, 0.03478717803955078, 0.03136890009045601, -0.01810891181230545, -0.003502964274957776, -0.018626008182764053, -0.03432941436767578, 0.04590531438589096, 0.0229792557656765, 0.03984598070383072, 0.0002520630368962884, 0.0011947848834097385, -0.035716116428375244, 0.01141386665403843, 0.02297685481607914, 0.15332897007465363, -0.019237041473388672, 0.021928390488028526, -0.013430550694465637, -0.06258389353752136, -0.1293020248413086, 0.152240589261055, -0.06378788501024246, 0.01768162101507187, -0.009786889888346195, -0.004306985531002283, -0.012709788978099823, -0.030075954273343086, 0.01684960164129734, -0.00926569476723671, -0.17544236779212952, 0.03808555379509926, -0.006938024889677763, 0.08192845433950424, 0.06685400754213333, 0.080255888402462, -0.05174076929688454, 0.009436220861971378, 0.051892898976802826, 0.043177470564842224, -0.026523534208536148, 0.0072150276973843575, -0.10328064113855362, 0.0601259246468544, 0.03436838090419769, 0.04758823662996292, 0.05358589440584183, 0.03826582059264183, 0.2656817138195038, -0.02200791984796524, 0.03350371867418289, 0.04169970378279686, -0.05202005058526993, 0.01675206981599331, -0.0894070416688919, 0.07692132145166397, 0.005913672503083944, 0.0014184617903083563, -0.0745912715792656, -0.03571780398488045, 0.00449140602722764, 0.04432564973831177, 0.04717499017715454, 0.03835618123412132, 0.03667592629790306, 0.06232600659132004, 0.33363965153694153, -0.07325330376625061, -0.08987641334533691, -0.08882926404476166, -0.18778273463249207, -0.13071328401565552, 0.39974451065063477, 0.007820124737918377, 0.164830282330513, 0.17261020839214325, -0.05749491602182388, 0.15297280251979828, -0.07318504899740219, -0.015064842067658901, -0.10069634765386581, -0.24371568858623505, 0.31013235449790955, 0.608209490776062, 0.01856069080531597, 0.8269239068031311, 0.0008578718989156187, 0.024822898209095, 0.31455886363983154, 0.15158310532569885, 0.18798160552978516, -0.2613913416862488, -0.014485022984445095, 0.12151657789945602, -0.012479064054787159, 0.08134107291698456, 0.46995168924331665, -0.14707079529762268, 0.11377912014722824, 0.26203465461730957, -0.05144437775015831, -0.26139000058174133, -0.03150888532400131, -0.018460344523191452, -0.133273184299469, 0.037694450467824936, 0.19126419723033905, -0.05181427299976349, -0.0027731037698686123, -0.001221229205839336, 0.009530505165457726, -0.08532808721065521, -0.16568605601787567, -0.0262189619243145, -0.05739724263548851, 0.210693821310997, -0.040523696690797806, -0.22039750218391418, -0.02111741341650486, -0.17771212756633759, -0.07940901070833206, -0.22110411524772644, 0.2746456265449524, -0.39103227853775024, -0.03434856981039047, 0.12705788016319275, -0.031567253172397614, 0.09328693896532059, -0.28477224707603455, 0.13368234038352966, -0.38921213150024414, -0.010049572214484215, 0.01944035477936268, 0.47204306721687317, 0.04962259903550148, 0.19305479526519775, 0.2500550448894501, -0.42559975385665894, 0.4085119366645813, 0.2869444191455841, -0.019676806405186653, 0.2212596833705902, 0.05309213697910309, 0.02024364285171032, -0.288974791765213, -0.33041107654571533, 0.3232578933238983, -0.08899365365505219, 0.022725658491253853, 0.18829701840877533, -0.00021667695546057075, -0.12864452600479126, -0.17838668823242188, 0.015390612185001373, -0.10599662363529205, 0.09977588802576065, 0.12096855044364929, -0.1358439326286316, -0.11497598141431808, -0.22294798493385315, 0.23970897495746613, 0.0866900160908699, 0.05009179562330246, 0.000690662011038512, -0.04175270348787308, -0.06120391562581062, 0.08212993294000626, 0.0662027969956398, -0.014515764079988003, -0.05766955390572548, -0.0002807648852467537, -0.17170865833759308, 0.08014070242643356, -0.04118502512574196, 0.022696251049637794, -0.005287712439894676, -0.11807235330343246, 0.009448152035474777, 0.05352967604994774, -0.015846338123083115, -0.009030281566083431, 0.01980694942176342, -0.05024895444512367, -0.08682547509670258, 0.07048825174570084, 0.007949810475111008, -0.009463404305279255, -0.02074231021106243, 0.036682914942502975, 0.04271746426820755, 0.01723766326904297, 0.014672906138002872, 0.01679159887135029, 0.01798558048903942, 0.0219062939286232, 0.033543478697538376, -0.011865624226629734, 0.010494031943380833, 0.052827220410108566, -0.02294836938381195, -0.09179975837469101, -0.12815652787685394, -0.23664481937885284, 0.01326429657638073, -0.034211285412311554, 0.04411924257874489, 0.10183601826429367, 0.21334382891654968, -0.3204197287559509, 0.043277252465486526, 0.17054873704910278, 0.20036529004573822, 0.126565083861351, 0.059928324073553085, -0.04223257303237915, 0.030004369094967842, -0.040952522307634354, -0.06215653195977211, 0.005630985368043184, 0.007169702555984259, 0.11353477835655212, -0.08422347903251648, -0.07666043937206268, -0.05669853836297989, -0.10127315670251846, -0.014443268068134785, 0.05094616115093231, 0.04682721942663193, 0.025460708886384964, -0.0084740174934268, 0.00789023656398058, 0.04248149320483208, 0.11521810293197632, -0.032361045479774475, -0.0033104827161878347, -0.07652247697114944, -0.07421514391899109, -0.037044018507003784, -0.09768505394458771, 0.07788271456956863, 0.1457262933254242, 0.18252259492874146, 0.13537314534187317, 0.07382802665233612, -0.11518142372369766, 0.0328512080013752, -0.029060596600174904, 0.03335423767566681, 0.024132918566465378, 0.0270395390689373, -0.007837067358195782, -0.18596604466438293, -0.0026481777895241976, 0.024699866771697998, -0.013538156636059284, 0.005451375152915716, -0.0030859308317303658, 0.006325579714030027, 0.044602252542972565, -0.017672620713710785, 0.06765669584274292, 0.06929157674312592, 0.0408683717250824, 0.02215050719678402, -0.030897829681634903, -0.1040995717048645, -0.0007038856274448335, -0.19187864661216736, -0.15895907580852509, 0.046488743275403976, -0.007424579467624426, -0.008291301317512989, 0.0060625215992331505, -0.00012773672642651945, 0.03663741797208786, -0.009336033836007118, -0.002391746500506997, 0.016877684742212296, -0.07639046758413315, -0.098659947514534, 0.05061676353216171, -0.0348944328725338, -0.047101397067308426, -0.06967820227146149, -0.11181065440177917, -0.08174004405736923, -0.10969660431146622, 0.08677257597446442, -0.015269547700881958, -0.037945300340652466, 0.00015570587129332125, 0.00708851870149374, -0.0015745293349027634, 0.008705515414476395, -0.0010372132528573275, -0.0011616717092692852, 0.015491548925638199, -0.025165222585201263, -0.051842208951711655, 0.010333819314837456, -0.006686369888484478, -0.0656188577413559, 0.07452547550201416, 0.011430646292865276, 0.03883691132068634, 0.026376873254776, 0.019507667049765587, 0.0006793483044020832, 0.07212983816862106, -0.012345229275524616, -0.07896850258111954, -0.05145464837551117, -0.01969776302576065, 0.002792132319882512, -0.026941748335957527, -0.07047529518604279, 0.04572628065943718, -0.04836681857705116, -0.12357357889413834, -0.0948447734117508, -0.08402570337057114, 0.009223117493093014, 0.0463055819272995, -0.007446807809174061, 0.0011631462257355452, -0.019009383395314217, -0.04569955915212631, 0.014252567663788795, 0.06375394016504288, -0.06764437258243561, -0.02073442004621029, 0.020982326939702034, 0.04298125207424164, 0.019229603931307793, -0.08581855148077011, 0.05871264636516571, 0.08501619845628738, 0.08666671812534332, 0.09449933469295502, 0.1030803993344307, -0.07434926927089691, 0.03196929022669792, 0.05881468951702118, 0.07272869348526001, 0.0392645038664341, 0.12496517598628998, -0.039740610867738724, -0.006415538024157286, -0.09286965429782867, -0.13182657957077026, -0.20870572328567505, 0.22175146639347076, 0.005800927057862282, 0.004784496035426855, 0.016666164621710777, 0.002163279103115201, 0.05070172995328903, 0.00721967127174139, -0.13364578783512115, -0.004652637057006359, 0.007677534595131874, 0.025119518861174583, 0.02223675325512886, 0.0034739694092422724, -0.059231605380773544, -0.003499053418636322, -0.04937206953763962, -0.02162610925734043, -0.04939891770482063, 0.0609138123691082, -0.11887955665588379, -0.07242336124181747, -0.03822313994169235, -0.009177026338875294, -0.02381480485200882, -0.016766799613833427, -0.035436853766441345, -0.022651225328445435, 0.04931263625621796, 0.0647016167640686, 0.07916375994682312, -0.004664749838411808, -0.005676901899278164, 0.03542296588420868, 0.08887000381946564, 0.06259257346391678, 0.08485976606607437, 0.0594530813395977, -0.07178404927253723, 0.030040426179766655, 0.050149042159318924, -0.03935784474015236, 0.03801571577787399, 0.010041925124824047, 0.005399537738412619, 0.014814618043601513, -0.07461842894554138, 0.06385765224695206, 0.05240371450781822, 0.13479024171829224, -0.07345980405807495, 0.05194750800728798, -0.006662039086222649, 0.039712924510240555, 0.03748640418052673, 0.11799430847167969, -0.2751082181930542, 0.02030101791024208, -0.05088809132575989, 0.0578051432967186, 0.10461503267288208, 0.2465197592973709, -0.08213739842176437, -0.11158768087625504, 0.03545251861214638, -0.09882714599370956, 0.010260427370667458, -0.16373459994792938, -0.25726988911628723, -0.0037238344084471464, -0.007680919952690601, -0.029995983466506004, 0.004594090860337019, 0.044412761926651, 0.11949146538972855, 0.07894102483987808, 0.036788392812013626, 0.0773712545633316, 0.005880673881620169, 0.06459870934486389, -0.0476129911839962, -0.07368523627519608, -0.053574204444885254, -0.07024839520454407, -0.0268310084939003, -0.0967329889535904, -0.07814612239599228, -0.0621473453938961, -0.017208918929100037, -0.050457075238227844, -0.0011518807150423527, 0.06691312044858932, 0.22625674307346344, 0.04029448702931404, 0.022223353385925293, 0.031532756984233856, 0.03348742797970772, -0.14701531827449799, 0.09082990884780884, 0.02693111076951027, 0.024955855682492256, 0.07694830000400543, 0.03145415335893631, -0.0025579314678907394, -0.02395317144691944, -0.03308617323637009, -0.0317094512283802, 0.00279793213121593, -0.04954581707715988, 0.006363554857671261, 0.009644300676882267, -0.026271425187587738, -0.017002737149596214, -0.040218502283096313, -0.05627812072634697, -0.0824972465634346, 0.09578260034322739, -0.00427896436303854, -0.023433972150087357, -0.017340155318379402, -0.006343544460833073, 0.058345794677734375, 0.039032600820064545, -0.03509489819407463, 0.03572625666856766, 0.003339765826240182, -0.05256400257349014, 0.047735244035720825, -0.01173279620707035, 0.03857075050473213, 0.05695096030831337, 0.10276385396718979, 0.07212267071008682, 0.007586820982396603, -0.02116985246539116, 0.02492915466427803, 0.023889532312750816, 0.06127138063311577, -0.008960170671343803, -0.11865180730819702, -0.06036261096596718, -0.008746705949306488, -0.022325968369841576, -0.06335306912660599, -0.035740938037633896, -0.22122663259506226, 0.14458025991916656, -0.004260909743607044, -0.014344019815325737, -0.023366820067167282, -0.06726141273975372, -0.020310694351792336, 0.22850853204727173, 0.0065439241006970406, 0.022064873948693275, 0.017196694388985634, -0.057687632739543915, -0.07622074335813522, -0.029277842491865158, 0.02234828658401966, 0.010864077135920525, -0.0040544732473790646, 0.062369462102651596, 0.039566852152347565, 0.20326171815395355, -0.06945598870515823, -0.06570439785718918, -0.14031684398651123, -0.024288078770041466, -0.06269711256027222, -0.22573164105415344, -0.04520647972822189, -0.023019548505544662, -9.523500921204686e-06, -0.011107131838798523, 0.03540337085723877, -0.15072429180145264, 0.009619263932108879, 0.09532782435417175, 0.03948689252138138, 0.06435338407754898, 0.10392427444458008, -0.01884988695383072, 0.047967955470085144, 0.04995516315102577, 0.030929483473300934, 0.03624787926673889, -0.001393391634337604, -0.35929131507873535, -0.04611574113368988, -0.057506661862134933, -0.03364472836256027, -0.047087714076042175, 0.03040000982582569, -0.36476582288742065, 0.03415535017848015, 0.03418533504009247, 0.05753418430685997, 0.07431279867887497, 0.04817475378513336, 0.18123368918895721, 0.048442307859659195, -0.4176170229911804, -0.37710753083229065, 0.09755752235651016, 0.17368745803833008, 0.04745294526219368, -0.1538088023662567, 0.5341103076934814, 0.03891272842884064, -0.10234787315130234, 0.0244843028485775, 0.2460949569940567, -0.21373765170574188, 0.20313207805156708, 0.053168173879384995, 0.27603578567504883, 0.2280271053314209, 0.10085868835449219, -0.16586464643478394, 0.011127992533147335, 0.03121195361018181, -0.007586591877043247, -0.08305835723876953, 0.02432691492140293, 0.0009439526475034654, -0.023914843797683716, 0.01970439776778221, -0.04275331273674965, -0.10710638016462326, 0.03224017471075058, 0.125543475151062, -0.009677945636212826, -0.005022396333515644, 0.13443255424499512, -0.03848298639059067, -0.25806036591529846, -0.34451645612716675, -0.24278391897678375, -0.07707535475492477, 0.08902231603860855, -0.16536623239517212, 0.38760554790496826, 0.04125484824180603, 0.08903276175260544, 0.014233209192752838, 0.15310487151145935, 0.03366106376051903, -0.015958726406097412, 0.14574529230594635, -0.09263705462217331, 0.0619908906519413, 0.20964264869689941, 0.028170933946967125, 0.22755520045757294, 0.15676569938659668, 0.02848920226097107, 0.16098392009735107, -0.19114813208580017, 0.0017137130489572883, -0.09336281567811966, 0.030619774013757706, 0.016032131388783455, 0.020993858575820923, 0.2149307280778885, 0.13972650468349457, 0.4455338418483734, -0.2595112919807434, -0.021630242466926575, -0.18452176451683044, -0.0980147272348404, -0.07918058335781097, 0.2766101658344269, -0.10118605196475983, 0.4033060073852539, -0.23639416694641113, 0.032592494040727615, -0.1889861673116684, -0.1303425133228302, -0.017440274357795715, 0.13367511332035065, -0.0616082102060318, 0.013419507071375847, -0.005251959897577763, 0.00785096362233162, 0.030183475464582443, 0.04703136533498764, -0.03295832499861717, 0.026730341836810112, 0.020620224997401237, 0.001243018195964396, 0.01321396604180336, 0.023460179567337036, -0.10078468173742294, -0.11405941843986511, 0.026535768061876297, 0.007157145068049431, 0.028029359877109528, 0.0043381513096392155, 0.041995398700237274, 0.09392327815294266, -0.0273197740316391, -0.024995729327201843, -0.02145012840628624, -0.021003957837820053, -0.15237398445606232, -0.0514875128865242, 0.01363202091306448, 0.033696483820676804, 0.05250613018870354, 0.014976457692682743, -0.06266847252845764, -0.033272381871938705, 0.04363652318716049, 0.03737300634384155, 0.056220781058073044, 0.08484918624162674, 0.07492097467184067, 0.010564104653894901, 0.010713749565184116, -0.008399349637329578, 0.014867251738905907, -0.012673857621848583, -0.09147539734840393, 0.05821272358298302, -0.0069759683683514595, 0.002672211267054081, -0.01733207330107689, 0.004750343039631844, 0.08706610649824142, 0.033904194831848145, 0.09718259423971176, 0.11948029696941376, 0.1351197063922882, 0.14736531674861908, 0.17370209097862244, -0.03393629193305969, 0.04057851806282997, 0.020303023979067802, 0.04422283172607422, 0.04015213996171951, 0.007193340919911861, 0.08895239979028702, 0.04590403661131859, 0.024483727291226387, 0.0580311119556427, 0.01796242594718933, 0.0433136485517025, 0.08223844319581985, -0.13327674567699432, -0.12482356280088425, -0.10862383246421814, -0.007824995554983616, -0.10989897698163986, -0.04386918991804123, 0.018947429955005646, 0.017254220321774483, 0.028655366972088814, 0.038763925433158875, -0.026504160836338997, 0.017670180648565292, 0.08632481098175049, 0.07619762420654297, 0.12120484560728073, 0.10273569822311401, 0.17216835916042328, -0.16097481548786163, 