{"version": "0.7.0", "metadata": {"date": {"year": 2026, "month": 6, "day": 29, "hour": 18, "minute": 27, "second": 56}, "loudness": -17.799444305938565, "gain": 0.6813736678355533, "training": {"settings": {"ignore_checks": false}, "data": {"latency": {"manual": null, "calibration": {"algorithm_version": 1, "delays": [-16], "safety_factor": 1, "recommended": -17, "warnings": {"matches_lookahead": false, "disagreement_too_high": false, "not_detected": false}}}, "checks": {"version": 3, "passed": true}}, "validation_esr": null}}, "architecture": "SlimmableContainer", "config": {"submodels": [{"max_value": 0.5, "model": {"version": "0.7.0", "metadata": {"date": {"year": 2026, "month": 6, "day": 29, "hour": 18, "minute": 27, "second": 56}, "loudness": -18.00350772146591, "gain": 0.6759083660550785}, "architecture": "WaveNet", "config": {"layers": [{"input_size": 1, "condition_size": 1, "head": {"out_channels": 1, "kernel_size": 16, "bias": true}, "channels": 3, "kernel_sizes": [6, 6, 6, 6, 6, 6, 6, 6, 6, 6, 6, 6, 6, 6, 15, 15, 6, 6, 6, 6, 6, 6, 6], "dilations": [1, 3, 7, 17, 41, 101, 239, 1, 3, 7, 17, 41, 101, 239, 1, 13, 1, 3, 7, 17, 41, 101, 239], "activation": [{"type": "LeakyReLU", "negative_slope": 0.01}, {"type": "LeakyReLU", "negative_slope": 0.01}, {"type": "LeakyReLU", "negative_slope": 0.01}, {"type": "LeakyReLU", "negative_slope": 0.01}, {"type": "LeakyReLU", "negative_slope": 0.01}, {"type": "LeakyReLU", "negative_slope": 0.01}, {"type": "LeakyReLU", "negative_slope": 0.01}, {"type": "LeakyReLU", "negative_slope": 0.01}, {"type": "LeakyReLU", "negative_slope": 0.01}, {"type": "LeakyReLU", "negative_slope": 0.01}, {"type": "LeakyReLU", "negative_slope": 0.01}, {"type": "LeakyReLU", "negative_slope": 0.01}, {"type": "LeakyReLU", "negative_slope": 0.01}, {"type": "LeakyReLU", "negative_slope": 0.01}, {"type": "LeakyReLU", "negative_slope": 0.01}, {"type": "LeakyReLU", "negative_slope": 0.01}, {"type": "LeakyReLU", "negative_slope": 0.01}, {"type": "LeakyReLU", "negative_slope": 0.01}, {"type": "LeakyReLU", "negative_slope": 0.01}, {"type": "LeakyReLU", "negative_slope": 0.01}, {"type": "LeakyReLU", "negative_slope": 0.01}, {"type": "LeakyReLU", "negative_slope": 0.01}, {"type": "LeakyReLU", "negative_slope": 0.01}], "bottleneck": 3, "head1x1": {"active": false, "out_channels": 1, "groups": 1}, "layer1x1": {"active": true, "groups": 1}, "groups_input": 1, "groups_input_mixin": 1, "conv_pre_film": {"active": false, "shift": true, "groups": 1}, "conv_post_film": {"active": false, "shift": true, "groups": 1}, "input_mixin_pre_film": {"active": false, "shift": true, "groups": 1}, "input_mixin_post_film": {"active": false, "shift": true, "groups": 1}, "activation_pre_film": {"active": false, "shift": true, "groups": 1}, "activation_post_film": {"active": false, "shift": true, "groups": 1}, "layer1x1_post_film": {"active": false, "shift": true, "groups": 1}, "head1x1_post_film": {"active": false, "shift": true, "groups": 1}, "gating_mode": ["none", "none", "none", "none", "none", "none", "none", "none", "none", "none", "none", "none", "none", "none", "none", "none", "none", "none", "none", "none", "none", "none", "none"], "secondary_activation": [null, null, null, null, null, null, null, null, null, null, null, null, null, null, null, null, null, null, null, null, null, null, null], "slimmable": null}], "head": null, "head_scale": 0.009003390050774105}, "weights": [-0.5782914161682129, -0.6819718480110168, -1.1292026042938232, 0.11966783553361893, 0.13915349543094635, 0.10879328846931458, -0.226678729057312, -0.32867610454559326, 0.093781016767025, 0.08030455559492111, 0.04411670193076134, 0.1445445865392685, -0.24765828251838684, -0.547104001045227, 0.07328297942876816, 0.07321686297655106, 0.22949714958667755, 0.10738961398601532, 0.031684018671512604, -0.6503250002861023, 0.2102152705192566, -0.09730195254087448, 0.13831686973571777, -0.13239014148712158, -0.16099445521831512, 0.3784380555152893, 0.20950476825237274, -0.01684424839913845, -0.06601163744926453, -0.07219884544610977, -0.0860520452260971, 0.19217142462730408, 0.23536454141139984, -0.008917108178138733, 0.0031022673938423395, 0.03082878142595291, 0.10655786097049713, 0.4173499345779419, 0.2216433584690094, -0.05898626521229744, -0.11337419599294662, -0.19606198370456696, -0.005201663356274366, -0.0423368439078331, -0.044771794229745865, -0.05956706404685974, 0.09978819638490677, -0.20090289413928986, 0.03194098919630051, 0.12978465855121613, 0.06166784465312958, -0.10441990196704865, 0.004342261701822281, -0.09253007173538208, -0.05166536569595337, -0.0662660226225853, -0.05626610293984413, 0.22060157358646393, 0.1799684315919876, 0.029732313007116318, 0.20434202253818512, 0.22217406332492828, 0.19904831051826477, -0.350525438785553, 0.2792527377605438, 0.20133797824382782, 0.22379103302955627, -0.30067723989486694, -0.20283935964107513, -0.6766485571861267, 0.42367225885391235, -0.04408792406320572, 0.26962873339653015, -0.3756199777126312, -0.11738121509552002, -0.1492011398077011, -0.05998893082141876, 0.16659113764762878, 0.09411357343196869, -0.024154415354132652, 0.22337037324905396, 0.05538538470864296, -0.21996508538722992, 0.16691845655441284, 0.04204525053501129, -0.13199827075004578, -0.08964752405881882, -0.10743921250104904, -0.1716141402721405, -0.28189805150032043, -0.08154845982789993, -0.36720311641693115, 0.07009272277355194, -0.07219745218753815, 0.2237357348203659, 0.1394384652376175, -0.14063164591789246, 0.22399674355983734, -0.26914653182029724, -0.022561831399798393, -0.15917380154132843, -0.21817892789840698, -0.02135075256228447, -0.21650467813014984, 0.036431387066841125, -0.20494914054870605, 0.09438770264387131, 0.08150991797447205, 0.18668705224990845, -0.11790749430656433, -0.385926216840744, -0.013670188374817371, 0.25349777936935425, 0.02452598512172699, 0.1957111358642578, 0.18709947168827057, 0.030250195413827896, -0.15847042202949524, 0.1623455286026001, -0.17404350638389587, 0.17460520565509796, -0.2437075972557068, -0.28811150789260864, -0.09681645780801773, -0.23142816126346588, 0.0009077139548026025, -0.2175784558057785, 0.28184548020362854, -0.03171420469880104, 0.29692956805229187, 0.33057457208633423, 0.21128278970718384, -0.06908556818962097, 0.3768766224384308, 0.8998462557792664, -0.3415883183479309, 0.16023172438144684, -0.4977422058582306, 0.015886113047599792, 0.5321220755577087, 0.39042285084724426, -0.5088313817977905, -0.6316408514976501, -0.5094520449638367, 0.4483524262905121, -0.174552783370018, 0.3073750138282776, 0.12714973092079163, -0.09463492035865784, 0.05715112015604973, 0.033318668603897095, -0.06390347331762314, 0.13974449038505554, -0.050206076353788376, -0.0384577140212059, 0.03515850380063057, -0.0847398117184639, 0.11180640012025833, 0.04561449959874153, 0.07578741014003754, 0.07286778837442398, 0.13533665239810944, 0.03524640575051308, -0.20202714204788208, 0.18501949310302734, -0.13640981912612915, 0.0008909885073080659, 0.11040208488702774, -0.31621429324150085, -0.19045405089855194, 0.15003621578216553, 0.002605644753202796, -0.0739298090338707, -0.09085429459810257, 0.3236801028251648, -0.4021591544151306, -0.53572016954422, 0.007274985779076815, 0.03125673159956932, 0.017335668206214905, -0.20280015468597412, -0.2416715770959854, 0.32508039474487305, -0.034867096692323685, 0.08383577316999435, 0.1730865240097046, 0.03383569419384003, -0.24131031334400177, -0.028500080108642578, -0.29622069001197815, 0.14418385922908783, 0.16055817902088165, -0.10561376065015793, -0.232158824801445, -0.04767557606101036, -0.12119222432374954, -0.012395580299198627, -0.04083101078867912, 0.026886742562055588, -0.05334945023059845, 0.052757009863853455, 0.06313896924257278, -0.08835241943597794, 0.18477268517017365, -0.3660920262336731, -0.34686461091041565, -0.897580623626709, -0.1580909937620163, 0.6779294610023499, 0.23614978790283203, -0.13562843203544617, -0.44057366251945496, 0.09564093500375748, 0.10255854576826096, -0.12980709969997406, 0.32721343636512756, 0.2337409108877182, -0.09634829312562943, 0.4960477948188782, -0.021845022216439247, 0.016443351283669472, -0.13974550366401672, 0.08804313838481903, -0.08680219203233719, 0.15333367884159088, -0.17762236297130585, -0.14678524434566498, 0.15887793898582458, -0.03762742504477501, -0.25784245133399963, -0.05595299229025841, 0.27426692843437195, 0.13937002420425415, -0.5855850577354431, 0.31278592348098755, -0.28209781646728516, 0.09602679312229156, -0.08402688056230545, -0.1557450145483017, -0.009264635853469372, 0.08996830135583878, -0.06470823287963867, -0.1136973425745964, 0.014985719695687294, -0.1462583690881729, 0.08418729156255722, -0.002369747729972005, 0.5489965677261353, 0.1853473037481308, 0.11749318987131119, 0.1073588952422142, 0.11647587269544601, 0.09649542719125748, -0.2055361121892929, -0.01351354643702507, 0.054142504930496216, -0.002780130598694086, -0.14754554629325867, -0.038558535277843475, 0.3028588593006134, 0.00948332715779543, 0.24400997161865234, -0.14957328140735626, -0.21748578548431396, -0.042711541056632996, -0.11679508537054062, 0.3166307508945465, 0.014070081524550915, -0.0011441076640039682, 0.1264520287513733, 0.12392328679561615, 0.20023655891418457, -0.46211206912994385, -0.033444277942180634, -0.10172826051712036, -0.10200140625238419, 0.07439419627189636, 0.01664314791560173, 0.2175479680299759, 0.5988213419914246, -0.12386326491832733, 0.5650096535682678, -0.07032369077205658, -0.10566867887973785, -0.125030055642128, -0.4423581063747406, 0.39684373140335083, -0.39813902974128723, -0.22598865628242493, -0.31653353571891785, 0.5090304017066956, -0.20428982377052307, -0.09760662168264389, 0.04438304156064987, -0.08691143244504929, -0.017769930884242058, -0.048233434557914734, 0.1487458348274231, -0.017843427136540413, 0.027720822021365166, 0.11228583753108978, 0.03485463187098503, 0.03630722686648369, -0.07858996093273163, -0.00684325909242034, -0.0962301567196846, 0.0458027645945549, 0.17155107855796814, 0.10045991837978363, 0.014285176992416382, 0.22733767330646515, 0.0913643166422844, -0.13622801005840302, -0.0479121096432209, -0.16335512697696686, -0.23385444283485413, -0.20137178897857666, 0.05782207474112511, 0.05236519128084183, -0.1258055567741394, 0.06858224421739578, 0.051946625113487244, 0.030161021277308464, 0.12174705415964127, -0.42995917797088623, 0.04579262062907219, 0.22879834473133087, -0.02084306627511978, 0.026189163327217102, 0.05380675196647644, -0.0008044371497817338, -0.09712383151054382, -0.1444152146577835, -0.17631711065769196, -0.022249240428209305, -0.05856676399707794, -0.05189063027501106, -0.13882124423980713, -0.10757595300674438, -0.027969978749752045, 0.009152269922196865, -0.01740490086376667, -0.07725547254085541, -0.21187616884708405, 0.14937445521354675, -0.06954691559076309, -0.13436393439769745, 0.2819868326187134, -0.06764193624258041, 0.5011159181594849, 0.1788189858198166, 0.2335153967142105, 0.3786659240722656, 3.58402103302069e-05, 0.01988867111504078, -0.08086615055799484, 0.21975229680538177, -0.11837936192750931, -0.25867748260498047, -0.21239355206489563, -0.21089376509189606, -0.1307189017534256, 0.2722209095954895, 0.03350720554590225, 0.1818484365940094, 0.19200095534324646, 0.21060611307621002, 0.31103360652923584, -0.13533924520015717, 0.05739719048142433, -0.1078060194849968, -0.2275794893503189, -0.02914135903120041, 0.053757864981889725, 0.014106503687798977, -0.015667526051402092, -0.07306212931871414, -0.04862906038761139, -0.10170024633407593, -0.2963002026081085, 0.27959635853767395, 0.08937416225671768, 0.24191151559352875, 0.1375616490840912, 0.05263916030526161, 0.3519826829433441, -0.60483318567276, -0.13906952738761902, 0.08346591144800186, 0.005955889355391264, -0.14945738017559052, -0.06150858476758003, 0.24463893473148346, -0.07095814496278763, -0.0321645587682724, -0.020140929147601128, -0.006550072226673365, 0.2054131031036377, -0.07203157246112823, -0.002610336057841778, 0.007712712977081537, 0.03262335807085037, 0.0087089529260993, 0.030721580609679222, -0.15454739332199097, 0.033824000507593155, 0.00462848087772727, 0.01947777159512043, 0.045442793518304825, 0.030865192413330078, 0.3117479383945465, 0.017906930297613144, -0.004411921836435795, -0.0006638366030529141, -0.0028630539309233427, -0.02436847984790802, -0.3013264834880829, -0.1588556468486786, 0.19874241948127747, -0.12333626300096512, 0.4465937316417694, 0.7879201769828796, 0.16640065610408783, 0.3835693895816803, 0.3031595051288605, -0.1760753095149994, -0.09511265158653259, -0.031527597457170486, 0.1987334042787552, -0.2641388177871704, -0.2109195441007614, -0.22302477061748505, -0.41722211241722107, -0.10643550753593445, -0.4676448404788971, -0.049534253776073456, 0.004854714963585138, -0.03434169664978981, -0.021390054374933243, -0.022447621449828148, -0.048468995839357376, -0.10686961561441422, 0.0023948766756802797, 0.10390221327543259, -0.20551587641239166, 0.08420387655496597, -0.23137454688549042, -0.018190542235970497, -0.030844980850815773, -0.04668471962213516, -0.04414840787649155, 0.021952837705612183, 0.12770117819309235, 0.05349017679691315, 0.12842495739459991, 0.13652430474758148, 0.22599251568317413, 0.4009832739830017, -0.7056069374084473, -0.15734532475471497, -0.03801935538649559, -0.2916022539138794, -0.17157521843910217, 0.05894221365451813, 0.03124350681900978, -0.03734095022082329, -0.0365329310297966, -0.07521910220384598, -0.06544480472803116, -0.04500643163919449, 0.25953078269958496, 0.005937268957495689, -0.0063758292235434055, 0.004357571713626385, -0.001241372781805694, -0.0009196818573400378, -0.01231260783970356, 0.02004910819232464, -0.0010132846655324101, -0.021113524213433266, 0.0424656942486763, -0.0028833046089857817, 0.00227811885997653, 0.003873694222420454, 0.0064773764461278915, 0.011476630344986916, 0.009374454617500305, 0.0007433069404214621, 0.08701204508543015, -0.006534062325954437, 0.06020192801952362, 0.26641330122947693, -0.2238646000623703, -0.3229981064796448, -0.3027333617210388, 0.019397713243961334, 0.359861820936203, 0.4309955835342407, 0.02601606957614422, -0.05923076719045639, 0.05305609107017517, 0.14743828773498535, -0.2672520875930786, 0.4294489324092865, 0.2691527307033539, -0.3834232687950134, 0.041378747671842575, -0.20819465816020966, -0.1524839699268341, 0.04023689776659012, 0.07594849169254303, -0.05665114149451256, -0.14119459688663483, -0.06914427876472473, -0.055664654821157455, -0.13982103765010834, -0.16260619461536407, 0.14755630493164062, 0.019638488069176674, -0.18411248922348022, -0.477434903383255, -0.07346268743276596, 0.2353653907775879, 0.23568864166736603, 0.27170315384864807, -0.06653854250907898, 0.12953831255435944, -0.20269383490085602, -0.1894860863685608, 0.1470239758491516, 0.11975081264972687, 0.0680905133485794, 0.01621663197875023, -0.05483584478497505, 0.07294007390737534, 0.13765960931777954, -0.18994051218032837, 0.10130414366722107, 0.07790149003267288, -0.20653504133224487, -0.18637427687644958, 0.118178591132164, 0.09118402004241943, -0.024457033723592758, -0.058992378413677216, 0.003942153882235289, 0.14417342841625214, -0.2896493077278137, 0.14346519112586975, -0.15764571726322174, 0.09326887875795364, -0.06346611678600311, -0.20690834522247314, -0.07641423493623734, -0.20278309285640717, -0.03325137868523598, -0.10885412991046906, 0.07606378197669983, 0.3570074439048767, -0.4252563416957855, 0.07846491783857346, 0.11167027056217194, 0.0007583516999147832, -0.10647890716791153, 0.07032369822263718, -0.3029649555683136, 0.44774380326271057, 0.12576457858085632, 0.21998563408851624, -0.16745813190937042, 0.2506355047225952, -0.025810500606894493, -0.16449660062789917, -0.09702979028224945, 0.3404364287853241, -0.46985673904418945, -0.11371532827615738, -0.27741479873657227, 0.21403688192367554, 0.37847375869750977, 0.07688338309526443, 0.0705588161945343, -0.017153847962617874, -0.1617838740348816, -0.333659827709198, -0.02234637923538685, 0.05135011672973633, 0.06137808412313461, -0.09634659439325333, -0.0052941287867724895, 0.05194595083594322, 0.3840160071849823, 0.19022010266780853, 0.1940028816461563, 0.05226661637425423, -0.21797913312911987, -0.5151152014732361, 0.23677751421928406, 0.20437923073768616, 0.22836101055145264, 0.2600681185722351, 0.10545459389686584, 0.041916027665138245, -0.029284249991178513, 0.05519043281674385, -0.25698426365852356, -0.25367099046707153, 0.09073025733232498, -0.043307628482580185, 0.12095944583415985, 0.218878835439682, 0.27112892270088196, 0.42404672503471375, 2.113623486366123e-05, -0.21535558998584747, -0.24595792591571808, -0.22617869079113007, -0.15719792246818542, -0.39130857586860657, -0.0018447770271450281, -0.07778546214103699, -0.07742471992969513, 0.124632827937603, 0.21394845843315125, -0.0014232773100957274, 0.11446778476238251, 0.14649474620819092, -0.12764668464660645, -0.23401130735874176, -0.3303440511226654, -0.38239243626594543, -0.022652797400951385, 0.22917568683624268, 0.3140006363391876, 0.03834552690386772, 0.02791808731853962, 0.8393274545669556, 0.22619087994098663, -0.28857821226119995, -0.44721052050590515, -0.49112921953201294, 0.4849405288696289, 0.39871150255203247, -0.05012327805161476, -0.024206288158893585, -0.21632984280586243, -0.05140302702784538, 0.0036324653774499893, 0.09125100076198578, 0.19922582805156708, -0.05249319598078728, -0.25024959444999695, -0.07469421625137329, -0.01242707297205925, -0.04306505620479584, 0.1001727357506752, -0.5299822688102722, -0.3694709837436676, -0.04026469215750694, -0.01959248259663582, 0.09839898347854614, 0.1936853677034378, 0.15712304413318634, 0.02350073866546154, 0.04133137688040733, 0.003489949507638812, 0.0920599177479744, 0.10627595335245132, -0.5175022482872009, 0.1505085527896881, -0.029590826481580734, 0.028293339535593987, 0.07743421941995621, 0.37123072147369385, -0.4068010151386261, 0.21255257725715637, 0.09729652851819992, 0.07298316061496735, 0.1586247980594635, 0.17657816410064697, -0.33053192496299744, -0.040453165769577026, 0.0558575764298439, -0.04714130982756615, -0.008072898723185062, 0.2947125732898712, 0.00418090121820569, 0.019759241491556168, 0.13538573682308197, 0.08454369008541107, 0.2762409746646881, 0.2789744734764099, 0.08308110386133194, 0.12946750223636627, 0.0573861338198185, 0.17952574789524078, 0.18264390528202057, 0.056180257350206375, 0.1797366440296173, 0.12115669250488281, 0.06424804776906967, 0.17828583717346191, 0.20010672509670258, 0.2729642689228058, 0.04323244094848633, -0.5858865976333618, 0.21252644062042236, -0.001901783049106598, -0.09578345715999603, 0.2897632420063019, -0.10087515413761139, 0.6955631971359253, -0.20696353912353516, -0.23023568093776703, -0.05186450108885765, 0.5456129908561707, -0.07149136811494827, 0.4693848788738251, -0.49533870816230774, 0.40987858176231384, 0.132743239402771, 0.2003454715013504, 0.3421896994113922, -0.12370344996452332, -0.06491924077272415, -0.026179665699601173, -0.020557928830385208, -0.0951019674539566, -0.018045574426651, -0.11097680777311325, -0.006938096601516008, 0.05940087139606476, -0.1412661224603653, -0.023181725293397903, -0.12365898489952087, 0.03310640528798103, 0.15044333040714264, 0.12934693694114685, 0.09098444879055023, 0.262723445892334, -0.6596681475639343, -0.06501106172800064, 0.008731495589017868, 0.03266013786196709, 0.228959321975708, 0.03713473677635193, -0.06644755601882935, 0.06716526299715042, -0.02094014547765255, -0.037061139941215515, 0.11405233293771744, -0.2594441771507263, -0.26292023062705994, 0.07341886311769485, 0.06438598036766052, 0.007910703308880329, -0.03380611911416054, 0.14077290892601013, -0.7031276226043701, 0.03817319869995117, 0.0696362629532814, 0.1231047585606575, -0.005987071897834539, 0.10404931008815765, 0.7956997156143188, -0.07936403155326843, 0.15321868658065796, 0.1863763928413391, -0.13969671726226807, -0.019085800275206566, -0.43848127126693726, -0.10999055206775665, -0.07133190333843231, -0.1744184046983719, -0.24079148471355438, -0.286761075258255, 0.8966611623764038, 0.03402923792600632, 0.44793638586997986, 0.048317745327949524, -0.09586060792207718, -0.17319230735301971, -0.29488134384155273, -0.6033319234848022, -0.13428600132465363, 0.6751057505607605, 0.3096904754638672, -0.013551001437008381, 0.6348183155059814, 0.15161938965320587, 0.7091994285583496, 0.0632983148097992, 0.22537918388843536, 0.34734585881233215, -0.4074499309062958, 0.0077286469750106335, 0.028701085597276688, 0.1369975507259369, 0.07439576089382172, 0.049576375633478165, 0.6445079445838928, -0.03358890116214752, -0.019265733659267426, -0.1959075778722763, -0.19732466340065002, -0.18860244750976562, -0.3349263668060303, 0.00515484856441617, 0.05173221603035927, 0.09852787107229233, 0.16602502763271332, 0.22485284507274628, -0.35868531465530396, 0.024629097431898117, -0.012418380007147789, -0.4168996512889862, -0.047463368624448776, 0.02345949225127697, 0.2866213619709015, 0.015005774796009064, 0.010495367459952831, -0.32245829701423645, 0.04172162711620331, 0.025586223229765892, -0.07230601459741592, 0.004005506169050932, 0.050310153514146805, -0.2459280639886856, 0.09951557964086533, 0.0966293141245842, -0.16488784551620483, -0.012233375571668148, -0.001422812812961638, 0.000749133643694222, -0.024689851328730583, -0.023657923564314842, 1.0767261981964111, 0.02070498839020729, 0.03222179785370827, 0.024400226771831512, 0.08247727155685425, 0.17889216542243958, -0.45243966579437256, 0.022273924201726913, -0.010298737324774265, -0.05215909704566002, -0.10610835254192352, -0.557285487651825, 0.6353774666786194, 0.067999929189682, -0.007069488987326622, 0.0920332595705986, 0.2309942990541458, 0.06301894783973694, -0.7070952653884888, -0.5075864195823669, -0.23495684564113617, 0.635092556476593, 0.1089620292186737, 0.03139270469546318, 0.8567624092102051, 0.49388113617897034, 0.3466721773147583, 0.8122783303260803, -0.3904716372489929, 0.06747866421937943, -0.22876931726932526, 0.03704443946480751, 0.0427946001291275, 0.0432312935590744, 0.04364018514752388, 0.015110094100236893, -0.5666704177856445, -0.006523547228425741, -0.043339163064956665, -0.002050678478553891, -0.05916721001267433, -0.059037089347839355, -1.2634443044662476, -0.02723437175154686, -0.015124802477657795, -0.04079791158437729, 0.00025704855215735734, 0.04292561113834381, -0.49701935052871704, 0.06368300318717957, 0.09608983993530273, 0.12982049584388733, 0.06645455211400986, 0.07161066681146622, 0.0221107080578804, 0.006991774309426546, -0.03249738737940788, -0.057035237550735474, -0.039285797625780106, -0.0802903100848198, -0.11275235563516617, -0.09592211991548538, -0.0907159224152565, -0.10370439291000366, -0.054933592677116394, -0.01774599775671959, 0.0483427457511425, 0.004349702503532171, 0.06345385313034058, -0.027234049513936043, -0.01029982790350914, -0.05237166956067085, 0.09927762299776077, -0.04242856055498123, -0.18729016184806824, -0.19799762964248657, -0.10716953128576279, 0.03258024528622627, -0.21093851327896118, -0.038210418075323105, 0.026354528963565826, 0.140070840716362, -0.08230667561292648, -0.07465463131666183, 0.05572663992643356, 0.34564322233200073, 0.308765172958374, 0.5133307576179504, 0.31595033407211304, 0.09634267538785934, 0.06708910316228867, -0.4923521876335144, 0.12580466270446777, -0.05711596831679344, 0.7982935905456543, -0.3558623790740967, 0.27239370346069336, -0.7106040120124817, -0.2829739451408386, -0.2263735681772232, -0.04503960534930229, -0.647208571434021, 0.5522265434265137, 0.0016399116721004248, 0.007782300468534231, 0.0038388974498957396, -0.0027527716010808945, 0.008581990376114845, -0.5916208624839783, -0.0025779756251722574, -0.004653051029890776, -0.011651657521724701, -0.015655094757676125, -0.005690525285899639, -0.9414947628974915, -0.003512235824018717, -0.008468585088849068, -0.004166203550994396, 0.007960689254105091, -0.007585820276290178, -0.43938881158828735, -0.006810612510889769, -0.0010892694117501378, 0.018907951191067696, 0.026907294988632202, 0.048496998846530914, -0.3493517339229584, 0.0054503451101481915, 0.004038095474243164, 0.006656174082309008, 0.016206128522753716, -0.018794551491737366, -0.7440373301506042, 0.006101190112531185, 0.0015323164407163858, -0.01901806704699993, -0.029793888330459595, -0.03467927128076553, -0.21327628195285797, -0.01693836785852909, -0.037293121218681335, -0.05102924630045891, -0.10613488405942917, -0.12486878037452698, 0.7884641885757446, 0.017126910388469696, 0.024666545912623405, 0.03024730645120144, 0.028739824891090393, 0.026958860456943512, -0.44315305352211, 0.02076992206275463, 0.03763698413968086, 0.05366377905011177, 0.1020195260643959, 0.10867156833410263, 0.24842581152915955, -0.08181098103523254, 0.14470797777175903, 0.046157900243997574, 0.03135159611701965, 0.4915213882923126, 0.1598995327949524, -0.24039405584335327, -0.5915292501449585, 0.4708192050457001, 0.28929850459098816, -0.16787570714950562, 0.5439993143081665, -1.1275686025619507, -0.46004024147987366, 0.2632523477077484, -0.048094652593135834, -0.5747494697570801, -0.1078336089849472, -0.12996269762516022, -0.06286635249853134, 0.04404090717434883, 0.0816604495048523, -0.053469058126211166, -0.21259571611881256, -0.012380783446133137, -0.12207586318254471, 0.1975877583026886, -0.13944074511528015, -1.097988247871399, -0.2764956057071686, 0.1025334894657135, 0.027739068493247032, 0.2048288732767105, -0.06026771664619446, -0.06752947717905045, 0.010009421966969967, -0.07903590053319931, -0.012421337887644768, 0.04975844919681549, 0.12868455052375793, 0.23478025197982788, 0.42115145921707153, -0.6806542873382568, -0.4166463315486908, -0.13524191081523895, -0.07593049108982086, -0.05406837910413742, -0.3473425507545471, 0.2040390521287918, 0.16585779190063477, 0.08814378082752228, -0.10969578474760056, 0.003390975994989276, -0.03232995420694351, 0.010660434141755104, 0.04489746317267418, 0.21049432456493378, -0.033916402608156204, -1.0633624792099, -0.42412319779396057, -0.02025732398033142, 0.06523600965738297, 0.09314081072807312, -0.01678725890815258, -0.04321220889687538, 0.031863730400800705, 0.04923306033015251, 0.09420118480920792, 0.0763191506266594, -0.31890568137168884, -0.03535950183868408, -0.07815675437450409, -0.04923972859978676, -0.055440302938222885, -0.15059012174606323, -0.027137428522109985, 0.0023105309810489416, -0.3497559726238251, -0.07594311982393265, -0.070154570043087, 0.04917021095752716, -0.0214719008654356, 0.02209029719233513, -0.26656848192214966, -0.21971845626831055, -0.03580940142273903, -0.059190601110458374, 0.34809941053390503, 0.449076771736145, 0.31085005402565, -0.06553139537572861, -0.23249438405036926, -0.17739157378673553, 0.04986671358346939, 0.07746100425720215, -0.18497280776500702, -0.017057420685887337, 0.03965267911553383, 0.24907922744750977, -0.31863194704055786, -0.08956196159124374, 0.07465913891792297, -0.06404709070920944, -0.5584332346916199, -0.09136626124382019, 0.054276734590530396, 0.21307110786437988, 0.026748809963464737, -0.026754051446914673, -0.008604776114225388, 0.044880930334329605, 0.0304553359746933, 0.0017924817511811852, -0.12108771502971649, 0.17412860691547394, -0.18186700344085693, 0.06290771812200546, 0.06256482005119324, -0.29006335139274597, 0.14828018844127655, -0.02948072738945484, -0.23424646258354187, -0.14496895670890808, -0.06288102269172668, -0.037164684385061264, -0.03168945387005806, 0.035615552216768265, -0.08841340243816376, -0.07189010083675385, 0.04692636802792549, 0.12926864624023438, 0.38453125953674316, -0.21705232560634613, 0.12961141765117645, 0.1533559113740921, -0.2806195914745331, -0.05987713485956192, 0.008481918834149837, 0.021637003868818283, 0.024728406220674515, -0.037776898592710495, 0.06557703018188477, 0.0527101494371891, -0.15766635537147522, -0.00945477094501257, -0.009916446171700954, 0.1044234111905098, 0.15728837251663208, -0.43080127239227295, 0.34522825479507446, -0.07016696035861969, -0.1978103220462799, -0.16659864783287048, 0.13783538341522217, -0.9589149355888367, -0.19582314789295197, -0.5121802091598511, -0.44683873653411865, -0.3026544749736786, -0.6274300813674927, 1.1097016334533691, -0.7501559853553772, 0.21212299168109894, 0.1516713798046112, 0.11607767641544342, 0.38060498237609863, 0.1016705259680748, -0.6768448948860168, -0.028232302516698837, -0.33100345730781555, 0.4805185794830322, -0.01054452359676361, 0.007086878642439842, 0.00474450271576643, 0.006018617190420628, 0.0049164206720888615, 0.011163854971528053, 0.010533152148127556, 0.01169359590858221, 0.02089238353073597, 0.016750484704971313, 0.02928922139108181, 0.0445193275809288, 0.02558908611536026, 0.045604173094034195, -0.6296759247779846, -0.022226503118872643, -0.01415980514138937, -0.011418628506362438, -0.0036548099014908075, -0.010990721173584461, -0.012902679853141308, 0.006800382398068905, -0.004939171951264143, -0.03049243986606598, -0.04782361164689064, -0.04671988636255264, -0.06856780499219894, -0.15443359315395355, 0.16464854776859283, 0.08332572877407074, 0.029377028346061707, -0.0018156779697164893, 0.01018096785992384, 0.007879880256950855, 0.0032962094992399216, 0.020901566371321678, 0.0004988425062038004, 0.0075527080334723, 0.012085172347724438, 0.041761528700590134, -0.009369726292788982, -0.0002540896530263126, 0.016162147745490074, -0.12285896390676498, 0.008928448893129826, -0.039386771619319916, -0.027751458808779716, -0.017385082319378853, -0.04167932644486427, -0.05573611333966255, -0.060424208641052246, -0.06642559170722961, -0.07996417582035065, -0.09270904958248138, -0.1483442783355713, -0.19638095796108246, -0.22716124355793, -0.14772279560565948, -0.2925097942352295, 0.5889527201652527, 0.051751598715782166, 0.02007727138698101, -0.002113108988851309, 0.03549793362617493, 0.06178189441561699, 0.024414554238319397, 0.08453254401683807, 0.10196980088949203, 0.10889852046966553, 0.1677899956703186, 0.17771989107131958, 0.14099647104740143, 0.2535420060157776, 0.03628258779644966, 0.8720110058784485, 0.008374357596039772, -0.018817249685525894, 0.004687296226620674, 0.018133962526917458, 0.0029173947405070066, 0.028317103162407875, 0.0037461721803992987, 0.01926674135029316, 0.011577548459172249, 0.012117736972868443, 0.07056185603141785, 0.181451678276062, -0.012809325009584427, 0.12116603553295135, 0.5167391896247864, -0.07338594645261765, -0.01650041900575161, -0.05746997147798538, -0.08081129938364029, -0.05327169969677925, -0.08353029191493988, -0.09288769960403442, -0.09811831265687943, -0.08510703593492508, -0.08960454910993576, -0.10767797380685806, -0.1295347511768341, -0.13234132528305054, -0.12286484986543655, 0.004601846914738417, 0.12427058815956116, 0.01824205555021763, 0.12320074439048767, 0.09599022567272186, 0.11254753917455673, 0.07641266286373138, 0.1018286719918251, 0.12333226203918457, 0.11667771637439728, 0.0723215788602829, 0.0925029069185257, 0.037588078528642654, 0.10863921791315079, 0.20020805299282074, -0.609935998916626, -0.01319913100451231, -0.0035075051710009575, -0.01545123290270567, 0.01570587418973446, -0.020202316343784332, 0.00867072120308876, 0.024592790752649307, -0.00979450810700655, -0.04824329540133476, -0.004594685044139624, 0.012853692285716534, 0.06156276538968086, 0.08892367035150528, 0.007404034025967121, 0.28575658798217773, 0.02016402967274189, -0.1794234812259674, 0.40067046880722046, 0.8003270030021667, -0.2629990875720978, 0.10861856490373611, -0.5480179190635681, -0.09532175213098526, -0.014605472795665264, 0.18187002837657928, 0.33804717659950256, 0.34559378027915955, -0.4918528199195862, -0.1140744760632515, 0.32839280366897583, 0.216826930642128, -0.4318554103374481, 0.7357238531112671, 0.00207323650829494, -0.20943951606750488, -0.08328498899936676, -0.10426276177167892, -0.0903911292552948, -0.24982036650180817, -0.2636719346046448, -0.21671101450920105, 0.27593591809272766, -0.011510776355862617, -0.17649570107460022, -0.11555461585521698, 0.09869548678398132, -0.3948688507080078, -0.3415875732898712, 0.13484367728233337, -0.016324026510119438, 0.4556862413883209, 0.028856132179498672, 0.15201038122177124, 0.02298569865524769, -0.0053849657997488976, 0.048365406692028046, -0.011700245551764965, -0.07895995676517487, -0.04394702613353729, -0.21242797374725342, -0.011379295960068703, -0.008228189311921597, -0.1509241908788681, 0.1553574651479721, 0.3907262980937958, -0.013696740381419659, -0.005752548109740019, -0.11854726076126099, -0.11698627471923828, 0.10617612302303314, 0.1259107142686844, 0.021192241460084915, 0.23907874524593353, 0.13770070672035217, 0.025227978825569153, -0.21271565556526184, -0.2735448479652405, -0.01497971173375845, -0.0580127015709877, 0.03468327596783638, -0.05013682320713997, 0.2669617831707001, 0.52944016456604, 0.32570216059684753, 0.018884245306253433, -0.007449513301253319, 0.0567544586956501, 0.11693396419286728, 0.37982091307640076, 1.2667198181152344, 0.36789795756340027, 0.32445549964904785, 0.7575662136077881, -0.3489992916584015, 0.5767172574996948, 0.23382772505283356, 0.30259212851524353, -0.4714180529117584, -0.3502193093299866, -0.3461429476737976, -0.4355054497718811, 0.23903115093708038, 0.09694883972406387, 0.1878756284713745, 0.5421097278594971, -0.08091328293085098, 0.05885626748204231, -0.05515078455209732, -0.17148925364017487, -0.3125608265399933, -0.5864231586456299, -0.06385327875614166, -0.22816701233386993, -0.09606408327817917, -0.4919044077396393, -0.16950125992298126, 0.561202347278595, 0.020478280261158943, -0.18071743845939636, 0.21993015706539154, 0.38906732201576233, -0.3506249487400055, 0.1179361343383789, 0.19577722251415253, -0.025711296126246452, 0.024338457733392715, 0.20053504407405853, 0.22585460543632507, 0.22340066730976105, -0.07961413264274597, 0.10174884647130966, -0.05422492325305939, -0.12133293598890305, 0.00598063925281167, -0.1657157689332962, -0.23151272535324097, -0.16108009219169617, -0.00321107916533947, -0.020524416118860245, -0.100827157497406, 0.19525641202926636, 0.05450272560119629, -0.007069736253470182, -0.00957217812538147, -0.11087759584188461, -0.0665990337729454, 0.18573832511901855, 0.07249241322278976, 0.053624194115400314, -0.031731605529785156, -0.021556038409471512, -0.3904567062854767, -0.3095994293689728, -0.0019437269074842334, 0.03016035631299019, -0.006280576344579458, 0.0056027318350970745, -0.1282079964876175, -0.5036672949790955, 0.4295598268508911, -0.3772635757923126, 0.2365373969078064, 0.22187457978725433, -0.19750818610191345, -0.15697194635868073, -0.04328702762722969, 0.6018167734146118, 0.8476808071136475, -0.4725150465965271, -0.3612593114376068, -0.35192370414733887, 0.16169385612010956, 0.5634860396385193, 0.18078066408634186, 0.39030665159225464, -0.00758993998169899, 0.15490154922008514, 0.07710415869951248, -0.002613779855892062, -0.07158666104078293, 0.0639418214559555, 0.026109514757990837, -0.1565258502960205, -0.09196137636899948, -0.004923016298562288, 0.0676649734377861, -0.05246007815003395, -0.15848690271377563, 0.13838782906532288, -0.08050522208213806, -0.24328887462615967, -0.09193971753120422, -0.07286015152931213, 0.05141827091574669, 0.05212622880935669, -0.048061154782772064, -0.16525883972644806, -0.14827170968055725, 0.05749489739537239, -0.15504206717014313, 0.13132284581661224, 0.059688832610845566, 0.04964860528707504, 0.08987003564834595, -0.015922024846076965, -0.1038372814655304, -0.0038751321844756603, 0.0019470325205475092, 0.1098082959651947, 0.03214765340089798, 0.09803161770105362, 0.07786808162927628, 0.02717157080769539, -0.00421162648126483, -0.025307489559054375, 0.060476552695035934, -0.011979787610471249, 0.10910864174365997, 0.46105456352233887, -0.06255988031625748, -0.012089659459888935, -0.010553826577961445, 0.10247842222452164, -0.22073936462402344, -0.18653514981269836, 0.10638582706451416, 0.14084750413894653, -0.008279864676296711, -0.12749488651752472, 0.18600545823574066, -0.2884443998336792, 0.06573182344436646, 0.23532691597938538, 0.6154443025588989, -0.028538543730974197, -0.048146069049835205, 0.35145655274391174, 0.007950021885335445, -0.20158651471138, 0.4949592351913452, -0.07435555011034012, 0.4985135793685913, 0.31738242506980896, -0.3664413392543793, 0.3693670332431793, 0.69743412733078, 0.3583647310733795, 0.36384183168411255, 0.25804275274276733, 0.09336821734905243, 0.11213810741901398, 0.05585625767707825, 0.15496806800365448, 0.12243818491697311, -0.6131632924079895, -0.11686825752258301, -0.10251131653785706, -0.1231323853135109, -0.018114062026143074, -0.12620477378368378, 0.5099746584892273, 0.03337450325489044, 0.020170627161860466, 0.2038554549217224, -0.025651488453149796, 0.09982337802648544, 0.24196426570415497, 0.09051307290792465, 0.028003547340631485, -0.04162447527050972, -0.22115491330623627, -0.07541196048259735, -0.24769756197929382, -0.10542314499616623, -0.039400145411491394, -0.01736263744533062, 0.20206484198570251, -0.0010455424198880792, 0.21547403931617737, -0.19019529223442078, -0.025061046704649925, -0.09323742240667343, -0.2603032886981964, -0.10431484878063202, -0.06864326447248459, -0.03099263645708561, -0.029530638828873634, 0.022945832461118698, 0.11150214821100235, -0.028908731415867805, 0.312799870967865, 0.04695216566324234, 0.031106585636734962, -0.039027824997901917, 0.04234902560710907, -0.15711037814617157, -0.11111003905534744, 0.0943930372595787, 0.0630594864487648, 0.15669001638889313, -0.00889658648520708, 0.13974133133888245, 0.04656313732266426, 0.1978766769170761, 0.02915298193693161, 0.2799493968486786, 0.13834664225578308, -0.10094739496707916, -0.2244163453578949, 0.6337034106254578, -0.3034766912460327, -0.16222143173217773, -0.612686276435852, -0.39966902136802673, -0.09369474649429321, -0.09831090271472931, -0.0794859454035759, 0.026767386123538017, -0.5365594029426575, -0.5217692852020264, -0.3502345085144043, -0.020578628405928612, 0.009502477012574673, -0.02006131038069725, -0.032399583607912064, 0.09976541996002197, -0.38908058404922485, -0.048617519438266754, -0.02129445970058441, -0.021522389724850655, -0.003951951861381531, -0.12520943582057953, -0.17247559130191803, 0.06407099962234497, 0.03382762521505356, 0.036227598786354065, 0.06850555539131165, 0.10162878781557083, -0.17751207947731018, 0.052283015102148056, 0.11703937500715256, 0.2652808129787445, 0.10087673366069794, 0.02970152162015438, 0.03921093791723251, -0.20603196322917938, -0.21328836679458618, -0.2691862881183624, -0.13328883051872253, -0.10012726485729218, 0.2188677340745926, 0.155117005109787, 0.16365836560726166, 0.042686689645051956, 0.18322275578975677, 0.20309482514858246, -0.037553757429122925, -0.13296759128570557, -0.18391217291355133, -0.2171388864517212, -0.16149583458900452, 0.1206621527671814, 0.05220593139529228, -0.06178882718086243, 0.019067896530032158, 0.16409167647361755, 0.0965782180428505, -0.10298478603363037, -0.30941352248191833, 0.2388835847377777, 0.22287769615650177, 0.13685967028141022, 0.12615236639976501, 0.2546912729740143, 0.06621572375297546, -0.05359211936593056, 0.0019544593524187803, 0.3745620548725128, 0.2333679050207138, 0.24284151196479797, 0.014232710935175419, -0.10537704080343246, 0.08146440982818604, 0.16998566687107086, -0.0580480694770813, -0.45365217328071594, 0.42933693528175354, 0.455142617225647, 0.0930575281381607, 0.18316809833049774, -0.35253268480300903, -0.285316526889801, -0.40819990634918213, -0.02540396898984909, -0.03771242871880531, -0.06011100485920906, -0.0346076525747776, -0.05389632657170296, 0.23407228291034698, 0.035219788551330566, 0.03460099920630455, 0.04622634872794151, 0.04530981928110123, -0.014222393743693829, 0.4049178957939148, 0.03442201018333435, 0.033206358551979065, 0.04943569749593735, 0.03907652199268341, 0.0903153270483017, 0.15961883962154388, 0.04825108125805855, 0.18857282400131226, 0.3125635087490082, 0.3612281084060669, 0.44836345314979553, -0.30687662959098816, -0.09081242233514786, -0.11199235916137695, -0.2321043163537979, -0.3610641658306122, -0.5127343535423279, 0.36755087971687317, 4.7724202886456624e-05, -0.1341908723115921, -0.1989833116531372, -0.07189851999282837, -0.10197272896766663, -0.13080617785453796, -0.0631539449095726, -0.12394765764474869, -0.24247735738754272, -0.2916964888572693, -0.36460667848587036, 0.33930736780166626, 0.03835650533437729, 0.07976267486810684, 0.2224753201007843, 0.3314618766307831, 0.3670673668384552, -0.20151853561401367, 0.09406402707099915, 0.10713349282741547, 0.11643436551094055, 0.08197072893381119, 0.1638544648885727, -0.09844446182250977, -0.01725027523934841, -0.05448751151561737, 0.40246039628982544, 0.10661154240369797, -0.0719994604587555, -0.1575549840927124, 0.15399986505508423, -0.1949222981929779, -0.4141347110271454, -0.2043592482805252, -0.4035665988922119, 0.23777413368225098, 0.009880421683192253, -0.24657243490219116, -0.11047398298978806, -0.04189221188426018, 0.15088361501693726, -0.15999387204647064, -0.013761255890130997, -0.005178685300052166, 0.004823969677090645, 0.022023862227797508, 0.06038908287882805, -0.3782440423965454, 0.03207902982831001, 0.01248177234083414, 0.007437471766024828, -0.03775623440742493, -0.10167502611875534, 0.047617729753255844, -0.00015051009540911764, -0.002507702214643359, 0.0006627937545999885, -0.0123417554423213, -0.021567240357398987, 0.15907078981399536, -0.015325388871133327, 0.0045491051860153675, 0.016401054337620735, 0.003549702698364854, 0.14354953169822693, -0.2861257493495941, -0.022090161219239235, -0.02473488263785839, -0.06656716763973236, -0.07239634543657303, -0.15305814146995544, -0.1246776431798935, 0.04396651312708855, 0.017203431576490402, 0.026524269953370094, 0.03859094902873039, -0.08453089743852615, -0.31339237093925476, 0.031645625829696655, 0.020523766055703163, 0.01697421632707119, -0.030941031873226166, -0.07674195617437363, 0.775990903377533, -0.008995374664664268, 0.0012605085503309965, 0.013930060900747776, 0.04337766394019127, 0.1319802701473236, -0.1547311693429947, -0.051093291491270065, -0.04017729312181473, -0.05343516543507576, 0.008166283369064331, 0.04217635095119476, -0.18122614920139313, 0.15649884939193726, 0.3622041344642639, -0.047011975198984146, -0.11803984642028809, 0.3783740699291229, 0.026977216824889183, 0.4162098467350006, -0.00858832336962223, 0.5327888131141663, 0.11612158268690109, 0.18631941080093384, -0.07476914674043655, -0.32249006628990173, -0.3899204134941101, -0.36959829926490784, -0.3457287847995758, 0.4948616325855255, -0.35605674982070923, 0.03617402911186218, 0.036669760942459106, 0.0183994360268116, 0.050308957695961, -0.016896042972803116, 0.05546183884143829, -0.06554749608039856, -0.12023995071649551, -0.23082475364208221, -0.3897640109062195, -0.25903475284576416, 0.025398267433047295, 0.09941766411066055, 0.05234365537762642, 0.037222955375909805, 0.021309474483132362, -0.006173545960336924, -0.029574204236268997, -0.05213342234492302, -0.08998279273509979, -0.12092816084623337, -0.10962191969156265, -0.10837851464748383, -0.061015769839286804, -0.026835601776838303, 0.010953920893371105, 0.017314955592155457, 0.0059092091396451, -0.04943692311644554, -0.08559613674879074, -0.061009664088487625, -0.020688503980636597, 0.009003657847642899, 0.011973810382187366, -0.004390060435980558, 0.0189836323261261, 0.04654319956898689, 0.06396254152059555, 0.11214227229356766, 0.1362045556306839, 0.22024336457252502, 0.24800728261470795, 0.12524282932281494, 0.004758891183882952, 0.018691333010792732, 0.0571674108505249, 0.05593126267194748, 0.024933967739343643, -0.014195970259606838, 0.009003389849532655], "sample_rate": 48000}}, {"max_value": 1.0, "model": {"version": "0.7.0", "metadata": {"date": {"year": 2026, "month": 6, "day": 29, "hour": 18, "minute": 27, "second": 56}, "loudness": -17.799444305938565, "gain": 0.6813736678355533}, "architecture": "WaveNet", "config": {"layers": [{"input_size": 1, "condition_size": 1, "head": {"out_channels": 1, "kernel_size": 16, "bias": true}, "channels": 8, "kernel_sizes": [6, 6, 6, 6, 6, 6, 6, 6, 6, 6, 6, 6, 6, 6, 15, 15, 6, 6, 6, 6, 6, 6, 6], "dilations": [1, 3, 7, 17, 41, 101, 239, 1, 3, 7, 17, 41, 101, 239, 1, 13, 1, 3, 7, 17, 41, 101, 239], "activation": [{"type": "LeakyReLU", "negative_slope": 0.01}, {"type": "LeakyReLU", "negative_slope": 0.01}, {"type": "LeakyReLU", "negative_slope": 0.01}, {"type": "LeakyReLU", "negative_slope": 0.01}, {"type": "LeakyReLU", "negative_slope": 0.01}, {"type": "LeakyReLU", "negative_slope": 0.01}, {"type": "LeakyReLU", "negative_slope": 0.01}, {"type": "LeakyReLU", "negative_slope": 0.01}, {"type": "LeakyReLU", "negative_slope": 0.01}, {"type": "LeakyReLU", "negative_slope": 0.01}, {"type": "LeakyReLU", "negative_slope": 0.01}, {"type": "LeakyReLU", "negative_slope": 0.01}, {"type": "LeakyReLU", "negative_slope": 0.01}, {"type": "LeakyReLU", "negative_slope": 0.01}, {"type": "LeakyReLU", "negative_slope": 0.01}, {"type": "LeakyReLU", "negative_slope": 0.01}, {"type": "LeakyReLU", "negative_slope": 0.01}, {"type": "LeakyReLU", "negative_slope": 0.01}, {"type": "LeakyReLU", "negative_slope": 0.01}, {"type": "LeakyReLU", "negative_slope": 0.01}, {"type": "LeakyReLU", "negative_slope": 0.01}, {"type": "LeakyReLU", "negative_slope": 0.01}, {"type": "LeakyReLU", "negative_slope": 0.01}], "bottleneck": 8, "head1x1": {"active": false, "out_channels": 1, "groups": 1}, "layer1x1": {"active": true, "groups": 1}, "groups_input": 1, "groups_input_mixin": 1, "conv_pre_film": {"active": false, "shift": true, "groups": 1}, "conv_post_film": {"active": false, "shift": true, "groups": 1}, "input_mixin_pre_film": {"active": false, "shift": true, "groups": 1}, "input_mixin_post_film": {"active": false, "shift": true, "groups": 1}, "activation_pre_film": {"active": false, "shift": true, "groups": 1}, "activation_post_film": {"active": false, "shift": true, "groups": 1}, "layer1x1_post_film": {"active": false, "shift": true, "groups": 1}, "head1x1_post_film": {"active": false, "shift": true, "groups": 1}, "gating_mode": ["none", "none", "none", "none", "none", "none", "none", "none", "none", "none", "none", "none", "none", "none", "none", "none", "none", "none", "none", "none", "none", "none", "none"], "secondary_activation": [null, null, null, null, null, null, null, null, null, null, null, null, null, null, null, null, null, null, null, null, null, null, null], "slimmable": null}], "head": null, "head_scale": 0.009003390050774105}, "weights": [-0.5367017984390259, -0.21807880699634552, 0.15336422622203827, 0.5342782139778137, -0.778014063835144, -0.46115630865097046, 0.30968862771987915, 1.0804460048675537, -0.07299813628196716, 0.05856618285179138, -0.036191463470458984, 0.0026670475490391254, 0.3150424659252167, 0.030287472531199455, 0.009009667672216892, -0.031972579658031464, -0.0551348514854908, -0.08759510517120361, 0.06090424209833145, -0.07135698944330215, 0.03538772836327553, 0.018941175192594528, 0.0538552924990654, 0.018662115558981895, -0.11447391659021378, -0.03834305703639984, -0.06423254311084747, 0.05447404831647873, 0.03109394758939743, -0.011101207695901394, -0.2665534019470215, -0.04772057384252548, -0.04689314216375351, 0.057120002806186676, -0.01709183119237423, 0.00419862475246191, 0.29533645510673523, 0.04931354150176048, 0.014791859313845634, 0.0530109740793705, -0.020345380529761314, -0.01937754638493061, 0.21573995053768158, 0.12591592967510223, -0.014003519900143147, -0.03228570893406868, 0.05239187553524971, -0.04731534793972969, -0.19431757926940918, -0.09820713847875595, 0.10622698813676834, -0.09543624520301819, 0.09566546231508255, 0.1563684046268463, -0.2381664663553238, -0.09270121902227402, -0.07985910028219223, -0.0629061758518219, 0.011096679605543613, -0.07922055572271347, -0.06993037462234497, -0.0025342830922454596, -0.04549330845475197, 0.006327643059194088, 0.02050631120800972, -0.019382648169994354, -0.018929192796349525, 0.004556223284453154, 0.058609407395124435, 0.012762588448822498, -0.024613497778773308, 0.018502572551369667, 0.014467315748333931, -0.013932114467024803, 0.10282796621322632, 0.10917101055383682, 0.029789039865136147, 0.09783444553613663, 0.10789453238248825, -0.027110325172543526, -0.1586795598268509, 0.014374842867255211, -0.03171638771891594, 0.0014451185707002878, -0.058072783052921295, 0.03185485303401947, -0.14860539138317108, -0.010738610289990902, -0.030563728883862495, -0.05393635854125023, -0.03974431753158569, 0.003331874031573534, 0.14079724252223969, 0.0698973760008812, 0.02817462757229805, 0.07632102072238922, 0.08236660808324814, 0.01376590970903635, 0.11850307136774063, 0.03526332974433899, -0.01868685521185398, 0.02685638517141342, 0.13551554083824158, 0.060308970510959625, -0.04399826377630234, 0.0023795347660779953, -0.01969943568110466, -0.012541482225060463, 0.0420101173222065, 0.015354440547525883, -0.021015703678131104, 0.00032971109612844884, -0.010927318595349789, -0.00312270806171, 0.01676291972398758, 0.009850474074482918, 0.015913203358650208, -0.0008966507739387453, 0.007903330959379673, 0.0018274268368259072, -0.013283480890095234, -0.008442159742116928, 0.06552459299564362, -0.01284483540803194, 0.018585272133350372, 0.03021673671901226, -0.04046418517827988, -0.014012406580150127, -0.040228456258773804, -0.025935031473636627, -0.023609749972820282, -0.05364826321601868, 0.08264580368995667, 0.01648765057325363, -0.04626912251114845, 0.0013597762444987893, -0.03101481683552265, -0.016083113849163055, 0.03695391118526459, 0.012323928996920586, 0.03511396050453186, 0.000268566538579762, 0.018036924302577972, 0.008459605276584625, -0.030525801703333855, -0.015164189040660858, 0.09536571055650711, 0.025990473106503487, 0.0594722181558609, 0.016832638531923294, -0.08632054924964905, -0.04037799686193466, 0.030687179416418076, 0.04938916116952896, 0.0893709659576416, 0.008041810244321823, 0.02126620151102543, 0.08011416345834732, 0.012770138680934906, 0.014353238977491856, 0.019466398283839226, 0.008062317036092281, 0.00443866103887558, 0.00643205689266324, -0.010691382922232151, -0.012558626011013985, -0.020191574469208717, -0.009352699853479862, -0.006658177822828293, -0.008373349905014038, -0.09175262600183487, -0.03288789466023445, -0.08293554186820984, -0.0811498612165451, -0.05498070269823074, -0.11105619370937347, 0.07580720633268356, 0.026172859594225883, 0.04794209077954292, 0.04818481206893921, 0.06111925095319748, 0.145778089761734, 0.04831555113196373, 0.060192517936229706, 0.06363414227962494, 0.02562636323273182, 0.0653500035405159, 0.07094433903694153, -0.03395547717809677, -0.038943834602832794, -0.04685286432504654, -0.03128629922866821, -0.03510608524084091, -0.06006871163845062, -0.08478451520204544, -0.12132039666175842, -0.11544424295425415, -0.02723502553999424, -0.1447962373495102, -0.19018274545669556, 0.008280300535261631, -0.004833022598177195, 0.04999668896198273, -0.14685189723968506, 0.1065472811460495, -0.003904982004314661, 0.005503036547452211, 0.0004276566905900836, 0.019670505076646805, -0.054892756044864655, 0.034394197165966034, 0.0020852789748460054, -0.003459416562691331, -0.0006373310461640358, -0.01628013700246811, 0.04272426292300224, -0.028408130630850792, -0.0040522292256355286, -0.03024987317621708, 0.009321865625679493, -0.05711383745074272, 0.1728067398071289, -0.08370157331228256, -0.009898344986140728, 0.015925345942378044, -0.01071025151759386, 0.05913180112838745, -0.19799253344535828, 0.10369937866926193, 0.00804219115525484, -0.0033648721873760223, 0.012401553802192211, 0.032075461000204086, -0.12097840756177902, 0.08343315869569778, -0.000928303285036236, -0.003766327165067196, 0.0009275504271499813, -0.025690685957670212, 0.09720645099878311, -0.06924733519554138, -0.0012693044263869524, -0.03392763063311577, -0.027172978967428207, -0.03817843645811081, 0.28584757447242737, -0.20878289639949799, -0.028894567862153053, 0.27830201387405396, 0.14657576382160187, 0.20718266069889069, 0.05070085451006889, -0.33296987414360046, -0.03309626504778862, -0.060831282287836075, -0.07361384481191635, 0.004774035420268774, 0.07953658699989319, -0.14716608822345734, -0.04008090868592262, -0.09955183416604996, -0.010061089880764484, -0.06598028540611267, -0.07837320119142532, 0.22851042449474335, 0.031691454350948334, -0.09390830248594284, -0.22903645038604736, -0.23650579154491425, -0.1222427561879158, 0.357450395822525, 0.12479434907436371, 0.2477194219827652, 0.02683083526790142, 0.16912558674812317, 0.07757873088121414, -0.2460845708847046, -0.04947682470083237, 0.23081167042255402, 0.09238599240779877, 0.10935311764478683, 0.01951669156551361, -0.3090569078922272, -0.05364092066884041, -0.22503311932086945, -0.04864056035876274, -0.15898239612579346, -0.11425058543682098, 0.23893806338310242, 0.0104172732681036, -0.21224850416183472, -0.13137947022914886, -0.14301243424415588, -0.11731348186731339, 0.39828526973724365, 0.2260705679655075, 3.617913898779079e-05, 0.00012321585381869227, 0.00013236900849733502, 0.0001352301478618756, 0.0002397088974248618, 0.00025348164490424097, 5.705580406356603e-06, 4.1633091313997284e-05, 4.796049324795604e-05, 5.1755218009930104e-05, 9.604600927559659e-05, 0.00010514253517612815, -2.519275994927739e-06, -2.788179335766472e-05, -3.266000567236915e-05, -3.559067044989206e-05, -6.689548899885267e-05, -7.378576992778108e-05, -3.611177817219868e-05, -0.00012281550152692944, -0.00013182756083551794, -0.00013455509906634688, -0.00023856147890910506, -0.00025213259505108, 6.38391065876931e-05, 0.00018914708925876766, 0.00019773966050706804, 0.00019604853878263384, 0.0003423560701776296, 0.00035560864489525557, 2.8091173589928076e-05, 0.00010318183194613084, 0.00011209278454771265, 0.00011573050142033026, 0.00020654148829635233, 0.00021980228484608233, -1.2877860172011424e-05, -6.375147495418787e-05, -7.145710696931928e-05, -7.569171430077404e-05, -0.00013805735216010362, -0.0001492574083385989, -9.553628478897735e-05, -0.0002700460026971996, -0.0002771014114841819, -0.00026760660693980753, -0.0004642200656235218, -0.0004751705564558506, -0.12592774629592896, -0.012255853973329067, 0.030863063409924507, -0.21584436297416687, 0.20393332839012146, 0.11818994581699371, 0.0216106865555048, 0.02987062744796276, -0.054289303719997406, -0.12259167432785034, 0.09187514334917068, -0.010095169767737389, 0.045497313141822815, -0.031788453459739685, 0.03497380018234253, 0.08527074009180069, -0.15535485744476318, -0.03937814012169838, 0.005217487923800945, 0.09335659444332123, -0.02930253930389881, 0.05933560058474541, -0.28344136476516724, -0.03890150040388107, -0.00794784352183342, -0.005445401184260845, -0.07292978465557098, -0.20807062089443207, 0.25701987743377686, 0.0013469579862430692, 0.045229196548461914, -0.10242486000061035, -0.10184929519891739, -0.20381636917591095, 0.22308069467544556, 0.10709314048290253, 0.11199937015771866, -0.061903294175863266, 0.03392179682850838, 0.16050095856189728, -0.17571955919265747, 0.03220812976360321, 0.038207244127988815, -0.0708174854516983, 0.12696197628974915, 0.10687945038080215, -0.2333105057477951, -0.07844189554452896, 0.23651739954948425, 0.13319627940654755, 0.10039471834897995, -0.16693712770938873, 0.02403668314218521, 0.243724063038826, -0.008385763503611088, 0.3113957643508911, -0.26462793350219727, 0.07798516750335693, -0.06607595086097717, 0.08502035588026047, -0.2695123851299286, 0.5609004497528076, -0.0004438695323187858, -0.538855791091919, 0.05231631174683571, 0.08362340182065964, 0.09030897915363312, 0.08936981856822968, -0.06502526998519897, -0.3992994427680969, 3.496205317787826e-05, -0.011018652468919754, 0.03983132168650627, -0.22320078313350677, 0.09181278944015503, 0.32152774930000305, 0.06920628249645233, 0.10520385950803757, -0.0002604770998004824, 0.2581351697444916, 0.1955675184726715, 0.13786673545837402, 0.21079877018928528, -0.029908379539847374, 0.36621877551078796, 0.024220257997512817, -5.8093195548281074e-05, 0.2510436177253723, 0.15584667026996613, 0.043694868683815, 0.07400583475828171, 0.07629188895225525, -0.14148996770381927, 0.42786484956741333, -0.00021267308329697698, -0.19196821749210358, 0.24789825081825256, -0.15292127430438995, 0.08835781365633011, 0.1721791923046112, 0.0314020961523056, -0.13562911748886108, -0.00010197022493230179, 0.2889809012413025, 0.262646347284317, 0.05323949456214905, 0.23142099380493164, -0.31552654504776, -0.22482705116271973, 0.171680748462677, -2.556695653765928e-05, -0.12469052523374557, -0.2818223237991333, -0.12980075180530548, -0.10514522343873978, -0.07365214824676514, -0.013234381563961506, 0.5722081661224365, -0.00034694134956225753, -0.49065151810646057, -0.41165152192115784, 0.14877349138259888, 0.17870813608169556, -0.03979087620973587, -0.20384842157363892, 0.05647113174200058, 0.0006751522305421531, -0.4735339879989624, -0.22326065599918365, 0.2501988410949707, -0.17703253030776978, -0.06343202292919159, -0.19803103804588318, -0.1464584618806839, 0.017306681722402573, 0.13228973746299744, -0.003833726979792118, -0.03164919465780258, -0.0008048773743212223, 0.05813926085829735, 0.04220927879214287, 0.12616389989852905, -0.07775835692882538, -0.11429008841514587, -0.14317049086093903, -0.11930155009031296, -0.06372863799333572, 0.08081426471471786, 0.06675262749195099, 0.0417606495320797, 0.04584859311580658, 0.013104163110256195, -0.04862777516245842, 0.10377589613199234, 0.06301198154687881, 0.11168140918016434, 0.07861328125, 0.008171786554157734, -0.006340904626995325, -0.10660824179649353, -0.05268356204032898, -0.11373124271631241, -0.13159821927547455, -0.05749181658029556, 0.005081329494714737, 0.2744255065917969, -0.024905018508434296, -0.010115436278283596, -0.03350413963198662, 0.00781549047678709, 0.06069400534033775, 0.1219283938407898, 0.048414260149002075, 0.1237005963921547, 0.06653787195682526, 0.005116089712828398, 0.1319444328546524, -0.15147481858730316, 0.08876928687095642, 0.14992409944534302, 0.2025962769985199, 0.120062917470932, -0.002097652293741703, -0.36411067843437195, -0.1675148755311966, -0.07807770371437073, 0.0076434374786913395, -0.13961248099803925, 0.002335926750674844, -0.20898643136024475, 0.19597281515598297, 0.11783929914236069, 0.17186209559440613, 0.1718260496854782, 0.1948239952325821, -0.12671983242034912, -0.10062459111213684, -0.09242936968803406, 0.06326574087142944, 0.17992855608463287, 0.1557304859161377, -0.14285536110401154, 0.03804265707731247, -0.21492043137550354, -0.0964113250374794, 0.049064118415117264, -0.008761713281273842, 0.35477012395858765, 0.040182869881391525, 0.23982539772987366, 0.1749580055475235, -0.07529200613498688, -0.016359401866793633, -0.3231136202812195, 0.06614675372838974, 0.05599714443087578, -0.021799365058541298, 0.03756433352828026, 0.05788543447852135, -0.17904040217399597, -0.2189318686723709, -0.16476480662822723, -0.19513709843158722, 0.024569416418671608, -0.10793360322713852, 0.19500985741615295, -0.1482197344303131, -0.23450489342212677, -0.22676502168178558, -0.15584085881710052, 0.024930668994784355, 0.3110472857952118, -0.016267405822873116, 0.0865958109498024, -0.00978410616517067, -0.0963464081287384, 0.007759708445519209, -0.029866322875022888, -0.014802561141550541, 0.06800578534603119, 0.0326535589993, 0.11427032202482224, 0.033297061920166016, -0.05814996361732483, 0.07928524166345596, -0.03785626217722893, -0.015269167721271515, 0.021886706352233887, 0.020467570051550865, -0.02944069541990757, -0.002661638194695115, 0.06808427721261978, 0.025225188583135605, 0.13197650015354156, 0.03654981032013893, 0.07887756079435349, 0.016988510265946388, -0.06432097405195236, 0.13540102541446686, -0.10327083617448807, -0.06026693433523178, -0.10918106883764267, -0.0366738960146904, -0.008344706147909164, 0.04960763081908226, -0.049932677298784256, -0.03891463205218315, -0.023954324424266815, 0.06408794969320297, 0.11363410204648972, 0.04978812485933304, 0.1573462039232254, 0.08996453136205673, 0.08521969616413116, 0.00024549756199121475, 0.12548144161701202, -0.041532937437295914, 0.04296195134520531, -0.08818603307008743, 0.07799261063337326, 0.001441282220184803, 0.0013237642124295235, 0.0013071976136416197, 0.001270592794753611, 0.001196148805320263, 0.0015865114983171225, -0.0022174054756760597, -0.002190761733800173, -0.0021693846210837364, -0.0021573195699602365, -0.002137910109013319, -0.0019591273739933968, 6.209893035702407e-05, 3.118257882306352e-05, 4.176848233328201e-05, 5.833954128320329e-05, 1.0357110113545787e-05, 7.28696832084097e-05, -0.00015159350004978478, -6.900227890582755e-05, -6.154492439236492e-05, -4.1820061596808955e-05, 3.189338531228714e-05, -0.0003482656611595303, 0.0002690382825676352, 0.0002011401957133785, 0.0002247665834147483, 0.00023672039969824255, 0.00017437359201721847, 0.0006368243484757841, 1.6637837688904256e-05, 4.2705549276433885e-05, 8.899936801753938e-05, 0.00012961518950760365, 0.00011529569746926427, 0.0001112632526201196, -8.500355033902451e-05, 0.00011136195826111361, 0.0001356690190732479, 0.00013723356823902577, 0.00024871708592399955, -0.00032981744152493775, 9.652441076468676e-05, 0.00018399949476588517, 0.00012310130114201456, 8.448831067653373e-05, 0.00019292383512947708, -0.0003610766143538058, 0.000855452788528055, 0.000824023736640811, 0.0006371106137521565, 0.0007580328383482993, 0.000708160805515945, 0.0006856403779238462, -0.0024201737251132727, -0.0026382654905319214, -0.0029643522575497627, -0.0032882383093237877, -0.003424102207645774, -0.0036811758764088154, -5.097472239867784e-05, -1.7586900867172517e-05, 6.329336611088365e-05, -0.00012368919851724058, -4.2631745600374416e-05, -5.0295613618800417e-05, -0.00011163495219079778, -0.00012548977974802256, 3.880694566760212e-05, -7.959378308441956e-06, -6.762912380509079e-05, -2.236992077087052e-05, 0.00125261046923697, 0.0010579723166301847, 0.0006311648176051676, 0.0005000141100026667, 0.0002905447327066213, -2.2224257918423973e-06, 0.00017248259973712265, 0.0001533302420284599, 2.0491163013502955e-05, 0.00018118027946911752, 0.00011785776587203145, 8.317593892570585e-05, 0.00043204848770983517, 0.0005290798144415021, 0.0007584523409605026, 0.0008976120152510703, 0.0009231108124367893, 0.00100107048638165, -0.001248938962817192, -0.0009024988394230604, -0.00018164832727052271, 0.00026852148585021496, 0.000904980581253767, 0.0015749747399240732, -0.11667141318321228, -0.047228965908288956, -0.07131542265415192, -0.03077326901257038, -0.17881783843040466, -0.1100248247385025, 0.1282988041639328, 0.05115877836942673, 0.02852935902774334, 0.10546514391899109, -0.04503532871603966, 0.04725295305252075, -0.025666983798146248, -0.039822109043598175, -0.11545628309249878, 0.03729906305670738, 0.03150518611073494, 0.008350392803549767, 0.05502930283546448, 0.13871408998966217, 0.10045202076435089, 0.04227633774280548, 0.1077772006392479, 0.11614659428596497, -0.0016079099150374532, -0.07433569431304932, 0.03324729576706886, 0.14792409539222717, -0.14694920182228088, -0.04404120519757271, -0.01964269019663334, 0.018743161112070084, 0.0288544949144125, -0.00683118961751461, -0.0797482430934906, -0.0451577864587307, 0.1367773711681366, 0.07613164931535721, 0.14364077150821686, -0.09346665441989899, 0.17898623645305634, 0.07492060214281082, -0.1625501811504364, -0.08638322353363037, 0.028697777539491653, -0.19055543839931488, 0.12275686115026474, 0.012747031636536121, 0.054765310138463974, 0.05946898087859154, 0.05949578806757927, -0.0006953477277420461, 0.031611379235982895, -0.01787400245666504, -0.0325779989361763, -0.08437666296958923, -0.053189732134342194, -0.046329014003276825, -0.0721222460269928, -0.14541760087013245, 0.030235955491662025, 0.0066786035895347595, 0.03202880918979645, 0.02035710960626602, 0.020096294581890106, 0.04281795024871826, 0.01511225663125515, 0.05569050833582878, 0.04789983481168747, 0.05464855208992958, 0.08864056318998337, 0.2297271192073822, -0.020818956196308136, 0.021584495902061462, 0.08077839761972427, 0.060238443315029144, -0.11730603873729706, -0.16648201644420624, 0.03915729746222496, 0.02412606216967106, 0.01125127263367176, 0.018172381445765495, 0.04412845894694328, -0.009560661390423775, 0.015168868005275726, 0.05788486823439598, 0.05248667299747467, 0.046248212456703186, 0.059289369732141495, 0.22301168739795685, -0.0036274779122322798, -0.019940050318837166, 0.0029063457623124123, 0.02351829968392849, 0.06394241005182266, 0.16817526519298553, 0.018115999177098274, 0.03499414399266243, 0.04187455028295517, 0.03133634105324745, -0.04732334986329079, -0.01056258101016283, -0.027388934046030045, 0.06617400795221329, -0.03603554889559746, 0.051060017198324203, 0.07742800563573837, 0.08125337213277817, 0.031858548521995544, 0.08143410831689835, 0.09044170379638672, 0.05238686501979828, -0.017088809981942177, 0.002375019248574972, -0.08996207267045975, -0.03649817779660225, -0.012707364745438099, -0.05566271021962166, 0.049947090446949005, 0.04556206986308098, -0.016121160238981247, -0.013212567195296288, -0.0845453217625618, -0.03954862430691719, -0.060067471116781235, -0.013400048017501831, -0.06965655833482742, -0.0952959731221199, -0.08639000356197357, -0.019001688808202744, -0.02542889304459095, 0.008426202461123466, -0.1985175460577011, -0.1155921071767807, -0.183695986866951, -0.16284966468811035, -0.008097661659121513, 0.00532886479049921, 0.15307825803756714, 0.01980051025748253, 0.04503953829407692, -0.0030597567092627287, 0.08623742312192917, -0.011618709191679955, -0.14173807203769684, 0.029479769989848137, 0.08663041889667511, -0.012274455279111862, -0.01178265642374754, 0.03493844345211983, -0.15577374398708344, 0.0006515964632853866, -0.21729524433612823, 0.5174811482429504, 0.2190462052822113, -0.0002383306564297527, 1.7241976820514537e-05, 0.4008239209651947, 0.4673619568347931, -0.21512849628925323, -0.18471837043762207, 0.06554891169071198, -0.17553237080574036, 0.0001899269554996863, 0.00032509295851923525, -0.20792441070079803, -0.1397905945777893, 0.2295747995376587, 0.0986519306898117, -0.12327414005994797, -0.04607676714658737, 0.0006645820685662329, -0.003535129129886627, 0.07215983420610428, -0.25094595551490784, 0.22674348950386047, 0.5236060619354248, -0.2066006064414978, -0.20038384199142456, -0.00014479330275207758, -0.001023180317133665, -0.15368971228599548, -0.23280015587806702, 0.19097599387168884, -0.15436872839927673, 0.3393009305000305, 0.2272312492132187, -0.0005540139391086996, 0.0029379723127931356, -0.14280103147029877, 0.10703261941671371, -0.01016006339341402, 0.15341298282146454, 0.13046923279762268, 0.24404330551624298, -9.296895586885512e-05, 0.003480039769783616, 0.0747760757803917, 0.016119875013828278, -0.041782695800065994, -0.0016221030382439494, 0.10013309866189957, 0.1584722250699997, -0.0004217161622364074, 0.00019272181089036167, 0.11009227484464645, -0.20545360445976257, -0.1617458462715149, -0.4075532853603363, 0.5492755174636841, -0.0751190334558487, -0.0018634522566571832, 0.002463944023475051, 0.15573303401470184, -0.10846494883298874, -0.015875328332185745, 0.007050184532999992, 0.17450296878814697, 0.1385241001844406, -0.0009908044012263417, -0.003166490001603961, 0.2700046896934509, 0.15406084060668945, 0.0951637476682663, -0.0750032439827919, 0.01404810231178999, 0.0688522458076477, -0.08439921587705612, -0.006695314776152372, -0.17637452483177185, -0.06143227964639664, -0.17544326186180115, -0.0849049836397171, 0.048435721546411514, 0.02126687578856945, 0.08682498335838318, -0.06670144945383072, -0.015017273835837841, 0.02461576834321022, 0.003980075474828482, 0.023321909829974174, 0.08093346655368805, -0.08711260557174683, 0.00699459295719862, -0.019523123279213905, 0.009718448854982853, 0.041547659784555435, 0.02553567662835121, -0.015069946646690369, 0.053365129977464676, -0.03572513535618782, -0.0016021281480789185, 0.20807498693466187, 0.13653263449668884, 0.1358959674835205, -0.031042734161019325, 0.07208053767681122, 0.04654081165790558, 0.055464811623096466, -0.05016724765300751, -0.05551615357398987, -0.12612108886241913, -0.026055986061692238, 0.0826910063624382, 0.007104104850441217, -0.0033156105782836676, -0.058319564908742905, -0.12409358471632004, 0.11157788336277008, 0.08654172718524933, 0.18955768644809723, 0.2155172973871231, 0.35130318999290466, -0.16207647323608398, 0.0010861606569960713, 0.051641009747982025, -0.1585020124912262, 0.0017476469511166215, 0.03095252625644207, 0.12736237049102783, 0.10401619225740433, -0.11768212169408798, 0.06775657087564468, 0.10020408034324646, -0.017273522913455963, -0.054154299199581146, -0.10998514294624329, 0.00016403089102823287, 0.157880499958992, 0.13659372925758362, 0.0716998502612114, -0.18806840479373932, -0.1441573053598404, -0.05355864018201828, -0.004218898713588715, 0.1159338653087616, 0.18909373879432678, -0.12480580806732178, 0.057001836597919464, -0.015149787999689579, 0.05171283707022667, -0.05797550454735756, 0.02099759131669998, 0.19921875, 0.13458609580993652, 0.19461911916732788, 0.2243671715259552, 0.06430836766958237, 0.07161933928728104, -0.28210145235061646, 0.08458580076694489, 0.05412663519382477, -0.05201815441250801, -0.044791463762521744, 0.00716545432806015, -0.20374909043312073, 0.12854482233524323, -0.044061243534088135, 0.06637097895145416, 0.1140189990401268, -0.022510964423418045, 0.2494092583656311, -0.22005854547023773, -0.09470807015895844, -0.06148778274655342, -0.05739675834774971, 0.04485756531357765, 0.3275737464427948, 0.11594212055206299, 0.07986485958099365, 0.1261909008026123, 0.04753568023443222, 0.07399316877126694, -0.045284464955329895, -0.08170506358146667, -0.07308629155158997, -0.11041661351919174, -0.08507539331912994, -0.13469088077545166, -0.23406824469566345, -0.06680148094892502, -0.022098517045378685, 0.0029323166236281395, 0.01687735691666603, -0.0010201613185927272, -0.12322723120450974, 0.05165739357471466, 0.02650553360581398, 0.09207990020513535, 0.05377744510769844, 0.08533944934606552, 0.18650083243846893, 0.1443539708852768, 0.08044194430112839, 0.08581426739692688, 0.06509356945753098, 0.10526254773139954, -0.03905718773603439, 0.1038215234875679, 0.052961114794015884, 0.03932131454348564, -0.009666436351835728, 0.014880077913403511, 0.008331609889864922, 0.10369984805583954, 0.010210982523858547, 0.0010390907991677523, -0.08372482657432556, -0.04090606048703194, 0.10301108658313751, -0.046629633754491806, -0.03638416528701782, -0.00773567846044898, 0.03468380123376846, 0.07942330092191696, 0.2827187478542328, 0.07336969673633575, 0.00132031983230263, -0.017699725925922394, 0.027969948947429657, 0.15078815817832947, -0.12047228217124939, -0.05400702357292175, -0.012118679471313953, -0.07289298623800278, -0.1322396993637085, 0.13154368102550507, 0.030882928520441055, 0.1718967705965042, -0.03601844608783722, -0.08766660839319229, -0.0973808541893959, 0.16801537573337555, -0.06074127182364464, 0.02896302379667759, 0.018070373684167862, -0.019612755626440048, -0.0406685397028923, -0.06453396379947662, -0.008275873959064484, -0.22568674385547638, -0.0959717333316803, -0.09815941751003265, -0.18662558495998383, 0.455942302942276, 0.07602860033512115, -0.03413410857319832, 0.022575125098228455, -0.014901017770171165, -0.010003923438489437, 0.16485713422298431, 0.028840839862823486, -0.0773812085390091, -0.028594138100743294, -0.09919412434101105, 0.08969469368457794, -0.20533783733844757, -0.003639646340161562, 0.12030894309282303, 0.017354043200612068, 0.055020321160554886, -0.013872198760509491, -0.35372382402420044, 0.07209481298923492, 0.0012789728352800012, 0.0011229643132537603, 0.0011478126980364323, 0.0012018310371786356, 0.0012495559640228748, 0.0008488016319461167, -0.0007688681362196803, -0.0009466710616834462, -0.0008238247828558087, -0.000946735090110451, -0.000922931358218193, -0.0012563272612169385, 0.00030198495369404554, 0.00021847189054824412, 0.00017672173271421343, 0.00029798998730257154, 0.0005027967854402959, -0.00029081536922603846, -0.0004583767440635711, -0.00028861977625638247, -0.00031735512311570346, -0.000396095187170431, -0.0004950410220772028, 3.426905459491536e-05, 6.90742745064199e-05, -8.213701221393421e-05, -8.392595191253349e-05, -0.00016930383571889251, 8.028655429370701e-05, -0.0006944224587641656, 0.00045770921860821545, 0.0004549532604869455, 0.00047835014993324876, 0.0004252140934113413, 0.0002859143423847854, 0.0003821519494522363, -0.0004839473112951964, -0.00011951098713325337, -0.0002065032022073865, -0.0004271256912034005, -0.0009672538144513965, 0.00042255944572389126, -0.0002614986151456833, -7.084029221005039e-06, -8.564958989154547e-05, -0.00018419846310280263, -0.0002032179618254304, 0.0007358526345342398, -0.17240117490291595, -0.10421620309352875, -0.07835425436496735, -0.2702619135379791, -0.19791527092456818, 0.020859412848949432, 0.07379075884819031, 0.0770682618021965, 0.08507072180509567, -0.01149506401270628, 0.0510261096060276, 0.3004049062728882, -0.0074751777574419975, -0.07841852307319641, -0.15435107052326202, -0.015451951883733273, -0.24711976945400238, 0.051266562193632126, 0.11890587955713272, -0.023753995075821877, 0.06060988828539848, -0.0006665606051683426, 0.057138752192258835, -0.09622851014137268, -0.10252618789672852, 0.002339994302019477, -0.03362257778644562, -0.17034174501895905, 0.06428688019514084, 0.34095242619514465, -0.06918544322252274, -0.18711350858211517, -0.09753458946943283, -0.07466331124305725, -0.1867930293083191, -0.06859955191612244, -0.11032536625862122, -0.00516606867313385, -0.042062703520059586, -0.1383214145898819, 0.028121409937739372, -0.1168307438492775, 0.09515050798654556, 0.15922997891902924, 0.14075681567192078, 0.11805754899978638, 0.11801929026842117, -0.22654956579208374, -0.16443337500095367, 0.08710330724716187, 0.016854694113135338, -0.12744523584842682, 0.03934382274746895, 0.05287468433380127, -0.0392036959528923, -0.0611521378159523, -0.05848081037402153, 0.11590200662612915, 0.11556778848171234, 0.17257703840732574, 0.058878328651189804, 0.03222959116101265, -0.029664818197488785, -0.09992106258869171, -0.055562786757946014, 0.17885762453079224, 0.06486266106367111, 0.1330297589302063, 0.056025661528110504, 0.1604774296283722, 0.21969377994537354, 0.037553608417510986, -0.018011488020420074, -0.059929147362709045, -0.017408553510904312, -0.07550762593746185, 0.010576055385172367, 0.23967871069908142, -0.15614233911037445, -0.0015061183366924524, -0.13999837636947632, -0.014344524592161179, -0.13865762948989868, -0.09246426075696945, -0.04888841137290001, -0.025558797642588615, 0.09645064175128937, 0.023422038182616234, 0.018092771992087364, 0.14064143598079681, 0.17819620668888092, 0.17176102101802826, 0.14956536889076233, -0.06362853944301605, -0.04227002337574959, -0.019180387258529663, 0.0008127316832542419, 0.000385495979571715, 0.000603014079388231, 0.0008041282999329269, 0.0008031960460357368, 0.0007959424983710051, -0.0006580126355402172, -0.0007708042394369841, -0.0008309672120958567, -0.0006767699960619211, -0.0007551791495643556, -0.0005653008702211082, 0.00010750798537628725, -0.00029619509587064385, -0.0003157604660373181, -7.449420081684366e-05, -1.6024187061702833e-05, -9.385573503095657e-05, -0.00041067550773732364, 0.0002082073042402044, 0.00012311930186115205, -0.0005277493037283421, -0.00032412540167570114, -0.00042628904338926077, 8.64646426634863e-05, -0.0003079073503613472, -0.0002941758430097252, -0.0001921491202665493, -0.0001384946663165465, -0.00013381498865783215, 0.0001723349269013852, 0.00023673851683270186, 0.0001267997722607106, 7.179335079854354e-05, 6.536431465065107e-05, 0.0001726923364913091, -0.0005150350043550134, 0.0007371447281911969, 0.00029489066218957305, -0.0006662209634669125, -0.00042203397606499493, -0.00043090296094305813, -0.00010360242595197633, 0.0007528787828050554, 0.0006436312105506659, -7.357702997978777e-05, -1.9219256500946358e-05, -7.153582555474713e-05, -0.05177620053291321, -0.07713206112384796, -0.25494131445884705, -0.19170616567134857, -0.002813871717080474, 0.09070237725973129, 0.1156778633594513, -0.002963429782539606, -0.27660298347473145, 0.4474567174911499, 0.10179328173398972, -0.07395948469638824, 0.00017405804828740656, -0.8798488974571228, 0.2193436324596405, -9.818126272875816e-05, -0.1687256544828415, -0.3517377972602844, 0.02967572584748268, 0.010200565680861473, -0.00020052972831763327, 0.4206898808479309, -0.09020049124956131, 0.00029019342036917806, -0.08315582573413849, 0.12737491726875305, 0.05590064078569412, -0.11374486237764359, 0.00011345601524226367, -0.19343280792236328, -0.3358597457408905, 0.0007781379390507936, 0.056378256529569626, -0.18524999916553497, 0.15529130399227142, 0.06616456806659698, -0.0003024791367352009, 0.46176835894584656, -0.038136858493089676, -7.013441063463688e-05, 0.10858139395713806, 0.11182461678981781, -0.16881036758422852, 0.4009881913661957, -2.406579369562678e-05, -0.22165684401988983, -0.26404067873954773, -0.0009231201256625354, 0.11932291090488434, 0.033575668931007385, 0.2090608775615692, 0.009729495272040367, -3.882049350067973e-05, 0.08082721382379532, -0.22350597381591797, -0.00024894686066545546, 0.2273866832256317, -0.031694017350673676, 0.10874072462320328, -0.35603392124176025, 6.841328286100179e-05, 0.053322236984968185, 0.04658326134085655, -0.0003727915172930807, 0.1692432165145874, 0.2834871709346771, -0.2261248379945755, 0.26396578550338745, -0.00012876479013357311, -0.357253760099411, -0.2623736560344696, -0.000828008574899286, 0.11428932845592499, 0.14653578400611877, -0.40741366147994995, 0.408445805311203, -0.0001394149730913341, -0.1638539582490921, 0.15859586000442505, -0.0002206828648922965, 0.13763591647148132, 0.06505270302295685, -0.21584917604923248, 0.13214656710624695, 0.03641098737716675, 0.0534859262406826, 0.10556598007678986, 0.04821163788437843, -0.0687546581029892, -0.11934255808591843, -0.1415964961051941, -0.1569077968597412, -0.07060332596302032, 0.1736079752445221, 0.08459316194057465, 0.18440912663936615, 0.10089192539453506, 0.02731929160654545, 0.03417252004146576, 0.2716505229473114, 0.020585743710398674, -0.11671474575996399, 0.03776930645108223, -0.07256113737821579, -0.11319106817245483, 0.08458054810762405, -0.021001283079385757, -0.01716768555343151, -0.13660173118114471, 0.11158893257379532, -0.020236119627952576, -0.2395186573266983, -0.04860327020287514, -0.018962107598781586, 0.02034926600754261, -0.10758860409259796, -0.0457097552716732, 0.3124467432498932, -0.12323743104934692, -0.03226170688867569, -0.07884403318166733, -0.0878959596157074, 0.10885714739561081, 0.15011562407016754, -0.10700905323028564, -0.146131232380867, -0.06572627276182175, -0.13861538469791412, -0.11413925886154175, -0.1327182501554489, 0.15167897939682007, 0.11038132011890411, 0.22407427430152893, 0.03931289166212082, 0.17289532721042633, -0.33621999621391296, 0.014323737472295761, 0.11209707707166672, 0.2111177295446396, 0.08226988464593887, 0.027435513213276863, -0.29699239134788513, 0.12931039929389954, 0.06333021819591522, 0.11059395223855972, -0.0012287329882383347, 0.22509410977363586, -0.2338608205318451, -0.03872526437044144, -0.031107228249311447, -0.13604195415973663, -0.1701844334602356, 0.02464159019291401, -0.2996079921722412, 0.0919657051563263, -0.018753737211227417, 0.15790945291519165, -0.052959129214286804, 0.014090894721448421, 0.2647942006587982, 0.1457965224981308, 0.0883190855383873, 0.19629399478435516, 0.17577429115772247, 0.07382427901029587, -0.3809918761253357, -0.007316139992326498, -0.03333517909049988, -0.05201376602053642, -0.032426830381155014, -0.12001188099384308, -0.11269029229879379, 0.0017439145594835281, 0.05110769718885422, 0.0839054062962532, -0.10226554423570633, -0.02184412069618702, 0.14096735417842865, -0.10422120243310928, -0.06048709154129028, -0.18398107588291168, -0.07122852653265, -0.04165096580982208, 0.34186798334121704, 0.02836199291050434, -0.05111995339393616, 0.15656602382659912, -0.0186645295470953, 0.12128390371799469, -0.07624829560518265, -0.033745694905519485, 0.15255002677440643, 0.1270940601825714, -0.09207012504339218, 0.12113887071609497, -0.18725523352622986, -0.07476010173559189, -0.007801615167409182, -0.11995992809534073, 0.02653484232723713, -0.05567216873168945, -0.017963798716664314, 0.0650186687707901, -0.14885984361171722, -0.035370297729969025, -0.03362613916397095, 0.06453840434551239, -0.0627569928765297, 0.12443508952856064, 0.07969318330287933, 0.15419389307498932, 0.07303548604249954, 0.1270800232887268, -0.00611539464443922, -0.015786360949277878, -0.018991535529494286, -0.05054638534784317, 0.04732942581176758, -0.13736477494239807, -0.08820639550685883, -0.1629924178123474, -0.03819518908858299, -0.003915222827345133, -0.22407488524913788, -0.2366800457239151, -0.13978764414787292, 0.004427634179592133, -0.13288229703903198, -0.1780284196138382, -0.04614006727933884, -0.06013508886098862, 0.18819676339626312, -0.02283906564116478, 0.0015100054442882538, -0.061999958008527756, 0.033760908991098404, -0.038665056228637695, -0.07697370648384094, 0.014095728285610676, -0.0770595520734787, -0.06403467059135437, 0.01649138331413269, 0.01527379173785448, 0.05584871396422386, 0.08418403565883636, 0.052046217024326324, 0.051309358328580856, -0.005641976371407509, 0.06710788607597351, -0.11539123207330704, -0.03465591371059418, 0.06768438220024109, 0.02494709938764572, 0.10763637721538544, 0.06607723981142044, 0.0393831729888916, -0.03206062689423561, -0.005893922410905361, -0.06885650008916855, -0.016192277893424034, 0.005864275153726339, -0.009992455132305622, 0.03108852542936802, 0.03893304616212845, 0.03467321768403053, -0.06933087855577469, 0.06882986426353455, 0.031701069325208664, 0.08319102227687836, 0.09921051561832428, 0.02353544533252716, 0.15811918675899506, 0.20331615209579468, 0.09714993089437485, 0.04504454508423805, 0.043568696826696396, 0.073143869638443, -0.0029721176251769066, -0.008017867803573608, 0.04329259693622589, -0.08694769442081451, 0.050525765866041183, -0.07203096151351929, -0.09285469353199005, -0.01991552673280239, -0.0450226292014122, 0.08094995468854904, 0.006578059401363134, 0.037716880440711975, 0.1200878843665123, 0.2131005972623825, 0.08017001301050186, -0.008312088437378407, -0.037925656884908676, 0.08485866338014603, -0.0024923644959926605, -0.16682954132556915, -0.12386945635080338, -0.007548653986304998, -0.05696740373969078, 0.0089540621265769, 0.180887371301651, 0.19623441994190216, 0.09382450580596924, 0.019060224294662476, 0.07138751447200775, 0.058108139783144, -0.034287288784980774, 0.06372693926095963, 0.01576329581439495, -0.03854037821292877, -0.10173309594392776, -0.17705343663692474, -0.0709473043680191, -0.014710845425724983, -0.0842524841427803, -0.0019029290415346622, 0.12029489874839783, 0.0791652575135231, 0.17188215255737305, -0.012407682836055756, 0.12325674295425415, 0.11347035318613052, 0.05974766984581947, -0.017041457816958427, -0.0571887381374836, -0.12120749801397324, -0.054780613631010056, -0.10073930770158768, -0.10273408144712448, -0.20749613642692566, -0.056267477571964264, -0.24737173318862915, -0.029057567939162254, 0.10150561481714249, -0.0033522010780870914, 0.2036334127187729, 0.33468449115753174, 0.12383656948804855, 0.1414947509765625, -0.029824810102581978, -0.06238432228565216, -0.024212270975112915, -0.1692643016576767, -0.15706661343574524, 0.10917244106531143, -0.036701951175928116, 0.044333282858133316, 0.06376830488443375, 0.19839869439601898, 0.3268987536430359, -0.0007820203900337219, -0.04065387696027756, 0.10612821578979492, 0.029871057718992233, 0.01472252793610096, 0.03629143163561821, 0.18003545701503754, -0.07334944605827332, 0.01249268464744091, -0.04884719103574753, -0.10670401155948639, 0.10001085698604584, -0.033394765108823776, -0.05275961011648178, 0.07362378388643265, 0.06431809812784195, 0.05195721238851547, 0.04933178797364235, -0.03065091371536255, 0.12680956721305847, 0.11826104670763016, 0.015995243564248085, -0.006055086385458708, 0.2049931138753891, -0.06092129647731781, 0.009149711579084396, 0.08532293885946274, -0.18299204111099243, 0.05333467945456505, 0.08677346259355545, 0.10322974622249603, 0.018503928557038307, 0.053743716329336166, -0.16671065986156464, -0.019916299730539322, -0.04114242270588875, -0.03648412227630615, 0.030042368918657303, 0.05704178288578987, -0.16289357841014862, 0.06906531006097794, 0.09689649939537048, 0.10692760348320007, 0.06511653959751129, 0.05813325196504593, 0.10822755098342896, -0.13015025854110718, 0.039354562759399414, -0.05902998521924019, 0.10327819734811783, 0.06372582167387009, -0.11188748478889465, -0.09456571936607361, -0.09811822324991226, -0.0975482389330864, 0.029366498813033104, -0.09920556098222733, 0.03400205075740814, -0.052940208464860916, -0.03585582226514816, -0.02413478121161461, 0.15456967055797577, 0.08718504011631012, 0.15168967843055725, -0.007081231102347374, -0.011395936831831932, -0.024835100397467613, -0.22096139192581177, -0.15518580377101898, 0.2544713318347931, -0.09425035119056702, -0.01721048168838024, 0.09928027540445328, -0.08221738785505295, 0.025495724752545357, 0.031022127717733383, -0.021876901388168335, 0.0223463773727417, -0.14245913922786713, 0.08148413151502609, 0.015329670161008835, 0.041486721485853195, -0.03287914767861366, -0.07478411495685577, -0.1530907303094864, 0.011074964888393879, -0.02672281116247177, 0.02578047849237919, -0.012430090457201004, 0.07109299302101135, -0.1517353504896164, 0.0014963069697842002, -0.0011730624828487635, 0.005509770940989256, 0.06142793968319893, 0.01843317784368992, 0.2597491145133972, 0.04765612259507179, 0.007457491476088762, -0.03346683830022812, -0.025918204337358475, 0.014277804642915726, 0.027276767417788506, 0.0024858848191797733, -0.0432610921561718, 0.015397432260215282, -0.02138589322566986, 0.04901144281029701, 0.06338522583246231, 0.026421329006552696, 0.05442650243639946, 0.0851466953754425, -0.03421768173575401, 0.08320563286542892, 0.1298755705356598, -0.07607602328062057, -0.10508622229099274, -0.1331469565629959, -0.0697769969701767, -0.08937972784042358, 0.21170556545257568, -0.006170615553855896, 0.17570576071739197, 0.1728445142507553, -0.22398386895656586, 0.11408253759145737, 0.12984983623027802, 0.04401394724845886, -0.3880385160446167, -0.048940591514110565, 0.3286856710910797, 0.6078768372535706, 0.021513886749744415, 0.6761643290519714, 0.44529637694358826, 0.13102418184280396, 0.1490411013364792, 0.22248314321041107, 0.11900939792394638, -0.3338121473789215, 0.09286295622587204, 0.21752148866653442, 0.023615188896656036, 0.3033190965652466, 0.03377094492316246, -0.2170202136039734, 0.007822546176612377, 0.17653867602348328, -0.11364306509494781, -0.15688659250736237, -0.376767098903656, -0.18271414935588837, -0.020176773890852928, 0.07328081130981445, 0.08280890434980392, 0.05406082794070244, 0.0766247883439064, -0.1652947962284088, -0.25458061695098877, -0.12596389651298523, 0.3938843011856079, -0.126447856426239, 0.04453401267528534, 0.2683057188987732, 0.19329211115837097, -0.2411988526582718, -0.21146155893802643, 0.016175320371985435, -0.1703612357378006, 0.07252777367830276, 0.21862997114658356, -0.23519912362098694, 0.1036946177482605, 0.2293393760919571, 0.2641884386539459, 0.16268832981586456, 0.21581287682056427, 0.08415254205465317, -0.2796812355518341, -0.02562798373401165, -0.09341011196374893, 0.18032480776309967, -0.007086769677698612, 0.11005667597055435, 0.1652311235666275, -0.3922637104988098, 0.5157119035720825, 0.32380014657974243, -0.22244104743003845, 0.1641867309808731, 0.20438222587108612, 0.051263611763715744, -0.21588535606861115, -0.2014409452676773, 0.49702057242393494, -0.10592341423034668, -0.09585308283567429, 0.1641613394021988, -0.2708635926246643, -0.05478847771883011, -0.357664555311203, 0.050227757543325424, -0.0718337818980217, 0.11976879835128784, 0.0757606253027916, -0.16837991774082184, -0.07801587134599686, -0.2007846087217331, 0.2566309869289398, 0.01955435983836651, 0.018357330933213234, 0.04925191402435303, 0.026897264644503593, -0.04604643955826759, 0.14124695956707, -0.08856023102998734, -0.1616884171962738, -0.25175419449806213, -0.11929953098297119, -0.31397855281829834, 0.03454681858420372, 0.014416574500501156, 0.08912751078605652, 0.025233902037143707, 0.0575348399579525, -0.02887154370546341, 0.1277799755334854, 0.06303063780069351, 0.07599597424268723, -0.004069166723638773, -0.07568863034248352, -0.08176406472921371, -0.04544268921017647, 0.0346902534365654, 0.05685865506529808, 0.0034205387346446514, 0.08596586436033249, 0.09079020470380783, 0.17244359850883484, -0.14473257958889008, -0.09374173730611801, -0.11487007141113281, -0.11687535792589188, -0.1529320925474167, -0.059884533286094666, -0.1064145565032959, 0.04305468499660492, -0.005120913498103619, -0.07942914962768555, -0.1133880615234375, -0.2361215054988861, 0.10941939055919647, -0.02361874282360077, 0.08427156507968903, 0.21711429953575134, 0.24421465396881104, -0.27704092860221863, -0.06352418661117554, 0.12849311530590057, 0.15285533666610718, 0.18828171491622925, 0.1894073784351349, -0.2051468789577484, -0.18702125549316406, -0.14862646162509918, -0.16090165078639984, -0.0772668644785881, -0.07629634439945221, -0.02073700912296772, 0.038590505719184875, 0.033096279948949814, 0.1547187864780426, 0.04290125146508217, -0.09757480025291443, -0.024126073345541954, 0.14246191084384918, 0.14891134202480316, -0.0189033392816782, 0.05002623051404953, 0.09168006479740143, -0.0726013109087944, 0.025316674262285233, 0.19978384673595428, 0.17551536858081818, 0.38047146797180176, 0.1750575453042984, -0.20261579751968384, 0.05374789610505104, -0.11951888352632523, -0.09676577895879745, -0.009926548227667809, 0.039458248764276505, -0.0772334411740303, -0.035281505435705185, -0.054702915251255035, 0.15434716641902924, 0.044740669429302216, -0.01542065292596817, -0.17871984839439392, 0.0010676811216399074, -0.019318072125315666, 0.032620619982481, 0.06801870465278625, -0.11525680124759674, -0.006898132152855396, 0.01392394956201315, 0.006416294723749161, 0.036855798214673996, 0.15981647372245789, 0.10035989433526993, 0.042982228100299835, -0.053906336426734924, -0.119535431265831, -0.13594526052474976, -0.05549302324652672, 0.04062997177243233, -0.07870239019393921, -0.02363763377070427, -0.01824536919593811, -0.03914369270205498, -0.0605638325214386, -0.13838423788547516, -0.02039152942597866, -0.02494068257510662, -0.00773027865216136, -0.10449232906103134, -0.1171550452709198, -0.0950823649764061, 0.09963414818048477, -0.03238595277070999, -0.024248506873846054, -0.04305267333984375, -0.007173292804509401, 0.14006248116493225, 0.15107178688049316, 0.06179197505116463, 0.059726450592279434, -0.04020693898200989, 0.03428448364138603, -0.05286717787384987, 0.03303694725036621, 0.02445385232567787, -0.021100498735904694, 0.0764196440577507, 0.021174442023038864, -0.006016998086124659, 0.026072466745972633, 0.02687946893274784, 0.060212139040231705, -0.026838572695851326, 0.09540262818336487, 0.008827741257846355, 0.11155500262975693, -0.08532769978046417, -0.07607139647006989, 0.2536993622779846, 0.04155208542943001, 0.09373114258050919, -0.1031968742609024, -0.03713741898536682, -0.08895783126354218, -0.09304817765951157, -0.10492540895938873, 0.04384683072566986, -0.018865302205085754, 0.09452902525663376, -0.07420600205659866, -0.0033776930067688227, 0.011387412436306477, -0.02193303219974041, 0.052569761872291565, 0.09493058919906616, 0.11388814449310303, 0.04182567447423935, 0.04878171160817146, 0.06605253368616104, -0.0014396327314898372, -0.03150109201669693, 0.0329311303794384, 0.12346881628036499, -0.033310458064079285, 0.05811745300889015, -0.16847094893455505, 0.0699906125664711, 0.04097708314657211, -0.033584512770175934, -0.03724481165409088, 0.0630347728729248, -0.035421669483184814, 0.024437451735138893, 0.10641283541917801, 0.18113067746162415, 0.0507708415389061, -0.0032818042673170567, -0.0581815280020237, -0.05707194656133652, 0.19783304631710052, -0.14916709065437317, -0.04447004571557045, -0.005256508942693472, -0.03859497979283333, 0.06748826801776886, 0.06999267637729645, 0.06104567274451256, 0.04847482591867447, 0.0839528888463974, 0.22048836946487427, -0.028081556782126427, -0.03451758995652199, -0.13897652924060822, -0.17423993349075317, -0.17519228160381317, 0.06401267647743225, -0.11108089983463287, -0.0709005817770958, -0.0820234939455986, -0.005375417415052652, -0.10896871238946915, 0.16338084638118744, 0.026558768004179, -0.06805847585201263, -0.05829130485653877, -0.07857873290777206, -0.14092935621738434, -0.03494469076395035, -0.03444015234708786, -0.045931026339530945, -0.10470925271511078, 0.0003673108294606209, 0.09435021877288818, 0.0694122165441513, -0.1035936251282692, 0.07530011981725693, 0.0027345228008925915, -0.04335498437285423, -0.06007971242070198, 0.007358316797763109, -0.009186672046780586, 0.05620744079351425, -0.03647414594888687, 0.03577904403209686, 0.08471180498600006, -0.29105228185653687, -0.01146623119711876, -0.006267587188631296, 0.14101015031337738, 0.10787687450647354, 0.08703330904245377, -0.3344525992870331, 0.035482726991176605, 0.022797271609306335, 0.046794191002845764, -0.0022488057147711515, 0.08856308460235596, -0.31021377444267273, 0.006757967174053192, 0.0376129224896431, 0.1482412964105606, 0.20465610921382904, 0.3915036916732788, -0.10504961758852005, -0.024307001382112503, 0.033007871359586716, -0.04423517733812332, 0.05815288797020912, 0.07864021509885788, -0.24684828519821167, 0.025343600660562515, 0.0459480918943882, 0.07120225578546524, 0.04068071395158768, 0.07660236209630966, 0.12764887511730194, 0.015880655497312546, 0.06857108324766159, 0.1297689825296402, 0.08700881153345108, 0.12377945333719254, -0.136129230260849, -0.077067069709301, -0.025693422183394432, -0.003317125840112567, 0.02249491587281227, -0.03437040001153946, -0.1444498747587204, -0.12889423966407776, -0.00406947685405612, -0.10216846317052841, -0.04235424846410751, -0.012236714363098145, 0.33215954899787903, 0.14495767652988434, -0.008180953562259674, 0.06944391876459122, -0.0057959239929914474, -0.11677911132574081, 0.25479212403297424, 0.015212402679026127, 7.385548087768257e-05, 0.0153812849894166, -0.08699028193950653, 0.020987272262573242, 0.06316488236188889, 0.03994200378656387, 0.09188120812177658, 0.09372524917125702, 0.006813752464950085, 0.06684579700231552, -0.10087910294532776, -0.026732249185442924, -0.03975426033139229, -0.05409843102097511, 0.026047801598906517, 0.12165847420692444, -0.04666934534907341, -0.0028358891140669584, 0.04711331054568291, 0.08575667440891266, 0.05109156668186188, 0.18546858429908752, 0.01591695472598076, 0.07020916789770126, -0.029719512909650803, -0.040815532207489014, -0.04031277075409889, 0.23828694224357605, -0.003077226458117366, 0.024393124505877495, -0.015407916158437729, -0.03712795674800873, 0.024055462330579758, -0.058273084461688995, -0.08013979345560074, 0.059796687215566635, -0.053385376930236816, -0.015544062480330467, -0.0011671034153550863, -0.06207338348031044, -0.041405368596315384, -0.08546080440282822, -0.019820839166641235, -0.08281367272138596, -0.11538241058588028, -0.09093189239501953, 0.08957108110189438, 0.05168205127120018, 0.09556882828474045, 0.061775170266628265, 0.017709001898765564, 0.08356324583292007, -0.03613950312137604, -0.15017694234848022, -0.05570497363805771, 0.06663835048675537, -0.10442491620779037, -0.2158055156469345, -0.01813817396759987, -0.029202133417129517, -0.04633162170648575, 0.053077373653650284, 0.09941866993904114, -0.11263761669397354, 0.001446800073608756, 0.1846383810043335, 0.15237097442150116, 0.024769378826022148, 0.09609448164701462, 0.00488846143707633, -0.037042632699012756, -0.018790097907185555, 0.08052335679531097, 0.10416024178266525, 0.06618151068687439, 0.1630479097366333, -0.2634023427963257, -0.06289853900671005, -0.024789974093437195, 0.07519172877073288, -0.1026858314871788, -0.16690294444561005, 0.03054792806506157, 0.022177645936608315, 0.014626439660787582, 0.04054991900920868, 0.14242736995220184, 0.39316311478614807, -0.12812049686908722, -0.07364736497402191, -0.091376893222332, 0.024062564596533775, -0.1145746111869812, 0.1572442203760147, 0.05573716014623642, 0.03541853278875351, -0.12219348549842834, -0.02562042511999607, -0.006551025435328484, 0.023121405392885208, 0.07077457010746002, -0.029051071032881737, -0.05956654995679855, -0.38245058059692383, 0.15791083872318268, 0.0588345006108284, 0.0705331340432167, -0.31082192063331604, 0.48222818970680237, -0.049996376037597656, 0.05495163053274155, 0.045980170369148254, 0.49227824807167053, -0.2390567511320114, 0.3045864999294281, 0.12287550419569016, 0.1298697590827942, 0.12419296056032181, 0.3012881278991699, -0.21646776795387268, -0.17666740715503693, 0.11690819263458252, -0.09662280976772308, -0.18861021101474762, 0.18006156384944916, 0.202986478805542, -0.13399803638458252, 0.1358804702758789, -0.14049077033996582, -0.30752992630004883, -0.08971050381660461, 0.012379063293337822, 0.039124514907598495, 0.07751494646072388, -0.1368933916091919, -0.02779812179505825, -0.06298606842756271, -0.13402807712554932, -0.014902517199516296, -0.00898063089698553, 0.2588421106338501, 0.14043298363685608, -0.11129562556743622, -0.11023730039596558, 0.15660084784030914, -0.019956229254603386, 0.08919928967952728, -0.00931034330278635, -0.06340226531028748, -0.04900166019797325, 0.048663828521966934, 0.12698212265968323, 0.15478678047657013, 0.21677462756633759, 0.11912783980369568, 0.29112356901168823, 0.004565977491438389, 0.05549812689423561, 0.06866972148418427, -0.11228705942630768, 0.026119602844119072, 0.10207747668027878, -0.011126425117254257, 0.04333943501114845, 0.2247447371482849, 0.19830094277858734, 0.012344668619334698, -0.3397279679775238, -0.07531972229480743, -0.15864525735378265, -0.02918226271867752, -0.23587246239185333, 0.4334001839160919, 0.06223159655928612, -0.06569085270166397, -0.21516336500644684, 0.16003596782684326, -0.054881397634744644, -0.054369743913412094, 0.0031130770221352577, 0.1595921367406845, -0.016093706712126732, 0.06045984849333763, 0.07912831753492355, 0.17737078666687012, 0.10147197544574738, 0.1362135261297226, 0.15682001411914825, 0.039629288017749786, -0.03401190787553787, 0.007526800502091646, -0.09188859164714813, -0.08344938606023788, -0.084103524684906, 0.24052537977695465, -0.08837474137544632, -0.04766130819916725, -0.03872009739279747, -0.11542615294456482, -0.009986363351345062, 0.1011880487203598, 0.030798323452472687, -0.04211818054318428, 0.01696615293622017, 0.010966135188937187, -0.021482184529304504, -0.07587214559316635, 0.03872571885585785, -0.021822653710842133, 0.07617226243019104, 0.05932222306728363, 0.0750359371304512, -0.09238620102405548, 0.16613340377807617, 0.15549957752227783, 0.08444124460220337, 0.15147216618061066, 0.2351100891828537, -0.01012390572577715, 0.06964763253927231, 0.19169174134731293, 0.137947678565979, 0.10965026170015335, 0.11014609783887863, 0.05384214594960213, 0.001146627590060234, -0.04888463765382767, 0.009118414483964443, -0.024301953613758087, 0.08987203985452652, -0.003897831542417407, 0.01950073428452015, 0.0732104629278183, 0.012260563671588898, 0.07744252681732178, 0.004775649402290583, 0.007159757427871227, -0.08468553423881531, -0.04235723242163658, -0.034960776567459106, -0.03325292095541954, 0.13849857449531555, -0.047344520688056946, -0.012915326282382011, 0.00901317223906517, -0.0046863192692399025, 0.003116477048024535, -0.013225658796727657, 0.035875290632247925, 0.02159757725894451, 0.05213948339223862, 0.021767398342490196, 0.06249351426959038, 0.021584631875157356, -0.11585069447755814, -0.043410878628492355, -0.013131137937307358, -0.028048362582921982, -0.013898244127631187, 0.049228254705667496, -0.03646845743060112, 0.008863498456776142, 0.05300210416316986, -0.007647531572729349, -0.011277670040726662, -0.10302320122718811, -0.05328112095594406, -0.00047701637959107757, 