{"version": "0.7.0", "metadata": {"date": {"year": 2026, "month": 6, "day": 29, "hour": 13, "minute": 15, "second": 56}, "loudness": -21.52377773737219, "gain": 0.6799860959647506, "training": {"settings": {"ignore_checks": false}, "data": {"latency": {"manual": null, "calibration": {"algorithm_version": 1, "delays": [-17], "safety_factor": 1, "recommended": -18, "warnings": {"matches_lookahead": false, "disagreement_too_high": false, "not_detected": false}}}, "checks": {"version": 3, "passed": true}}, "validation_esr": null}}, "architecture": "SlimmableContainer", "config": {"submodels": [{"max_value": 0.5, "model": {"version": "0.7.0", "metadata": {"date": {"year": 2026, "month": 6, "day": 29, "hour": 13, "minute": 15, "second": 55}, "loudness": -22.15688683008459, "gain": 0.702344655471108}, "architecture": "WaveNet", "config": {"layers": [{"input_size": 1, "condition_size": 1, "head": {"out_channels": 1, "kernel_size": 16, "bias": true}, "channels": 3, "kernel_sizes": [6, 6, 6, 6, 6, 6, 6, 6, 6, 6, 6, 6, 6, 6, 15, 15, 6, 6, 6, 6, 6, 6, 6], "dilations": [1, 3, 7, 17, 41, 101, 239, 1, 3, 7, 17, 41, 101, 239, 1, 13, 1, 3, 7, 17, 41, 101, 239], "activation": [{"type": "LeakyReLU", "negative_slope": 0.01}, {"type": "LeakyReLU", "negative_slope": 0.01}, {"type": "LeakyReLU", "negative_slope": 0.01}, {"type": "LeakyReLU", "negative_slope": 0.01}, {"type": "LeakyReLU", "negative_slope": 0.01}, {"type": "LeakyReLU", "negative_slope": 0.01}, {"type": "LeakyReLU", "negative_slope": 0.01}, {"type": "LeakyReLU", "negative_slope": 0.01}, {"type": "LeakyReLU", "negative_slope": 0.01}, {"type": "LeakyReLU", "negative_slope": 0.01}, {"type": "LeakyReLU", "negative_slope": 0.01}, {"type": "LeakyReLU", "negative_slope": 0.01}, {"type": "LeakyReLU", "negative_slope": 0.01}, {"type": "LeakyReLU", "negative_slope": 0.01}, {"type": "LeakyReLU", "negative_slope": 0.01}, {"type": "LeakyReLU", "negative_slope": 0.01}, {"type": "LeakyReLU", "negative_slope": 0.01}, {"type": "LeakyReLU", "negative_slope": 0.01}, {"type": "LeakyReLU", "negative_slope": 0.01}, {"type": "LeakyReLU", "negative_slope": 0.01}, {"type": "LeakyReLU", "negative_slope": 0.01}, {"type": "LeakyReLU", "negative_slope": 0.01}, {"type": "LeakyReLU", "negative_slope": 0.01}], "bottleneck": 3, "head1x1": {"active": false, "out_channels": 1, "groups": 1}, "layer1x1": {"active": true, "groups": 1}, "groups_input": 1, "groups_input_mixin": 1, "conv_pre_film": {"active": false, "shift": true, "groups": 1}, "conv_post_film": {"active": false, "shift": true, "groups": 1}, "input_mixin_pre_film": {"active": false, "shift": true, "groups": 1}, "input_mixin_post_film": {"active": false, "shift": true, "groups": 1}, "activation_pre_film": {"active": false, "shift": true, "groups": 1}, "activation_post_film": {"active": false, "shift": true, "groups": 1}, "layer1x1_post_film": {"active": false, "shift": true, "groups": 1}, "head1x1_post_film": {"active": false, "shift": true, "groups": 1}, "gating_mode": ["none", "none", "none", "none", "none", "none", "none", "none", "none", "none", "none", "none", "none", "none", "none", "none", "none", "none", "none", "none", "none", "none", "none"], "secondary_activation": [null, null, null, null, null, null, null, null, null, null, null, null, null, null, null, null, null, null, null, null, null, null, null], "slimmable": null}], "head": null, "head_scale": 0.004110541183483833}, "weights": [-0.42829203605651855, -0.5945330858230591, -1.1180673837661743, 0.23266302049160004, 0.19752180576324463, 0.3727652132511139, 0.4101124107837677, 0.2643372118473053, -0.5604512691497803, 0.19188736379146576, 0.15127970278263092, 0.4530669152736664, 0.35438600182533264, 0.03371816501021385, -0.6167645454406738, 0.16849425435066223, 0.314430296421051, 0.4002411961555481, 0.680188000202179, -0.005323859862983227, -0.49387967586517334, -0.10706206411123276, 0.15172861516475677, 0.06465660035610199, 0.04639666900038719, 0.09768493473529816, 0.07023783773183823, -0.10562750697135925, 0.03018268384039402, 0.10052353143692017, 0.08760237693786621, -0.024601273238658905, 0.12095948308706284, -0.13514554500579834, 0.12387815117835999, 0.23259873688220978, 0.2936680316925049, 0.1709575057029724, 0.13827131688594818, -0.13072709739208221, 0.055057328194379807, 0.022220028564333916, 0.012079417705535889, -0.2228848934173584, -0.08068323135375977, -0.13134415447711945, 0.2613338530063629, 0.0291474387049675, 0.058515701442956924, -0.06941462308168411, 0.012942057102918625, -0.17311738431453705, 0.2000841647386551, 0.16807536780834198, -0.01412768755108118, -0.2788545787334442, -0.1066482812166214, 0.6976650953292847, -0.18323563039302826, 0.10885978490114212, 0.9205103516578674, 0.2754572331905365, 0.2574983239173889, -0.7728520631790161, 0.004764166194945574, 0.0019198207883164287, -0.12225905805826187, -0.22668525576591492, 0.2273104041814804, -0.7394786477088928, 0.18692843616008759, -0.23127849400043488, 0.3767121136188507, -0.3849765956401825, -0.1127786785364151, 0.04097716882824898, -0.19080767035484314, 0.1530122011899948, -0.32173022627830505, 0.10594451427459717, -0.5760313272476196, -0.0571499839425087, 0.0480988547205925, 0.2345961034297943, 0.15285933017730713, 0.0965108573436737, -0.10070977360010147, 0.032247815281152725, 0.11227010190486908, 0.01978808455169201, 0.26872214674949646, 0.2903316020965576, -0.6983023881912231, 0.1610855907201767, 0.0261900182813406, 0.05861831083893776, -0.024883674457669258, 0.19967912137508392, -0.09965276718139648, -0.058173347264528275, -0.22245430946350098, -0.2708110213279724, -0.082893006503582, -0.2589384615421295, -0.04254337400197983, -0.13998721539974213, 0.023273902013897896, 0.051634788513183594, 0.16201470792293549, -0.1975758820772171, -0.35163411498069763, -0.10155164450407028, -0.05229165032505989, -0.284688800573349, -0.5354875326156616, 0.0009346982697024941, -0.30682113766670227, -0.2643586993217468, 0.17259478569030762, -0.15575414896011353, 0.22112613916397095, -0.004542975220829248, -0.20389388501644135, -0.11154943704605103, -0.10893891751766205, -0.043282847851514816, -0.19815023243427277, 0.41676315665245056, -0.028555776923894882, 0.08138155192136765, 0.3617628812789917, 0.38614630699157715, 0.39898866415023804, 0.6817252039909363, 0.6054203510284424, -0.39093488454818726, 0.2950749099254608, -0.25724390149116516, -0.47317251563072205, 0.5717570185661316, -0.17578117549419403, -0.05859208106994629, -0.5576261878013611, -0.491001695394516, 0.4644569158554077, -0.06855403631925583, 0.30157026648521423, -0.069051593542099, 0.12122056633234024, 0.0352461002767086, 0.1507985144853592, 0.2458588182926178, -0.021780533716082573, -0.07475389540195465, -0.11798631399869919, -0.09787140786647797, -0.1333952397108078, -0.01956143230199814, 0.1584903597831726, 0.13683289289474487, 0.03724339231848717, 0.08236553519964218, 0.1521904170513153, 0.29922565817832947, -0.153432235121727, -0.05851484090089798, -0.0022093327715992928, -0.005449333693832159, 0.008900565095245838, 0.10418771952390671, -0.1353732943534851, -0.025977279990911484, 0.057118017226457596, 0.0822373628616333, 0.22867849469184875, 0.0029193127993494272, 0.1295817643404007, 0.013417311944067478, 0.044415127485990524, -0.01993745006620884, -0.19063258171081543, 0.2784840762615204, -0.03989710658788681, 0.10600073635578156, 0.19810038805007935, 0.020741114392876625, 0.1915954351425171, 0.08907322585582733, 0.2557590901851654, 0.027458952739834785, -0.010502861812710762, 0.15261369943618774, 0.13028360903263092, 0.19061322510242462, -0.20010130107402802, 0.038123052567243576, -0.025983108207583427, 0.11770022660493851, -0.0211483146995306, -0.22159108519554138, -0.005097582470625639, 0.05739044398069382, -0.0943043977022171, 0.24647270143032074, -0.04761062189936638, 0.029978403821587563, -0.9645704030990601, -0.2692261338233948, -0.23524771630764008, -0.1562187671661377, -0.15924926102161407, -0.3267298638820648, 0.2048041671514511, -0.4168413579463959, 0.007965043187141418, 0.5038757920265198, 0.2409544289112091, -0.11788588762283325, 0.4994994103908539, -0.010199937969446182, -0.055253129452466965, -0.04282818362116814, -0.060406044125556946, -0.16709333658218384, 0.22898760437965393, -0.13482707738876343, -0.08958344906568527, -0.1656702309846878, -0.011300257407128811, 0.09667003899812698, -0.0232180655002594, -0.008527489379048347, 0.032700736075639725, 0.016360566020011902, 0.010388771072030067, 0.13752202689647675, -0.256618857383728, -0.004233372863382101, -0.10134334862232208, 0.03173625096678734, -0.06974256783723831, -0.058419980108737946, -0.015173491090536118, 0.05766414850950241, -0.1988004446029663, 0.01809551939368248, 0.10275271534919739, -0.19234076142311096, -0.03945380821824074, -0.19107936322689056, 0.11823627352714539, -0.05752265080809593, -0.06793408840894699, 0.03327671065926552, -0.012889268808066845, -0.002839459804818034, -0.021395118907094002, 0.005781248677521944, -0.01943698525428772, 0.16218674182891846, -0.11589179188013077, 0.004567572847008705, 0.05048942193388939, -0.06875307857990265, 0.07355643063783646, -0.1989855021238327, 0.1875787228345871, -0.021820317953824997, -0.017754515632987022, -0.05298870801925659, 0.008979544043540955, -0.26319748163223267, -0.15157848596572876, -0.16125069558620453, 0.010354243218898773, -0.24187026917934418, 0.44204282760620117, -0.03493378683924675, -0.6599903702735901, 0.13156117498874664, 0.12861274182796478, -0.06707567721605301, -0.020070595666766167, -0.08072317391633987, -0.2885270118713379, -0.07555986940860748, -0.11733530461788177, -0.023784203454852104, -0.22218367457389832, -0.39826148748397827, 0.5019906759262085, -0.0034797247499227524, -0.01370000559836626, 0.034525372087955475, 0.05624615028500557, 0.1854637861251831, -0.03629732131958008, 0.026203477755188942, 0.015113160014152527, -0.08289606124162674, -0.04731246083974838, -0.1640166938304901, 0.14710162580013275, 0.007112684193998575, -0.015512900426983833, 0.01913793385028839, 0.015304723754525185, 0.09531871229410172, 0.012527801096439362, 0.03656217083334923, 0.060367681086063385, -0.0051342821680009365, -0.026769569143652916, 0.11212515830993652, -0.44049450755119324, -0.10934360325336456, -0.1802501231431961, -0.11655334383249283, -0.22965505719184875, -0.4347696006298065, 0.05116564780473709, 0.00552357966080308, 0.010123671032488346, 0.0015122030163183808, 0.04814939200878143, -0.042272891849279404, 0.08125139027833939, 0.0506773516535759, -0.05307203158736229, 0.01013486459851265, 0.17688211798667908, -0.08404088020324707, -0.22450171411037445, -0.11438670754432678, 0.05754910036921501, -0.0674741268157959, -0.048522502183914185, 0.13150213658809662, 0.029088245704770088, 0.008018942549824715, 0.016287798061966896, 0.048586197197437286, -0.046065449714660645, 0.003664353396743536, 0.057923946529626846, -0.14949427545070648, -0.11453518271446228, 0.20758087933063507, 0.055634353309869766, 0.39731618762016296, 0.016299322247505188, 0.10249022394418716, 0.23284706473350525, -0.02986491657793522, -0.25890347361564636, -0.3237227201461792, 0.016036992892622948, -0.11054934561252594, -0.35579049587249756, -0.12473088502883911, -0.22428879141807556, -0.1297502964735031, 0.2744315266609192, 0.004772635642439127, 0.04847445338964462, 0.08683270215988159, 0.03720741346478462, -0.014808968640863895, 0.1026775911450386, -0.035321369767189026, -0.13450072705745697, -0.21974585950374603, -0.10809081792831421, -0.0992228239774704, -0.08614879101514816, -0.027446724474430084, -0.01777980476617813, -0.005020580720156431, -0.013882944360375404, -0.01596219465136528, 0.3715974986553192, 0.04826204106211662, 0.059084583073854446, 0.04269508644938469, 0.021707767620682716, 0.0889856293797493, -0.6824111938476562, -0.05386677384376526, -0.07001033425331116, -0.04648515582084656, -0.03809696435928345, -0.16104193031787872, 0.2267659455537796, 0.006810083985328674, 0.007269327994436026, 0.011286132968962193, 0.01247654389590025, 0.011459401808679104, -0.07184217125177383, -0.07080735266208649, -0.01593799889087677, -0.09900619834661484, -0.03629102185368538, -0.04600198194384575, -0.1656189113855362, 0.20017200708389282, 0.1516122668981552, 0.2104920893907547, 0.0871429592370987, 0.07188849151134491, -0.11789988726377487, -0.024457130581140518, -0.015965383499860764, -0.014848101884126663, 0.005191571079194546, -0.04076723754405975, -0.5828246474266052, -0.09929129481315613, 0.23786619305610657, 0.006494825705885887, 0.8951911926269531, 0.42566996812820435, 0.09733258932828903, 0.17870475351810455, 0.054099202156066895, 0.5046639442443848, 0.41254207491874695, -0.24565660953521729, 0.6142290234565735, -0.16995736956596375, -0.3134237229824066, 0.023549193516373634, -0.4267589747905731, -0.09367433935403824, -0.4723450243473053, 0.04173571988940239, 0.06874196976423264, -0.06789907068014145, 0.13393454253673553, -0.11471890658140182, 0.5095051527023315, -0.06331555545330048, -0.11344856768846512, 0.03891758248209953, -0.17077115178108215, 0.2099844068288803, -0.3308320939540863, -0.02771768905222416, -0.009966859593987465, -0.018067657947540283, -0.023961830884218216, -0.07902225106954575, 0.18748895823955536, 0.031078515574336052, -0.040408868342638016, -0.006440820638090372, -0.0071609350852668285, -0.11140535026788712, -0.04015253484249115, 0.0012234470341354609, 0.04274367913603783, -0.10457563400268555, 0.03597630560398102, 0.01649242825806141, 0.040049828588962555, 0.0028971994761377573, 0.000299198116408661, -0.029195277020335197, 0.00174316659104079, -0.08272875100374222, 0.011989864520728588, -0.026942456141114235, -0.03403759375214577, 0.009914363734424114, -0.06466854363679886, 0.01007047574967146, 0.5467135310173035, 0.03392744064331055, 0.04988626763224602, 0.0024918534327298403, 0.0823943018913269, -0.044236838817596436, -0.3664431869983673, 0.0073195029981434345, 0.0013216922525316477, 0.003196063917130232, 0.004527255427092314, 0.02103966474533081, 0.27152663469314575, 0.012854620814323425, -0.09204987436532974, 0.39903226494789124, 0.02472691237926483, 0.0288714487105608, -0.2145596742630005, 0.13559742271900177, 0.06900478154420853, 0.41642534732818604, 0.16598540544509888, -0.03771701827645302, 0.14185413718223572, 0.1119755282998085, -0.044449154287576675, 0.4567464590072632, 0.26532384753227234, -0.3217112421989441, 0.01060100831091404, -0.08583718538284302, 0.014958628453314304, 0.16628775000572205, 0.0516490638256073, 0.00020075023348908871, 0.049472659826278687, -0.12272749841213226, -0.11103086918592453, -0.1952492594718933, -0.2616996467113495, 0.07908488810062408, 0.030197808519005775, -0.1326409876346588, -0.2900324761867523, -0.056761108338832855, -0.1602463722229004, 0.11244575679302216, 0.3741966485977173, 0.03820326551795006, -0.01969669573009014, 0.29341283440589905, 0.0006183711811900139, -0.22102627158164978, -0.0050361198373138905, 0.045438576489686966, -0.09507887065410614, 0.1091260239481926, 0.03108576126396656, -0.0465947762131691, -0.09934637695550919, 0.2644653618335724, -0.5360977053642273, 0.056750137358903885, 0.5106766819953918, -0.508868932723999, 0.09617957472801208, -0.01182071678340435, 0.07098441570997238, 0.14463193714618683, 0.1224411204457283, 0.0628490075469017, -0.12552356719970703, -0.24591507017612457, -0.014073770493268967, -0.1481224000453949, -0.21431046724319458, 0.06442294269800186, -0.1900971531867981, 0.06513906270265579, -0.08689828217029572, 0.09449052065610886, 0.3954474627971649, 0.009415450505912304, -0.16545727849006653, 0.16502131521701813, -0.12014545500278473, -0.019886620342731476, -0.038405559957027435, -0.2337835729122162, 0.6721854209899902, 0.2082851678133011, -0.586298406124115, -0.11345428228378296, 0.577306866645813, -0.5643935203552246, -0.2345796525478363, 0.12666848301887512, -0.29480189085006714, -0.5630099773406982, -0.09226751327514648, -0.19511665403842926, 0.16357077658176422, -0.0749955102801323, -0.22245928645133972, -0.0445193313062191, -0.040456946939229965, -0.026402022689580917, 0.043490953743457794, -0.08711930364370346, 5.1089762564515695e-05, 0.06086767837405205, 0.10381598770618439, -0.03235061094164848, -0.1598714292049408, 0.2421899437904358, 0.37418174743652344, 0.44765040278434753, 0.39573895931243896, -0.17257951200008392, -0.833721935749054, 0.24555838108062744, 0.05780413746833801, 0.10561704635620117, -0.09431614726781845, -0.27040955424308777, -0.30770957469940186, -0.02755199559032917, 0.011711381375789642, -0.230187326669693, -0.28861936926841736, 0.048676785081624985, -0.17863933742046356, -0.06983117014169693, -0.05746055394411087, 0.142991840839386, 0.37720969319343567, -0.038575101643800735, -0.36997371912002563, -0.1947939544916153, -0.2673456370830536, 0.03889124095439911, 0.1137998029589653, -0.07652277499437332, -0.07582633197307587, -0.004336784593760967, 0.10265157371759415, 0.09018527716398239, 0.0666527971625328, 0.05683186650276184, -0.10328898578882217, 0.23742720484733582, 0.301572322845459, 0.2644180655479431, 0.17773030698299408, -0.20100918412208557, -0.44951650500297546, 0.2689417898654938, -0.037649281322956085, 0.2618286609649658, 0.9793360233306885, 0.15797050297260284, 0.8108664751052856, -0.7644029855728149, -0.2879025340080261, 0.582779586315155, -0.4999505877494812, -0.2602664530277252, 0.5448164939880371, -0.727515459060669, -0.7026254534721375, 0.4488375782966614, 0.21070341765880585, 0.3421822488307953, -0.05192042887210846, -0.0035656304098665714, -0.018356651067733765, 0.007359445095062256, -0.12007570266723633, -0.014944057911634445, -0.8810948133468628, -0.03701954707503319, 0.022782398387789726, -0.006053744815289974, 0.017117943614721298, 0.011265835724771023, -0.1080990880727768, 0.03358196094632149, 0.023988882079720497, 0.011399737559258938, 0.09771161526441574, 0.062349505722522736, -0.2402082234621048, 0.2741137146949768, -0.038504116237163544, -0.07472456246614456, -0.35455724596977234, -0.3912980854511261, -0.0328260101377964, -0.134401336312294, -0.16075068712234497, 0.12484455108642578, 0.08807484060525894, -0.0354507677257061, -0.147739976644516, -0.22532688081264496, -0.13836760818958282, -0.2783561944961548, -0.16238263249397278, -0.12051800638437271, 0.23574425280094147, 0.16302405297756195, -0.009918265976011753, -0.07580061256885529, 0.1927802860736847, 0.2666032612323761, 0.4031755030155182, -0.15925006568431854, -0.20254170894622803, -0.053785860538482666, -0.038783419877290726, -0.13897542655467987, 0.10502532124519348, -0.11768700927495956, -0.03825363516807556, -0.02516717091202736, -0.26977622509002686, -0.372859388589859, 0.3875802159309387, -0.4751167893409729, -0.2772160470485687, 0.29508131742477417, 0.8333848118782043, -0.9004411697387695, 0.2698585093021393, 0.443726122379303, -0.09590018540620804, 0.09659384191036224, 0.5972530245780945, 0.5221828818321228, 0.160832941532135, 0.7904007434844971, -0.33349481225013733, 0.45792949199676514, 0.11783389747142792, 0.3471205532550812, 0.36412563920021057, 0.11094659566879272, -0.012948050163686275, -0.1138906255364418, 0.040407318621873856, -0.008897376246750355, -0.21853405237197876, -0.05116971209645271, 0.027134153991937637, 0.038510486483573914, -0.0073319547809660435, -0.05885275825858116, -0.15575098991394043, -0.03574758023023605, -0.021586965769529343, 0.043595489114522934, -0.022650403901934624, 0.035616185516119, -0.2934507429599762, -0.08976677805185318, -0.10358822345733643, -0.1799667775630951, -0.19501234591007233, -0.06631090492010117, 0.13775646686553955, 0.2392585575580597, 0.16060250997543335, 0.21376873552799225, 0.2217029482126236, 0.3946435749530792, -0.3460412621498108, -0.0939379557967186, -0.04668346792459488, -0.11543891578912735, -0.05397516116499901, -0.22012577950954437, -0.012480761855840683, 0.07197388261556625, -0.20526358485221863, -0.055783409625291824, -0.12055851519107819, 0.0717085599899292, 0.40067699551582336, 0.048165999352931976, 0.1194407269358635, 0.17000554502010345, 0.12211396545171738, 0.2660120725631714, 0.10401208698749542, -0.10371982306241989, 0.005275527946650982, -0.12799035012722015, -0.05837532877922058, -0.2894979417324066, 0.47460830211639404, 0.15072192251682281, 0.17312747240066528, 0.07248692959547043, -0.0951685830950737, -0.5224562287330627, -0.5238431692123413, -0.4501025676727295, -0.31922125816345215, 0.07444652169942856, 0.35161131620407104, 0.32713088393211365, 0.5572353005409241, -0.11261460185050964, 0.17151236534118652, -0.12825286388397217, 0.3457179069519043, 0.49810102581977844, -0.6004417538642883, -0.07297083735466003, -0.10210544615983963, -0.1037001833319664, -0.09531807154417038, -0.09137478470802307, 0.2904050946235657, 0.07534444332122803, 0.12344612926244736, 0.128661647439003, 0.09235800057649612, 0.113327257335186, 0.1641678810119629, -0.028713779523968697, -0.03761526569724083, -0.04390688240528107, -0.006431717425584793, -0.03254999592900276, -0.6127550601959229, -0.013885186985135078, -0.2031555324792862, -0.09216460585594177, -0.025943173095583916, -0.21033596992492676, -0.13774366676807404, 0.03244294598698616, 0.15801900625228882, 0.07888855040073395, 0.07814103364944458, 0.18506669998168945, 0.09694688022136688, -0.016222817823290825, 0.014481660909950733, 0.01700335182249546, -0.06448637694120407, 0.027058692649006844, 0.024735065177083015, -0.08014509826898575, -0.12964308261871338, -0.1939278542995453, -0.17393572628498077, -0.11705684661865234, 0.5097098350524902, 0.10636042803525925, 0.1142951026558876, 0.15221457183361053, 0.11237183213233948, 0.1358467936515808, 0.2871220111846924, -0.03569670394062996, -0.0001910375722218305, 0.012875636108219624, 0.036648962646722794, -0.08988037705421448, 0.3897596597671509, 0.010130352340638638, -0.11306397616863251, 0.03859326243400574, 0.4179210066795349, 0.03804266080260277, -0.19322511553764343, -0.4332660734653473, -0.024117713794112206, 0.04382072389125824, -0.37701788544654846, 0.05501024052500725, 0.5919206738471985, 0.5817337036132812, 0.21648190915584564, 0.20938816666603088, -0.2460423856973648, 0.3249386250972748, -0.4482184052467346, 0.12840203940868378, 0.1037399098277092, 0.13733339309692383, 0.16687819361686707, 0.1134357675909996, -0.7153263688087463, 0.030360892415046692, 0.007966382429003716, 0.028827890753746033, 0.03352736309170723, 0.029231036081910133, -0.5133437514305115, -0.1632499247789383, -0.10711304098367691, -0.17782239615917206, -0.1948404461145401, -0.1376255601644516, -0.31918400526046753, 0.0747281089425087, 0.07324934750795364, 0.06110187619924545, 0.07572866231203079, 0.16681022942066193, -0.26778993010520935, 0.018164047971367836, 0.02509845606982708, 0.022750604897737503, 0.024303250014781952, 0.009986616671085358, -0.2568624019622803, -0.10582532733678818, -0.11364708095788956, -0.10481496900320053, -0.11185682564973831, -0.17417475581169128, -0.23315070569515228, 0.12120528519153595, 0.06468642503023148, 0.08899736404418945, 0.0006403161096386611, 0.06209218129515648, -0.31412094831466675, 0.0157831609249115, 0.039537377655506134, 0.06938644498586655, 0.1420080065727234, 0.05945643037557602, 0.32911205291748047, -0.12275484204292297, -0.10676201432943344, -0.16278252005577087, -0.18622124195098877, -0.12750789523124695, 0.7968959212303162, 0.2565610408782959, 0.2938915491104126, 0.22852373123168945, 0.0199018195271492, -0.07374223321676254, -0.26578325033187866, -0.3944958448410034, -0.2951158881187439, 0.204232856631279, -0.12052204459905624, -0.44522538781166077, 0.024474116042256355, -0.32211267948150635, -0.19156037271022797, -0.46437868475914, 0.1395857334136963, -0.5501342415809631, 0.22291773557662964, -0.10861332714557648, -0.131342813372612, -0.06915774196386337, -0.16365037858486176, -0.09455747157335281, 0.6568087339401245, 0.050048843026161194, 0.07252749800682068, 0.10022242367267609, 0.12049911916255951, 0.15471230447292328, -0.22168618440628052, 0.0958169624209404, 0.09625297039747238, -0.05546678230166435, 0.06839712709188461, -0.10629016160964966, 0.18024323880672455, 0.08073771744966507, 0.065017469227314, 0.11767727881669998, 0.11073455959558487, 0.08795738965272903, -0.867536723613739, -0.0062295361422002316, 0.007093983702361584, 0.0030173654668033123, 0.021006667986512184, 0.03096025437116623, -0.8056097030639648, -0.1338040679693222, -0.12786002457141876, -0.208828866481781, -0.22229230403900146, -0.2155056744813919, -0.2644922733306885, -0.23669692873954773, -0.10024965554475784, -0.13577213883399963, 0.2473336011171341, 0.18365365266799927, 0.45718398690223694, -0.05721114203333855, 0.05994204431772232, 0.10252640396356583, -0.022504787892103195, -0.0958114042878151, -0.378386527299881, 0.6314236521720886, 0.0970187783241272, 0.07381092756986618, -0.2829897403717041, -0.031807053834199905, 0.07488949596881866, 0.2874544858932495, 0.15751789510250092, 0.3567524552345276, -0.297482430934906, 0.2380833774805069, 0.21770250797271729, 0.4119962155818939, -0.6759461760520935, -0.07838601619005203, 0.7195766568183899, -0.5323534607887268, 0.8374349474906921, -0.37508782744407654, 0.07592714577913284, -0.6733800768852234, 0.24933522939682007, -0.28011608123779297, -0.5439236164093018, -0.011753722093999386, 0.09492489695549011, -0.10326310247182846, 0.07739965617656708, -0.07984941452741623, -0.03941601887345314, 0.10463683307170868, -0.06496318429708481, 0.01241484098136425, -0.14686456322669983, 0.16030102968215942, 0.13910891115665436, 0.046974051743745804, 0.1337047964334488, 0.6225705742835999, -0.04192688688635826, 0.018916895613074303, -0.0667295753955841, 0.07909173518419266, -0.06718745827674866, 0.1069258376955986, -0.04411466047167778, -0.11594177782535553, 0.20670147240161896, -0.09188754856586456, -0.014800547622144222, -0.05631893500685692, -0.24097616970539093, 0.2839609980583191, 0.5757235884666443, -0.038220010697841644, 0.07429427653551102, -0.02011801488697529, -0.025783520191907883, 0.004928161855787039, 0.031568679958581924, 0.002517378656193614, -0.100061796605587, 0.23374643921852112, -0.1716638207435608, 0.006414848379790783, 0.12520845234394073, -0.27135226130485535, 0.20209626853466034, 0.5165684819221497, -0.15117882192134857, -0.018447907641530037, 0.010641687549650669, -0.1145593449473381, 0.12259058654308319, 0.11797559261322021, 0.10047060996294022, 0.215167835354805, -0.12881791591644287, 9.348044113721699e-05, 0.016642585396766663, -0.07364505529403687, -0.18808238208293915, 0.3515166640281677, -0.15232892334461212, 0.15173810720443726, 0.06315525621175766, 0.030345825478434563, 0.04959229752421379, 0.061576902866363525, -0.08601874113082886, 0.02598157711327076, 0.03479210287332535, -0.05335067957639694, 0.17881536483764648, 0.19695457816123962, 0.12594598531723022, -0.18087512254714966, -0.1428380161523819, 0.09783752262592316, -0.020531123504042625, 0.12027698755264282, -0.14280515909194946, -0.1302068680524826, 0.0015276053454726934, -0.06751227378845215, -0.20252400636672974, -0.0418865941464901, -0.06346545368432999, -0.12294013798236847, -0.16851554811000824, 0.014836695045232773, -0.07698287069797516, 0.10763787478208542, 0.15373535454273224, -0.00703912228345871, 0.05671774595975876, 0.05290152132511139, -0.18670137226581573, 0.161587655544281, -0.07719803601503372, 0.1169566661119461, -0.02318466082215309, -0.08058573305606842, -0.28233301639556885, 0.49680063128471375, -0.14694815874099731, -0.49766603112220764, 0.10947150737047195, 0.3099221885204315, 0.038614675402641296, -0.019990699365735054, 0.02269437536597252, -0.008465508930385113, 0.06956594437360764, 0.005523797124624252, -0.181674063205719, 0.1119198277592659, 0.02321450412273407, -0.30714887380599976, 0.39571255445480347, -0.07983583956956863, -0.6296352744102478, 0.12313567847013474, -0.07469774037599564, -0.08001387864351273, 0.03139316663146019, -0.2141699492931366, -0.04780856892466545, 0.11191780865192413, -0.19817446172237396, -0.12026547640562057, 0.09288152307271957, 0.013760708272457123, 0.056610144674777985, 0.15645167231559753, 0.12344478070735931, -0.10941802710294724, -0.17681628465652466, -0.22656556963920593, -0.9429430365562439, 0.11229249835014343, 0.07447093725204468, -0.13789722323417664, 0.03922979533672333, -0.0665975958108902, -0.5527212023735046, 0.456176221370697, -0.2519714832305908, -0.9143602252006531, -0.12266210466623306, -0.06324473768472672, -0.14788055419921875, -0.5477248430252075, 0.38083580136299133, 0.4058876037597656, -0.039406657218933105, -0.004010948818176985, 0.034214410930871964, 0.05277230590581894, 0.05833007022738457, 0.046241745352745056, 0.06283099949359894, 0.04376285523176193, 0.06236470118165016, 0.035422537475824356, 0.038229554891586304, 0.1129525899887085, 0.026364758610725403, 0.09668546169996262, 0.012313282117247581, 0.09370099753141403, -0.4332728683948517, -0.03670275956392288, -0.051443565636873245, -0.05690750852227211, -0.03451723977923393, -0.0465913824737072, -0.026543693616986275, -0.05441921576857567, -0.017643392086029053, -0.014485401101410389, -0.08341008424758911, -0.028798870742321014, -0.08596291393041611, 0.029106466099619865, -0.021210767328739166, -0.4491662383079529, 0.01595420576632023, 0.01278032548725605, 0.0054033976048231125, -0.00839452724903822, 0.021892111748456955, 0.009812681935727596, -0.02643723227083683, -0.03022725135087967, -0.011478743515908718, 0.015586099587380886, -0.009739285334944725, -0.07923759520053864, -0.03869157284498215, 0.03822382166981697, -0.07376007735729218, -0.0635937824845314, 0.01672377809882164, 0.010009178891777992, -0.013489787466824055, -0.011335102841258049, 0.06758646667003632, 0.12462890893220901, 0.03865349665284157, 0.07774621993303299, 0.05518275126814842, 0.10751298815011978, 0.1086190715432167, 0.1017269715666771, 3.435443204580224e-06, -0.46110981702804565, 0.07513368129730225, 0.04937880113720894, 0.0646025761961937, 0.11921101063489914, 0.040869489312171936, -0.052684981375932693, -0.019139140844345093, 0.04160570353269577, -0.00542621361091733, 0.08346346765756607, -0.09277641773223877, 0.00986773706972599, 0.09107276797294617, 0.08262035250663757, -0.26694923639297485, -0.13918200135231018, -0.17924581468105316, -0.11525042355060577, -0.09812622517347336, -0.05389338359236717, -0.15981437265872955, -0.2141581028699875, -0.012732872739434242, -0.14487537741661072, -0.1293741911649704, -0.08768215775489807, -0.14839984476566315, -0.16998417675495148, -0.12340909242630005, 0.15545761585235596, 0.004465905483812094, -0.04251639544963837, -0.0307639017701149, -0.008572136983275414, 0.04002906382083893, 0.00633601238951087, -0.0740954577922821, 0.018666870892047882, 0.0338243693113327, 0.03633378818631172, 0.057734012603759766, 0.0662466362118721, 0.011910699307918549, -0.02925502136349678, 0.8585081696510315, 0.018376752734184265, 0.057202160358428955, 0.04392233118414879, 0.008472900837659836, -0.026252148672938347, 0.025108307600021362, 0.09670944511890411, -0.001931023201905191, -0.007837982848286629, -0.015921857208013535, -0.015163064002990723, -0.03260904923081398, 0.02224954217672348, 0.03425005450844765, 0.39983782172203064, -0.03905556723475456, -0.03370444104075432, -0.04786752164363861, -0.06779628247022629, -0.07849643379449844, -0.06374482065439224, -0.08734093606472015, -0.13136909902095795, -0.07700151950120926, -0.09913422912359238, -0.13622765243053436, -0.15923364460468292, -0.13695257902145386, -0.27235138416290283, 0.2630833089351654, -0.08351030945777893, 0.24106618762016296, 0.22676485776901245, 0.4974775016307831, -0.29525598883628845, 0.0579192079603672, -0.4531661868095398, 0.22894439101219177, 0.0947549045085907, -0.380383163690567, 0.022778527811169624, -0.03482179343700409, -0.40675175189971924, -0.013409859500825405, 0.7233320474624634, 0.21023449301719666, -0.48622456192970276, 0.18717201054096222, 0.07811738550662994, 0.08048728108406067, -0.2606687545776367, 0.6859964728355408, -0.17314715683460236, -0.04469465836882591, 0.04407025873661041, -0.13081717491149902, -0.05143771320581436, 0.038081757724285126, -0.30648455023765564, -0.3718249499797821, -0.06828563660383224, -0.240732342004776, -0.4090318977832794, 0.5703310966491699, -0.14377395808696747, 0.3018701374530792, 0.5491224527359009, 0.2735656797885895, 0.15189552307128906, 0.0949043333530426, 0.07206515967845917, -0.08944861590862274, 0.11833178997039795, 0.3092530071735382, -0.04558504745364189, -0.08079835027456284, -0.13021521270275116, 0.03686298429965973, 0.15148678421974182, 0.3039960265159607, -0.46156397461891174, 0.4883447587490082, -0.12220970541238785, 0.08784753829240799, -0.00843028537929058, 0.09308431297540665, 0.06623133271932602, 0.03317253291606903, 0.24293190240859985, 0.43412908911705017, -0.17087170481681824, -0.2623368203639984, -0.13551509380340576, -0.036157362163066864, 0.3907327950000763, -0.09356945753097534, 0.14498503506183624, 0.08598845452070236, 0.11134102195501328, 0.20476341247558594, -0.15461580455303192, 0.13176104426383972, 0.27061599493026733, 0.3867165446281433, 0.32440751791000366, -0.282007098197937, -0.44630691409111023, -0.07634316384792328, -0.1704111546278, 0.35589009523391724, 0.43689268827438354, 0.44658201932907104, -0.24878337979316711, 0.3260124623775482, -0.8624383211135864, 0.4522187411785126, 0.34026581048965454, 0.5501859188079834, 0.06364618986845016, 0.31438785791397095, 0.21894246339797974, 0.19596005976200104, 0.08530566096305847, 0.3035838305950165, 0.23729445040225983, 0.233320951461792, -0.18951047956943512, -0.3324289917945862, -0.22598141431808472, 0.12104446440935135, -0.2583344876766205, 0.7694747447967529, -0.14316518604755402, -0.0701037272810936, -0.009942405857145786, -0.1008668765425682, -0.6041437983512878, -0.5012459754943848, 0.08369053900241852, 0.07356945425271988, 0.12042351812124252, 0.09006049484014511, 0.541918933391571, 0.15806438028812408, -0.10907946527004242, -0.12392021715641022, -0.20576955378055573, -0.27426615357398987, 0.16524367034435272, -0.6705966591835022, -0.0724177211523056, 2.8868194931419566e-05, -0.031673330813646317, 0.2410629242658615, -0.07857897877693176, 0.3204227685928345, -0.0029295131098479033, 0.05128901079297066, -0.019996309652924538, 0.028576960787177086, 0.7044263482093811, 0.11140747368335724, 0.034540072083473206, -0.05825622007250786, -0.055992137640714645, 0.09697519987821579, 0.07380073517560959, -0.7376953363418579, -0.003860127879306674, -0.05434102937579155, 0.05427386984229088, 0.12004846334457397, 0.07418779283761978, 0.38757091760635376, 0.6217470169067383, 0.11622777581214905, 0.15448786318302155, 0.24273338913917542, -0.016945457085967064, -0.2518344521522522, 0.031013134866952896, 0.37346509099006653, 0.3233737647533417, -0.4317019283771515, 0.02907470241189003, 0.1030694916844368, 0.38166412711143494, -0.3636811375617981, -0.6600820422172546, 0.2095651775598526, -0.06683370471000671, 0.003661099821329117, 0.05089442804455757, 0.1147962138056755, 0.10854683071374893, 0.2198716104030609, 0.4054664969444275, -0.7299346327781677, -0.008110861293971539, -0.1440027803182602, 0.01890227012336254, -0.010036029852926731, 0.5164377689361572, -0.052348457276821136, -0.056290868669748306, 0.06808702647686005, -0.004131348337978125, 0.17173336446285248, 0.3375963270664215, 0.49400442838668823, 0.04354464262723923, 0.08161236345767975, 0.010641598142683506, 0.000946617394220084, 0.0032719296868890524, 0.049138981848955154, -0.0038634412921965122, -0.09580985456705093, 0.11224507540464401, 0.14650723338127136, 0.07937990874052048, 0.4593777656555176, -0.04054107889533043, -0.017661089077591896, -0.054823167622089386, -0.05974077433347702, -0.03242829069495201, -0.15908977389335632, 0.11918581277132034, 0.10235476493835449, 0.11641040444374084, 0.008489828556776047, -0.06266231089830399, 0.20706096291542053, -0.1285623162984848, 0.035877980291843414, -0.029334234073758125, -0.010473234578967094, -0.29895713925361633, -0.2291485071182251, 0.015549690462648869, -0.0033483528532087803, -0.022715996950864792, 0.00527395261451602, -0.05418284609913826, 0.11884689331054688, 0.047339364886283875, -0.45333465933799744, 0.22629794478416443, 0.11723405122756958, -0.09697633981704712, 0.24256421625614166, 0.141359344124794, 0.7908572554588318, 0.3594460189342499, 0.020819049328565598, 0.41554883122444153, 0.5325136184692383, -0.27552521228790283, 0.4436033070087433, 0.20781435072422028, 0.47561466693878174, 0.33111611008644104, 0.10163143277168274, 0.20376138389110565, 0.16814059019088745, 0.1975805014371872, 0.17867180705070496, 0.2965620756149292, -0.03101601079106331, -0.019819343462586403, 0.1340482234954834, 0.09711635857820511, 0.09144533425569534, -0.04080842435359955, -0.2546704411506653, -0.008144612424075603, -0.05250090733170509, -0.08193770051002502, -0.05246000364422798, -0.06442160904407501, 0.42680418491363525, -0.011531094089150429, -0.03235189989209175, -0.10422440618276596, -0.11023910343647003, -0.06709707528352737, 0.15727870166301727, -0.032686248421669006, 0.028901338577270508, 0.1291283220052719, 0.06844670325517654, -0.0007528436835855246, 0.4147922992706299, 0.013894162140786648, 0.010293734259903431, -0.014068430289626122, -0.037689197808504105, 0.04308575764298439, 0.09167414903640747, -0.009310808032751083, -0.024128859862685204, -0.011116930283606052, -0.15176109969615936, -0.09988056868314743, 0.37854841351509094, 0.020641017705202103, 0.05650355666875839, 0.05517151206731796, 0.25419312715530396, 0.21565210819244385, 0.5676984786987305, 0.0009288639412261546, -0.026578517630696297, 0.015335512347519398, -0.07057283073663712, -0.0007913326262496412, -0.09044584631919861, 0.13419325649738312, -0.025977320969104767, -0.06459149718284607, 0.3003314435482025, -0.015455230139195919, 0.08836957812309265, 0.44945529103279114, -0.727815568447113, -0.035503845661878586, 0.48512762784957886, -0.3562324643135071, 0.17279097437858582, -0.6058841347694397, 0.04688240960240364, 0.1820962280035019, -0.4146844744682312, -0.3743809759616852, -0.30970054864883423, -0.009126984514296055, 0.029241489246487617, 0.08401761949062347, 0.1747077852487564, -0.04552840068936348, -0.563924252986908, 0.11217673867940903, 0.2893979847431183, 0.12285903841257095, 0.139271080493927, 0.21137364208698273, -0.07460442930459976, -0.05654504522681236, -0.17667335271835327, -0.1440417617559433, -0.14091621339321136, -0.07397247105836868, 0.13990192115306854, 0.040234874933958054, -0.009188715368509293, -0.036785781383514404, -0.1157580018043518, 0.0356227308511734, 0.26690834760665894, -0.08281341940164566, -0.20992939174175262, -0.1370779275894165, -0.09394071996212006, -0.14964541792869568, 0.16335588693618774, 0.008859952911734581, 0.11492660641670227, 0.12567555904388428, 0.09152759611606598, 0.049678947776556015, -0.21084026992321014, 0.015165355987846851, 0.010190929286181927, 0.023078208789229393, -0.05418352410197258, 0.21204636991024017, 0.30752187967300415, 0.018777355551719666, 0.0003065180208068341, -0.01953299157321453, 0.1324397325515747, -0.1294803023338318, -0.11615295708179474, -0.018136054277420044, 0.013255953788757324, 0.02154964953660965, -0.006826632656157017, -0.0068456027656793594, 0.17410051822662354, -0.38950762152671814, -0.056885577738285065, 0.1253150850534439, 0.16414529085159302, 0.02333790436387062, -0.02991541102528572, -0.0821489542722702, 0.9603129625320435, -0.07506148517131805, 0.021768050268292427, -0.0255618654191494, 0.5835657119750977, -0.24934206902980804, 0.5127320289611816, -0.22645142674446106, -0.33725428581237793, -0.254717618227005, -0.3157709240913391, 0.02190488576889038, 0.053027909249067307, 0.039459533989429474, 0.09204284101724625, 0.06007568910717964, -0.1459861695766449, -0.007970931008458138, 0.044719912111759186, 0.16764281690120697, 0.22347736358642578, 0.5078789591789246, -0.017537886276841164, -0.005392528139054775, -0.09281555563211441, -0.17538627982139587, -0.23978599905967712, -0.488323837518692, 0.34940576553344727, 0.03107566013932228, 0.04706568643450737, 0.04519372433423996, 0.19453686475753784, 0.15276533365249634, -0.13624949753284454, -0.046416062861680984, 0.0062129017896950245, 0.10047777742147446, 0.07179040461778641, 0.3240871727466583, -0.34993961453437805, 0.0207268875092268, -0.08199461549520493, -0.13925936818122864, -0.19751258194446564, -0.4525526762008667, -0.45795881748199463, 0.03752230107784271, 0.04930461570620537, 0.04097694531083107, 0.09463890641927719, 0.10691078007221222, 0.3923971951007843, -0.05011438950896263, -0.011881438083946705, 0.03915050998330116, -0.017454536631703377, -0.031147120520472527, 0.40209537744522095, 0.02193499729037285, -0.03462823107838631, -0.07025916874408722, -0.0004984069964848459, -0.0183852706104517, 0.33734583854675293, 0.07596297562122345, 0.026256408542394638, 0.13510450720787048, 0.3097785413265228, -0.054998356848955154, -0.09963659197092056, -0.23625372350215912, -0.06967193633317947, -0.5995669364929199, 0.23978549242019653, 0.3342827558517456, -0.12859131395816803, 0.039795611053705215, -0.01743815280497074, 0.3772532641887665, -0.17811338603496552, 0.3461464047431946, 0.23858246207237244, 0.05731509253382683, 0.0457448773086071, 0.04546257108449936, 0.024625562131404877, 0.06701137870550156, -0.49508577585220337, -0.029687056317925453, 0.046693671494722366, 0.1087692603468895, 0.19649602472782135, 0.419385701417923, 0.15690237283706665, 0.0001989429583773017, -0.016374561935663223, -0.044063884764909744, -0.0543808788061142, -0.11832216382026672, 0.4216967225074768, 0.020783182233572006, 0.01614319533109665, 0.02057776041328907, 0.01796657219529152, 0.08439300209283829, -0.02436867356300354, -0.007165221031755209, 0.04076535627245903, 0.07798414677381516, 0.1420755833387375, 0.34889912605285645, -0.21868403255939484, 0.0020834386814385653, -0.009507905691862106, -0.02578875981271267, -0.036801960319280624, -0.10808081924915314, -0.7547756433486938, 0.034894492477178574, 0.02970409207046032, 0.030434846878051758, 0.024361547082662582, 0.05702800676226616, 0.27863869071006775, -0.0026729791425168514, 0.03883155435323715, 0.057649679481983185, 0.0677218809723854, 0.12321086972951889, 0.10399961471557617, -0.0047661191783845425, -0.0161711685359478, -0.02566283568739891, -0.020276714116334915, -0.03217737004160881, 0.10226897150278091, 0.2893933951854706, -0.0034742827992886305, 0.13401514291763306, 0.15278907120227814, -0.1374397724866867, -0.11937539279460907, 0.4162098467350006, -0.00858832336962223, 0.5327888131141663, 0.11612158268690109, 0.18631941080093384, -0.07476914674043655, -0.32249006628990173, -0.3899204134941101, -0.36959829926490784, -0.3457287847995758, 0.4948616325855255, -0.35605674982070923, -0.027903709560632706, -0.0276549831032753, -0.027776945382356644, 0.04502638429403305, 0.03560180589556694, 0.05099250003695488, -0.12089349329471588, -0.19194264709949493, -0.28600913286209106, -0.21346019208431244, 0.019009675830602646, 0.015960462391376495, 0.00012418415280990303, -0.006967263296246529, -0.028324058279395103, -0.013921394944190979, -0.0184903834015131, -0.09099368005990982, -0.04301651939749718, -0.09863011538982391, -0.15905697643756866, -0.34686803817749023, -0.07059105485677719, 0.14968237280845642, 0.22606492042541504, 0.23170138895511627, -0.023605946451425552, -0.007254881784319878, 0.018113430589437485, -0.013575217686593533, 0.015793530270457268, -0.003157490398734808, -0.029614731669425964, -0.027024678885936737, 0.01414859015494585, 0.010021225549280643, 0.2124379575252533, 0.34846314787864685, 0.19323503971099854, 0.1395196169614792, 0.2313539981842041, 0.14810411632061005, -0.02545737475156784, -0.03513357788324356, -0.0269158985465765, -0.0019510408164933324, 0.00907808355987072, -0.0016123407986015081, -0.0774322971701622, 0.004110541091606077], "sample_rate": 48000}}, {"max_value": 1.0, "model": {"version": "0.7.0", "metadata": {"date": {"year": 2026, "month": 6, "day": 29, "hour": 13, "minute": 15, "second": 56}, "loudness": -21.52377773737219, "gain": 0.6799860959647506}, "architecture": "WaveNet", "config": {"layers": [{"input_size": 1, "condition_size": 1, "head": {"out_channels": 1, "kernel_size": 16, "bias": true}, "channels": 8, "kernel_sizes": [6, 6, 6, 6, 6, 6, 6, 6, 6, 6, 6, 6, 6, 6, 15, 15, 6, 6, 6, 6, 6, 6, 6], "dilations": [1, 3, 7, 17, 41, 101, 239, 1, 3, 7, 17, 41, 101, 239, 1, 13, 1, 3, 7, 17, 41, 101, 239], "activation": [{"type": "LeakyReLU", "negative_slope": 0.01}, {"type": "LeakyReLU", "negative_slope": 0.01}, {"type": "LeakyReLU", "negative_slope": 0.01}, {"type": "LeakyReLU", "negative_slope": 0.01}, {"type": "LeakyReLU", "negative_slope": 0.01}, {"type": "LeakyReLU", "negative_slope": 0.01}, {"type": "LeakyReLU", "negative_slope": 0.01}, {"type": "LeakyReLU", "negative_slope": 0.01}, {"type": "LeakyReLU", "negative_slope": 0.01}, {"type": "LeakyReLU", "negative_slope": 0.01}, {"type": "LeakyReLU", "negative_slope": 0.01}, {"type": "LeakyReLU", "negative_slope": 0.01}, {"type": "LeakyReLU", "negative_slope": 0.01}, {"type": "LeakyReLU", "negative_slope": 0.01}, {"type": "LeakyReLU", "negative_slope": 0.01}, {"type": "LeakyReLU", "negative_slope": 0.01}, {"type": "LeakyReLU", "negative_slope": 0.01}, {"type": "LeakyReLU", "negative_slope": 0.01}, {"type": "LeakyReLU", "negative_slope": 0.01}, {"type": "LeakyReLU", "negative_slope": 0.01}, {"type": "LeakyReLU", "negative_slope": 0.01}, {"type": "LeakyReLU", "negative_slope": 0.01}, {"type": "LeakyReLU", "negative_slope": 0.01}], "bottleneck": 8, "head1x1": {"active": false, "out_channels": 1, "groups": 1}, "layer1x1": {"active": true, "groups": 1}, "groups_input": 1, "groups_input_mixin": 1, "conv_pre_film": {"active": false, "shift": true, "groups": 1}, "conv_post_film": {"active": false, "shift": true, "groups": 1}, "input_mixin_pre_film": {"active": false, "shift": true, "groups": 1}, "input_mixin_post_film": {"active": false, "shift": true, "groups": 1}, "activation_pre_film": {"active": false, "shift": true, "groups": 1}, "activation_post_film": {"active": false, "shift": true, "groups": 1}, "layer1x1_post_film": {"active": false, "shift": true, "groups": 1}, "head1x1_post_film": {"active": false, "shift": true, "groups": 1}, "gating_mode": ["none", "none", "none", "none", "none", "none", "none", "none", "none", "none", "none", "none", "none", "none", "none", "none", "none", "none", "none", "none", "none", "none", "none"], "secondary_activation": [null, null, null, null, null, null, null, null, null, null, null, null, null, null, null, null, null, null, null, null, null, null, null], "slimmable": null}], "head": null, "head_scale": 0.004110541183483833}, "weights": [-0.3431406617164612, -0.4245472848415375, 0.4211551547050476, 0.6875060796737671, -0.7682041525840759, -0.07150740176439285, 0.3739485442638397, 0.9648810625076294, -0.15002234280109406, -0.062208328396081924, -0.08466069400310516, -0.13168074190616608, 0.07118087261915207, 0.30727651715278625, -0.02575349248945713, -0.19828438758850098, -0.10392513126134872, -0.2434074878692627, -0.08575793355703354, 0.30277958512306213, 0.11952058970928192, 0.16366906464099884, 0.14765794575214386, 0.16185061633586884, 0.05199289694428444, -0.42013075947761536, -0.012402168475091457, 0.22517938911914825, 0.09391146153211594, 0.14859528839588165, 0.0020632927771657705, -0.35225197672843933, -0.12495855987071991, -0.0860702320933342, -0.07110609114170074, -0.15298044681549072, 0.009800389409065247, 0.35547351837158203, -0.02426789700984955, -0.04321383312344551, -0.042066965252161026, -0.11156719923019409, -0.028085879981517792, 0.3076498806476593, 0.06244165822863579, 0.11559458076953888, 0.14565500617027283, 0.10096710920333862, 0.06648816168308258, -0.3941899240016937, 0.19662778079509735, 0.05260360985994339, 0.16443809866905212, 0.340912401676178, 0.07688580453395844, -0.4003484547138214, 0.008863448165357113, -0.007837040349841118, -0.011907017789781094, 0.007699011359363794, -0.018686676397919655, 0.012635650113224983, 0.012241546995937824, -0.009297359734773636, -0.015130468644201756, 0.011042417027056217, -0.021890390664339066, 0.016190990805625916, -0.010335173457860947, 0.011390969157218933, 0.014448936097323895, -0.010200169868767262, 0.02237226627767086, -0.016337435692548752, -0.027600908651947975, 0.023581918329000473, 0.03054039739072323, -0.01173362135887146, 0.03994109481573105, -0.025433629751205444, 0.02630046382546425, -0.008734841831028461, -0.03472425416111946, 0.026794569566845894, -0.035850368440151215, 0.027082616463303566, 0.0011026200372725725, -0.0019883376080542803, -0.003163321875035763, 0.0007557004573754966, -0.004885727073997259, 0.0022301783319562674, -0.00903951283544302, 0.009306108579039574, 0.013872062787413597, -0.008315421640872955, 0.020913099870085716, -0.013718647882342339, -0.0465577207505703, 0.015208004973828793, 0.034512121230363846, -0.029845209792256355, 0.055485066026449203, -0.013345866464078426, -0.02879900112748146, -0.10285954922437668, 0.0942668467760086, -0.08964524418115616, -0.13518327474594116, 0.11749337613582611, 0.029256686568260193, -0.12247227877378464, 0.008991162292659283, -0.2841757833957672, -0.16817094385623932, 0.25223755836486816, 0.10697454959154129, 0.009705189615488052, 0.033167701214551926, 0.030340835452079773, 0.10918070375919342, -0.1940511018037796, 0.16574212908744812, 0.005413190461695194, -0.12867826223373413, 0.22240494191646576, 0.13774670660495758, -0.16385141015052795, 0.04528099298477173, -0.24367083609104156, 0.09671340882778168, -0.26078060269355774, 0.0012611807323992252, 0.15773768723011017, -0.05336783081293106, -0.06482966244220734, -0.02589048631489277, -0.09179353713989258, -0.09121192991733551, 0.0581485815346241, 0.10603389143943787, 0.09696829319000244, -0.05189722776412964, 0.10444840043783188, -0.04379625245928764, -0.2839546501636505, 0.12591396272182465, 0.20771148800849915, 0.01689506694674492, 0.07186704128980637, 0.0730811282992363, -0.2380906641483307, 2.9436137083393987e-06, 2.784537718980573e-05, 4.075547258253209e-05, 2.4813123673084192e-05, 3.483136970316991e-05, 4.95128842885606e-05, 3.5756224860961083e-06, 3.410795034142211e-05, 5.002706529921852e-05, 3.072330218856223e-05, 4.266382165951654e-05, 5.9182413679081947e-05, -3.402078164072009e-06, -3.371470302226953e-05, -4.953917596139945e-05, -3.0411740226554684e-05, -4.225814700475894e-05, -5.8593490393832326e-05, -8.413527211814653e-06, -5.652220352203585e-05, -8.174568210961297e-05, -5.148526906850748e-05, -6.90681699779816e-05, -8.961230923887342e-05, 1.0136800483451225e-05, 6.343617860693485e-05, 9.141174814430997e-05, 5.768896153313108e-05, 7.684410957153887e-05, 9.811489144340158e-05, 5.708650405722437e-07, 5.935158242209582e-06, 8.507780876243487e-06, 4.798288046004018e-06, 7.279079909494612e-06, 1.1688664017128758e-05, -3.967966222262476e-06, -3.096205182373524e-05, -4.498839916777797e-05, -2.777734334813431e-05, -3.848253618343733e-05, -5.376982153393328e-05, -1.4983186702011153e-05, -8.07767064543441e-05, -0.00011556746176211163, -7.307854684768245e-05, -9.571201371727511e-05, -0.00011765945237129927, 0.030464336276054382, -0.02226237766444683, -0.06825757026672363, -0.014938472770154476, -0.04629834368824959, 0.08343645930290222, 0.029418285936117172, -0.030974769964814186, -0.08912709355354309, -0.018668437376618385, -0.05594559758901596, 0.10908827185630798, -0.024405958130955696, 0.027737895026803017, 0.09088975191116333, 0.018895568326115608, 0.05396152287721634, -0.12287549674510956, -0.05988149344921112, 0.07354825735092163, 0.15208329260349274, 0.030835146084427834, 0.08173924684524536, -0.16556759178638458, 0.035912685096263885, -0.07896476984024048, -0.17211763560771942, -0.0317748486995697, -0.0877639502286911, 0.17531868815422058, 0.01011645793914795, -0.0005574073875322938, -0.011692497879266739, -0.003902328899130225, -0.013595696538686752, 0.018515566363930702, -0.02753804251551628, 0.02747064083814621, 0.0787283405661583, 0.016402870416641235, 0.04767623543739319, -0.09409075975418091, -0.04917462542653084, 0.06718882918357849, 0.22131404280662537, 0.04313993081450462, 0.060796841979026794, -0.21626713871955872, 0.02868831157684326, 0.07785879075527191, 0.028554614633321762, 0.04968808591365814, 0.04721227288246155, -0.1444227546453476, 0.04000230133533478, 0.10406814515590668, 0.034517236053943634, 0.06112733855843544, 0.06131837144494057, -0.17517392337322235, -0.03248238563537598, -0.10028040409088135, -0.03476288542151451, -0.06181451678276062, -0.054445307701826096, 0.17531053721904755, -0.03384486585855484, -0.17629222571849823, -0.059267546981573105, -0.0876663327217102, -0.054102420806884766, 0.24589543044567108, 0.07422497123479843, 0.1564713567495346, 0.05965766683220863, 0.08915992081165314, 0.08099433779716492, -0.2343563735485077, 0.004132856614887714, 0.01223068032413721, 0.00763795617967844, 0.012733569368720055, 0.009373140521347523, -0.03382733836770058, -0.03277451545000076, -0.08729333430528641, -0.03141579031944275, -0.055220089852809906, -0.05255286023020744, 0.15877974033355713, -0.0738411471247673, -0.20134256780147552, -0.06731631606817245, -0.10507118701934814, -0.04840681329369545, 0.3137907087802887, 1.8842900317395106e-05, 5.177103594178334e-05, 2.3302569388761185e-05, -3.4545184462331235e-05, -1.2925249393447302e-05, -5.76214642933337e-06, 1.9272083591204137e-05, 6.200540519785136e-05, 2.82461096503539e-05, -4.249878111295402e-05, -1.7082031263271347e-05, -1.0158313671126962e-05, -1.907457954075653e-05, -6.157680036267266e-05, -2.812063758028671e-05, 4.207456368021667e-05, 1.6940235582296737e-05, 1.0193852176598739e-05, -1.3322985978447832e-05, -8.931321644922718e-05, -4.001432898803614e-05, 7.077347254380584e-05, 3.323399869259447e-05, 2.8144366297055967e-05, 1.0205689250142314e-05, 9.673026943346485e-05, 4.310412987251766e-05, -7.955321780173108e-05, -3.8189398765098304e-05, -3.374835068825632e-05, 7.031031600490678e-06, 1.2265860277693719e-05, 5.089712885819608e-06, -7.280009413079824e-06, -1.444484610146901e-06, 1.6552357919863425e-06, -1.8016726244241e-05, -5.474668068927713e-05, -2.4382707124459557e-05, 3.827342879958451e-05, 1.5293986507458612e-05, 8.317128049384337e-06, 2.724650585150812e-07, -0.00011284554057056084, -4.9469319492345676e-05, 0.00010169628512812778, 5.0429211114533246e-05, 4.746756894746795e-05, -0.09498903900384903, -0.06406533718109131, 0.09274382889270782, -0.27509623765945435, -0.13303957879543304, 0.2928639054298401, -0.12910902500152588, -0.14433948695659637, -0.2384742945432663, -0.34041300415992737, -0.25438955426216125, 0.219061478972435, 0.03915223851799965, -0.027283424511551857, 0.023323312401771545, 0.17880642414093018, 0.028560344129800797, -0.27522575855255127, -0.05471748113632202, 0.1797923743724823, -0.08794109523296356, 0.09837351739406586, 0.04575391486287117, -0.2107522338628769, 0.047850560396909714, -0.07021062821149826, -0.03974244371056557, -0.27414554357528687, -0.11098809540271759, 0.16140170395374298, 0.10378682613372803, -0.12923437356948853, -0.04933660104870796, -0.18351173400878906, -0.06336771696805954, 0.20222784578800201, 0.11539221554994583, -0.02854103595018387, 0.01228957436978817, 0.2618691325187683, 0.14573010802268982, -0.08667831122875214, -0.01138045359402895, -0.01437726803123951, 0.09924367070198059, 0.15065139532089233, 0.15894277393817902, -0.24864746630191803, 0.18145455420017242, 0.047203920781612396, 0.44736719131469727, -0.01642862893640995, -0.12180819362401962, -0.12416594475507736, -0.018337810412049294, 0.29459434747695923, -0.5839999914169312, -0.008358148857951164, -0.33575931191444397, -0.0001218571123899892, -0.43719401955604553, 0.4483247995376587, 5.074125510873273e-05, -0.7800943851470947, 0.2879771590232849, 0.03698529675602913, 0.269954651594162, 0.0003030126099474728, 0.13724416494369507, -0.32578036189079285, -6.324404967017472e-05, 0.18993140757083893, 0.12430662661790848, -0.11517570167779922, 0.27105000615119934, 0.00012406238238327205, 0.21010363101959229, -0.2989811897277832, 5.090917693451047e-05, 0.2540765106678009, 0.15849198400974274, 0.05248074233531952, 0.2815335988998413, 0.0004114523471798748, 0.18932437896728516, -0.17941568791866302, -0.0002399655495537445, 0.12145024538040161, 0.14217551052570343, -0.07460758835077286, -0.0087131904438138, 0.0017016333295032382, -0.2331487387418747, 0.1724833846092224, -0.0003538504533935338, 0.09364937245845795, 0.33317673206329346, -0.06255454570055008, 0.22583819925785065, 6.949853559490293e-05, 0.3841622471809387, -0.19552889466285706, 0.00037681713001802564, 0.34672045707702637, 0.19706831872463226, 0.032937947660684586, 0.21622192859649658, 0.0001906930992845446, -0.10681544989347458, 0.2907327115535736, 0.00014639380970038474, -0.1308833807706833, -0.3165595829486847, -0.0495021678507328, -0.42116498947143555, -0.0004039292107336223, -0.01729622296988964, 0.3901127278804779, 1.366704236716032e-05, -0.5172408223152161, -0.5457550883293152, -0.05075058713555336, 0.07848469913005829, -6.250526348594576e-05, -0.15429456532001495, 0.13458192348480225, -0.00024827790912240744, -0.5281214118003845, -0.3174305558204651, 0.08317023515701294, -0.15343450009822845, -0.024182284250855446, -0.28692567348480225, -0.16554734110832214, 0.2735338509082794, 0.12110558152198792, -0.14459095895290375, -0.20810681581497192, -0.23031377792358398, -0.11638591438531876, -0.18641577661037445, 0.06523508578538895, 0.021429812535643578, 0.06265939027070999, -0.003947137854993343, -0.01883496157824993, -0.032458364963531494, 0.3136899173259735, 0.2633046507835388, 0.23109793663024902, 0.13136637210845947, 0.12888528406620026, 0.036854684352874756, -0.3128385841846466, 0.138076514005661, 0.3015008270740509, 0.2342250645160675, 0.06505213677883148, 0.08807682991027832, -0.23200735449790955, -0.02545825019478798, -0.20133842527866364, -0.11673464626073837, 0.024155760183930397, -0.09291847050189972, 0.2241959571838379, -0.10172867774963379, -0.05811895430088043, -0.07473055273294449, 0.054935798048973083, -0.10906752943992615, -0.033312927931547165, -0.029358569532632828, -0.0012923706090077758, 0.11794498562812805, -0.012989189475774765, 0.20916666090488434, -0.18616747856140137, 0.053920138627290726, 0.0597073957324028, 0.10874174535274506, -0.06598787754774094, -0.09224246442317963, -0.3919025659561157, -0.05178021639585495, -0.06814152002334595, 0.03695301711559296, 0.06794669479131699, 0.33219513297080994, -0.21842598915100098, 0.06495442986488342, 0.01494663953781128, 0.12992356717586517, 0.18027645349502563, 0.2545206546783447, -0.2794996201992035, -0.15309616923332214, -0.17639227211475372, -0.1033969596028328, -0.0003822164435405284, -0.056823909282684326, 0.13905669748783112, -0.08917158097028732, -0.250108540058136, -0.11987514048814774, -0.15704865753650665, -0.04946792125701904, 0.3261970281600952, -0.07331044226884842, 0.11334370821714401, 0.11982235312461853, 0.02221970073878765, 0.1983586847782135, -0.3929850161075592, 0.08554510027170181, -0.04597538709640503, -0.11046678572893143, -0.03272461146116257, 0.10057990998029709, -0.08380511403083801, -0.15787385404109955, -0.05723576620221138, -0.08461638540029526, -0.03763674199581146, -0.26351213455200195, 0.28602007031440735, 0.004762979689985514, -0.08741258084774017, -0.13119421899318695, -0.28517967462539673, -0.15670304000377655, 0.49518659710884094, -0.052503764629364014, -0.01727636530995369, -0.07411645352840424, -0.10171069949865341, -0.050605181604623795, -0.20043997466564178, 0.030262140557169914, 0.11751310527324677, 0.012176715768873692, 0.11135431379079819, 0.08880612254142761, -0.1237502247095108, 0.018976634368300438, 0.0030848553869873285, 0.06858628988265991, -0.0905313715338707, -0.08532261103391647, -0.17638590931892395, 0.04139930382370949, -0.007428387179970741, 0.03711821511387825, -0.04167063534259796, -0.09723496437072754, 0.0027069225907325745, -0.04617997258901596, -0.07472923398017883, -0.03071918524801731, -0.07974347472190857, -0.005747021175920963, -0.1669948250055313, -0.013373755849897861, -0.058112263679504395, -0.001925326301716268, -0.008444121107459068, -0.07945097237825394, -0.06621341407299042, 0.04057113453745842, -0.05886422097682953, 0.040391094982624054, 0.07572245597839355, 0.018503637984395027, 0.19787311553955078, 0.054307229816913605, 0.11686095595359802, 0.15499886870384216, -0.06423059850931168, -0.11675936728715897, 0.05774699151515961, -0.00492441700771451, -0.006607401184737682, -0.0028178743086755276, -0.004287285264581442, -0.001395686063915491, -0.0032625943422317505, -0.009239774197340012, -0.010856701992452145, -0.0073675308376550674, -0.009008352644741535, -0.005923203658312559, -0.008062681183218956, 0.0010660866973921657, 0.002254560822620988, 0.0022499144542962313, 0.0017666445346549153, 0.0012101142201572657, 0.0004473382723517716, 0.006493184249848127, 0.0091297822073102, 0.005480863619595766, 0.005477407947182655, 0.0038287851493805647, 0.004360313527286053, -0.007913944311439991, -0.009319963864982128, -0.0054647428914904594, -0.007146903313696384, -0.0029607375618070364, -0.0054341466166079044, 0.002706728409975767, 0.004239882342517376, 0.0010892180725932121, 0.002835108432918787, 0.0013697276590391994, 0.002648963127285242, 0.008131952956318855, 0.010096263140439987, 0.004595851991325617, 0.007523725740611553, 0.002961381571367383, 0.006516395602375269, 0.008244809694588184, 0.009625785052776337, 0.005277634132653475, 0.007938348688185215, 0.003135056933388114, 0.006514500826597214, -1.2729667105304543e-05, 5.078208778286353e-05, 0.0001768297515809536, 0.00019578487263061106, -6.400410256901523e-06, -5.9049569244962186e-05, -0.0016419392777606845, -0.001543466467410326, -0.0012618803884834051, -0.0015350315952673554, -0.0016983181703835726, -0.0019271597266197205, -3.981838017352857e-05, 7.626284786965698e-05, 0.00010855185246327892, 0.00010128852591151372, 0.00010920266504399478, 3.3743333915481344e-05, -2.7196509108762257e-05, 0.00010223959543509409, 0.00010745706094894558, 2.649297493917402e-05, 7.369789091171697e-05, -3.140133048873395e-05, 6.84972619637847e-05, 7.29087769286707e-05, 0.00013671581109520048, 0.00018769149028230458, 3.8844395021442324e-05, -6.044974361429922e-05, -5.6786328059388325e-05, 2.911109186243266e-05, 2.823834802256897e-05, -5.7613760873209685e-08, 5.289378350425977e-06, -7.137210195651278e-05, 0.00026009464636445045, 0.00010618549276841804, -7.714216917520389e-05, -7.358175207627937e-05, 0.0002836158964782953, 0.0005701128393411636, -5.712080383091234e-05, -6.0034555644961074e-05, -0.00017531450430396944, -0.00017969335021916777, 0.00014018872752785683, 0.00029127244488336146, -0.12170733511447906, -0.06392394006252289, -0.017879337072372437, -0.27106398344039917, 0.05349312722682953, -0.34835442900657654, 0.0615515299141407, 0.021496247500181198, 0.07436319440603256, 0.0016541449585929513, 0.19347944855690002, -0.046628084033727646, -0.09637708961963654, 0.005737489089369774, -0.22997784614562988, -0.2511715590953827, -0.01920221745967865, 0.20244184136390686, -0.1741548329591751, -0.06938640773296356, -0.16668808460235596, -0.122413769364357, -0.19847378134727478, 0.20822829008102417, -0.07945258170366287, -0.08482664078474045, 0.10605895519256592, 0.0587419718503952, 0.09306246787309647, -0.2117995023727417, 0.0034847937058657408, -0.03039807453751564, -0.02702059969305992, -0.26281553506851196, -0.13280746340751648, -0.18708516657352448, 0.038331661373376846, -0.16542942821979523, -0.07112622261047363, 0.11145852506160736, -0.3700886368751526, 0.2714681029319763, -0.08942805975675583, -0.091787189245224, -0.009854352101683617, -0.18159373104572296, -0.14965158700942993, 0.2555658519268036, 0.018938742578029633, 0.027049435302615166, 0.061582230031490326, -0.05414748191833496, 0.023085348308086395, -0.10684231668710709, 0.010373693890869617, -0.03645462170243263, -0.01938530243933201, -0.08466681092977524, -0.01256558857858181, -0.1675560027360916, -0.08716375380754471, -0.04625622183084488, -0.04901459813117981, -0.09006849676370621, -0.07977227866649628, -0.058202337473630905, -0.09514642506837845, -0.04729907214641571, -0.11670708656311035, -0.07672541588544846, -0.08727928251028061, 0.06313683837652206, 0.046213772147893906, 0.04925601929426193, 0.10792907327413559, 0.023467134684324265, 0.02979588881134987, -0.16231223940849304, -0.01185119990259409, 0.005131005309522152, 0.021754823625087738, 0.023907344788312912, -0.0009024541941471398, -0.023506544530391693, 0.002065045293420553, -0.03727900609374046, -0.0015561128966510296, 0.14481577277183533, 0.021530630066990852, 0.19518741965293884, -0.044657014310359955, -0.057919830083847046, -0.03134363889694214, -0.004617310594767332, -0.06318049132823944, 0.17776520550251007, -0.05035380646586418, 0.06920971721410751, 0.05483430624008179, -0.006753821857273579, 0.08023733645677567, 0.09872634708881378, 0.025199949741363525, 0.11036704480648041, 0.04408203065395355, 0.04769842326641083, 0.1574205905199051, 0.11158270388841629, -0.08243357390165329, -0.008174697868525982, 0.008280203677713871, 0.053988680243492126, -0.015855619683861732, -0.008785946294665337, -0.0870945155620575, 0.012824615463614464, 0.09894613176584244, 0.13286162912845612, 0.028378881514072418, -0.000605174747761339, 0.08904659748077393, 0.012101655825972557, -0.018167318776249886, -0.07920712977647781, 0.12763746082782745, 0.11299346387386322, 0.04713364690542221, -0.03383275493979454, -0.022970980033278465, 0.06338301301002502, 0.06473702192306519, 0.017867209389805794, -0.09731202572584152, -0.02034127525985241, -0.13444660604000092, -0.07065103948116302, -0.13762636482715607, -0.16875016689300537, 0.05102479085326195, 0.004689417313784361, -0.08107702434062958, 0.015276557765901089, -0.13750816881656647, -0.14241236448287964, 0.08133629709482193, -0.06888817250728607, 0.16455692052841187, -0.016597099602222443, -0.010078593157231808, 0.2242678850889206, -0.09533494710922241, 0.014036430977284908, -0.13699516654014587, 0.5895038843154907, 0.17201925814151764, 0.004542165901511908, -0.00010064573143608868, 0.6445367336273193, 0.16362163424491882, -0.47580236196517944, 0.26622191071510315, -0.29074618220329285, -0.1833324432373047, -0.0015208667609840631, 0.0003807402099482715, -0.13318267464637756, -0.14444267749786377, 0.16177310049533844, 0.10408324003219604, -0.2569393813610077, -0.036501217633485794, 0.005843894090503454, -0.00014075996296014637, -0.09914850443601608, -0.12514306604862213, 0.2606949508190155, -0.12122108042240143, 0.4130541980266571, -0.45277586579322815, 0.005945077631622553, -0.00022829626686871052, 0.1260835826396942, -0.11640615016222, 0.2827799916267395, -0.11237499862909317, -0.12752725183963776, -0.03186861798167229, -0.0026436212938278913, 9.747938747750595e-05, 0.04809660464525223, 0.12341488897800446, -0.09727152436971664, -0.0486932210624218, 0.21846215426921844, 0.1568879634141922, 0.003137776628136635, 4.143359183217399e-05, 0.04294797405600548, -0.11582553386688232, 0.08944667875766754, -0.03796051815152168, 0.14711792767047882, 0.3452969789505005, 0.0017036584904417396, 3.528630986693315e-05, 0.37462639808654785, 0.177223339676857, -0.18198448419570923, -0.439159631729126, 0.4758240580558777, 0.02706669270992279, -0.008299509063363075, -0.00036385745625011623, 0.33717817068099976, 0.17886197566986084, 0.0520126111805439, -0.057406581938266754, 0.19266663491725922, 0.12550242245197296, -0.004492688924074173, 0.00019781998707912862, 0.2890198528766632, 0.087832510471344, 0.16060137748718262, -0.0909065529704094, -0.04588998854160309, 0.08344165980815887, -0.06574609875679016, 0.08015482127666473, -0.2345261573791504, -0.0011756618041545153, -0.20315052568912506, -0.01092781312763691, -0.009560884907841682, -0.010030515491962433, -0.023237157613039017, 0.003459206549450755, -0.03970721736550331, 0.015801604837179184, -0.021574025973677635, -0.026001419872045517, -0.043553587049245834, 0.03997933119535446, -0.014265889301896095, -0.0024846431333571672, -0.027372809126973152, 0.025107013061642647, -0.06507106870412827, 0.004310959484428167, -0.032379232347011566, 0.03224800527095795, 0.014181990176439285, 0.07570622861385345, 0.07649624347686768, 0.012110978364944458, -0.09983957558870316, -0.01121762115508318, 0.004408129956573248, -0.02864980138838291, -0.078044094145298, 0.011866205371916294, 0.04258684441447258, -0.00838745292276144, 0.03262157365679741, 0.0282596442848444, 0.031037312000989914, 0.032488975673913956, -0.009840469807386398, 0.006630333140492439, 0.0027610899414867163, -0.022234957665205002, -0.005146984942257404, 0.05065503343939781, 0.11970541626214981, 0.012205448932945728, -0.01953243464231491, 0.008541575632989407, 0.03440767899155617, 0.05361400544643402, 0.027847252786159515, -0.040438469499349594, -0.16922013461589813, -0.04843820258975029, -0.10815523564815521, -0.07755748182535172, 0.10394508391618729, 0.004061619285494089, 0.03968101367354393, 0.06367464363574982, 0.09207511693239212, 0.2131849080324173, 0.03913643956184387, -0.017699507996439934, 0.00024104722251649946, -0.0529894083738327, 0.02856544964015484, 0.22275084257125854, 0.12387420237064362, 0.10347015410661697, 0.01750173605978489, -0.13010196387767792, -0.15158520638942719, -0.23001478612422943, 0.022347619757056236, 0.08205707371234894, 0.10180363804101944, 0.10199863463640213, 0.19171740114688873, 0.4148171544075012, -0.1619982123374939, 0.03898777440190315, 0.05094357207417488, 0.05440100282430649, 0.08037859946489334, 0.09219639003276825, -0.2972871661186218, 0.06862064450979233, -0.0052505494095385075, 0.16530615091323853, 0.138491690158844, -0.02493361197412014, 0.01622091233730316, -0.056992754340171814, 0.007518550846725702, -0.04993396997451782, -0.0877387747168541, -0.16453661024570465, 0.17615261673927307, 0.015163056552410126, 0.004504668526351452, -0.00017428836144972593, 0.0047903480008244514, 0.01056988351047039, 0.04483618214726448, -0.023117486387491226, -0.03344221040606499, -0.03294546529650688, -0.034529685974121094, -0.13208863139152527, 0.027113648131489754, -0.046788547188043594, -0.02525821141898632, 0.006576915271580219, -0.013325643725693226, 0.019973523914813995, -0.032195888459682465, 0.018639257177710533, 0.03868573531508446, -0.017342377454042435, -0.0003147939860355109, 0.032580725848674774, -0.07080835103988647, -0.03668671101331711, -0.04035766050219536, 0.01851094327867031, 0.014080764725804329, -0.022686699405312538, 0.053167421370744705, -0.006007541436702013, 0.003759718034416437, 0.030817996710538864, 0.029902955517172813, 0.07950618118047714, -0.0122110266238451, -0.013084601610898972, -0.003901077900081873, 0.034519538283348083, -0.004429597407579422, 0.1318395882844925, -0.007210820447653532, 0.005088047124445438, 0.018157366663217545, 0.02079322561621666, -0.025192787870764732, 0.08311179280281067, -0.06257093697786331, 0.0010636306833475828, 0.0021711881272494793, 0.001986475195735693, 0.002571327146142721, 0.0022812262177467346, 0.0018589395331218839, -0.0023012221790850163, -0.0015904591418802738, -0.0018999421736225486, -0.0016328638885170221, -0.0018342783441767097, -0.0022341283038258553, -0.0019736893009394407, -0.0018033868400380015, -0.0018629905534908175, -0.001918455003760755, -0.0015176499728113413, -0.0013943244703114033, -3.801882121479139e-05, 0.00014810966968070716, 0.0003979351604357362, 0.0006395272212103009, 0.0007789693772792816, 0.0008969859918579459, -0.0008948927279561758, -0.0006106218788772821, -0.001072325510904193, -0.0010808194056153297, -0.001037917216308415, -0.0010772992391139269, 0.0004349669034127146, 0.00024195296282414347, 0.00039865451981313527, 0.0001509777648607269, 0.000316429854137823, 0.0004582820984069258, 0.0012449669884517789, -3.3945016184588894e-05, 0.00039639067836105824, -0.00084833730943501, -0.0008140753488987684, -0.0006392707000486553, 0.000791552010923624, 0.00013441784540191293, 0.0009048941428773105, 0.00014817278133705258, 0.0003224550746381283, 0.0005017952644266188, 0.01218253280967474, 0.01036721933633089, 0.0023304095957428217, -0.01321464218199253, -0.009495548903942108, 0.029678041115403175, -0.05193818360567093, -0.027902817353606224, -0.043684907257556915, -0.05714429169893265, -0.05771978572010994, -0.005906258709728718, -0.031401410698890686, 0.01995271071791649, -0.005837464705109596, -0.009065897203981876, 0.06445258855819702, 0.02970164641737938, 0.049125928431749344, 0.01871325448155403, 0.021618478000164032, 0.023489471524953842, 0.04524581879377365, 0.017648784443736076, -0.06904777884483337, -0.019469523802399635, -0.013695764355361462, -0.022778494283556938, -0.007849807851016521, -0.0012843506410717964, 0.00705683184787631, 0.002877304330468178, 0.05278203263878822, 0.04886331781744957, 0.05985809862613678, 0.0052150459960103035, -0.013025227002799511, 0.015357251279056072, 0.02239346317946911, 0.050639256834983826, 0.08715999126434326, -0.010271689854562283, 0.03912796825170517, 0.044826194643974304, 0.05112564191222191, 0.0631939098238945, 0.06658127158880234, 0.028393849730491638, 0.016996677964925766, -0.01380299124866724, 0.022019537165760994, -0.05133935436606407, -0.008829224854707718, 0.10681948065757751, 0.001818651333451271, -0.023707108572125435, -0.014533554203808308, -0.04044168069958687, -0.015400951728224754, 0.11771012842655182, 0.05005527287721634, -0.004905904643237591, -0.059197574853897095, -0.01587682217359543, -0.09917676448822021, -0.08878672868013382, 0.023205820471048355, 0.011650525033473969, 0.029047049582004547, -0.0006812736392021179, -0.061604633927345276, -0.02558796852827072, 0.024835478514432907, 0.015683412551879883, 0.0012336428044363856, -0.03785491734743118, 0.009497502818703651, 0.02814352512359619, 0.045725345611572266, 0.018454143777489662, 0.08361408859491348, -0.00940921064466238, -0.03416134789586067, -0.0918559730052948, -0.007845036685466766, -0.009670497849583626, -0.014730463735759258, -0.007501991465687752, 0.10566192120313644, -0.13585330545902252, 0.033248018473386765, -0.0005229496746324003, 0.018952596932649612, -0.009179473854601383, 0.05019928514957428, -0.1643589437007904, -0.11326493322849274, -0.03536616265773773, -0.008335176855325699, -0.2526942491531372, -0.1349940299987793, -0.013085197657346725, 0.019092440605163574, -0.05148964002728462, -0.13095739483833313, -0.05225793272256851, 0.035393599420785904, 0.12660951912403107, 0.15182781219482422, 0.0610586553812027, 0.11660304665565491, 0.11797147989273071, 0.07256480306386948, 0.045050881803035736, 0.21260055899620056, 0.03085116483271122, -0.007275822106748819, -0.06207076087594032, -0.12087874859571457, -0.12328988313674927, 0.05188565328717232, 0.006781761534512043, 0.04414084181189537, 0.03502775728702545, 0.20292243361473083, 0.03503287956118584, -0.0285850428044796, 0.061681635677814484, 0.10392914712429047, 0.1234513446688652, -0.005227317567914724, -0.25717484951019287, -0.09380607306957245, 0.05269768834114075, 0.1457621455192566, 0.10587849467992783, 0.27735939621925354, 0.15235258638858795, 0.09788066893815994, 0.0763213038444519, 0.03451700881123543, -0.04892763867974281, -0.01793687790632248, 0.16430991888046265, 0.010119324550032616, 0.012820443138480186, 0.019415954127907753, -0.023204300552606583, 0.01171076949685812, 0.03257321938872337, -0.014365117996931076, -0.0061688413843512535, -0.014790859073400497, -0.05863833427429199, -0.013124391436576843, 0.0007457718602381647, -0.008483560755848885, -0.03272596001625061, -0.02649724669754505, -0.014973144046962261, 0.026649504899978638, 0.0014580989954993129, -0.0048519340343773365, -0.01657939702272415, 0.012457214295864105, 0.030010001733899117, 0.0012725406559184194, 0.015233942307531834, 0.011741752736270428, 0.014902299270033836, -0.010182772763073444, -0.03379755839705467, 0.03319241851568222, 0.0011088751489296556, 0.018231064081192017, 0.021968726068735123, 0.0024400227703154087, 0.040948037058115005, 0.04074537754058838, -0.010378637351095676, 0.007655755151063204, 0.0028499257750809193, -0.0217239111661911, 0.042317792773246765, 0.009439276531338692, -0.029651237651705742, -0.0027814176864922047, -0.0054017324000597, -0.020513834431767464, 0.03777584061026573, 0.0036440612748265266, -0.016816383227705956, -0.0138413580134511, 0.05492421239614487, -0.09362645447254181, -0.012503711506724358, -0.11270096898078918, -0.045417893677949905, 0.15465234220027924, -0.04485052824020386, -0.09124793112277985, 0.32846206426620483, -0.0728711411356926, 1.1752596037695184e-05, 0.013684299774467945, -0.1787572205066681, 0.16644349694252014, 0.016728775575757027, -0.03537918999791145, -0.033648502081632614, 0.09725121408700943, 0.0007258830009959638, -0.05164660885930061, 0.022780271247029305, -0.02796763740479946, -0.0658959448337555, -0.0516524501144886, -0.20811520516872406, -0.031305648386478424, -7.773593824822456e-05, -0.0022338642738759518, -0.053069818764925, -0.23732520639896393, -0.0044762929901480675, -0.11055885255336761, 0.08376810699701309, 0.032771557569503784, -0.00025996105978265405, 0.0891931802034378, -0.05513094738125801, 0.03430052846670151, -0.004686150699853897, -0.11277953535318375, 0.1966591328382492, 0.0716334879398346, 0.00012369743490125984, 0.03732474148273468, -0.24711723625659943, -0.4103962779045105, 0.030767859891057014, -0.048236481845378876, -0.13921572268009186, 0.1338464915752411, 0.0002139257121598348, 0.10312488675117493, 0.02740740403532982, -0.20793770253658295, -0.04840078949928284, 0.03614244982600212, 0.19313988089561462, 0.1135832667350769, -2.7463362130220048e-05, 0.026704352349042892, 0.050614532083272934, 0.1658511757850647, 0.03545128181576729, 0.06685249507427216, 0.18044708669185638, -0.08924024552106857, -0.00030012891511432827, -0.1334354281425476, -0.0728239044547081, -0.23741893470287323, -0.0014784062514081597, 0.14389756321907043, -0.09095790982246399, -0.017353538423776627, 0.0002493780921213329, -0.09832683950662613, 0.24227222800254822, 0.07091042399406433, 0.022033927962183952, 0.17988842725753784, 0.00552845885977149, -0.1890954226255417, 0.13749168813228607, 0.0856722965836525, -0.03746435418725014, 0.11298150569200516, 0.0025599361397325993, -0.02612428553402424, 0.005358388647437096, -0.09183647483587265, -0.02574327401816845, -0.017262112349271774, -0.02062230370938778, -0.03494759276509285, 0.038223255425691605, -0.09428372979164124, -0.012333202175796032, -0.004061192274093628, 0.054614774882793427, 0.06223152577877045, 0.1172519400715828, 0.03785359486937523, 0.025077860802412033, 0.04395527392625809, -0.030482182279229164, -0.1012938991189003, -0.054160214960575104, -0.08113966137170792, 0.01959008164703846, -0.04345942288637161, 0.023718325421214104, 0.01414805743843317, 0.11042259633541107, -0.07213369011878967, -0.0372576080262661, 0.011759337969124317, 0.009271157905459404, 0.05910506099462509, 0.062152061611413956, 0.04807436838746071, -0.003365600947290659, 0.03495430946350098, -0.05366392061114311, 0.024768535047769547, -0.008724721148610115, 0.04836418852210045, -0.0022479130420833826, -0.019537271931767464, 0.024268198758363724, 0.03528406843543053, -0.031162524595856667, 0.12215786427259445, -0.004929655231535435, 0.020779170095920563, -0.03400958701968193, -0.06801514327526093, -0.08590608835220337, -0.09644965082406998, -0.122401662170887, -0.08597474545240402, -0.06954702734947205, 0.03049677424132824, 0.027175065129995346, -0.0010690997587516904, -0.030915282666683197, 0.05056923255324364, 0.023599518463015556, 0.039180755615234375, 0.03950302302837372, 0.007263262756168842, 0.021255649626255035, 0.13563165068626404, -0.022799372673034668, -0.028832275420427322, -0.000881706306245178, -0.04109060391783714, -0.05670788884162903, -0.14201168715953827, -0.02179478108882904, -0.0011115710949525237, 0.0007016519666649401, -0.05131017416715622, -0.006145404651761055, 0.053583379834890366, -0.015028310008347034, 0.06573424488306046, 0.025675492361187935, -0.046467095613479614, -0.032964371144771576, 0.07128413766622543, -0.06628099828958511, -0.05560106784105301, 0.03320004791021347, 0.07695578038692474, 0.06708388775587082, 0.017384076490998268, 0.018857942894101143, 0.09321414679288864, 0.11258253455162048, 0.06364305317401886, 0.05503875017166138, 0.021840805187821388, 0.0028063321951776743, 0.012217427603900433, 0.03057439625263214, 0.0239577516913414, 0.02786475233733654, 0.02999124675989151, 0.062364161014556885, -0.003546597436070442, 0.003568158019334078, 0.016138527542352676, -0.02600148878991604, -0.005011583212763071, -0.0484924279153347, -0.014052439481019974, 0.016816649585962296, -0.01869966834783554, 0.01288006640970707, 0.0608651377260685, 0.05078013613820076, 0.006486877333372831, -0.00022569111024495214, 0.027035225182771683, 0.0697803944349289, 0.16102124750614166, 0.020243143662810326, 0.02307656779885292, -0.05625259503722191, -0.041334666311740875, -0.040913261473178864, -0.1002010628581047, -0.08269020915031433, 0.003933527506887913, 0.010118842124938965, 0.02768821455538273, 0.062350790947675705, 0.02808096632361412, 0.008913002908229828, 0.014806583523750305, -0.014763298444449902, -0.018014371395111084, -0.05534089356660843, -0.1238546147942543, -0.15342684090137482, -0.017526019364595413, 0.02849540114402771, 0.044976022094488144, 0.06000109761953354, 0.1350058913230896, 0.12785379588603973, 0.014035696163773537, -0.005751471966505051, 0.008328964933753014, -0.0018983313348144293, 0.010827045887708664, -0.0044094109907746315, 0.003906610421836376, -0.009400902315974236, 0.00025406136410310864, -0.008439702913165092, 0.0027813368942588568, -0.012250040657818317, -0.004148018546402454, -0.0019217183580622077, 0.00016890669940039515, -0.007544395048171282, -0.0008720290497876704, -0.004400681238621473, -0.0046583316288888454, 0.012312076985836029, 0.0003531106049194932, 0.0054538799449801445, 0.005530133843421936, 0.00973261334002018, 0.0020641107112169266, -0.004781672265380621, -0.0031959745101630688, -0.011621668003499508, -0.001411982229910791, -0.009064931422472, -0.008103166706860065, 0.006098019890487194, -0.0017096931114792824, -0.00041381994378753006, -0.0018486307235434651, 0.007326983846724033, -0.014776754193007946, 0.008322956040501595, -0.009335959330201149, -0.002077112440019846, -0.016847968101501465, 0.0014018102083355188, -0.009285968728363514, 0.009517066180706024, -0.0009796563535928726, 0.008118469268083572, 0.0005831983871757984, 0.011640296317636967, -0.019944189116358757, -0.020044302567839622, -0.024071136489510536, -0.045770104974508286, -0.0587826669216156, -0.13452252745628357, -0.0039792233146727085, 0.008001558482646942, 0.01955932192504406, 0.03981596976518631, -0.0017735171131789684, -0.04104145988821983, 0.0016297277761623263, -0.006153550464659929, -0.006149883382022381, -0.03550271689891815, 0.003406831994652748, -0.08400905877351761, -0.009889544919133186, -0.004112797323614359, -0.033086106181144714, 0.020736495032906532, 0.05014912411570549, -0.05455930531024933, -0.01613623835146427, -0.007159982807934284, -0.004993845243006945, 0.04761655256152153, -0.02808348275721073, -0.05827184021472931, -0.010047970339655876, -0.04321829602122307, -0.014498436823487282, 0.0066642300225794315, 0.027919121086597443, -0.02592216245830059, 0.0026089386083185673, 0.029103334993124008, -0.0017233564285561442, 0.0210560392588377, -0.03220253437757492, 0.1889725923538208, -0.028114961460232735, -0.03766855224967003, -0.003704463830217719, -0.009117115288972855, 0.01766580529510975, 0.1203823909163475, -0.002294102916494012, 0.002634794916957617, 0.003995558712631464, -0.010378412902355194, 0.0028750572819262743, -0.03721305727958679, -0.008714504539966583, -0.006663935724645853, -0.021142642945051193, -0.004682190716266632, -0.021890709176659584, -0.024492701515555382, 0.014243446290493011, -0.012239201925694942, -0.0012200336204841733, 0.0027706618420779705, 0.012051134370267391, -0.02696344256401062, 0.005083439406007528, -0.041968006640672684, -0.054317280650138855, -0.03490198403596878, 0.021756628528237343, -0.023411763831973076, 0.0071516805328428745, -0.02451395057141781, 0.011185324750840664, 0.07094859331846237, 0.010018490254878998, -0.013690092600882053, 0.002216700930148363, 0.007509870920330286, 0.019306059926748276, 0.03589711710810661, 0.016799403354525566, 0.002288668882101774, -0.003030025167390704, -0.007347679231315851, 0.016463039442896843, 0.07429634034633636, -0.022563641890883446, 0.03275349736213684, 0.006384197156876326, 0.01995926909148693, 0.0013550957664847374, -0.049576375633478165, -0.031703244894742966, -0.021930057555437088, 0.02628468908369541, 0.011427540332078934, 0.034852638840675354, -0.014979777857661247, -0.06330941617488861, 0.026291577145457268, 0.07547646015882492, 0.07795121520757675, 0.08141432702541351, 0.10336723178625107, 0.12842753529548645, 0.005677057430148125, 0.0541413240134716, 0.015581795014441013, 0.00969811249524355, -0.1082891970872879, -0.049504149705171585, 0.06417033821344376, 0.09355857968330383, 0.07668250799179077, 0.13660795986652374, 0.12136523425579071, 0.21222490072250366, 0.023918936029076576, -0.026578132063150406, -0.05370735377073288, -0.08664148300886154, 0.05146069824695587, -0.05634713172912598, 0.0378250814974308, -0.07453808933496475, -0.022470133379101753, -0.023950668051838875, -0.09403090178966522, -0.06562361866235733, 0.20600555837154388, 0.037400487810373306, -0.028965314850211143, -0.08978408575057983, 9.421371214557439e-05, -0.09986695647239685, -0.05806707218289375, -0.0008962328429333866, 0.04445801302790642, 0.07946561276912689, 0.041957538574934006, 0.10305242240428925, -0.033321183174848557, 0.004358147270977497, -0.011744911782443523, -0.03145204856991768, 0.0031030692625790834, 0.006672864779829979, -0.011006317101418972, -0.005281119141727686, -0.01174146682024002, -0.03819122165441513, 0.004160539247095585, -0.004027967806905508, -0.016272567212581635, 0.018835071474313736, -0.009267888031899929, 0.028199227526783943, -0.007294707465916872, 0.007953171618282795, 0.009460583329200745, 0.018229782581329346, 0.01595812849700451, -0.003002642886713147, 0.028005138039588928, 0.008857736364006996, -0.009137927554547787, 0.004916531033813953, -0.010019349865615368, 0.0031575511675328016, -0.02410084940493107, 0.002114220056682825, -0.005125808995217085, 0.006584972143173218, 0.013083592988550663, 0.01004057191312313, -0.0214534904807806, 0.006351010408252478, 0.008864756673574448, -0.011481072753667831, -0.0007902662619017065, 0.05244704708456993, -0.0066805812530219555, 0.01701338030397892, 0.017059413716197014, 0.014705155044794083, 0.023320550099015236, 0.018392782658338547, 0.0035207585897296667, -0.013433447107672691, 0.008933505974709988, -0.035114772617816925, 0.06334351748228073, 0.032903123646974564, -0.03955043479800224, 0.012523395009338856, -0.040667824447155, 0.2872254550457001, -0.030856966972351074, -0.009871771559119225, 4.891846401733346e-06, 0.35473334789276123, -0.0005445636925287545, 0.1680556982755661, -0.03563583642244339, -0.3673163056373596, -0.008861896581947803, 0.19266071915626526, 0.3009273409843445, -0.19511927664279938, 0.007143652532249689, 0.09585851430892944, 0.03593060374259949, -0.026880092918872833, -0.0009751483448781073, -0.15927943587303162, -0.15717129409313202, 0.10597354173660278, 0.00332476943731308, -0.11262223869562149, -0.010771699249744415, -0.074552021920681, -0.007650543935596943, 0.003094663843512535, 0.0528622604906559, -0.35913240909576416, 0.003275712486356497, -0.12535680830478668, -0.05742573365569115, -0.10436844825744629, -0.0028981452342122793, 0.028888816013932228, 0.019033048301935196, 0.09211940318346024, 0.010425121523439884, -0.17406877875328064, -0.045589420944452286, -0.17442966997623444, 0.021775538101792336, 0.030214881524443626, 0.12721037864685059, -0.13310018181800842, 0.0005862154648639262, 0.052964888513088226, 0.0008840540540404618, 0.03731625899672508, 0.035294946283102036, 0.12983456254005432, 0.11372771114110947, -0.03725769370794296, -0.0036890527699142694, 0.16867035627365112, -0.017010316252708435, -0.31541723012924194, -0.018264271318912506, -0.028216298669576645, 0.06592898070812225, 0.023788146674633026, -0.004519287962466478, -0.027402399107813835, -0.019687997177243233, 0.03697582706809044, 0.014729148708283901, -0.013513798825442791, 0.08178643882274628, -0.12856751680374146, -0.01876729354262352, 0.015157404355704784, -0.055009908974170685, -0.06027037650346756, -0.04549974948167801, 0.017404353246092796, -0.07610202580690384, 0.08153435587882996, 0.0957411527633667, -0.1434880793094635, -0.09812566637992859, -0.09938504546880722, 0.22156354784965515, 0.044696833938360214, 0.03562425076961517, 0.09192560613155365, 0.05761539563536644, -0.021023578941822052, -0.11655433475971222, -0.046766772866249084, -0.05276816710829735, -0.07832814007997513, -0.07672101259231567, -0.10723353177309036, 0.07786649465560913, 0.055905573070049286, 0.15161921083927155, 0.11017432808876038, 0.14626240730285645, 0.1259266436100006, -0.12973029911518097, -0.05895711109042168, -0.06086043640971184, -0.03058408759534359, -0.16347914934158325, -0.06731074303388596, 0.09254053235054016, 0.035790376365184784, 0.053897351026535034, 0.037188638001680374, 0.0692114382982254, -0.02744312584400177, -0.035522330552339554, -0.02050093747675419, 0.057596445083618164, 0.062498196959495544, 0.04190880060195923, 0.03597978875041008, -0.07316550612449646, -0.04828720912337303, -0.041431598365306854, -0.03829041123390198, -0.03126692399382591, 0.012361894361674786, 0.006923848297446966, 0.10661519318819046, -0.011014602147042751, 0.03242958337068558, 0.0916748195886612, 0.15860572457313538, -0.05297348275780678, -0.022630130872130394, -0.011112958192825317, -0.10959476977586746, -0.018901413306593895, 0.03190353140234947, -0.09039140492677689, -0.00680953124538064, -0.04057619348168373, -0.11203882843255997, -0.016369342803955078, 0.019559303298592567, 0.045650631189346313, 0.027832945808768272, 0.0028558920603245497, -0.018189070746302605, 0.06249697878956795, 0.0632404163479805, -0.0449138768017292, -0.038829267024993896, -0.0309981107711792, -0.019325753673911095, -0.09163850545883179, 0.03640470653772354, 0.038621652871370316, 0.009657892398536205, -0.03582441806793213, -0.0468338243663311, 0.04194187745451927, 0.05078599601984024, 0.020423633977770805, -0.018089700490236282, -0.05672433227300644, -0.0631638765335083, 0.05044848844408989, 0.02664180099964142, -0.10654868930578232, 0.0011337167816236615, -0.044622670859098434, 0.1978733092546463, -0.03803675249218941, 0.01589815691113472, 0.03629549965262413, 0.009618331678211689, 0.04483558610081673, 0.03419258072972298, 0.01635548286139965, -0.030129849910736084, -0.020127952098846436, 0.04000050202012062, 0.015884416177868843, 0.004918110556900501, 0.005217195954173803, 0.010791662149131298, -0.04784105345606804, -0.007477018982172012, -0.018550241366028786, -0.009275328367948532, 0.01529704499989748, -0.02198946475982666, -0.12616349756717682, 0.01203578058630228, 0.023328552022576332, 0.029348548501729965, 0.013021995313465595, 0.04805063456296921, 0.016396716237068176, 0.03128456696867943, -0.00898111891001463, -0.009305947460234165, 0.02849898673593998, 0.03628495708107948, 0.03165073320269585, -0.002184819895774126, -0.01776539348065853, -0.0213447418063879, 0.004744349978864193, 0.031116003170609474, -0.08002045005559921, 0.04168060049414635, 0.003380507230758667, 0.005115451756864786, -0.0008013365441001952, 0.01797952502965927, 0.05225178226828575, 0.01435790304094553, 0.008787518367171288, 0.006974309217184782, 0.029805568978190422, -0.004250265657901764, 0.06120438128709793, -0.021968204528093338, -0.02475922182202339, -0.016303960233926773, -0.006622322369366884, 0.018669702112674713, 0.14951756596565247, 0.0074328165501356125, -0.10285275429487228, 0.027069253847002983, 0.010364361107349396, 0.012117643840610981, -0.029269764199852943, -0.03374684602022171, -0.06074292212724686, -0.046158917248249054, -0.03302076458930969, 0.00363372964784503, 0.04523279517889023, 0.06458468735218048, 0.0206158384680748, 0.029225416481494904, 0.10038936138153076, -0.0031984371598809958, -0.015612168237566948, -0.023878879845142365, -0.04185553267598152, -0.031188223510980606, -0.07506448775529861, 0.008888889104127884, 0.048279374837875366, 0.0003543249622453004, 0.0034672990441322327, -0.021665284410119057, 0.0221475288271904, 0.015286911278963089, -0.0011050138855352998, 0.030113475397229195, -0.04378620162606239, 0.026471029967069626, 0.03586398437619209, 0.0036222811322659254, -0.0708356499671936, -0.039586685597896576, 0.16157108545303345, -0.018187265843153, -0.016720781102776527, 0.010452729649841785, 0.0504414401948452, 0.03807444125413895, 0.0639018639922142, -0.028307802975177765, 0.009873295202851295, -0.011522136628627777, 0.030836598947644234, 0.024409955367445946, 0.026204779744148254, 0.026416826993227005, 0.004870485048741102, 0.11468958854675293, 0.014704235829412937, -0.020664315670728683, -0.04496566951274872, -0.018213162198662758, -0.02063254453241825, 0.04979773238301277, -0.0015965007478371263, 0.04523488134145737, -0.00489549757912755, 0.048419345170259476, 0.013250211253762245, 0.08415692299604416, 0.012999441474676132, -0.05340539291501045, -0.01902022957801819, -0.005451479461044073, -0.06515368819236755, -0.002336682751774788, 0.03661546856164932, -0.004551370162516832, -0.0106021324172616, 0.010732898488640785, 0.01284412108361721, 0.11391866952180862, -0.02414754405617714, 0.03371378779411316, 0.05073937401175499, 0.06335020810365677, 0.033512525260448456, 0.1142045110464096, 0.04076673090457916, -0.07392378151416779, -0.02098333276808262, -0.03294910117983818, 0.010524854995310307, -0.08592421561479568, -0.06071178615093231, 0.029874976724386215, -0.034221258014440536, -0.020146174356341362, -0.03371287137269974, -0.12084054946899414, 0.015213468112051487, 0.06369734555482864, 0.01850994862616062, 0.024130016565322876, -0.038778990507125854, -0.04452730715274811, -0.10363133251667023, -0.08062192797660828, -0.08692067861557007, -0.04651320353150368, -0.06553501635789871, -0.06634192168712616, 0.031614113599061966, 0.042774748057127, 0.05341113358736038, 0.04002384468913078, 0.08735929429531097, 0.10094920545816422, -0.02410285174846649, 0.034665171056985855, -0.033450230956077576, -0.017520520836114883, -0.07440228760242462, -0.15237829089164734, -0.03261389955878258, 0.06863696128129959, 0.08364488929510117, 0.07276352494955063, 0.004631091840565205, 0.04771734029054642, 0.056142088025808334, 0.005553704686462879, 0.005800742190331221, 0.010038692504167557, 0.022040896117687225, 0.07944813370704651, -0.2865085303783417, 0.010273625142872334, -0.002019288716837764, 0.02745877578854561, -0.039651013910770416, 0.08282201737165451, 0.15249694883823395, -0.001978983636945486, -0.021984491497278214, -0.016692059114575386, -0.003153424011543393, 0.018665889278054237, -0.0591244176030159, -0.022857410833239555, -0.029094761237502098, -0.02422478422522545, -0.03265827149152756, -0.0280136801302433, 0.08398230373859406, 0.024867361411452293, 0.013466410338878632, 0.015372303314507008, 0.01786966249346733, 0.021836310625076294, 0.026555398479104042, -0.029144061729311943, -0.014958444982767105, -0.009116501547396183, -0.036073554307222366, -0.02463340200483799, -0.0171172134578228, 0.02233295515179634, 0.0287481639534235, 0.04197718948125839, 0.058756086975336075, 0.06949517875909805, -0.03645825386047363, -0.00859012734144926, -0.006196180824190378, -0.01610981673002243, -0.017000306397676468, -0.04809029772877693, -0.020291317254304886, -0.010242141783237457, -0.011972272768616676, -0.016020892187952995, -0.016205504536628723, -0.03605104610323906, -0.015789475291967392, -7.81519411248155e-05, 0.010066984221339226, -0.013267708010971546, 0.003537076758220792, -0.06024990230798721, -0.06533575803041458, -0.005954192019999027, 0.010158129967749119, 0.0069132642820477486, 0.02427178993821144, 0.018788548186421394, -0.004649321548640728, -0.02455502562224865, -0.04675031080842018, -0.012956079095602036, 0.005224704742431641, -0.028421223163604736, -0.0436798520386219, -0.008429852314293385, 0.00923528429120779, -0.003138169879093766, 0.008374114520847797, -0.00878836028277874, 0.0367407388985157, -0.008167493157088757, -0.012092716991901398, 0.00031751880305819213, -0.007384913507848978, 0.0686698853969574, 0.3462831974029541, -0.013115914538502693, 0.0032412600703537464, 0.01103757694363594, 0.036669231951236725, 0.008289902471005917, -0.054723110049963, 0.03282228484749794, 0.02280811034142971, 0.011620048433542252, 0.008250145241618156, -0.03165293112397194, 0.26157471537590027, -0.034933242946863174, -0.0628792941570282, -0.06792103499174118, -0.04663596674799919, -0.09624215960502625, 0.07153033465147018, -0.013618646189570427, -0.02257072925567627, -0.013448341749608517, -0.009468710981309414, -0.06201536953449249, -0.09630873799324036, 0.021368298679590225, 0.043429896235466, 0.05795436352491379, 0.04249156266450882, 0.07925378531217575, -0.1277371644973755, -0.023572800680994987, -0.030798131600022316, -0.027556447312235832, -0.014643202535808086, -0.12742501497268677, 0.13972513377666473, -0.13569413125514984, 0.022670354694128036, -0.1503390073776245, 0.02867499738931656, 0.19203464686870575, -0.008297654800117016, 0.053180031478405, 0.23823511600494385, -0.007014233618974686, -0.1547347456216812, 0.22140158712863922, 0.22632351517677307, -0.08984629064798355, 0.2165689319372177, 0.23697446286678314, 0.2582738697528839, -0.06852681934833527, 0.10916950553655624, -0.0685284435749054, -0.08831977099180222, 0.052496571093797684, -0.13130411505699158, -0.11856339126825333, 0.01748729683458805, 0.1112305223941803, 0.05892878770828247, 0.04870438948273659, 0.0056246193125844, -0.21541984379291534, 0.02328859083354473, -0.0024672297295182943, 0.15690138936042786, -0.023490184918045998, 0.26004335284233093, -0.0006858159904368222, 0.024930313229560852, -0.11472390592098236, -0.006437806878238916, 0.13755333423614502, 0.022988878190517426, -0.05518774688243866, 0.17156746983528137, -0.09417914599180222, -0.04545507952570915, -0.06372389197349548, -0.010557004250586033, 0.0078860679641366, -0.1032450795173645, 0.043694689869880676, 0.048250142484903336, 0.2756539583206177, 0.17095725238323212, 0.18308232724666595, 0.19593583047389984, 0.20974551141262054, 0.13829346001148224, -0.035970743745565414, -0.2922472655773163, -0.032120902091264725, 0.021135736256837845, -0.03244262561202049, 0.008167602121829987, -0.08585307747125626, 0.033549875020980835, -0.03978490084409714, -0.0061145955696702, -0.0986839160323143, -0.06553898751735687, -0.14417225122451782, -0.06360254436731339, -0.013636075891554356, 0.05588456988334656, 0.05174392834305763, 0.0752485916018486, -0.18309099972248077, 0.08094384521245956, -0.132027730345726, -0.08385404944419861, -0.012676401995122433, 0.18171775341033936, 0.011522328481078148, 0.07419039309024811, 0.1315927505493164, 0.11799148470163345, 0.22158510982990265, 0.1472673863172531, 0.13086457550525665, -0.07134418934583664, -0.016588421538472176, -0.01941213198006153, -0.06959480047225952, -0.07136659324169159, -0.05229474976658821, 0.0660141110420227, -0.0159435011446476, 0.07271048426628113, 0.041262004524469376, 0.07804276049137115, 0.11598235368728638, -0.017161313444375992, 0.03965779393911362, 0.022547177970409393, 0.0426025390625, -0.05162394791841507, -0.03651735186576843, 0.015375551767647266, -0.016618110239505768, 0.028199542313814163, -0.033680111169815063, 0.00017648280481807888, 0.07065163552761078, 0.004371163435280323, 0.1071670651435852, 0.18217043578624725, 0.12607602775096893, 0.18243396282196045, 0.2231677770614624, 0.03576373681426048, 0.05344395339488983, -0.0022160112857818604, 0.05052969232201576, 0.002283745678141713, 0.014972875826060772, 0.0467086061835289, -0.023073766380548477, -0.03243797644972801, 0.00939863733947277, 0.008319261483848095, 0.019322959706187248, -0.010640798136591911, 0.017704665660858154, 0.013105622492730618, -0.0011770037235692143, 0.013155506923794746, 0.01388483215123415, 0.10308759659528732, -0.011098794639110565, -0.007290318142622709, 0.001363093382678926, -0.01674034260213375, -0.035003554075956345, 0.06580980122089386, -0.01618918590247631, -0.008359785191714764, 0.03947390243411064, 0.026296621188521385, -0.01534942165017128, -0.04311557486653328,